{"layers": [784, 6, 6, 4], "weights": [[[-0.04325211049392149, -0.008836363939487873, 0.004727009475113049, 0.0338462701606295, -0.005046559368321021, -0.04840263593433974], [-0.004218695980349934, -0.033278765789765886, -0.016524694646581167, -0.014220452555070482, 0.055297295435555685, 0.02324311621904695], [0.06686632573001279, -0.07543045992201033, -0.028967592479176258, -0.02152155383338995, 0.057586420165677006, -0.005377338000100866], [-0.00463773935527327, -0.04360656820214104, -0.025087964485438263, 0.017242295802334644, -0.06446798450473454, -0.03608362227382061], [-0.04030636480279189, -0.020000964535403808, 0.053807659877274504, 0.07727540958789865, -0.019913077396833515, -0.02950368592420325], [-0.009438082987537845, -0.0010299252310642566, 0.04732941630516994, -0.05158337507691633, 0.013282804932401684, 0.009989881678432238], [-0.013054468761925276, 0.03155433357445635, -0.05552496923278888, 0.011458991193027982, 0.004255838127905736, -0.025831011076299922], [0.05950494943202545, -0.025580463197086806, 0.005754118225818341, 0.016389951386642575, 0.015285206221085555, -0.042717499708689696], [-0.021532704588862136, 0.02033492406007062, -0.011715747167752495, -0.07943025000443128, 0.00901243492033066, -0.001974135464229319], [0.043634749668197394, 0.016319437312720578, 0.019836760599380908, 0.04766416379002329, 0.0421910466726999, 0.00015154187684647175], [0.06865798411917695, -0.016646620443635556, 0.0378473264810334, -0.0017145399389602045, -0.002092410148226107, 0.033364665913487794], [0.044340735856770376, 0.009939374352407703, 0.06476826397643037, 0.04694018194904933, -0.047701417167526954, 0.11578143540250403], [-0.00243975797375741, 0.002376424954097646, -0.012783856059975441, 0.06119458865735563, -0.020716273048295764, 0.10273126013216478], [0.048291414078539104, 0.03838405766792308, 0.08050152156972643, 0.04423696243090598, 0.06744388816412614, 0.11951688841588996], [0.022721274354193827, 0.04954415694288261, 0.11094829626706189, 0.0023468749861657347, 0.06666692869525279, 0.0028523670474669737], [-0.01915298560802627, 0.03676577950692819, 0.1083012737468999, -0.02149719661705001, 0.02135443667943647, 0.09016509729819264], [0.02408293640979114, 0.046128806455397395, 0.09449947841310939, -0.0643683768527593, 0.008246369803888477, -0.021140287640244594], [-0.0104805783268676, 0.013118819633822963, 0.035194068702196865, 0.023916498254423973, 0.032377610818897985, 0.005825026668324069], [-0.009883412120753906, 0.034752312890408345, 0.053156069996197465, 0.0004575836983474018, 0.02025378469389763, -0.048692629440364225], [-0.010157192383543491, 0.027479438280265615, 0.018917243628130465, -0.05493983954527501, -0.0297729286301924, -0.00781530538706928], [-0.03911727976324404, 0.03265853041072784, -0.024804789470610267, 0.021595584231719166, 0.038759068953103694, 0.0820353248484832], [-0.05109492089440852, 0.034428694902697794, -0.005339090402770276, -0.0014300160804686381, -0.030712741436725928, -0.0015003182254612613], [0.029559975381656525, 0.03723615281257521, -0.010920325828334295, -0.05735525172083432, 0.0787641205359342, -0.07896870350665945], [0.013967862806178, 0.03751454405034119, -0.0001700437518687968, -0.02426395171922661, -0.0024688214607183627, -0.029917064582483163], [0.036958248688668364, 0.0018521991116864608, 0.05570228156544564, -0.0070520538848885955, 0.03293518858360585, -0.012620349430013349], [0.0005448181540527091, 0.005996999181544394, -0.026191545121335005, -0.055319036461982725, 0.011010022355806963, -0.02860502913141135], [-0.05673259331686593, -0.1034610597463894, -0.07013799066924722, -0.01967904388402708, -0.021396265903952553, -0.013590124041371613], [-0.034163930241276334, 0.017792022817435953, 0.029894682138802448, -0.017828497140714824, 0.09433793215952825, 0.008951298942290567], [-0.036271022077040506, -0.00742778692876236, -0.01411492439367435, -0.006141150598330295, 0.06600511842533076, 0.023763818310240093], [-0.05668966081154091, -0.03159521687572743, 0.015074741765401276, 0.022491648198445256, -0.07041265041478308, -0.057346119746653455], [0.032034746241454845, 0.01666057663572034, -0.01990442900600742, 0.005351864085092458, -0.02405971055878527, 0.029460968416153446], [-0.04388936966422157, -0.025915703137340335, -0.0042034391946023176, -0.09876651631328016, -0.021588447047892947, -0.04309723220617696], [0.05080375340965083, -0.04141421453330941, -0.0311241500156797, -0.017419549644176285, -0.04032136165192655, -0.025923487235004924], [0.02393583267549581, -0.017994820211730107, -0.0274724745222767, -0.012835889502589357, 0.0649137481789438, -0.033206077195432025], [-0.03399700423174358, -0.004316883354837893, -0.05266319351494319, -0.004709278680255729, -0.011914143838511675, -0.013196196758813802], [0.025839959419755587, 0.07048079651604179, 0.04523514632916883, -0.027084891952571123, -0.02793641444456202, 0.0378928240076452], [0.04466965961699637, -0.01638739211516458, -0.0012422091413608685, -0.011793470210501384, 0.024639939073382938, 0.12025716377603743], [0.04567327322536068, 0.007228589387564977, 0.06361381852446509, -0.019688851541836607, -0.026569114078953772, 0.028704416897313307], [0.1026420687588442, 0.01442476941426784, 0.1624883773680489, 0.0638206958616334, 0.03046136150033201, 0.06338429228677903], [0.1351620299583339, 0.019067818015194717, 0.03376911015469968, 0.05955442630466683, 0.04893128432991506, 0.10633050019240348], [0.048323756632575855, -0.007865844585195349, 0.11339036641061545, 0.09483593146921461, 0.06244502541454013, 0.1557794631440093], [0.051271715518003164, 0.07111015095380513, 0.08073356951362061, 0.12672047395639877, -0.05428432580413786, 0.10744439008432001], [0.10951173421409198, 0.04451674638824904, 0.040253699354766824, 0.11052879263610373, 0.019596409301020443, 0.13348676370754517], [0.045579428787775315, 0.019021498174915545, 0.11838223614825047, 0.01499311732632855, -0.015576514271453498, 0.008868410563647235], [-0.00880967701368008, 0.042328429217756904, 0.09962983253189911, 0.013056229889990282, 0.058880145633118434, 0.06633875398057247], [-0.035675561429949765, 0.016218947275137046, 0.04426212683290778, 0.01799855242465654, -0.005061780064561363, -0.03294283327647349], [0.02109424281178851, 0.034851066646300735, 0.09961632382189708, -0.0028087469594934894, -0.006990919642614627, 0.014668247190623002], [0.05757691709771078, 0.0314707245153427, 0.04599950865695737, -0.07677856109279296, 0.07111701611914219, 0.03394431340897008], [0.02467107872895673, 0.04367732440127067, -0.049034546421708576, 0.00808636123441771, 0.007020095009090062, 0.02305270612384249], [-0.016658191958819468, -0.011007860016257106, -0.009447793478072224, -0.05666736708818065, 0.02050764966630807, -0.003355223165270652], [-0.09508222271504967, 0.014195049000057715, -0.04499138778984123, -0.03144699598077621, -0.0016300571284247841, 0.01798807076641869], [0.021787050799166215, 0.004562964632799459, -0.0668865021455899, -0.07495373857460429, 0.05381768535145494, -0.016998395944119685], [0.08117837797509207, -0.010546544713851844, -0.05966568715399547, 0.020942751336967942, -0.0327998383956984, 0.027666407569771134], [-0.027874042386738525, 0.017623290551374557, 0.02988167028455577, -0.04538058747470845, -0.0423922723116139, 0.02720098885174115], [-0.015124626001594657, 0.02249018465773292, -0.05093727423436361, -0.050155703371601836, -0.01545160401457662, -0.03484087790701104], [-0.06153855393236269, -0.0784639856604964, 0.04349400137267434, 0.04026970364314125, -0.053747033983953356, 0.04040012692943738], [-0.0119873524431896, -0.014393838978376164, 0.015998030616204008, 0.0053689526312463475, 0.012093767912394079, 0.024353146774248553], [0.00842964055733288, 0.046148445540582825, -0.010514719305752504, -0.013764636767455771, -0.0009476358441247529, -0.025405969595768685], [0.029143010544886393, 0.05027293773196655, -0.015082644261844608, -0.030597838542030884, 0.08240558807534547, -0.0023446576356107003], [-0.08887171547028659, -0.0060616853033657395, 0.066296644412137, 0.031627482746286045, 0.04292533923747017, -0.02360448481172501], [0.01741530323486932, 0.01687735209433696, -0.09023321888151443, 0.001149172375095578, -0.00935898731652264, -0.028540734179380405], [0.012974801248135985, -0.029163744980901372, 0.01663770187974495, -0.04460411638279364, -0.012057150550099437, 0.02251840992418847], [-0.06450624683481358, 0.022467614612991862, -0.010272084043266056, -0.01284436981390101, 0.08200569073546073, 0.042746108730615566], [0.0859357555280323, 0.00030358778757404533, 0.11573141086781502, 0.0043186659663340355, 0.05598556568912798, 0.09883838774640487], [0.007308461602726102, -0.0108529616437668, 0.18173755469202607, -0.08895694965039626, 0.057064348545500625, 0.10127120166792965], [0.017336594726535058, 0.11115075961158757, 0.11610985841233062, 0.061994422951462326, 0.023604916982767208, 0.08148307484110087], [0.0778949708998859, 0.0431086527616208, 0.1120101980013688, 0.04044986570674665, 0.011730805699814831, 0.15701590231258317], [0.039732247337994825, 0.037189474672534445, -0.011526835781667626, 0.11181086127748706, 0.05652974154119001, 0.12184198725265605], [0.055425726966789726, 0.0025892064466600355, 0.09790680943633831, 0.10092054635754381, 0.06153115833639381, 0.042294236105003685], [0.09053512609501457, -0.07072196529265827, 0.12609772581603831, 0.017908216640294197, -0.005010494960061734, 0.018578236583923782], [0.04651846373334611, 0.014307027137526658, 0.031649470413603636, 0.14894851803344572, -0.012424646488347773, 0.040707386623938746], [0.03496000271366859, -0.03834615252512173, 0.028055190755709915, 0.11238174218115281, 0.03828879287158647, 0.0015467727032827429], [0.08064801330801166, 0.02391262412460972, -0.017939287801681095, 0.07105053350496769, -0.00671398357723432, 0.006755028728788054], [0.01819225944440581, -0.0374976102594192, 0.05895643082884232, -0.03102408703380235, 0.03343702850008905, -0.02152975511842977], [0.039399714025443885, 0.03624669972160921, 0.0752199107673251, -0.0011142802214432793, -0.012904781361208338, 0.019697234865379457], [0.00025753745780605696, -0.020802550575719666, 0.1748576505773094, -0.014975596367524399, -0.004512396237738805, 0.06413711709842673], [0.06730599762861963, 0.018798403545843986, 0.06404978783602504, 0.02301060692881575, 0.016857010741693608, 0.0004078155623104624], [-0.0186406502076261, 0.00023938359605660703, 0.01611801682115725, 0.03571504159492626, 0.01875873400151551, 0.06097134741906769], [-0.005949446094620302, 0.03679022462287162, 0.018263604547981364, -0.005648777773072915, -0.02026481728641502, -0.021661467487268625], [-0.04815010458144092, -0.0338950870333461, 0.01052699537692993, -0.02288827579925042, 0.008905911716362009, -0.05478809401358901], [0.063468144400478, 0.016899476989672008, -0.0022688129683613853, 0.014336904806932631, -0.028846044738953608, -0.03839649781294043], [-0.016360197590437286, 0.05214701513347501, 0.018629234610850597, 0.03983023691221705, 0.0188309890453165, 0.002720969601343428], [0.04241536628622807, 0.03761074728234751, 0.008791565323398913, 0.024579126479557633, -0.03990322352388227, 0.02572040781958942], [-0.04587431221925967, 0.048317793315792605, 0.0028385116474145817, 0.025101660774867557, 0.028511885881970733, -0.024927472978362186], [0.00035932086213474786, 7.114456417257039e-05, -0.006487125614843478, 0.022668146879827794, -0.053810639332015804, 0.03221891928382277], [-0.036665710915093165, -0.10861193443113837, 0.00032081485205553246, -0.022550908420437867, 0.014821896864211799, 0.012250810889053191], [0.02736642232954095, -0.028757525913443986, 0.010380553685619133, -0.049022839077811096, 0.0008546543703606689, 0.021707245126469377], [0.024085167432915257, -0.004398872963069192, 0.03179040574046268, 0.014623516005526459, 0.024008912576743147, -0.008032407535784094], [0.04069633264958593, 0.020396475639470637, 0.009133154664014957, -0.014443000582488506, -0.004970328924504252, 0.023591424806382558], [0.012577647218532153, -0.030352894311211336, 0.0005932621539196403, -0.00428407038061418, -0.06899194294639441, -0.02533335942606192], [0.05471947465617572, 0.007479246984036723, 0.04655412756189711, 0.010409811810947838, 0.020482996765008706, 0.02613626178625275], [0.044424460680581104, -0.017285438821826097, 0.12921188278757845, 9.079229976852048e-05, -0.029268716142262043, 0.08780724655689681], [0.0815569534438803, -0.0002823840358849351, 0.08766744332719947, -0.04528082807026913, 0.004026707453619278, 0.05526598643288502], [0.0646597621962281, 0.06288091987384097, 0.09172649112701745, -0.05266859160301586, 0.022429540637930817, 0.11740459259794657], [0.014673020749930179, 0.0011124253317151892, 0.1050909872801456, 0.013054594939445462, -0.015378739788226365, 0.05539143904419421], [0.010443385506583847, 0.024105160299122547, 0.015783046463500337, 0.08656973394919822, -0.027316371007008504, 0.035370118417239534], [-0.07214560084215059, -0.03283509130631428, -0.03861975592998144, 0.04539061561563135, -0.03173557747618958, -0.021018055116193094], [-0.07039063089466856, -0.042706488361473796, -0.005741551361098376, 0.05475548490799477, 0.019151339186891922, -0.013534277303477114], [0.03280068189029522, -0.03856716131030657, -0.007374007392440836, 0.10298078512893825, -0.04799029628559643, 0.048975212199364654], [0.02997111784396615, -0.02718863436669314, -0.13800098932032956, 0.16891038242759684, -0.03663358066935192, 0.0063366155820125366], [0.06953503256247805, -0.06548182372894117, -0.10523456141128824, 0.1487128103982953, -0.0949708915183813, 0.04390645465281451], [0.07752087749528862, -0.0327134839501311, -0.008861288444249181, 0.09070451286456709, -0.05305040189756584, 0.05273955803709772], [0.010703899098474284, -0.02767085697792665, 0.06587117224548807, -0.019094327066573744, -0.02610211160524719, 0.03270649522441789], [-0.017995950774855066, 0.05401982261534163, 0.08430943049483931, -0.035190617153836146, 0.08428275583281941, 0.021234529979030758], [0.044573677257700506, 0.035728774814681515, 0.014644036228305823, -0.013935487222856452, 0.0375109186557794, 0.032272843471035075], [-0.01481337315709363, 0.01235209464380943, 0.0626477026408357, -0.05769153424175653, 0.05850259212449481, 0.0796319190787315], [-0.03533938651581325, -0.02196546146910595, -0.003985874540169071, -0.03889116341336823, 0.001157632420693982, 0.00023737795115988738], [0.062232363641861424, 0.017223062179277087, 0.02725601195055321, 0.05911879727041652, -0.03473163201042628, 0.009642627282543321], [-0.00878731991541989, -0.05527892579940645, -0.03589277702224407, 0.03803874093647945, 0.04319353557449991, 0.05090447898491983], [-0.05129840322705451, 0.022469088905489026, 0.05718855909126229, -0.03367543053647438, 0.027205636291399524, 0.0006472928602332345], [0.03057296269430898, 0.007876412997808035, -0.006180990659364905, -0.06586890330320955, -0.012717866777381532, -0.090318438991869], [0.014407739930883401, 0.011776226514163077, -0.01266268559599269, -0.02762033273940693, -0.03187125067489481, 0.008929521543684893], [-0.006513549623999892, -0.006572283313851671, -0.014859468350256849, -0.01126598566395194, 0.011039973030172056, 0.026183284401803394], [-0.011381566640873062, 0.0179615119847859, 0.012135432739174367, 0.008906570911995962, -0.03752367287947195, -0.04038506186083927], [-0.042412466680427745, -0.09786822268081871, -0.006137888889028294, 0.05343740802708149, 0.035978068154697375, 0.031467369001706255], [-0.020303124665120763, -0.02658628671640945, -0.004621740817354287, 0.01892850810121984, -0.09972682664457197, -0.057697459603851156], [-0.019137055767524662, 0.021258368999517854, 0.06162534829791082, -0.024593383343560423, -0.0114156817124452, 0.044286795121095734], [0.03302575195472444, 0.09472347318457548, 0.034861287630085495, -0.06961570658725182, 0.005770312020110464, 0.026950240906260903], [0.013054445293590618, 0.05528616499076739, 0.10384977955639663, -0.08661905739377301, 0.047742311639959505, 0.07535032897492952], [0.11198572038227149, 0.017027347573198404, 0.08475025756471723, -0.030540470613064193, 0.06045344884980914, 0.0763588597423113], [0.010719933166157785, 0.06585038528082669, 0.06521169971232424, 0.005319525605451379, -0.012761566063771289, 0.15717535292786752], [0.0673396503322294, -0.06255476868448474, 0.06787520556781639, 0.05973712839941119, -0.016978340615798542, 0.05023147058522462], [-0.0066884281481716015, 0.04387518216974798, 0.037079268812733907, 0.06715470944368859, -0.0026691696573439504, 0.08432304466404413], [-0.047932818708667745, -0.044106779857917174, -0.07157385404564648, 0.06681569503208883, 0.023969175441800016, -0.046269880930049086], [-0.07893868138258625, -0.02794977749262327, -0.04637235068996244, 0.004734895667794606, 0.013241934637191788, -0.07961545149219351], [-0.08722642153731917, -0.03753232896324775, -0.006358122742578183, 0.09861174559694265, -0.02883454063743168, -0.08988093608155878], [-0.06802227659278234, -0.04061839891458882, -0.1382128426935826, 0.016779333659806057, 0.030313011759953788, -0.029140125023918342], [0.06782459383643569, 0.08238334285226656, -0.005304912379712824, 0.09936055930541775, 0.009384875194564962, -0.04909581277634914], [0.010700684648112205, 0.02079438825676626, -0.003113436516549336, 0.16860280739957872, 0.021997413650597476, 0.10743708769266938], [0.04085898372254107, 0.04039947388470573, -0.0584291378350373, 0.12323509629116067, -0.04644558844211104, 0.10757819524965369], [0.07121390013501215, -0.0042604913361184195, 0.0332360762911356, 0.05328509009851663, 0.015862254486055483, 0.09138807292888382], [-0.009787780859702439, 0.04228054130157767, 0.10724256710656035, -3.4827526085508805e-05, 0.011109185978574524, 0.09913262504423496], [-0.04816170448155151, 0.004215767937523276, -0.009590255609491753, -0.03078032403165018, -0.008185743229642113, 0.005836421852473871], [-0.05435386887805405, -0.022063474144837586, -0.027162577327656662, 0.021693265354192973, -0.008684038874791945, 0.01640188732875476], [-0.00960342726507093, -0.002795216754949865, 0.09204832349445989, 7.453867654811871e-05, 0.007148211998785897, 0.015206987023480775], [0.11950497380896452, -0.023335818377864533, 0.01973583274816473, 0.003182521299179156, -0.0159808377863271, -0.08443718268073108], [0.014293062356333874, 0.03578754901988644, -0.010816559800596889, -0.003946523491267547, 0.03715695821996202, -7.449501233527731e-05], [0.037954292441063235, -0.01595777459304988, 0.0018022335759035409, 0.02334694105205184, 0.03487971188322329, 0.008597450996243731], [0.01809676017716797, -0.012013826599038735, -0.014567874015130291, -0.039892558002367025, -0.024209942146148803, 0.05254392097066402], [-0.0008492321435130957, 0.022071886875844698, -0.002405355646839237, 0.05189189117885923, 0.018487637511547524, -0.04373274619337097], [-0.025317820801143552, 0.014764134276427527, -0.006410179024076418, 0.00022661956393869482, 0.031089369282374175, -0.04050040309252719], [0.013622145729406268, 0.01901753770405004, 0.03093992439202161, -0.07259479511942717, -0.02665527458501365, 0.047973130198863394], [0.04169450356810526, 0.01843027172964203, 0.10247554182446328, -0.06695570290384499, 0.017360696707006833, -0.0024907469553114474], [-0.04505248563503462, -0.03139787384620061, 0.016875806198815232, 0.021268567806954897, 0.008369952734303673, 0.02498346932340295], [-0.01303667135452545, -0.08411161314009934, 0.005206603096892236, -0.023651540191489885, -0.007782489954262992, -0.02079069976892517], [0.07258260634892305, -0.02143648489347226, 0.00400479257405453, -0.004948861273093636, 0.013720472566084555, 0.04481921910249004], [0.03552118283135636, 0.0802758102205212, 0.09392192807342777, -0.012994183590839554, 0.006626383943790153, 0.04030738197764929], [0.06393119389743362, -0.009447318795176613, 0.1397409477748152, 0.02745631331022941, -0.019913421099370526, 0.03950291838054399], [0.05098623023486524, -0.018212102222895436, -0.02964074989669127, 0.04375548910417856, -0.022052797750975472, 0.09844798692851132], [0.00451823710535374, 0.0022041150462066366, 0.02527941420926938, 0.0710272889486733, -0.025593849522779183, 0.032371739717257125], [-0.03518048424016742, 0.006651054918931842, -0.0016369965516838513, 0.11765082735484579, 0.01949902330966741, -0.04595036449472044], [-0.07537882913721101, 0.04901794850977122, -0.08320272383383358, 0.08930809050703559, 0.01065311671649053, -0.0014695771241872435], [-0.053399262887528824, -0.026850608211177417, -0.11910090108137443, 0.04385053656307678, -0.09331457234648449, -0.09541449546284675], [-0.062160836305582085, -0.019376678725948084, -0.03891319153311455, 0.05822076558940715, 0.04733718431779029, -0.11260619444892334], [-0.08595721606122067, -0.05596668980118572, -0.015233258361677863, 0.056950818455701456, -0.054496448394430866, -0.09248199830544833], [0.0536462313626083, -0.03767538110639352, -0.037195557313896614, 0.03977401738880988, -0.0015709288443773398, -0.027585673037001723], [-0.006762354512118499, -0.05981858840970759, -0.018370783610442684, 0.08798766700199585, -0.020374771283314125, 0.04482478131439806], [0.05925025838270842, 0.030581132698215528, 0.010136206894197919, 0.1304016194883864, -0.007120288418711946, 0.08409491890460837], [0.06163432582432737, -0.015642385626206554, 0.038118391702557194, 0.12059039373664983, 0.005015741324246557, 0.0037274630780925427], [0.006844508241468387, 0.06855812144205556, 0.08253515976657132, 0.03230864852935651, 0.033873004839457856, 0.14565451927668235], [0.05227397135241189, -0.023802021604960328, 0.12061298710592343, -0.009078635271567846, 0.021580024230440087, 0.032217945960940325], [0.008190293490169193, 0.01577427887797265, 0.014346128053095526, -0.0538509721785568, 0.011935584435483999, -0.02121190333364429], [0.016117424668468976, -0.037585096625082456, 0.01862300401264764, 0.02665591236669193, 0.039208439142320126, -0.010159101925751035], [-0.04340026804355788, -0.007706065748734468, 0.03161181525093121, 0.0008056252507503001, -0.004750402372026117, -0.013960300766434014], [-0.06848028989581206, -0.009473654428660749, 0.005713334335345477, -0.020637205830607443, 0.06578552187880106, -0.04682698677535252], [0.008199398639570555, 0.001882221387250275, -0.021056645437520786, -0.016150066219626214, -0.04070913898175327, -0.013087604454657916], [0.019941774896632406, -0.054068726623225684, 0.020390105928874167, -0.06756485383625115, 0.02767556543828504, -0.08345532017033372], [-0.012150601024214006, -0.024697600391547524, 0.0014104547603733108, -0.05485176915710398, -0.02935057678373033, -0.002102968640437208], [-0.05237746478333292, -0.022981426748981633, 0.020016302017061914, 0.02418067398145011, -0.029365723197078874, -0.08315465089808972], [0.03135486181566451, 0.030255213165490458, -0.022198771587356884, -0.0008845508348097002, -0.03495303545699493, 0.017890818648293626], [-0.030503246544239075, 0.010370115891776647, -0.02098451110639337, 0.016272781430875766, 0.028391273260859662, -0.05960343871486378], [0.034377253884451786, 0.011243598233991084, -0.0017418078447063521, -0.025605717118337003, 0.014282597090634756, -0.0554679372985352], [0.09862873755010514, 0.002182323465495401, 0.05843055670914221, 0.03215795392104611, 0.03160460366265332, 0.01968881480817336], [0.014706828400776684, 0.04533642945160452, 0.022551915207068493, 0.05924637278398884, 0.08118119026584684, 0.03296159113884447], [0.05792255332935479, 0.030027341257415047, 0.0117306084021913, -0.01585152888787887, -0.0009101887459291153, 0.10177950513375827], [0.009480876933424903, -0.012443404029640911, 0.1443694945521618, 0.02489953648528034, -0.03548298539492386, 0.030933144754073584], [-0.012722517708623019, 0.034830650296981784, -0.01481788419622915, 0.025126238011269127, 0.012617068612426922, 0.03250596289356748], [0.011758973398100479, 0.033220993045002895, -0.06069424036711658, 0.07191250750468836, 0.014542966756582199, 0.03269945773208371], [0.035108286965124295, 0.0750660894384178, -0.03742160603207264, 0.03426487452983843, -0.025232049523395795, 0.002589113674514788], [-0.0048830236834769706, -0.08318951282747024, -0.0939826568919232, 0.03942482415234798, -0.04427362034660555, -0.05532479885934234], [-0.10138628057630153, -0.05371865672731075, -0.025374309776798117, -0.03528654723568848, -0.022095168993927054, -0.09844454613091348], [-0.018650400105369506, -0.036667836356425884, -0.004175790190733191, 0.12167058314551327, -0.055446637523317216, -0.07492342679276942], [-0.02878148277914628, -0.07331926497502743, -0.0625837586199662, 0.050468824143384584, 0.0069996921571226535, -0.06831217494563213], [-0.004880704476370096, 0.006453099485189921, 0.0866309538395452, 0.02139289947474255, -0.020349509065507393, -0.02428000154632186], [0.03034483630450054, 0.05745110134094113, 0.034771959563851144, 0.00939294183272206, -0.03854742518507887, -0.033242916172905715], [0.0019624994021312614, 0.006417278732001221, -0.04450977631341947, 0.026109445765633083, 0.038561678975551766, 0.0129081528465848], [0.05862028513960273, -0.011508036177612828, 0.05263799984345988, 0.13728791873010557, -0.09693490975842704, 0.012099897013754456], [0.035389551324200595, 0.061624871588416744, 0.09228512007807373, 0.004190746310458964, -0.00021389948403524378, 0.006034585624227601], [0.025695897271023605, 0.09439187167320615, 0.07210869676110632, 0.04026480731915819, 0.00865793858106516, 0.03438529968683669], [0.05100580814274612, 0.016462679752308765, 0.06421974051381119, -0.014745793773172191, -0.026985125206150727, 0.010316243689922478], [-0.010634162934872219, 0.02340594194092113, 0.07743483886680458, 0.06199762422073212, 0.01330915913892432, 0.08027490249769821], [-0.04913442902859556, -0.00130859347712115, -0.04020735231435844, 0.05580729350992633, 0.0017668407176759347, 0.019575960731208902], [-0.02091413068762347, 0.012424844726530613, 0.008605953250619186, -0.04356022048353945, 0.011455321926347337, 0.007150207148340179], [0.042885597294618875, -0.01792337627929744, 0.01596672674038186, -0.03508800899601983, 0.00935428575519134, 0.04192662061694667], [-0.08268192027139534, 0.003957515735386598, 0.01342168898252062, 0.035209218164176444, 0.03579927925616897, 0.005643754999096079], [0.0694087664171005, -0.048083447878614065, 0.04914843607511023, 0.007075977455094758, -0.03464699732611197, -0.04863111417685873], [0.0029387879704929286, 0.03220574777756361, -0.0024071654797004397, -0.06905550150954172, -0.05953237827236092, -0.010619295460746516], [0.025791993097072398, -0.014660656427346246, 0.059802769303061214, -0.02653974150083264, -0.008559561778510303, -0.046637440681670375], [0.03607344418681568, -0.017541034177818653, -0.022903026583166803, 0.004768013533833875, 0.04384813094435488, 0.04292044065242697], [0.02992974423013077, -0.028422705889190058, -0.05109281581725713, 0.020651836512133034, -0.03251830684141067, 0.05128724631911119], [0.006840980437653895, -0.051146981772347076, 0.0532027361427792, 0.06494367950597214, -0.03082015481618079, -0.039717584438135306], [0.06416514667427112, -0.0039197517482091535, -0.042986063303396764, 0.030929952657693677, 0.06280359723941842, 0.04976175178822829], [0.095345811783877, 0.013289381272327651, 0.11274371659325853, -0.020665683455785074, 0.03466783135810415, 0.09471679617400729], [0.05746459836175361, -0.0004983046143075639, 0.0429201208736854, 0.054862407628333165, 0.03412857223722659, -0.009860155389793629], [0.02486772712629158, -0.009802971854793932, -0.03302160025327757, 0.06304699654831272, 0.00023980193482035057, 0.05752732590923312], [-0.04433829057844937, 0.015540748159011594, -0.1176675303999346, 0.07678420197276042, -0.06300815606736221, 0.021334873193632777], [-0.018424994845128703, -0.055276648243293876, -0.11738727690091756, 0.09683212012011597, -0.003690852126290405, -0.05529461311977533], [-0.016881400761314398, -0.018925939030839313, 0.043235370888580274, -0.10443552222632654, -0.003969569399515033, -0.06357175905735088], [-0.0974179549234242, 0.007626148879729687, -0.08529481556260085, 0.06823582238170238, 0.010351953245091174, -0.11360310026249561], [-0.05526592615164468, -0.05237848474315811, -0.10430634443103931, 0.0506633567628072, 0.04888990023100845, -0.035892597416461], [-0.055227419171591595, -0.03917230111007153, -0.03579728404188871, 0.05994006476130046, -0.038870345221246064, -0.002273771105776856], [0.003949388106557245, -0.05220641295650194, -0.0343048725274927, -0.031464251220844654, -0.020110745994576858, 0.012749558855516189], [0.01220443261907322, 0.03861408015495923, -0.039202098968546345, 0.0589014231707877, 0.045284071342488574, 0.03429024747368195], [0.042304725514887086, 0.03628799338793406, 0.024633607495097496, 0.01760785623757462, -0.024841179009791797, 0.04894626537236535], [0.030573020879262808, 0.019089111877458265, 0.012302494990617847, 0.0454783417364463, 0.0051807573272983415, 0.05723114421381541], [0.10326160251132042, 0.022345996729056693, 0.09904143551572986, 0.07716649154091106, -0.036471801448346206, 0.0891427337801081], [0.05416504821006259, 0.007139962992925299, 0.06695442782268869, 0.038601882741211645, 0.05499445719349365, 0.04532127523483884], [0.03885300132788481, -0.01738907875090799, -0.034782592020791606, 0.03359910679932654, 0.03416829041353851, 0.025499704492319534], [-0.007208325960380385, 0.042606171221793075, -0.08317966407882073, -0.0032328357854613512, 0.01661191022222841, -0.007863921803576238], [-0.048111731161978956, -0.0437132417707656, 0.05252706692938483, 0.03965320468899957, 0.024973389023453318, 0.0002965851360357344], [-0.01248675980904639, 0.03947728016113063, 0.10211400054076082, -0.008869753306793189, -0.0021260020514638866, -0.05185660019598188], [0.0052128414296983405, 0.013346064234223668, 0.05980281704764045, 0.0053277707757554025, -0.026582011797145418, 0.0034171197148641324], [-0.03949160114004535, -0.0439654326643316, -0.015819351709782308, -0.039764454620419186, 0.030273067948885863, 0.009677912505890215], [0.004260450070405582, -0.006109615729574387, -0.011778035611858723, -0.040637367794776606, 0.009704058528681683, -0.0311677284671104], [-0.04775604098996032, -0.012180814563488294, 0.04706479252706689, -0.01884901187037993, 0.036747346319810505, -0.04761414455192293], [0.038981195898530906, 0.03709088031110637, -0.002871751954336537, -0.0024818103876957736, 0.013479621266856891, -0.01079305751010745], [0.021357333346542818, -0.04768151415740436, 0.002702914696388707, -0.029289382747711142, -0.0417247198269159, -0.027117509421234993], [0.022764159163089267, -0.017944845164823798, 0.04873871448985809, -0.03209315013391062, 0.0518873361091038, 0.02045954391987595], [0.041749436496986383, -0.003560791587608013, -0.012895490482205292, -0.008102359506963945, -0.01991895401375711, 0.026460554373076976], [0.004093932205196422, 0.027097788213691947, 0.017498008676685245, -0.0035444005403313106, 0.015261231182592752, -0.0006084875944369189], [0.09832638170585427, -0.03472726854042573, 0.02916878665765542, 0.04435166410220076, -0.024174829508654537, -0.059672988123267476], [0.106123519027614, 0.014850850495772831, -0.02534240992588326, 0.0006034401797002926, -0.0338187294323191, 0.035989037461170374], [0.018587839975892972, -0.025688373202742285, -0.02365787237735675, -0.011130444116181606, 0.03778255080695699, -0.005626616939585951], [-0.009874560989309238, -0.09900738380691969, -0.13886695935897517, -0.07588500390137336, -0.05430577008673818, -0.0178396216849959], [-0.025852143418858, 0.00821358176899782, -0.04332125077157844, 0.021350682320301385, -0.007666412734299644, -0.05400250364722449], [-0.0630314439553236, -0.013236823305035195, -0.01128281869320682, -0.03045589032922441, 0.01626671832870545, -0.02458293596914273], [-0.0468235136493906, -0.054993705167858425, -0.048716450546323745, -0.024812525370817014, -0.019257704084112995, -0.059914544706381224], [-0.06675958927314352, -0.06318075495893169, -0.012522780505550078, -0.004395180629634609, 0.009548072532434023, -0.06891429604690064], [-0.04275069513173208, -0.020503308974515286, -0.04173350615831493, -0.022017261145293333, 0.0018353440276280542, 0.016872589853769233], [-0.009721547981195835, -0.03767340418391174, 0.009467614562357845, -0.014339871056602914, 0.00905299702911217, -0.050003468509036086], [-0.033633037327181405, 0.012098353994020802, 0.04082200381808019, 0.029870349945274828, -0.001116789895518407, 0.006932654551787603], [-0.02205291333709028, -0.032634075101760744, 0.03199157120428404, 0.021463661163266083, -0.012344192721227215, 0.02074904565529246], [-0.031686423320743194, 0.021934236154233348, 0.04794617558979965, 0.035119982717360824, 0.0490026452430492, 0.11582540700922009], [0.0715369328567657, -0.027158323872710954, 0.14079027522686946, 0.03413312622290835, -0.05041334905325847, 0.06590534974026908], [0.06495506820586394, 0.027122104861541357, 0.030886450254662426, 0.06166856676342052, -0.03777486264749041, 0.08734266722083013], [-0.021192439878825676, 0.01899047461891203, 0.004822330039194561, 0.15071944274052315, -0.05219774674471493, 0.03493392635070704], [0.06243426516885731, -0.021103145356680158, 0.015689750518329992, -0.012804398156829266, -0.003156485981457295, 0.06075844141841833], [0.0343185578513652, -0.03920053949953307, -0.06419749283782743, -0.019601459082773748, -0.050404775557948076, 0.021963820394250835], [0.028829255490470725, 0.014430443131285376, -0.01768056091387834, -0.009108840245748385, -0.08137537369643552, 0.05904982377772416], [-0.0057993762738610816, 0.02300683553162528, 0.06016651528507112, 0.015235922696737639, -0.018634221871700912, -0.10204151568584438], [-0.00781354116094914, 0.02993843447100469, -0.018493190824104094, -0.04259385460993194, -0.003119520994741797, 0.006089053918418845], [0.028718607646921072, 0.009614566119716892, 0.04583200422368931, 0.011482791928809593, -0.06076043543746302, -0.008177210340230846], [0.024546133889011456, -0.02032820569531895, 0.04053433060724888, 0.0017395965888287776, 0.018187195543206764, -0.047097841500116054], [0.002107299639806441, 0.03515770543370766, -0.018074833868326628, 0.018469422754376907, -0.10434488916716975, -0.006670088323371207], [0.046890555874704316, -0.013087889018465672, 0.007605729322462644, 0.020179370539808318, 0.020991174991082964, 0.007761272956671228], [0.023043390524551902, -0.024786215121696896, 0.004561181033749001, 0.05490476752164506, -0.004627421088562935, 0.03276958400984097], [0.07355957988405443, -0.027165911618972218, -0.029552551845904152, 0.00980391694138299, -0.0046622233428771824, 0.024290010825502712], [0.045230594195157056, 0.063309916221902, -0.06139451361274519, 0.09146650669697312, -0.07684996805365535, 0.018859955366413078], [0.049319958761273194, -0.006305679495118613, -0.007190349076456354, 0.0636582851908878, 0.004502295113878793, -0.04337038252311072], [0.07507210808838972, -0.0009928391747140752, -0.048068433809490156, 0.03975982599983782, -0.002013077375851357, 0.0208933585874169], [0.01324027513848232, -0.013057827599585863, 0.04245801166708527, 0.045772045328918404, -0.012935085085308749, 0.04999873438647721], [0.03593964179630585, 0.01856748454278468, -0.031499732954311244, 0.015051709538692533, 0.003758281006364171, 0.010711935586611768], [-0.04565254989343243, -0.04019984037183694, -0.05025852756101416, 0.051580088262991305, 0.004814815089092368, -0.08365560054690568], [-0.0382407205959867, -0.04894603518562894, -0.030918412729118133, 0.014261232695944235, -0.07321725694811274, -0.055842225426822045], [-0.02858412263545221, -0.05285287421190304, -0.047021869058353594, 0.011609175521972421, -0.008587943982217544, -0.06978517471890562], [-0.041772859849072086, -0.07408267907810685, 0.018616781861308378, 0.06548076832136228, 0.016509681460637412, -0.048622921506442214], [-0.03638102190495682, 0.014107540982688745, -0.03857031281937152, 0.02083694834771114, 0.03086268097781135, -0.11041199704786636], [-0.044714448424615826, 0.05512839712919259, 0.0900741309658592, -0.04927369035559537, 0.017587563064562776, 0.06412001449573407], [-0.0029809045500597126, -0.003965813852879885, 0.03256368698435254, -0.04294223218579269, 0.04358962514774521, -0.05818063023854624], [-0.014048734175251501, -0.02427020228369742, 0.01753186192888954, 0.021767006546869083, 0.017981878351450254, -0.09901823755506757], [0.03542319478599045, 0.07429695770389326, 0.005573864196779148, 0.004918862319611597, 0.01607917467640703, -0.03642326365273783], [0.03946520336007024, 0.025685314445080216, 0.05299650594116356, 0.0715222481891197, -0.00835100440639615, 0.03956802145839844], [0.08160625165351716, -0.014990641953653823, 0.00693568492200879, 0.019646246949730207, 0.04183117086956272, 0.09303726935899859], [0.010739996207340657, 0.05205782222880478, 0.009436481629578101, 0.11434624619141918, 0.009292557263790482, 0.012784672394471624], [0.07920431535449057, -0.08764551225462264, -0.007267017233512718, 0.00942013057897599, -0.05258211736846857, 0.003341665338095793], [0.021753926507286893, -0.07564819111443863, 0.012428203427695841, 0.01845699071457086, -0.006688242395458283, 0.024610596720847127], [0.083257502227739, 0.006939126043427857, 0.010463222762665871, 0.037342115666815, -0.016047912991117373, -0.0207325506679057], [-0.006880880948155734, -0.008610618362696663, -0.025392829506570375, 0.030421199771263684, 0.011428649095030973, 0.012618281671099853], [0.056913757674058145, -0.0036180875484002396, -0.01375602392662395, -0.06971887374885241, -0.04191664946443593, -0.10690256633394724], [0.012576672791707075, 0.027891307768268307, 0.06620220778622131, 0.006787297296266373, -0.01539149266380704, 0.01722545104178611], [0.09147829100394812, 0.02265229163768342, -0.03962308780030369, 0.004614179035754408, 0.020962500750521283, 0.007361075104490474], [-0.0033909619888671666, 0.022814090223306865, 0.019586985945730717, -0.03574561420510967, -0.003916733585641793, -0.00482042689327968], [0.042009928886376946, 0.004309281684778496, -0.03380887796168729, -0.030236666455782824, 0.025468508651194367, -0.04499819444358114], [0.04794667378736375, 0.00968377592154368, -0.002986746560724434, 0.0035738488410337874, 0.03829827474553728, 0.04967264892423826], [-0.056494432569563664, -0.04963414868277466, -0.039482200107970294, 0.04771943557806521, 0.01896548358018544, 0.009914036859608158], [0.049998292170270214, -0.02802792199031707, -0.05634063219358081, 0.04663206460256704, 0.04462417436101024, -0.021257030900781584], [0.01639367172814627, -0.030331891520366503, -0.03819313068293051, 0.1049888434388533, 0.006911467462181731, 0.035866296627340845], [0.03027911973240824, -0.01962231490777869, -0.03471924618850723, 0.08839006850215063, 0.035334163871127804, 0.10803639656132497], [0.04740965755056949, 0.01739214941549619, -0.005107242689053438, 0.02322249177629959, -0.012301565318894847, 0.026631798776024285], [-0.026621750000623313, 0.029982249047826506, -0.06755153357769215, 0.050360151443381164, 0.023982856079047384, 0.015401165487899568], [-0.0847380982908681, 0.0013265034843160687, -0.0033534262803472823, 0.046234697574874216, 0.03852214312508198, -0.020989841296648815], [-0.030418124081829125, -0.01049280044116337, -0.02766890781140589, -0.0199136301825071, -0.010662045353973961, -0.022338849929168365], [-0.07027912127862368, 0.062498548545593634, -0.02407062047301945, 0.09492827455910809, -0.05882394346549126, -0.03874673415894561], [1.196826718613903e-05, 0.03616388757663904, 0.014588070282846746, 0.026220238554254992, -0.043920840224719, 0.0010733547099912508], [-0.05726081523289266, 0.03426868922602009, 0.07091523056341101, 0.000624658915134394, -0.034942654077519016, -0.022540569000752294], [-0.041034938494380245, 0.05823804727275623, -0.022336760732621346, -0.020861799373465995, -0.0001573163447967915, 0.04996127605699478], [-0.07121158731714884, -0.007237564546724714, 0.06903674813711685, -0.029446795431100632, 0.002736851256152018, -0.013474808564410407], [-0.03471188944550607, 0.006364941458626617, 0.06310214280767401, -0.09867091404317817, 0.024908706008253012, -0.0044038751076387675], [0.04276680876467803, 0.08386638467826352, 0.10425951305929591, -0.09206448825786775, 0.02281748909637251, 0.027516779051839232], [0.06535456382190519, 0.09053388601556478, 0.0004540124995578946, 0.09433357479316513, 0.02853549586638905, 0.1088623966970347], [0.0646229145359244, 0.04688779593641904, 0.055104814405498456, 0.04530180839814294, -0.028830885427734675, 0.020326631389723522], [0.04951792570961578, -0.021258706342914494, -0.01757255133943081, 0.14476981997331592, 0.004812508538093133, 0.054816741874277916], [0.04381773025395229, -0.044039278124513595, 0.018652028355892532, 0.1023281587465302, -0.0001835996655657204, -0.041305708148438536], [0.03179862621752508, 0.01844634973706455, -0.017551329449883177, 0.08545704459606708, -0.05924575430826572, 0.029450877100754707], [-0.023135949939351082, -0.013094533836675526, -0.005994945496026525, 0.03172315582987806, -0.029162482476856252, -0.029408665753883675], [-0.007458194314350448, -0.0031737267664154437, 0.011214280816804947, 0.00907303544100166, -0.03429920430905301, -0.06719831920816485], [-0.0020328244747517435, 0.014825915652401276, -0.01774085388982969, 0.029689307978503308, -0.020166989292961353, -0.011711956128961514], [0.00276244541303381, -0.01745411279635165, 0.026620007370375443, -0.012380094031178882, 0.011673553014661301, -0.0328500412585339], [0.0189548014584074, 0.03401560555032333, 0.02239699647586209, 0.026957909160150662, -0.057037182361080116, -0.022809509891580707], [-0.010472939315968315, 0.022068441926440842, -0.07187720311795495, 0.00790507772832478, -0.05272874915168081, 0.04258594915030443], [-0.019524983939849458, -0.03638256151178296, -0.10046942603720621, 0.01848987378523479, 0.0029829682259009077, -0.006586382289228341], [0.026674352643219677, -0.039456696644833714, -0.03336012312396526, 0.07666583959579351, -0.025454346669028308, -0.027330035291089388], [0.04982134828725688, -0.011297830070616582, -0.10949550203867546, 0.09482419517657588, -0.0019499650357279739, -0.047962042999466235], [0.07042936290621964, -0.03218040384223883, -0.07317282874583907, 0.12458656601854706, -0.019574321869799963, 0.05850545752968044], [0.07176155215790808, -0.03792486597290671, -0.06357265352734522, 0.1658214273836513, 0.042736268837630785, -0.0007241177797337419], [0.06467756174287916, 0.031120623185286942, 0.016298495091798117, 0.10732548213200033, 0.02699855617887935, 0.08162031420542078], [0.04854694370345288, -0.04842375012729547, -0.014100407187752436, 0.07568023418357049, 0.013347531637644842, 0.0698470131241628], [0.04162497889308407, 0.012832203985466875, -0.0333510162549858, 0.05690716506223311, -0.041138789766406426, 0.04335038507927593], [-0.009771983766983988, -0.019238437357447367, 0.026041999426074526, -0.03493680281682771, -0.02461897758622263, -0.04074298063782013], [-0.05167624587214662, 0.05232825291668941, 0.049505895483628846, -0.023284863599637207, -0.05936519321774657, -0.04240618406736087], [-0.08695215821909516, 0.020755196437161363, -0.038544590923030246, 0.021256462024001423, 0.007620812849168157, -0.07050244511296355], [-0.09466504822643429, 0.04913216236653886, 0.07813632622690488, -0.0025762292404609925, -0.06052680860700962, -0.018561040344068143], [-0.1594626445284527, 0.034030241649670424, 0.04284162152213999, 0.050942641456725946, -0.026275111335694, 0.02687535199533467], [-0.06372528916071328, 0.04844957908637642, 0.12295028178393447, 0.013983339368535188, 0.05728306717161316, 0.06748219955619385], [-0.09051490790878883, 0.05318953737675591, 0.06326703666378139, -0.0923806820253613, 0.038086633291584925, -0.015914925176349848], [-0.048642421567883856, -0.04112400882899146, 0.0655661501141521, 0.01996091669872969, -0.022010714077976928, -0.009573881599753255], [0.06355655290575077, 0.07566837001215682, 0.05582088990249791, -0.041051138468391535, 0.017716176043498108, 0.019954960861483535], [0.045744707305383256, 0.020691531380297064, 0.05925342576968233, 0.017397192929697484, -0.03743762276930476, 0.10556225211836148], [0.0968327112669372, 0.0015745150645242096, -0.018385092176438224, 0.09533135981523372, 0.003976385674860051, 0.025174313351040364], [0.04934689735006397, 0.0217110766266054, -0.05473328938582926, -0.01663256115611982, -0.0028880135398996923, 0.13003396528157724], [0.03333864150350258, -0.024567022001852703, -0.03003616841890504, 0.08609914792552063, -0.027311340849294242, -0.0585455887084042], [0.001478051344741426, -0.036746845240884486, -0.0031257577331995066, 0.04590263222816257, 0.015806344997416587, -0.003349893940550985], [-0.03434107717806221, -0.05138721022402363, -0.0198398536858847, -0.038521243686219335, -0.010261896334893295, -0.016604695795338322], [0.003514842586614795, -0.00808403053851637, 0.03206416493840748, -0.04028015676132005, -0.007591365552882573, -0.015731000921514856], [-0.055026049777166144, 0.0605438495792559, 0.04655304606209003, 0.03072635248511296, 0.00933479433124287, -0.03976055948376646], [0.0036039468223358294, -0.04303496712230705, -0.014321420965334078, 0.06611321186131873, -0.0237409827932217, -0.009725046342859254], [-0.018794635593848304, 0.02529845644733842, -0.001240050028877192, 0.0007621383609889374, 0.021479849273309214, -0.030376265509911925], [0.04924981342925255, 0.015312173810952266, -0.009679349016178451, -0.02182947238784593, 0.005243220949541275, 0.02285296058281131], [-0.019765549626523393, -0.057248815090068794, -0.003364931070132481, -0.03126504144730919, -0.011818724606678651, -0.06521302713357992], [-0.051438012412665345, 0.017382423587953562, 0.0025396781494523633, 0.07200457846637572, 0.027829889827638513, -0.01416260346982823], [0.02474219009410703, 0.026084565663299322, -0.03131537352473568, 0.045208374462980296, 0.07308710452343829, 0.020159810771921655], [0.018705785448748066, -0.01946238508511983, -0.03844183055472694, 0.08014687765640922, -0.036691951486100716, 0.023690469715043343], [-0.012410369635919278, -0.06011267675891184, -0.014744615983910891, 0.1139393110967594, -0.014093768809310457, 0.07465436971960115], [-0.016671973088122898, -0.043569798629985904, -0.07806102169757373, 0.13074869949364604, 0.0027620681294453307, 0.08636351020004135], [0.0784763828322913, -0.039025976177846367, 0.03226953346259728, 0.0519991110222876, 0.01823370172128549, 0.06814593855250767], [0.0628284332891826, 0.04707906307209786, 0.0024789226417058045, 0.06747923490999796, 0.04308664034831865, -0.04742398063387671], [-0.006939269226364976, -0.02393440206692264, 0.042260713929730874, -0.005536922230387422, -0.03354245023746421, -0.014542127783207119], [-0.07205093499317185, 0.043977963172880365, 0.05921484608297738, 0.0070211398516964755, -0.008359760234658396, 0.010919360108632864], [-0.06312579138881874, 0.061377018918756264, 0.03952919156613453, -0.08175025242250128, -0.0069849685049793945, -0.005276627769666401], [-0.13458107378940798, -0.006890858734207782, 0.01446834812128624, 0.04661814749021596, 0.0004225651341620036, 0.014927850889858305], [-0.1078555481032266, 0.021756991760067502, -0.0007960016878697064, 0.02284769765254541, 0.02426179066251161, -0.06448757895115644], [-0.11654753930170586, 0.08120026813497269, 0.08668645686535888, 0.005521880105467611, -0.029047534802595584, 0.029880054897651023], [-0.05785253176767806, -0.013431434009661868, 0.06613790666365862, -0.09149620472845237, 0.06309270406037908, 0.08431217913449562], [-0.04635246730387206, 0.026827953842748584, 0.052751793730993715, -0.08334316972418722, -0.026852652601747535, -0.0031450550981819425], [-0.022315399662047288, 0.04868707464949431, 0.09322172089533097, -0.14357012842447492, -0.06682573357198035, -0.03356709602680418], [0.0083080302972703, 0.06201449404728934, 0.054992569949431726, -0.041441045279223834, 0.03267907812435748, 0.07316378502749485], [-0.012557395202270227, 0.011554169379527048, -0.06064246830098663, 0.0062879274874176995, -0.0246656982474591, 0.05294376134121871], [0.032083083242609674, 0.034225306618551006, -0.00027057902665621214, 0.057309416667706815, 0.048644704246139626, 0.027974627895184075], [0.03429231325755552, 0.021004517748791036, -0.020954425989087686, 0.11577874596297338, 0.02513653804466616, 0.005452995317378516], [0.06260860469908242, 0.051459115832150154, -0.04647066142542474, 0.015374333441000452, -0.05416177507070933, 0.0298446476564158], [0.05203261958935315, -0.040231075351968716, -0.036543456453706796, 0.0392336217647415, 0.05340418505535589, 0.0423819356255792], [-0.021575319048080705, 0.01805450047022414, 0.03299156562354089, 0.013648268020016258, 0.012503832577388838, 0.057383795950060545], [0.02001690399643646, 0.044394146807973475, 0.01962039697489351, -0.02777084939908488, 0.017503257532279097, -0.006028533300198355], [-0.028224163927298162, 0.033108560435402216, -0.04809942487392253, -0.024170709048692552, 0.0690673324651666, 0.010608847304663315], [-0.018056415400017282, -0.012375750376477049, 0.03247770926260245, -0.03177181967715219, 0.01101501403553185, -0.0424571185472891], [-0.02825742531260312, -0.06572024682302953, 0.04724442560153321, -0.008926739719848637, 0.009867737170405764, 0.011129990523194801], [-0.02785279527112226, 0.018453422204323583, -0.014984349256689875, 0.07921779150091997, 0.0032106002735878274, 0.0418936044952243], [0.04793070790556781, -0.012740749819983231, -0.010929641528795692, 0.10871033474200412, 0.026045447478970443, -0.006836712859844719], [-0.019364807670996655, -0.02177543421636882, -0.025123062811157865, 0.04958896133106182, -0.11751502587539676, 0.03584436675627469], [0.062101661985396725, -0.005850096499300465, -0.0010957515389648682, 0.07024570815207701, -0.007157881734947807, 0.06545678283532709], [0.031930574336533575, 0.0012080618734382432, -0.04140901704664139, 0.13532729187701156, 0.016759278351581766, 0.06391725414519916], [0.01998345400360251, 0.014181733286233459, -0.11333235184195814, 0.13530170281291065, 0.021348334545389116, 0.013931170400823248], [0.03528650239364759, -0.010155902118484574, 0.05155844961415322, 0.06282121293029559, -0.053268935854236824, 0.03115168964319798], [0.018204748861450383, 0.07913680120629617, -0.03293686265635685, -0.05521144619327833, -0.0030621972443149854, 0.011988304414724621], [0.031789867801569505, 0.00615960085046028, 0.005639455964866715, -0.04165045377702282, 0.026851916599753906, 0.030438794673641068], [-0.06254040810923238, -0.031192322905076543, 0.013548695980984337, -0.0277974136972492, 0.0065262124802334155, -0.05592949788865258], [-0.1250302595572139, 0.005270180554304478, 0.034982025000082496, -0.005351227510806031, -0.011323175386048224, -0.06820187371107189], [-0.058346098032235005, 0.09707274927232314, 0.045104551374874666, 0.027641727365301648, -0.0039321835936535566, -0.0012490078310496999], [-0.12299163861455954, -0.003900604614099236, -0.041804209038928564, -0.0360461130953036, -0.009355116213075911, -0.036350738245279485], [-0.06825108761942378, 0.03622483602038035, 0.05393645431146321, -0.09996180290760631, -0.023887641595662985, 0.025342500311714304], [-0.0965195987123073, 0.11601002087138701, 0.08652025981089137, -0.07087584052330138, -0.0803624493075692, 0.0499550598048117], [-0.03806385386476142, 0.0482094976517664, 0.06935339937530129, -0.03699752112979147, 0.008263819103561814, 0.023552376144427196], [-0.013911051360128796, 0.03784977703246814, 0.1659914268092044, -0.0768067455608134, -0.001956645141203081, 0.009151932564683652], [0.05291447779827766, 0.03053020375498001, 0.09958196222299696, 0.034407135160448035, 0.01886061978958322, 0.03248446953106559], [0.023511175777455203, 0.04979680156701647, -0.0011693229359343563, 0.11905034548322266, 0.08512124414245507, 0.12465178264061359], [0.04420838144675661, 0.0758745801070714, -0.008996745912702941, 0.09176889011398023, -0.03690996422612022, 0.10683141076782486], [0.0693208520146036, 0.03124226258621593, 0.006193691211839596, 0.018399333006688754, -0.0004722360953907378, 0.0027386252953442427], [0.011217963202574685, 0.017018793637528885, -0.057264726658895856, 0.05657559238940634, -0.0780110597035166, -0.012156702764440214], [-0.06059495953309682, -0.012927718426798539, -0.055737418255314274, 0.0007882434405815966, 0.053217864693931236, 0.0391324517599989], [0.04029373994256113, -0.01713229343216331, 0.0026351948891380882, 0.017692459837204043, 0.007066729751295368, 0.006217122520978061], [0.02401859333288495, 0.06413624125042863, 0.04941903012636995, 0.07075363054828067, 0.0009767327458841822, 0.0308005305831462], [-0.029305447869051208, -0.010167086509592468, -0.0038507488390303493, 0.03665148345319015, -0.0022381095026037, -0.020978975386174315], [0.07849188829035901, 0.03642353521368753, 0.05250901982641949, 0.04877673273922162, -0.08178739811043671, 0.01293646685643747], [0.025383458726732033, -0.056005844173022845, 0.0010427594537303223, 0.0694935643979533, 0.006887544348897935, -0.0009705420913525817], [0.0369586145876421, 0.0180444062497155, 0.027290782582211362, 0.006580357019512518, -0.0019654141352686352, -0.024221692353109767], [0.01895184412848679, -0.0762605794515809, -0.054997120765718194, -0.026352112505614544, -0.040355127844947124, 0.015342955324098677], [-0.03885184692500785, 0.022092558316916342, -0.05781048196833947, 0.04884628248720005, -0.020683925402597978, 0.0534454396082383], [0.0652372304261405, -0.04270448599519607, -0.04791974523440796, 0.03026769030887585, -0.015089356996250722, -0.030411801633750832], [0.02814424565456923, -0.022116898412975143, -0.023774948094349796, 0.12776140062751046, -0.02689383411042128, 0.05007174096025825], [0.012790609109185174, -0.013186343886236025, -0.058309134855608964, 0.02693402811345676, 0.008673095681062575, 0.08024496407725812], [0.008054453451926975, 0.029668791075259174, 0.0519735418419359, 0.041258164627415606, -0.05213816866271006, -0.007005734788131404], [0.0036354909351267494, -0.035683698381975396, 0.04485481131270967, 0.007838867096243714, -0.03040091379998148, 0.03606157684996257], [0.05390800412991371, 0.01871763296956034, -0.00900144422526509, -0.05891754897139292, 0.005518493809613418, 0.05196469995851251], [-0.05845980071791773, -0.010606197942141744, -0.05325480187956366, -0.039263249990701556, -0.043799039294743936, -0.0067685776168412565], [-0.06397273985037762, -0.043471421480110475, -0.027310265373646826, 0.026670008775321028, 0.029921159568843995, -0.06098262877935743], [-0.08521872920915238, 0.01033411821950811, -0.02271149951782635, -0.01092088294700749, 0.014453811743154603, 0.015097901080636508], [-0.03913852031340803, 0.009401694137515846, 0.09275299763548106, -0.11311077140211714, 0.007248376917667689, 0.017951889400418825], [-0.06607447881424947, -0.025397388130645054, 0.0862987960138165, -0.0061463481385326665, 0.04487793234274734, -0.052583879988835694], [0.008161426839977724, 0.017927678597248465, 0.0562690706220224, 0.014766401101066893, -0.0017745117701734332, 0.016303458156492825], [-0.029691113078403684, 0.03456862782964981, 0.11537787749180257, -0.003996398296928321, -0.017076313437015097, 0.028297618902265745], [-0.05983628132174951, 0.05516231606916071, 0.08961240774719832, -0.03749237935436098, 0.03143420752745993, 0.03964119932100364], [0.011422855943874223, 0.07279530534942567, 0.04220217746626678, 0.05041733700604407, 0.05887119105354232, 0.04631124526425051], [-0.11308932540833984, 0.03336156193229761, 0.07991645325737598, 0.0666770949692208, 0.002225539978630486, 0.13987211848361306], [-0.04236557953645714, -0.04829995420982422, 0.07274617431403613, 0.09106372635565081, -0.008384588719776946, 0.044207648223688355], [0.006337233575807031, -0.003706784048275193, -0.002830193208505794, 0.029207608174031174, 0.03285229087274078, 0.037965467803608655], [0.018933681156479136, -0.03834894528659256, 0.013142722113247097, 0.09570455169313094, -0.010561740605183305, -0.004036707440118701], [-0.04383883750500082, -0.000441970088484818, 0.036514297566021474, -0.004857488364674904, -0.00807547163641427, -0.043365827070514215], [-0.028413577992293198, 0.01965050063333511, 0.08780148920860333, 0.02741909613456331, 0.026504318155985043, -0.05938242590718302], [0.0013769686650492476, -0.00651850507287825, 0.004583803920743346, 0.008507345697519954, 0.0019505356786995928, 0.04333040799337858], [0.05134280310477081, -0.01866033107092934, 0.002167532326400426, 0.01711781684398358, 0.029690086852923007, 0.018244011992561964], [0.04490870201505911, 0.009343932095336264, -0.005732718363048403, 0.04207907232745376, -0.02128233707023458, 0.027209048216179005], [-0.003868584431027592, 0.01490909177360373, 0.03069211420012565, -0.06312546194560424, 0.05306115783189189, -0.008047503254338739], [-0.012251869873387888, -0.017096350218589764, -0.00495346948731864, -0.016095555838233553, 0.054530978148018244, -0.03932133694165582], [-0.0120650320436757, -0.04138510359601906, -0.04151363171154291, -0.004010260497477663, 0.005546831980050217, -0.013159219900479906], [0.08110097492873422, -0.004074751153078396, -0.04810277258724044, 0.04473132125254528, -0.07672009247227353, -0.049145749174897425], [0.06423441612984607, -0.005933074375979183, 0.06791809733391753, 0.06501866060684405, -0.002503864608552191, 0.003427294136999963], [0.011874737423339225, 0.048702182261174974, -0.06080506630494848, 0.06801869766297523, -0.008525486902847879, 0.026396668299737826], [0.07155019862790074, 0.020040534442962554, -0.05565500935060066, 0.08628524878032409, -0.013607783533984766, 0.09561872178347738], [0.02114894945318119, -0.020368302802053595, 0.009797428958025337, 0.08933868208139244, 0.0020362629448075886, 0.11611247159443668], [0.036700258522921955, 0.016297115779473084, 0.007866607661127524, -0.015980057734799224, -0.05834550369316094, 0.050301555968624956], [-0.033886747777421955, -0.04397300199152056, -0.04431367682910141, 0.01887849528032221, 0.03406324575890184, 0.026217240748744396], [-0.016187526865239766, -0.03884704027713328, 0.02964896718764432, 0.021801032684592662, -0.0010102452452447994, 0.009382711257221947], [-0.08960760786524648, -0.06834501242132904, -0.040517493350741174, -0.003225609131094284, 0.007618279209217536, 0.028535088235790772], [-0.026952469408064977, -0.05502493966196593, -0.022524014340904067, 8.020390531464957e-05, 0.030495258896701214, 0.0007972778453939815], [0.05003820498882322, -0.025939339336873445, -0.024636900504028888, -0.044544526472809175, -0.05226234013206863, 0.042407153620076146], [0.043202513764933975, -0.02775090635319654, 2.8436058182463117e-05, 0.007128325237275262, 0.057589418663319375, -0.15006858162129913], [0.05221917930118929, -0.01601608515727443, 0.00324763380555947, 0.013869166161263026, 0.052792463662102794, 0.014411486190117558], [0.10976410463532686, -0.013582057027126981, 0.08219446641621565, -0.07451409631890198, 0.03625867676973613, -0.0025571801826442856], [0.01826933981664995, 0.08009681770650286, 0.033239167079250766, -0.060993795081047804, -0.036478285700704875, 0.02548367673538574], [-0.013562078843532981, 0.012948464926955268, 0.03051956278312361, 0.0724708400596894, 0.011141219320855046, 0.12055347395095829], [-0.05454955036979923, 0.013473694630642944, 0.06668121680089471, 0.11319788949825503, -0.015513938158822169, 0.13381886016717665], [-0.0217006864841562, 0.00919408079610006, 0.04790398347894582, 0.0899302496785137, 0.06692649304592593, 0.05488999217532656], [-0.10829956092014748, 0.013276141069395833, 0.05215849255887293, 0.04293875698015543, 0.0014582023198522242, 0.08508454393247737], [0.0012487265483114077, 0.002893200824613216, -0.03068743228695081, 0.07905465092145604, 0.07146168151554033, -0.033386540132747396], [-0.0022823098757092123, 0.0427679955588352, -0.10345960133367388, 0.05281678710170572, 0.007365052269656324, 0.035927556444206456], [-0.017414599089457805, -0.0006646586001311033, -0.01237597192128888, 0.028891400539073273, 0.003956320558959004, 0.08950119029029703], [0.041866354301655716, 0.03441037950740974, -0.004897241265564162, 0.0009532275278461977, -0.010822307498704905, -0.029306425400482842], [-0.08892050241436782, 0.022856881442835437, -0.02800832596523769, 0.023198315039386137, -0.06511815614932642, 0.09908651453711316], [-0.050233028264031455, -0.07724726985099442, -0.03752543801766651, 0.07844418243979992, 0.04499161193369625, 0.03376026972105709], [0.02872315873497733, 0.05507662162830672, 0.04102883845607517, -0.06133259716698559, 0.018652421694990592, 0.06771444991299104], [0.04540988670547571, 4.0611099134990785e-07, 0.0248678497941415, 0.03742740676608824, -0.01564318374718704, 0.07019979505266657], [-0.023693602559382743, 0.022924289659308907, -0.004974028943897077, 0.04835753953032855, -0.057023028718209176, 0.04045487778204353], [-0.02757537844107738, -0.012963306695104836, -0.029130038690776454, -0.02631610487024952, -0.026609795245590127, 0.048833767954432485], [0.04183971055971338, -0.018686304071083834, -0.0018286306061291084, 0.07219836897009249, -0.05301436256437557, 0.02506009045298346], [0.0242429704078106, -0.05933406556507029, -0.004000982710940517, 0.10103628173815762, 0.030189256974665207, 0.07672104263468077], [0.09354284571873972, 0.015332528655816028, -0.036710395575581554, 0.08342066687843055, -0.05395787586498051, 0.0899393544979622], [0.005865189622730073, -0.010465031622287646, -0.10512585450522631, 0.16269175314865564, -0.05051034101129909, 0.020113691573080603], [0.02506015930404295, 0.05816423279158046, 0.009732591493133469, 0.025201752591501442, -0.025775595930274425, -0.01891526798336745], [0.02066425870149844, 0.0015189753958359854, -0.011010061338121527, 0.00880787536702186, 0.005172759200317934, -0.05229517765918822], [0.01449606723134764, 0.003481999632308721, 0.039223389320472174, 0.024635213862653566, -0.06908023917123839, -0.06948672403219242], [0.03340869827332542, -0.02686515418801093, 0.020375020457497443, 0.005180338072491145, -0.03932451069358947, -0.03276709985549469], [0.04899011668667641, -0.025885223348579754, 0.013836809336436882, -0.01260256445944307, -0.02519664431413109, -0.053650254711492415], [0.11017361747169077, -0.048810980787087906, 0.003725195592101179, -0.02959795819429724, 0.014173742677330087, -0.05513102995813662], [0.09068376031489372, 0.021721636632563778, 0.005321351743236981, -0.012932232210347018, -0.06478606461813463, 0.0005553948135826309], [0.06104639056043106, 0.03661669439283323, -0.029397685370997587, -0.026275121113480425, -0.03585105567021411, -0.04602680704560292], [0.05476535190879227, -0.06701200077541658, -0.008260672922054717, -0.02001002423736221, -0.03884749781562677, -0.09801725500933656], [-0.032720281088755084, 0.039792397438737435, -0.021666339720950514, -0.022101093680713727, -0.07583588019278709, -0.026070659716620943], [-0.09585263436143063, -0.009629764377032413, 0.022928836085798508, 0.06379565155473198, 0.0014021599458828213, 0.06575422118552376], [-0.13660922697809785, 0.00654113533859902, 0.05969406383444573, 0.09922835858427695, -0.029776934029533946, 0.057635933628820586], [-0.07310024914122124, 0.031285462729352065, 0.025349442142676877, 0.04844174587168817, 0.03848501926081573, 0.06863247145804152], [-0.10541207781466, -0.024828107692816574, 0.009253594898306324, 0.033578446776038946, -0.0518053311073693, -0.008778114019254397], [-0.007170006802800089, 0.024009499511510695, -0.07507705599293714, 0.01607368288403088, 0.028094487426726253, 0.007985453404451478], [-0.037975561570417676, -0.012127954564737082, -0.05346153359142084, 0.10487625820663979, 0.019270054452644236, 0.020143346429445038], [0.010549679897295692, 0.0341065205832707, 0.01977412594095024, -0.03900932032039347, -0.022191819514722384, 0.05264981244445995], [-0.028102888932347126, 0.04139741616237705, 0.037213196642877165, 0.010261856047778512, -0.004352263252354468, 0.006159877157953835], [-0.06199293418806266, -0.05761577415049309, -0.04101830174836951, -0.08467486115609266, -0.022590582383378206, -0.009520795834702287], [-0.021953033888723696, -0.028257019871625072, 0.018110125951066935, -0.04105683232651802, -0.04228968412008137, -0.061052759342337684], [0.012125235257987931, 0.007335437791585603, -0.012939386248496167, 0.027470416007929363, -0.038076919230148165, -0.025700269823635928], [0.038087066057359495, -0.014768609762860322, -0.03232521633286863, 0.05143523096681606, 0.031750340834634336, 0.032553950803298995], [0.07037569027845515, -0.00018954407388751328, 0.02498916674588484, 0.0781964304494387, -0.008492908913571717, -0.04373414035995589], [-0.08453368709036248, -0.01799362780359888, -0.002529277804130557, 0.037615685422707705, 0.0030697047560813854, -0.0603386186382806], [0.02311977904088869, 0.03282592662396334, -0.0002317033712083339, 0.07589137338994294, 0.006473305608984248, 0.06832610913608259], [0.1104344965004266, -0.010602523454257195, -0.09206522940723505, 0.09479410092245437, 0.011513764294295145, -0.0210113966476525], [-0.018490717218680355, -0.03561445066407823, -0.01739871167279221, 0.08804823674445325, -0.004481643239995575, 0.06530826793191921], [0.01558059767089284, -0.040900705583648, -0.02858330233428443, 0.04846263179798537, -0.004684757375243847, 0.046531958013802985], [-0.014779673085359862, 0.009814230586785929, -0.02215188791492006, -0.020978497773847235, -0.009538885159603782, -0.0016662683572494937], [0.0965123859601958, -0.005478409732315251, 0.0549524285159166, -0.06425294806738957, -0.055143056607044, 0.07993153751419556], [0.002717292380431924, 0.05088050985044619, -0.0029662671643215528, -0.04281236378493878, -0.02832205107092883, 0.0039130041713720635], [0.029442551895193837, -0.03753803840109922, 0.013411443666770974, 0.044477632429454565, -0.007574018801634172, -0.022257384032274022], [0.03520893968060383, 0.07316748353305223, 0.011523363201744694, 0.007201034643472847, 0.011896443566829396, -0.08559231135771256], [0.0437231326782968, -0.03632491789154764, 0.004033576047611416, 0.003170764061754505, -5.121629450549242e-05, -0.006977905737752547], [0.07917267017028376, -0.05880346910586475, -0.017004860461041528, 0.02704515008004467, -0.04547971709002809, -0.12108285028620645], [0.056450310568544146, -0.0073937528362017935, -0.03911002959510333, -0.08480970675818722, 0.026718786537835396, 0.03229110452486969], [0.04568165529209933, 0.03757260263494309, 0.01914083422301828, -0.01787911425935549, -0.05299174039839913, -0.0320031300878872], [0.007951774860078585, 0.033287698061460945, 0.05346401802820465, -0.04717792670333901, -0.015126813856984438, 0.021155663182895346], [-0.08676006121141065, 0.03789827932199147, 0.007326270024983849, -0.0053944236305931105, 0.03588828903028412, 0.05742139430903385], [-0.039958426158256385, 0.0396685935218529, 0.1043984192101506, 0.09864075397779634, 0.10683451991370808, 0.10364679914230117], [-0.0836488826585645, 0.022734646990658237, 0.058111169115102716, 0.14445685418494458, 0.032009745540872284, 0.06569742992832713], [-0.050837250296152936, 0.004472883506477997, 0.004195184339947604, 0.08197518401986861, 0.016320758577875023, 0.11217006756582458], [-0.035135745685996, -0.003915216027600093, -0.0062885664867870245, 0.019812272958707845, -0.0334007252585729, -0.005269389404043391], [-0.020821204903504066, -0.04047740152197865, -0.05040703771079998, 0.03813184726302245, 0.0009555045362998223, 0.06080643381950296], [0.01692062895301776, -0.06202934614422698, -0.022212356320109417, -0.01093126648351306, -0.032742173707266044, 0.03185467054636478], [0.030925545503568318, -0.0029463816934944594, -0.03555274432594831, 0.03200486240859877, -0.021633934696884245, 0.03078524047745617], [-0.024601680621923572, -0.022475398181379252, 0.01425114229387508, 0.06232956709758025, -0.0390433429595902, -0.04709899134466849], [-0.0528253789248101, 0.05061388175375749, -0.009902057201578687, -0.004013756583337502, -0.05158609892718554, 0.08455360003009184], [-0.07976809380244418, -0.011138627244944636, -0.019902283667201506, 0.03468116263248592, 0.02591302199870474, 0.011018190965864148], [-0.04024438667765149, -0.0013921040789281463, -0.013439394876640951, 0.039609991770012225, 0.0027194906238494436, 0.004919358702456372], [0.005251061428537706, -0.02325667787498532, 0.002392631405382996, 0.003536863279977601, -0.02541210827283323, 0.048783065983004865], [0.046005532967976076, 0.059132946126281574, -0.024214256432158823, 0.012410851968054212, 0.06456151124768139, 0.04149223421171029], [0.045464279619835846, -0.0084853266978574, -0.06599279494595381, 0.06434297430787454, 0.013379780906390906, 0.0011026341371130376], [0.03461988051015374, -0.022237371367260773, -0.029978905215233546, 0.060082744443610475, 0.004091662356086044, 0.05172882772920204], [0.017016212627755496, 0.027600955404010617, -0.015038535041539158, 0.11326326057429283, 0.01366110760250696, 0.05490640819961541], [-0.0569410132589467, 0.0009864381107412442, -0.04323168682350645, 0.06198192240141729, 0.045635265144707865, 0.06600517311807648], [0.0285309199671399, 0.052726552469860154, -0.04616595678772128, 0.021693085171803458, 0.05602914174873791, 0.013193476167968406], [-0.002163497972822593, 0.017212513250717005, -0.01556524744901945, -0.013443825026129475, 0.0534536244244874, -0.049007842905516005], [0.14303771360193693, 0.025799739468822636, -0.0025062543756675273, -0.060439161144054454, 0.010453105093107765, 0.018181751634545815], [-0.009484439675380894, 0.026335345509457795, -0.06712939009954799, 0.019736641446912347, 0.0020465923866208936, -0.08412109874778054], [0.059943122026117485, -0.07609613149704471, -0.009348311566827017, -0.00428595858239927, -0.051214957433547766, -0.04300925634359023], [0.013781039574856277, 0.05901046576711824, 0.01847165645700096, -0.01934826323577426, 0.029779149745489907, -0.02343402257990924], [0.16478486289769176, 0.05236883584467223, 0.04158836420627998, -0.0806578741066723, -0.04617872492894683, 0.047599366412990056], [0.06362809516033707, -0.10016856260348403, 0.007592046800978808, -0.0005811686936730975, 0.046753710825116916, -0.03754628499310266], [-0.00797978082147963, 0.032667730290065304, 0.024038724897681024, -0.06266067168939, -0.013112024282168531, 0.024803185205610718], [0.018919391492930066, -0.049831637095840466, 0.0058697691178447794, -0.03288063089105849, 0.02204984543007243, 0.01565301666913775], [-0.051241602187192856, -0.0023389301566062322, 0.025195431468583777, 0.07925546650971588, -0.07029919667222474, 0.16122595590789376], [-0.023834785984541276, 0.035534013670921835, -0.027740697477095903, 0.07810872359728056, 0.005393198958910829, 0.0597270027746077], [-0.07953253404919014, 0.04196765480701022, -0.010414416721843255, 0.10468401322301547, 0.00977552980615746, 0.11190209575937723], [-0.07258997171845098, 0.0791295036952665, -0.016354313941163608, 0.10465420561612118, 0.029977454710375745, 0.03627891923499802], [-0.015540989539474281, -0.008189694543824276, 0.0305022679958358, -0.02143319823751329, -0.022735879630620272, 0.00011593138047598912], [-0.004925098650817264, -0.016596251662831175, -0.026985992470722624, 0.08142824002286679, 0.008465475708972263, -0.010314871702934911], [0.0033653380060273915, 0.0040150763325470275, -0.02112844835050688, -0.015133088787797025, 0.032083188710626535, -0.018547446918543965], [0.012482210089514223, 0.05161473356514222, 0.0027792134906397745, 0.033052945483603886, -0.0276257813517355, -0.01134417231755224], [0.010542890593914164, -0.00816794973290507, 0.0623521633133614, 0.026324971223775744, 0.007778675543748645, 0.010538321873526013], [-0.03192443073064547, 0.05636750330938011, 0.10266561822454714, -0.009126215413179076, -0.034062256122996966, 0.02955353251129946], [-0.002375829357219241, -0.014198030168504168, 0.07962274783931118, -0.009278255193314213, -0.04590836476440955, -0.012894150964560282], [0.03484749508492539, -0.03410836064332867, 0.006604302571790133, 0.03325115419630046, 0.011777630678655305, 0.009253760027181068], [0.0186855175294396, 0.03793315479637369, -0.04791985956054701, 0.037048479252241334, -0.06472528736511332, -0.01647863114140893], [0.03378121198067243, 0.02562394504298293, 0.0031464010512483463, 0.031974312788102845, -0.009342800758871974, 0.037728827724886504], [0.043263810779859614, 0.0866035003613814, 0.08721099405487794, 0.020477816149923153, -0.026408705467792434, 0.03482745749589174], [0.03709398946421055, 0.02186824108009277, 0.028401030285960055, 0.04349117686006854, -0.027269240311124418, 0.03814944320653626], [0.08374322362059408, -0.040914960840882864, -0.0018839372696909616, 0.14529296471298378, 0.005489558606747866, 0.053772436121396615], [0.01332996767180171, -0.036114970999115696, -0.008940145963020155, 0.049116861143050125, -0.004126200141382089, 0.00020599966257273984], [0.02582457768734797, -0.001139079320783845, -0.001932616781395559, -0.00528484208318807, 0.08366938945873056, 0.035427272024911596], [0.09032401099970573, -0.02965909212933599, 0.038463430107419365, -0.05217733276365072, 0.018166209052810224, -0.002435374854055171], [0.06421514678099671, 0.004397189141128332, -0.012588505742018335, -0.0821330174429448, -0.02301906768131153, 0.00751042875880241], [0.05716933563767722, -0.014635988857853456, -0.02533573200943643, -0.07248861228832124, 0.02236329952880952, 0.012752473218547859], [0.07400997147340847, -0.022302837734854822, -0.009785139610890076, 0.029170432898188308, -0.018662970365422245, -0.006729428343990553], [0.04929748288163141, 0.039184658996637506, -0.03642272615340655, -0.04273743348977803, -0.027505688652159185, -0.031529535024869416], [0.08274076568979956, -0.007808824271441533, -0.0014690713445853433, -0.0087890750510484, 0.00489964885976715, -0.00471859077974724], [0.07434849840687283, -0.0012681477543062987, -0.06381600279314074, -0.01982750333174312, -0.011356261693308846, -0.048135102185194276], [-0.028461886388050164, 0.020287798358835558, 0.010157907987572956, -0.060329650002197935, -0.021679799126832246, -0.03564506321695564], [0.0643930114934126, -0.06194390921084476, -0.0093468263333333, 0.015265492898623728, -0.003658960816371154, -0.0419477968510091], [-0.11336552636604623, 0.0732185336685064, 0.04861611411336988, -0.05026561632264199, -0.0035274287340201402, 0.11541629405571614], [-0.018649527578053812, 0.04795276351706254, -0.006815179536721727, 0.1065435932147836, 0.03200103969243167, 0.06848374380591692], [-0.05270644407195265, 0.06099847473385039, 0.08134156773975514, 0.08685989733845166, 0.008645483691048084, 0.15651048797335518], [-0.06600557803507195, 0.020265727325856048, 0.009191719734992658, 0.04782892607309799, 0.06839565853472805, 0.07050415414503866], [-0.07257836186305362, -0.08693029221922736, 0.011298878368146047, 0.05470545964931763, -0.031810805455759775, 0.015691318340799978], [-0.022516717299884234, 0.031017456334343378, -0.035276455995119756, 0.09792115571251564, -0.09886147352498585, -0.00895456582023007], [0.0014827552958941803, 0.008968472356382807, -0.003140799977793018, 0.03364482016620649, 0.03695241006922101, -0.002514946016770115], [0.013769838347086873, -0.014685963374372894, 0.013606795323663023, 0.021118689915823326, 0.018853469151417876, -0.0165554765444481], [-0.07620079800405459, 0.029230652935212858, -0.03990904792749001, -0.022483807857975345, -0.03234667424795457, 0.024126759625845418], [0.04502774195938526, 0.0695366422681775, 0.031358772813094425, -0.039824446902838206, -0.03741257156438881, 0.03438434179962789], [0.06101757560594404, -0.0666511273242265, -0.045247664052974854, 0.02129745183175752, 0.01991349763581871, -0.0668085729965221], [0.011287542578149195, -0.008988099871262986, 0.02193553579178269, -0.06028551693542566, 0.006349830279180868, 0.0038257249502727697], [0.011814299157788933, -0.014377820105058316, 0.0173335472793826, 0.01156572010092785, -0.02903673657504816, -0.05004915524125486], [0.029465522626398295, -0.01866631317820515, -0.05696933295700475, 0.07326447241657771, -0.05002871661619494, 0.022118545386458688], [-0.024025469231093406, 0.02382336313165225, -0.0883984991114937, 0.05731517414509076, -0.01699602789084553, -0.040578909778342026], [-0.010264841594870148, -0.022021866406619975, -0.0571521403718985, 0.14127987975941034, 0.045195275628519556, 0.0395877747835263], [-0.040191610988884824, 0.019754773037019873, -0.07335649112177242, 0.020569847517713128, 0.01921243407273417, 0.01432014729184287], [0.060732295471047006, 0.029617347375405802, 0.034734567167280773, 0.057221285416063736, -0.016114844749254332, 0.12729240897472155], [0.15081928597715702, 0.011500915062639562, 0.05791296545942122, 0.003655712222496787, -0.010484851683416615, 0.028951013204463805], [0.12436687807616206, 0.009065183868359857, 0.03226533114300269, -0.02371587061494761, 0.009559272986218737, -0.06344891172501825], [0.10800185461040064, -0.005008874388057577, 0.06483436121829056, -0.03053390272885134, 0.01585528059196098, 0.0904010022039571], [0.04088631023774247, -0.031470473383162494, 0.06636928749886596, -0.10755749548756537, -0.0479748165100379, -0.06867176591804848], [0.04300724835105612, 0.04119641501902136, 0.021415277492799704, -0.03733829259799619, -0.02704271055008316, -0.00525216514587652], [0.06615837465261955, 0.007568318350004185, 0.012069431088339739, 0.015952319707619417, -0.09244267692638886, -0.043155247682107316], [0.03302610209523991, 0.029296934117578503, 0.022153260968002075, -0.04844694502380807, 0.016019553050174853, -0.014663324594902176], [0.03106457704382058, 0.0061582977058327396, -0.022197335265723882, 0.030013670316077053, 0.003163095356750511, -0.0003506365732584123], [-0.03457029490606169, -0.03550236132931838, -0.0027858840626398635, 0.011270580662538532, -0.02596658359530356, -0.008592590650532767], [-0.004466253015172749, -0.008882378158279731, -0.04326302744657296, 0.09046928337878125, -0.08607775124519967, -0.012030708067153601], [-0.055475188066668055, -0.002152301940122723, 0.013206875559641527, 0.08153999755961264, -0.015465374266246263, 0.01962383005406226], [-0.06505829000926552, -0.026128861524715302, 0.08115595918486995, 0.07476966536420873, 0.030853020996402202, 0.08151800056579811], [-0.04458139157969655, 0.02569900216295906, 0.11292717123529708, 0.14480451591721455, -0.054145368788014785, 0.00313701969906403], [-0.1355765691518853, 0.058454383341624706, 0.058675158753627596, 0.10081815172031959, -0.02471603350622667, 0.06425702233480694], [-0.007007155814118831, 0.039215337386700085, -0.013342468678838891, 0.0611909300933775, 0.010336793249626209, 0.05575500775229765], [0.029961816389303852, -0.02041597065688692, -0.033377549970632345, 0.02959939954164425, -0.03386105859303174, -0.009046791565843253], [-0.10288180250229685, 0.001238024133809525, -9.611247672823036e-05, -0.01401375075452555, 0.03203787229462256, 0.03890666485506326], [-0.05951590654411762, -0.03623514982116406, -0.02148952695072082, 0.021515308085539787, -0.010715148044178882, 0.002814543617247474], [-0.002145096730295498, 0.021303945954561216, -0.013161269992788617, -0.030429064669471213, -0.011242901769134646, 0.007846891616843193], [0.0075068914853817755, 0.07956252110840897, -0.004461616591403177, -0.0031989126192688627, 0.054296726782066485, -0.03945598144710143], [0.06425720442360792, 0.004075769412696997, -0.03541614251825811, 0.015376957231425953, 0.08064638893450546, 0.02262248098737976], [-0.0027045941591355353, -0.01172806837581152, -0.04305982535307723, 0.035320257385134, 0.017204297260784745, -0.01670626577341561], [0.029273908786026318, -0.023088472236305703, 0.002842703634923061, 0.05372218053952221, -0.01179601443103629, 0.00011129729217219844], [-0.037768989284545584, 0.002721545475913466, -0.01332225841644502, -0.04030590643665411, 0.003917089529075315, -0.016947066073713574], [0.044269221331947564, 0.008739714079786942, 0.03607416542719748, 0.06622889545420725, 0.05452750035982661, 0.06431695155002622], [0.059001433030283455, 0.05457329485285762, -0.0534087254124529, 0.028875830078219276, 0.0024324119543642267, 0.07482900153860021], [-0.028372235496216123, 0.013618427965976055, -0.005963020556614763, 0.0808596017840211, 0.0030031627350315306, 0.10334684276997544], [0.1051544175473755, -0.02581043675246145, 0.07412234068016613, 0.10496257983434337, -0.05198932603865374, 0.04431223051905393], [0.09484053827185641, 0.04876455697334871, 0.038955999609537675, 0.019061964208684015, -0.03325965633891685, 0.016389055351817387], [0.12167976021634523, -0.03834736335832589, 0.03299170008059573, -0.07681877644121812, 0.004367640299289845, 0.08747386930516146], [0.10684121176882938, 0.010230168935169062, 0.08369682226210962, -0.015265373469574057, -0.08441664311341002, 0.017664876061091128], [0.06557575610767623, -0.004495322155063476, 0.038361985575533095, -0.04141244440606836, -0.028611118423247005, -0.020089123350742307], [0.07724699828595191, -0.004196824546487925, 0.07039010017215983, -0.0632472241083414, 0.0212483037464876, 0.07134695895235298], [-0.010847692420954735, -0.06096666334632699, 0.019640700425377345, -0.08323126369359175, -0.012191523275866624, -0.006668173726920678], [0.08637817802865516, -0.08775529586254477, -0.012510056792706037, -0.03608119315763108, 0.010593330073123871, -0.05957028224439301], [-0.0039391591211964, -0.0011033842751478691, -0.10542469969355965, 0.0985101838425483, 0.018968708650526855, 0.008533771777138169], [-0.012200731809664717, 0.03697892189487018, -0.002824904747141461, 0.05699183485717857, -0.043767366012813634, 0.017344722047521945], [0.020915056926484047, -0.040015870012466336, 0.033640587022994585, 0.024154345112656694, 0.009471639102469108, 0.040990872298657596], [0.014485665544508667, 0.05873231207626555, 0.025076902510092997, 0.04548137251477916, -0.020457341295636217, 0.08983966977230284], [-0.08737102526024085, 0.03655044785837312, 0.08231197291282245, 0.015682554731989734, 0.0026981776115183645, 0.09164345092503191], [-0.07596183588365078, -0.07814150728143407, 0.03974562555574104, 0.08388775887217138, -0.02434104639603116, 0.07895150566960567], [-0.11968501610100443, 0.07089200366005065, -0.021878736552419988, 0.03317533269198266, -0.001337931614497181, 0.051583766013337584], [-0.04122772077350633, 0.0224589493410312, -0.04561108116910322, 0.008283493576558694, -0.030639334519652152, 0.034137850868002716], [-0.06808820477275944, -0.03829027582336977, -0.02780136445011986, 0.03166828667168382, -0.010260634388203476, 0.02332218095447684], [-0.012817408606202549, 0.05424233861494933, -0.029244214134381046, -0.0007879130498672944, 0.05274465922199113, 0.01859583934527775], [-0.009802103918929234, 0.005542774236978793, 0.0002625172790569552, 0.03988653479276622, -0.0014101044046270826, 0.04814074865579517], [0.0007325304887600657, -0.004629356441807253, 0.009697143460642977, -0.0029907712323363257, 0.009836828020032102, -0.018093778722583657], [-0.025934462844366686, -0.05177768939462542, 0.016034639401846497, 0.0032359498227386785, -0.08817349907408097, 0.027161462841100596], [0.012807018496435021, -0.0028456353250091077, -0.005066034963567608, -0.04974527958134152, 0.015496453688571638, -0.05976370396571261], [0.05768554664116964, 0.014843774599543499, 0.06957340235632063, -0.07112141125484295, 0.020673172915340158, 0.04186632381349174], [0.03578661648559384, -0.007128517490507951, 0.027296450466826327, 0.01786925653285254, 0.015976350443411, 0.05004426626540533], [-0.013104995509211225, 0.034519343140070595, 0.025083677601021325, 0.000538589124355591, -0.01212115129582101, -0.00934690706458786], [0.04685595269098544, -0.003882487860337225, 0.016371701041045083, 0.0473186231902776, 0.01005653088456513, -0.0007449215202212043], [0.06129271746170253, -4.233423761316848e-05, -0.047169964962800265, 0.007503214647092005, -0.009607574841246169, 0.01138093290478357], [0.0377051984372116, 0.04271343607767039, 0.008084558226431292, -0.005209135691948986, 0.005953176386594683, -0.022806637886571324], [0.14472382565269823, 0.03331970937089838, 0.08851955004357687, 0.010418931901326601, -0.006319000813455836, 0.004838837057858548], [0.13580820484270636, -0.01033790231169896, 0.04086911344588477, -0.0027596899047116047, -0.024647202518127884, 0.056411669893258444], [0.10051328186937293, -0.015666737133543787, 0.01521937418025269, -0.03388226499984904, -0.00844656713056444, 0.05165016188339061], [0.07507692096047688, -0.003921341140922671, 0.09324605892066584, -0.06710750729606925, 0.01665130688277768, 0.03517616364749724], [0.06139085567965794, 0.014422394950318575, 0.006948381018354811, -0.06952060954533076, -0.018747174113560208, 0.010974442540477813], [0.06302573236131331, -0.006710459443647584, 0.06725085642429442, 0.01891665029120234, -0.011501179150639227, -0.06716686779305882], [0.020389554873353564, 0.033267471688798685, -0.01978270394296945, -0.035572252805809605, -0.051673939057637876, -0.05654498448065227], [-0.021351665085775136, 0.0178930295756677, 0.0022566258346975033, 0.009943833640334951, 0.03694110858439063, -0.01584077491139899], [-0.041389063540881725, 0.009201257484890684, 0.0576901322854223, -0.03750395633161808, -0.0094283079256023, -0.08191600079005706], [-0.05680807966788403, 0.037269370433870845, 0.01046714649856055, 0.02587524292482179, -0.049154179241482354, 0.010296713536373377], [0.028079181027507703, -0.014773026910870003, 0.06038219925786455, 0.07153899771478146, 0.05044156624204799, 0.02445540920169652], [-0.028496687173233805, 0.021184921381738837, -0.01047235047434215, 0.05162707298355597, 0.004782743096483997, 0.12036482685984756], [-0.08469395710387287, 0.07120311563151667, 0.09203763695481215, 0.1869907329128232, 0.06538023470165287, 0.14916972576301646], [-0.09434966827457447, 0.018238177780330028, 0.010516601725057678, 0.03974880407062213, 0.013552249831688068, 0.05657417740193879], [0.06195259080415873, 0.05383258679342447, 0.06636114133824636, 0.014971252846959519, 0.01803934460300554, 0.02408197812761663], [-0.019654826795405728, 0.0341710401667788, -0.007174739054116826, 0.037092944207245945, -0.003664860865542294, 0.013153266765943864], [0.005823474551373567, 0.013400490035562072, -0.0047022510042199345, 0.031784125519996244, 0.04689545319834327, -0.015619749634432908], [0.0022365166168920483, 0.054650496375612874, -0.04376315124995993, -0.012531721677954608, 0.04821260134766583, 0.11105958799804669], [-0.08738311222056573, 0.03103866713488925, 0.011968966915809495, 0.007291481953308192, 0.008002109119861477, 0.04124254714897362], [-0.03391413826316854, 0.012286376537757849, 0.041646325408957, 0.05066001265785002, 0.016135338111381948, -0.02890591365658964], [0.011314829627958755, -0.021327475897960132, -0.014167934611328663, -0.009242508874758157, -0.052038893238982774, 0.029949443678029763], [0.01902101977359549, 0.029957229341998636, -0.00923533515913359, -0.003797777818571778, -0.020285859444452114, -0.028497200400916894], [0.03472844471184574, 0.040473250530388624, -0.005509115609309157, -0.013960126446540705, -0.014473626174701252, -0.047475432510294256], [0.03182883278355025, 0.021875727596509503, 0.021680214957349786, 0.009148312112561745, -0.013724024337322246, -0.017905466709122117], [0.019039516807886778, -0.10053858335684172, -0.0029632442439206682, -0.02611165585573336, 0.008728164002586294, -0.04163502407801204], [-0.0027095664196837912, -0.037509462572239596, 0.06414985660156361, 0.022629298534789788, 0.09256113333913064, -0.0023627420036234433], [0.052918322334111305, -0.007086974881976644, 0.043388538681536325, 0.04201636978434614, -0.009940916901236035, -0.02054863346719178], [0.045496822499399424, -0.08909317543463913, 0.03851550893660259, 0.034434781594137535, 0.001198401571501178, 0.06227034122521149], [0.12835723950010464, 0.020539941248536427, 0.0841990200503801, 0.03356784848199977, -0.017087984074677806, 0.025123298099672117], [0.1688333159400626, -0.004116809416780708, 0.019217215346149626, 0.07083709524725683, -0.048984732513917204, 0.0800199462445579], [0.1692540716180813, -0.013195476671856462, 0.07754826848574778, 0.02073243960343688, 0.017872294872928886, -0.008198240123364526], [0.10339853093497989, -0.0508860502159697, 0.06569790072290377, -0.014697890641304045, -0.03616199355191698, 0.015138093477677242], [0.05216035162474674, 0.009557470741843982, -0.009784120774424664, -0.07173703948260021, 0.021252347950182292, 0.020923228403320785], [0.05979849688181976, 0.020619438322439693, 0.018701221765131733, -0.030009729062582233, 0.03590024688817057, -0.02096663322065716], [0.017435987266260146, 0.00897012053033209, -0.016920753981999628, 0.02611412979931108, -0.0052666478857194415, -0.019572991901026092], [0.030372517450613545, -0.020151896040891924, -0.0355187333168259, 0.029082679029690053, -0.08149389539234635, 0.08407220130197435], [0.036812683666534486, 0.01480214084660412, -0.07109382611036277, 0.03589977135709848, 0.026058638975087724, 0.010824905326213701], [-0.03127675088401559, 0.008194009824167056, -0.01073776566222432, 0.10016271940680613, -0.016953301025889527, 0.01018388662627852], [0.01668338275653046, 0.021144117665507257, 0.05092415479071327, 0.02575028649043818, -0.056530730340514874, 0.07690560423164627], [-0.047612030495353494, 0.06055751127361756, 0.002641638269271409, 0.05358595673069198, 0.0460305469921756, 0.10757663071627291], [-0.07180171554449448, -0.012938597155365232, 0.04208413769031825, -0.012694032301538684, 0.0035036549748442467, 0.02549122969131728], [-0.02879804351936377, 0.055190301048645536, 0.10524548959210242, 0.09622035754346485, -0.011472034170927091, 0.016177486601156064], [-0.0074292782410772746, 0.02457207671884891, -0.0014150618529690244, 0.06809581101823163, -0.04403846438862479, 0.04372681139198485], [-0.05577128576223948, -0.007147915347148651, 0.0459657932440086, 0.023137024503720086, -0.016999036632534808, -0.06059656122066218], [0.030475042809571307, 0.007235162355253047, -0.0040952793518970985, -0.014094754458140636, -0.012090373281827852, -0.06312651659369314], [0.060448930188773516, 0.041367501330078216, 0.05375585637748327, 0.002224761780696487, 0.04604830202373984, -0.039813706763710884], [-0.05458423738546544, 0.045089944911350995, 0.012103738815860908, -0.022618707651446805, 0.0016574017453061872, 0.0006384776330416961], [0.026692183661403843, -0.018701075702418787, 0.0054688052313807255, -0.0059917669306985355, -0.05574102314039823, -0.004875067295121181], [0.007503166929824794, 0.021681363719618547, 0.0169219174702871, 0.0051259528829117025, -0.008757992236091718, 0.039041288980873806], [-0.010927433964535759, -0.026558004964566964, 0.0363025412436939, -0.06717419514279867, -0.07001527068011562, 0.034154575518891256], [0.014764593716808962, 0.039834917227715115, -0.05237239663425379, -0.01200349981783, 0.01966968401401683, -0.004740356615329657], [0.012356917235713607, 0.016430850352966785, -0.007436978454195444, 0.01107771553173842, 0.007620031225164041, 0.04052301750134681], [0.07209573029142982, -0.07440745119967154, -0.02669205713133242, 0.005717179026524768, -0.01980529043665854, -0.07180395999717418], [0.018237241358362848, -0.04765396839541702, 0.04787918399715808, -0.03538429175588851, -0.027995199596323038, 0.0871637367497091], [0.015478879589101635, 0.01567649327269661, 0.07912915446250189, -0.031350892511526736, -0.014228368949574011, 0.06177997268063138], [0.023295212620669997, -0.030761606303333144, 0.08763217390507985, 0.022983669251136866, -0.028882964279556722, -0.001087869937853116], [0.10426829082105431, -0.007410047403771424, 0.05675424155038496, 0.016937883953529118, -0.009214037593872366, 0.12469833239685157], [0.0751310437756248, 0.04123287006881368, 0.08660804680814267, 0.03916160392328812, 0.04016994914436846, 0.08412094354888042], [0.11599813929489121, -0.004476700264054419, 0.08470789785899703, 0.02746566526310454, -0.046837359335892316, 0.09785018443220236], [0.16353370594437916, -0.001292029911200338, 0.05605348602811748, -0.023553246338878453, -0.006420696308048755, 0.038338672742092246], [0.10283284791013218, 0.04518011620064708, 0.005702038426744028, 0.02638491018841347, -0.025824701654138936, 0.020686696057083474], [-0.05915514894121985, -0.05307770916803874, -0.05900963258227634, 0.015516637345423459, 0.03993581968587791, -0.06370319560429083], [-0.02379968182723541, -0.018227156462318605, -0.03469052512617341, 0.012187129568754264, -0.02120905441196784, -0.017759162214940553], [0.059193107009436086, 0.022758135133918746, 0.042265508273558454, 0.01919415572833307, -0.013563341713204934, 0.06520463223324528], [0.019356959160111584, -0.006455706772556626, 0.08451040926764532, 0.010571146072094265, -0.054337958307863254, 0.03901951944226277], [-0.003248533877999174, -0.03691792591638621, -0.024424494908518873, 0.06954417842730883, 0.006699831552872563, 0.054323215082088094], [0.017205405972919908, 0.03711243671668446, 0.02331325375928423, 0.05266703977980081, -0.013986500633966772, 0.05409913547252524], [-0.018143061695029092, 0.010783015421616885, 0.052019133222617184, 0.11163454527088593, 0.0007857372125307593, 0.09342394837633887], [-0.01812560692328194, 0.014881132858148275, 0.07914798673615833, 0.0493310779126788, -0.029652425640860736, 0.07686081507075392], [-0.029747812248075534, 0.031496359908920066, 0.03891175659694252, 0.005092967079406311, -0.02627206481881474, 0.057880443368372704], [0.0015611365084254654, -0.0024575743650274377, -0.00219826816203471, 0.035882586299274766, -0.03141802279697635, 0.06578305462622236], [0.029507847019146084, -0.01108292845831881, 0.05448212107776697, 0.006740338130821526, -0.03760269590386232, -0.01850105429110341], [-0.0729014897488326, -0.025484088175114668, 0.012382789765391634, 0.07040629342734696, -0.003964460413186339, 0.0009023932087073562], [-0.05252696940391289, -0.010495825697725631, 0.007848810849251486, -0.0331164324306874, -0.057769563715761404, 0.05484146303305743], [-0.08061393073232816, -0.02760790760254013, 0.03285065729068599, 0.001687791446568758, -0.033639388535298756, 0.022383633504234966], [0.030427669000649932, 0.04270196857289358, 0.034249730087504635, 0.027433576992689696, -0.11205849300341868, -0.039258774672435874], [-0.05089739768670185, 0.027352191765490075, -0.009953790572079325, -0.03109179019587071, 0.010029611958711104, -0.010519829348375058], [0.06955184690522234, -0.011752102437906692, 0.029617754560976692, 0.032493311624770885, -0.008928036215769288, 0.00959180373252954], [-0.01733485311175696, 0.06103100240439981, 0.007499795695365726, 0.046976707399259666, -0.07410039656074699, -0.03710984815340977], [0.015689253608000404, 0.0036551239652770936, 0.006493732670380369, 0.013694278231623535, 0.01959267583385083, 0.01700053138973814], [-0.0059224391769833835, 0.02338959466318908, -0.005073863749262321, -0.08441935691608603, 0.007593128151245613, -0.003497657174939648], [-0.012138429035439274, 0.005932764512461169, 0.08666893743433142, -0.0636430458425526, -0.007478830622732899, 0.04054857915742721], [0.015354384754642528, 0.026853482601137, 0.10126390466079511, -0.03156307139578827, 0.03433256205279862, 0.006797916935710052], [0.04276345997859928, 0.07316914029817263, 0.09948885825647842, -0.04560545789109412, -0.025930320305702043, 0.023469851837098637], [0.06804870015154539, 0.03394740114653539, 0.1336961518774471, -0.10090813360390856, 0.06175344837978661, 0.03931371218090884], [0.13918249028129323, 0.025013080218233768, 0.10405482947375623, -0.03159475135977806, 0.01888864845107815, 0.136166107968538], [0.07941803813270601, 0.06812103992675875, 0.15795694543555294, 0.017554330029167706, -0.04996619254085246, 0.1238743282360666], [0.0682597590006091, -0.00660783917305442, 0.07067395690429991, 0.035676191734412686, 0.02387070961934381, 0.05323135464006284], [-0.04120566425021641, -0.004821141249212129, 0.0276105603248919, 0.0749204293114448, 0.01431894381017804, 0.02680459232437725], [-0.06146550104032154, 0.005128777433495401, -0.000630969239229259, 0.06678005879134453, 0.012675616983739873, -0.006077693640229389], [0.034275235285852884, 0.035060072187408434, -0.01577580173133091, 0.023701954580148715, -0.018204792398014657, 0.0549392083353348], [0.026076713691455165, 0.026997787379785615, -0.036205549742681836, 0.01539410488061198, 0.0685408357590777, 0.11159004547921438], [0.034745061920300836, -0.0401653975179858, 0.0063680414867273724, 0.025877834031618432, 0.002705011188068812, 0.063993195794425], [0.013997083237062063, -0.020651509229129193, 0.06413202113167102, -0.015183002366055683, -0.038528842393825494, 0.025352913249729297], [0.01548446121838004, -0.0026749646458424817, 0.016547875549080958, -0.020659719073502808, -0.01953234469944273, 0.051244378428695926], [0.08034924866761987, 0.039750648745579695, 0.058569235063470684, -0.007089671397960894, 0.011998693282731504, 0.012405448199938166], [0.003936323892879443, -0.013284036233795066, 0.10524403579489039, -0.0013669670945184167, -0.022182730563202205, 0.05573628510970275], [0.01515004207891528, 0.00945901998500602, -0.0010261793321024915, -0.03905696304057917, -0.047027422605932706, 0.008475832394443727], [0.00706731982480306, -0.058772537656812646, 0.009269489652369444, -0.017518560208908726, 0.014044318127367712, -0.034375987881495075], [0.0012619426610341498, 0.022896314578271713, -0.07088149833637211, -0.07407783814953871, 0.006856085970841978, -0.029872104598050564], [-0.019254361929473714, -0.01316016785518759, -0.006471117537063552, -0.0023224351218226976, 0.03577218790521075, 0.0223686356028703], [0.018539028094867484, 0.028722541647033212, 0.003969898165023339, -0.021825822856175063, -0.01143288765038956, -0.02108725423859366], [-0.00440670214727663, 0.011892037204188978, -0.005366400734558373, -0.0019742543003609773, 0.02152753813314624, -0.008313132800363677], [-0.004250814273116726, -0.012887006581566171, -0.06494220145958848, 0.04153754972432964, 0.008861899555413411, 0.05490874923305435], [-0.01369644102637363, -0.03154711595841678, -0.020282822732138835, -0.08111449739305251, -0.03975597500699574, -0.014971868721871822], [-0.04468643756951583, -0.014949802994841414, -0.0023424709160740223, -0.018625188308162562, -0.033459930143085036, 0.027035583750219687], [0.013875527194747925, -0.0168204568556999, 0.015446396359849098, 0.0017569835657163108, -0.053634253728397537, 0.016642535306768236], [0.013707581359638931, 0.05045142425552967, -0.0032168676287940663, -0.021952391180719677, 0.016144697450932832, 0.03132975228725694], [-0.06605676158166647, 0.026563643604834774, 0.029023933677407816, -0.021405514071356064, -0.03269341005276608, -0.014811291243776318], [-0.009556493525198826, -0.02480466828951075, 0.013691361077916164, -0.02811581584640211, -0.023033488533515164, -0.039761330989524286], [0.04614062695702578, 0.044469517609962234, 0.046126134501079386, -0.04479359457431905, 0.042271562800747384, -0.04269377581005556], [0.026505867747564155, 0.029924621871094452, 0.056697797284917854, -0.07852628931057168, 0.032158479836821026, -0.003910564698425911], [0.006155241247555867, 0.024872794515947025, 0.11542248963118638, -0.11221842481153307, -0.04297360898742194, -0.030983701992966024], [-0.04408341815436163, 0.04547663226611058, 0.02383010786974339, 0.0018256149775911332, 0.05147617867179289, 0.014147952375673598], [0.016383847773676935, -0.0513976204621538, 0.06349756552378139, -0.05361896723658955, -0.033945934745682076, 0.01937599571441241], [-0.06901315353050931, -0.02328415021560803, 0.05202176794572892, -0.00817670949736433, -0.028905595554255387, 0.07957318132039895], [-0.0021348100904281853, 0.040936140979337586, 0.005399345990228268, 0.10132238337447645, -0.008581534667208462, 0.052724206406556624], [-0.03923611843184582, -0.0016816915627417153, 0.04074237207425422, 0.1784050100822931, -0.028179997062231326, 0.08789457003683168], [0.012861057000181144, -0.030981940822251156, 0.06749714437153594, 0.19466868249411481, 0.033234529221140785, 0.04133381675784913], [-0.0005498504068225157, 0.007884595934120346, 0.024045169533101044, 0.057357811901942904, 0.07385781495116185, 0.03217686787233177], [-0.025277234659598528, 0.047433524666905334, 0.026056003242942688, 0.08266165366089333, 0.07510440398356837, 0.04416894819187931], [0.010231462284679844, 0.01490032145087746, 0.05557467660421319, 0.049789014286854, 0.035385418059529265, -0.023555494795432234], [0.058801252417766764, 0.008690310679530895, 0.05016666129983136, -0.02983765482644573, -0.04485401403430699, -0.03313692309174538], [0.049596002757821146, -0.019350268159479354, 0.06562219811661121, -0.04612413049280576, 0.013791655624128669, -0.01393495728632908], [0.029240898093846966, -0.04235975144520137, 0.05182038088778786, 