{"layers": [784, 5, 5, 2], "weights": [[[-0.04150026496393634, -0.015690282209424967, -0.002685112968872629, 0.007746303944000484, 0.06133521069915653], [-0.018525470876249357, -0.06525354845477647, -0.034969874800066005, 0.02912083411746239, 0.015610397286975636], [-0.05255006638904629, -0.03786089562480543, -0.018158448466552683, -0.020157958913103423, 0.006866292625633196], [0.05270646068973915, -0.06606516587238757, 0.014091840285894225, 0.02029779519006752, 0.09566482979732635], [-0.019731068753615768, -0.047809253088795516, 0.05729708687189978, 0.013876421109865828, -0.035691900099183056], [0.000439704279755625, 0.008682177430037703, -0.011606578112860755, 0.0058692441817675845, 0.009840595329678835], [0.03389292819027181, -0.06217781038863603, 0.07349698212857451, -0.020548548957514182, 0.06610125059063574], [-0.047867925222352406, 0.05971405113093081, 0.05777318827848333, -0.04098705999033363, -0.037090791905087], [0.05756838164113447, 0.022855972423019122, -0.029700863606367166, 0.062377018059861164, -0.0004455596825575499], [0.014207537582537039, -0.0310172208463088, -0.06070533409383982, 0.0035269943730213403, 0.004616925807190651], [0.033901641440022154, -0.0192569690987906, 0.012028350063310324, 0.020599250258907197, -0.007657120606781155], [0.05468527779216874, -0.009143166980859027, 0.009570744638957575, 0.003397645290628918, -0.003158362769258683], [0.11469205110868376, 0.03965380406291296, -0.057121231380498495, 0.011235265607195104, -0.027391244428982015], [-0.011314512877408256, 0.09702594896351853, -0.033221151748038635, -0.03997955622140928, 0.006705673365628911], [0.08938990181140685, 0.012195074691907181, -0.006228115057985509, -0.01307390447305483, -0.00083555785672451], [0.03117385814245894, 0.07523553801416517, -0.005343791514468459, -0.012618687442115232, -0.019614756050119832], [-0.02239414761134497, 0.03227836826665513, 0.017484242741821972, 0.013323523385814755, 0.028411478115138545], [0.018617237668347615, 0.023838399137193482, -0.028528855883344986, -0.04042735896628579, -0.048072828516206194], [0.0019508479991429538, 0.005226571254470723, -0.035542658935631785, -0.03053318720867298, -0.0019855863013493505], [-0.06218537392165097, 0.0013249144508773478, -0.07249503707746867, 0.010683688763922746, 0.00885266048729989], [-0.03894424598240594, -0.0015972727383720131, -0.003450055429617702, -0.0001808645340636718, 0.05022027529289026], [0.030289312963553913, 0.04289942895344354, 0.02688499060326115, -0.0313865190863638, -0.03299592253960323], [-0.018938532492690358, -0.031203341716601364, -0.0011690742978927389, 0.003395037899891673, -0.01672513365209555], [-0.04438437485696346, -0.012875222450317785, -0.035713563132033346, 0.007648514837740393, 0.04125913114831859], [0.04255689888164088, -0.040597687538009686, -0.02502876186104916, -0.0444400856693265, -0.03483838434619914], [-0.004538247526196985, 0.0012947114242052081, 0.006835284891963678, 0.018399949580949405, -0.004223790444206492], [-0.06627036319416353, 0.03888304319293966, 0.04100315783576184, 0.05848652010483966, 0.009957434479354179], [0.032082244038602985, 0.005354601842123686, 0.052297305327294194, -0.04230491469819035, -0.10801011509489075], [0.0606324975801043, 0.04965737083223332, -0.01443839119158539, -0.0659952426743352, -0.01931326932444035], [-0.00596671209452652, -0.029899020680609036, 0.017932636613209898, 0.04063050001660238, 0.007377529908813406], [0.030613841768924555, -0.012153553254059906, -0.02801660338370362, -0.0023681613447043234, -0.003384305386946122], [0.043349038931558025, 0.03387666185590708, 0.022925534397735117, -0.03247492207834801, -0.010261864110434683], [0.042814106193460565, -0.04000671678732683, 0.04614400011534444, 0.0015322739831302805, -0.022565366004206326], [-0.009793031888088196, -0.03740265757571108, 0.02512921487986822, 0.07073721314200489, -0.015857400541501428], [-0.013976470300123705, -0.012529610438268383, 0.014607805564552635, -0.03313924679133255, -0.01112534656669794], [0.017934019043203096, 0.053162401986131064, -0.013980792767004233, 0.07239145016038846, -0.01527412658034518], [-0.1280653515124974, -0.04568715213003477, 0.016930806316171634, -0.02505833965925157, 0.09531176142995595], [0.021083538706636918, -0.04881346277026224, -0.020260831409311116, 0.03308183163037331, -0.01576769448971324], [0.024401256575790106, -0.09843786542391791, -0.011624890193314535, -0.0011192898591314109, 0.0492284484296058], [0.02310671697369534, -0.03394538373577098, -0.05955864861762362, 0.03862965846980429, -0.01675717313432928], [0.028866704292890715, -0.014441669564190084, 0.04271474192530284, -0.08762015948727102, 0.01477586025663658], [0.04192618431484596, -0.018080292874500185, -0.011237623964700686, 0.00012018097101516624, -0.0008797942092526622], [0.06729593814588514, 0.05447189425852385, -0.03056889414467995, 0.01990994115671821, -0.03507381190222505], [0.031688368229128065, 0.04685783644298802, -0.036212262049483836, -0.006723260765363376, -0.04722932585460886], [0.0031453059882572986, 0.06421055600790479, 0.0419060583768911, 0.022542692471192186, 0.0387493239278291], [0.017864892902055347, 0.04692418235570968, 0.005974953813095846, -0.036766040939371004, -0.0008010925413289468], [-0.0362981684270185, 0.03730599944041721, -0.019850820437177275, -0.06002417381943088, 0.034020611240263135], [0.02932220276021503, -0.014179273851904277, -0.00785485859857903, -0.04525822334325029, -0.028889956332874944], [0.023237012398272076, -0.01836178838219011, -0.008256689064005875, -0.0010938279208400031, 0.02796054944192314], [0.03807285875128001, 0.055276847542877997, 0.0011252598251781855, 0.041101485319241314, -0.06597913154488041], [-0.023561062040512244, 0.03113490453267042, -0.004848981379346749, 0.00768654937185871, -0.023624118716822247], [0.01266139140468167, 0.0665105105700405, -0.05362098703264485, -0.04480654679477492, -0.02483463502995329], [-0.00986648218458802, 0.008933115446419655, 0.018355233644925185, -0.009571618563276459, -0.03806262033837773], [0.02507797671816436, -0.0001102494955277257, -0.02065044605877279, -0.06315150950269917, -0.006630173898223919], [0.01936931561563417, -0.0233628366844361, -0.054519882571534964, -0.0465666842884115, 0.014280965645371346], [-0.010577682281070143, 0.016478122425412307, -0.0011675242890479825, -0.007996894662050868, 0.008049727119567413], [0.029246304813906325, 0.009680046304069975, 0.04415399406643783, -0.04214415522710122, 0.0008309903912276955], [0.00504704692284671, 0.011178030486285354, 0.01966917647274699, 0.0060920216702030116, 0.028736818064846698], [0.056779651883578586, -0.017978081057659242, -0.037892079067804285, 0.0374561792563267, -0.037087496158021975], [-0.04638583760972558, -0.02765935127462129, 0.00239690195778498, -0.006660139773799929, -0.004352336599943367], [0.0197190518176358, -0.04469634708266951, -0.039370156094218546, -0.06086663331229063, -0.016525173590792957], [-0.008522751387561726, -0.045331890807781536, 0.00748460277563926, -0.00952997006814482, -0.008923134204598459], [0.026525808436131212, 9.634203815112894e-05, 0.00037342381016552083, -0.0024271378917380447, -0.05205669577736207], [-0.010859690366284357, -0.03554635350055317, 0.07576910680345561, -0.011184182281612845, -0.06079023433390528], [0.03251549600890901, 0.022287798968057927, -0.02871789763859672, 0.05347260756650244, 0.0036240952895526196], [0.06512920591023053, -0.011630020331886017, 0.042305052285665, -0.0287319865854047, 0.044976918345525606], [0.08364911568553483, -0.010791938569949873, 0.03338690593729192, -0.008889843824312413, -0.0594499168469931], [0.010481081256690561, 0.013943044580541478, -0.006279995781201388, 0.06356203418987273, -0.005794499721974197], [0.006515976284509859, 0.0413275681670774, 0.06657622733899861, -0.030631458722048328, 0.03522494313304885], [0.07807633708992785, 0.010364373930604779, 0.008475331805014119, 0.007315356292588324, 0.01638930801762135], [0.08563073079683615, -0.014440659384719882, -0.05674216947933048, 0.016772371993834096, -0.057201792307173205], [0.028664496583466634, 0.07525345682078258, -0.07645779467450312, 0.060933736891930886, 0.08301080436088666], [0.0749627303463049, 0.04982468302577434, -0.008592780200170673, 0.06735054449179777, -0.0199805251471361], [-0.019376984159380276, 0.051366511782982564, 0.027574980531548974, 0.017591355175954802, 0.029943583372063976], [0.06276743647060476, 0.028291078268686824, 0.00600822956661494, 0.0280529905977127, 0.01571089440285718], [0.01941008505350085, -0.03041875360448276, -0.005228371529729924, -0.010174131987697406, 0.03807104025848908], [-0.05898251644760855, 0.0019591696731296195, -0.01985313585252912, -0.06809680101874534, -0.019549057902885723], [0.023896116847418283, -0.02647453764882623, 0.010548728305013893, -0.017623885053467524, 0.0748055196941894], [-0.04794490290015525, -0.041280889704636135, -0.009446441757519084, -0.017941863049630847, -0.04127346637377538], [-0.03518633759340694, 0.017035285908014283, -0.050218361475681116, 0.039410892436767354, -0.06607616661881618], [-0.004383726978407297, -0.07042710763528268, 0.011714739508305655, -0.012670065294990119, 0.016405648597543798], [-0.02206781034551075, 0.0020608717603034627, 0.03937352562559674, 0.0328341568571654, -0.013917365675243926], [0.0447913509262829, 0.0020715249392688636, 0.05236379171525673, -0.05059723398123971, -0.05172298086234835], [0.06158418331037187, 0.009148063979636504, -0.013335748759798973, 0.0781064775501532, 0.06382465767917431], [-0.036334124116553936, 0.0182776531101665, -0.010781035810280653, 0.05754369741326896, -0.07966900927557063], [0.02785541287006669, 0.0033603267504747603, 0.050958466997106114, -0.04242248682616253, -0.013872366914006794], [-0.035056021567635993, 0.006455107272151468, -0.06616538349252092, -0.02443716903282286, -0.017814361349606254], [-0.04002857345429612, 0.002225430926736129, -0.0031962208654901544, -0.047664125653989385, 0.05923804823678691], [0.04074123924186844, -0.002324389117579874, 0.03416116734645659, 0.010557679970637493, -0.006657796165080361], [-0.09723070515399516, -0.012378427746661655, -0.06287880384216059, -0.08693993744434236, -0.07631870698765585], [0.0875489306539601, -0.00804623491782726, -0.016277862296470883, 0.0037346867367544015, -0.007470919679858319], [0.038665604767443164, -0.004210369780457048, -0.04643110078686725, -0.010131154336664961, -0.011336084345659282], [0.03220988347758091, 0.0446330744848921, -0.006585178440791715, 0.005117624361155036, -0.0005907002115304601], [0.06175007762534071, 0.0015767164270437295, 0.05709422422032228, 0.011331498616809557, 0.008256063345416191], [0.06388451352410777, -0.04997833855109003, -0.01641070506444385, -0.02913843611621282, -0.04813017470136741], [0.0008943182024997181, -0.03930683626378641, 0.053105312352099344, 0.012817928120504736, -0.020582217690411367], [-0.022732062756765186, 0.03625784407305457, 0.0034434059334075497, -0.019462100689314494, 0.037304560209969743], [-0.04325383328858064, 0.09209208577078633, -0.0034231161707666655, -0.03401515605433465, 0.029540523028307564], [-0.011057925864202418, 0.10872358937490115, -9.646199210139702e-05, 0.030942817205791097, 0.031141561971984623], [0.005547232671594109, 0.01027339468956171, -0.03626760485067401, -0.02745284155842696, 0.0011396967046354049], [0.025993074491814098, 0.0778036336009477, 0.0641075100757659, -0.03483728137923021, -0.012244513914465426], [-0.06953318416933212, 0.021261620111393088, 0.06642612824608021, 0.05304540605881138, -0.03488891844017126], [0.04769196354692784, -0.029788244863885423, -0.02626063352263123, 0.03510092917298594, -0.02272342091991913], [-0.015750614083895928, -0.004416342435593186, -0.02726758664571528, -0.0022689527516670306, -0.013528466152146815], [0.060153809619543114, -0.033023339422179235, -0.0333686465420426, -0.0375906811715579, -0.049385442313707645], [-0.004026072831069969, -0.02541839201149329, 0.007029919235311557, -0.026121171481556862, 0.003977049209182], [-0.011096592763391838, 0.0005270312916848436, 0.07145892309445587, -0.044763556021042435, 0.031033774462056535], [0.00014746523237233516, 0.01643381103655415, 0.05200798366411103, -0.03566800804300907, -0.03355223075850499], [0.04409664926658595, 0.04562278390987358, 0.005860937634982286, -0.060508478197111026, 0.01646299160430272], [-0.004585886767149892, 0.015159428494706247, -0.02510400283625941, -0.0002203938240256953, -0.025956602311810798], [0.03364079505433231, 0.002298612281639501, 0.028457444643208044, 0.01353689066605765, -0.027431604113705505], [-0.021918149392464607, 0.036063973601487484, 0.010905681241938928, -0.020312766174682247, 0.028595953772349293], [-0.004371743747641513, 0.04362629857467115, 0.02107874625705889, -0.02171002941259462, -0.01574450098906176], [-0.09791605274014736, -0.03127079909281492, 0.030910078474014703, 0.014171794026456045, -0.032513449885565426], [-0.025623989810126223, -0.010064581818471991, 0.021906034239481193, -0.003211686489204648, -0.05617275736132481], [-0.047227801277447516, 0.05637996653153633, 0.04093417858436908, -0.011117245589191731, -0.04814377432957401], [0.06046581328095592, 0.04779512050395221, -0.03687880468993265, 0.001579051262202701, -0.01004304159132716], [-0.018608678172035462, -0.023930470752410202, 0.06715393124538825, -0.014220482561907548, 0.03517164766254812], [0.04144612733081791, -0.03640686758759689, 0.0016906691871877396, 0.04019544299544106, -0.019367502701651863], [0.06846403205632143, 0.010544571704537483, -0.01785275313667331, 0.0061334245011732185, -0.03588032895815783], [0.019034013112237985, 0.026477276137140796, 0.005318898258777378, -0.04349196242010478, -0.027425995873679932], [0.019069493337090494, 0.029463525994072468, 0.021117282975596455, 0.05740596271482997, -0.0002994087814857057], [0.043723152567603216, -0.007660076270178913, -0.01734125097979005, -0.034442858303006245, 0.011682764714583396], [0.06260052302462714, -0.012470165197775667, 0.03617533479040001, 0.0796881633145062, 0.008103192608521596], [-0.008806375250396152, 0.07892054748861543, 0.02689527961417748, 0.062084490859735664, -0.0010204247548481807], [-0.06903230147854396, 0.13992882942678866, 0.013013311147091706, -0.0308924491141827, -0.054850512076358514], [0.0016575632956873584, 0.10931240945069896, 0.04450650006927233, -0.05806031482590897, -0.007636560454294674], [-0.010264801791815206, 0.030268692221946537, -0.0037293998167803343, -0.012297876076728241, 0.010475227599559017], [-0.008499814639658987, 0.030525313063315893, 0.0008605877369866673, 0.02909429233253168, 0.07533094097456619], [0.023011167856509113, 0.006340803729090993, 0.05558675762533679, -0.006322979306945073, -0.010756608114184022], [0.013050812731216135, -0.035763155279586754, -0.00019290923071028812, 0.013401668771891693, -0.06831230005367608], [0.002638057887048465, -0.04910342208748768, 0.040802020129641056, 0.03250318281708312, -0.09325492475421385], [0.034565933061017726, -0.018966594694712794, 0.004558372257615282, -0.027245945821301423, 0.05260469498848619], [0.03626658128063043, 0.04778110491587596, -0.0001428175129886142, 0.07390284309416564, 0.043606955841198836], [-0.002139001765288055, -0.05448644549164669, 0.05314340765663952, -0.08074360902484147, 0.012157917102521043], [-0.029715363211956895, 0.011835020932538572, -0.013345707492404558, -0.028942040732751164, -0.020478383929900652], [0.026533000617574503, -0.022881229261261578, -0.06238805005251931, -0.06912022502530073, -0.02515472973254017], [-0.09738439378406137, -0.02201224926893772, 0.020464309295164972, 0.02992250542612394, -0.020631234134504708], [-0.04229038185218166, 0.015118302700223008, -0.02707418543967549, -0.017300520029254685, -0.04674427065223651], [0.00041854385714722983, 0.010355767024220941, -0.03224015355018182, -0.08149873545873743, 0.016937383888576393], [-0.05635086134844538, 0.006023662143581121, 0.001743567468135865, -0.0399320600437137, -0.005202420421146892], [0.043897570802708626, -0.027769052103166318, -0.0367327930639243, 0.008490780072055098, 0.025746492953663592], [0.04069703468494643, 0.027897051322197303, -0.012237590982357686, 0.0578008510718574, -0.03545518486925387], [-0.019846834632301674, 0.03902800798144499, 0.028428769438232002, -0.09003949869300873, 0.02982578181306918], [0.029326235838506895, 0.006236428146156294, -0.05117946358560062, 0.032199783564666844, 0.10445824993779113], [-0.004268313674016938, -0.017836240913559044, 0.027917505550505844, -0.01833332382904909, 0.02318901672190906], [-0.08091658150381598, 0.0361462684067836, 0.03823888620285406, 0.010928373842360886, 0.07292092845454545], [0.04593267156620701, 0.02380746101926117, 0.02652869135475263, 0.01938197103660753, -0.049052461731265894], [0.062341457889272554, 0.013456363495493335, 0.03798058865304638, 0.014877963176944516, 0.016492933394094463], [0.06126108386236308, 0.01482100413489463, 0.04333310066211717, 0.015058946461387312, -0.024618681737942277], [-0.009872698842732069, -0.025766445527061213, -0.02185039895573398, -0.03408305120479072, 0.030599029689108555], [-0.035197568437413146, 0.02057051197770646, -0.013738376179739697, 0.0018292035056604893, 0.11272101369377967], [-0.04370309199419707, 0.03490539758945942, 0.03904409215983732, -0.018106676366034056, -0.005487488069066341], [-0.024019316537032057, 0.11710019892876966, -0.05763408399005045, 0.018771695547751432, -0.03324594598410997], [-0.04280945806341917, 0.04520357242474709, 0.0055763013211981, -0.07446805187555569, -0.026280306802161698], [-0.019486601934178806, -0.0046068540890828, 0.03559349724255684, -0.03817247534258527, 0.05342683868044583], [-0.03191881518463272, 0.016429721794548418, -0.00674818951138068, -0.054570265139411545, -0.045120882155358796], [-0.000146536521206633, -0.043865896802680306, 0.002838949037639992, -0.02863761325967203, -0.008900801352827606], [0.010493604266895617, -0.041957203409632125, 0.00407924188641029, 0.014071712747439895, -0.030806877773471894], [0.005264138380809984, 0.015544623119232907, -0.018156300254047356, -0.06039004738529215, -0.03661964746423959], [0.08249231135945971, -0.07167426149590352, -0.0069146787635114915, 0.03545614176393294, -0.014689499701947469], [-0.022227352517331288, 0.028090941619274216, -0.05824453673864736, 0.006594613031070934, -0.009946569994931613], [-0.03176642593070526, 0.011725259809817513, -0.030525100773314544, 0.035180234344356374, -0.0005703873910580755], [-0.012305099488466314, -0.028341995309634382, -0.027233990002801533, -0.02659418087440313, -0.04576743607304355], [0.04444599781324132, -0.048777649768525035, -0.043883176369886576, 0.005792568000617784, -0.041814700768866044], [-0.01692687964958464, 0.004815106340166515, 0.06771381437038346, 0.007725883020869661, -0.04453333775313583], [0.016314714084908807, -0.007319665468465492, -0.017696860503156824, -0.048625317138333075, 0.04922232216065858], [-0.035279945420488026, -0.0693177783988165, -0.002082455927742952, 0.01305422952847372, 0.0384621917307827], [0.022511652515578885, -0.011580065914849141, 0.0127922901247506, -0.01715019770217175, 0.020518591035731643], [0.0062461104910192565, 0.004875379957971593, -0.012211287888145728, -0.02340399893548311, -0.0049572905011032505], [0.003970765513595752, 0.032412449870337354, -0.011463580095422272, 0.0034072151476409987, -0.039783356616148464], [0.03585707014313107, 0.017689748484740503, 0.05938230343835566, 0.004160761885342893, 0.017115002112589667], [0.0067131803419620256, -0.02430157766680641, 0.04199268597776383, 0.05468330805221648, -0.009333749910436758], [0.08144944852710916, 0.04484776483496946, -0.007089805465081654, -0.03104765376953442, -0.02438887132814301], [0.04391444070992685, 0.05683843003736986, -0.008607890906969706, -0.023620645915026866, 0.027413337044459876], [-0.0019893893534521983, 0.0970551183463083, -0.06325718495701284, -0.022559626103941206, 0.04546474385409273], [-0.007017618989104443, 0.004505942185468325, 0.0393720590732084, -0.0015523500622234379, 0.08366787093476771], [0.009918848491594927, -0.010875452491785722, -0.02970101772464465, -0.030544360385177143, -0.07252587951226079], [0.003626335785760236, 0.016297315890027336, -0.017989448054500565, 0.040651652107904744, 0.04786172033505338], [0.037742743953947916, 0.05445083446247566, 0.01117946610741196, 0.02551002891484309, -0.058428700838465276], [-0.006576681639956704, 0.09359263612364892, 0.022252472129312802, -0.037792220218992825, 0.05867341058373837], [0.01896363688788047, 0.1391756451705719, 0.05377613549070463, -0.020452788574377916, -0.07752343028439294], [-0.04532068494299301, 0.0320267598900197, -0.0551767766749733, 0.022160553240930175, 0.02782785829991921], [-0.0868154114148726, 0.01795288821026957, -0.01124154772700196, -0.04465310911196705, 0.04898619013357502], [0.019366690815692537, 0.006213136854149282, -0.019519849376541304, 0.01805476588172151, -0.021227494252678027], [-0.046616888180426364, 0.07510561465894802, 0.0740689336927436, 0.04339817200576964, -0.07914854758500356], [0.0858000592837626, -0.05389479929834404, -0.03371378848621105, -0.00035599889054750006, -0.08699955875893411], [0.06251688300741107, 0.029107250293259095, 0.014000179871559108, -7.965609778855088e-05, -0.04890518713815323], [0.03483970649760019, -0.0330405322931483, 0.031204063806589712, 0.01659968571549093, 0.03872936147244033], [0.028513580751649826, 0.029008735206938942, -0.020446662234042217, -0.01467516026228408, -0.04384273448399236], [0.03321462273231892, 0.01417450727230662, 0.040043445804927316, -0.014649038196301393, 0.015219225615531354], [-0.004752590469110894, 0.0020823622349876226, -0.024227420680984605, -0.00817904819117993, -0.01055791820209095], [-0.02500530102822232, 0.024200806556936766, 0.015013790149143804, -0.009124793372048056, 0.000581211523618956], [-0.011905679761799041, -0.004734190975718431, -0.04321384334264057, 0.004005048716424792, -0.05208583614508462], [0.004762295344846642, -0.04386107273732962, -0.03546305750351962, 0.030214068311382115, -0.05793480069075146], [0.039219182212043895, -0.02017735992844835, 0.04602517580355088, -0.0262661070121144, -0.025388816143217526], [0.014069523078648286, 0.0002655886629502002, -0.04830117623437348, 0.0023179259551586867, 0.031490951624118774], [0.024221326790168984, -0.015929767436732672, 0.07207843318203246, -0.05651238894176728, 0.0003253154364719845], [-0.010861843904105845, -0.027006606194083103, -0.05209349761177949, -0.058633943009238784, -0.03595314697565856], [-0.09356424798533508, 0.025348556341326555, 0.06633922459872076, 0.07858183813852494, -0.0009183684440229834], [0.02837538337312159, -0.02062315655871701, 0.014688140138815293, 0.011073631634379725, -0.03891200880339599], [0.040256590036932424, 0.05440457946439807, -0.09618107360880229, -0.0060912418776626984, -0.05860016322930396], [0.0019487400411381357, -0.017919840442615513, 0.058464064537821436, 0.005025784350477523, 0.0055642109531280765], [-0.022557243704356675, 0.009135517590307337, 0.042408890959734075, -0.033811268675157116, -0.07560987505397034], [-0.014140756247073191, -0.006393393993529937, 0.04141672063672511, 0.041056856008201775, -0.007051530370906123], [-0.05476861546845232, 0.010548290722181696, 0.001698696771714529, -0.014002210913709396, 0.08184443483620459], [0.022343235836963068, 0.035724546120522324, 0.03809666291384504, -0.026712473247457926, -0.004061331307309726], [-0.008178746241453736, 0.0580592302837507, 0.014381940671591079, 0.04176272023300478, -0.05355891898536303], [-0.06960524425456542, 0.08393582262710134, -0.04301003562050102, -0.02669672962208085, -0.0014726575114809186], [-0.008299479221519225, 0.17919967654578697, -0.03441247559186352, 0.06981359864567029, 0.005856156103527951], [0.007842991765135619, 0.06050741093339478, -0.035077053781508744, 0.02085651941110079, -0.04085570256337539], [0.0061784680890418575, 0.008629634982727053, 0.043808387035132484, 0.04365027244720784, -0.010982320974921432], [0.008069335955711803, 0.022083271419358667, 0.057693580306823374, -0.03598921024552797, 0.014685927754279376], [0.0752185372003079, 0.04167558846064763, -0.006578842864706588, 0.030851287460514076, 0.030627680294799595], [-0.005623071903975335, 0.021871530636248058, 0.010360863101820543, -0.0546097529941855, 0.0019986349648799147], [0.0742958672567058, 0.04026745443357915, -0.041994124590100226, 0.0030939244954851656, 0.03992508826517644], [0.0125003002260165, -0.01238777446627247, 0.05281580486564564, 0.08775721317593127, -0.03368961496761041], [0.041121289851767814, -0.0017174277967667545, -0.02727740725785474, -0.017371825988071916, 0.019268742674937746], [0.050550902149621435, 0.03314832511966068, 0.017180332806260603, -0.01281715694756154, -0.002734189890352296], [-0.02992290381367807, -0.04646326475894597, -0.0343641582074496, 0.002208533596443635, -0.019767994933897526], [0.005034051420750424, 0.018757433035238347, 0.02395479490640907, -0.009904235556832992, 0.02738254262848889], [-0.0047360014581315415, 0.03833389475042329, 0.04590273522572276, 0.027187578121369942, 0.025815660335270708], [0.008125848474870244, 0.005627183042807111, -0.04152864003081904, 0.033101529145321475, 0.04620921766231341], [1.4969347990574475e-05, -0.01880778988530157, 0.04980525088488412, 0.03473858212103354, -0.019300924166321787], [-0.012878300381787758, -0.036645225883842746, -0.032931944409691834, 0.0055150241363212055, 0.06925948861593709], [0.020520251012377803, 0.008382597817046446, -0.003961621228370886, 0.026304950432849947, -0.0015371449777059696], [0.05043960407546164, 0.006974588857934732, 0.01929190875402829, -0.055232207447994015, 0.01694281017109241], [-0.056457360672581, -0.023567091957799182, -0.012316846921881534, 0.06390330930471874, -0.03409265640807892], [-0.008621388618420983, -0.0251007276485639, -0.020055794395619237, 0.06535572436486725, 0.01819913074705304], [0.043412379433847334, 0.02482640646897274, -0.023175231313822573, 0.08667984051602011, 0.007332141306663518], [0.04885669334197421, 0.006774541699295247, -0.019805074411610772, -0.03714448860279467, -0.002948355983897437], [0.01744305590339166, 0.02389774219234416, -0.040641140207150026, 0.07146790161288123, -4.8268209273584355e-05], [0.038070320139663785, 0.008012599403258977, 0.010502678026734222, -0.04402248419598631, -0.018627221930559726], [-0.011044595231993361, 0.0005622680871369713, 0.044897074853632875, -0.007085853885477959, 0.02689481914996805], [0.012415177286385394, -0.010587406460643047, 0.015081535508802757, -0.038278062573746226, 0.03477955951114428], [-0.05821992071624025, 0.044036178902971596, 0.03473243434371536, 0.01630954424054877, 0.06017026370695804], [-0.03867395019890679, 0.05522765263404706, -0.01593027391232634, -0.0322759144441149, -0.003543261969754584], [-0.030642064845592294, 0.12889272619638067, 0.0364300739595666, 0.012597186361261614, 0.030958815119778674], [-0.031809377237269426, 0.054145122503085084, 0.0268040553696184, 0.02377939927347163, 0.02207930438009066], [-0.01940196825339477, 0.012849476905612561, -0.01159471618506356, -0.0023550978809850293, 0.007401794280524178], [0.0026289978955571394, 0.07262813487633477, -0.028751264882094976, 0.01697445918904964, 0.00818809793773773], [4.8753625016415724e-05, 0.0740552670402181, 0.04129937547855355, 0.024519174105637153, -0.014150167852767152], [0.046841038768364526, 0.002322400535888346, 0.010198702803212691, 0.01770779575252053, 0.013477782490433899], [0.07835575694957762, 0.011993037746995824, 0.05823044086002515, 0.05304847245734577, -0.017797970286376086], [0.07347631190702877, -0.0026448247698978205, -0.04015210708073118, -0.012959490786197835, 0.048363172297950334], [0.05029374780759132, -0.02775996863750435, 0.02271524087962649, -0.0323649614418559, -0.07372349878243835], [0.061215285647252794, -0.007031207072733166, -0.052635224917806006, 0.04128492188994815, 0.04849096249451978], [-0.008306987691433987, -0.003434207324591657, 0.017212561558020315, 0.00855605351021543, 0.011497476440618444], [0.014780157437490693, -0.04727987365393639, 0.0035702300244149676, 0.002758688869386558, 0.024817823673597687], [-0.0312489872670421, 0.0038144358671038285, 0.025308632349181563, 0.022848433182047163, 0.011035456753650991], [0.03485454570812387, 0.01300931450338164, -0.005174930828136905, -0.02444909901709428, -0.028262033158524498], [-0.06464706381866157, -0.0011759830671069524, 0.01626951062809447, 0.023542215852373743, -0.018679543905926195], [-0.059360941049096345, 0.0431162610818298, -0.023487929259747558, 0.0011603745951223518, -0.03543737536958403], [-0.04482980503147384, -0.01671685539563679, -0.0471194889057821, -0.012668127983288157, 0.038989411254307334], [0.02347615044695526, -0.013807789978784164, 0.036560171116826655, 0.04624714191006924, 0.04205658117058635], [-0.03292050812300105, -0.011169729465728296, -0.01994559452468466, -0.04152674377212059, -0.06113184844322772], [0.010601653132488169, 0.010526246975479067, -0.016510314264694608, 0.047469561740318585, 0.073767570547847], [-0.02080106982167224, 0.017017610539493824, 0.011416653965217634, -0.00770332051940782, -0.012111422947896938], [0.056738322040313226, -0.004243001318648896, 0.019582069896174517, -0.0076661994281734605, -0.05330689209944621], [-0.027655230971982667, -0.003720630075194239, -0.02283253660350109, -0.016042950293332494, 0.023442667209651435], [0.05444101348809175, 0.018302385094626342, 0.03652805075756911, 0.030695790338232883, -0.05704145898664494], [0.012103789662353495, -0.06576614864030644, 0.023108739687002004, -0.058910197602049116, -0.06486328261204662], [0.009460421645823591, 0.023388989627778974, -0.015952659676929305, 0.010146287733250013, -0.025572777958734447], [-0.04696862331373591, 0.01988006886592249, -0.017716903144578584, -0.06464054916023673, 0.01625147089476483], [-0.023806223084795422, 0.059449325017398566, -0.055856228801438264, -0.1030185149373582, 0.0303540969219719], [-0.014243439646329745, 0.09015695838506665, -0.07454917544008692, 0.0255047038512238, -0.04962202673547702], [-0.04781685945484238, 0.0612319195954408, -0.02427887084159839, -0.0056693142623356375, -0.013228839170358147], [-0.021200029445612445, -0.0038888688020005933, -0.034658554093917916, 0.03939575303432683, -0.03290971115560143], [-0.03805601243343259, 0.02464913435662149, 0.008752652158486472, -0.02734695409933138, -0.033953121382727165], [0.010491337481290013, 0.03776947590254044, 0.009344919823637726, -0.06626871009565105, 0.0010950807907979644], [0.037061215097305596, -0.020004675347707414, 0.023741780185343245, 0.04525419307543499, 0.0534641789461346], [0.05030167816410596, 0.0050782890477027755, 0.007499795207898496, -0.04610792823191718, 0.03287974530187433], [0.08356429390232153, -0.01780901222829874, 0.006605543119676715, 0.02833176026710475, -0.012082417955199976], [0.06596067410501434, 0.0343446902792198, -0.026724735493054402, 0.017111687013981774, -0.01598162654228473], [0.0014444239802965985, -0.08862772791464178, 0.006023589242458676, -0.013144879322997221, 0.02341483906015445], [0.03167987305133543, 0.008250226673101914, -0.05209150372314775, -0.05626759217720694, -0.02487393294341022], [0.06432792403195156, 0.03524439645275358, -0.019320642278313267, -0.029668390824295763, 0.026210310713618904], [-0.028193781537399674, 0.028440850895220644, 0.07576042748621599, -0.0026573788969686423, 0.002420962207534167], [0.037466225358082875, 0.007917738167116026, 0.018318077180698496, -0.042320391342951305, 0.010050020644599172], [0.029236020265198205, -0.024490635406462787, -0.03123264388669648, -0.03566678057307847, -0.04388668668214681], [0.08631778670405191, -0.016508526224268884, 0.008382713656954765, 0.028225435444458036, 0.0649735402538876], [0.03912705819672262, 0.019410433268953458, -0.0064314946765545175, -0.03773590615230252, 0.04612345480017875], [-0.0289872271135554, 0.0035247136246591374, 0.0441302845558225, 0.10659264747031187, 0.024235228979943874], [-0.00016198408249628059, -0.011182592769948357, -0.056530895370805335, -0.05587981238548714, 0.0007089641381073757], [0.012222507470385986, 0.002077417554372665, -0.03363121281256149, 0.03841555692056354, 0.028683868662454693], [-0.007808355537051597, -0.025169520460741383, 0.019529773457839832, 0.013360523741203015, -0.002351046664364009], [-0.023022152349017895, -0.022251774631658734, -0.02800487589749844, 0.034146725412802316, -0.05221887295149487], [0.0462337730617991, 0.049421479155737115, -0.011706577693457216, -0.010355734000105631, 0.012377317225193404], [0.01105695771854741, -0.00870821384823379, 0.03168573397716325, -0.032548642796450554, 0.03315270532293912], [-0.043686993954227205, 0.04233889002847016, -0.04011924412303973, -0.05106700709537408, 0.012038989722081544], [0.015177414726555767, 0.02797931227548653, 0.059932666158065924, -0.020252451470543664, -0.00937266359650721], [-0.08002346452723796, 0.05939828191878401, -0.10717435007525411, 0.04240241609666344, -0.001521328359372868], [-0.02689062977621593, 0.02291838834643685, 0.003124992614877, 0.023384896715520714, -0.03654244571182104], [-0.05164099486305562, 0.08504378883470813, -0.03209873577006284, -0.005529281190829515, 0.01099937157174545], [0.0014412591503100754, 0.020043169422188183, -0.032300541275711976, -0.032456207521780044, 0.011539374351632279], [-0.030134297290744228, 0.05986995925101718, -0.046096437887602544, 0.025211870518781616, -0.0483869316809685], [-0.012716217505636876, 0.04258637664336573, 0.025256309144515515, -0.03901342900213027, -0.008757062136852886], [-0.0368166741634875, 0.05484508020848138, -0.033477104805459526, -0.00514966240685351, 0.036259452461550434], [0.01778747478222388, -0.00766067340003223, -0.06938789240403877, 0.012424094718599697, -0.029962207236767787], [-0.0215351120413489, -0.03297737483267441, -0.033830615847222446, -0.010500013192652417, -0.07830066091690797], [0.05167806180914529, -0.024996236255666, 0.036269257621799, -0.050626070216096226, -0.022266019766233578], [0.02236987994336654, 0.04410132420167691, 0.07146846172923287, 0.008783597504381464, -0.026358068881075346], [-0.04749900095157495, 0.029305863349959677, -0.020341998924395224, -0.016761184502958926, 0.004178596751109574], [0.0037308899477113784, -0.00038903700025649573, -0.020508299475241402, 0.018846225293267724, -0.011088605604701582], [-0.008046843802259186, 0.015584753689299999, 0.056223471865930484, -0.015140464426979382, 0.013534496287289475], [-0.008243928130982294, -0.007265854803000188, -0.025591177578158947, 0.006218529875046381, 0.017130861730610136], [-0.07461890743272336, 0.033433766034718836, -0.008787106166971113, -0.01871015039441459, 0.030556331954181008], [0.0364635120976618, 0.023041039053965092, 0.060768962687833224, 0.00972311217893232, -0.0010412527300795592], [0.011374533615077486, -0.015062732621775196, 0.044112066407754905, -0.003664875221661909, -0.032114160064001196], [0.010747256635165452, -0.03885515967210593, -0.024682857460596137, -0.04256379125598387, -0.015798331664016705], [0.04524819991706511, 0.016437908059389914, -0.038546862254198476, -0.022204089811289324, 0.006863690766580803], [0.08926626333497002, 0.006804056836845996, -0.05035613287649772, 0.046991413986582596, 0.044437997949927116], [0.02436652519972695, -0.031238933021445137, 0.006878890698673583, -0.036436186347689525, -0.022103702550663646], [0.015675270049661124, -0.038787515944046745, -0.030945668631002152, 0.023900837776794824, -0.017151889003670803], [0.00543298255922227, -0.032185586985832466, 0.0032619651133807435, 0.0010521680960730922, 0.0262227530080946], [0.0813170388939174, 0.033885111800990506, 0.019573797706604647, -0.0237925130595574, 0.026854145791942993], [-0.03026648084239059, 0.0030353960870513723, -0.04629674610849552, 0.02327047364037337, -0.022296388666962385], [0.0014481019034630212, 0.021186246792266245, 0.0005090625230498157, 0.023940293830384242, 0.04143683356962167], [-0.009310955670034548, 0.014534343266418611, 0.02717392182215448, -0.02487567618058342, -0.026055290690306005], [-0.016563846351500842, 0.06341538993196365, -0.04858381945711625, 0.012716853690217342, -0.057913048781725644], [-0.022211972687991063, 0.025076351671302118, 0.021957794753739678, -0.010118201860599078, -0.04621653607996436], [0.0019543136029968634, 0.08094312553016118, 0.0019634763572347878, 0.005271335480742494, -0.008385029576733588], [0.032173012371276385, 0.11300084748845199, -0.018901522513953058, -0.011375004139723895, -0.05681661818975494], [-0.055561913158596876, -0.009940016355338564, 0.04723635948892157, -0.0602320744484466, -0.04513887712288998], [-0.003304647344603891, 0.022666087241331026, -0.03832155013932196, -0.04494785087573239, -0.025068813245832548], [-0.004239034053555294, 0.03485088714527322, -0.015546422320961407, 0.036394949143776396, 0.00287076209462377], [-0.015046723761441295, 0.024654530446736583, -0.06358558620674001, -0.0215922903123975, -0.04256536216156403], [-0.0012527154573535651, -0.0468834121107286, -0.04629256268514267, -0.01140100875294377, 0.014465901064182397], [0.01045885589693942, 0.047591096583334824, 0.023308433203509504, -0.0410773286492827, 0.004932204430340638], [0.03161210406192329, 0.0017173823716936894, 0.011019591128912154, -0.02056557200754674, 0.021684163774632156], [0.04720176331170824, -0.07194748928616539, 0.014865173043308488, 0.03323220547884613, 0.00943762896601965], [0.044266472627010146, -0.0030910773040524965, 0.04146790432824714, 0.06090987358889174, -0.02265340150173568], [0.029436294769302155, -0.014721975482666547, -0.032893003098297756, -0.0055474475056192865, -0.03375352843528088], [-0.04562844527626619, 0.051792969883171086, -0.022971697681994398, -0.023928598332528864, 0.008830141182336486], [0.0056124296767855195, -0.007433677775743751, 0.060996420908985015, 0.012620597831988123, -0.0019926324073386206], [0.02215120814650164, -0.061173564215813624, 0.026545410717101554, -0.005307010229959288, -0.027064909962835604], [-0.06963892722858475, -0.05833524254705552, 0.02791554644248228, 0.009598573606107401, 0.0006476421737351227], [-0.045643914038718376, 0.054805524489831614, 0.0018962318102701888, -0.0413575990163653, -0.05360915301097989], [0.03670208691633597, -0.04070350222279608, -0.016568756888544135, 0.05893627829532449, -0.05910182233713314], [0.0343599658956003, -0.00845717419019336, -0.06524794150372573, -0.00848004004697294, -0.018087798991746763], [-0.01632271287696184, 0.03747274943881484, -0.02915990395271259, 0.004166705170527288, -0.03068886726637108], [0.04872180234949105, -0.09027867416480988, -0.03547079375162895, 0.019401683260296034, 0.004588932914623125], [0.07601270838053567, -0.028340879972025765, -0.015409782088856348, -0.004356209866276911, 0.00947837958798801], [0.032233395834910514, -0.03639268949063427, -0.08448636741936155, 0.01635789010012684, 0.0383462398205148], [0.030041540332714077, -0.08215794700879356, 0.008959694493064897, -0.0514671914301665, 0.018254902251063097], [0.0004483010493103227, 0.09013114898237742, -0.014496529346401998, 0.0019472480672283502, 0.06777499774425177], [-0.009551147224423273, 0.024993290101757184, 0.04274640012067096, -0.0669581118774326, -0.005614536526444287], [-0.021895154304864342, 0.07538367670706232, 0.03821047186543859, 0.05332423175235512, -0.007572253581012939], [0.024240119096222822, 0.021193690534037666, -0.054451844905640354, -0.023352954964928473, -0.022911384957328824], [-0.02414814036021938, 0.10566026800151536, -0.019878790353297964, -0.006333905992684021, -0.007867482210925153], [0.05712024457793797, 0.05078780224495004, -0.026157102654698575, -0.05116416484605102, 0.0006954456318963221], [0.020040641414776, 0.007619716529912517, 0.04541805927773698, 0.032342501218506806, -0.05125705159714932], [-0.03843515459298641, 0.05315629147783525, -0.03638385087467117, 0.010129934472655545, -0.013483964740515914], [0.009338185691968629, 0.037536095233411906, -0.027300659650111657, -0.021446267231483133, 0.07652997942177396], [-0.02403882359384174, -0.03851034970964255, -0.013532271834810095, 0.05990612120060279, 0.004892136198960379], [0.029238591877341506, -0.043515012354242814, 0.0794940107181174, -0.03420791740280524, 0.031738410116861855], [0.08634412550837896, -0.0278505363355244, -0.010440831435491103, -0.0014632434227707456, -0.017549686525497366], [0.06895890521358218, 0.005619255967972402, -0.07196489267049974, 0.022243401675365763, 0.016406023543895726], [0.01595699015060735, -0.0884868628286692, 0.01565001471314821, 0.02000371360398257, 0.007035009096758286], [0.015114277472026795, -0.039423639070146295, -0.016508962680497806, -0.05940236278363354, 0.054102041149487516], [0.037051786624858384, 0.024005066271508103, -0.032316921641564855, 0.039129468324703855, 0.07076497768040678], [0.001520343918433255, -0.012055002830153531, -0.02894213766065034, -0.07138526389139342, 0.04335495105227978], [0.041654302084936576, 0.02352401473756685, 0.00516291699318057, -0.011852734249050487, 0.009807510964304817], [0.008379390829957348, -0.012829912329837993, 0.046951127784737166, 0.02993806143204025, 0.05533311650670024], [0.012055007730723275, 0.0015749927939500855, -0.012747452917289242, 0.009900876760280635, -0.06507546753279063], [0.05814178253097483, -0.039259844778400055, -0.006149361465988141, -0.020383470492832408, -0.038685139455533965], [0.03127625143589204, -0.009970188550869247, 0.06252692798173289, -0.051128551917811293, 0.015060938088490811], [-0.03177600293626287, -0.02174403474519719, -0.06056920331460945, -0.02149880585160059, 0.0301067730231577], [0.039813110764869965, -0.10503590582473908, -0.07847055553068331, 0.006340194643339574, 0.025849730109873792], [0.02827367240485771, -0.0007147010304224, -0.007287476874360568, 0.04925082422804475, 0.1049215117217951], [0.06938067957718348, 0.03564898162196176, -0.042210450945425776, 0.02083219516551031, 0.030554622746673196], [0.03368014273116827, 0.049220586993222515, -0.04474068673376509, -0.009315252687647945, 0.07140522546022181], [0.07175589491920074, -0.058188649488025844, -0.03328457905448276, -0.0040622549401323265, 0.001305707093201041], [0.07609684888297667, -0.07625763380474479, -0.10668310638268588, 0.0031200908091281233, 0.004454058464828331], [-0.06373931582586707, 0.018512285897351002, 0.024374342221685812, 0.0158888970329564, 0.01033980094411297], [-0.061108850292545716, 0.010239626564538955, -0.01277881733935921, -0.0661896792223859, 0.01003246935095568], [0.017944809517615196, 0.0023839962404636297, -0.0012331950993106355, 0.0052304948029586, 0.034464821982597794], [-0.042217648154496655, 0.1205736846048941, 0.015289989650778888, -0.002921489066682568, -0.03987768092008008], [0.018195031418888254, 0.04035632499142755, 0.04940463274680614, 0.036342186866594725, 0.0387632097216643], [-0.010832411578074477, 0.019999515563504204, -0.02225709716821198, 0.05918241783114565, -0.018747792297030125], [0.016914060655802705, -0.017674233875106953, -0.010993069205053371, -0.007346365305544557, 0.011299913534229405], [-0.009640567685168622, 0.03600128819500615, -0.027818242632477518, 0.002906646385402767, -0.06774909013190403], [-0.01451395888115945, 0.047563710688252235, 0.024341706528155458, 0.019765680923843055, 0.037069145026997236], [0.039914097631465875, 0.027419433961857906, -0.017292301847968046, 0.04208454610418474, 0.05676130012945433], [0.049551164813949965, 0.023228427151149384, 0.037796543688825304, 0.004323987598358681, 0.07371943620390778], [0.09700383904780298, -0.02982270646261461, 0.00748151210343479, 0.05334643198161608, 0.015089195415763668], [0.044418044693615516, 0.01067962063732479, -0.010619429462760633, 0.04124944643211622, 0.01975555076567348], [0.047991764237872436, -0.014960282092549512, -0.026649737168520097, 0.010601137556162134, -0.00509257841366789], [0.014759152558517188, 0.014581376821899061, 0.035297770335435456, -0.061153875469803894, 0.0662132862331372], [-0.037731461722798926, -0.0036358395740752436, 0.01975186945007146, 0.018371442651647297, 0.017191244846534243], [-0.06136106092831304, 0.04627104179179818, -0.0726495706882982, 0.07407635946707988, 0.06627475173388293], [0.021934217493027004, 0.035838591229981356, 0.015757570615127028, -0.004949434352807488, 0.04076260096968668], [0.028396520377839584, 0.05862324948252641, -0.007856045307033595, -0.010520215672352427, 0.008847817972097726], [-0.04397319222082321, -0.01476466158201793, -0.0013647611167852166, -0.0710466941677624, -0.03825693966846735], [-0.025970359719549915, -0.036621046995825496, -0.01746012421462689, 0.009851953097079888, -0.0005854765675644793], [0.06116617503274477, -0.04578447108702687, 0.016647691095823817, 0.035264267128502, 0.019167083532785033], [-0.015484286357108695, 0.047221039444085317, -0.02525568413147455, 0.043579804184382114, 0.033389811416129796], [0.05961108001866287, -0.029405221805815104, -0.012080511318527136, 0.01803454362169423, 0.020732958763728163], [-0.0038800555884185356, 0.007963675691272107, -0.03375490397612068, -0.047327556525270646, -0.051912664876068264], [0.027994759496646503, 0.010866494792596153, -0.00798060113577363, 0.007773714527570006, -0.004081705731225698], [0.042604288668743946, -0.0711819450810637, 0.05164323718647222, -0.03901336180721257, 0.031097383060101815], [-0.021909762334401915, -0.006396716463143927, -0.04696734786714163, 0.03312494089272649, 0.033089186860256775], [0.03069510157102508, 0.053796108522746446, 0.014838661707308626, -0.004684399207378668, -0.009365395768465758], [-0.005396503542745015, 0.011531563127960113, 0.013809316017074547, 0.00988993973731703, 0.0021191832309402996], [-0.019199868352793123, 0.013539049898388578, 0.006829855074925744, -0.04653829589973788, -0.01652527435678779], [-0.01097069363963017, 0.05168426406346112, 0.00058438303833004, -0.01799534565171277, 0.03381989136022754], [-0.02540516168353954, 0.001211051201316751, -0.024978818568682858, -0.024701231387725547, 0.002923992013437019], [-0.02149928300324914, 0.055841654417847844, -0.020821353999401042, 0.029805434490413226, -0.0029293817974698592], [-0.05262728049679393, 0.040422439460220776, -0.03330816547028389, -0.034246587025245884, 0.039658502623169965], [-0.00453875620793932, 0.09769917894900458, -0.027504347709032383, 0.022911976069470274, 0.012028464021510496], [-0.008785496149880908, 0.06252684123836874, 0.03857258369684324, 0.00916036884186184, 0.020739362435264676], [0.04071358206037122, -0.0023318717252300836, 0.0006433102209801772, 0.0021600594559828268, 0.016905841421449425], [0.06110982933433467, -0.017175087381672796, 0.00341421811871677, -0.0032467289261977955, 0.022485697097957856], [-0.0232310470729449, -0.050339068547370275, 0.020672806362834924, 0.07297228765589896, -0.04813766144826602], [0.02365417386864681, -0.027623965183256927, 0.06406370354380253, 0.07986448174647325, 0.014016923235722682], [-0.009367908219390651, 0.032086308368481434, -0.02433655195857062, 0.018697584402259267, 0.007603347969853017], [0.06692203668898403, 0.0021482543529658723, 0.007669042843514186, 0.0309716572460356, 0.008668425162190158], [0.00990707923306231, -0.07035701337394831, 0.04106703222872715, 0.006741074780734357, 0.04261074214488826], [0.08656631727953307, -0.016462971646491, 0.02601767018836527, -0.033221634376694134, 0.058395673461765815], [0.06936976221148769, -0.04535774991705083, 0.016762792387779897, 0.03559148093490961, 0.00642198833200141], [0.012862882467590058, 0.00370989664219178, 0.02261832463080069, 0.006862559918944175, -0.053342094950138766], [0.025091925041713755, 0.0023972144635964524, 0.009965350180800298, -0.03134913156159833, 0.015494047385607269], [-0.011473957637572928, -0.04914484019443174, -0.04207133942067888, -0.03995864559315413, -0.012019819652232805], [0.05936129800377813, -0.042391353941084814, -0.0011104478918271309, 0.048054506680710554, 0.004581497682229271], [-0.025079395019966394, -0.03738423889329538, 0.029948927981820642, 0.03809893586231614, 0.02703487035152123], [0.039565405443833225, -0.07591671952076297, 0.0019259820240092394, 0.07749836270405903, -0.006953305651862039], [0.007572943473205116, -0.042988106193338566, -0.023804686297443634, 0.01339169672515827, -0.07102589380833049], [0.057947276804103234, -0.037955536801610165, -0.04408834574276037, 0.013109391661506048, -0.04105826188253337], [0.06401273959278656, 0.03349569158911381, -0.004320253251563766, 0.024635741242726307, 0.06584054157431077], [0.05033919634410795, -0.03470573755449885, -0.03862330381391832, 0.006774053311611745, 0.007628038851372332], [-0.07286265402921764, 0.04564614665754903, -0.0245445561633283, -0.008535425424358738, -0.004583013978066616], [-0.009360369838241504, -0.006969076693367472, -0.009314969944516242, 0.025819957874560828, -0.08180872991767872], [-0.01334846291519776, 0.016490446462879286, 0.009975215530332726, 0.04093118400213824, 0.022519372755660797], [-0.0325751360698507, 0.08032805883020941, -0.03314797095564843, -0.025852892097703147, 0.0018734470727522733], [-0.038506031575902364, 0.10337922464654814, 0.02358785218269224, 0.016274952132549283, -0.0018279525534864957], [0.016619501832667416, 0.02513076497428363, -0.0026019015858713417, 0.0023840763974570544, -0.05775777796878369], [-0.0014361123628236824, 0.039621229665739624, 0.03115456724377103, 0.06788879543753577, 0.016387618306630825], [-0.017660625602164765, 0.03943293865785081, -0.056857275374928594, 0.0026324322141845972, 0.010612405982088834], [-0.05422887358905382, -0.0236057421713879, 0.006679086067488405, -0.01597935157947065, 0.019862112046419796], [0.02734937610055506, -0.04768191178942355, 0.045879697860681516, -0.06380751143020064, 0.012959781633177228], [0.08540882074689887, -0.08668274475184466, 0.0027557827718297477, 0.04710323817617034, 0.016813327262457337], [0.07362651883582118, -0.02595463897334912, -0.007066002874984717, 0.05636657668960719, 0.06550930285667075], [0.06718061174264345, -0.019467546436934262, -0.03607115646033435, -0.01083838413109374, -0.024972691302111504], [0.04929168126034596, 0.055153263602563604, 0.01142613515944547, 0.006509412659717864, -0.11089410353266631], [-0.005776689073521521, -0.0062148315700683125, -0.08405811988503256, -0.004144184019493236, 0.006396786425907065], [0.06324183923787777, -0.04660577734258158, 0.028272325619115513, 0.005259006754834761, 0.04636065595457224], [0.0029485905997210576, -0.047531942244980196, 0.027727306342967755, -0.06262187016954551, 0.018959561794390952], [0.01128224938549836, 0.04318742327526298, 0.02892614522278922, 0.00447520976484157, 0.03676948127574854], [0.006688003497899409, 0.005809259670932531, 0.006412307805160689, -0.03231377067688183, -0.026457587110879113], [-0.001259125164975837, 0.057061925554232194, -0.04716022462542443, 0.006273682576090805, -0.009901892281108457], [-0.006697295440654721, 0.02098035083350196, -0.05129643549900099, 0.012778235939742175, 0.02155436710580608], [0.037171136577194966, 0.0026047280905757853, 0.05320344250848504, -0.12533416036559683, 0.07425212865364801], [0.039649948612087225, 0.010955919724051646, 0.018555985293957765, 0.020478109396801523, 0.006261367442521807], [0.055101286992528364, 0.008871597987941668, -0.00030154068885961376, -0.017173522441965655, 0.045562240435087845], [0.09397637454892031, 0.10124846793514522, -0.07249381751587351, -0.014540079000521773, 0.020128702010876413], [0.08623294708317257, -0.07932910312625725, -0.04320238708342211, -0.044098902589272855, 0.0342409266391049], [0.05038734270723148, -0.029408800537348203, -0.021774366272211913, 0.023498942672924645, -0.04525989673940567], [-0.054844514935696365, -0.03884100548796868, -0.022700999561796015, 0.02166691919945374, 0.060187461340133565], [0.01387121419422772, 0.0863967284013339, 0.029934084240523684, 0.021007145913498008, -0.010318386011170364], [0.0195213400741788, -0.0011462992703245266, 0.05587755974303478, -0.01534897120086445, -0.019687258064421294], [-0.07727990719209561, 0.05702798308386504, 0.006616495430774167, 0.00022211687295359126, 0.023260149354845695], [-0.06686997214814744, 0.020601401750893332, -0.03488390460330729, -0.012159165606614378, -0.03597070920616431], [-0.03183453356744876, 0.03145868293971615, -0.020729445640208635, -0.033815394371555535, -0.002808524406653133], [-0.02817726127852411, 0.05570197242291818, 0.0033697094040932496, -0.027984113929015873, -0.02422305157117318], [0.026826385403483508, 0.040324259373094286, -0.06904509483065187, 0.022224223932345855, -0.018159303780297755], [-0.04063038362980322, -0.03574946355409085, 0.023263029918801758, -0.053985552379672994, 0.06328062146435244], [-0.02703608924930114, 0.022963141999207844, 0.005354849479490034, -0.11727475992299671, 0.0025360345027389923], [0.08079079770439061, 0.002776843966401586, -0.01109221809995446, 0.055364863281520876, 0.05223483358768138], [0.03656350839562535, -0.0675451255990368, -0.01149225389537258, -0.024194419292680593, 0.00629344333031989], [0.06200273494083609, -0.059566802030295525, -0.025790368394726128, 0.03244876803985415, 0.013927832733113807], [-0.0027273866106119395, 0.023147189098370317, -0.000743089338592664, -0.04540329052850822, 0.011337613967613992], [-0.015097248805167388, 0.00024148096262884125, 0.032358957037016196, 0.010814170737000878, 0.006007663364370325], [-0.0666448961533216, 0.055165516061723055, -0.028793183249106572, 0.014768607361018645, 0.0617395992450256], [-0.022288755306516105, 0.001700519875809062, -0.03649226342869475, -0.07746352542114154, -0.008375880915182703], [-0.0020412887485968504, 0.04399664314494181, -0.013696039121648362, 0.003803162443941354, -0.05292425574659132], [0.021093466969185938, 0.02861436058846175, -0.029583325305596393, -0.06749412041325738, -0.009172911893781804], [-0.010604078685331936, 0.001488511186533811, -0.0509150601172564, 0.026269648108445096, -0.014127479261095371], [0.021354308896860935, 0.006901908966617283, 0.010661313493494062, -0.014648155747414767, 0.0443558077567888], [-0.03997989128449052, 0.046309647332901244, -0.003803118060211852, 0.005640658584760064, -0.02382144612134189], [-0.05564100134282137, 0.05132229663103826, -0.007461142388329561, 0.02633644130412686, 0.029876747890209037], [0.07711174533952016, -0.002393374782007831, 0.005714245528326468, -0.035147060929551784, 0.02037193507961399], [0.029712711348552093, 0.049727115131726125, 0.007869416637056243, -0.030134284626590107, 0.000980016365647787], [0.062394237843696, -0.060222983929166744, -0.022466476755578352, -0.04373268022381025, -0.025737709956704807], [0.062135854948173384, -0.029451125056660726, -0.04374995871360252, 0.010434172975339065, 0.00043980152767723017], [0.018153393709027067, -0.0064498076019561795, -0.048561292239345515, 0.03968584718879973, -0.08258164453160519], [-0.021455218166579505, -0.020584335946808436, -0.027620128228023157, 0.018542994360966656, -0.016831589112605322], [-0.01513909875993332, -0.0749221053922917, 0.02274809910035561, -0.03130296895609249, 0.029197403106728647], [-0.050347977445996686, 0.04425565713341674, 0.008065361015802307, -0.023573596700684617, -0.023603372499246343], [0.04879265719060338, 0.04642335862031576, -0.049773888480244534, 0.011794623554430478, 0.010852062378629276], [-0.05244823114454817, 0.07354747027188596, -0.002194213979165248, -0.05005288508931475, 0.033349155452715364], [-0.01732683170437448, 0.10916860680819694, -0.02717599260137881, -0.02398724170555698, 0.0013836464742783723], [-0.0633197347325328, 0.063090368585132, 0.0018774609924835876, 0.08967229371616313, 0.012850730389488516], [0.003314181973984303, 0.009448012225337803, -0.08300948287040644, -0.07240150974039154, 0.01402806205506692], [-0.009150828853054611, 0.06099058494973553, -0.028775406033695567, -0.0040331212434296035, 0.04105055453717342], [-0.011168614364048406, -0.03283387033332881, 0.0228636603698094, 0.0051262815869865235, -0.015221430178854129], [0.02455818497701066, 0.014615404087809526, 0.04060093611038803, 0.023964507426929228, 0.014633817406566671], [0.08105430601240128, 0.0011316569385031062, 0.05275120548598045, -0.005692889150639101, 0.055507992196171786], [0.058101211155348796, -0.07204722904192533, -0.005208201285958016, -0.026409621267710858, -0.010826637720657313], [-0.008199036376776212, -0.05514260038085508, -0.04418795793903066, 0.00445454328055114, -0.012750271367485853], [0.009978181337899772, -0.04125241036807511, -0.028353344571938006, -7.616006690260514e-05, -0.013076494953562163], [0.002580879684909653, 0.05719831730144254, 0.025595528603740727, 0.010207086674171187, 0.026982502248576127], [-0.03084110947286663, 0.0010856079475062394, 0.05456826561997667, 0.01301297395702412, 0.08615096190126212], [0.0012472639866259285, -0.00035614145637516046, 0.03372666228511146, -0.024917856979532253, -0.0023484298811644144], [0.011437998058634564, -0.04128828164533982, -0.0054640218842051695, -0.02111959134220113, -0.00015453539197374556], [-0.010577355459769193, 0.05745635300134816, 0.025637378908760774, -0.03646169503592448, -0.0681774959648035], [-0.04850388270709808, -0.0026041352725919343, -0.019023302236767535, -0.05947587873413443, -0.021262113979176635], [-0.04894594177241334, 0.03428231014003624, -0.06095084280837641, -0.04860227175660247, 0.036488549994291145], [0.01005758965733255, -0.03952486541631141, 0.020427428073461654, 0.05346196811917145, -0.04743505342945869], [-0.04757693624319989, -0.05345388743664481, 0.008494322208436713, -0.0020749039015920422, -0.0026499714737211245], [0.04926835772008685, 0.01603352167884216, -0.028300304125643102, -0.011010218629726478, -0.035366435640806056], [0.03524489092986372, -0.06248231974282451, -0.029070945088537362, 0.05119409589470746, 0.011889078584474973], [0.0190190326589265, -0.0449736910637798, 0.034915180254424104, 0.04365183433638812, 0.015771329244073342], [0.018195695319358766, 0.0679400190063747, 0.01185353077334985, -0.024077141947939383, -0.03644887483183908], [0.003958183520393149, 0.005998914677145342, -0.020914569472538162, 0.025362615721041336, 0.021933142764414465], [0.052264655652820895, -0.028154591492143752, 0.021735896700387027, -0.044571822458693955, -0.04306507291195843], [-0.04273773651445334, -0.010505022612170322, 0.00476248719593721, -0.008733171934175667, 0.01775581835066695], [-0.016293931085337686, 0.02937178725201443, -0.06309297886191188, -0.013155263690294601, -0.0015867962873571415], [-0.0333891912783131, 0.07272504336653383, 0.022781007790393534, -0.009088528242902752, -0.012432351247197507], [0.042820137794352446, 0.08098342241644416, 0.004975874780414555, 0.06684102197798673, 0.046179065188769464], [0.033882208938302086, -0.004395459563467144, 0.07847209198704144, -0.0006620716726327789, -0.02940996491003685], [-0.03294899393466073, 0.06795164341587101, 0.0010004090123134672, 0.049641693085920716, 0.009448488953248874], [-0.03376861380459264, 0.005231169433825652, -0.019732374591143947, -0.058787923668163024, 0.021555805042414087], [0.03599844237818166, 0.07740673044093345, -0.01687338997360012, 0.024908214032120506, -0.03944019434690514], [-0.0068406562064346225, -0.039394519277074, 0.019713151621448155, 0.06857064525071646, -0.04785398944278669], [0.08663043143380038, -0.0288829597352805, 0.022113858401758304, 0.02042606089138514, -0.02582142925715317], [0.044975672643118546, 0.0558318337110503, 0.02648032664462734, 0.038491108831559165, -0.027121463644653458], [0.04398776673041286, 0.07396584742501745, -0.006598848016093141, -0.00777605477215799, -0.03186546869753876], [0.06508832918103413, -0.08022405098293026, -0.04738539500603178, -0.005673453854123738, -0.026828299953930494], [-0.0006214387873175227, 0.011193232058884376, -0.024542870410058985, -0.006845615762857334, 0.021126204158590955], [-0.022880986852638216, 0.020188329149929574, 0.033146465403311565, -0.0037982651155562064, -0.02370720677506154], [0.010610273855761368, 0.04150867192323519, -0.04723824412618032, -0.038236044236757874, 0.02396416260212092], [-0.06210712569914847, 0.0400152357037465, -0.02114944399191972, -0.07958484634063621, -0.011757621438986206], [0.02663387390792104, 0.028664087572364248, 0.005804677944242808, 0.03736464320514886, 0.04821207978474067], [0.027645610843835638, 0.029561689021022207, 0.020763163569925417, 0.019251040407141647, 0.007297062854969444], [-0.0192948013111516, 0.021965047325075884, 0.037492204884630946, -0.006889311982255912, -0.040524433320774336], [-0.036191393571161606, -0.06495846910321332, -0.007697701783956452, 0.05307879146348771, -0.06696648900537899], [0.022836028637471334, -0.018081726327305783, -0.03081326071315377, -0.05265349932032256, 0.08153581736063502], [0.06655841207238744, -0.021942300574254996, -0.0375607095547563, -0.034339218116547006, -0.001922790492522991], [0.08406574536075637, -0.006831813559095392, 0.004133509811434923, 0.014846580972315122, -0.013750740535895473], [-0.01816355382819327, 0.005677899719335029, 0.05249994874017875, -0.005678608900077038, 0.030722155203732858], [-0.031549380883015836, 0.03209759066944959, 0.013644632034952064, -0.009832755999900975, 0.02706111835251204], [0.072020289683357, -0.015995085903717222, 0.012705844156359714, 0.025845673147845097, 0.05885919556453037], [-0.0320977163871776, 0.005369612107531635, -0.003957607691562615, -0.009959328978476373, -0.00021360039272294598], [0.03916790416740938, -0.026183461654778806, 0.002778238115446913, -0.013640698884929983, 0.01800988950327593], [-0.06390821067912654, 0.041344579000548776, 0.020995514362676937, -0.007021752789930821, -0.032467225389693065], [-0.08977107882988039, 0.09725638567596474, -0.005665557199753237, -0.037255232281819456, -0.010402648923485618], [0.020077193687909736, 0.03876552814770224, -0.070633439546315, 0.003660834929368381, 0.02191068700243874], [-0.08102836812258642, 0.08039559854838124, 0.007957127135340922, -0.004854650099966609, 0.057612693891211396], [-0.035928510938073005, 0.036881195049169445, 0.06274275146232122, 0.06504018472867285, -0.012044413908958987], [-0.019483218035172317, 0.026890465466495733, -0.08457843858138185, 0.06187468169132744, 0.0031969597284078398], [0.003463699334017243, 0.05814325545291852, 0.021131449572076366, -0.010617358222447162, -0.025463222952187906], [0.02173229614829356, -0.04153587033281239, -0.007616196190814836, 0.01722516949770367, 0.013705847910923736], [0.06535633656371494, -0.09541115311484795, -0.024607251251225336, -0.03316451253576516, 0.02109640289348196], [0.020752049277658818, -0.020995470333231722, -0.08412601261412886, 0.06518610403874384, 0.056068922744943545], [0.07169956125487902, 0.025494586261474682, -0.03735584925128458, -0.007036560716121353, -0.04879217428521605], [-0.017588864643192946, 0.0035972952474842643, 0.006599934115667873, 0.02541888654925434, 0.0006592663143213944], [0.042167474563464785, 0.03941696023441084, -0.022146359766589036, 0.03503951650159611, -0.042375529733424684], [-0.020293465074377317, 0.007984086490163234, -0.051761595097535605, 0.05031100854637404, 0.01370227139519305], [-0.0029349328920302256, -0.01302595855843067, 0.048583701811430124, 0.025039971453728497, 0.005151872215116371], [0.06330795393206276, -0.015305750456327021, -0.05591959482070522, -0.0038905412884313235, -0.0451052169641701], [0.02171256951249526, 0.07445277680116301, 0.05035128326790298, 0.048896758236662966, -0.06493213860258003], [-0.05381872360991119, 0.022706175516154257, 0.0618883165088529, 0.026246886345421317, -0.035011863232822946], [-0.045799888901639725, -0.07840612928434235, -0.008974739353959062, -0.029443292425482055, -0.061522400364382876], [-0.03139155552208676, -0.04583902064820548, 0.005448747775573128, -0.05855988088495352, -0.015115736353308476], [-0.03630432751056759, -0.02325342646478816, 0.008729163285176908, 0.03668137313713848, -0.0016703277897226949], [0.005714898620130549, -0.04386920329466404, -0.006641191236819175, 0.023236740605557166, 0.027185869260123004], [0.04319462007202312, -0.021472990139790833, -0.012861731977950762, 0.0349141675422436, -0.03214485644893136], [-0.01776980418240397, -0.059674493244348474, -0.010471812944320558, 0.011276283405706449, -0.06754128591676851], [0.037468102655809535, 0.016794121243802914, 0.04107926774578344, 0.0011349632767543856, -0.07181999806616547], [0.043755624450504044, -0.009036214199354152, -0.0075391243729373055, 0.042819692184490464, 0.040006012135080746], [0.08219704665712815, -0.017663013645635425, -0.024169325269740298, -0.005244263014530295, 0.028876632051237413], [-0.015453921404274514, 0.05561251486827588, -0.005265964218421718, 0.08312555707114287, -0.04228071118710784], [-0.0014241885467261189, -0.04867477427263892, -0.01794253136495903, 0.017098593496972587, 0.03334822413177543], [-0.03844500424042205, 0.034066613086231184, 0.002200711798459, -0.03290301541038264, -0.025536814421250564], [0.007784492277154163, 0.049776669813599045, 0.04420081777114213, 0.010304290093983615, -0.011364429884201825], [-0.028046691804478822, 0.02358316998511851, -0.025071124867552357, -0.045062495241897225, -0.06674163744349704], [-0.030856221254929574, -0.017689318979320724, 0.009011894229954374, 0.01039118067775255, -0.0511686819087214], [0.03640129860609628, 0.008335158636338045, -0.03295592459348912, 0.032239434215528016, -0.035562336794568744], [-0.0022991268290763066, -0.05880364337375584, 0.014244288084866833, -0.012730849729995749, 0.07663206364354087], [0.09915657161422753, 0.0067208776078426305, -0.004726731171678066, -0.01062865437237164, -0.0260837296619863], [0.07392473218067976, -0.039715457037590406, -0.017240519317619593, -0.02322180887921315, -0.00938739893302508], [0.06685476455517371, -0.03239960745074323, 0.044036694795685984, -0.057968661393044726, 0.04198683468224809], [0.12232224859441981, -0.03938863610630586, 0.05390543539703952, 0.011334542035297344, -0.019161174696609568], [0.048070256901997045, 0.03571160444179906, -0.05154476519299357, -0.03408860392103305, -0.0031075798743842834], [-0.0273621936141996, 0.02246965411207321, -0.05818585648905752, -0.005739020081245575, -0.03472732316909371], [0.054119339290405126, 0.0021203938539411634, 0.010020777358454747, -0.0264618382348137, -0.0038136595313766194], [0.05316539521256255, -0.013171483253196765, -0.0056619409712338415, -0.048319109934923034, 0.07567242107318718], [-0.008004745144816883, -0.0029823922330014818, -0.047005685648171695, -0.01606394422579223, 0.019048685520879047], [-0.048379847411974174, -0.022114292057378426, -0.002005670530321592, 0.005690502287734717, 0.00982312438769937], [0.049737243615733916, 0.01414116792765908, -0.041221110707523344, 0.04553364823381577, -0.03155540739712278], [0.003985080742492045, -0.019553374016449045, 0.044734989091726365, -0.01207815044812302, 0.035060410931634256], [0.04998815883094996, -0.0070102761397035805, 0.0018955649430471952, 0.09977583061840956, -0.01804350097834862], [-0.022673243719190633, -0.006270382590488876, -0.004252426982479654, 0.014794390849439796, -0.02347653731041543], [0.04477121161298026, -0.06784512912956314, -0.04076413720054649, 0.051576809007977654, 0.06224957131372963], [-0.03413464462454039, 0.019593626505419497, 0.007068012728846087, 0.012545444715863939, -0.044047846054392166], [0.08552898347704756, 0.005473122958128078, 0.02517997792472713, 0.030688426555346756, 0.012737925735010782], [0.042208770504011894, 0.0002398446990202319, -0.02157578855248855, 0.004999786700354329, 0.029808150142308792], [0.014062136501899766, -0.008410263964277563, 0.06622788436610125, 0.021773172230797697, -0.03391956162931206], [0.018590958001381858, -0.04065122827601626, -0.0005271720495102891, -0.02614037573419377, -0.03702593983635463], [-0.009429571965651778, 0.040775011338567715, 0.017080516862244384, 0.024987202125693952, 0.02393237902150947], [0.006544148634387357, 0.037793416718863965, -0.03141838035779563, 0.04213150605517575, 0.031550796311357064], [-0.09520793795346714, 0.0639707502650953, 0.020663738722839615, 0.03275460791508781, 0.014538706493360629], [-0.07552764168207121, 0.07403558666228399, -0.03783874286325194, 0.004755793305050847, 0.050402330535439625], [0.07203589103468513, 0.08101204690149721, 0.021217694432563716, -0.06404558042566963, 0.003863017709029507], [-0.07424591000681098, 0.01258214404261911, -0.007866823716887336, 0.0010387408127374154, 0.05487331227512215], [0.020655180212151614, -0.051004993198426496, 0.029211172785031644, -0.03724269995107965, 0.0060184639320621115], [0.03992703232858912, 0.006056208123914547, -0.02667395828610604, 0.0018656040531908572, 0.009965629796122599], [0.047952207494233866, -0.020107655934696052, 0.030505019808839743, 0.007803955811565886, 0.06551525779235404], [0.025906938814852586, 0.038142101340342294, -0.004849317192319414, 0.02864665761425054, 0.05894913464173442], [-0.003944832904452415, 0.03465324540945519, -0.03715044748801061, 0.045718664936455815, -0.08365833425879585], [0.0019080827583409113, -0.013685565236265877, 0.0076471888248294, 0.07012522840482985, 0.02862257213888037], [0.009289036818706903, -0.045136504573108076, -0.007258914867181473, 0.0034916267248470963, 0.03985375346077693], [0.020905627087888224, 0.011254799644025718, 0.030254773335579178, 0.010779749446796813, 0.00237986086782622], [0.027885770398558926, -0.01015508997154438, -0.0005099903635906834, -0.03417422292727191, -0.001443099634976263], [0.02473235649501987, -0.08467179799361194, -0.007373547320540834, -0.0015227362174090135, 0.03680729871039336], [0.04935250443688018, -0.014404545091427782, -0.039557000083433436, 0.013629924029467973, 0.0075155678609239015], [-0.08138304808451048, 0.01781356050471059, 0.02292153120991452, 0.007695414869885138, 0.023642372094148285], [-0.003935036002849996, 0.028019459999935593, -0.050492407652766504, -0.039137922165121485, 0.0030152635194180045], [-0.01087024468003278, -0.029747172301237863, -0.00671383891981647, -0.02772962934482126, -0.035593635525623495], [-0.05437937144997666, 0.010620746074469832, -0.032599315390882525, -0.01627359825600832, -0.03996366645057776], [-0.062284059045512444, 0.028251037658606093, -0.0416872170697629, -0.025415790585617975, -0.007263601362356314], [-0.0470492392213495, 0.008045915909374812, 0.02683662243385003, -0.040744028317523565, 0.02196872223124547], [0.006440730080526342, 0.03861585338852275, -0.017864677988736352, 0.03446208959954129, 0.0001385597183197464], [-0.03015940188325551, -0.026828435513140514, 0.059343404819873664, 0.03358288682158398, 0.007269023341315686], [0.08688545704767593, 0.017200244538224857, -0.08683419124359933, -0.01514807789709292, -0.003124104457006637], [-0.011344048344551303, -0.017622112368438383, -0.04166110046733493, 0.008497912445094133, 0.03209336015254111], [-0.019281936900127118, -0.06259461329038482, -0.03480546796474125, 0.019362595993389024, 0.021650249139668346], [-0.02434362095906549, -0.01525184954405378, -0.03788478556450497, -0.0032166393354679055, 0.08214545464812188], [0.00783149814122093, -0.02715288434803276, 0.028004527662938417, -0.013674724729533402, -0.044128319588206025], [0.06593792056898866, 0.018730540645731292, -0.0240550039998921, 0.025446390717594553, -0.002397735182987359], [-0.042895658059415066, 0.09718355366222531, -0.010840106168018213, -0.058158054642787574, -0.01293289585341933], [-0.014445158107899127, 0.016270885557798286, 0.015013889265410852, 0.012766834105784376, -0.04583539852846368], [0.04663276174132, 0.025519538459780604, -0.006041583662820808, -0.06454273779122785, 0.04088399377454514], [-0.0036018269543936342, 0.07108583759383091, 0.01742473367706401, 0.01163048533582989, -0.05622514888360244], [-0.08207629928483666, 0.02739042760428333, -0.003045929384144041, 0.017252603992373574, -0.023600790168991876], [0.049998297533241656, -0.030200785676603763, -0.036247592474891684, 0.024973526972864996, -0.03011960676208767], [0.002428469945696635, -0.019461559743320117, -0.0384327610482926, 0.03427625864049138, 0.014820055597269323], [0.008471830701234348, -0.05346056360268801, 0.006870306102120648, -0.018838784836644352, -0.014314290013760663], [0.04640741889615409, 0.01807966688643696, 0.039585302475596516, 0.03599564089573836, 0.004055948395226328], [0.03921251111684174, -0.016169976554392656, -0.01836711056197174, -0.05245598751651888, -0.011816349903914086], [-0.0030731018694941815, 0.01301597980977357, 0.02917978297320653, -0.022697907655198274, -0.05057354443676053], [-0.004943013595585404, 0.08340525590658346, 0.022360461973122792, -0.020311112573289904, -0.03968420198208191], [-0.061174524336771285, -0.04750624631700824, 0.02279182829482349, -0.009157142913165975, -0.025133045912102917], [-0.00973403311673104, 0.006836267791037688, -0.0038233845392241167, 0.002483028206274177, -0.019859383062421913], [0.01219871648199392, -0.013570260600164665, 0.025543062773237778, 0.012345327000590494, -0.04994053492168493], [0.07350176306772192, -0.0014988205580057136, -0.03699879950978714, -0.03653795930343466, -0.06514694989817842], [-0.053732493777557934, 0.030143385910249003, -0.012841081675260371, 0.03804948940441043, 0.0408417346612206], [0.012817326905048276, -0.018365164242446635, 0.021343880164675744, 0.03964502289052053, -0.04038694902468341], [-0.031552806499362644, -0.02956787038683101, 0.037155114765825704, 0.05334768282396053, 0.010164216661603408], [0.011535039959075783, -0.017766178992133255, -0.03632907143578442, 0.03108589033747009, -0.00883254700331983], [-0.018675053671977054, -0.021958160893001476, 0.03419975171413246, 0.02941776343228342, -0.04024426547155062], [0.009349106235656077, 0.023909715388213678, -0.055111271603570565, -0.04120685486912188, 0.011688349762407487], [0.0481656734975486, 0.023652407262716946, 0.008941377360592253, -0.0255083457737129, -0.009467005253495631], [0.0452382335510531, 0.02166624218461348, 0.010912280036102567, 0.02604095794330846, 0.005489592822635718], [0.0641207141056699, -0.011795599295921649, -0.02227202098838954, 0.027280173898297642, 0.0483024444589201], [-0.0022370717363551684, -0.013198793483866888, 0.07182098243702321, -0.0022305789347516146, 0.011957080429293342], [0.045339246494486035, 0.005401510622977904, 0.06010843752795453, 0.019364386351158742, 0.01475343458585514], [-0.0850232784060043, 0.08234119057069741, -0.017048904560399473, -0.04320814669732238, -0.0375146388173964], [-0.048693379083349905, 0.11320123332571978, -0.05128982459060859, -0.007935225950103986, 0.010694038316738437], [0.011915200933278268, -0.016262614842912148, 0.02578323564533752, 0.010163903085516705, 0.02867078821338007], [0.02371150949959731, 0.002264273569443367, -0.0014341422304250115, 0.04600529668677771, -0.02639217587959227], [0.01293671759632044, 0.00012886717280690983, -0.07341654568170478, -0.026954687351485873, -0.07623248728357315], [-0.02453905026500871, 0.023060231766762026, -0.07581271711909954, 0.003511897006930002, 0.06206540233509702], [0.07787216821627756, -0.06613879695783799, -0.044159681332071876, -0.05471177479822232, 0.0464815321956858], [-0.0008624539485117382, 0.028613604294045594, 0.014288123970236743, 0.007195131777163831, -0.01240134854464791], [0.015374012342482792, -0.06093727772783458, 0.028118017811727448, 0.050538248094863944, -0.08619659056746529], [-0.045021433958439584, -0.027554894844967717, -0.018059063635414513, -0.004179959571816214, 0.03448084026780792], [-0.0066055834818044825, -0.0708230813118723, 0.034640564926453225, -0.03534497008132088, 0.004292227656251081], [0.014835357201736458, -0.02281473699220988, -0.022600459286783704, 0.025512529687335736, 0.03086118263134694], [-0.006440159602580437, -0.0034195064852257434, -0.013025078456093292, 0.050654499609368915, 0.012438431243044114], [-0.036037917782612214, 0.027162515672385572, -0.0022317089127840265, 0.01042737061039059, -0.03046727017756032], [-0.021177339584469844, 0.008105112367672829, -0.03736849651112454, 0.03977925684804866, -0.01992060805331377], [0.010499706306843213, -0.007461523707200531, 0.038329926555491216, 0.008553677949271546, -0.05251905250375335], [0.005820648528937661, -0.027948639637199006, 0.010663968858691824, -0.00899813499915841, 0.024446748550248486], [0.01769106516964256, -0.0510911599842415, 0.00014861087935285895, -0.01713256672429884, 0.023407639628984876], [-0.1126596487072598, -0.03622231675550208, -0.005336123497698465, -0.05501495098249389, 0.015674216488064517], [-0.03214010072020405, 0.019401960375384577, -0.029708557165722183, 0.038047097703450765, 0.018341981488059517], [0.04281463130623633, 0.008697328393722732, -0.029705351310602625, -0.009914154420932254, 0.01204695369813616], [0.031246341447055733, -0.029518675182211195, -0.013134057814619396, 0.01980130538309195, 0.009563938355464784], [-0.005330586576881018, 0.03638150468653624, -0.012827642162824872, -0.004819052722715217, -0.032320017295873325], [0.060680717657440195, 0.006484653811862315, 0.04583001889870091, 0.046848834999233056, 0.005360947691331162], [0.02530135135003476, -0.05474409801138494, 0.007430734387511319, -0.03173485088306244, 0.048223311963945234], [0.08561156672242166, -0.01795867852253111, 0.039788678892442184, -0.004632578749945701, 0.03333414963110612], [0.03382548208478577, -0.028961410573384982, 0.0366488981612698, -0.0647500423067312, -0.024405161038158266], [0.013226252721857797, 0.024730771867468374, -0.014977144990629201, 0.01346294447160114, 0.06293110339875532], [0.07651803356954745, 0.03614914735026136, 0.06747713750096397, 0.019285236849202445, -0.027906981069523024], [-0.0007354887000963853, 0.04869536755759459, -0.04440695765912041, 0.004432478777195385, 0.03232899045297612], [-0.007397016219179661, -0.027709093563300705, -0.02503688313629445, 0.010224652133644024, -0.00962835110352594], [-0.05431753733629275, 0.05505862884269861, 0.0015572534764682654, 0.014896886228527775, 0.0030262114318975594], [0.027763647027940305, 0.030065367419917985, 0.015522427002341244, 0.016545915708875373, 0.09434489569523602], [0.010620929848744786, 0.09502131664786444, 0.04058187711630266, -0.03798335088157266, 0.012302773517093885], [0.010939926359680092, 0.023450706696174016, -0.03275734643072175, 0.008562047678707638, 0.006797064182775038], [0.0077477599571420235, 0.012313640578795226, -0.0036162635075778506, -0.007979090787421782, -0.05207936462205813], [0.03578608262073766, 0.006493368263026137, -0.06603585586497457, 0.02372398787399595, -0.08092223592370063], [0.00024723508083521813, 0.00766952001171745, -0.02419129153788743, -0.007187190721755613, 0.02182450171741974], [-0.03965168994730822, 0.05690251438469393, -0.043638125087904746, 0.03695053478112992, 0.02628294193768615], [0.012316585800802965, -0.01740736454071664, -0.018526682373777425, 0.033674397541590004, 0.10252625094289049], [0.04411859211171688, 0.05760973124048938, 0.03696179618809346, -0.047985814940213124, -0.02460402249534806], [-0.02857028360101178, 0.05872396879743814, -0.021940271629576926, -0.020648755744415905, -0.021631238000288728], [0.031451808583755035, -0.05845782327271696, -0.030195982255711323, -0.022433500236863184, 0.006019011562287397], [-0.027921364888934524, 0.07023957256354664, -0.003846222920267045, 0.014689073915382619, 0.02234456456185113], [-0.0010771787523979471, -0.08151593905181197, -0.03207486846374473, -0.031120359597771104, 0.051391417787015566], [-0.04453083085116305, -0.008361335875178162, -0.016956122659319933, -0.009064974305406074, 0.03961166163551213], [0.014759231755403727, 0.058420133579507476, -0.003049178728695225, -0.0197443507414263, -0.09463005291600826], [-0.03537044655681511, -0.02121357302797167, -0.045054528051491814, 0.04656878486348132, -0.02162617861045658], [-0.03803867204769617, 0.0425017519489612, 0.0023281013208438983, 0.045495518444858385, 0.007300262204739898], [0.021331134833308205, -0.003366345956700847, -0.028158043273695338, 0.06598868682727725, 0.05477680377084996], [0.04461382256626141, 0.03335026245741248, 0.027711979392684122, 0.0305550884767873, 0.0005137670828274248], [-0.04035709614128231, 0.0038898352382981936, -0.010544831090531972, 0.059698523660208135, 0.04217760195397895], [-0.033698266782014624, -0.021702778107938293, -0.015026662207256685, 0.017178697788180104, 0.046570646381814934], [0.06083999017432348, -0.0930155873473719, -0.008096159570381414, -0.031049257710411, -0.012825116896371993], [0.07828814565724954, 0.014163220406560132, 0.0021200153477473086, -0.04449197246522245, -0.012044899282185247], [0.02864492721998857, 0.027912029498372258, -0.022204609562403707, -0.02418864908955263, 0.046023475784272516], [-0.0737757514626027, 0.09319383581116293, -0.03671983831056919, -0.034327441326112165, -0.012455820863811567], [0.016292866753330124, 0.02783341795641745, -0.01619697304724763, 0.02768059882940555, 0.031998895349389496], [0.04734052137965354, 0.04913203631549361, 0.029610064290768068, 0.022082765041339943, -0.03540053554746148], [0.032214151525387286, 0.04783530803363091, -0.031423584285440044, -0.002842348621552532, -0.008439404211594588], [0.014089009254027743, 0.004839496185337678, -0.04663623331328047, -0.021027034020752736, -0.03376767379233166], [0.017537517313170065, 0.04515032774379251, -0.05941233930525891, -0.06205378783248881, -0.0038201352403752203], [0.02290836526899458, 0.0255462497165813, -0.03183541730365777, -0.016966666981123306, -0.02541509140417427], [-0.016685875741077605, -0.022096228565163394, -0.005109871586194237, -0.004726129164230521, 0.013804487961235895], [-0.005698503557041485, 0.016501711603215157, -0.042500035643732656, 0.07473238382563563, 0.017695025531957675], [-0.05350644157102932, -0.016825404551127528, -0.02507289504244074, -0.025203328035823078, 0.061154285938315504], [-0.02583923658748052, 0.041075814266179865, 0.03604031591994195, -0.0056485035961948565, 0.03969988038280425], [-0.019806252340589525, 0.005657140794335255, -0.05293072659748057, -0.026451696572796522, -0.02254096739964396], [0.01847268504907301, 0.015903146374822482, 0.01514516778018393, 0.018819871364043735, 0.04314116254626695], [-0.052925328784053934, 0.006746624149622576, -0.021406159068287033, 0.03494916653951298, 0.04351550953082105], [-0.010113643595350096, 0.007540896981989248, 0.050311697154742666, -0.006390231150935272, 0.08988418126820327], [0.06904629349999863, -0.02839849828570559, 0.03385605544196112, 0.025431762772466344, 0.03725771001634685], [0.0343710558043863, 0.06085151193588739, 0.015767262052069294, -0.024131082413132797, 0.024423323984635776], [-0.033291210625249895, -0.07726580191449599, 0.02043760860038741, 0.008955901512112893, -0.015828311261733247], [-0.04879538673384148, -0.03246893885703248, 0.0599423966673573, -0.024426756738815898, 0.04141321586022545], [-0.009350072772741122, -0.033452517511761114, -0.02207432288997824, 0.008671377057457741, 0.022213005998518952], [-0.0039743010580403, 0.033716732895836134, 0.020340025781168166, -0.004095328797282063, -0.02588941872781058], [0.004231196889000912, 0.04833639202140526, -0.023861015788096112, -0.021333733070504766, -0.07551046994337104], [-0.018689890735592168, 0.029834679405592715, 0.042105100222895736, -0.050584245452614154, 0.05570648543100931], [0.016250074758276715, 0.015167264414244944, 0.0027364319939542003, -0.0055485265240776405, -0.003958020841276683], [0.01797331511389114, -0.017817308179472104, 0.04147967394746122, 0.028630529659825377, -0.016643123879597512], [-0.0043925827084260564, 0.029958148211674425, 0.02032838735593778, 0.01000499642454178, -0.016625453892238354], [0.03347507460276369, -0.015421423266301994, -0.017736301493091203, -0.015888655476982733, 0.012368367213470038], [0.037482322997949145, -0.02464671415508059, -0.0417908936425035, -0.03990274743403854, -0.02519820816568993], [0.11197662080912597, 0.019466329472654975, 0.014497838291938037, 0.08080285312991974, 0.06192154763203194], [0.06164419565899565, 0.04183617232367826, 0.008298780408436903, 0.05874872597385348, 0.020121505914015646], [0.03982932265306737, -0.025660254704771648, 0.014750079945640988, -0.040379258217713494, -0.03144611026527369], [0.03204600522216766, 0.07876302386601679, 0.03218378202836998, -0.055838979242777295, 0.009050730806237908], [0.03390078261946929, 0.07173396165338959, -0.02281785768709691, 0.006921896283919795, 0.006481959071599206], [-0.03639350889351047, 0.02064882008975883, -0.032995567278692586, -0.002606248407222031, -0.01770131881908349], [-0.00290407757496469, 0.0013393992548476137, 0.008236667748440079, -0.0115852555698675, -0.06808815989329395], [-0.06787259910211965, 0.0005640928450148967, 0.0091669977423549, 0.014690940718444016, -0.018685294641255776], [0.006508419458874785, -0.009770253208458255, 0.042324754622818504, -0.0204855155731311, 0.1014456682317719], [-0.004985397995797483, -0.014772445189040197, 0.06095103463239259, -0.03714548306701732, -0.019417289463544082], [0.008575587672195547, 0.05337441623384968, 0.031803662426025954, 0.011100065427989232, -0.037364434744671604], [-0.05033752713471144, 0.006317750844626087, -0.021840837656429808, 0.015632037746861564, 0.004661319212905054], [-0.05818370068100635, -0.05718737838990541, -0.015097685802652383, -0.0234893729651483, -0.06916866474188779], [0.01876414435081105, 0.022051485496586868, -0.037139127914746876, 0.010579037036612502, -0.01627003566512345], [0.0013585774861011937, 0.020641346646308154, 0.006396085018652044, 0.05804391211060902, 0.0437798231989095], [0.0510346917669402, -0.0036063060446153983, -0.028568188787425702, -0.04973472948953641, -0.04713126307765176], [-0.013227843138324733, 0.045069200061186754, -0.02277149660324181, 0.0433094716933242, 0.04969443159247897], [0.030244094909563316, 0.06484441036747943, -0.013372637091853842, 0.058474816306543116, 0.008232511975952943], [-0.060936108492441764, 0.02539681515654548, -0.021292747365579817, 0.0458912541552527, 0.004703415090761884], [0.011993092426586834, 0.0056144461003536416, -0.04334680096339511, 0.05264139941738809, -0.029816952183644836], [-0.008855031075291227, -0.04672540940756357, 0.002789060039357057, 0.011569512065996773, 0.020745147108421732], [0.032273993425241995, 0.044018519897305826, 0.06662966522006523, -0.06563662331687885, -0.03027925614246042], [-0.021453507227797812, -0.01894287709989129, -0.013493627843387434, 0.051511514122107936, 0.007638749908631885], [0.02550893899895558, 0.08055441950076221, -0.02490116028655203, 0.060270120791663426, 0.031877426769303246], [-0.03990154170595302, 0.04010535443894258, -0.06724291041529867, -0.041011246120368106, 0.03517919203631182], [-7.026563321753229e-05, 0.01739980835005124, 0.03721181399709014, 0.0121771885911779, -0.05202018728836263], [-0.017160160784129522, 0.0844851738057346, -0.08635893597318368, 0.04837502797037956, -0.021648575172743642], [-0.06441862148887442, 0.057796911317758874, 0.020672351043563745, -0.05183324872246206, 0.048824766058578314], [0.017741947955805668, -0.003988198231809793, -0.005504945696902266, 0.006742089381335022, 0.007144131297716568], [0.025107222541721128, 0.08335547747957313, 0.00515370676034453, -0.006812474711248276, -0.016552016882095892], [0.01011496794757689, 0.012940284760705892, -0.014290665472876217, -0.01021949074588264, 0.048063694214781676], [0.030711153815680136, 0.05395053518327706, 0.033944233051721194, 0.009967463483270768, -0.03345399168206062], [0.048951534889016414, 0.07506831365889721, -0.024643891052583827, 0.041622555469463855, -0.025316043881508897], [0.01430558836035481, 0.02547645778535109, 0.021374042806080868, 0.08031814900451094, -0.04254941136425043], [0.025051637946350777, 0.011881414970823132, -0.022497604187634565, -0.015122205841862984, 0.017559795911985587], [0.024968169337910247, 0.03324056855207386, 0.052543852659817, 0.03225010181849212, 0.02684964531861786], [-0.08739727778506273, 0.04573648065964152, 0.02980091912522754, 0.07003948508498764, -0.06077255174650905], [-0.03154326712059449, 0.0272440096269115, -0.01318654350625217, -0.04537959471265304, 0.04149297648662202], [0.07518693562882538, -0.04249470739344965, 0.014993717576034814, 0.003570672050478383, 0.020184381717624145], [-0.020268073349558595, 0.03349507779721019, 0.0422641602075966, 0.02297891388992057, 0.05798303236450603], [0.0007189441193674405, -0.008593782691670914, -0.021691136081424478, 0.026979259894912695, -0.026048203481747988], [-0.03197177416078486, 0.021213762131752634, 0.07856531281259625, -0.046826423130260024, -0.023673194380142197], [-0.03593507862466753, -0.009424028373755552, -0.037325352770144885, 0.044967207137347795, 0.05601368567511098]], [[0.8224561530976531, 0.20310301133681855, -0.24515807213286292, 1.3740695477484957, 0.5761045124630993], [-0.8184480889940717, -0.19167394270063035, 0.9360594773306303, 0.09875868801640487, -0.4207988966406666], [-0.6316473501969226, -0.5985895940498301, -0.631760416982109, -0.4311544997708933, -0.3641893702060039], [-0.14548154544230815, 0.3149678007031757, -0.09162616633647457, 0.541391590746873, 0.23697970329578874], [0.26509199708037895, 0.9382722240096398, -0.028725739252010326, 0.06179218292025206, -0.49311387089678804]], [[0.8893514145018067, -0.37568063029237797], [0.17154840095948323, 0.44616363295044786], [-0.5459497112941162, 1.2081069946591076], [0.6787165835237562, -0.2211212106094162], [0.10692732654686618, 0.4094293162155989]]], "biases": [[[0.021906070922282386, 0.1066559475402533, -0.006444455904177506, -0.010209736506364355, 0.0036717946087991013]], [[0.04580622103580581, -0.001545393322258966, 0.2413789006440225, -0.11910465109453457, -0.005569777534469272]], [[-0.13912917857290819, 0.13912917857290813]]]}