{"layers": [784, 5, 5, 4], "weights": [[[0.0051194217213439966, -0.020085751351246673, 0.021512069384287978, -0.05665443807957425, 0.0008526168732472039], [-0.04626375834801072, -0.0046655684521943125, 0.018667923611745785, -0.03998560476496301, 0.007550975421324727], [-0.03008046521373947, -0.004673679135888494, -0.05740845063328972, -0.0597660812190191, -0.0625702063280673], [0.06510086230500593, 0.023441246212199587, 0.039191073395554284, 0.0191496763068883, 0.01652539577702386], [-0.0194300554335564, 0.02512987373933268, 0.016615442918414932, 0.06269611782165121, -0.007102269706294318], [-0.016021228242783063, 0.02697156316869877, -0.034044132849374985, 0.03650293932507986, -0.03278251271427458], [-0.046225530047352664, 0.06283469530308226, -0.03590259983887362, 0.0014506238706967238, -0.026460404532625978], [-0.022909602208472095, -0.006356996283156889, 0.03631438981944048, -0.002569142810498386, 0.03212438513585343], [-0.010695721564719849, -0.10173519726163889, 0.05319965408567644, 0.0008839239541192773, 0.05388458397072165], [-0.022571187848068996, 0.0022743645130273334, 0.03397638247292779, 0.06646825021269225, 0.022978319157606068], [-0.03380607393742608, -0.04002344861329089, -0.04403480753532316, 0.054038743424390655, -0.03887989006325825], [-0.07767711418674206, 0.01433154960496211, -0.01977271518586177, 0.09865439085574122, -0.06705831611248815], [0.023364105163371746, -0.056368294662978255, -0.019486958881110378, 0.09923115086604221, 0.03432820092917083], [0.008343575569437678, 0.026079275315675488, 0.04724302883191414, 0.05134911545030688, 0.0395447966841273], [0.02173297464022164, -0.01997868682331799, -0.0053598961264610815, -0.03432781363292688, 0.021196993557673183], [0.04480465503332651, -0.0020181874184752664, -0.05523305990010849, 0.06156863558795942, 0.017033229632619044], [0.07244268667806761, 0.009499278702726521, 0.007290936677006283, -0.01569049479365953, 0.01468067510362364], [0.03761334513422777, -0.025884763283575904, -0.01753733154883872, -0.003520903091832693, 0.07003167941018702], [0.05014623680271766, 0.017027677076661436, 0.012195352013444896, -0.00836066716821891, 0.08616933049533695], [-0.029221268659360894, -0.06656954520951307, 0.09769492396331156, -0.029000817524458017, -0.007942799771204703], [0.03215879774296094, -0.008813066674928064, -0.022192778542259605, -0.026544685738029445, -0.005974362135639374], [0.01725056225787383, 0.018344220756957456, -0.0006431577775098403, 0.02903946291145548, -0.05275402806604377], [0.016888776000369376, 0.009421166495748404, 0.017059834119793713, 0.04648594266154559, 0.07036424847718399], [-0.01864104307128086, 0.0026776248158765317, 0.0024145090132329148, -0.0788666597714124, -0.03783365331759814], [-0.05701151280167626, -0.03142471377239948, -0.016967201103713362, 0.027159239341225577, 0.024924206636961998], [0.04225710099177481, 0.012714390906497957, 0.0929590588964584, -0.03433923085736587, 0.04604562819105046], [-0.016684630668212613, -0.005257689274858491, -0.0413090245979003, 0.019019276227884685, 0.04950296391252692], [0.018518483952769293, -0.04438448054391534, -0.0662615776081806, -0.017460672826211995, 0.0012222935705185696], [-0.02170802297383977, -0.0005507538227337103, 0.0004919019444309059, -0.045653532783595165, 0.030764479697781455], [0.0034009531578561526, 0.0521833376017384, 0.01364693579054169, 0.016476822670844184, 0.0065182641632647925], [0.06109262064493181, 0.004675209066215652, -0.04095872543891315, -0.009199886537634195, -0.03898561833795252], [0.010200364580345353, 0.034164812752741545, -0.029036174959902905, 0.030464163009996797, -0.02918888963334775], [0.0630201199873363, 0.008982805919123177, -0.012333525751465594, 0.027047917707196126, -0.0023655657600730896], [-0.02153402648059703, 0.01966164147265895, -0.005162304296334898, -0.026806697271405798, -0.03745731852495636], [0.01179320813673798, 4.771689019833038e-06, 0.04778864657090685, -0.004662311612966157, -0.014402786816426795], [0.03653867058076278, -0.010218852397102705, -0.01261162127109083, 0.03753156831954856, -0.033562974834828826], [0.025192070449699535, -0.05724214443244479, 0.0013239520507947642, 0.02110431936279525, -0.06334166694501363], [-0.04388074126134507, -0.010568974050660544, -0.03869021710201851, 0.09708388442573641, 0.04132751343802237], [-0.011773917311211276, 0.01281324453660564, -0.01581213835575339, 0.06866119593720953, -0.008205243355219903], [-0.09047116379560312, 0.039286985544702634, -0.013103951403043811, 0.04579305303939375, 0.06691325027484085], [0.0401207148918774, 0.050201379355377954, 0.050283126363509886, 0.03548176222618216, -0.004085833169266316], [0.07061475787607706, 0.12075338009309561, -0.03642201460105789, 0.11279958954869884, -0.0197256890395558], [-0.0028785452944573337, -0.033935445470000006, -0.011757953693507656, 0.06164343432040564, -0.010811900658153207], [0.02820584701949943, 0.0025501666323439576, -0.05321443518487562, -0.013956213188983109, 0.057860511885302175], [-0.021013513538652363, 0.0016006775446597565, -0.058678244039574154, -0.01159152530002624, 0.059709034217823316], [0.054708525370239645, -0.034671396235057175, 0.008812018366771621, -0.056296146833103286, -0.048616321709617126], [0.032045086926304325, 0.016891391767397193, 0.03801170854455368, 0.0483367901257953, -0.06630154655262345], [-0.04942569758360986, 0.03228487945763068, 0.009041989758825992, 0.03919071463968958, 0.006388125878681999], [0.0024898476353818226, 0.03568294395910418, -0.00529975465858288, 0.023470899816396867, -0.05672351720844734], [-0.042506991241391075, -0.0005411239758538252, 0.03899386969272165, 0.012180496522839781, 0.014758767689148638], [0.048409611888843594, -0.043032011374059854, -0.008418520965583128, -0.07247996962463124, 0.03988574007562061], [0.019067005162898023, 0.028569079773916376, -0.02453524452429134, -0.036644202783247946, -0.052480899218304566], [-0.012531941820264137, 0.017485392684759286, -0.0215721495377927, 0.0017788132433611294, 0.024636386445057362], [0.004226685400716776, 0.03453342097933847, -0.07440624279421769, 0.007629674815688054, 0.03578290083695528], [0.026346121104348554, -0.025902276105167772, -0.05019408774387622, 0.03983397371049498, 0.015378431868156503], [-0.0236303518112092, -0.03879771328134791, 0.012639580177024361, -0.03260599894283734, 0.01519484583315726], [0.04149025479302134, 0.03722352679689952, 0.004186206756622934, 0.07311573996343566, -0.007761266776175578], [0.018469600712278846, -0.00792798196562849, 0.020484057967758044, 0.0024261616780214506, -0.022470091550469518], [0.014926565371171485, 0.001060034594871573, 0.08688100720234233, -0.05276002357018621, -0.11275170689760075], [0.0015683678788923753, 0.0035790892366246215, 0.0033840245215318904, 0.05566440810318666, 0.013403240487830736], [-0.006655911254660831, -0.06646366171633333, -0.012398418898995362, -0.06033974375447976, 0.039895471745012054], [-0.07770907297525302, -0.03138165441270902, 0.0030556829646894877, 0.09417796161669163, 0.010500274123332947], [-0.057364763115750596, 0.019775703542357515, -0.008764050675611776, -0.02048483263771324, 0.030724207493929595], [-0.04249231217805361, 0.0671705446795331, 0.00741765985590442, 0.07621727054452004, -0.06638564093103115], [-0.003562256680955331, -0.0452376096082831, -0.054295765071493605, 0.0723514877697148, 0.007911103361214748], [-0.1223530284818612, 0.013852628126005375, -0.003052038623752588, 0.06863758698284726, -0.011557672431778219], [-0.025751111898397936, -0.022868708806282976, -0.0039004837854047358, 0.08977780102738983, -0.004973379152702239], [0.03797443086394195, 0.0019278797933422267, -0.009366367599861081, 0.05194843833392161, 0.0006000546824051152], [0.02980302161363519, 0.08869889820176591, -0.022340294669585675, -0.02589751486409544, -0.01047964789278806], [0.032952139897241516, -0.013486432542714649, 0.0785348251300622, 0.05093885960905375, 0.10239898400907776], [0.08096821965922574, 0.04252853114005007, -0.03153532097992374, 0.0743050954623096, 0.06025869998142951], [-0.005609103012745017, -0.010464389238976034, -0.06985334702081519, -0.00847589961725541, 0.03929912095442294], [0.15105484037609834, 0.033851657373859145, -0.005270558335102244, 0.11678159043904124, 0.13711662828578203], [0.0025885230288761473, 0.035642960295976245, -0.009279913370085303, -0.002947752423334889, -0.030133612263310756], [0.036464860300229614, -0.050950392662077015, 0.03784220223323197, 0.021333763905579603, -0.02634319863611341], [0.028266999713415432, 0.009752048127628001, -0.0037782834315030094, 0.04214578589620165, 0.05821084589008816], [-0.04551691855115954, 0.03589219620866023, -0.04001094177392801, 0.04189704519303991, 0.04873270434467151], [0.0371134224267092, -0.02233467240250702, 0.16781714971525585, 0.02861289834876658, -0.030628298192100063], [-0.036443652191669576, 0.02781295600864805, -0.000535798103269158, -0.04395943720202933, -0.024292244730106327], [-0.006543827057396547, 0.053336433525887426, 0.00930153232529339, 0.013755431018195183, 0.022169503403457892], [0.06287216912416463, 0.00019134639822201706, -0.005466435515787163, 0.019655817570344968, -0.02530722082427759], [-0.011903199720833665, -0.0005295157272009441, 0.029160767087790286, -0.006148708075278336, -0.070973060252657], [-0.08792040052228287, -0.0009556059256369578, -0.0006710237642246533, 0.053925551866432275, 0.015309993502202584], [0.029105326607581233, -0.009119668485436392, 0.017427714818102662, -0.003851352044735592, 0.016469092818080917], [-0.0829608022623813, -0.0018058439094705452, 0.002825700919412054, 0.03592205977331741, -0.02576788335759129], [-0.004202092989451053, 0.05291857871300902, 0.00938328058727907, -0.0018230003867453644, 0.048139350956419365], [-0.0084126524772988, -0.01169053784138999, 0.020400819121492792, 0.040110668502592, -0.06466586846764824], [-0.0041447561669263385, -0.007209841832588979, 0.031583425488232966, 0.03891525646042775, -0.004747233695326541], [-0.05555765946394879, 0.010856160890209875, 0.03938428031591946, 0.043621628926065685, -0.043465859363295146], [-0.05157471721490974, 0.0009167445969678822, 0.04411203497373431, -0.0045253968606040595, -0.04190296790060358], [0.047763050805485485, -0.027860078404820993, -0.02299700234450129, 0.02722551026839966, -0.028559975672971444], [-0.0467908123583918, 0.012647526321649836, -0.03087503428586014, 0.045837893824656126, -0.058972923164483534], [-0.007475602378699902, 0.029964645313400397, -0.04576358308321208, 0.043409617004438704, 0.011887493979035046], [-0.06693233218068739, -0.004796884345467761, 0.008138264629439623, 0.12053137958491067, -0.04604778189372649], [-0.07542532169592622, 0.06914082837560347, -0.07438933522305727, -0.04267557030148259, 0.022985782500048856], [0.009100339011483813, 0.09994662873130844, -0.03915860868950495, 0.014576924124962346, 0.06140616567754134], [0.09028651195755662, 0.04557782622814267, -0.041195515348563874, 0.015946887243110996, 0.008124642304482335], [0.02514309365414452, -0.025762066866348108, -0.04059539465883347, -0.04510645109685014, 0.05519746846509246], [0.08764175489375108, 0.018251460135719634, -0.026797446512164966, -0.010060719704989417, 0.06463439729497154], [0.04686917623258071, 0.03508522595260317, -0.010756909764218182, 0.09251112830847492, 0.09176590503383358], [0.04221904459151608, 0.05173264730788439, -0.06833632456787557, 0.04154535568970273, 0.06976290722791288], [0.1177915561526672, 0.02498482861713588, 0.03324770281283768, 0.004998085080405029, 0.12315858518742273], [0.028271274786513197, 0.0017663049724410778, -0.004194036221953605, -0.016292317314793348, 0.02312144503576659], [-0.01623896541960506, -0.028202789406037605, -0.03230909372276646, -0.0034220531976047537, 0.022484598826890363], [-0.02798128073165109, 0.0033887993907523004, -0.013634890127153512, -0.000755220892211079, 0.05572684334549946], [0.001603618430195282, -0.019161015522186804, 0.0202723181691143, -0.04884735504881849, 0.07700145258820862], [0.026651249271029274, 0.01398677345184435, 0.035902252237796965, 0.07223943556240717, 0.038457080166157225], [-0.04839145436299035, 0.03595705756910177, -0.044777335998295906, -0.026580631662609287, 0.03392157040144829], [-0.036217760735368414, 0.04222620222896149, -0.032647601255546395, 0.0023806554859096044, -0.004191583295394358], [0.007037761111326306, -0.01749805869559516, -0.019183552163169963, -0.019909308503684914, -0.026334130159445374], [-0.017293790283281936, -0.011298405079703573, 0.013227281851588288, 0.02790723779527562, -0.07393601585449198], [-0.0228336449286004, -0.0777487881131452, 0.03312321104804043, 0.042643562004903005, -0.03815160343121302], [0.00817598386611043, 0.06278353607107431, -0.0519548665159915, 0.052808897102071824, -0.006638548766241857], [0.02395207546610046, -0.0074513623901541, 0.007296568295345696, 0.009221958467522565, -0.019314327785068513], [-0.006598418038503607, -0.02094668481322351, 0.013283362532125888, 0.022538566373138984, 0.0013686751098584975], [-0.03241807603120398, 0.03415186790080957, 0.032870549162712516, -0.009951517186978334, -0.028345683625308028], [-0.05387348024617437, 0.041621273746742925, 0.021214761005024133, 0.028907348599064093, -0.08999226456020999], [0.01265582693226816, 0.04038736740388289, -0.06282650223559225, -0.004082274306579333, -0.048709836060740495], [0.05094182815639523, -0.073288800691397, 0.006983525857756252, 0.03631930404913376, -0.03450023979826692], [-0.06535489741462132, -0.010892258392210658, 0.01399542680096512, 0.032607685585627204, -0.029432785326903757], [0.008253231710116554, 0.037788546625088286, -0.007649620532251398, 0.0016629962984554888, -0.030930892791323727], [-0.05758488087543765, 0.06791174536169145, 0.017260954166972875, 0.006267683541551076, 0.09619906441731067], [-0.02941154411823389, 0.03588997556690147, -0.02236893897135389, -0.03210344604466243, 0.07215150960242335], [0.04114760073710316, 0.005441571180597391, -0.05808668240981665, -0.02033579771389224, 0.03981064502440163], [0.024055257209331875, -0.03270786669959588, 0.011808006073271817, -0.03158334712822577, 0.06316835517319873], [0.09895795169166205, 0.0004082571782218189, -0.0019580781561943264, -0.03439071894199277, 0.10237846503941114], [0.07021100803898932, 0.04250505744625787, -0.017384726677205416, 0.011942363681651313, 0.08741227016354809], [0.03254514812476704, -0.01308162091357184, 0.051720997890673324, -0.00580468329224143, 0.0018821722943743572], [0.006239711443874349, 0.01905990227012367, -0.009174536262764604, 0.04219351898994864, 0.0672697294721097], [0.026893656930083134, 0.04876103052139632, -0.00913186010862245, 0.04010561750000955, 0.039790047155827755], [0.017386375125167067, -0.0652680143259458, -0.061516560605421156, 0.005743003198567295, 0.08335980001634218], [0.033578563579217006, 0.043536034187188065, -0.06529618496571814, 0.06435473356083161, -0.009382553653989836], [0.06782203480089559, -0.009045583441770288, -0.003148615351379136, 0.009581578141686494, 0.01295409260225005], [0.04416772349388561, 0.03465711711997446, -0.018551354931012926, -0.07539993508154746, 0.05178285308915053], [0.023901867316454446, -0.03683369049696283, -0.048032313268457284, 0.008142487883846278, 0.020216375641432506], [0.05790736378136086, 0.04925316073924285, -0.04454709959078031, 0.00843951420581777, -0.033185587433088574], [0.01065875482546746, 0.05556453199960063, -0.007336020620142181, 0.005416349894823024, 0.032876378470039797], [-0.009775220180390235, -0.04109193398313674, -0.024598762717483454, 0.03645243670454228, -0.006961492341939902], [0.065807482452733, 0.03546083521143191, 0.005584044092799265, 0.014875401818984895, 0.01009991711060697], [-0.030360591575579417, -0.060708087416307746, 0.005602207651351899, 0.0148068153462112, 0.027522297591383103], [0.021995667355416547, 0.03407031149425365, 0.061929838123611185, 0.013557221138882622, 0.0009354463636535842], [0.03955992916308674, -0.021129455071263088, -0.05047437980390761, 0.02960632748455377, -0.03226387539504309], [-0.010619463163813039, -0.007839528732462115, 0.015023393697073815, -0.014690776918992869, -0.026157812422600898], [-0.017958977854203827, 0.04586994515806282, -0.01384593571285098, 0.041235924977948396, 0.00972128875681602], [-0.03440464058457404, 0.04686073338471858, -0.003960847556334282, 0.047651508869411725, -0.0707875945867648], [0.045307904535168544, -0.04138454679140617, -0.0530221247987647, -0.04922596573468452, -0.010197299080205625], [0.015598853647531358, -0.007827698380565603, -0.010456817877113727, -0.008240097586041875, -0.04398884300776237], [-0.061038101742592776, -0.02982520593069744, 6.831884023647335e-05, 0.06054197498895691, 0.12007060526753612], [0.06344062484142811, 0.1023150277793556, 0.009244599430413473, 0.00632414614030379, 0.06540566797906339], [0.06973330308669114, 0.03832991643377824, 0.011009156859107971, 0.02273849280794431, 0.032670807348252534], [0.04374393109821845, -0.01168595817574135, -0.004438714999987448, 0.03665623860353974, 0.02529287530439862], [0.11284264542839856, 0.019263138973740664, -0.06003915666991038, -0.021109307421985555, 0.08538684017439546], [0.14457255353600462, -0.0042647128655590736, 0.028723590463752422, -0.056757611749585386, -0.008350870919602791], [0.08258207315879351, -0.027403639403109508, 0.0032261746050311654, -0.010725309983662421, 0.03548237836078304], [0.12845061737342153, -0.04335970844641563, -0.014223131250113454, -0.02691521242562261, 0.1062427576568113], [0.08790517590849474, -0.001428076843596008, 0.03840568830184221, 0.012776011730527231, -0.047431747605780165], [0.055381805381154926, 0.01671796929842912, 0.014441244037882217, 0.031409895997997414, 0.046127741274553644], [-0.001970845101268338, 0.0363967223908873, -0.01685278895197081, -0.006069309990589417, 0.10874033608362532], [0.016455218050471884, 0.0031944138849609826, 0.0057310269942234746, 0.006659428253276068, 0.006408641546646572], [-0.004030391755296029, 0.010272203969409685, -0.02684572326254844, 0.06666296244000734, 0.021030204779375308], [-0.06487625952196026, 0.07074974770576609, -0.0359599305839654, 0.03765193214981576, 0.05273398419100302], [-0.03661743038196365, -0.028796252215596046, -0.02443802793676717, -0.019676655283529368, 0.0279969919267138], [0.04092960965503177, -0.044337869681577685, 0.013864720997657029, 0.028827152375049972, -0.005475593304230359], [0.018949331633867108, -0.010257725954736266, 0.00672483585125988, -0.014289050661332259, 0.0536889740936707], [0.008357134891256472, -0.04376640865102211, 0.023959873970517097, 0.04149365999680337, -0.008912865642344314], [0.04485134704078362, -0.012745358546730761, 0.04800825198222475, -0.0807836262649706, -0.009745682543449473], [0.006627819115648816, -0.0313213277513361, -0.0373690944297062, 0.02473276972760623, -0.030594481824164833], [0.035818035530122416, -0.03004001766393214, -0.03258615152725306, -0.03692604662359561, 0.036261538206465146], [-0.012170068528872346, -0.02357079901596933, 0.036331503923086136, -0.0075190609926069395, -0.014815580938591066], [-0.04055345450702707, 0.005812291121658164, -0.022075183478257373, -0.002573487691883537, 0.008414734266423151], [-0.05796335274356366, -0.06425312333054375, 0.0875032525995271, -0.05565151533160699, -0.037103936992984914], [-0.013594501511918121, -0.014465121291746687, -0.023177727110853107, -0.02271986138037437, 0.023874025853393866], [-0.053385566699626096, -0.007986467182881464, -0.059934024165167694, -0.004560637937823249, 0.012898691167657106], [0.013271421838711939, 0.08442355199654003, -0.011679578092693058, 0.02548782736507609, 0.010326988948227946], [0.0023359204065720182, 0.05599115792429413, 0.03687626258050832, 0.05972551990562611, 0.03900197013679568], [-0.016701703162608814, 0.07284584652519849, 0.001965964557813064, 0.0729776582084258, 0.009991564288044284], [-0.058420083248815605, 0.06878386679165541, 0.006920536631467545, 0.03948183994215962, 0.056112345950658504], [0.031187053270906165, 0.031177529406591194, 0.02019853987914947, 0.07257552298288239, 0.05672043223295705], [-0.019941949809532948, 0.007384941359646513, 0.06298220859858691, -0.0011265314387443812, 0.04801045876234754], [0.06565148957166005, -0.016084603254719523, -0.05841663729361737, -0.025017378307733967, 0.026950013193989188], [0.09361740008810414, -0.03864008317387247, 0.00891694055611144, -0.02520727279325888, 0.019248722089935614], [0.11957807745700556, -0.03991154708813899, -0.04382372542911094, -0.030567373511340635, 0.08355374227975719], [0.0723514982017436, -0.05997009062740858, 0.02323540753040438, -0.033683753164357566, 0.061697083212110024], [0.08348450540648514, -0.04587745033354277, -0.004274495159089593, 0.011423925809178892, 0.03301009264429862], [-3.603578826803361e-05, 0.009552200031865294, 0.02325774137478436, 0.009837730427428444, 0.05540726111153374], [-0.04079861302438564, 0.0428677443659795, -0.017980691342866607, -0.013896365690027905, 0.021286072190337874], [-0.012819008492509932, 0.04427176700829839, 0.022628451967042884, 0.05015533766395656, 0.020937443909119193], [-0.050703939990450815, 0.0170456122452979, -0.05083784171487754, 0.009126644229207295, 0.005446761530172427], [-0.02294171838636445, 0.06750651631139065, 0.012470814928371633, -0.006760084897686072, 0.08575816291585933], [0.02853802960451595, 0.01676851239173917, -0.0069825765032140805, -0.034758467358629905, 0.049650730470166805], [0.025380259109975416, -0.02766384908814965, 0.04995406257736657, -0.04552131650611243, 0.062414804217937006], [0.03406082864260368, -0.02420291189698089, -0.036490815427901634, -0.03286823056258975, -0.0010736695968893083], [0.022741131314123107, -0.01696697479510844, 0.026436269023122908, 0.015171370777795859, 0.022072383537515], [0.01335467764508302, 0.019752727570449522, 0.008149825402333237, -0.004063873560463758, 0.03678251289350328], [-0.048248012041187734, 0.04727365753371554, -0.07816371194680889, -0.015677682427190937, -0.010556944650374411], [0.03410247215073967, 0.029572267601067757, 0.04036756800774514, 0.05178670498840538, 0.0011433328123798506], [-0.05096247530605915, -0.020057153868556128, -0.00801639956310435, 0.048880333606807824, -0.022512960191511833], [0.05889497103660835, -0.004468263937211401, -0.03175909647506877, 0.019727733565567347, 0.012313931767874159], [-0.0718216667643652, 0.05100912280792996, -0.0029201231547920257, -0.035491410116554475, -0.01606089259507564], [0.06636136853768725, -0.03566097765726483, 0.010750253180604385, -0.039805343673983744, -0.019413304634689234], [-0.022160434646726044, -0.05627597229774846, -0.013867453857039145, 0.026596448855042254, 0.025458022316004098], [-0.0632867359358997, -0.044321239368990115, -0.045004628505663336, 0.014154515333986187, -0.015326573260386039], [-0.01774927952209282, 0.01967253148483117, 0.016396478194238413, -0.020029470926379057, -0.020727758327532944], [-0.029831979608236157, 0.053677411770834356, 0.028984196662598466, 0.036598231753016776, -0.011729321991789025], [0.02726897037058755, 0.014728786790009728, -0.005699365314842377, -0.006161426408756828, 0.04728865077101693], [-0.023651793823300345, 0.022233824412299232, -0.027650754535617435, 0.013776666753895378, -0.00805820039258858], [0.07124676137731731, 0.013405945938663542, 0.0038187610546415555, -0.017527293146935855, 0.026872245599043852], [0.047461608629508975, 0.044909626160016224, -0.008401553827535126, -0.01801439021091522, 0.05169183119127517], [0.11165497634475526, 0.011354210927088248, 0.05486032833371298, -0.08324516829470748, -0.019775033754597184], [0.1252249726862181, -0.014400213028481088, -0.04973183041024751, -0.05984075295005459, 0.0981144125483061], [0.06097762994760012, 0.04046361113239877, -0.0669391651804924, -0.018726361450457786, 0.06779372418109299], [-0.02451226348059377, -0.057342187070096196, 0.007600345249759602, -0.05229975195105057, 0.005055683606425813], [0.03058467403609102, -0.001518083848253544, 0.10223790501794258, 0.018704107093400937, 0.0062406332352042855], [0.04408640024093778, -0.003005682549933485, 0.029239434224966793, 0.015984211054806508, 0.0062975223918161636], [0.008879700102280882, 0.002375972538420705, 0.0135542078687521, 0.0008789566349802638, 0.005526187742204544], [-0.02268410286130948, -0.03931855330051077, -0.023121272268643342, 0.03611870658847353, 0.09948231497176677], [0.017183126438178424, 0.06598675491066104, -0.04547172912906864, 0.07223807837865086, 0.042338947671860416], [-0.027380817537164544, 0.07207328078303604, -0.006269908271354162, -0.058721342202273596, 0.059417909595825685], [0.06828693160227682, 0.03567705584428967, -0.02042694700438375, 0.012359872978293128, -0.013703794424064707], [-0.0008265908679649862, 0.024883436902538556, 0.014410586079059299, 0.016144292441716373, 0.07562078238908922], [0.03041716365091782, -0.041349342913284126, 0.04120221957539421, 0.004705886007860062, -0.006512378262515195], [0.059265877777004004, 0.010965918012592904, 0.00022837834489407942, 0.04677497324032965, -0.021783854951916776], [0.003746559435163717, -0.05942995178027468, -0.07456505621785525, 0.0024371958100295014, 0.05259956824782341], [-0.008123373501462496, 0.002475603218098274, 0.01578034917459311, -0.053253256778977874, -0.00863102603578243], [-0.0437152353349046, -0.014990549286631556, -0.04169884383943114, 0.03853629454352777, -0.009478860202158667], [-0.004897268431153219, 0.03331369578636398, -0.05515205170473801, -0.04681812053251832, -0.04703048933264154], [-0.008851492035908565, -0.009690624019920881, -0.04222661562586555, -0.00420665425273347, -0.09271005840600048], [0.00769947286054467, 0.04377326511638155, -0.030909271108543218, -0.04212669874532345, -0.013879184892470482], [0.0023052646879486616, -0.07023203328741813, 0.05530284086176773, -0.03813131775371734, 0.0168874096204746], [0.002302946902370442, -0.011955613310730856, 0.0052433581896727905, 0.06074065683935962, 0.0037556964297339526], [-0.02316088294561484, -0.01757597567413735, 0.061587562565358266, -0.0004767068153507069, 0.08405726783305814], [-0.04448315086230599, 0.021177755646845233, -0.01145442285706938, 0.025113689420283216, 0.08523738442282243], [-0.01598635357703292, 0.0009556840311307414, 0.03291824595022685, 0.006307668545430325, 0.027521288060626474], [0.04298588114671055, -0.054411948761143615, 0.047021346900310304, -0.03795615489017997, 0.019296371739590337], [-0.02761303763082058, -0.01371639478063077, -0.018809514465677128, -0.0075163772016188304, 0.06498307344909555], [0.03468920323566703, 0.017064303940168075, -0.017326143522863404, -0.04988928736910921, 0.0477880586513661], [0.09040724899619297, -0.04333952704674506, -0.01604056536695853, -0.06196220428048244, -0.006506563628730375], [0.0716005301617527, 0.0231973901062589, -0.014787383749790245, -0.015060568364828204, 0.09139629397183438], [0.09113425221138058, -0.058329572774395, -0.009012330357528962, -0.04421466284661551, -0.014216367862774023], [0.02013714835225415, 0.04530869616474546, 0.007281844922915385, 0.06124571579038409, 0.008327165234305751], [0.0400873776736699, 0.013655357027420205, 0.025953599680350135, 0.0583505124096754, -0.025394392220204877], [0.06264466595776667, -0.06424919954338083, -0.07270759247459863, 0.03283354679182405, -0.04601410672325271], [-0.0067149286201254165, -0.03527289689051386, -0.049551825656962055, 0.05055196606360511, -0.009949337517102376], [-0.09972308330189851, 0.1259758983945532, -0.01874234159300324, 0.06722855003001403, 0.024614042068863102], [0.005455210598476896, 0.09026105311289097, -0.028796583329584034, 0.07583083338106386, 0.0609125210694684], [0.07086124364908185, 0.06372545667997082, 0.0525124674548129, -0.027575150266232785, -0.019757620622854025], [-0.007574505755677632, 0.008242673099857224, -0.0461216756430585, 0.010460739535741118, 0.0158515265973456], [-0.015922890578345218, -0.022468762039784356, -0.02854787577442414, -0.026728410910799576, -0.018138370551099785], [-0.07660582932674005, 0.041897365675590444, 0.09181619593978083, -0.011936593335310112, 0.04019157335687859], [0.042100650240638415, 0.048165448615375486, -0.01134242931597891, -0.01587509362666468, 0.004678041102219366], [-0.0008995966079520601, 0.00033763265839879906, -0.03550091529293852, -0.01583525300525022, 0.024565368252690824], [0.041097813426212056, 0.01996519905892557, 0.09660375404079773, -0.08521791942342274, -0.01591417855379747], [-0.019396886855069764, -0.015014375762760936, 0.01751727113587066, 0.023520744558432814, 0.023481028546353682], [-0.030316121380307873, -0.03816992540484064, 0.002542774580129094, 0.011904373391224759, -0.06101559926396751], [-0.0543141317824423, 0.0303349403895407, 0.03509218226979583, 0.022583186795648833, -0.037037131738048054], [-0.035871413980892414, -0.0314194236210414, -0.02149990118928575, 0.03637077751007524, 0.002771167646008749], [0.01078861870087268, 0.08409950121012756, -0.01932507579932669, 0.01148682493034078, 0.017629001145966022], [-0.0073222489483981594, -0.06124980510417223, -0.01322861795391841, 0.003563146089862615, 0.04495635519635166], [0.004972521336007353, 0.029710491342861998, 0.00501921015022158, -0.0755267260280675, 0.06986942973121159], [0.06015149085670012, -0.03791200201715142, 0.04608550809413093, 0.04276932449172306, 0.07945243601470563], [0.062324064931481904, -0.0046800953368090715, 0.006734562763880427, 0.0014225300967536743, 0.03404614173717103], [-0.0031958649731888924, 0.03163802913829515, -0.010703535475719434, 0.00407449535140123, -0.03443490916492106], [0.017668875179647336, -0.06414627254372633, -0.059090059138125886, 0.009414301319574915, 0.0636650372867493], [0.05063360052248453, -0.015429256298373056, 0.006727398826442876, -0.04570135434219816, 0.027654790460328104], [0.07116946855274268, -0.007861304283634424, -0.009988752700411897, 0.019844569428831383, 0.07588542130558816], [0.08266545819006407, 0.0164507251346907, -0.010661799842822084, -0.0036909128001183585, 0.03401189443126446], [0.0432175665860987, -0.011174928375265793, -0.02921493489225029, -0.007590815780217899, 0.012259328745095506], [0.02130206078293498, -0.031960903506733224, 0.057327810370937995, -0.05826490466945472, -0.0499612421117702], [0.07281963298286978, -0.02352012766243257, 0.012482831362205812, -0.007304735150871733, -0.07289769864483209], [0.05916693010595964, -0.02743199976722751, 0.038342696286031167, -0.012765963657678904, 0.01335362780381909], [-0.06347948430152654, 0.02027780183479654, 0.023322072220601512, 0.05134506222690341, 0.028378935572237154], [0.05487616700414574, 0.04374533219579766, 0.06773758663306155, 0.023638332242498422, 0.03804851877197551], [-0.04231307121972005, 0.01712037831404516, -0.06791347298812601, 0.0787475148810839, 0.04841436321889279], [-0.02501441623057022, 0.04652880922666556, -0.06266228586325273, 0.09790131667406418, -0.03842424849748198], [0.005671476854571984, -0.012482358585665496, 0.055647758313157554, 0.01641543025463925, 0.024691960415959533], [-0.02595141326240693, 0.07520759132452719, 0.05351954352104778, -0.052941959194483114, -0.017208864500631582], [-0.0011656102573526686, -0.027170239097146796, -0.0064158131983726606, 0.03839961795126261, 0.00808018841578869], [-0.03975014792195386, -0.030896639652288112, 0.005198223575590355, 0.052996568246654684, -0.0298698666106575], [0.05194332140239897, 0.003893846618627903, -0.011856015655540956, 0.006678047937079872, 0.009412195922552515], [0.0014521046160232056, -0.025877339520944332, -0.026661875015070287, 0.025191412629674285, 0.030440966709367103], [0.060705695978254114, 0.013425613319216547, -0.020623218051413823, -0.008987016659917108, -0.06529817083872032], [0.007337942534755926, 0.013189191395462686, -0.004116503099661407, -0.05598631841993616, -0.04838029580650665], [0.03234854106743849, 0.03448580673387416, 0.06850079097295012, -0.04504492254547812, -0.053254544246639994], [-0.01292605368697882, 0.06289402716918381, -0.039007037821808276, 0.023484442270902187, 0.016053391816730656], [0.011057447855700571, 0.051541739428454025, 0.07338748934172204, -0.019135432394321382, -0.06869663566441055], [0.05449617857336478, -0.026390168348196293, -0.010755825881559078, 0.004684150065787277, 0.010594981187765726], [0.028346203509324194, 0.03827635709786849, -0.0473113235862316, 0.058678966428422484, 0.037115101115540484], [-0.04527821830478553, -0.02602820526047349, 0.011624544195995809, -0.006783251510255473, 0.07875595110828769], [-0.0006149461802402017, 0.050100806432754386, -0.06447554977361035, 0.016070891271576442, 0.037902392392374286], [0.017092712915486644, 0.021061189551791745, -0.0008542546494621871, -0.03948808227064152, 0.019590933935088633], [0.012679838657085534, -0.0163533930248165, -0.008579147291963653, -0.09640639817293206, 0.015022015558385754], [0.006386566636270196, 0.01672382988604678, -0.04050175794378995, 0.02694574748980881, -0.020543171566156742], [0.08103572681997939, -0.041861302646225576, -0.04033720521480419, -0.04262821618054197, 0.1283744375492708], [0.0331292585052893, -0.007285817428413151, 0.014505140596852947, -0.027429285580343868, -0.011116839988572226], [0.04863565293967935, -0.022536561631493895, 0.015430379129952746, -0.021062900779364097, -0.060854766530997466], [0.06636844290914906, 0.01819700595449997, -0.04768955382865731, -0.04375457467775649, -0.0054334367325796105], [-0.002399831226480788, -0.06915850943457627, -0.0503587845952747, 0.04986086383402292, -0.024786900810014036], [0.013840570699768212, -0.07779108535328698, 0.003918264226219555, -0.012209460386422974, -0.07094621056534481], [-0.09775393627248022, 0.03443020793143977, -0.011879927728877512, -0.0013382087019890852, 0.029208388535788384], [-0.02208392435539126, 0.00825017657897016, -0.02015076053334921, -0.0418867201290866, 0.07434321079959848], [-0.00018284272980748485, 0.08121393524021679, 0.013601459761758306, 0.03100861382308335, 0.06992777239951142], [-0.03963579596737534, 0.027001876149972407, -0.014776850024827216, 0.0012738105727933338, 0.0366906427607307], [0.011980619475173423, 0.09243265930060872, 0.05508834170559956, 0.01637081580268583, 0.0046427392988965905], [-0.028805812506956303, 0.00638195059230619, 0.0078137230886051, -0.02695774866584557, 0.019326169825600266], [-0.0023056543581517056, 0.041472212823511025, -0.03310618931143611, 0.05529037293160198, 0.008122023661102405], [0.015008658109941994, -0.030880551352267787, 0.018521047713476946, -0.05754281694335971, 0.053118691987913344], [0.010470242181071262, 0.04012710137560883, 0.08250072140358813, -0.003039525915456135, -0.017894111391034032], [-0.02990383088562005, 0.0123730459206916, 0.0006845219991042191, -0.0008995332347319726, 0.036196527978003414], [0.0013591572072553363, -0.00014369430149529028, -0.00575631305502416, 0.024236253756345107, -0.019214112347631773], [-0.05273073058211965, 0.005880007379905744, -0.020354691182129715, 0.007806913572950029, -0.012952129501666777], [0.017746480631558186, -0.006624848142358858, 0.01176058545579543, 0.02621984518255133, -0.016495026056385042], [-0.03703215176134536, 0.019442447279157785, 0.031477812910510196, 0.005353994388593851, 0.020162898245387865], [-0.012559581642658049, 0.0065735954003845135, -0.033210251823883055, 0.021902096017109372, 0.04515482989446719], [0.017377697639443634, -0.03364766629316141, -0.00018774284653180298, 0.013271274090687799, -0.022256856084765086], [-0.06621898991706779, 0.10515742559825128, -0.008545616894520896, -0.0013504455853956072, 0.05023800674167792], [0.0008995866458193685, 0.050386153478706834, 0.021416778474751, -0.05232493948144413, 0.10138508682148467], [-0.00657506293564283, 0.0003803159861783627, 0.008160165687407009, 0.0969967031646771, 0.08273093982668746], [-0.006656232716868334, -0.03082131475992078, -0.025060468776129934, -0.0710016716009373, -0.014262868636320307], [-0.01655012437710081, -0.008620647232813604, -0.013185168590689038, -0.01961025012400743, 0.03104715853460501], [0.02087167179503902, 0.0011399511593622252, 0.0008041038338843641, 0.00945948858750851, 0.0013731408375866098], [0.1114062784902656, -0.04707980183639992, -0.006100133841242202, -0.06152308293068363, -0.006054039631828764], [0.07718528606912425, -0.06149128947118793, -0.05885970567780804, -0.03314559871499418, -0.035384335136082155], [0.10991168302003436, -0.03187230124188026, 0.009937950052739876, -0.018692963632827485, -0.015678265043022693], [0.11530855517317147, -0.08892766971176227, -0.03576009905684408, -0.023684159598388765, -0.01444509062561818], [0.06869720140137667, -0.07140774220560349, -0.029124026893984526, -0.03595162217239174, 0.01116049232983074], [0.04720147598520676, 0.021145851363212644, 0.014379786306000989, -0.027970885770481797, -0.056238042354011114], [-0.04018491765156668, 0.039190788055685245, -0.028048904255420233, -0.025421759285514395, 0.01354632235548084], [-0.034671654724862874, -0.008884739207686645, 0.03251325165622657, 0.05299541539093497, 0.015774282710880792], [-0.0019093846013944359, 0.025133918493164143, -0.005079794028169416, 0.0901194562532438, -0.001763123529801301], [-0.05610742309771568, 0.10896229524496122, -0.04286611583911087, -0.028204875469478145, 0.05025600787839086], [-0.05844986317408789, 0.036697396384943, -0.04179069149854391, 0.04317587736998312, 0.042274987621471305], [-0.025619220203154665, -0.009371646249047945, -0.03138641147432135, -0.0007369516751162175, 0.003528819980866674], [-0.05172877919416729, -0.034413569114544885, 0.011308372732622914, -0.001592812895578429, 0.01094638015751615], [-0.07235921564658868, 0.06605866255990556, 0.026336251824364946, 0.05197296358528941, -0.02490916088756884], [-0.017015089699123853, 0.01117547270999803, -0.03858687756553649, -0.06469894720024347, 0.026747623034867284], [0.011166055763217022, -0.029478722575119697, 0.06755044240751189, -0.004997117915511183, 0.0024363016385604334], [0.0009787891289549679, -0.006069623010782061, 0.0021871992595639328, 0.005399448801024072, -0.029046918314185453], [-0.0353068587214252, 0.06467210126388963, -0.007243353956591806, 0.07835504281892337, -0.034704665654807614], [-0.017689941508491642, 0.035219382336077805, 0.025123000933067664, -0.006744693935668795, 0.03753010170996611], [0.04090472975725348, 0.007236078406211248, 0.03711957187863113, -0.040506594322482235, -0.08692462724939218], [-0.047760036877951155, 0.009873217118654666, -0.06271262359380998, -0.0031098867125193023, -0.0024573279253137475], [-0.03000986836307296, 0.05094902507977283, 0.009473176442472557, -0.0022747205601949586, 0.042157332583638796], [-0.03078496022856297, 0.015868964282813133, 0.029098038455678137, -0.028770784712785206, 0.07594334072859138], [-0.03493973613085554, 0.033896795105114466, -0.0005850803375023827, 0.01899186024343564, 0.0750955915028906], [0.013910973215932675, 0.06618416872254353, -0.01482824193294231, -0.035090026599600484, 0.02890374247286865], [0.033212189657544834, -0.0007824041744361389, 0.05245026959863091, -0.02214560041111952, -0.09613499021540867], [-0.008554344910954427, -0.022806378110277872, -0.025139748705426172, -0.00537384064486038, -0.015086993294737018], [0.027271896805689377, -0.06790696561595967, 0.00047896434478129983, -0.026230366448798562, -0.08045537982001512], [0.13861003542892486, 0.005318367542774784, 0.05605849642222175, -0.0057034454512246355, -0.005175322761951495], [0.15204107504246203, -0.051010632889161675, 0.04598263949863239, -0.08047552677195872, 0.1448205283144849], [0.08794135850412993, 0.014810968017565101, -0.02177685137071541, -0.03782892385083279, 0.052482364301737326], [0.08804853197921939, -0.03775677067375987, 0.009211577691729143, -0.000954486315438214, 0.013872383482705827], [0.027715977895143195, -0.05150429896876544, 0.017126129118680895, -0.007125273413352965, -0.07188248976492125], [0.0959421126339615, -0.03984540416638609, -0.03938640174524575, 0.06043663133013131, -0.0818644837579732], [0.022007393458409946, 0.013483952335655035, -0.06679471429888738, -0.01732448822768187, 0.05181264994930103], [-0.01240734097975875, 0.034731326077093706, 0.005569484611058841, 0.0449993477107522, 0.10627143824719382], [-0.01798015277048262, 0.0937671784194251, -0.03359151155282333, 0.05198044864335381, 0.012972819917655056], [-0.019028937724302787, 0.06598130401625771, -0.014171578044013595, 0.02157142027317366, 0.10397864478699106], [-0.03006157676454193, 0.035658069153318796, 0.04322794665566998, 0.017714186491027444, 0.06165699833052568], [-0.016860801282621643, -0.0003442032949122387, 0.027452577693625486, 0.013968440502429298, 0.016025437135350852], [-0.04988081203163433, -0.0032832901916118175, 0.03102140470497034, 0.056010794542460454, -0.027642093673539554], [-0.0513396658426449, -0.0071017964192273035, 0.0635837265903017, -0.01715449750198525, 0.006900216558518789], [-0.024537085717284444, -0.03584082377721765, 0.013394392674962606, 0.03597299710375066, -0.037531863389293894], [0.024839578225888944, 0.03552770791885025, 0.035858218164309855, -0.037132110916335954, 0.03433641175717314], [-0.08520602549295506, 0.010828958110859498, 0.010946816373817678, 0.01730003495094613, 0.03586036080697087], [0.014159429076269894, 0.019199953671029887, 0.011676029800971025, 0.03313454633475471, -0.022106003752418998], [-0.01950601460512065, -0.021897274686190994, 0.006250519646490496, -0.006820821923437186, 0.020063657967394746], [0.053529570530271436, -0.030675724707628308, -0.019756121749763423, 0.10407161503357629, -0.03214450924190251], [-0.0550977086356874, 0.06880791050182548, 0.002034006094072366, 0.04379311263795021, -0.04040913008561667], [-0.008310805077923545, 0.01309174083135302, -0.027706226182566473, 0.02617897812641435, 0.009221096065196851], [0.015553276511274474, -0.021028686803785952, 0.016323963277298993, -0.030686996613028213, 0.06158368018915473], [0.01856834417501423, 0.12891991394885563, 0.02402804558666054, 0.0012773385722338348, 0.04612029622643584], [-0.036422385620381435, -0.005772046224168379, 0.03758275889830908, 0.04206681396726512, -0.04204840322774161], [-0.06230250356417688, -0.044812654412683575, 0.01862136745462537, 0.02486468162427078, -0.044846313722998445], [-0.028026266815244498, -0.07799731937677548, -0.018932059877320735, 0.04666823964254007, -0.03516803292500029], [-7.897834998894734e-06, -0.06040713473816532, -0.04659857197330347, -0.04547543261245888, -0.009184002120092495], [-0.008441967473356645, -0.007253361776617125, 0.0070458278775487855, -0.013534516583099315, 0.0080266180488153], [0.1341285028306529, -0.03002434131635445, -0.04336612576408119, -0.04624003860391031, 0.008711197151383477], [0.05582891343275885, -0.023115479123135028, 0.029901905861170246, -0.02857237992984014, 0.04181454213545309], [0.0165523275545792, -0.03206565303219975, 0.015966590780476183, 0.06263972947873589, 0.031321450046121704], [0.07731236208746499, -0.050547533822814274, 0.03794573357941142, -0.026718906498388786, -0.07948833449017935], [0.026907516608792273, -0.0665783487460798, 0.018295387412534923, 0.011997930472026318, -0.06499914430597716], [0.03449278877093835, 0.025909003450012125, -0.11942370969826559, 0.04586625698166112, 0.018843267296177], [0.010308620038672322, -0.03973064134110505, 0.027771862468547837, 0.009411185842657915, 0.027569719557678084], [-0.0007254833594639613, 0.08821424107571586, -0.013736155357141821, 0.016074561778751748, 0.08846130864259505], [0.025586631830091005, -0.00012552069895054152, 0.022579027965776297, 0.05931367200167202, 0.009862932408269406], [-0.030280339644194205, 0.10020105777948647, -0.0029423012964584047, -0.022070770122992463, -0.005964732689714303], [0.010951420032390104, 0.05827987418310667, -0.04532389507206722, 0.03701722463025758, 0.06366580906031985], [-0.03764503704948782, 0.03390389311846401, 0.01100782592150104, -0.004591924002249177, 0.03777493682418428], [-0.03943091841200226, 0.04783473124585078, -8.68877324968822e-05, -0.019619550806641215, 0.013365290855915077], [-0.018253529561671478, 0.03424552677250241, -0.04186582458488503, 0.017560632872222114, 0.010688918354979343], [-0.02782638899861881, 0.05376841818033742, -0.0065264271254168406, -0.02840783659019757, -0.02174088572411672], [-0.026103078098105862, 0.08401362522079357, -0.007061468251068923, 0.04200292154200551, 0.04362683206669322], [0.046506394178258366, 0.027304598122440765, 0.043482336792313885, -0.04397776013842247, 0.029076873446908697], [-0.02035398801084682, 0.03558808236177432, -0.08021767604582865, 0.043553126478771666, 0.02429583959729273], [0.02740022348881713, 0.02541531014595022, -0.030021436739144872, 0.06580446503448716, -0.05239668689486932], [0.026155632652352434, 0.05961683046288292, 0.043555186399025385, -0.007148466619569435, 0.005563008947581405], [0.008911554978920969, 0.05527106023782803, 0.030549626480946314, 0.06766595591903915, 0.0769634828341953], [-0.02785766534307499, 0.023094399351140087, 0.021844818258185808, -0.01821989257738237, 0.05862210737755297], [-0.0013004884587192807, -0.009436469317990014, -0.010483203193397432, 0.035832164954356385, 0.1424694988184675], [-0.015881990041895486, 0.022017918230346396, -0.034541929231959013, 0.025437131966362374, 0.03754786389973446], [0.04559978190115125, -0.03197420684936883, 0.03119604427941145, 0.002964314715877045, -0.013153480392738849], [0.05087357544066263, -0.003947296737788193, 0.02748575747916288, -0.020435893533618264, -0.01791652318715856], [0.03606241167578334, -0.05775367754882827, -0.019181029396604616, 0.054821963047621124, -0.04981239608727313], [0.0008883821045995464, 0.014323406755241812, -0.0206735548145403, 0.04982987573903248, 0.03520441693286638], [0.10233176769969989, -0.018861662764698396, 0.014298111399796466, -0.013081326661104037, 0.0998213352829519], [0.004741907278327843, 0.0008578120641065886, -0.015127164142934883, -0.03406575093852962, 0.08169835051352772], [0.06663443021881893, 0.009648041681081687, 0.026169139021752125, 0.04782059402900652, 0.034012415301346674], [-0.027986240691321097, -0.06778334810475833, -0.08100445693086056, 0.017971003811186662, -0.051500455086329], [0.09435732628594673, -0.07785308179108895, -0.08799486030364194, -0.013291885596784068, -0.008489989052161381], [0.03935766952763049, 0.0002510411957754639, -0.033860271780497976, -0.02423040808780818, 0.10364667896588853], [-0.05903250369983297, 0.11867641610179697, 0.06597082913092539, 0.036202046784961264, 0.022547460501175984], [0.0422600069387482, 0.0484108703928606, -0.04921854604186135, 0.0160668113007505, 0.006375858234542292], [-0.003774142877906479, 0.032412604075386146, -0.01647945899943107, 0.0056974362367109, 0.0966592449710185], [0.01140379713201726, 0.03749374940997624, -0.019857454543102875, 0.022570975327377125, 0.010345752131500715], [0.007928806578960468, 0.03566221710766459, -0.026856783828780387, 0.057744323517580264, -0.06583992218630492], [0.003680618903117879, 0.015987876680928718, 0.02947028093277932, -0.03372118386616544, 0.02944506448362416], [0.006887518578369547, -0.022837088716527686, 0.09068296557978443, 0.04821123272097846, -0.0453457634107604], [0.03513802941727427, -0.030012014042450033, 0.053613845275010806, -0.04608759945075719, 0.02727250926489062], [-0.06615013458649158, 0.006124921291608786, -0.026165918141923494, -0.012468231968294653, 0.02307939374536031], [0.018321540703770834, -0.037850767985829245, 0.00671116419372238, -0.011302042196982507, 0.026467238609551004], [0.03865700976337864, -0.051852059910431056, 0.007713840240848036, 0.0453986898026779, -0.010882504177611923], [-0.011611507777154879, 0.007952041127423698, -0.041755577089207616, 0.016150350782768757, 0.040317738916398706], [-0.06178614396685616, 0.011521097304129807, -0.03753803753809888, -0.03331170733973319, -0.019431583057108195], [0.03460027493916843, -0.029242409392271074, -0.034682377338555545, 0.10624167860207669, 0.0006793791823483112], [-0.08593016899388702, -0.0029362841479541723, 0.06296282096208916, 0.01908752683151426, 0.08121112220407124], [0.02989417260912923, 0.013994240519778595, 0.0038797369138380087, -0.008603899701366394, 0.07066277675668317], [0.06900068853074105, 0.10714745280423037, -0.057956227325575024, 0.01921448031380287, -0.001147689381817485], [-0.01626304974384973, 0.05175536583931022, -0.005173936648547538, -0.010170924043573927, 0.015814214023520054], [-0.00992130787576145, 0.02107541663211054, -0.015913866975200947, 0.044347947589839655, -0.017647127950716223], [-0.011087480104105017, 0.02227367689265233, 0.019341266953626254, 0.0372894714450295, -0.012989955909669785], [0.029144190613238953, 0.038209710492618905, -0.019961010200794275, -0.027211722808530524, 0.017711432970738586], [0.04527586631255106, -0.020502511828611996, -0.007376103254082619, -0.025228341774468373, 0.05344555705236227], [0.11876775859268295, -0.013450212483640209, 0.021458143508938005, -0.03656452616676906, 0.05358652899195865], [0.09436936054204605, 0.023588409433804264, -0.039238725456132356, -0.020663542207783037, 0.06980345025865177], [0.04082363003432763, 0.03771927842356761, 0.04015448113484344, 0.11822101162868086, -0.007521137488809322], [0.023375772098450563, -0.07531191819533495, 0.01265439284994706, 0.00082140240001305, -0.025881251443995678], [0.018215913473886406, -0.03875909045880168, -0.07834403622065986, -0.0722625688247048, -0.02614891724061889], [0.06520156272300877, -0.019215389460350025, -0.05849122732849372, 0.0175235247062196, -0.003334850375331193], [-0.037561271383988105, 0.006755793123483247, 0.018271118501047866, -0.019452846585455725, -0.00827581935291757], [-0.07346343620866432, 0.0258284113227103, -0.03814596007127688, 0.055278485454561266, 0.03594569133305707], [-0.0286146669123311, 0.008997740641155789, 0.0508106282464225, -0.0158347993251171, -0.011645954994743093], [-0.006848721544603833, 0.06285981776218785, -0.012455687015313955, -0.024657816849576512, 0.05708649383973564], [-0.021380948775521137, 0.027945632062574843, 0.010847206817783665, -0.011043599077576268, 0.06493817575811607], [0.007665078759729949, -0.03904698214621245, 0.01558144431556559, 0.048971623228921624, 0.0904786510222599], [-0.041048257945364285, 0.06125980164492253, -0.022748192626163642, 0.006415878521632644, -0.009229145599158285], [0.0011121866586404651, 0.030315038724870833, 0.1029660792410495, 0.06724279009218334, -0.02021651203687725], [-0.015079898246181335, 0.011853777679966749, 0.06678844510626727, -0.01252285008717948, 0.011025395422814917], [-0.0009233451229891992, 0.05946015066015835, 0.019822477715553673, 0.05140688297234069, 0.028671717779440935], [-0.023991900415876104, 0.06053476679879879, -0.045407466237450254, 0.00702238652617336, -0.06471894698804738], [0.002465311870539776, 0.007229641036526252, 0.05175911628094855, -0.027189391406131882, -0.01615101915742107], [0.009019162723993666, -0.0061150897805082255, -0.015698216553298578, -0.02178535162372951, 0.0044070793314156045], [-0.0018432010654750532, 0.005104863709822202, 0.04421297242788009, 0.02829093914186088, 0.039993488654018354], [0.006665208420896166, 0.010795021544993868, -0.020438639203276068, 0.0010593480088869232, 0.008238788383075566], [-0.045799552515407564, 0.05555981648513556, -0.02539152892429507, 0.05521532778486843, 0.012062558188097499], [0.025612665786251293, 0.020461858414252087, 0.02934642373915495, 0.04814788633701085, 0.1036630452116616], [-0.03359764053972024, 0.006859961313930715, -0.003411920437883183, 0.0531253859454713, 0.06809806937212833], [-0.03847771103153967, 0.00013095117107790312, 0.00038137733457987625, -0.03506293187839535, 0.02720355177937576], [-0.02709548551763106, -0.011543855616836957, 0.028627472786674105, 0.010175542687308279, 0.029955336347903008], [0.0022158757233466365, 0.041811339267282116, 0.018299757488023996, 0.028638038251714345, 0.04651628299328498], [0.04610947618921537, 0.044624032179957376, -0.0384546098878505, 0.008117200728642849, 0.07005350894318474], [0.08948680064868991, -0.04617635075635987, -0.0009767879113098154, -0.06522323953049171, 0.03128542065361921], [0.029074113756246463, 0.05705142573695906, 0.013853107785259479, 0.030279211300842615, 0.061884083963325925], [-0.004048029564181609, -0.04792485791499048, -0.0281310278748945, -0.0065512743677483476, -0.007800981188361875], [-0.006928240714753191, -0.033225803320585855, -0.05603103867893202, -0.04229757601731347, -0.01340821866454421], [0.05906937983889127, -0.04224725850438996, 0.023970446616816198, -0.0006114665801119363, -0.050916473737068764], [-0.002127642899743461, -0.015890554466494976, -0.005948012096137732, -0.003703034258085875, -0.02916848971672703], [-0.010728975317714192, -0.0009734480764322686, -0.03194865227251831, 0.018307856514048586, -0.022468496963610342], [-0.0620729162401654, 0.037955591595715384, 0.03514868592674119, -0.00499857319541994, 0.010303400280878547], [0.0030696552785999228, 0.05412818993384673, -0.014049144781488089, 0.05159438959750203, 0.05534320922041907], [0.01652506741296311, 0.07342820107008305, -0.00567213767256311, 0.027918273206913338, 0.002840191101938564], [-0.04751444020663684, 0.02407073974186693, 0.03125167239857135, 0.006940174974396676, 0.03628435846252604], [-0.032561811786667776, 0.07028172322891556, -0.007604839150708503, 0.018928808934062274, 0.0047057709505188465], [-0.009093271890077047, 0.022063868962327277, 0.05786481100387143, 0.003405311583938249, 0.0009448193203107394], [-0.03320280134777284, -0.032046544570183695, 0.0593067458657554, -0.03489700588638551, -0.002164662239790429], [0.00803352539416587, 0.028369557232436966, -0.04146339400649805, 0.023507396288206396, -0.030833517271571752], [-0.04655905741202238, -0.01903351036702921, -0.039142753264245315, 0.03317626280601617, 0.029536992273047236], [-0.03651690516670088, -0.02331813671348155, -0.04263749549096122, -0.008986299132038644, -0.017581419063926886], [0.007644584254587316, -0.0213084174703434, -0.016025031508829723, -0.03284390946002666, 0.0014870990756757304], [-0.00450028530929555, -0.04058012664560957, -0.013195798723117035, 0.06444733610653706, -0.029597576839372426], [0.011578802887513326, 0.01884549871852484, 0.023312538449273557, 0.03542394429060684, 0.07069853270393348], [0.005082662843023638, 0.018008893375981987, -0.020855675520987486, 0.05504976914578361, 0.016062876228920244], [0.012348612168473674, 0.04148525002809847, -0.01686653467526802, 0.07597467213649195, 0.0542126386736845], [-0.0426520550778123, 0.05702508525811291, 0.020128350050747153, 0.043120398336318144, -0.021591520041765122], [0.005271314092572601, 0.06796628673140707, -0.06998254460183949, 0.015991481658947725, -0.031185893838136466], [-0.040587936538377445, -0.020119955473447793, 0.014359407514474192, -0.002784231254587928, 0.018805479229999488], [0.02652133792027702, -0.03619351422318102, -0.047405944080677574, -0.06009354803537465, 0.04045979076518864], [0.020729317076128725, -0.029454537631021262, -0.02622017300587844, 0.0360995297059519, 0.024176055700776203], [0.006545714561922624, -0.04648194064548078, 0.05834745798015857, -0.07800310081220567, -0.043122457330535595], [0.0986617461665632, -0.035406268879535206, 0.07578192342705241, -0.016035269434084513, 0.048048762236323504], [0.01617136927346067, -0.08298443132309193, 0.0035265640631521526, 0.00280721880562156, -0.03771228650102948], [-0.0015898592457387812, 0.026571835878853197, 0.03143110134974833, 0.02071781925362104, -0.10677910739385069], [0.009866421844896136, 0.02197861288519462, -0.006493516976634757, 0.016341243226871856, -0.07102002029495347], [0.01329642458558558, -0.05252233631528067, 0.03466557526364376, -0.03740029455017547, 0.017392540768380545], [0.043259205251946826, 0.00516459865257227, -0.001251737557104562, -0.030935188477397672, -0.0114635440275949], [0.006715160128323306, 0.0060462879913406225, 0.024364776155851038, 0.027107257194553598, 0.0010268479950517316], [0.008168815564310946, 0.05004264015222138, 0.02828124534068057, 0.025511621310599805, -0.02169968263881437], [0.02473926810263455, 0.0076296731238171675, 0.004728767669364375, 0.045903255678443514, -0.030103245522473784], [-0.06504257768208167, -0.0008402580322796288, 0.008618147682042167, -0.01772677473891704, 0.05103916226835928], [0.033804008083362855, 0.05948549792774172, 0.012625807203166615, 0.016628645664135515, 0.030256103900299574], [0.03800081087959821, 0.015481070423175243, 0.030161343891463768, 0.01234149486519351, -0.017267548950734922], [0.002818105594785424, 0.008295428387501585, 0.01164359702945798, -0.031911494441040536, -0.008889185730079723], [0.011755021329178338, -0.0024012743541981857, -0.06268066008808157, 0.004124984222446898, 0.005487586829218303], [-0.06383524886826257, 0.03325190486778354, -0.014978370183756801, 0.06162732246247843, 0.031164112536260523], [-0.011003024152890324, 0.0017227578590339498, 0.021259155917770337, -0.04190340255940063, -0.015666903728329955], [0.09034962737376107, 0.031063802246140013, 0.03521599281783677, 0.0036373926438176643, -0.02164680735155301], [0.1052770472917801, -0.018279428009571868, -0.028128461219778765, -0.0023733206227559474, 0.019477619273095714], [0.07183403494978147, 0.04459422540145481, -0.031562960321664675, 0.04263988059495802, 0.038589436800645395], [-0.03886422867434736, -0.03456850873779958, -0.05466561256126358, 0.028793782165525746, -0.024223500107937838], [0.011069100397002115, 0.0066992214329385895, 0.05008899959238284, 0.05855337043496478, 0.04999959680251778], [-0.00020386555176423046, 0.03028655071038777, -0.009191940962560024, 0.04775536705877482, 0.013954763091374757], [-0.04384300595267362, 0.059949605490545545, -0.017627185976042105, 0.08167902039393314, -0.0046949653141206485], [-0.011679810670062442, 0.06950358667567313, 0.05117691498734397, 0.09703133311724392, 0.05585914226077088], [0.058204408538463114, -0.004971152337811499, -0.009122693663488807, 0.001368860719349951, 0.0058965193942753435], [0.011862027445401973, -0.03469414800691809, -0.013368740398924463, 0.0051058416271143586, -0.03739481147769183], [0.010582156906799705, -0.08276372386615692, -0.054277012162237966, 0.11688094965470032, -0.03712057392486166], [0.017313476420334886, -0.015275843893477923, -0.0019598638438099677, -0.012892902050618767, 0.062058293369868074], [0.028112620107976896, 0.01414155011344558, -0.029803520347045694, -0.017427482571376208, 0.002391145906886723], [0.05787066030865709, -0.07875545940133546, 0.02216957544253247, 0.06757176975770686, 0.062202985069481034], [0.022173295911727304, 0.01743499447732157, 0.005005436733419731, -0.03185936786534128, 0.03496386624096258], [0.00810603203202875, 0.029860424318507228, 0.01658955784484907, -0.040981914426363925, 0.008304101034828492], [-0.003027522966742959, -0.042093775996131684, -0.005563326961014572, 9.213972981583677e-05, 0.04610918793868187], [-0.037061877998074796, -0.04181782325907439, -0.01245790894623085, 0.01005382040593326, -0.03747920709439484], [0.02006729565951109, 0.07522821313254277, -0.01889146276770681, -0.04136034673259853, -0.011259960030269352], [-0.01941437674246696, 0.07128793858071494, -0.00789901328108475, 0.09779767843458322, 0.015306518535649708], [-0.07866943922422011, 0.05720121532756289, 0.004272604004175371, 0.024942823173453338, -0.01991719187567271], [6.848487459907302e-05, 0.03175011822953355, 0.016529836640096777, 0.012352057838449122, -0.03331390054052454], [0.0181318494501274, 0.030994372989652644, 0.019915817078731, 0.04903971651331496, -0.010710175620527392], [0.008407175825725612, -0.04503614533762542, 0.007534357396295341, 0.0292602606263457, 0.08834779657009512], [-0.03242648919310127, 0.0019320854477827387, 0.10014248218567565, -0.046964303713453455, -0.015272960755813829], [-0.04083100154008683, -0.015611024193183729, -0.035922781068718164, 0.039202981197050665, -0.07313998956641915], [-0.049412686407576255, -0.03921482171262359, -0.049846113257669224, -0.041002358183958254, -0.050807471737436063], [0.028162200561795525, 0.0542810099011609, 0.006465824419520032, -0.04329393898447946, 0.031407050149604133], [-0.01334131432658747, -0.020271940313499322, 0.049713528111652375, 0.02626989048992976, 0.002753762251589328], [-0.03146933125039906, 0.037552724016761845, -0.013686304341873397, -0.04934587786639262, -0.006104188987235956], [-0.03198508768208323, 0.03282798233386406, -0.03932316692642406, -0.04319824715921934, -0.05753083294596602], [0.008528725326348697, 0.06848162361161222, -0.05378530092095569, -0.009670269213438627, 0.02199176300297143], [-0.06311312431274632, 0.024750559029910496, 0.010880600627486334, 0.009374703989051485, -0.028180477854043026], [0.036913621881023005, 0.060735949335128346, -0.01616064148418181, 0.07806430511248166, -0.0018132505861610305], [0.07891888329828696, 0.02220936485150446, -0.020168797433642534, 0.04182126875875284, -0.0016015476680694923], [0.0799289393887028, 0.04750928962152113, -0.04283713962045571, 0.06688882391553541, 0.010064283496302071], [0.019680579992605297, -0.023648479161259818, 0.03806581837341813, 0.05475406617248734, 0.05067113183527533], [0.023521180976786665, 0.06561065173557931, 0.028726359827883435, -0.03974488326272316, 0.017900911063068462], [-0.007019188933123478, -0.009079179811971053, -0.031303487084380716, -0.004225508395339096, 0.008144101013204416], [-0.007571426237717886, -0.006774081376392142, -0.025468617254698477, -0.03032425918835182, 0.05588075222975582], [0.04118145319969035, -0.1190452357496639, 0.006148802105521994, -0.008378861188290577, 0.007526673902401511], [0.10487542853124528, -0.013557287237008187, 0.03850932137155603, 0.09280599778778437, -0.03417114397316027], [-0.0065553619667124835, -0.02115126629152282, 8.665813460977874e-06, -0.004542002345282657, 0.03825115659621147], [0.031037492386935837, -0.00600499157977993, 0.116558511647045, -0.00701633278965316, 0.013342985156236676], [0.06400112326014458, 0.06430890631846045, -0.024225811264532934, -0.026544447702453088, 0.03370117745505085], [-0.023580593718845532, 0.029362966670134834, -0.02947136168862992, -0.009326037990102601, 0.03406413819333946], [0.01926756660645695, 0.03905727798077777, -0.009742337368221977, 0.012112018885561834, 0.0019387727917929698], [0.05739090912041676, 0.07159511241186384, 0.03375261307313369, 0.023570485548891986, -0.006750791366209526], [0.012690570213612922, 0.029664091700154636, -0.05548063287460022, 0.0997228790318654, -0.04553554819733215], [-0.029700066637694745, 0.056680902588097826, 0.007754302202647901, 0.01439098092389853, -0.020787005757805933], [-0.01589370711875497, 0.019979359096377033, -0.025645884716103212, 0.026283373155737363, -0.010880288140204836], [-0.006537990148760235, 0.000254378293796303, 0.09341746958194021, -0.022763617819368823, 0.010065267929156959], [-0.02364953199766626, 0.004676095287548909, 0.02952174092379132, -0.01758788094784353, -0.0026241544959584515], [-0.0004369989620241047, -0.05775924951163527, -0.008332842983745365, 0.02048532129921531, 0.03344588979519648], [-0.03716600680297064, -0.025693937279808676, 0.03331144712707597, 0.00036716678165121943, 0.033594745571941254], [-0.00459176790705318, -0.05110889891987471, 0.02788523001679757, -0.03109320890266409, -0.039351372044043584], [-0.009235137171327974, -0.013027120860964973, -0.0098597829475389, -0.026819492941011627, 0.04114999386833544], [-0.035516429065108136, -0.08311808853342172, -0.009794926263350061, -0.0168279916947706, 0.021506946469631364], [-0.03275931424605624, 0.011373100382802854, 0.0758911985520998, 0.07967445211799613, -0.044662492059516175], [-0.00470354117564918, -0.060445365919127886, -0.036414751720510674, 0.044031327236629954, -0.02218762546390208], [-0.018065455901060627, 0.058513646660077426, -0.006670538675327458, 0.03671099820300473, 0.0620284768187048], [-0.039772401316575674, 0.03685271692256967, 0.011540180830279499, 0.10855695460814559, 0.04122548898992998], [-0.07888848532424238, 0.06415406861713734, -0.02148348444467973, 0.024604658318141705, 0.08409024782622164], [0.011235638905801364, 0.03364920489427897, -0.027345152531054157, 0.06140285313639929, -0.03009113235997828], [-0.03144750071051696, 0.054164102931175705, -0.034728493831435746, 0.007366096991163559, 0.0010615485519560274], [-0.0014751851065903838, 0.015403140011070756, -0.01993608966170939, 0.02725520835859074, 0.02181904113750396], [0.05353626161039588, 0.05955572465091924, 0.017588498913377184, 0.028175240999052234, 0.05023626186685782], [-0.0015422462096675118, 0.021250589314388214, 0.013209886471049266, -0.0022235692905400784, -0.07092358921541343], [0.01880905903229426, -0.02179751887771746, 0.016874704015551096, 0.058045726819356144, -0.0019615133667627315], [0.022695362964312734, -0.020975153518169094, -0.04112186516361095, -0.04389934137951904, -0.0018566413669771956], [0.1042135426954239, 0.007014523193964461, 0.0008358121815179779, -0.03240615048955877, 0.0019926581730925074], [0.10711223774365428, 0.031018180706007415, -0.07028204285514363, -0.048388738936101565, 0.06344112958004391], [0.03555022044561339, 0.0451399999709876, -0.021252180222411824, 0.005675365423725747, 5.8777198962581114e-05], [0.06826067805719066, 0.04478947610533801, 0.018619341964937867, -0.03866194862532376, 0.028931531622177483], [0.02393455493847145, 0.05342538166600596, 0.05194554305101771, 0.0688154537477565, 0.039920835597677264], [-0.0030660268591508094, -0.03728750525755814, -0.01681986596210583, 0.0755871460028051, 0.009671106333126189], [-0.025407515927946284, 0.05354842691497276, 0.030870233265851626, 0.015657115354919694, 0.037097951053776904], [-0.017846306082616507, -0.007022730264632257, -0.03575838908044054, 0.06363969548779394, -0.03902681825028008], [0.0028384906661472658, 0.0604515643323106, 0.009500872103130095, 0.061652877345952255, 0.020715620839283962], [0.020211104672309743, 0.003420763192790864, -0.004270429939693461, 0.04803844257025588, -0.024174670325687497], [0.026228411482372052, -0.02780659665999325, -0.045956495703893985, -0.060688499426869075, -0.005790904751055099], [0.03290400194705251, 0.00555142321922474, -0.05513402458644181, -0.007882458754780997, -0.008751027098581837], [0.09447053496897564, -0.02522556626697961, 0.046224460882552894, 0.011097895077887074, -0.023562095988721415], [-0.004542897949641038, 0.023935962693987865, -0.002600002003037495, 0.020746295867373307, -0.019457858211816396], [-0.04757249731316927, -0.024746782274946182, 0.05627272907982917, -0.002307254563993931, -0.009731630619631079], [0.018668074025081416, -0.007979520441512981, -0.02753809379225619, 0.003760625515035304, 0.01548034239187801], [0.004860546268519286, -0.024280748199250225, 0.06783435987587305, -0.03175960149327767, 0.04405130008816482], [0.015588457285368985, 0.004056717310943898, 0.0029970785892748123, -0.007069900690447628, -0.00575083916660869], [-0.05634848786161713, -0.011218356795249783, -0.062392603549563566, 0.044070024876694924, -0.07040913002595021], [0.010984200200319117, -0.028694309348536763, -0.012679129411729745, 0.04675667815550001, -0.021519168735865984], [-0.04874805468312816, 0.03551182596208409, -0.008407852108932771, -0.010000265515890295, 0.029685801460584253], [-0.034056674247724475, 0.08290922370045554, 0.006614670953849278, 0.023443231160172627, 0.011406149680386819], [-0.016127588610071825, -0.03411423584156553, -0.029585345520779138, 0.040530102051223205, 0.0027501749788948556], [-0.08599041292957667, 0.04662940032581393, 0.03091235860558569, 0.074067410962802, -0.016473240701645134], [-0.01694423366430314, -0.02180291059860268, 0.0066813393601048, 0.048506237649858425, 0.002358626687831292], [-0.05364509245048733, 0.007614825464801525, -0.06008384519791703, 0.03903269004775124, -0.04464210178544851], [0.11238370445340494, -0.017988926720091, 0.012331443469838796, 0.05067542590599088, -0.0015195590742599736], [0.06705044796319207, -0.03990312058738426, -0.030380248777881074, 0.011690096692439774, 0.011207331137751896], [0.030429211772245293, -0.0621003155399696, 0.03555661290576161, -0.015234914708134852, 0.07141485123281169], [-0.02311647804769376, 0.00802722115880056, -0.030621829959394498, -0.043600116929547114, 0.0436549771552414], [0.03584307326425747, 0.006509887059465997, -0.009291050240385033, -0.02461458089416547, 0.025140381208714698], [0.00349608313706466, 0.054011128272694886, 0.00879978244477188, -0.010020855320444791, -0.01788904072054049], [0.0005367604572803087, 0.026749545064197373, 0.006821998546479358, -0.04078370712909226, 0.056864921547558706], [-0.03967384764510927, 0.02104294460182831, -0.0032961350803231604, 0.04559413384419246, -0.03946814189818874], [-0.03175646295254409, 0.02744017644282801, 0.031874073901315414, -0.033661724375770176, -0.01954517233865814], [0.021640456850226194, -0.020189558357150177, 0.02092931760994585, 0.020766450373878444, 0.03683601953196799], [0.0644000848749157, 0.046204308218803176, -0.03693479475732631, 0.0017870041176496294, 0.045954748011082173], [-0.012000159167287602, 0.020086893223957472, 0.04025647499839923, 0.01940278213813454, 0.01006878038076018], [0.05229859272996341, 0.033248515108915466, -0.011289994557069586, 0.022920869103986996, -0.02114106321100669], [-0.03716888041599628, -0.001908227555571861, -0.030455506204573185, -0.00957604353104965, 0.0408505598306537], [-0.033927564830225736, 0.03532814350806922, -0.013994972684083107, -0.01958072071595606, -0.02853597521532943], [0.09213152383087873, -0.07698392207080593, 0.0077525162003943505, 0.014185102241794006, 0.10165952683170938], [-0.029196807624158737, -0.04835006669595874, -0.008985755147133687, -0.015159616680802112, -0.022374185284945947], [0.016833632941242734, -0.04006140461075164, -0.016385475895124034, 0.01304339079084679, 0.049338111706604015], [-0.010748270499255032, 0.06309327245420969, 0.031434848586831966, 0.021779202756850753, 0.08429365025437796], [-0.07686826061866052, 0.0014332309957421105, 0.012869740569883562, 0.07265657407147678, -0.05450275575494213], [-0.008414769655490952, 0.013262858448519096, -0.04905896848226838, 0.006337055361226413, -0.036806747855447484], [-0.0050693260547532756, -0.01013170241587546, -0.0010487115825902472, -0.039975703241718986, -0.0394202216899013], [-0.042731555473262586, 0.06628592520804225, 0.030082660834370587, 0.026704311017030833, 0.04512948398490236], [-0.06202168236573099, 0.008172905809255131, -0.007650038087533397, -0.0446426633888766, 0.046302111393179836], [-0.028241459059063913, 0.06393401579941968, 0.024670678334616745, 0.055869174478686404, -0.00872256071398089], [0.01341014822425351, 0.05263785162848189, -0.024016588012454848, 0.0986723326076932, 0.04138887836430115], [-0.041888626569137485, -0.02497278781425546, 0.02635478754313579, 0.007215523476746746, -0.01686368541989735], [0.02405814063640574, -0.0632430786939637, 0.03960022788348175, 0.007735653350435996, -0.12903337185511496], [0.08864459447257167, -0.045474488534103435, 0.058842381707725114, 0.05867429265634422, 0.07059265182675724], [0.09383030226183509, -0.04295985359307695, 0.027853142952041488, -0.016159012610365595, 0.009718097474967182], [0.07861311373829381, 0.07407541547254619, 0.028705227381702964, -0.059418760245236193, -0.017782915422989615], [0.05123674418088272, 0.05580566293862825, 0.060433077266909836, 0.05231060634918278, 0.044428061040541256], [0.06929906240304916, 0.07105009128022004, 0.04083234239323161, -0.007005434504485019, 0.0654306238426675], [0.002058305961735889, 0.011569879164372781, -0.07051695392340286, -0.023350350371816323, 0.1246244173490325], [-0.0420715582396967, -0.015472718149820985, -0.03362073240048523, 0.01692344936549761, 0.00643985573945422], [-0.04088215416018799, 0.0573804561523505, 0.02675528617736066, 0.06787677082691393, -0.02246620455225958], [-0.07968781907933739, -0.021807001505911416, 0.0071205238991393464, 0.06294500952949905, -0.06650301950768556], [-0.061299955461280184, 0.03179497034851253, 0.047300948534119314, 0.07774150915135122, -0.041650499183502644], [0.02160355879229806, -0.038520738915860095, -0.012678895762662111, 0.0051540378954300445, -0.004771355729216234], [-0.029747725629442747, -0.011726337023079781, 0.012484427895593606, 0.022413009650262654, -0.0022176244616497836], [0.07884456424105601, -0.05137325658469487, -0.030161369418169066, -0.04207613853560797, -0.07931830143828135], [0.016299154454916844, 0.0899948039499625, -0.041794740454699955, -0.03211615751990889, 0.02705949236199737], [0.010003949157217291, -0.05340878044981372, 0.05579221968666353, -0.025350207425599836, 0.023245051843175265], [0.001883841671376722, -0.01974805171840271, 0.03092047998142622, 0.03492745040866086, 0.010818252417887041], [-0.010577973263914155, 0.005590061567641668, -0.01621461286488956, -0.05812489597863723, 0.0170049501179743], [0.012071715195813043, -0.018572097275982646, 0.021900087636661274, 0.022590471935658846, -0.014546329975874302], [-0.0026874588283334225, -0.015293794667646405, -0.023341463756168312, 0.031879003295118065, -0.03345566454098155], [0.03442120756754224, -0.015993403188904968, 0.004258875366901318, -0.006193288915609368, 0.023791462654881912], [0.0013758315078958093, 0.04528350866632931, -0.03158334612302838, 0.049337374950821515, -0.028389352086267226], [0.005470609141340798, -0.018418348932909306, -0.020024693463996077, 0.14036090001168572, -0.01699550187996468], [-0.07146982605360154, 0.04358864170309288, -0.035420926398394774, 0.017875765574998637, -0.023976948890201005], [0.012130832425868933, 0.014270654323434717, -0.0370847371684514, 0.009980775630855554, 0.03903629336830634], [-0.029070019370832523, 0.02486297745406896, 0.004114032550458932, 0.12480600474075412, -0.0021267333636714176], [-0.07674134046110938, -0.013978735839019785, -0.009819123978916357, 0.11229663382860806, 0.03523533785512733], [0.02418721621725696, -0.03890249021319763, -0.00956064261598529, 0.07454611189324536, -0.0356089813793077], [0.006724689033934005, -0.026848648300663292, 0.04982549523931518, 0.021077690081219375, -0.08724533209377816], [0.11929717293958166, -0.010055336881052528, 0.05137436554722368, -0.015730630099347713, 0.007584108868359402], [0.055389919976113776, -0.01754139465075016, 0.047502249327648384, -0.06002202444923872, -0.05986327372154008], [-0.006687905482305357, -0.027015687435925577, -0.014822611880280678, -0.06588830111545452, 0.05281572743980459], [0.07122310262661798, 0.018570314711787755, -0.017253635615583417, 0.008735764936187922, 0.05566496425185161], [0.09694889501083652, -0.02934021785746253, 9.002123034392714e-05, 0.030096030990371, 0.07557253426820343], [0.06873544302901913, 0.019667478799771793, -0.06704910750784185, 0.03209349854421305, -0.01670099886391592], [-0.016947268222065364, -0.005285056369488287, 0.00035542998277209725, 0.01191547470224152, 0.03315981149841298], [-0.0031756537275468436, 0.015863118582845826, 0.042605454404951434, 0.06468062558296495, -0.010479809165198375], [0.07519407596809081, 0.06910882099824714, -0.06582580413161117, 0.023835140223457126, 0.026547658710794064], [-0.058617866330238334, 0.01988048189763169, 0.017038111408771855, 0.02423982662122279, -0.027035899836424505], [0.016947806353414696, 0.016236148913295223, 0.06479945845949846, 0.02210318721489034, -0.03320688214827228], [-0.019285233464722912, 0.027670115488640557, -0.0162626035698302, 0.08199666937295079, -0.01755525106786329], [0.00572100641592819, 0.017180576414343618, -0.013883850411124605, 0.049903666578210916, 0.052745743739510374], [0.04350818198247524, -0.003598833033354392, 0.013605242680956508, 0.010360210704199829, -0.08653432819449879], [0.05924766041554731, 0.014662529982604974, 0.041289226316920336, -0.026509363345359135, 0.033249488181203865], [0.009626947534482932, 0.041036478633584304, -0.0010694899580806082, -0.07823555746223078, 0.013392077041129834], [-0.04164352246151955, -0.040982942366668385, 0.0008732785858952018, 0.08872061989857886, -0.012790546958832335], [0.05056513475159769, -0.03004489868250032, -0.037344182159735104, 0.027054997274858675, 0.10314570935460213], [-0.03251146721462681, 0.020421005376211075, 0.009381563397697256, -0.06842081285377762, 0.027492405289089094], [-0.02533360130634628, 0.05193711247458641, 0.01677511146518329, 0.020730088864197745, -0.05288196797604664], [0.017402649148811532, 0.007148932745909426, -0.09386069271228575, 0.03156003930761017, -0.10929449345728644], [0.010626477803878664, -0.02475204586354411, -0.047405684006253265, 0.08968193710709581, -0.01919832377758592], [0.004194635387972439, 0.003768311501111551, 0.018857312009110724, 0.09179615295803659, -0.01629467320076988], [-0.04585497613331355, -0.04550173243166562, 0.030319964945421964, 0.07242361334185261, -0.0072113393411374705], [-0.01738156291682919, 0.03504273897748415, 0.04300909068923585, 0.09147089535556419, 0.07311149735925374], [-0.10474714837738769, 0.00466778673513247, 0.14370135868955264, 0.1109020290830382, -0.03700088393774449], [-0.03915979953988225, 0.053872569771600584, 0.005856612543693109, 0.03642868472197646, 0.057518413680907106], [0.012567646987624576, 0.0864508953017519, -0.02153974597516094, 0.03315857989424018, -0.00896151090727987], [-0.023079682076769185, -0.03587062435839754, 0.04206732663076348, -0.0006841248413718765, -0.031711720084935086], [0.11759503001329231, -0.01692952693690666, -0.05624807024666809, 0.08537429288511682, 0.0560573622477024], [0.08397055009959695, -0.019893197027688287, 0.048243791632195124, -0.016689334743063708, -0.02178008553890601], [0.11702282460560243, 0.058359452805874054, -0.05067247821929236, 0.0071691424494052395, -0.011978794683582287], [0.041609219576658356, -0.003088425861985385, 0.042033130358377274, -0.028839397583378175, -0.0109516907558124], [-0.008691666528988602, 0.06310277025954922, 0.0063791679512896745, 0.046431342614058665, 0.06989375462843758], [0.03316685599680311, 0.025249378891564304, -0.05124211450209302, -0.009703194696715269, 0.002454999685236384], [-0.017160496248579103, 0.01707280808918445, 0.023382923875956398, 0.06074766863455381, 0.010985541908859628], [0.003916482916645497, 0.03967973896890132, -0.00022074682948648047, 0.04431000871407802, -0.044232482269213946], [-0.019963930558066216, -0.021271226149342928, -0.003466909794046461, -0.015556956499489134, 0.03616080505886937], [-0.014859462602771245, 0.013180993635769037, 0.044757593386069515, 0.0023775660478583547, 0.01993662369117216], [-0.02176668755362739, 0.009233287772502319, 0.012908594272573608, -0.03055883424243813, -0.07312177113903211], [0.017586359579401183, -0.014942258064550337, 0.052990990377222304, -0.05747185846131904, -0.03433494588590079], [-0.02214179512993263, 0.009603105998836165, 0.03159116137678246, -0.024325074860384314, 0.032897623527537126], [0.011844491566824388, -0.013690483493615485, -0.03412221302200903, 0.04217070296749459, -0.0176713434558158], [0.029855873759418346, 0.005017518006171911, 0.02391930638036523, 0.031179451238438505, 0.05078502275373691], [0.02325224642486105, -0.04896926620192998, 0.006112301096813286, 0.004810137493801959, 0.012567591210646965], [-0.03818699692945106, 0.03587309314403604, 0.017816654786220208, -0.028121129754768544, -0.04109837697530976], [0.0037192653160331947, -0.02144223912287369, 0.04248588917246791, -0.057574941978603966, 0.01414580455139672], [-0.018078845165942964, 0.07799722470676959, -0.00706393240584408, 0.03076281743358503, 0.008879292250192315], [0.0043257711407607095, -0.023135414501135956, 0.100122525716431, 0.02207162962230301, -0.031653967771297406], [-0.08611214687993396, -0.0427717254467036, -0.016650075158470494, -0.005794009998924197, -0.06185268211536625], [-0.025129790771985606, -0.027239024402746358, 0.04760956655230603, 0.024677495848032263, -0.046270979010026435], [-0.08659310811824765, 0.03176951780049973, -0.006308968709023487, 0.04053441109638013, 0.009389819300402103], [0.029859893219859674, 0.010295421903826422, -0.015481593600690765, 0.046540090355257656, 0.008871333205316596], [0.01777302407568814, 0.03672469956844507, 0.010319961571479696, 0.0943221681198752, -0.030256239138966804], [0.00904406433300999, 0.03413077349767988, 0.008380833763858892, 0.038203800200319174, 0.049476579117807264], [0.0009519866490929745, 0.029789764968029195, -0.028569014664974773, 0.021286339183591355, 0.00731324598811163], [0.06145463539547589, -0.013974443060704613, -0.08169304990707303, 0.09393767001606872, -0.04547087256952305], [0.13690728961523493, -0.025514695796857185, 0.04186600296106815, 0.017844851624207483, -0.004933743215568255], [0.05648379808843275, -0.02262798733299665, -0.0059238146412701346, 0.03557782118455441, -0.046642419506522245], [-0.004234903999352271, 0.03621077591432061, -0.019693860006971584, 0.03450585014916582, -0.022854704320082367], [-0.016788925478072248, 0.015451974548387874, 0.009806579034621168, -0.002952465476001543, 0.026260530614447077], [0.025154540699552277, 0.03827025019861627, -0.013208380786151051, 0.02214596793324758, -0.010320899069951518], [0.03221603471900828, 0.034190259389375824, -0.022692222719924198, 0.07774972132508982, 0.0037078129392320624], [0.023286726973705707, -0.02372283191173542, 0.04854233303194506, 0.038920682089546826, -0.03947184993739642], [0.03846108418187548, -0.013600857182966929, -0.028226364963753393, 0.0318971545114488, -0.00016577101132665958], [0.02336332526762464, 0.005548084927284709, -0.03013171443974005, -0.012339766811759844, -0.04076637335667657], [-0.0017631911424503739, 0.040018000623377466, -0.032718809106694315, 0.04095054708437878, -0.056533099455014585], [0.014956138510615568, 0.009249987363292841, -0.025074821550300063, -0.052095088726000584, 0.03303238776812166], [-0.00023886716061975936, -0.025284511036588134, -0.022445644343779107, 0.009199605615205515, -0.0018708173534474602], [-0.006684847967948747, -0.005320922184269527, -0.037327017735418, 0.05140165388466305, 0.001171069134230728], [-0.02413844476163232, -0.009675035078377999, -0.006452381828959988, -0.034995004358252854, 0.03320195179730055], [-0.0018246375781093577, -0.01562863272543673, -0.010162615868052326, -0.008539467682140586, 0.036939327660642715], [-0.021473910352301923, -0.019691568625909196, -0.07074918145904513, 0.02145313657540012, 0.03724124141569333], [-0.03996225293955257, 0.057710307257010776, 0.011115699544814164, 0.06861964382807964, 0.05025050662157309], [-0.00889714731570357, -0.05041930768588355, 0.05890762677083979, 0.014852617682397764, -0.03219652901943628], [0.0015125192298058097, 0.034619711905378006, 0.049363679465729934, 0.06020010397631642, 0.11124181771366004], [0.0010178100743053738, 0.0331126092216542, -0.029392513351639518, 0.027244061266180467, 0.005263027753629941], [0.004516111882703642, -0.04633419096717825, -0.000475505411982389, -0.007721284984840805, -0.012356976518931325], [0.035303362510444754, -0.033344103464245683, -0.03373865049427398, 0.01620643745558924, -0.017757320750947672], [0.022003618013091055, -0.028540947782187142, 0.005198770624138195, -0.00203240861447729, -0.06595189128650475], [0.0438029184714923, -0.06392708400052798, -0.03608399452236605, 0.008166494420184576, -0.057203104877246266], [-0.02477601448158073, 0.010260147805953471, 0.008085467986872132, 0.008838346393020162, 0.03366849707086642], [0.0704177059381041, 0.04190962715296014, 0.08265519146589376, -0.008621694139012063, 0.018402875821008365], [0.04740582039555442, 0.05534793992035832, -0.004385355397865765, 0.011255585455058946, 0.057686566415633786], [0.03545327814992451, 0.09562946024881755, 0.025746256061523188, 0.015785064487163353, 0.040653670749493075], [0.09754500945196491, 0.06149791228226625, -0.0143480273541728, 0.0681749652684559, 0.02606898992741153], [0.05041570623553848, -0.011100551731126817, -0.017144571225714122, 0.042720142353964645, 0.09396660564140892], [0.03128669530876937, -0.005737220527752459, 0.086306181832645, 0.005656142171169633, 0.09729536306267567], [0.04969183806149587, 0.001859810957903701, -0.009059677519799936, 0.004540757102567464, 0.07306380999269083], [0.13798334616933844, -0.013930525094653711, -0.004130184236425848, -0.0012695921358096196, 0.019457839748772642], [-0.01332774195968138, 0.012262382160497857, -0.06576264971467084, 0.007106030328405813, 0.012921358159091095], [0.040267330917599556, 0.011257458294945313, 0.025501930704946014, 0.0037136358506221685, -0.011850244810557728], [0.05306886575775944, -0.022878866216459678, -0.04687559767340389, 0.015683686585493423, -0.0203722118716727], [0.04952485996173149, 0.01899728177553126, -0.010709898919509579, -0.04091513935755833, 0.03455367966238177], [-0.014720159794695938, -0.03604762299895283, -0.0437399977282069, 0.05150092716819138, 0.006826566368754552], [-0.02875296540884184, -0.02063717426022466, -0.012898786460168593, -0.08865561668860655, 0.026624021304939127], [-0.009602167228518355, -0.03946320169291699, 0.005340124487648481, -0.016835192906698947, -0.018621725050932104], [0.011308495629085627, -0.06044114597955765, 0.001137762945887899, -0.03990846926847282, -0.005094548924634072], [0.018252859619103577, 0.043118938486838725, -0.013908506633307229, -0.01641242418835399, -0.0007962944469107771], [0.012084531014043642, -0.020404701852143128, -0.0385479544663322, -0.030642885427680174, -0.02566722395074763], [0.013216951502572873, 0.013703756172034075, 0.02439212482374192, 0.06184998742505256, -0.02250156633339773], [-0.008849777950547463, -0.041030193505834325, 0.015792947176204827, 0.02178342612479438, -0.006169828643971856], [0.04328083793052229, -0.037879845762907545, -0.016708839392802478, -0.03909168699548961, -0.03445370322226002], [-0.026950217913151466, 0.06781084328082645, 0.0323956125420277, -0.001979648093792313, -0.040130530984721136], [0.06254642218609333, -0.01100639624683576, -0.07024310660093276, -0.037742883732270964, 0.02909380683287509], [-0.004986291922129416, -0.047467941370319525, -0.0014822034774821362, -0.0443321016553156, -0.009989458652605341], [0.04248046587696765, 0.03329332584317055, 0.004809254716671711, 0.0026012260755614728, -0.056879709299718494], [0.03727915665621673, -0.05111599158778037, -0.04004802892728134, -0.031367588579744775, -0.037781860988517255], [0.08089600080309538, -0.017207709590974635, -0.01844658145519681, 0.010739632556883986, -0.010368691372227797], [0.07111693908405654, 0.02075748730975565, -0.005255981802677533, -0.0986285943173614, 0.0011997633163591452], [0.03475978454441888, 0.02173391399794016, 0.005394868538857196, -0.001203954564679442, 0.026254830960028598], [0.029775632007075566, 0.04266283143022533, 0.0977803485882764, 0.027488000030820758, 0.01650540286389121], [0.0542892059942024, 0.04364142699006268, -0.022126100629041266, -0.0347453604689513, 0.035043370006370554], [0.10250122645758587, 0.027006318111953184, -0.06800530773234226, -0.004230484163924018, 0.11277504176299556], [0.08660923963948874, 0.03983370794312193, -0.09285653402766522, 0.08476715135127026, 0.08543514378208934], [0.12120318262443175, 0.02421546749415929, -0.055086497572626375, 0.023227047325883002, 0.07479605155964429], [0.10260728126358776, 0.03394153633035685, -0.009120643834151197, 0.05079762770333328, -0.009919298858021092], [0.04160381058612121, -0.05286519379705198, 0.04400145437730011, 0.020550828921254483, -0.014463624154000165], [0.05338058991654095, 0.04377417020629452, 0.006445841553509996, -0.043492362964846876, -0.023914991326972238], [-0.0077696595019134595, -0.010778643299185608, 0.025683570016111327, 0.021152784456554996, -0.061870549471373104], [0.065086174648167, 0.09753049436518478, 0.040799819654398085, -0.06255178112920655, 0.0025322523024498373], [-0.0023579473279616925, 0.0164229016835526, -0.0050605168440880826, -0.03560672480427557, -0.04087949600437502], [0.016699453158329557, 0.04419975649551787, 0.03278038514924299, 0.02314096629527582, 0.05364961001823234], [-0.022930435051411475, -0.0003721867440678791, -0.0217638410527292, 0.02058215831653166, -0.031067410471324865], [-0.004864905424637499, 0.000403584590106128, 0.029809748763591406, -0.037338507500852866, -0.03528204293665243], [0.003566386120934742, 0.008105352515523528, 0.007999128469158347, -0.02843868459737463, 0.010993279229303434], [-0.015352817245978725, -0.09816572573752905, -0.01932874388456716, 0.007329771673461439, 0.04030634925335635]], [[0.5165160387843254, -0.3962804247128241, -0.3394292779991454, 0.5081650114425316, -0.08025565879170234], [0.16157326410136286, 1.0568014193637836, -0.2808765066332486, -0.2897789616158046, -0.07889288834011807], [-0.39173288359956443, -0.6172941057112494, -0.14107411900815206, -0.3459143769308804, -0.19451164140862345], [-0.35166901066595746, 0.2805147864425105, -0.007737968843275235, -0.8400048446164897, 0.547474727984327], [0.7268481019496456, 0.8328875589023719, -0.17491974101364252, 0.2370037673465421, 0.17924987579866672]], [[-0.16338925828307868, 0.7536429701263566, -0.38786590514793307, 0.03511077360909292], [0.9157502850459268, -0.2617516823926502, -0.0434471512125479, -0.9530875189494291], [-0.003967160475983681, 0.09930385320962797, 0.22988043259680757, -0.8085368587170371], [-0.47530668637970025, 0.7785455087730678, 0.45491449261808536, -0.2603511077193846], [0.1689397918020928, -0.8864229532993287, 0.649288503338691, 0.1394215780176925]]], "biases": [[[0.12956584375815763, 0.03817384515024288, -0.0069520539260988536, 0.01882506588616756, 0.11742817789940424]], [[0.24467613871873123, -0.061614899783715114, 0.0, 0.27131709174249524, -0.0008063123225812279]], [[-0.22277614599152787, 0.5971341587005062, -0.19197162528252373, -0.18238638742645452]]]}