{"layers": [784, 5, 5, 2], "weights": [[[0.035607767180080484, -0.034768706894433205, -0.045272200879562456, -0.03189355375494535, 0.01012260878860476], [-0.03805467427052849, -0.0703622541602578, -0.011238076967164957, 0.007290398405758901, -0.01659424807776456], [-0.06994212878783014, 0.06414023387266654, 0.02215887653484037, -0.011869310367918778, -0.01770817145525152], [0.03667045068139496, 0.03988831971943695, -0.061286799610165234, 0.08312184862312876, 0.04363598142228668], [0.02719126638698881, 0.07701133149804316, 0.012412771627645605, -0.03130413775219147, 0.0776159650001884], [0.045416377113073156, 0.04521545057608304, 0.03339519322557587, -0.006336898238047323, 0.01509671583911972], [-0.00846454724661538, 0.0010237632615139123, 0.004972396070688856, 0.029410764084757977, -0.040463453883482485], [0.0384674839509133, -0.05437169958913908, -0.017021939468048544, 0.020911150285805397, 0.0157801778553982], [0.015677177205958116, 0.007664899495252184, -0.026498406374664073, 0.060025374389996666, 0.006452108399255241], [-0.01995317622205462, 0.09359950370954905, -0.004566701413034429, 0.02259551732170295, 0.022214299981902823], [0.04384727827797126, -0.06348374408512612, 0.04482173318282886, 0.05848540611690631, 0.032820755414907365], [0.0771062134733534, -0.024502259197328086, 0.0794384683927245, 0.05908441364284629, -0.010293787267836186], [0.061242351014758625, -0.025521288455564603, 0.003289675841688091, 0.04458746361398328, -0.02002500634201347], [0.03967716910315587, -0.014952706486034226, 0.038899271562036944, 0.0908970854422714, -0.0043759039974692075], [0.08389470475631747, -0.004425123543708613, 0.09118125878493774, -0.03685359662775871, 0.014614224228481857], [0.009946651340221303, 0.07418186736905709, -0.010179134536668846, 0.030546056502870053, -0.00928942275013867], [-0.0017914251248886675, -0.03545356007902149, -0.02247937638854816, -0.00537692357320583, 0.011823130600688705], [-0.013138947658815509, -0.024801627662267733, 0.053498169485635426, 0.011846890682113372, 0.06385499836581988], [-0.02822007897281827, -0.05525583603513478, 0.04077550736726691, -0.05621968299586985, -0.0027265901678733386], [-0.007935638758944227, -0.01843546784229682, -0.015227026736794404, 0.048165294448836084, 0.01947574487610385], [-0.004857250083090435, 0.010567440512417463, -0.0026514023644056204, -0.009584787370686151, -0.01046822391549181], [0.0372020696580956, 0.05143923802122885, -0.022737227530541977, 0.03097211966029929, -0.012357974996451788], [0.024706053419617065, 0.015375077672223481, 0.0031861754377181506, -0.0439523092780248, 0.005854057541887295], [0.001676654721408056, 0.02663979650243629, -0.04569273735334568, -0.017647180059147997, 0.011619126957108898], [-0.03145587487668693, -0.032658498192024626, 0.0721109305195726, 0.02008779112648377, 0.025649516645348473], [0.009278539247730717, 0.004893917019095661, -0.010849856441774608, -0.08880847561469654, 0.0013834443955955797], [-0.006025367430284686, 0.025725865976980056, 0.05033321560956761, 0.026495150580845638, 0.012225914834460795], [-0.026883191189069545, 0.017531753636874717, -0.013336086738941582, -0.03570593183316933, 0.001852614345209129], [-0.02972055587141763, -0.01650727428904507, -0.019622389658830505, -0.013347072034668964, 0.020521505978705147], [-0.023503833277943358, 0.013316215439438788, -0.03737119057130794, -0.028139782568466776, -0.01867583670355839], [-0.01304699764299765, 0.030663678842196264, 0.024340997924957787, -0.013328784736083966, 0.01640521679686543], [-0.023438803760483802, -0.015475435887962548, 0.06056228915583841, -0.07087895940072875, -0.036630634082088935], [-0.005238279874586081, 0.0019209979944107458, -0.053604183545039104, 0.03210697786688181, 0.013744358169002978], [0.01089211895548639, -0.06475145540804919, -0.002211498218411901, 0.045970711552084154, 0.025005807701978657], [-0.03402773813380924, -0.004361859716481919, -0.0404840108466019, -0.012556891566342562, -0.018883320371407462], [-0.014992834922423258, -0.009237793679947212, -0.003762496851273467, -0.06159244346583201, 0.021930178137364392], [0.10050595543687159, 0.024851556859183548, -0.049644095826698716, 0.016678888710771868, -8.064258878663005e-05], [0.07381121443139377, -0.04683378400870037, 0.01905548715928293, 0.05301176296410409, -0.06802749074826248], [0.03823963688384302, 0.0001933789117452334, 0.002412085746593076, 0.05491139446127438, -0.07708203835895769], [0.09040737245245152, 0.04156590602279696, 0.0335324490855529, 0.028527835882880413, 0.02754080130373293], [0.11238141636232891, 0.031714626317000005, -0.030934053638706552, 0.016046629772494866, 0.002246388697885974], [0.02354793058326361, 0.06889842942885294, 0.04793310582718315, 0.030913339869133236, -0.004236187920975998], [0.07021868909227022, -0.06374950143321363, -0.04141736691113234, 0.023252571506440778, 0.07796553345060858], [-0.04989882135077798, 0.027588557322047427, 0.0038561184722749435, -0.018337320889195825, 0.08705985695490719], [0.09820487430328544, 0.06298470324215327, 0.062334014905126474, -0.04770028498469879, 0.1026123401783691], [-0.02261805166609144, -0.02941108404869478, 0.019425757654094794, 0.020524571532582137, 0.05601468394850721], [-0.033387421283992275, -0.029309511046135762, 0.011819699326561389, -0.0028966685651888413, 0.020453537107044846], [-0.02470725913258461, -0.021875770803241535, -0.022175264227309418, 0.0997327548703292, 0.01834154763452404], [-0.014791515647340681, 0.04936246318395247, -0.06246809518659411, -0.024830306069687225, 0.023164541962649148], [-0.031915953091886405, -0.0028786574262112097, 0.036248373110646305, 0.0398783353931778, 0.0056514691201062], [0.02107625214019545, 0.007747260686765912, 0.024250858549725373, -0.006218291809731937, -0.0024990612975345967], [-0.046469128325037586, 0.01097147241046584, 0.002296131201834898, 0.017882343427834464, -0.0034723985254021114], [0.0011373640864151184, -0.0038788138714885, 0.05300783623583807, -0.015806702285717195, 0.00026143459798991047], [0.04751718186391619, 0.009324002306087292, -0.02582052947804999, -0.018508746363658634, 0.048787039724357294], [-0.00634297585943884, -0.014599412447165465, 0.049208315446996886, -0.024487179000112103, 0.02019287160675755], [-0.050810689225820736, -0.0010585580183733604, -0.01494154938676263, -0.006392408226323607, -0.026032599447889493], [-0.0062007224568721726, 0.021682919551425005, -0.015152695278575639, 0.020288315426525195, -0.01344770105012268], [-0.021350582786295588, 0.0077185006712561, -0.016003279598763777, 0.008148856572272621, 0.05786173839618861], [-0.056828467450293754, 0.010368822759470974, 0.0435488200243069, 0.01601800850422274, 0.0025087719329558895], [0.06512855745300247, 0.05912590081435888, 0.009410819769890427, -0.0168379163767537, -0.008199168883178665], [0.021081975598790704, 0.05460946467595783, -0.011811100782813862, -0.031371458351388805, 0.015014618935248901], [-0.038102506504062085, 0.012597898110272973, 0.049129146592423574, -0.003475923878276225, -0.03315874415430312], [0.047502621132044245, 0.04605287654124141, -0.015130337539816567, -0.00651665952212206, -0.002988457930356773], [-0.007331701945311439, 0.02343099671053084, 0.057867167506783924, 0.04025732451012672, -0.019856870775650837], [0.06732520941031157, 0.06479587550409646, -0.05105389488492316, 0.03655297827621107, -0.04296984772560238], [0.04474095627304511, -0.01120426990517546, 0.004633434446173845, 0.032494206023079404, -0.037277007779040985], [0.021931257371994795, -0.003052615051948281, -0.01609188161493286, 0.022436393058840307, -0.014554055521413348], [0.030496067761869854, -0.030582727305210493, 0.040672650077321314, 0.009558990139485812, -0.03262758396288807], [0.10117132698069708, -0.01467544688047085, 0.002438317973097571, -0.01655171360896729, -0.00021739719123592378], [0.07941020504308267, 0.01631272041663086, -0.010474787358692917, 0.08304830777643088, 0.05380211541629076], [0.00885371874078212, 0.06098135596974022, 0.035210103595317246, 0.02477694720416951, -0.013323859650424277], [0.03835919924084569, 0.045347931134754216, -0.04541401282050534, 0.03953501483738862, 0.0161812282316133], [0.03570836437162204, -0.03970684054774452, 0.03971932718913202, -0.02813712071919, 0.015653909644344526], [0.004292906538868138, 0.014211372713932385, 0.0019318314632714453, 0.002980492814973092, 0.03145116703218332], [0.014309619396734224, 0.013101941203576488, 0.05111518606253646, 0.005249103622632465, 0.005419447384976092], [0.013387182762694058, -0.012046591059956797, 0.007537870610761458, 0.0005137617389178989, -0.014616886523658206], [-0.05421944777505889, 0.03581183057217558, 0.035646271787025265, -0.03796180420969779, 0.03770634828423105], [0.015941014104669266, -0.05777603936068304, 0.003219683412572203, 0.04193643605515079, 0.0031422145224646496], [0.04720766632387334, 0.004503164736214461, -0.03684115950954529, -0.06292867552696217, -0.02178665035735624], [0.04165106973594051, -0.027909229203928264, -0.03214747911612289, -0.02094946523436921, 0.05724779282172964], [-0.007243871035040481, 0.04903533689133293, -0.05887810275422521, -0.02055239855293831, 0.004289846672086626], [0.02353019300942454, -0.06536894411852953, 0.03510076724795789, -0.058261778654642396, -0.05346987037422485], [0.01788466851395934, 0.03589986495650014, 0.034585690273766595, -0.012808403135701469, -0.007549184809902519], [0.03156486507733925, 0.00846889943426136, -0.008206567111728588, -0.03687661283587607, 0.00023685544537496313], [0.012826854953227785, 0.0026744913981794774, 0.021876922203074974, -0.06325727201018154, 0.00948070910042966], [-0.044066006078478714, 0.037714285635818086, 0.050585417448072593, -0.00599145715963474, 0.05055827330992075], [-0.030440348072103607, 0.043221232214874526, -0.026252239010767148, 0.046521035999530225, 0.05304605755138775], [0.042144322147955784, -0.019988954441653137, -0.06363301371341314, -0.0011320299893205835, 0.059974420837232215], [-0.01564534872450488, 0.016596168766522926, -0.028078094884461027, -0.004496324180611492, -0.014869397790916155], [-0.008582902170226748, 0.04382032063227552, -0.04046442005284996, 0.021498187499943564, 0.012375328908973382], [0.03848108581749036, 0.08584263266982957, 0.019626481259673884, -0.041517776258798204, 0.007806708594004531], [0.02034449103595593, 0.012156097189122056, -0.04418966514558758, -0.00967128824131305, -0.033983315875457824], [0.07129178469811713, 0.006136548073043008, 0.02782503757754041, -0.012976662952566278, -0.062477995222916395], [0.06017988005553384, 0.04463915930809284, -0.03904649066702456, 0.02682358187644964, -0.09479279392804926], [-0.008563683332244224, 0.007919244928834964, -0.04577211604653338, 0.054416492799777505, 0.034634518487376156], [0.03691502020296702, -0.061888270423591206, 0.07400192388511187, 0.036351035459405254, 0.000521800842060155], [-0.0015089850377253248, -0.019886666978065477, 0.08922206580265427, 0.0030763988432932206, -0.012618580692306995], [-0.015674279044950525, 0.023395313938867252, -0.014473106886347549, -0.012974500966219354, 0.12104013798671501], [0.01056030081203524, 0.022646899198443347, 0.018896816766514238, 0.026945306499688963, 0.07115750021296206], [0.01730349419118848, -0.001095888948361774, 0.032155044052900844, -0.017299647723176378, 0.0682463719443076], [0.05177405736451491, -0.047364649046111255, 0.050296579086636733, 0.000829792400455123, 0.06602297683898298], [0.03215421191537802, -0.01923668565773367, 0.010503242435558934, 0.02804879199598974, -0.0008108833127797809], [0.025513879544086324, 0.014187324858329213, -0.05307429661086559, -0.05398936894210799, 0.03170943332471681], [0.09781986720055477, 0.05818992354170228, 0.00552455402806414, 0.002515856820839933, -0.031110172898920343], [0.013003288381295056, 0.005659354353119789, -0.049631432389423136, -0.010810779824672314, -0.040643190718329975], [-0.01939149624469973, 0.0028538213008698814, 0.10675112698068794, -0.02773744598940505, -0.017708501227399517], [0.061628739387806226, -0.0022061778720680286, 0.006409395793280327, -0.02536951264506886, 0.0486133631524145], [-0.008161720332761772, 0.0315886515048454, -0.054294050641339395, 0.05627095677316994, 0.0034447771634722782], [-0.026530963325447167, 0.05842442264379368, 0.009464631570626257, -0.08097510579494645, 0.006143978694777016], [-0.014503204391130719, -0.03955634220539741, -0.006477514710155258, 0.00866778822687044, -0.010328238391070178], [0.00989092688952206, -0.03597252323775947, 0.05506619949017564, 0.009871255631609717, -0.03739489695717301], [-0.038658120663457037, 0.017426949436534986, 0.058760308932626286, 0.015383127541115049, 0.06627387177833069], [0.04744936935988135, 0.009478409365058258, -0.028590508874517112, -0.038897944527706715, 0.021930127690025576], [-0.0014262457905703716, -0.005678617386184629, -0.04510745050024017, 0.027341143124128192, -0.03305304268941509], [0.036707233335144654, -0.034767099512621205, 0.03665705421665923, 0.04636704474456068, 0.017787927601649565], [0.007025923323249464, 0.007847680052779698, 0.07278387638106855, -0.04553570960193519, -0.03544036849569946], [-0.0048757270740248495, 0.019281553016098466, 0.03529527119137608, 0.006072509389982046, -0.07183250953321789], [0.00252321139327956, -0.07489805162114137, -0.03394838631704954, 0.0044417523594116135, 0.026972673868062378], [-0.002919047278171936, 0.025078817747340373, 0.004207779605625544, -0.032117778214100744, 0.028396110521307527], [0.05001003873987659, 0.05035863546643184, 0.019674096621892064, 0.029308067426097092, -0.01356330162408294], [0.09745482695839307, -0.06470931294068583, -0.023362333052011193, 0.020850224118504825, 0.05082467823639179], [-0.030082134463047656, -0.02122749882952798, -0.060363226596496476, -0.021109363063492318, -0.04763219249837267], [0.006125466951513063, 0.02142582256059484, -0.013177647583224122, 0.03480608889404777, -0.048561409791673574], [-0.0056166198148242825, -0.04346093654321708, -0.04205266205887361, 0.020982507735831775, -0.005227846972948033], [0.03157414203702423, 0.030501712914812414, 0.03825573460143966, -0.011976129798686123, 0.08800699037781425], [0.01157334126946914, -0.009112427188206157, 0.0042115093358780125, -0.052545908584406095, 0.10328143037475201], [0.029417878006795743, -0.05021295104250638, -0.005689696662597513, 0.012592771605627594, 0.07060487842771133], [-0.04389428676775077, -0.023280077011529607, 0.01362849909623549, 0.08748790859191058, 0.03783967579410821], [0.03043453273382903, 0.0007444451455094876, 0.03936391364761242, 0.01325391669927138, 0.004637425044394808], [0.1202228112017934, -0.014428218349493148, 0.04867760585079579, 0.053508181196920586, 0.005730112852946608], [0.04843230238297202, 0.009281133395702756, 0.011515593494088695, 0.025751862929369502, -0.004972731552114641], [0.018663980050077956, 0.027278625302727854, -0.01729494287142805, 0.002315971227531561, 0.04108818817336542], [0.0074909558257254105, 0.025032219011924067, -0.0391752033111157, 0.004070116666927366, 0.011059778420483165], [0.0032055935994700687, 0.05524031070529685, 0.008811653278023841, 0.04131163359597689, -0.017868446439111948], [0.030277359058424796, -0.054549373920356393, 0.009301034852043522, 0.01683816829155515, -0.06214916741623452], [-0.051539034098682004, 0.05318625989636855, 0.031423045819307535, 0.04006443672067649, -0.04200411498366502], [-0.052539878282032444, -0.00535655203359383, -0.023697349909224785, -0.08600618247569909, 0.014022984831971825], [-0.03662567934168639, 0.009607560772028114, -0.011116290467451176, -0.005656732014483028, -0.10768977435894615], [0.03687879128792648, -0.040407596882020204, 0.00395385505430079, -0.010159066557833192, -0.03485603571073016], [-0.026138261694612985, -0.0303465513803892, 0.007127408278159904, -0.06968829639920435, 0.0023385848260670155], [0.037938923510776976, -0.020729261585966687, 0.02005914411375708, 0.04048384508817958, 0.01732299020050535], [0.022023548994997515, 0.051955394872220846, 0.021250176885703357, 0.04933880711868543, -0.019486764898631243], [-0.013377362667240348, -0.04942213583989478, 0.02686342419828146, -0.019256329862957177, 0.04280668420562343], [0.04682342803807914, -0.003430338502399349, 0.04147188577119139, 0.05052451091890938, -0.0025340426692828343], [-0.05905621852357629, -0.04753442489385086, 0.03926583502829021, 0.02698242698546032, -0.03329632879619369], [-0.01188425764769196, -0.024297995780599355, -0.01787987944548647, 0.06507329167224317, -0.013207888349574757], [0.048039721264047576, 0.002290097779436247, 0.006379811739432234, -0.03389893743649056, 0.06586773102065184], [0.013158187907787602, 0.014057361940773507, -0.0023937356665957835, 0.01972831825301913, 0.060783920568458556], [0.03361003993973308, 0.06314941495635927, 0.033275845869750874, 0.0033855816339850857, -0.044793634248734095], [0.00829773801040532, -0.022760599117905053, -0.03344939470730507, 0.03471084536666548, 0.023561867920168754], [0.06360078268257031, -0.012754251393784206, 0.03253917928791993, -0.07236658751793985, 0.04032400606217221], [0.002384933153871647, 0.05027439897969551, 0.026652777263423466, -0.04489367545017982, 0.07154347264011064], [0.020997436913144613, -0.029147892258661264, 0.009717792999956171, -0.06127655776365347, 0.10212714200356626], [-0.0560492578228199, -0.02533121069746176, -0.04913639133758619, -0.01963696210330026, 0.17172456394627117], [-0.014470447087700787, -0.015426404817922722, -0.05097242264035518, -0.0003945473654158421, 0.13264311149776448], [0.020548795567751913, -0.018151255024725393, 0.021298265492682593, 0.030317327716821506, 0.07379568688326489], [0.009753964449728947, -0.02401428148026329, -0.029750499188156677, 0.012587593328939087, 0.0034452108525224174], [0.01199779272327607, 0.03664429394530966, 0.017919193394669134, 0.000678206596831538, 0.07353643342608858], [0.05728788563144234, 0.040280979197386824, -0.0036298614695780755, 0.029768957509449592, 0.027648406920917284], [-0.03178533560431315, 0.02224660789116017, 0.007904009368046371, 0.0300102932096258, -0.04776997542969547], [0.07097669542623089, 0.03356238422619271, -0.018820384133933363, -0.005175454812927119, -0.016488407950347263], [0.0592215759551086, -0.014142734833574266, 0.05678293080130657, -0.028457143400049636, -0.0039840358285376885], [0.007301576907555137, -0.028083438291933445, -0.005954593564547049, -0.031366904980770216, 0.005350709111747372], [0.03763697278987652, 0.04963509218391766, 0.008556517301364957, -0.012489303038584419, 0.05667673684521699], [-0.0040890271228072, -0.028395645755239375, -0.01825443404670436, -0.056381989689933174, 0.012307235199241392], [-0.04974380791795514, -0.004268564310689346, 0.010745343235148004, 0.020979269335875874, 0.03670539668306416], [0.011560530854205211, -0.005610829380026633, -0.01464301157289039, -0.027957698791769816, 0.004556736692567259], [0.004299216062489346, 0.022122275490658434, -0.02493913790833405, -0.03607855295046442, 0.06257328344215632], [-0.03340899041600195, 0.04969376059448944, 0.05801718796850518, -0.001926682866507909, 0.034374403537097614], [0.02094884648784894, -0.046227499127098316, 0.02539245564893058, 0.00030521017769394966, -0.016755260057321603], [-0.02327602368118769, -0.005907748497925279, 0.014376106234070487, -0.05138717483050987, -0.013734396523366669], [-0.034066596205214884, -0.011752162946156438, -0.009436981981346286, 0.004948932851579663, 0.024450959877687282], [-0.00035526314819547605, 0.03046267237123158, 0.010366274857124162, -0.029258774137642676, -0.0548033893669588], [0.03090224571025444, -0.008580135204542635, 0.07266184180117308, -0.029933885742696245, -0.029064427653895948], [0.0646693005513563, 0.015521886894157698, 0.056740543040835784, 0.03884321314043281, 0.03997690333358174], [0.09334148372215118, 0.0035179555104204044, 0.0004084740470461561, -0.00401846943763119, 0.0016478802278907052], [0.015195817593430814, 0.055557860614311644, 0.035395058644220975, -0.03713574111456646, -0.027338485890056073], [0.09892337348554393, -0.06028642799663685, -0.04755187841144701, 0.05531169280363504, 0.04787679674933061], [0.05315273934348789, 0.013229182829741616, -0.011628608544249618, -0.0028961339462573637, -0.01759418913127248], [-0.008946498042981952, -0.01856102526349599, -0.011219494239873668, -0.04908697889389415, 0.011641707240428862], [-0.020996745353590113, 0.04458626725364726, -0.04883570476058731, -0.00249785621307382, 0.056832474449068464], [-0.010465044480258177, 0.009655480160486807, -0.10156873368704805, -0.05228083360321027, 0.14444786872343626], [0.01768193108700465, 0.010884713494998227, 0.005241410462067338, -0.00911740186468913, 0.04578519460786414], [0.041415684558443265, -0.06760138854072177, 0.006350364664461829, 0.044768557732379796, 0.05662273634956584], [0.013170810382658356, 0.04765923984642481, -0.07153710890342474, 0.03116962760194521, 0.050735370239399814], [-0.022606426225664007, -0.058063232637937306, -0.07129659053187568, -0.03923317573228705, -0.009882625142719138], [0.07556416782896344, -0.032054696556543485, 0.025842821754386125, 0.04725350337456277, -0.0011183378075942652], [0.09543108964695099, 0.04298181470213543, -0.0036516112393347143, -0.056439048218175664, -0.09564200871010045], [0.024491243724966763, -0.09938498991134717, 0.050565592749101135, 0.06104347737151429, -0.029438210791090807], [-0.019415504679138884, 0.07104926332537735, 0.036538584611617964, -0.06617663585635158, -0.03989159909290727], [0.04858905294515338, 0.009762534454524682, -0.018289359565941268, 0.0257815759126379, -0.04066789248318185], [-0.10037123700609944, 0.014197617389536104, -0.010519441347026925, 0.023577297353553812, 0.016494020406166387], [-0.006423526883319883, -0.04877223201758182, -0.009726868395780396, -0.001168256737459845, -0.03166772726976775], [0.008531445324946674, 0.021892240294957583, -0.03144050084696783, -0.032179445141420716, 0.024956468986441743], [0.057238737960302384, 0.09258664792737567, 0.060566521126561565, 0.024423192645545953, -0.008569556407177761], [-0.008054112132137138, 0.07016970452480822, -0.0017343425271959707, -0.015017061737137549, 0.023189719720452633], [-0.005554988664274079, -0.010882904141983413, 0.013307687114576045, 0.019157266484424045, -0.04365234444897504], [0.04070148059487905, -0.021653740141512747, -0.008459097507336134, -0.04189063812697578, -0.020362629355644982], [-0.025144605556640186, -0.026567220252700276, -0.02323806755267349, 0.004852695040063084, 0.011649216403151414], [0.004228568289454464, -0.008111700095142222, -0.03596742595351749, 0.03111703331191335, 0.004336551915665196], [-0.035992190279106405, -0.02301332390611454, -0.006589736516157736, 0.015634336370205084, -0.0619328939814735], [0.012777281581439337, -0.03841761992857913, -0.02200580680540778, 0.06571531607315369, -0.04631154129107177], [0.09497999854442771, 0.033010231546518394, 0.015719757215898307, -0.0014984757488636618, -0.02657976099827108], [0.0442519293901322, -0.007709390275801247, -0.008145880533028914, -0.006207418166335942, -0.015460787436876693], [-0.04250414284794835, -0.0027759713452514185, 0.02216854867896824, 0.04125641662472128, 0.039303931725596375], [0.03988091799833423, 0.019417555556200762, 0.007053157103857463, -0.019398842561441056, 0.021668064442282774], [-0.01726742853775864, -0.02965983283107372, -0.016006147013269106, 0.05052393013637334, 0.036226596641467705], [0.027248993097210218, -0.0407786652556409, -0.030795016811754665, -0.05149726211528309, 0.04053813083992385], [0.033243004849984506, -0.0171685891677609, 0.018244792670679043, -0.04818766467478488, 0.07717126848538003], [-0.052199936126942355, -0.007275383387157464, 0.04825722835058661, -0.12653299858941214, 0.07264562303289282], [-0.04543922045640773, 0.020144659195386678, -0.013086435350423857, -0.004616735842388768, 0.09390545200397658], [-0.08697828694411835, -0.09331016502535405, -0.017898650109165387, -0.015135068362462548, 0.0585914634973527], [0.06904668209751315, -0.03731581452061484, -0.06159135679767353, -0.005024847302843551, 0.04590573567824634], [-0.0076272952195505965, 0.0368479601460585, -0.019348992197944663, 0.022174556603616374, 0.04561508460940394], [0.023349825006207192, 0.04052725615835982, 0.003149557121565212, 0.004858293418891008, -0.010783776653652306], [0.05276012847637458, 0.011444839647364813, -0.011011403071158122, 0.04796706349511802, -0.039853168144302224], [0.07263273991956003, -0.030166067325525264, 0.014230046503063143, -0.015155965958502623, -0.044392455105780534], [-0.041129994103122895, 0.03610483384763433, -0.04099437721715808, 0.04705374084014667, -0.02574262177953153], [-0.009674604589466238, -0.01994562309261361, 0.06253296736540812, -0.0067096420124405625, 0.029542842399542385], [-0.008180162559873808, 0.03288387930477655, 0.012369787398616723, 0.016427090353807683, -0.030847041352959535], [-0.042571724576314085, 0.041631014950257714, -0.013343109553918658, -0.0025480153149121153, -0.01607523108754167], [0.001017087692254591, -0.047740448357971366, -0.022505005924001006, 0.047503444917740244, -0.01864283527863962], [0.0643354807200469, -0.031532943383471394, -0.05308297355996588, -0.026977540560551717, -0.053051367395461776], [0.024009821133470378, -0.016763546293966845, 0.03687264370985654, -0.02175406890845506, 0.017308260654833266], [-0.05631273292290769, 0.05919765612080525, -0.005742209005159227, 0.0031268259702311, -0.05120717510785122], [0.011097117549642202, -0.03931271897335019, -0.03515612794868016, 0.021817605214585305, 0.001900340227973338], [-0.01833449586325777, 0.04008590686227481, 0.01679109409980077, 0.025362416483697706, -0.00404906803905603], [0.055704773281552, 0.02705197639430728, -0.0011146522927794975, 0.07097082465164398, -0.04252662973576264], [0.019182609875597244, 0.018675677478824697, -0.026691678238033142, 0.0592784503748906, 0.02900949578450621], [0.09157230026803527, 0.05496407688691038, 0.04164358055901044, -0.015801377929469073, 0.02850468642534021], [0.001154389846532914, 0.01266843265084259, 0.0280174504933603, 0.006929750174837207, 0.0726101084663019], [0.04985191412582821, 0.031079813020021732, -0.00468049305536986, -0.023376666546983397, 0.05328874802780821], [0.09181102585516537, -0.011587050638324445, 0.02641928457132229, 0.0544032581453932, 0.0014770289415890158], [0.03249605634604174, 0.021544252639278994, 0.018100523096134764, -0.03341039356037152, 0.0957145409139205], [-0.004853149846496589, -0.0429656043692731, -0.017730936238591028, 0.018425868502972474, 0.03705674865686767], [-0.014666928831230122, -0.042941693266529565, -0.04188612303823532, 0.04490825475854504, 0.12962100277581118], [-0.013981923214483894, -0.020280882393681764, -0.036630941942684216, -0.00838016507191692, 0.08621943780973657], [-0.03383368677544626, 0.012033968511707852, 0.014997702235950195, -0.06782692550560092, 0.06444471689886852], [0.03760800111099692, -0.020434963729744304, 0.055110267992381896, -0.06637176496816256, 0.016782434994275452], [-0.04792400026589433, -0.04607284654823702, -0.003325022460474603, 0.04126117367660162, 0.02813108629683429], [-0.007289916839272867, -0.017948585797682666, 0.002916073469104587, 0.03923610716502048, -0.011360942862287405], [-0.03210010687791527, 0.024061263840238944, -0.009088715250413104, -0.010891609284349055, 0.03374869208685901], [0.0044483188641830165, -0.024893079655316067, 0.0019152389077166745, 0.040446435853913366, -0.0143989481074072], [0.07158108287672608, 0.01315686518469448, 0.012634549707067835, 0.05764765406189553, 0.022833324643699422], [0.07290023807794788, 0.008871171912039361, -0.04089669806024838, -0.0071703157995028, -0.022289989451690705], [0.05295638959755412, -0.014852689159165955, -0.007629042911994874, 0.010397757607362862, 0.027689557773467016], [0.012273472033413817, 0.008505911009814616, 0.03503510074934001, 0.04163457536179235, -0.00166396312814355], [-0.004574731054267658, 0.05532858633458719, 0.027199344003611098, 0.0038139626728627336, -0.027493873881148552], [-0.03606720939903534, -0.023526793471735984, 0.0510015774659165, 0.02467979892974744, 0.01669924188302239], [0.01621706306762678, 0.008693267980723573, -0.08839930540667877, 0.04365892269883217, -0.03888184481681094], [-0.005588983454280635, 0.00019148835031850735, -0.012674210887207427, -0.034392539579824154, 0.030448631324141773], [0.021466806999259052, 0.016025875479459693, -0.09223157307398885, -0.014648979354077343, -0.044796725961534035], [-0.01942632439705119, 0.0063892417936141106, 0.014021517919606236, 0.03108678763520379, -0.04069540245501484], [-0.004640104397031498, -0.046758296701587335, -0.0064695910894589, 0.028014443314738933, 0.04456990019498818], [0.06345396907012679, 0.0008110584386614671, -0.030388934317187713, 0.0032182905918517195, 0.032728609646852896], [-0.00852625093461607, -0.07020919678643593, -0.03966586924099416, 0.028833862387416524, -0.011147517652868373], [-0.015492384745665557, 0.010010068065070729, 0.027037164841941148, -0.07345296272971308, -0.0009102311437492427], [-0.010362083635632612, -0.06236316327709596, 0.035485834939217815, 0.04676404812015519, 0.05191423096044601], [-0.0025898493686832254, 0.001638032390673203, 0.006104556651608943, -0.04862933958039689, -0.031315679549333515], [-0.02946911831879087, 0.012789177188794288, -0.010095633712414736, 0.03028746196731398, -0.02000037992597832], [-0.009940705270208607, 0.0026850284453610908, -0.056804052518695664, 0.05367932879184783, -0.0023963233009218765], [0.07732564639271959, 0.04379100162695006, -0.00974728341884416, 0.07604716249904066, 0.0462908432765158], [0.013687897781605372, 0.029972517433878396, 0.03174290636769642, 0.02651805939994138, 0.005089902557284508], [0.017871431541710787, 0.0050490796792929385, -0.02040280401907141, 0.02590337514010357, -0.010396191475573498], [-0.08557388236053216, -0.05195369298273112, -0.036234756157439825, -0.025863792556206407, 0.06545493633988234], [-0.029976303170499465, -0.0005213804024871026, -0.04890258729351883, 0.04077477590525434, 0.10362939048263098], [-0.02664440424891224, -0.06593077538225779, 0.029263684759912322, -0.051089356586181384, 0.07586617101113925], [0.02129511423291157, -0.0491432062281706, -0.01505219165604781, 0.0468429711402015, 0.039783065482135054], [-0.00767863398047355, -0.007066641779800128, 0.027829389434798797, 0.0033608546866055067, 0.1111272605069795], [0.026783254891515257, -0.04816752499595468, -0.06858524614463547, -0.028508912652814074, 0.07071177990105346], [0.08343055066853167, -0.04369715601185626, -0.054400289018411284, -0.010363309549350512, -0.0572745394124059], [0.0599775502465879, 0.03860141418776702, 0.03039851001419539, -0.01195412338134565, -0.0356309285941864], [-0.07914300516865531, -0.02634132331552712, -0.027178687818804406, 0.0002559703152931387, 0.011448128111721953], [0.08537269339356778, 0.005072405979411085, 0.0427466080594215, 0.040527973650636116, -0.08173263355531563], [-0.007801720179796649, 0.024163340437512584, -0.0023699805803604973, 0.02013023885366126, -0.04103256692927712], [0.04356551719381573, -0.009606476498702585, -0.023286221783302207, 0.040829305079192274, 0.023581370545803632], [0.011398191290821017, 0.025865390836498903, 0.03969792921054093, 0.006368692368585489, 0.00023574086914444217], [0.004874839766154861, -0.0009577693622399043, -0.017447919310934586, -0.0457597082894319, -0.017587062551201026], [-0.024662233930621003, -0.013912134722381472, -0.019931101380430645, -0.013017825162135704, 0.008162894726912673], [0.08670504763647122, -0.04912115384398956, -0.026321309238085875, -0.000434823380885455, -0.0302194068278259], [0.031461882719370025, -0.07517343609156904, 0.0068772854660086365, -0.00811227309042502, 0.018988860279669506], [-0.012399692081081043, 0.04105816904622343, 0.006765370280640256, 0.00042491571779545507, 0.04675544896673801], [-0.0007649521004332013, -0.050017192486853254, 0.05639162829337072, -0.023324673241825744, -0.009538815152863662], [-0.05820796496860075, -0.08357099002852053, 0.029492378783466777, 0.0651006926122084, 0.039394159707377356], [-0.029215529282723304, 0.0031871370665772234, -0.01712566128689059, 0.038741150409155656, -0.006069197054251126], [0.08172348019009931, 0.06561510993049788, -0.06579029131817314, 0.01479581966584988, -0.007932370932094241], [0.04599048102668947, 0.023438006024235618, -0.006434126584852252, 0.06758504542056587, -0.0354457015942868], [0.06421238634227651, 0.0037213678183827155, -0.03131782298420719, -0.009131399173636087, 0.044530514173971414], [0.024262827100325145, 0.032792138198019266, 0.04137481525227245, 0.0754631000143581, 0.005043749274428661], [0.01789670575000025, 0.01436383585860091, -0.03545397605017503, -0.004220599103651307, -0.023133764873168886], [0.020688031171283344, -0.04965399324357785, -0.0020198897945223806, -0.01152446097559862, -0.008648577843416739], [-0.005516322080423878, 0.0756468914334014, 0.04573648014532599, 0.015400210870567248, 0.061419418490384334], [0.02526578862709599, 0.07178764959020761, -0.03244904239535089, 0.016497627581406393, 0.048338852332742], [-0.0035802707959345674, -0.04160938166647143, -0.00604774656059058, 0.012064862886035619, 0.10170489186683594], [-0.05993479672925419, -0.04357829601191899, 0.020250717206304697, -0.01937986150731116, 0.08874598462175619], [0.0028368125166871013, -0.007417279786954547, -0.01810570209453593, 0.015635018770852036, 0.02772576727637866], [-0.003123557001448909, 0.03648232469880167, 0.018027731866634273, -0.03137732051872645, -0.01631134458441402], [-0.04889400435179315, -0.012469935657979358, -0.0006421067688391146, 0.002831459740511185, 0.032013298507895575], [-0.04921891932096209, 0.07274017245705759, -0.03105620589864525, -0.03786582208956573, 0.013349215181107574], [0.0673898774669249, -0.06730382239490769, -0.048480345104901304, -0.07891964664984026, -0.020026173830792915], [0.08218982692771654, 0.021699940546117576, 0.048154257850351385, -0.027314589783700216, -0.043253936148851715], [0.07369779945998137, -0.036893768758920094, 0.0097964518109153, 0.014974441062526723, 0.012003721729051392], [0.012536191345145638, 0.056870939831952544, -0.04298020297996646, 0.02594520451963096, -0.0041589613962223345], [0.006499591548872093, 0.02534128891100737, 0.0061871172494671, -0.009981675524598634, 0.03652607104499334], [0.05295487429065369, 0.016670195412140695, -0.04180421696868637, -0.03414481229195163, -0.018798270683938377], [-0.010908173973200494, 0.04733373937962363, -0.05968930247468162, -0.02485904521253856, -0.03320133839619509], [0.018190767269744782, -0.038850441860955556, -0.010902998400449495, 0.025067608938688198, 0.020845116912816493], [0.03946849163437673, 0.006856754357936431, 0.025292771038732703, 0.0269470487465531, -0.029779393489004376], [-0.029408763056426285, -0.0648729092120088, -0.0037060058174588793, -0.036252838220113486, -0.05458983607381301], [-0.02072707030227032, -0.0643696944446928, 0.02911533348726393, 0.01746196351654273, -0.020656947714202012], [0.0210947955841363, -0.015856896142143147, 0.017062426618709346, 0.017659451378627615, -0.008273052302613585], [0.02453447858315609, -0.03269144868865497, 0.01882897088427549, -0.015187194273500676, -0.03766501073554973], [0.05133721101171631, -0.009965033639234806, 0.02707846193474767, -0.031460847782373104, -0.03296942457914194], [0.09476521220845295, -0.003845627844937744, 0.05255980085200654, -0.029314550947969958, 0.0025026992578486645], [-0.0205103749312613, -0.041973923932884294, 0.04584533621802572, 0.02725265887810471, -0.009333863055000106], [0.05307191373129826, -0.00843997282347561, 0.0208759847656573, -0.027039511113094685, -0.005407501164882231], [0.053537450100307936, 0.03025344704729481, 0.01802301555017925, -0.00380827272244816, 0.05519035275434196], [-0.0018606864986679854, -0.05437069263775128, -0.006693621146212643, -0.0067341038834532446, -0.008769787616891124], [0.017370343045004812, -0.02904744096389286, -0.06355175964453023, 0.01690458187234943, 0.07737149105068161], [-0.008142056130669264, -0.05971497522830067, -0.007440641344941166, -0.035993450187779316, 0.053640009468370574], [-0.020766723827447455, 0.01886519075486936, -0.013632738789080511, -0.04189952699616624, 0.014776327993057822], [0.007714506616460644, -0.03350974965882498, -0.015880502487995378, -0.013751158296997966, 0.0880851337700463], [-0.03728842771717624, -0.042274531752943045, -0.03462038970182045, 0.005696812765688216, 0.0633519014789584], [-0.029255035610964243, 0.02995856833275123, -0.021172697402723106, 0.03950220367709351, -0.024555767855735343], [0.017561544476494304, -0.02878090270736308, -0.029872501923982227, -0.04025697179774517, -0.0069198765708599385], [0.003158840120903391, -0.018474233176033927, -0.0590216251598372, -0.01933893165510966, 0.07449817473054374], [-0.038567669929522645, 0.017318935700994794, -0.06135718190129312, -0.01299980230824545, 0.04406722516483201], [0.06312316096206155, -0.014909125488159296, 0.022016505697734667, 0.00879299326124478, -0.011939555653600255], [0.11802765935679188, 0.01828195281440368, -0.10021860034461422, -0.01355771691058888, 0.010387541580866726], [0.04748005814185116, 0.02458535522581168, -0.0193514018086254, -0.011890532677014688, 0.04885162019558642], [0.006258153612766525, -0.04992646792701201, -0.03571059141706784, 0.03644387360436845, -0.08773769286382556], [0.01666008004268258, -0.07297745264610021, 0.0007890068554792275, -0.023812947602964676, 0.01604676729322706], [-0.005263739567407292, 0.003972080035317241, -0.002513972030784787, 0.013670344499517909, -0.003984592103993235], [-0.0445863902210295, 0.05360571943365071, 0.014869479621306499, -0.05122562332491467, 0.026318731731467628], [-0.019322911766224842, -0.006648215470959314, -0.011071796074395157, -0.07710777066585664, -0.06251371010231761], [0.07358129702447443, -0.045666504933845165, -0.001116414074861997, 0.026776615550951288, 0.008611338668977767], [0.010414910057501345, 0.01253458379771527, -0.049767846562198306, -0.010923311858782482, 0.009034200649455374], [-0.000687443159049736, -0.059125720847094346, -0.007406560286913277, -0.004630767754860104, 0.013630507745424075], [-0.0009330833277912632, -0.0038213494126445534, -0.047095348914923105, -0.07766479415493636, 0.03330038643724224], [0.019224546960023098, -0.00037824735506942445, 0.02109784685929561, 0.023719439734990747, -0.0388534210726525], [0.024756824841837107, -0.013735997093246454, -0.014860446574497579, 0.012998842553271541, -0.02666132307170411], [0.006018816252763995, -0.02068971166930375, -0.054386421992441404, 0.023970782331886643, -0.06315969103582253], [0.12425021165854346, -0.0592401212900343, -0.03175212636572222, -0.026513022038117645, -0.0176290747585081], [0.025977045489891416, 0.07766120365640464, 0.07522991907173103, 0.02816495716341183, 0.00874281598474496], [0.08219547895442332, -0.01927377955281844, 0.03183914693641917, -0.014577006079770624, 0.010416036690570792], [0.0026654765247421503, 0.08885307105704009, -0.008326382605952108, -0.0043793374616723545, 0.011968828376137731], [-0.06566569633813633, -0.047809114218687276, 0.005915843912174278, -0.0017617882598566046, 0.019231868401983106], [-0.0642845242222277, -0.05370846279106226, 0.036131945485950535, 0.0457009701377161, 0.052171267808182126], [-0.039684745691733886, 0.02391289111530509, 0.0318318149118001, -0.06385941646882827, 0.07614539709254635], [0.050573189312127606, -0.09506151715806035, -0.07409293960894811, 0.07462422296088886, 0.0777592627283482], [0.07013321072531961, 0.048653200453301855, 0.02772788471412345, -0.04770057149607069, 0.008828569220874124], [-0.04758889075323342, 0.03796047823852482, -0.03171647507307708, -0.016131180217459105, 0.009438036994553634], [-0.052109363830411905, 0.03003001840213197, 0.0008813319231487461, -0.03882817668276012, 0.05387026993473815], [-0.0035355520685460885, 0.023311876191021357, -0.01263913843500095, -0.011996931481153708, 0.09502372848140554], [0.0018785802694381863, 0.013914326586940735, -0.03757259016008025, -0.006973054980905638, -0.0019894947049894055], [0.0840001489314346, 0.08120992881684067, -0.002786912029622069, 0.06213510375118062, -0.051705315182225285], [0.023634031955975094, -0.03273092250843121, -0.03240635808135684, 0.032511045312725445, -0.043923389265890546], [0.06020778180644716, 0.014603101264853343, 0.026445942529175433, -0.013818702180944125, -0.028898026098037963], [0.07772891494390148, -0.05525567233588045, -0.0031797010201664332, 0.013205808246514466, -0.060537165228263475], [-0.0269108081791896, -0.08261574226170049, 0.053330095562275505, 0.002290842286505577, 0.020353117636303566], [-0.06545327688533921, 0.033487935881925446, -0.03953194841925986, 0.01708226265850908, 0.02422911309632697], [-0.04017745042276016, -0.08260500434353887, 0.06682051702406952, -0.00821545583667656, 0.07793749025470798], [0.00731946376386317, 0.0727055829015696, -0.03299662243818784, -0.05589983807836737, -0.02914608027214074], [-0.06158352454125737, 0.02349385922337399, -0.10336978809871814, 0.03910771656056216, 0.011667947905008913], [0.015265177753060024, -0.05700607406247341, 0.013149053776012842, 0.0003332222661765331, -0.004970092065878341], [0.08532818178984833, -0.05542586732372435, 0.011978120701621017, -0.045263442201281874, 0.008653678885883507], [0.0024890320692626576, -0.006962549858558519, -0.04985092788482296, 0.02933460927996659, 0.02490897143572799], [-0.0317669427732894, 0.004630679720933833, 0.0052074102184254374, -0.024903200681606893, 0.009935798012000195], [0.11196268616320461, 0.02865256090248709, 0.028117538569481702, -0.028146818315075227, -0.00803760271723489], [-0.01051661661324549, 0.060254181436056466, 0.03410520069561806, 0.013157668588816692, -0.003339251755996974], [0.044320369045475545, -0.04303349386819151, 0.003183492956928528, 0.023003918011544076, -0.06869536732675918], [0.0315886637950063, 0.009144725078279597, 0.005367028164626451, -0.0459654834459093, 0.03710475733563934], [0.04231992625270091, 0.020083838201261462, -0.008092685553553372, 0.0378499624515779, -0.061614029480950856], [0.03181559137392845, 0.07878912681175726, 0.04516658462105288, -0.03218328882090752, 0.03829497525765845], [-0.009149851123729232, 0.02913833396716803, -0.0038607675286463526, 0.0018937630345208238, 0.029796942276167925], [-0.05135880264308768, -0.02513236638013334, -0.05475728051369805, 0.05641564878389041, -0.015429779049429868], [-0.049563742250263686, -0.004544915892341908, -0.04484133465555023, -0.058284029728584784, -0.041681009814903025], [-0.04920141501185357, 0.03582732496192613, -0.04181594167336514, -0.0010638111685912768, 0.08039936925577458], [0.033883518681400555, -0.022759929674710883, -0.031249608609614163, 0.0021519977626993105, 0.09893910025626786], [-0.013136168944490337, 0.03340518599194677, 0.019921662628877727, -0.039163933136710204, 0.07104985348091782], [0.03543653242684756, 0.04019773074532877, 0.023485940603878878, -0.00486146451645663, 0.015135292300002866], [-0.06604814855125693, -0.04047745721197264, 0.039320637800045154, 0.10193603418840862, 0.07897232020040552], [0.07542317819981599, 0.029102758047018177, -0.024181092840561164, 0.04362728812003803, 0.014318959259748342], [0.0014878162900629187, 0.027656595991988473, 0.04315432826973093, 0.04233907815171084, -0.03303184609005119], [0.05322763950115985, 0.05137020757010771, 0.034241637949989016, 0.030532820029770903, -0.05087998506021139], [0.10921111157335014, -0.02460861441857909, -0.017915116965527476, 0.11417776278500329, -0.04074127731424817], [-0.014771364547408407, -0.007521887756953021, 0.008637590241555986, -0.027968974741278928, -0.0027623645008105113], [0.03275443563498865, -0.03745773538204955, 0.07005148789968427, -0.031939197525825254, -0.007221458618059169], [-0.051589324041617646, -0.05802505179905229, 0.0019072790428600495, -0.005216284244388372, 0.024080629765445314], [0.04480330603889227, -0.0120834923010338, -0.013365511718313908, 0.047348982519412296, -0.013691219380133924], [-0.0494491034844187, -0.0012390398673576082, -0.01642211777530393, 0.006598710051560563, 0.03230217895656516], [0.064324156133895, -0.010793318801137198, 0.018321241703676727, -0.024395104493418113, 0.02973119218150502], [0.04914227213778577, -0.008482607816298312, -0.028531275447628523, -0.0574242202928705, -0.04913369240065825], [0.001716036279136176, 0.06624669168494947, 0.010464599569663165, 0.005008773666331053, -0.008809107787336028], [-0.04265496113461974, 0.04023263332525003, 0.03803474527361034, -0.0347785509176066, 0.05795070109067441], [-0.035453915895165486, 0.003365569890441583, -0.04739409436874263, 0.005157179712689727, -0.012288315768927473], [0.05847003392914139, -0.017212696190587514, -0.021684627528357137, -0.024805596852208126, 0.0646039309568035], [0.033508753849189915, 0.02138364464571308, 0.01176840598748154, 0.036862867041481936, -0.013492058003011993], [0.10777797328052535, 0.053145594689767525, -0.005523558004037304, 0.009112907754078923, -0.06979011232236104], [0.14143488461356787, -0.01245887436622762, -0.018028926905275282, -0.0029977511382701795, -0.05853332902858428], [0.040206047921053846, -0.027329853292714448, 0.027072056130864667, -0.03020844255077704, -0.00785527203821212], [0.04630317830063743, 0.012098274879162235, -0.06228180336735849, -0.07111477391289775, -0.03991142010223369], [0.03382068160796204, -0.003363535450165534, 0.03560756467464194, 0.003582838614652512, -0.01108885829941249], [0.06890758622843349, -0.001744813929194416, 0.011029576511595997, 0.0010287547131004008, 0.02464163506641806], [-0.017852818447694433, 0.05289365735780176, -0.045131348311650415, -0.014035576478578983, 0.06087863906382694], [0.016850111935279, -0.04083216468130665, -0.03400541212349632, -0.007438722561147559, 0.146533651135104], [-0.01989972085152536, -0.0003757670289622071, 0.03517459298619764, -0.028297493248568076, 0.04383076804910491], [0.0393288208247047, 0.02608447837844316, -0.04529637523317193, 0.00899946156261173, 0.043954002964768174], [0.08969486579354861, -0.03098645283388719, -0.0072039047645174785, -0.06266393468765498, 0.07700323269614066], [0.01715544748847005, -0.05460955092196931, -0.005308111825243294, 0.030175742165828797, 0.06528902539820777], [-0.006963160672765986, -0.01786425858104488, 0.021276556412599554, -0.031016709370616628, -0.026787464068080313], [-0.026314444533193086, 0.02976669295140605, 0.05998587551393393, 0.062235297247743245, 0.03362959172838073], [0.11578230449671004, -0.03628862095024089, 0.004441417723755728, 0.040431336336617094, -0.016432631993288864], [0.05706653485062759, -0.004394918299217104, 0.03692966705721686, 0.07977022121065061, -0.05816991268542534], [0.0505793415347068, 0.060050013648247344, -0.0041447408371462656, 0.023693516795457184, 0.052492241712319074], [0.0717941152487522, 0.022434259875098568, 0.04091197851917337, 0.051038710384879976, -0.035622210583911226], [-0.013675760240804432, -0.0324569664579474, -0.007838890313186162, 0.03898687525095503, -0.06401913397403587], [0.009208307137058435, -0.04024646478036647, -0.05694381661027291, -0.01593929099862524, 0.0386584701782367], [-0.033319245540376595, -0.0320954605140651, 0.04043086025273125, 0.02229214245369206, -0.017098808051526946], [-0.002280896780363924, 0.06815832068624204, -0.008747878215139, 0.002604318442724598, 0.06372741075035168], [-0.0029932889832463617, 0.03642412864645182, 0.09640903811501651, -0.026753443857525646, 0.07233118297674669], [-0.04726375962959222, -0.028102651406470894, -0.014166945163965619, 0.023925994918685557, -0.007583206807945533], [0.01975572856573089, 0.052261902049250734, -0.042879800159242816, 0.05352403390082648, 0.008141905549355085], [0.02639256300465127, 0.012740062175754163, -0.03636348263718857, 0.03644713852876322, 0.009249904336392636], [0.0037796724777814893, 0.003265211102560298, 0.03191273860104275, -0.0015285027523451575, -0.02429941331036112], [-0.020868807926295974, 0.012731423977579292, 0.008538629318147334, 0.09791254908981784, -0.0036088135614903466], [0.06216718448724873, 0.008950917801801087, -0.008441047821895357, 0.043414477463268174, -0.002742222239526254], [0.07329914753040426, -0.024110207960421057, 0.05696889746702113, -0.014860377724039456, -0.08053096525034664], [0.021231715356016846, 0.019398100288319137, 0.038374436515575476, 0.060024332015146925, -0.00047679541129090587], [-0.004420760446212958, -0.03994093630889784, -0.01507750852414022, 0.005066615894425896, -0.007368168904288262], [-0.018212599736435537, -0.005817924797639934, -0.0072324973487656475, 0.043365845424257844, -0.014553566611942126], [0.008290166002629341, -0.0698435516116005, 0.028781803718103845, 0.017232321232767703, 0.012451984648616382], [-0.029051372851173398, -0.05448023213682743, 0.10317180450771837, -0.013799225310578362, 0.05872942227854214], [0.0048282283912009175, -0.07204009391627429, -0.03421497438732018, -0.044886137615837374, 0.06253003886739997], [-0.0272942339165322, 0.019896339953589904, -0.02659561306922627, 0.012492797883340869, 0.1320193951742783], [0.050244325756251255, -0.02028400527706948, 0.0016706708050674296, 0.008320261109404143, 0.062305910655532974], [-0.01854649404639859, 0.0019970777260823118, -0.03991850265664599, 0.0031709319798273643, 0.005171424921117995], [-0.04987084580224227, -0.015915846069093312, -0.011225578390338192, 0.013078327844496949, 0.06442744841541478], [-0.009207358686152887, 0.04829076174543429, 0.010670593557532602, 0.038262116445394345, -0.014677601481488719], [0.026452811798551405, -0.02376085548407325, -0.0174285044343385, 0.019196697963469234, -0.007248143890005601], [0.1002350331281065, -0.024213108050556393, 0.02225397899059712, -6.203448404410812e-06, -0.07697525857274448], [0.012086834667680062, 0.04059929405687591, 0.05100433912271482, 0.049892930682562356, -0.05430967962028935], [0.040510180040552485, 0.03395104948006751, 0.05312638497606947, 0.019066737474917737, -0.03878926897578448], [-0.013905264080541676, 0.0071457235269084, 0.014288066816874449, 0.041548678026767344, 0.007002540798283119], [0.03064957657710008, 0.03325597525588808, -0.02445168734247233, 0.01349204548708538, 0.00029570120171007653], [-0.00938815597702389, -0.00932920626677244, -0.012590297920398228, -0.022988633692992963, -0.009827659453240932], [0.014802981714358168, -0.014755418597292754, -0.0767774832326166, -0.013756352212458288, 0.02628636249786073], [0.11632949198523464, 0.05481781334223296, 0.007122293072811008, -0.009702990194577888, -0.008916015892543257], [0.0016355218027449235, -0.054009220052293826, 0.0019160119311473892, 0.013509881601785772, 0.03102293804939071], [-0.0075900734493689155, 0.02304085594802067, 0.008636417410157483, 0.0018663685909479299, -0.05226113296408396], [0.013463269456094563, 0.0389833723342483, -0.027237411485522074, -0.011364970155742843, 0.0560619268127715], [0.03269739215808193, 0.010923318977128794, -0.01528954132862767, 0.06236082574351573, 0.019217309009562786], [-0.013651716207037578, 0.0841648253826418, -0.032047357182784106, -0.06272593424652972, -0.04579557572584037], [0.07884391943814144, -0.04345539303491297, 0.0070681251096888775, 0.0012569597703485154, -0.00454651768001739], [0.039579618145889096, -0.044172417426038106, 0.024364534960086424, 0.04510613077107971, 0.011640596710733917], [0.06369682862067784, 0.023361161499142854, 0.032517717110686045, -0.00847347009016471, -0.011705802574460394], [0.07690765023964821, -0.001974280876349606, 0.04831212152024171, 0.022027568491268662, -0.0032602432566328976], [0.03660136861271061, 0.06377418732171641, -0.05326240259873387, 0.03404450715551181, -0.009758134806348948], [0.06377694461326086, -0.012676772966985878, -0.07536726507436713, 0.04869562445751805, -0.05688292415782336], [-0.057942135169824674, 0.03899964469437204, -0.0431699241003605, -0.03175733857416891, -0.023373064976276323], [-0.06497330255793979, -0.009628540175011928, -0.06543186310384422, -0.03551335979671601, 0.036635667240281486], [0.016312313140663746, -0.04267756644173928, -0.008746704316999605, 0.040661678489211005, 0.08785269319279954], [0.011418242538978215, -0.06250000499049169, -0.10955228269794685, 0.036037438935291134, 0.02602275336705859], [-0.0210069088032162, -0.057887007428007, -0.019463439732821667, -0.008839485976680416, -0.01619517100185539], [0.005204439717652266, -0.005458446331874997, -0.04513617175976387, -0.045785280903691716, 0.10975308922876931], [-0.02348113468805881, 0.05743887598812825, -0.028913570829698528, 0.005436144493262497, -0.023824386511388768], [0.03959161477571838, 0.021246244652917218, 0.033981081297287795, 0.03130808228031146, 0.0026657801227600057], [0.0316770536861783, 0.00018899596484352337, -0.024415983766482307, 0.01592451907622198, -0.03528164464899854], [0.07171919008124397, 0.045540820854197535, -0.043773396778416185, 0.01424742200650575, 0.011687890744536288], [0.09951426158194926, -0.03674678370372289, 0.01291384489326839, -0.0008234486695088227, -0.03404532642304426], [-0.03786370281388351, 0.02054046016093631, -0.05192470211309314, 0.022661726621512005, 0.019490210360740078], [0.01595730038547364, 0.039847875564100826, -0.002420213625254263, 0.0017184527742424665, 0.015137070945249947], [-0.03063044395899373, -0.004798786998947758, -0.012352851977768154, -0.07367028947003902, 0.04068848383041712], [-0.021107618960229703, 0.02788996843712161, -0.03407325774598607, -0.030325528729896318, 0.015208243033581733], [0.03841365609009783, -0.03622381011696744, 0.01351684832775497, 0.02539347778280105, 0.014700029436945886], [0.0022482423159475976, 0.008547825304717772, 0.06220220870421846, -0.0236852851557682, -0.029240040890739873], [0.004889115029290127, -0.02219917919694314, 0.004621931498364166, -0.006889214880826963, -0.015263074200554833], [0.07653598711096611, -0.045573171547289036, -0.007553965681209329, 0.005009771912732289, 0.004371655550714931], [0.01170727657455785, 0.04082723667774402, -0.07728485468985073, 0.01726755478056565, 0.005536397903378696], [-0.013939314551117844, -0.007118790656788651, -0.017199584400477818, -0.04595202897534609, -0.007350883148261951], [-0.009133366710612547, -0.004552171333021295, -0.04310131072686892, -0.014486524420869498, -0.013567903046260326], [1.2983704095930503e-05, -0.05573178785196365, -0.008002378662586284, 0.009084758215090845, -0.034729521962180286], [0.06627668063285223, -0.02926502191726883, -0.049534457304820194, -0.016891561995457858, -0.00016143030002445358], [0.09536544486443342, 0.03746592325367397, -0.05568809988373439, 0.04712896485130905, 0.010894941943917344], [0.0211829234546205, -0.03156001532039899, -0.04469261572669948, 0.041177343456013406, 0.03464063931761503], [0.03795337688503917, 0.027247693305592867, 0.045332359449884695, 0.03811666802161642, 0.025954936124607884], [-0.017419185649971584, 0.06989150695798767, -0.005311320235981173, 0.020151940419683826, 0.007016903057849058], [0.02427900608269026, -0.01675801538451555, -0.02304866347908028, 0.015358363655689804, -0.02492001470356676], [-0.0853706428455492, 0.014296178112131817, 0.01841318809654505, -0.05400054709986919, 0.05942385612741645], [-0.032763191926541396, -0.027239344499042622, -0.004869779651544687, -0.04436715317824844, 0.10495128201986882], [-0.021501833398754486, -0.02578816366571046, -0.013383546753038916, 0.0258999064677456, 0.06722057708304124], [-0.020622103853325476, 0.006522273748252538, -0.03216610034052892, -0.03154333145630191, 0.04039554527472781], [-0.026207086209201345, 0.0013587094765320237, 0.014624929276558795, 0.055889998970317996, 0.03515131618110022], [-0.008026891055703584, 0.019852919901978676, 0.009159644799355927, -0.02660397000892197, 0.07551082121454009], [-0.03421104119241134, -0.01797764925977268, 0.00780523953598853, 0.03994712385206979, 0.016553248830537357], [0.10209019514124845, 0.004459049254719294, 0.06114332257575334, 0.07690778895238799, -0.04136187267005197], [0.006219507794165951, 0.03834765962208224, -0.012821743701924185, 0.019188057536682342, 0.02253748280805436], [0.02709274556002345, -0.0018926081257640524, -0.035820323311255405, -0.01975470792190663, -0.020640017214661542], [0.012107295896934175, -0.036220185358844, -0.00022142443024071462, 0.04504095098025484, -0.011747390475530391], [0.03897258836531421, 0.03664146819963921, -0.058890084346494585, 0.01977368174192827, 0.011894072978548985], [-0.03855355323443712, 0.007989183450839397, -0.015637264559865614, -0.05054325958853393, 0.017789623365856325], [0.0218096937806814, -0.013667582420421808, -0.041471800318978604, 0.038402838808907755, -0.004010532974229425], [0.04219724619546972, -0.030467073838802688, 0.02170799728705538, -0.004113889018853824, 0.004212500591857417], [-0.016546531076927027, -0.00810444935014251, -0.009152143186016504, -0.04758256613097752, -0.012181974041437693], [-0.06421027715566427, -0.01115272781074846, 0.028523182822168255, 0.009900650721669138, 0.016085242179917542], [-0.01972625543697645, -0.06563896527769088, -0.01891044474943191, 0.04408055265628192, 0.028842253067921184], [-0.0067783414957258, -0.04540578226736083, 0.04554942160733864, -0.04255630612597526, -0.002364924111931346], [-0.002039363651170654, 0.04697864221967163, -0.00384776945407437, 0.059637065877141834, 0.07372496590163694], [0.050950777210405966, 0.00471931658541815, -0.03776142254802011, -0.03932945500428016, -0.0423034839051154], [0.0039546188734398795, 0.05844789631552687, 0.01466047223860896, -0.017800494045522586, -0.06120626665567504], [0.06642294755681385, 0.014890615403420633, 0.06752966937422768, -0.004058978939308214, 0.00787167962308746], [0.047608295688256655, 0.02697282729921415, 0.04937814623926783, 0.03557671840632285, -0.007099705756425451], [0.07061627871617884, -0.014308523957995154, -0.003606937738797159, 0.0017534511897558096, -0.031137556257159173], [-0.008922964079966662, 0.026038679553292976, 0.0007240227606840191, 0.02727699097881734, 0.010648346058602034], [-0.018148522532461124, 0.027423548991031787, 0.03091825527078362, 0.022797070181927646, 0.005529936986273477], [0.05665138275943745, -0.061699250747567255, 0.034651796352256854, 0.006051271968607375, 0.003158811492120224], [-0.0635656599902007, 0.01194172862259558, -0.016301677967626008, 0.03134338969130255, 0.03385274472401382], [-0.008944095023433407, 0.006162696365880686, -0.041127364028786965, -0.04827185293402651, 0.0712279131273396], [0.012124592671362518, 0.02200754878057901, 0.0004310152559062565, 0.018594021560083752, 0.07309885065312768], [0.02693255773647294, 0.06781273338884437, -0.010797384858247777, -0.04015895413558386, 0.06137820865988378], [-0.0481565589401241, 0.035901686267753925, -0.0425939968374152, -0.05966813230570025, 0.04099774756237352], [-0.017968503638528126, -0.028428026042156176, 0.0038639368080069093, -0.013314086682206098, 0.012701986395590826], [0.052489184683386154, -0.057264691387385915, 0.028103077884905615, -0.007608908632559974, 0.02710253457731128], [-0.009149143493628994, -0.005783426062777692, -0.03640973575778, -0.006683843216057327, 0.08011336472951669], [0.08158472932243807, 0.02132357419273998, -0.0012402279687767572, -0.04449511710482236, 0.014389524288957775], [0.08639303405755526, -0.05706353685362726, -0.007830221753368723, 0.02679518032038464, -0.06903974060962388], [0.04887833949720382, 0.0660720612376337, -0.015321821813538618, 0.05536263475298141, -0.09027742237431365], [0.06388308014929459, 0.0069389073612058675, 0.021889889498882056, -0.00753435380756449, -0.013370733561165108], [-0.007781567468885171, -0.03787854922983995, -0.018949209807077563, -0.04107673224089461, -0.033401545455921534], [0.04119310813855909, -0.030281884391861105, 0.0065846972892748285, 0.06469987322220591, -0.05216274442551127], [0.02744712504374252, 0.015287407123391755, -0.010159469825135258, 0.015290115874314726, -0.0015365248874131595], [-0.04544777488515024, 0.010578031439100005, 0.011954120714610762, 0.061689096279835175, 0.05937994610461193], [-0.04841988581269352, -0.012137765005906642, -0.032984975699389435, 0.01244451173723356, -0.0022063944225519582], [-0.0015503863483972264, -0.0010374957273151925, 0.04068342214292027, -0.04380950432946228, -0.015550649098592925], [0.051399638559619765, 0.004313049172011167, -0.0008382583691027673, -0.03400581411445454, 0.02848160423991583], [0.0596797832019459, 0.003770297018375932, -0.010745780287781554, 0.03426303973282567, 0.044135150332837596], [0.026870130643560496, 0.02613895741772499, 0.015786433933928975, -0.05943235637955994, -0.0255586359138789], [0.07008120283610132, -0.03167954560120037, -0.024347844156088316, 0.011296882731136467, 0.07726908260350887], [0.09322121480359508, -0.006461904461398103, 0.018692357520838306, -0.024400645130982956, -0.024528838795136607], [0.011924113740195627, -0.02303611202349422, 0.058477590658994535, 0.03158058828716591, -0.036037078585343454], [0.019238124117345812, 0.04006240453755744, 0.015095282180226459, -0.02400715792584855, -0.012426416384179996], [-0.00015240935493543293, 0.02977496266096889, -0.06399097574714138, 0.11102917534703884, -0.005742842796024695], [0.0011661514232673715, -0.0008757974049730836, 0.011371823833945595, -0.01412824852707841, 0.006328280617306985], [-0.011298712766895532, -0.04600401203388464, -0.026333686551877424, 0.015141602237536387, 0.02460170704715967], [-0.010588529716201282, 0.0022412054953150464, 0.014796338736181157, -0.1213171909183284, 0.07599535817117929], [-0.0196226358787684, -0.004713181935699289, 0.010590966003701824, -0.04240864976208914, 0.08240801573769733], [-0.00027665881048203776, 0.058186311737272546, 0.0759659330396933, -0.047226742227646425, 0.09425222508032899], [-0.05436541218655586, 0.04913535538147519, -0.06841728950893373, 0.036211807934676016, 0.017253432038802325], [-0.007834709158229813, -0.0022121351470089767, 0.022881643835179086, -0.01109701817501995, 0.02888312078239234], [0.014023348614009714, 0.013403912156820744, 0.017340288029943973, 0.020816946864649123, -0.0031346880421227736], [0.002699572347300249, -0.06225477368199129, 0.002032783796255637, -0.011379920679015137, 0.049774507047637445], [-0.01043761798866013, 0.04123928348455284, -0.028125230816661958, 0.03767213917596962, -0.04344332369167696], [0.05856540748208406, -0.022622251220494244, -0.024902380554533136, -0.006986161018947898, 0.047453799466911285], [0.12418005051429812, -0.008663094274758651, -0.0296386861995879, 0.010859481630763067, -0.029902635193384326], [-0.02618309118789816, -0.02710073205622317, -0.00879184173405087, 0.050624112630598087, -0.02083962619953885], [0.025906747780487165, 0.013960425727683523, -0.04589678734837507, 0.05450299409166079, -0.05798443774876522], [0.006984566474869992, 0.029396855228802893, 0.011879955084346748, 0.036508980373899935, -0.02286401331223487], [0.021588755316502735, 0.07554944920605546, -0.05736693139646466, 0.06186123625273338, 0.10094596262541516], [-0.01601991868151887, 0.09417768818570131, -0.0042015759259453065, -0.005763247903681004, -0.012768742126777883], [0.0007366989699072645, -0.03409231478798542, 0.042391084405330556, 0.027227006558325245, -0.028862824345991956], [0.07840807855106442, 0.0402912456910216, -0.08523997988979504, -0.04515197062828276, -0.06634723151300079], [-0.010303100712049738, -0.05202430410151653, 0.02975506870456655, 0.03487233723417806, 0.011319887283568692], [-0.016060809440296885, -0.021693643646505063, 0.05087030103536326, -0.0044975246384553495, -0.0169398240526597], [0.026895726882396324, -0.017312664076641594, -0.01952641955246651, -0.007016922744408308, 0.0931251388886586], [0.013948370329177555, 0.008407349630296207, -0.013055517677291252, -0.03488530045986998, -0.05311761720204099], [0.00010370500101347645, 0.04706538527206598, -0.019787050435571534, 0.05563567188352148, -0.0036179523556570444], [0.017853250388810162, -0.0581074954829758, -0.0029537236515623476, 0.013546874390028786, 0.0147565413782156], [0.033655130415416824, 0.01683662577753179, -0.009656786907753786, 0.04744567237838499, 0.017651607069407896], [0.07773524053043818, 0.00815066219118356, 0.036740609660795245, 0.007089318824356813, -0.023625994867494327], [-0.008933368643199328, 0.054015742993463664, -0.01901239935524101, 0.06291093092148228, -0.0162052645683184], [0.045889337244439006, 0.05496647252415618, -0.03151598165207774, -0.03138601704859677, -0.001974347570280222], [0.006057734779677652, 0.05227925382000216, -0.06806554001085072, 0.032818601360005493, 0.026212490544138437], [-0.001193635911835839, -0.03329754190941483, -0.07800809138103401, -0.05112745000858613, 0.028196509564988995], [-0.02501721085394232, 0.043116014663638076, -0.014212669938904531, -0.0427607613963704, 0.05302844496553038], [-0.002559623934238365, 0.005272275354668811, -0.00986278385368014, -0.04515181441847055, 0.060702117540877794], [-0.03917860494149318, 0.0024459462055574856, 0.025259464785831787, 0.014802661098771614, -0.0045709982116625015], [-4.189449639292299e-05, -0.04605196049641181, -0.05335988793747717, 0.006854232984977602, 0.06050884186668588], [-0.0038937575443646604, 0.017912544289401904, -0.04112445149294507, -0.04227651201619803, 0.004182232289192244], [0.07236319390196634, -0.01365226127461948, -0.01877096316795499, -0.009557581564672525, -0.02788228625860071], [0.04366596706454675, -0.02633221445416169, 0.009285930050787403, 0.06183491104849247, -0.04901745538745914], [0.007028339995805921, -0.029800562865385977, 0.0006764142544242416, 0.03495048721619388, -0.0601719942851245], [0.033752133532931036, -0.032421245911660485, 0.03427480413101242, 0.06634140695801238, 0.05504143462669298], [0.04822208616162577, -0.0006977891225183447, -0.03447861256230031, -0.032404904891181356, -0.06840253514014506], [0.05767178048403717, -0.003625550169725583, 0.0015507590899742597, 0.013335850521505944, 0.026467172053131482], [-0.014937719263199796, -0.020919984836242345, -0.020369632381739108, -0.05276007442899306, 0.05005437701178625], [0.04311569611530924, -0.026961899863769945, -0.02621463043249049, 0.025837489030547063, 0.014470691336789243], [-0.01332030612149424, -0.020447577440219907, -0.02343627470136204, 0.0014271575204155458, 0.06702540999362543], [0.039213311552563045, -0.048176572045192746, -0.015929535921258935, -0.04640827884856107, 0.028504469877580395], [-0.024736870873735294, 0.036281265061380776, -0.05129873218613984, 0.005896203663270976, 0.036153219300468484], [0.011106207719150343, -0.0005917440136166769, -0.036939073282168576, -0.014509909991338733, 0.04539104559748119], [-0.0031417791498523583, -0.01657681638505984, 0.12707708255814948, 0.05188285523351477, -0.03588504960977983], [-0.007815668793756569, -0.026095143028828562, 0.027119181436677547, 0.05088257861759041, 0.012327874400365531], [-0.0028909991540743704, -0.013236327328788969, 0.012627780982448978, -0.0031572543299242823, -0.048645118146319895], [0.020323758943308252, 0.029521398125775856, -0.02672764432570444, -0.06894549728661795, -0.06991196391158182], [0.03434850049667609, -0.01664832446670625, 0.0005279711050564354, 0.04466083016689263, -0.046221992026026615], [2.573633314328903e-05, 0.04111413372873503, -0.002943752555027465, 0.046965741617204855, 0.049533381000957576], [0.07561759986274046, -0.014379577788470104, 0.04559843960513022, -0.01181571072813176, 0.0005859226106342629], [0.0078058915515192406, -0.003948875779300984, -0.009228663516328462, -0.004727991506884942, 0.00021742390977327048], [0.013379806823168618, -0.04208195843321668, 0.021023781859941863, -0.06819190393712277, -0.034838030492773155], [0.030842675456653805, 0.02163215413351709, 0.04686178574326195, 0.01160698734955042, 0.04134531931500178], [-0.008690974873490215, 0.008588941168721855, 0.027710395040995827, 0.007977218385643034, 0.02348941737526494], [-0.010384784391061453, -0.029578854113801793, -0.03986256790235221, -0.013434754027009695, 0.07974029157118953], [-0.03313087612775077, 0.030875041810895027, -0.028249497738244148, -0.012624621768461967, 0.1098978426741663], [-0.04208343103503647, -0.020282887304175753, -0.01416118466674306, -0.05146739920917817, 0.019771887275518263], [-0.056236477037951565, -0.02268841162843861, -0.0235296128163596, 0.0032560898578053296, -0.006335365691168729], [0.02085626728841591, -0.0064657635830410775, 0.023693987720081355, 0.028074093745387284, 0.006046406989969476], [-0.0028349432156968774, -0.011580672981263028, 0.04472421393597171, -0.0352845648926915, 0.008436521786980893], [0.056011535549249335, 0.02116470983848406, 0.00879036402787975, 0.02489144603612415, -0.03164084973312542], [0.04421070410938875, -0.026129368428002966, 0.0515754187140478, -0.005129378709845652, -0.0049567666951040555], [0.04846669643116271, -0.03983347751044954, 0.06805120813563661, -0.02290345403173312, 0.020373863236806983], [0.04491355480594716, -0.0054657816103612115, -0.03600848513681574, 0.005762511211463834, -0.04262897615815212], [-0.04437619111083982, -0.09452859877174634, -0.012769610025776361, -0.05735987065540792, -0.029451172610634735], [0.026931756398915607, -0.03779731992166975, -0.013433909723008302, 0.025830119175876482, -0.007393648815681608], [0.02662471819305679, -0.00938842105830411, 0.009726371722726328, -0.0040707850111182395, -0.05437303908146959], [0.01675473146140234, 0.007691362597696239, 0.015580661504345774, 0.011211471992636295, -0.02589791548095077], [0.06325794276204923, 0.03199103585113525, 0.00874278196985999, -0.006196515006481642, -0.04397778232290154], [-0.02256932043725469, 0.006302501525698457, 0.0044501829635010546, -0.012778631163591955, 0.016868347315797998], [0.02603207000785726, -0.06271049202335661, -0.030284711167101405, -0.015121183296867766, 0.03772052447976302], [0.050731268282150736, -0.016606877205998342, 0.01851137947017683, 0.07160393459546929, -0.03547289072934147], [0.004726582714911168, -0.06030643421731762, 0.040262677806581035, 0.04835821071674436, -0.0533418467188535], [0.05676895564106729, 0.005553349745197096, -0.04585287625099023, 0.06627543822224383, -0.05195918271308732], [0.004822925040178862, -0.04639776174464377, 0.053047132868635154, 0.04857588532630858, 0.010751966094043714], [0.030983034026191993, -0.05450143589785829, 0.029006222469010568, 0.005493518728026997, -0.05891091310014634], [0.06270665657304765, 0.0247583713883006, 0.02474428222759159, 0.06524782394127086, 0.005051217128384211], [0.0963940521821319, -0.01774618806247617, 0.00029026430252901, 0.046377845158452634, -0.0668192418973665], [0.03288415985069786, -0.02322909494475174, 0.057929491612963804, 0.024690243324676092, -0.027146988491709365], [0.07192710900291108, 0.010216553534155048, 0.0351272233762325, 0.012886451226585126, -0.06725145592425504], [0.04195496938698425, 0.03021820347669986, -0.022494944399263094, -0.00294226477521773, -0.002101935320394151], [-0.008489566427650752, 0.09746074136890694, -0.008567213720827829, -0.01708161842970472, 0.050646779052768647], [-0.030218241015193298, 0.0492941056378753, 0.007549554338218332, -0.03235534394170195, 0.029895171281223508], [-0.02301070580415296, -0.023152215517721012, 0.010444326580450398, -0.05594913327304656, 0.10583158041164054], [0.015160375320871819, -0.031834593687199035, 0.0005959816703389913, 0.03009043041641376, 0.04085548205295645], [-0.026777691367635262, -0.023481426809675555, 0.01164589653045411, 0.06780433300211525, -0.006413015547067823], [0.04311902028051156, 0.017249254072084434, -0.028581417815331026, 0.012559955786008025, 0.008234535589435583], [0.04466544619002532, 0.06608837808476818, 0.063684886813207, 0.0071842853973516155, 0.0361828249280114], [0.05980325336790647, -0.04468778474127864, -0.014175526335750902, 0.0863652266449906, -0.017415621058751253], [0.09643180253756038, -0.011615766556573766, 0.015193382408760423, -0.035361487170617975, -0.013378569321012609], [0.03341560364943275, -0.01602963556073243, 0.049665207566891564, 0.08476073209621782, -0.028321233243848023], [0.055772465828415906, 0.06487191528236998, 0.028082598528792548, -0.008560264899124379, 0.041656687044863486], [-0.020157928410418417, 0.010678061768523999, 0.015890265214217034, 0.009620360669364647, -0.013856613467373794], [-0.00036832565803605357, 0.04049210162614962, 0.04426238658147701, 0.006409004350699035, 0.002317317693991946], [-0.03643551936824683, 0.05379985229729641, -0.003212130193204826, -0.011492951152687038, -0.046574440333184794], [-0.02174868075639283, -0.008649465501612953, 0.02563161237267955, 0.03114004686905644, 0.002448632759732467], [0.03325441194893965, 0.018133218521522755, -0.024910638860232804, 0.02302402791857874, -0.07736647457424203], [0.012479234326178328, -0.008771236488317966, -0.03106680659584399, -0.001935632362922367, 0.02649151961318993], [-0.0442758362954113, -0.0035496287307570295, 0.049594312246156194, 0.0438410886423226, -0.0006773144867017519], [-0.01668688758846749, 0.0056933009670783324, 0.009689255213343722, -0.0071639300226039775, 0.04559778656369391], [-0.003858640805574547, 0.034658749994536046, -0.02693754781879057, -0.038242577911908715, 0.00289717665937841], [0.01646792721069143, -0.012161378357565854, 0.021928953304451167, -0.006399271988095257, 0.03539919793763931], [-0.0027360581752857637, 0.01081464882693556, 0.04198019588355897, -0.05769827830690648, 0.05430306460599483], [0.05304191665656657, -0.015158403466957696, -0.01409360772243041, 0.02934948174385288, -0.01929316796203391], [0.04916728461198537, 0.014391986145559848, -0.035335849448225425, 0.01461781837338374, -0.013320003642074172], [0.057952482166826906, 0.03385015994647262, 0.033348133702692656, 0.07645802995075693, -0.0229687725193051], [0.12771357539853292, -0.03018978803311261, 0.032954700462537415, -0.000770620210600715, 0.00042908718567630016], [-0.02102035983453727, -0.039486490920922115, 0.03602909593683257, 0.011943902626877107, -0.06429283780246679], [0.08029848466485587, -0.009194196464545027, 0.005541447101319576, 0.039759198821529104, 0.027837479451547194], [0.020188578353005856, 0.015081879203217663, 0.03925228584122079, 0.057416381747369724, 0.002447640938805136], [-0.04561793036672563, 0.04124979461411295, -0.02828935733611719, -0.05271188596710038, 0.029367595678664527], [0.02600960144003119, 0.009237101309372175, -0.03918906665107994, -0.04181342070122596, 0.03327796388902395], [-0.00473632726375982, -0.028611722258806743, 0.03348840741522151, -0.028601843984568793, 0.02067735212907379], [-0.04175816797262055, -0.019222458101579125, -0.05128837708307824, -0.034399480496819394, 0.08486509529534407], [0.061521692307905364, 0.011296082196044617, -0.02301931893535436, 0.014106849002597064, 0.06717624661180126], [-0.017834020640241817, 0.026782890081089254, -0.0456146583166107, 0.06253098142621209, -0.030014428022576825], [0.0725010755161986, -0.01560107115827879, 0.02872149875474589, -0.09610052532875643, -0.03957291753049805], [0.028418330433248887, 0.018994372881018164, 0.03378458786629638, -0.08150137964833072, 0.020786241703188955], [-0.016671116437283424, 0.02128250482847709, -0.0063370935723029015, -0.024750544760377947, 0.05773968788356995], [0.06877624379852357, 0.01861821006546835, -0.03224864832844455, 0.047603958346864664, -0.062278597831914875], [0.022527320303865648, -0.017290859206011477, -0.018600409035531246, 0.03417244751616754, -0.03347620525610988], [0.014007719308002183, -0.04496372864558963, -0.03045377406586391, 0.05630143689157215, -0.010260939908872663], [0.0424921622770603, -0.05386173744816727, 0.07066885687630083, 0.0461889313383897, 0.023701802694437068], [0.0009869637685690777, -0.015348337601917431, 0.015622003790414599, -0.01082279153905516, -0.01874591287988604], [0.005434648281555553, -0.029832635996423548, 0.023647965379136965, 0.03442057214410664, 0.020592808033875133], [0.031224116748448, 0.01017593856882633, -0.022560906329357717, 0.07075406266555097, 0.0125351536138552], [0.027185451000112472, -0.0032957138205996737, 0.036952695975739754, 0.024981271642499105, -0.004729345884083912], [-0.09972847924270965, -0.04853830047565322, 0.06815729161349908, 0.018158734027466403, 0.017998661257840196], [0.0436545207837886, 0.005266988734650558, -0.0346735948823081, -0.00590720722991313, -0.04712074940391758], [0.012836721417570097, 0.021402247972631013, -0.009098732944749438, 0.05096463089701837, -0.017841364078526593], [-0.031910859576892645, -0.01146836693867395, -0.05061956897709476, -0.04819337397778643, -0.028031670694936617], [-0.03693612333053404, -0.014298672065690066, 0.020184335895422154, 0.01094249816052614, -0.04303138007393554], [-0.016258028540279627, 0.0035618899694678597, -0.04236240940219988, 0.0199795112916817, -0.021472371993843258], [0.012277386554095746, -0.03545378568567744, 0.043608373908823175, -0.016017338646098136, -0.006740339621106097], [0.042927061390436484, -0.08190744043340767, 0.06770649085556027, 0.07221535275891135, 0.045438260441130536], [0.07046676855884344, -0.02767729670726994, -0.005842579957332623, -0.0027649983307518923, -4.471045905594615e-05], [0.12093016016101732, -0.017837254631412683, -0.02650939279044895, -0.012994514224645943, -0.025306701109393488], [-0.005976879786276259, -0.029620087160108898, 0.0379012074537128, -0.0015328442683575306, 0.030820894681054256], [-0.0003601538866136821, -0.02009666331986355, -0.07769676324175583, 0.004772696630889748, 0.06972764340053987], [-0.02442866595276791, 0.0861059495937885, -0.011623782117288758, -0.028006055318944106, -0.01629285483189215], [0.024410774964324863, 0.05306601973106719, -0.025220852559259727, -0.0018423584142938053, 0.035758435295502565], [0.043404860225418264, -0.04024895601850567, 0.03215749529952801, -0.07475443233989824, 0.030650523421278622], [0.012416251741160551, 0.013282261463968976, -0.016744596069748714, 0.03564095653632101, 0.019799019436202738], [0.03174322651097805, 0.05975070033103707, -0.0012297030835924474, -0.017670454879919188, 0.01587480250706894], [0.09092445890470875, 0.0025061752187601704, 0.007461893358971231, -0.002658710096033571, -0.04615800212600768], [0.06357581622171653, 0.044637507280353476, 0.009806458979449139, -0.03569508649114208, 0.021979708618248855], [0.007709615137971883, 0.04301777575445569, 0.022563928552360234, -0.043221304665065165, -0.04129349981298815], [0.049759249766410794, 0.010934673343837329, -0.05096427448207713, -0.018942752018885855, -0.04273306046100381], [-0.010261964403656773, -0.008109822077308903, -0.06787142101838907, -0.00475339310627734, -0.012220399087664494], [0.03565147077400407, -0.003584217675194398, 0.01562178126008733, 0.015360072628734216, 0.02979322963341503], [0.025957033866903984, 0.013209262876355309, -0.007556924644485876, 0.07014771036663643, -0.016075502201185306], [0.007900044588896028, -0.04815193883060076, 0.03961339106580588, -0.00922834888206497, -0.12635330022923902], [0.01613114034682658, -0.017274881724616855, 0.008861580315844504, -0.06999878107806824, 0.09725210610575256], [0.006192200257154401, -0.05025027767745755, 0.004686406174298259, -0.07316461037208742, 0.0011401311394586122], [-0.03982881054939901, -0.027966166905848144, -0.02545621459172582, 0.06558145648369516, -0.06021925376021114], [0.0010291046447248322, 0.004009523851239097, 0.01470039701616474, -0.020519404780520865, -0.0008603064112891718], [0.004795795173662608, -0.0379347989785791, 0.01990899881464617, -0.056717324566507694, 0.0017285761378042727], [0.01931010239575154, 0.0004126862301814456, 0.0012293599565909165, 0.009429153011762384, -0.017491557767545803], [-0.04316729992223637, 0.04915615940766699, 0.0036286810758657108, 0.025872705747590628, 0.03802489871136654], [0.050705959983812804, 0.04971060299386554, -0.03589739197343916, -0.009907494065988983, 0.008095900703680962], [-0.02710719420986125, -0.018309731110925608, 0.014321189892220114, 0.011738429139215597, 0.0648236430611952], [-0.01886090242955906, 0.01791458407485438, -0.005866074587762189, 0.039515775627787755, 0.05070752638318513], [0.03593270873658023, 0.01484772296002185, 0.01061056329421233, -0.014963723149501854, -0.035284987727642526], [0.10806410202378912, 0.018426634608502437, -0.022642407119884862, 0.029068916555662246, -0.014403645874871814], [0.05721394191703037, -0.021221012617087188, 0.007262495519297973, 0.037263048733156647, 0.04024588049995019], [0.11231962029005604, -0.063763377133715, 0.06410260892890589, -0.03962531875930242, 0.05994525926772927], [0.027683419960895538, -0.02012478654801669, -0.050382338878234734, 0.023533136853246716, 0.07234428235536722], [-0.03986131926284606, 0.009135867705313402, -0.02195033459273685, 0.014620198834779429, 0.06349975632955666], [0.06856872751155901, -0.00979124382603349, -0.013128972263913068, -0.027261548857022325, 0.02348780322148454], [0.06864930430275246, -0.04341430427259462, -0.006052205329673933, 0.022298746223379344, -0.02942013748994305], [0.06094624023923135, -0.05855853811386099, 0.035331682912752634, -0.034209172972455744, -0.008683502180559114], [0.03845952308978067, -0.034868824128939685, 0.0683899260866365, 0.005522538525491486, 0.027935730448819505], [0.021250584184182044, 0.0344544622266659, -0.02463414089801617, 0.028078620042717238, -0.02390961151856547], [-0.01120661404926361, -0.024974725008206643, -0.09309563867462944, 0.02536051669556515, 0.03281057585502144], [-0.004043417951146385, -0.005503822512278528, 0.021862652890686493, 0.07758813264135186, 0.026371636804513], [0.0691328321956951, 0.020423899827976856, -0.044080715161584294, 0.030518480689145207, 0.046234254875952695], [0.030907736795055183, -0.03997450472953985, 0.024431019889650008, 0.04991704995988124, 0.04005257143114004], [0.025942933035764584, 0.0027511528505203657, 0.0412962928461027, -0.019722633020293697, -0.0005958690249406162], [-0.013267549733653797, 0.07324295940435221, 0.0062618825134753125, -0.050806297651552, -0.06789255275807445], [0.002551738822682825, 0.002922693840702028, -0.050796948692293856, -0.029687819978707793, 0.010031551263798674], [-0.08515344096322973, 0.03354254673943174, -0.03404264356062549, 0.09492782099531269, -0.0009726779651205224], [-0.01273547542833794, -0.021647799959915653, -0.04734065157136882, 0.008744367607778341, 0.07650001469054671], [-0.04300997798185037, 0.012883292617563349, 0.003592536059064736, -0.037630640923582814, -0.03201514371671678], [-0.0402432073953067, -0.003051245644066245, -0.042110399979437274, -0.03377614677151564, 0.007538511733514474], [0.007254904785332196, 0.004551769803517551, -0.04084021433984546, -0.023516707288748894, 0.020747257758348486], [0.0031196933254696683, -0.04053750588594884, -0.060508143052057595, 0.04156455372644411, 0.057782544692001225], [-0.004882419534293617, 0.023784757384183616, -0.03558960368143985, -0.031811700081434836, 0.019026089808190674], [0.014031612431598115, -0.021100934000203072, 0.04543258415373888, -0.04128420745767406, 0.013309958337388907], [-0.06789180619896952, -0.002317183192223473, 0.007443079986455311, -0.025148156756728504, 0.07431061836882384], [0.00399602181937743, -0.01190837406110126, -0.027829011825065225, 0.0470666203489022, 0.09643395635255438], [0.03905959419706639, -0.006946453759406028, -0.01682111719569395, -0.018378911528162213, 0.03455678378441723], [0.024148373125786805, 0.029654097247480086, -0.011859292827391746, 0.031717153970274845, 0.08843750834512507], [0.014114248043493118, 0.009001319306425254, 0.04407314032715944, 0.05288938144792737, 0.03516230042649045], [0.02115566508080459, -0.059574861087978, 0.029349013234872094, 0.06608275788104159, -0.005657666124752141], [0.06681758200146969, 0.04894030601901283, 0.04726108571857674, 0.013377244833870346, 0.11596099575268455], [0.029347873310109632, -0.028059247788204317, 0.005921971223434487, 0.04906396038919772, 0.06278078310074348], [0.11142518864200024, 0.03259872707622753, 0.014145101349164694, 0.004521789570182846, 0.05916293066545931], [0.05381105535645221, -0.03140724968068853, 0.008203786675410791, 0.07549767882615877, 0.03587503096085884], [0.022602422771998188, -0.037709035516817854, -0.0006216309516033294, 0.043930894572463235, 0.051740875583241856], [0.014274496680115751, -0.04605112717235243, 0.010344622745738864, -0.03109416119556673, 0.02208255015017268], [0.0056073579281781085, -0.005421466136551212, 0.0064277874804489505, -0.0317781935962049, 0.007758314316653564], [0.031244861667252443, -0.0697354990472868, -0.03287306781953538, -0.020480493562511054, 0.06371049471533116], [-0.029880868267870914, 0.012615501952580644, 0.0036152962501384313, 0.03282506443688073, 0.07234636704830662], [0.011975489380561253, -0.029647671319537282, -0.035021084961577666, 0.010878254980069575, -0.00964548726559395], [0.04326164226769436, -0.009515849047833634, 0.02005113754060579, 0.041107688777283886, 0.06106308534132361], [-0.013519536227437135, -0.04301970446305762, -0.02914489891228713, 0.030387857117911966, -0.014512085042280992], [-0.004706014415420998, 0.0366849142211654, -0.02802291216589387, 0.01996595820868844, -0.01200502318103315], [-0.10333131692104236, 0.0028956418676034106, -0.022253959381832316, 0.02673650581705341, -0.03176701457874581], [-0.050897689071813974, -0.07199411521095296, 0.05600534165204293, 0.014472241002497388, -0.015617632319654864], [-0.04773577946170902, -0.03629444567963763, -0.04043932041383221, 0.03195165932878539, 0.019717442637438572], [-0.005181398502342547, 0.028543480813782277, 0.010675932232206087, -0.06275943977237325, 0.052417123841214795], [0.025249210376608367, 0.014829867018422191, 0.014211803868050089, -0.01027683642773206, -0.015131428656745412], [-0.016430858350114395, 0.03048613613564385, 0.05162228366382016, -0.003925208109053206, -0.0571944796886743], [0.020312352398784744, -0.012562708150637064, -0.020425285692343403, 0.044299932014152325, -0.04696371226677804], [-0.06081540237622311, -0.01621034273702422, 0.06241362259411719, 0.01428668352012318, -0.0014968614144169874], [-0.00889044347463427, -9.289959238590149e-05, -0.04429227208446493, 0.004648508140621773, 0.01159454766568029], [0.026839876082542714, -0.012733383661577193, -0.03934641314825457, -0.08789875117030706, 0.0928473504894487], [-0.030052294570640854, -0.02612594687269746, 0.018077554808951922, 0.04894401591262934, 0.03842590919500719], [-0.028325135719611337, 0.016698496225023604, 0.030556168581176005, -0.07229631998630572, 0.033999507620844846], [-0.029410300227441594, 0.016719298571112106, -0.05584755965901853, -0.04273051077480304, -0.0196434535917606], [0.06332321875021299, 0.07238559444087783, -0.007233339499126481, 0.013638390865959828, -0.03965482794541486], [0.023124120901653285, -0.0338878871568053, -0.002573631099149316, 0.015574992698437208, 0.04626544174396426], [0.0779621926513365, -0.0500954758320322, 0.022327549827159177, -0.0032103790124665796, 0.0215512080275267], [0.06732433842395151, -0.010610380417939262, 0.05365542778119105, -0.0122826723321419, 0.025426085428363155], [-0.0006049747802006752, -0.016178667522889913, 0.0023425208081164902, 0.01095522396993384, 0.0642159686895621], [0.07538525978207462, -0.0335518372004587, 0.0009089134797631222, -0.013210361036259463, -0.00026204582968845756], [0.007209870704568034, 0.029332589589569524, 0.049080783867200634, -0.03172388143947378, 0.1138720593038431], [0.02106924407437621, 0.03161230527869523, -0.02687418861502239, -0.031215780384533764, 0.05643142172311525], [0.10614205495633197, 0.04144445804115809, -0.02619856558711456, -0.012165996426231401, 0.0561092257132308], [0.045509641779942586, 0.034645274583405404, 0.049994161965248966, -0.012651714382269625, -0.08468468802499057], [-0.039530355782208086, -0.015510111941042858, 0.03816054569409793, 0.009493647234605142, 0.0540321393902709], [-0.08121573357108658, -0.034308414311026485, 0.0229398382481324, 0.015135310072420577, -0.03386052836700205], [-0.07798085806976486, 0.01646392260655432, 0.005684004818153344, 0.0011109818196516923, -0.01813590413183311], [-0.01049202433757127, -0.014008637194654422, 0.04930873246757326, 0.02817005842183968, 0.07733064738274609], [-0.06730205385333633, 0.07866165720977956, -0.021173779729915236, -0.013358460969864235, -0.020067227995317922], [0.010332230735595997, -0.010788331501379315, -0.014768271214555557, -0.03834855546649291, 0.03800340194306296], [-0.042102623539262744, -0.03369636853083001, -0.04392820836776651, -0.011330359620198646, -0.046129520900878664]], [[0.461874925036085, 0.12555276332233622, -0.2680705259695582, -0.08631079046748551, 0.9327427813019691], [0.44180236607323237, -0.2768220835657924, -0.017207495943838674, 0.07479820583183845, -0.2556323833687113], [-0.3910277080107774, -0.821079147014753, -0.24211874467884295, -0.26753673191651123, 0.10616699726725605], [0.25595140490713875, -0.5333798334422035, 0.34826476506569815, 0.23489810649634493, 0.267675273579704], [0.05798076260691138, 0.6717747579622683, -0.001340249171285976, 0.6508918056145274, -0.3452884392504319]], [[0.02512562009010817, -0.37301974500443674], [-0.2991101058220765, 0.9752874883419704], [-0.46267799044777125, 0.44340515319301343], [-0.6471008731573903, 0.04628282414374492], [0.8425611330270697, -0.2542973234898164]]], "biases": [[[0.04930706831543918, -0.008102260056309119, -0.0019436839763457598, 0.0033463047918773996, 0.13677643677762955]], [[-0.06889068112766104, 0.3008357596488212, -0.032124961805382705, 0.08706950401147312, 0.057508300255186655]], [[-0.2103807251346708, 0.2103807251346708]]]}