{"layers": [784, 5, 5, 2], "weights": [[[-0.030127930152418138, 0.014424279845241732, -0.008810835350160771, 0.06797205612604255, -0.028576093676793417], [0.004419430241161743, -0.0075983110589157654, 0.06126944042559849, -0.002119099771201642, -0.03563321858416977], [0.023010127179742813, -0.05034180766750177, -0.026798638449943228, 0.08887095871260761, 0.013497214985933042], [0.006020794273555902, 0.019223791555324145, 0.01640077762463352, 0.020855731291376186, -0.005410421706128333], [0.044095702904738895, -0.023611500764983584, 0.030157587660959172, -0.03072939939046531, -0.029143293470226837], [0.02648878728661051, 0.005252036825240046, -0.07431452041469355, 0.04574514743523889, 0.008618722889585687], [0.03881900131839991, 0.01084017571963573, 0.04112005413221259, 0.047053113941051765, 0.01737350064908331], [0.015393420781283888, 0.011258222308192936, 0.025660040870500358, 0.021969355574943443, 0.009436682060763112], [0.04717091627643059, 0.0205489101758577, -0.02141668575768466, 0.0214920261171156, 0.038381518183926405], [-0.006590520983433492, -0.03628577670811271, 0.0005008421284800222, 0.0030570679660124997, -0.022917569710743744], [0.016310987434497676, -0.009313323556207693, 0.036275465102502936, -0.02178827745252721, 0.04474018706180477], [-0.019043300396220087, 0.040485125124709934, -0.0689235576732863, 0.015698934722080792, 0.001998751823964967], [0.022613627416020306, 0.0011658745005652547, 0.017155705110256665, 0.0839716710178157, 0.05492884401834377], [0.045698506868306364, 0.06223782892649871, -0.015349683113006595, 0.022022124483127306, 0.011183559964274746], [-0.034818934287972315, -0.001964467971892685, -0.04722071187044975, 0.0388175635775947, 0.02551398383412389], [0.02772546462019971, 0.016163986381988585, 0.017112912077962526, 0.01887455850632621, 0.025696285505551045], [0.06708975295854915, -0.031198622439631844, -0.03722620400942104, -0.0407473639289316, 0.038973554314019505], [0.023968679254019985, -0.04214209943075431, -0.057586952519009235, -0.06261616501176721, -0.02467014002803186], [0.03770446603875253, -0.025644944636127286, -0.017977453242963907, -0.03125368989538391, 0.042599471749138335], [-0.008322045917255206, 0.05070768010622594, 0.00699975276716258, 0.01443528715271868, -0.03797582742881875], [0.017546743265918912, -0.023834562446925382, 0.028932732733131628, 0.020312845278529872, -0.07454701719531467], [0.052678763741648746, -0.02812425331382898, -0.02602892009892088, -0.014341486240725674, 0.009158442802598445], [0.03526323032842905, 0.01160507496289869, 0.011528377947294655, -0.00960312578015759, -0.018425897431932105], [-0.0065065157753386215, -0.02948661715590232, -0.011991653571150337, 0.036181026891742164, 0.0011287550660822126], [0.00556103263405643, -0.029534343765354642, -0.05674882376130652, 0.036485470291941616, -0.022936663887590043], [-0.02650582561139398, 0.05323299102476305, -0.035059867936864726, 0.016551157087286317, 0.007322404557131875], [0.007647741602762769, -0.06836679774232775, -0.025136506908511876, -0.018217278169439435, 0.01667156067345912], [-0.011886625178996095, -0.008418775784450685, -0.02003755841343752, 0.06325325096496474, 0.021819300824099837], [-0.00317115813219956, -0.03070710309244522, 0.016753551346852077, -0.013126748249209558, 0.007066163092391592], [-0.008077101335047403, -0.004024716361938657, -0.03774643597406179, 0.04040803450171917, -0.0023648084389078254], [-0.014187237337310142, 0.048857105349658154, 0.002281354915104621, -0.009652969028527875, -0.035805699720892634], [-0.005050944028012072, -0.038842148278191, 0.014391509497902964, -0.02045121028558739, -0.00046051170215297415], [-0.010063749248494373, 0.026755157485397064, 0.028018009826451425, 0.08462769877246952, -0.03246397125286528], [-0.08265600913306921, 0.06603186783923624, -0.019480842249893947, -0.04087910967903959, 0.00045864052434646557], [-0.009126399880696835, 0.07418327478709104, -0.009019664176160716, 0.017444037276861463, -0.008224747990684522], [0.016803423111499127, 0.02098061107558457, 0.00032704531117906655, -0.0028864128338498204, -0.012403890175206014], [-0.027292097859827207, 0.022170600684089787, -0.037118137395726385, 0.007963090457688445, 0.03535263299013955], [0.00398522887114758, 0.03306408771776472, -0.03663325989253258, -0.015988110934329103, 0.003200829887882432], [0.04358589735348147, -0.0006873431326746937, -0.00405492404117263, 0.07429222144725202, 0.03261892659599248], [-0.038584363869383936, 0.03271700713491668, 0.019087597814202176, -0.02672959424932077, 0.06816470845214413], [0.03983302321170649, 0.03474036741251367, 0.05252186487799459, 0.039196801735509344, 0.10871344657371083], [-0.024777459395485434, 0.02193041698826585, 0.021879163167056744, 0.009441577936769323, 0.02015113862607317], [0.04776282483702796, 0.07091547376375859, 0.008491385994211217, 0.1076378918398401, 0.07355987853989307], [0.11441882087428608, -0.035039278415908155, 0.06900667858143854, 0.042859802235558075, 0.028726603421689825], [0.043122295477141984, -0.008214121665773219, 0.006589234563908925, -0.06937750853930932, 0.0674438510574454], [0.048355415521808394, -0.003315822146832287, 0.02120115335730205, -0.004440370729733571, -0.019967289226400047], [-0.03646902509797385, -0.07395514958277774, 0.0018533817665822294, 0.046499633795356626, 0.021105170190420824], [0.05880342080553308, -0.0507884418896784, 0.032618265242646084, 0.04199840220120422, 0.027844616365826906], [0.02521897189431156, 0.0023982509445215263, 0.040035420140219956, 0.026046875645403762, 0.10455393509157689], [0.01901892863265754, -0.02559537954756849, 0.05884729292221389, -0.0689809230730501, 0.04465822025744186], [0.022078648587204104, 0.0237452689382495, 0.010777696228344904, 0.023880904264026954, -0.007772471863814176], [-0.0934622657572569, 0.05275728695858502, 0.02442369569941661, 0.015470692349823822, 0.011014365928628313], [-0.012397144772112173, 0.011237283637017259, -0.075955710313902, -0.04072683191989157, -0.09605209910146299], [-0.06141982259303924, 0.0031968336062889887, -0.03520155274084819, -0.017777104244362994, 0.0446308639527622], [-0.03263456187746061, 0.03657321191969133, -0.028402660259636982, -0.05349058497345643, -0.045480576963958005], [-0.04893030003109626, -0.035290598439669744, 0.07086831922496567, -0.008880703085269089, -0.0021015817565552563], [0.009286020269092506, -0.0112022900296596, 0.027382153862926424, -0.03561820886412135, -0.02514364406609874], [0.030435927616693927, -0.025315322862279405, -0.06370054032874196, 0.0005128054184549008, -0.030771209277734517], [-0.013658209009157351, 0.04657449542763078, 0.006564996532272834, 0.011545664389709845, 0.03888323915409341], [-0.028758514635714796, -0.027805889234608614, 0.015364603199328362, 0.05272389443238894, 0.022438723582682448], [0.009026213947631178, 0.05833323993515307, -0.02660310258044426, 0.006058485929875489, -0.03224515359828629], [0.03183844876401941, -0.04792467455799193, 0.012458656835967537, 0.019235074687665745, 0.03381069254930063], [-0.001657989921495926, -0.021870175407565386, -0.07990604838841693, -0.018573092027708307, 0.007602519117570174], [0.06254021795615858, 0.015158375817678395, 0.03886744878425752, 0.01730190265762344, -0.009553489925713528], [-0.03382164794611774, -0.0068129771608502095, 0.05929393669018925, 0.002430423567406498, 0.031339524908118234], [-0.0074381529966335335, 0.0487816763007312, 0.026971887146599777, 0.0246342025792555, 0.0018952621286058074], [0.03284014718112187, 0.08659013575031471, -0.020210491137473176, 0.09099067072215558, -0.034310406088704844], [0.026203748235534546, 0.04433844241232733, 0.005433178922991145, 0.01046590857851594, 0.011875608559735438], [-0.0333939738755575, -0.01632197870700442, -0.014552641017218391, 0.019679885544371684, 0.04759747780128926], [0.04471747744847462, 0.055308754308921175, 0.024632499644154246, 0.07488502590921371, 0.03611977252509086], [0.09750401558577845, -0.014268938613172797, 0.0051213681526856005, 0.06789253293767548, 0.07802895031070013], [0.0791861536540485, 0.0492587014717617, -0.056879190914833413, 0.06665028463764469, -0.016748296383635602], [0.03637430748119344, 0.029177940810469948, 0.049503217542144054, 0.020141772750771603, 0.054267814604082205], [0.046230624335095206, -0.010200858573552136, 0.010947060916198924, 0.052646013768649164, -0.053011661727726415], [0.04708155482907783, -0.03613673912149544, 0.008804938711162818, 0.01495452112899793, 0.007521512831813506], [-0.03894461354662012, -0.021152371527798263, -0.02563669078989892, -0.01785359166780537, -0.0038759884668330452], [-0.05587118743484453, -0.044947348826388706, -0.0016945872399662864, -0.031920540342629054, 0.06415339180988892], [0.03768610136066249, -0.01863703808131002, -0.026769944627373886, 0.01930574758307555, 0.05762032594682272], [0.04647593119576678, -0.0031906941113109904, 0.06454988788668446, -0.053513241797013146, -0.005804873288574091], [-0.10567027782322488, 0.015359329720811873, -0.08321500433979394, 0.030119227151487907, 0.047535270229584016], [-0.015821216251543268, -0.010774429494734604, 0.03925447173950562, -0.06506570493530359, 0.02655125472097852], [0.04322529228482512, 0.0031126347510823946, 0.0686196730389071, -0.04642216939206047, 0.064861080090017], [0.003816040300439389, -0.016822468995788473, -0.010213869446591905, 0.012878990966135286, 0.028248891926573125], [0.007402167113177824, 0.002762664574841997, 0.04909605695274665, 0.06021738722149405, -0.01101179725101967], [-0.003840776474338207, 0.02720722270147521, -0.059894268153080375, -0.008950893608402424, 0.0023343797083738805], [-0.014514035337394381, 0.029910449932277993, -0.014621188126684137, 0.013581428099077244, -0.06546419425467205], [0.011697800979883485, -0.012992447835248869, 0.027609177956464764, -0.06796478726153377, -0.0076819158870828925], [0.022889345799192433, 0.05056339398776642, 0.039161822527172374, -0.011304112080430594, -0.06568196925980481], [-0.013609206589856555, -0.0028208377403844583, -0.020696871904653216, -0.0020220384778266544, -0.01757605962476849], [-0.015974576164381228, -0.028681295067950013, 0.05609382766772942, -0.023729390096737916, 0.03538714884317722], [0.017908290974260156, -0.011672917302742834, 0.07557778205070106, -0.04289499953956091, -0.04045932960795857], [0.025618361893026152, 0.009043342525822158, -0.013710146777290877, 0.009125887717801658, -0.000458298989419138], [0.013445650613219716, -0.0011345668272192651, 0.0034437965188066676, 0.021974824991243667, 0.015938171445128158], [0.01144997992704678, -0.0096964686714779, -0.011811832151638158, 0.06800185544951141, 0.04799029311601223], [-0.05710878575543996, 0.02870953312720476, 0.0007354021876456623, 0.02248998346230189, 0.007869572041039248], [0.009567087660573334, -0.07346297720339046, 0.0034769867601402416, 0.029919030069052333, -0.02164769697717524], [0.07148423747921796, -0.01175370385987179, 0.04102557116780007, -0.007394708568232648, 0.0996122558074894], [0.03663722238232029, 0.004291909508930259, 0.016549273347756153, -0.0019941438398336717, -0.0006594889486875792], [0.16742990040252045, 0.041869168862360855, 0.011899598540832359, -0.061169936059383354, 0.022318804335037187], [0.053473192862474296, 0.0877476826866971, 0.0009394006854193432, -0.002016978568833109, 0.08630301308465466], [0.06674184084286282, 0.031107191792144412, 0.003061777418583003, 0.026285166721105622, 0.037285019784956075], [0.022207910518254905, -0.01502804785886901, -0.03394133825488107, 0.01484962604690422, 0.009640609375439405], [0.052309783301825445, -0.0025249459443856177, -0.002311133713219121, 0.06403797189332176, 0.01741029682620244], [0.06620964511456344, 0.032611695041486484, -0.07950050145466675, -0.011322269578106402, -0.009956986882954634], [0.02276750175187915, 0.0011893150297842602, 0.018459501408687583, 0.045982149206306604, -0.05050524246484149], [-0.08211835036936295, -0.04676259270973123, 0.05445900276218035, 0.035062184243361876, 0.0207950789818785], [0.05502283633333536, 0.03377318258375015, -0.049350360954108226, -0.0580726883247368, -0.05239971084242679], [0.03557684708812374, 0.012658083525083559, -0.030076844234746714, 0.003148555592844078, -0.0038460933611091166], [0.057218004674059804, -0.045989321926779944, 0.0038143158338709952, 0.06437225574360445, 0.0355662087019087], [-0.053517347746219225, 0.0654043532884144, 0.01910931570491408, 0.025753505619745175, 0.0036909098008386086], [-0.027608426565911368, 0.0012581024237538414, -0.05609448242671493, -0.009925912431248022, -0.004566160774175557], [0.003761229864817348, -0.03988530163890389, -0.006064855244935974, 0.027621006004491876, -0.01755233141693212], [-0.0037532389953624993, 0.05363770594413018, -0.03799387538423181, -0.00397825027734191, 0.00769969534058146], [-0.031348076542479696, -0.024806102700217127, -0.015360232522758924, 0.06296334960571189, 0.03473386563986549], [0.007253735561495335, -0.07327330093939348, 0.0033867268329621438, -0.011824345986649373, 0.02488231120468855], [-0.009300670715715447, 0.03656110632674425, 0.01803289241068395, 0.10510553299768678, 0.03568553737707919], [-0.07096178049475303, -0.007361715460891851, 0.00012862096118717087, -0.004894075626880459, 0.0680982613137423], [-0.03949316381888715, -0.05341617389262473, -0.006488802582186937, -0.019667698973763244, -0.0029610012082797914], [-0.08182802513122642, 0.0006739373282875219, 0.05101934546825223, 0.032640586399804355, 0.03836064807498913], [-0.025279065947668624, 0.044503820031524456, -0.027605139841842926, 0.05927174968122376, 0.008202310179986367], [-0.013066694315475073, -0.03582196389264178, -0.004278999134568268, 0.035218386533862174, 0.10665130259083827], [0.006056276600209684, 0.004165792145525123, -0.02049296251996835, 0.028019767741017686, 0.10297631749965931], [0.009375824909883965, -0.008647444271233285, 0.033601384505327146, 0.006209919653253581, 0.0735455661880738], [0.03037993610420811, -0.051265120306134046, 0.0010725257774195226, 0.003521516361659635, 0.023918722681973262], [0.10255285355028118, 0.023911602505051487, 0.023878847948409485, -0.05299357375057898, -0.04171152859455976], [0.05965234287952055, 0.02769913142852174, 0.04177387677965466, -0.012099310122621535, -0.05369905669653532], [0.0917280510187861, 0.012408174495367604, 0.07659949809526398, 0.005346642842772407, 0.01945275246512968], [0.001504573571934647, -0.03646494871535254, 0.03870754549645087, -0.011097126685823046, -9.712429593275504e-05], [-0.005840758115392048, 0.005855138203443399, -0.01264805017142898, -0.01037771486861721, 0.014727877695319356], [0.05106570242802733, 0.051976493323543954, -0.05680656944826195, 0.05513033297548944, 0.051263184724142014], [0.03187842558933183, -0.009910472588819268, 0.016746810564897675, 0.03160405208743776, 0.040377037054680424], [0.036750159394570936, 0.02317226433292346, 0.03774126610975436, -0.004953071170364157, 0.010698480906878428], [-0.0619586128287944, 0.04519092023217451, -0.004568965185216354, 0.05526426155437714, 0.017508661748624622], [-0.013675594231666005, 0.07292277394235902, 0.022475022710058207, 0.009362898022118855, 0.004775179041841108], [0.06452588359232823, -0.03382921073420293, 0.06737055516094666, -0.03242716027727736, 0.043279072643523236], [0.02656487252488238, -0.048842649391732405, -0.01709343069639249, -0.024928900873087616, 0.03384305674513758], [0.004034135264065901, -0.0671255299854925, -0.007517298799918582, -0.03767346114401588, -0.016557865765395363], [0.06041820090533145, -0.015529502792764716, -0.06302930570785802, -0.042751450389739924, 0.019881578696692187], [0.06371342241270649, -0.015751741986294896, -0.044829523062672995, 0.029001923147665618, -0.03458720732971037], [-0.014489121735014357, -0.01872833892470718, 0.011745166473057322, 0.0348941232097595, 0.00754844155650176], [0.005614623498182254, 0.01126723643951868, -0.026475856290639806, 0.016792381630689433, -0.0662389149716102], [-0.018541569232244325, -0.0003824627134466275, 0.024666602180139784, 0.02067158747679063, 0.0541701554650726], [0.01354965586605078, 0.045943375919372136, -0.0585194630348778, -0.019728429716301954, -0.0386402745668308], [-0.0018540462600611254, -0.09159327009969412, 0.013985402867731558, 0.019424215459861557, -0.04356750312399331], [-0.04881510712526847, 0.03675430257546982, 0.01962918443208654, -0.04459287696978457, -0.04595932339628695], [0.06483924720268097, -0.045744528524742825, 0.016560358223433033, -0.025878395630919284, 0.043531708588167586], [0.01969568833196315, 0.05152319973573452, 0.06392420236455108, 0.08110484472464229, -0.032083850376798236], [0.02108288247404411, 0.01835546440737181, 0.02795128759528791, 0.10812075218327445, 0.04172169477533351], [-0.033628502701132726, 0.030718194745841733, 0.03710883000155131, 0.04795043072542216, 0.010851754642277169], [-0.028456503095434845, -0.05518182000720506, 0.013781249807253274, 0.05372317336115741, 0.046278134160796146], [0.0471048006269155, 0.047638847827940756, 0.021641969709665906, 0.0520255075176711, 0.02576864136079121], [0.02309355833169631, -0.02354423789027491, -8.455740449647978e-05, -0.022488178845509015, 0.028961838913238953], [0.0744247412688422, -0.047023460195712574, 0.08044205975059032, -0.02631037034439066, 0.04049117094006027], [0.05720323725255691, -0.034672696561854656, 0.007470411535371903, -0.020549361526073933, 0.04759321538107605], [0.08673122863352078, -0.07813572331230818, -0.023921733231609035, 0.030168824528528388, -0.008877674376321348], [0.0749569225265439, -0.05357617238353911, 0.07924059854891241, -0.09942758500364303, 0.011238563992868426], [0.0290387391049343, 0.01605598244288395, -0.07248695672887705, -0.03418833532077746, -0.026122342335670803], [-0.018813883764999706, 0.045180191323032706, 0.010238515340680744, 0.05827144415909893, 0.04101403829231499], [0.01825592157267571, 0.00809504394652271, 0.024853258136288026, -0.016223818667337762, 0.05559440347985355], [-0.0637646899944667, 0.07214209173053814, -0.05467055198769641, -0.01062378401021116, -0.0008653519286960981], [-0.02678380183858181, -0.010501940767385065, -3.560416560694881e-05, 0.008439679871983179, 0.0425750006712507], [-0.0341256586647653, 0.020568763773050888, -0.01059076997919436, 0.0089184347672122, 0.05374869482565093], [0.001684813579800892, -0.010450139203226587, -0.026320400114682365, 0.005822815534532394, 0.018037173191345745], [0.023844714006813057, -0.006763988638806602, -0.005878570769756967, -0.05700685096132536, 0.01319192341007051], [-0.053793257903977494, -0.04686615425693623, 0.0007207128175225784, 0.008094189694763363, 0.022987864988445923], [0.08514807826585898, -0.04556285330375198, 0.013011805470804568, -0.013486967338240534, 0.07863938531920497], [-0.02962062813517164, 0.022691451609763855, -0.013310083834066915, 0.045676658980778946, 0.027888459924645306], [0.01828633374147189, 0.004406587374293204, -0.012785165287611356, 0.036469476593027635, 0.015051491877161965], [0.007422753172798663, 0.03912052800335585, 0.04461850076596635, -0.061904090327409844, -0.010065525010417102], [-0.0022544793335992847, -0.004989838043500003, -0.049558356826386006, -0.06968985404796176, 0.015914730658952988], [0.008286618715516442, -0.021903895524995685, 0.06223251198869021, 0.04634600234143964, 0.010209062144523011], [0.06116892552672134, 0.007575663271564873, -0.029625764881720786, 0.04408751619984214, -0.016598295046808483], [-0.009101963602878058, -0.02198999754507777, -0.09438544793259732, 0.07147873384527718, -0.0303779693595453], [-0.0035950805179841214, 0.029975297840558312, -0.024205710689242804, -0.020628039683372134, 0.0530253979645881], [-0.06999494452778937, 0.052243013698458546, -0.01933456104452793, 0.022314680379994515, -0.0003568469354172356], [0.004912036717455643, 0.009576587924743073, 0.04635498668280168, 0.06592695655997693, 0.010007127071076429], [0.038543220046998346, -0.05107958730324014, 0.01723030167822149, 0.03318535670568371, 0.048056606973513126], [0.03744346046513707, -0.05102860851261873, 0.0011192074658918048, 0.00498988847404869, 0.08622935236014725], [0.014439619405205424, -0.036661805587229174, -0.018241554452555604, 0.021119723251942953, 0.012506304281861487], [0.02057606577531209, -0.018838739899996616, 0.021303694938244373, -0.04009201066866409, 0.06707586624888902], [0.16677638519518534, 0.036702287922316404, 0.007451827986951957, -0.03232537086242148, -0.0174892432201731], [0.14174430135928429, 0.023947787347102505, 0.0017082529008555273, -0.030016030689878945, -0.037655971057710555], [0.11451855813603612, -0.014879303506181633, 0.04345471522766512, -0.001557688573871742, -0.013020600618602569], [0.06332667308191611, -0.026728455871534832, 0.02834047118398448, -0.051845753593774205, 0.00035878428221149415], [0.014362855357534008, -0.004242410078873627, 0.05821011866379804, 0.05095688368547061, 0.038408771614716106], [0.01170524468481533, -0.07111521041262589, 0.07039132550122318, -0.034360534453329254, 0.010394213754986874], [-0.049787730033331846, -0.041399370026955686, 0.001340304511447107, -0.017495008182458936, -0.004712753934447169], [0.013486950743154586, -0.029794807939020274, -0.024723626945339205, 0.047177413802052925, 0.03152183234550211], [-0.012688541215771324, 0.07754725887208601, 0.020734163423132848, 0.037321795305614906, 0.037639830556420575], [0.03543572395799653, -0.030929193829286106, -0.018540483665876226, 0.03207979169993468, 0.016444029117413737], [-0.04066978174046222, -0.0641392201658769, -0.0743226335222726, -0.03127854174737247, -0.07489959375743017], [0.024321319136028238, 0.13720335560235225, 0.015699623047346584, -0.05427339774484201, 0.008148554273823666], [-0.06451487679911481, 0.00783190674673579, -0.024651869651190705, -0.026214243110380363, -0.006808956540054861], [-0.04536811664939648, -0.03746759364562079, 0.02101448040438514, 0.008192855249033754, -0.015579099871297747], [0.04171000031403329, -0.06769325079575114, 0.04899605764886915, -0.004346678941044768, -0.003693536420316731], [-0.021515130184184807, -0.017263641327469485, -0.009661547830991013, 0.0132332317590196, 0.013866169155727217], [-0.015553744038149814, -0.013665199163947593, 0.0566794580769988, -0.028221532550575298, -0.016782838267500374], [-0.011910577850332203, 0.03360136060192944, 0.010525073212818935, 0.030331237531715703, 0.035316594477995185], [0.0625929813245502, 0.05591668117525974, -0.03526858021312368, -0.008180350938180363, 0.013517068120638812], [-0.03271962481403398, 0.027496908504401882, -0.02402441828128095, -0.025165553669995823, 0.03283336808450042], [0.08230908706601317, -0.016237876574958596, 0.04454640801561319, 0.01209499192044569, 0.04259295818100261], [0.0020636774478236452, -0.022923737226692626, 0.023809849937286125, 0.028889804976960094, -0.022299092269555305], [-0.0011375741724315063, -0.023391310419869974, -0.007675040453824035, -0.0031833036666840055, 0.009685324005768806], [-0.07800017475684692, -0.05990290189609092, 0.035039815602379745, -0.009564814943836479, -0.009153435597209492], [-0.023208083653424066, 0.05498119386095123, -0.08238377541461969, -0.014435559682944419, -0.00025593497979723004], [-0.01769568769499181, -0.015424649335468518, 0.01936501852299114, 0.05260588838078471, 0.027051088857656384], [0.07405981645623705, 0.010688888553866037, 0.004237336419206506, 0.02120861411024227, -0.024713911126071627], [-0.003867485559509003, -0.0496585545167061, -0.0017353947065460226, 0.04536654487712219, 0.047424877071782744], [0.08227526410180395, 0.032033982132853946, 0.033256420529849826, 0.08356343306133461, -0.039369163292859936], [0.08241514401720164, 0.00252577703124773, 0.07435537752315416, -0.04741420466279504, 0.03375183495704347], [0.014620491711367934, -0.04826044371342637, -0.06993472022631472, -0.008459460942013285, 0.018960736085927587], [0.024627011708593893, -0.04723715171484435, -0.0327802092097155, -0.006575158422816888, -0.0033125289283144122], [0.057332577565596086, 0.033968972026280006, -0.0026586285343990655, 0.023566874724703382, 0.015330241086051875], [0.006254875877939875, 0.009309563791527429, 0.025074753651061328, 0.0259814602006319, -0.006717685572666702], [0.04277362654160933, -0.009152242510176316, -0.03260908186839547, -0.0037471490416435206, 0.0005881156036512235], [-0.025288505713854405, 0.01470339812708131, -0.05740210681113329, 0.09261993590550119, 0.0017448621735308765], [-0.02415298296314713, 0.0641281619293729, 0.0014008938512062147, 0.04879831624937449, 0.03999602954339048], [0.02836878196964136, -0.03921103993432607, -0.019084292236759563, 0.057158304226703614, 0.029028322355911258], [-0.001376235889982007, 0.04588679213689734, -0.0028966441096448235, -0.03552553298518559, -0.02322176649225639], [-0.02629632642330537, -0.011292676923006974, 0.008833269227768711, 0.029560157945752574, -0.05798495605791484], [-0.04137614429553445, 0.0175581388833806, 0.035437919128334154, -0.01196310455825182, 0.028689063336578325], [0.01175925101609997, 0.013001968853028383, 0.011707657430766632, 0.006347800306278282, 0.025740005118591917], [0.06517239171229817, -0.00996828386495846, 0.01703829512302054, 0.03641197608898876, 0.015064656381518476], [-0.009514952744622013, 0.02068042560775931, 0.012206314734200025, -0.02663210596045495, -0.015519867256405659], [0.0159563996746099, -0.030910567057426584, 0.006284751185008548, -0.03065394252690012, 0.03212077523760544], [-0.002348988495873999, 0.030651240012553694, 0.017113413138649846, 0.05480612907555261, -0.043597581332647], [0.027208264389381388, -0.034491825738531476, -0.004024847160046308, -0.03530324080520498, 0.020534107661813825], [0.029526870754776332, 0.07015897195731814, -0.017540981928976285, 0.03277535647365657, -0.0005700937728554793], [-0.05322431082959129, 0.065697614132655, -0.03582227011915063, -0.005467653703614187, -0.05642815491893147], [-0.04441011236695328, -0.032980843945154464, 0.03746424342471204, 0.02919071436705797, 0.07554528603891007], [0.052881837934290556, -0.01586095336029038, 0.0017613020743899109, -0.0185420744576772, 0.018612253828372692], [-0.02588008320914192, 0.031092025322439838, 0.06420731561605228, 0.07660674332674922, 0.02139699608164652], [-0.015223417952222222, 0.041027136478325316, -0.018045186055351964, 0.020642873076174358, 0.03508952930659828], [0.034057550318877104, -0.005273511291225477, -0.045333337762679025, 0.0728302399287712, -0.010503842595617001], [-0.01844263667918141, 0.029953001088984393, 0.01548552005901555, 0.027497200237512724, -0.0161414269173404], [0.05028666561338504, -0.024035818713050567, -0.02691318630957905, -0.06687487403249767, 0.02430288203620241], [0.11802990334794612, -0.054435771743268184, 0.07571218222212515, 0.021560530597729295, 0.0027134510869312625], [0.020656723007341712, 0.03430775576041767, 0.08176563701032269, -0.007387140586370846, 0.05238869509333268], [0.028563743084241693, -0.03579444820509503, 0.05599010172380064, -0.0707001459365115, -0.02385323050679313], [-0.005804544717829799, -0.025419866659101977, 0.0017941206255820555, -0.048994573757031236, -0.028481256066965346], [0.051578052533651185, -0.0040353025775392536, 0.021110739294628488, 0.04995483745163785, 0.03484013703570177], [-0.008082124837972276, 0.005874699025010771, 0.04486582565137732, 0.0003966085010781188, -0.012282060952074923], [-0.01968192727256166, 0.053967227664597335, 0.06105681417676018, 0.03318955091480367, 0.0062272966281934445], [-0.00866023372782411, -0.009045610921875558, -0.02850791364205922, 0.10702674171809692, 0.050402224937599334], [-0.054891008526802496, 0.07016814888105834, 0.039108541941142175, 0.017608623459690026, 0.0287148359016365], [-0.08867952895703601, -0.021378960845021056, -0.025403548986518334, 0.057849205730238634, -0.003106704485559967], [0.01897087321502144, 0.008493945128521158, 0.04317083806127143, -0.00011051404821731017, -0.03730885867043698], [-0.007188346023409701, -0.04099125712015656, -0.017352140925833436, -0.006254543825215504, -0.021218183445415834], [-0.010386701172849547, -0.00447770798144072, 0.02579002011903297, 0.020089068456196374, 0.029855057118406882], [-0.07438149526542427, -0.001670173803224851, -0.018362237552137263, -0.03197064538563271, 0.01960478577509248], [0.027467706235954664, 0.07735125789703787, -0.00535846875778676, 0.0008969212233708317, 0.005441843112722541], [0.01212848351126819, 0.03012179414677682, 0.04095271202139309, -0.06129898612490669, -0.04246539380517781], [-0.027705905539507435, -0.006830021537598182, -0.04050544266186642, 0.05473559993676019, -0.030840754553113026], [-0.018064127751880963, -0.02590583319349009, -0.04012910583722178, -0.03154557492357647, 0.02063671266362708], [-0.045529185282322436, 0.026794619648766105, 0.017716548185861814, 0.019852792809580716, 0.042957251645216306], [0.009099123268008547, -0.030869842745646164, 0.029998175994124337, 0.014879287024944414, 0.05106051684031233], [0.035988421021535676, -0.09747169241299387, 0.025820373969601493, 0.04185956844955766, -0.010467872079553523], [-0.018812542516291324, 0.024037895625114238, -0.0027552330815115975, -0.00941472369709716, -0.0032270982081520337], [0.008347867869105265, -0.002421724060683553, 0.022899192077006462, 0.013026098138423928, -0.002451185961350743], [0.008202456958182546, 0.042964639343527046, 0.03620953528244152, -0.03138483065827969, 0.0038596607489605863], [0.005853429156836639, -0.030242290045000557, 0.03244535991051016, 0.005379792728223558, -0.025201585708315058], [-0.009143522392330568, 0.05641731879766479, -0.015722018172812595, -0.04679029181727043, -0.013119262556275001], [0.01575957917673871, -0.014855263424767428, 0.04225685346109533, -0.013490070369694919, 0.0025499284039710276], [0.032061546191159015, -0.0744190871845662, 0.01997757250646295, -0.07482598764777389, 0.07623921750705101], [0.0714234939688059, -0.0019155179587610105, -0.029586834746551684, -0.039324514040604816, 0.03855586186196372], [0.023793067366625228, -0.0037507606651041333, -0.017793435198339556, -0.07893781407016047, 0.05583920289215354], [0.05752728071648763, 0.053795740219639836, 0.019568527952401722, -0.00984147550663421, -0.050313738696883985], [-0.03856528899495995, 0.04546232651869869, 0.02451671428037993, -0.03000958315398817, 0.053035270749148045], [0.07059761429903617, 0.014221719401950628, 0.017584378250582587, -0.02767375341800421, -0.031235423857129328], [0.07225802877976668, -0.03100716107428182, 0.08173712612497744, -0.021426324748731497, -0.04170378622066116], [-0.01545497703317999, 0.017766944311133424, 0.0026900959953105735, 0.04966751794872675, -0.020180870555856774], [-0.005802710025618651, -0.018371308139778955, 0.026759718958874964, -0.04509149973757875, -0.004686324835682966], [-0.04936958706875338, 0.0610021421671277, 0.0011593156487885912, 0.04591413598272716, 0.06330588196794516], [-0.043301371895655576, -0.007104853023893623, 0.010778796883853279, 0.04022845599441985, -0.028813227744360945], [0.03601823496728539, -0.0014433338582264422, 0.018496589833788275, 0.003338919624996891, -0.05552660472623734], [0.009451461396077864, 0.00960496010811554, -0.06985851187338134, 0.0017379601344347287, -0.0051491816630880914], [-0.012498085611930086, -0.019087058032326364, -0.04408198607644291, -0.06907538827107412, -0.02751262572493605], [-0.00021145391520077403, 0.030825508538984078, -0.010340648852202578, 0.037033216444088864, -0.018920086336012713], [0.059175524808816236, 0.05777966131498713, -0.0390558649924615, -0.036349444205394425, -0.01126222192770572], [-0.005344950476060733, -0.025893644815596795, 0.06958811289609802, -0.01879926962102354, -0.026546656637378235], [-0.005753983100161111, 0.020466630729192702, 0.022450844128429966, 0.00912831469055457, -0.049882884293155634], [0.032659006233570965, 0.0077185442929736305, -0.032859768497627166, 0.0029762716173995785, -0.07605480700952584], [0.021088869034010208, 0.01595036168009803, 0.021770699186714686, 0.014829074293424121, -0.02979584300845584], [0.010771310162868041, -0.006345192237702166, -0.0005908057376110117, 4.0744890330650244e-05, 0.029899813335880227], [0.015158359036018849, -0.08181663347185196, 0.009399299323304253, 0.051370845049407574, 0.05267172839822578], [-0.012056556897820604, 0.01866700990500918, -0.022529952256790563, 0.007620363974741321, -0.05687982768490387], [-0.04353115209950456, -0.029092980600848938, 0.037031104373208654, 0.05048907954803995, -0.006017882241278255], [0.01890070596806291, 0.08174726065251633, -0.03530816987357228, 0.02250356670097361, -6.595404006099628e-05], [-0.033428766754403726, 0.024017085632281273, 0.03558306031168641, -0.02801946065489053, -0.008850172280147546], [0.055010496471872485, 0.017492739146867525, 0.01508396277472314, -0.005832306855842306, -0.00868808609911023], [0.007737172388089784, -0.028241031947988385, 0.04404854531202763, -0.04037975813952368, 0.021635971617084124], [0.051322577947525025, 0.007031856716755035, -0.05338390192520586, -0.002764846362293539, -0.039893592192550634], [0.036856254024856705, -0.0018404277721139949, 0.03844964280673057, 0.014696598611886331, -0.02630880929699461], [0.03299872612440643, -0.019962848503966273, 0.007520039563890862, -0.011764427654545426, -0.003082242433212298], [0.05075417423743741, 0.050162641178697, 0.031224815696436547, -0.021907515504146054, 0.008372587181020947], [-0.007439015725363854, -0.025053345832465837, 0.014817186025468002, -0.011124890044188868, -0.0577756656829298], [0.03609741859392994, -0.053212985068192276, -0.036152167641494364, 0.01235129895851118, 0.019087631566373643], [0.0324492895434686, 0.11007539810207402, -0.05949541067861619, -0.018674270748044744, 0.0008454855566824442], [-0.055912318296070386, 0.008873263518426381, 0.014622573965928153, -0.01171495809297087, 0.026754674492931712], [-0.06715159039944546, 0.09389468475650131, -0.006820854997289678, 0.06201235102755198, -0.05819459406166681], [-0.06769158469969475, -0.013901875428164293, -0.10980236424244164, 0.04415287951947939, -0.012765400931836134], [-0.04441496584088657, 0.05307297680066677, -0.01876622173890037, 0.00571226374869662, 0.055415597387037226], [-0.022891665363386153, -0.024673008977369223, 0.017458009303143552, 0.032036118560265246, -0.013439070335926957], [0.020854682906786746, 0.0163260326287066, 0.008945757158721231, 0.02247467537667993, 0.07955034207110814], [-0.022352904286328978, -0.009427284099874953, -0.050279675815305534, 0.06698395776739396, 0.01880392225817842], [-0.04590001449285703, 0.008692663648239876, 0.0015683669720182437, 0.00849709281070637, 0.00455962300890377], [0.02467267772559511, 0.006666220492308403, 0.02483035130545699, -0.04661284455596194, 0.019378526962145735], [-0.06543263146766205, 0.001445652005727272, -0.016328097190947254, 0.031167765250884848, -0.020867791163123383], [0.028008749678629784, 0.01724241561925652, -0.012121265488665102, 0.10455054879741502, -0.021838186311113634], [-0.04985902220015753, 0.02720940340678605, 0.00284400350106026, -0.11000325311618112, -0.0352407937735042], [-0.02829471951738358, 0.016352824750941047, -0.003243156638172511, 0.013513741193509525, -0.01231061635525693], [-0.02283106063969763, -0.027930921294487182, -0.07143077926938088, -0.01353884527857942, -0.08305913599913235], [0.009450881828174417, -0.019203897869771804, -0.01579248155865174, 0.013687118602044059, -0.03731402940597085], [-0.009464038122122579, -0.0002498710918963201, 0.02347120695813559, 0.015251912363427, -0.001200940910181092], [-0.011145841838252306, 0.004605054282568639, 0.025768946406874306, 0.029237329514447925, -0.01326859539916889], [0.004744463692575016, 0.020313723488006474, -0.01551774945593785, 0.044882906282833285, 0.0522708716982058], [-0.017728448660525805, -0.016935577206796313, 0.020238256487743623, -0.026619411319383664, 0.05582694959138588], [0.014441638179522022, -0.0027702931679031836, -0.02971813150381655, 0.007671359922894835, 0.05918694953638712], [0.0035610818762339, 0.02917403156119547, -0.014871002202929945, 0.018462934425030976, 0.02443652813974502], [0.06676816190658895, -0.02419276959193486, -0.015159673174373039, 0.07305443690589944, 0.011156008312443285], [0.08066693934770147, -0.02739368473738154, -0.018831003891096498, 0.05621062409833558, -0.02830595128146344], [0.07565533848048259, 0.0650586887027093, 0.07060280855408618, 0.00912404114486374, -0.005610138362359335], [-0.004108836404034049, 0.009807888624576277, 0.0306514604933206, -0.08608556503175185, 0.03371295914905123], [0.06633832360985883, 0.019328733480672614, 0.011148447431894056, 0.030107963073096107, 0.05208279136493704], [-0.036973287010064936, -0.037804381267374856, 0.015147940992082009, 0.021060017725518302, 0.051862133654698245], [0.03648390116273093, -0.051565403851454646, -0.03594361522892228, 0.0012266330409791979, -0.012091527084846627], [-0.001446445423239874, 0.04465863300473527, 0.04939238726702594, 0.009118114299082328, 0.0486753427348565], [-0.013626079859303693, 0.061579010718623504, 0.028676562050739065, 0.07590820765248191, 0.0625155270273174], [-0.004409819413047394, 0.05590207755366104, -0.002892396655307065, 0.11778558139744263, 0.0214597909050779], [-0.024766372459201644, -0.020570862225394355, -0.013505669991836998, 0.12641979591768052, 0.05137391575850306], [-0.039214828364311755, 0.03466598847365383, -0.0695955670255758, 0.05487749115173481, -0.003044769548022364], [-4.432051886564835e-05, 0.07013688648059976, -0.007309752692125906, -0.03954699630643251, 0.008564838630697152], [-0.040442287643110114, -0.013908784641563861, 0.03168264404419292, 0.0049814083433928165, -0.024992324203730567], [0.06589622982802447, -0.007139609674710466, -0.0403654543878007, 0.0017741341874121385, 0.05303613725173523], [0.04047796242440778, 0.016087380482183652, -0.01810371943997174, 0.023085257549470446, 0.00810319792618965], [-0.03189324817096266, 0.0392486041624628, 0.0268050592343225, -0.06899508479436087, 0.0114338987784326], [-0.027112303242548142, 0.04426630255106475, -0.025135699446302357, -0.01685022857305171, 0.009933533439655294], [-0.04301439792084148, -0.009773783468689266, -0.007303859828384223, 0.012395861885894387, -0.02276601828235591], [-0.05639943015745445, 0.021094915736707357, 0.008519707012468744, 0.06723167359074315, 0.04369312252669353], [0.008351278219623323, -0.007366937671065309, -0.011617458506127672, 0.021407134664605337, -0.034791777831880165], [-0.018660563173853516, 0.0695890246261154, 0.049299788067882454, 0.025123763469309526, 0.038805460183867234], [0.016872731201865495, 0.06457389211220507, -0.0344985014515093, 0.011650959042801147, 0.06198849255714819], [-0.013250384465290066, 0.04244771697833287, -0.025376881367260188, -0.00672058451075542, 0.03795746337094828], [-0.04153733938772483, 0.026654920298504154, 0.037862247397771755, -0.003407936338963466, -0.004201593943946982], [0.013507786646284312, 0.02662014588228556, 0.02737085386294886, 0.05056907281113086, 0.039287426364334084], [-0.031062980110594874, 0.024079873244642756, 0.025176994111605098, 0.020864111894450144, -0.04191985023385398], [0.007644220185782904, -0.012482629539412088, 0.03265780731819772, -0.033283120556498694, -0.022056785787673134], [-0.009621666441312576, 0.013718287105280797, 0.01944612776118287, -0.01575599986676452, -0.05451644707984616], [-0.036782572851420677, 0.036484246799394854, 0.05481056660708372, -0.009753767206167637, -0.023864531505502707], [0.1082016309195184, 0.01148515193456269, 0.03160250410391904, 0.0334299386547556, -0.038308669796090995], [0.04335149918254928, -0.044520759032099, 0.060933984970458446, -0.028199843170520905, -0.07424938108007799], [0.05567948262636834, 0.04253459976702963, -0.002437778885165778, -0.03663726327317024, 0.0016547271521607193], [0.08351665728510756, -0.034162941656324976, -0.016567147767923965, -0.0706450507702841, -0.02602297559786518], [0.07086632152687714, 0.01300793764463219, -0.00993001846972864, -0.026782602738361295, 0.014443300433111175], [0.01054221051815186, -0.02492016545027858, 0.021217208851060942, -0.011266299771111878, -0.07201600895298522], [-0.0938808428271954, -0.007853793701578819, -0.03271490230343992, 0.06447818053769526, 0.04262114292846991], [-0.042292250038740424, 0.022795352094752256, 0.04131128891529056, 0.04839295461367957, -0.0942769599245421], [0.028105693630964563, 0.004760715301432902, 0.00584552757087013, 0.028220776110762322, 0.00027040573285906427], [-0.03925947961287042, -0.04534205285037955, -0.02773958765228078, 0.029489708351915295, 0.030835870470325776], [-0.055103447792382784, 0.05434712902904852, 0.018745898050355543, 0.03125584966673684, -0.03664924801263944], [0.01488010051365397, 0.024383781364696232, -0.018508512078072255, -0.024762226373930753, -0.053913149033640584], [-0.05011846067034974, 0.009558163854638755, 0.017732901624867046, 0.011885650815182364, 0.02990340827049344], [0.037838290414500715, 0.04190688494960724, -0.06908922904821466, 0.01487694896157063, 0.002892900816819727], [-0.028657013468415787, -0.003493795507132996, -0.030368067107028895, -0.026623166798854788, 0.022081064968306887], [-0.028441075609902472, -0.02022369473566108, -0.0327081706658361, 0.01092983067397117, 0.05495650249037761], [-0.0011368524034103384, 0.01663236040462053, 0.015760986425145316, -0.018633691664442703, 0.038420388867529], [-0.01972929961288219, 0.02575227609822239, -0.06891400348473703, -0.008750369146138274, 0.014796352315438433], [-0.03040891071775624, -0.01715558484349064, 0.029880112213718654, 0.03294832836108586, 0.03284424988245387], [-0.004902119717673465, -0.011067212491152145, -0.08070823660786057, -0.015315807458904793, -0.034848858201420856], [-0.02168452994616568, -0.03710677983462566, 0.008650498746848749, 0.026179661519368666, 0.008520877181276228], [-0.060263067374735656, -0.02388682286337787, -0.05036154459997788, 0.04920062491256727, 0.004424073745173153], [-0.03150429327009133, -0.0037802965063634657, -0.001323223423070332, 0.008009159003318798, 0.01020394508575078], [0.008049785837344978, 0.014974760118526298, -0.05428697450547148, 0.06430540130442335, 0.003730762114724104], [0.01532059835950766, -0.03742928271126571, -3.478562005019183e-05, 0.008701717311829765, -0.015243244350212336], [0.02408481205613998, 0.0005755129928840914, -0.01643998392748431, 0.052056184970536136, -0.0018620421436277646], [0.03289846015494743, 0.021412476350689616, 0.06755677224465387, 0.011557982591085095, 0.0436838449451667], [-0.011773133312387633, 0.0029612207635509695, 0.060710900051970856, -0.002565869397085252, -0.008675907956722888], [0.024964249797378043, -0.05190586228021983, 0.0479075927730816, 0.009751486059633371, 0.00148785133572495], [0.05592786387863689, 0.03426551149911642, 0.042575825718944825, -0.04041212918467636, 0.016800751533838625], [-0.013375711945875833, 0.056436736925880644, 0.03533079718349248, -0.06425505759824578, -0.010792159452654207], [0.023356483238181333, -0.0010623183847714873, 0.059104989621085506, -0.022240088033023186, -0.016182710143397734], [0.016652341219063362, -0.011394637836013332, 0.017328052691770145, 0.016949182243802867, 0.022139030678181088], [-0.04205706309919856, 0.031119242355081508, -0.03375327738467246, -0.00950828639680426, 0.019521595419288558], [-0.02053110078477032, -0.008215274758494288, -0.03505843673429823, 0.06311490443246444, -0.030431507147489816], [-0.056457248324064846, 0.029448627996221926, -0.05713675690694664, 0.02187893966254106, 0.07707428225228614], [-0.06939182629304479, -0.04876272690435816, -0.012282864993705248, 0.018548380142316176, -0.01376348642836576], [0.010693654854931263, -0.004195013735791407, -0.035552786008267515, -0.039466830044133254, -0.004913093930363007], [-0.08853293869913513, 0.02668614090524162, -0.010466788750790261, -0.05154685936635731, 0.033841773936754804], [0.0009885546229166857, -0.005388646247992358, -0.01395012752707139, 0.03203354855839648, 0.016749822730578914], [0.002345083825563178, 0.06008375261383878, -0.0029164665654829143, 0.017852590667747963, 0.056147560551759165], [0.003493102180620397, -0.04205232638478181, -0.06829058408424245, -0.047603723509971274, 0.022767571746939542], [0.008870035310685498, 0.01970206752753344, -0.05216060829010098, 0.06620393497460485, -0.03424404030890464], [0.029318043123879207, 0.0051272997954045045, 0.03128966770072503, 0.032813320317408315, 0.08460981064827441], [0.06232404332915201, -0.03121769306748105, 0.07725845473881311, -0.016808292934121595, 0.023219101268101457], [-0.07845663240091987, 0.008647961485309203, 0.034928475099770095, 0.04070907452698144, 0.01579953578337378], [0.025030581759624214, 0.015836164484193897, -0.06035040360600826, 0.03300445609460688, -0.015132463447666281], [0.024740764433873682, 0.019192007006200693, 0.08384774437794643, -0.05993326714009311, -0.014221972406595496], [-0.00044267149851119647, 0.03066397444673896, 0.07665421917294217, -0.017143643995143492, -0.014816194800182944], [-0.05554669399238712, 0.01390673837008248, -0.03986664970474932, 0.008111746345566708, 0.04128088962456046], [-0.020016375313838132, -0.02256367768325375, 0.00015756117356746996, -0.0252583913871972, 0.001212918377336636], [-0.05408664630642673, 0.06169706093478013, 0.010182154299412662, -0.021081667687839, 0.028250044517325414], [-0.049341438440449414, 0.004702986530816753, -0.005346103351247633, 0.03810363238560355, 0.005496450361799521], [0.012866504294687246, 0.08439563696548481, -0.005348500248732581, -0.004404971145352495, -0.009750324090659655], [0.047067689420306195, 0.033186266598896126, 0.03615160059554105, -0.059723782813304704, -0.018956923854899617], [0.08427014025915557, -0.0036584898320893293, -0.024067428858695093, 0.006355879167855875, -0.02984586159441584], [0.04279967713847938, -0.05357377027264687, 0.013467793735513958, -0.028223668286807318, -0.016362176079379072], [0.0484422014043494, -0.011768120115336735, 0.029081998052119615, 0.06176486283712882, -0.011313511579461463], [-0.011680638512525814, -0.05721093416975418, 0.027303901092261388, 0.002337860690685878, -0.0096333892346457], [0.09607139134645123, 0.04803343257736185, 0.030621214811732356, -0.015235935562177718, -0.0028425301247753366], [0.054396489762242414, -0.037470965108831966, 0.01694480342629387, -0.004663483752224316, -0.012102296428175995], [0.0018821969018536742, 0.0551820287826659, 0.03858725788288396, -0.009195726795944104, 0.026237584497018147], [-0.02270877128090438, -0.004877003574858365, -0.04282841744539383, 0.0193861264096116, -0.07879066733743126], [-0.10984417024047066, 0.004410690113714065, -0.020132943847162767, 0.08002716702596065, 0.025939153311673645], [-0.029194729752074697, -0.035550778703787436, -0.018087522674961144, 0.0770828747112137, 0.056853681070863006], [0.014241284923221645, -0.07070816930254624, 0.014163717588430356, 0.04791923974055114, -0.0006632522834040923], [-0.02350296795171863, -0.0335463684882958, -0.049139293956985124, -0.003093415466925011, -0.05340089976166292], [-0.00828793779265136, -0.024191541605095568, -0.11079563484154238, -0.02412348492330778, 0.11090693006535148], [-0.017468375310815, -0.014205833964746334, 0.015818014013833, 0.025818559507365595, -0.013477623595429178], [-0.0460219606622158, 0.048912718221397616, 0.006277748600167371, -0.018148350505377938, -0.02661019325991666], [-0.0018508933412383158, -0.016407203175790842, 0.01679580113715625, 0.001959582138822616, -0.019508473357032544], [0.04479526542795963, -0.025036030387731358, -0.05702249949874177, -0.018989318688667406, 0.10104965060499209], [0.034962960461978325, -0.07856371939796297, -0.07480153505145586, 0.05471711182635757, 0.002895623115157805], [0.02204697340371521, -0.02147464116742023, 0.033852832347506884, 0.048483899788019424, 0.01695172204381592], [-0.016124680702753746, 0.012851846348414225, -0.055049820130843155, 0.04343231406610012, 0.04248803359197314], [-0.013770946027024104, -0.005033133896713188, -0.04700639436499771, 0.029576997047415947, -0.016676206082698194], [0.008406667156852326, 0.05066560426733361, -0.044745272315014475, 0.004092326326216635, 0.05854733032425346], [-0.02730502745865545, -0.009361690777473258, 0.043687792007305735, -0.004859491819407401, 0.008082664247128148], [0.008614153778212796, 0.013269500673933095, -0.03352572806996957, 0.0540383007936161, 0.008342467462708314], [-0.026750593905400338, 0.019868071971197863, -0.04633799885592493, 0.07947280856547072, -0.023054405463282922], [-0.018424475969533494, -0.022699291465517673, -0.01332893833550452, 0.04326591047554202, -0.0228804336554541], [0.02866221715649373, -0.019523008292610507, -0.015481447175888983, -0.08072794918758401, 0.06406169736991836], [0.05037676907977871, -0.022471633707257035, 0.005387681035741078, -0.03042068109853, 0.022005234071330988], [-0.03044679244461467, 0.012852814157038322, 0.018798938127618084, 0.06557597667320408, 0.008264624246757895], [0.003075804881304589, -0.0646932407057808, 0.0445412034913832, -0.017739863739438165, 0.040263700727292726], [0.027120324366381874, -0.0398801579171488, -0.0497208605920265, 0.011120212160906546, 0.0673386265035384], [-0.00965188429604011, 0.023554674435829745, 0.009993356594948094, 0.0467876377225485, -0.013332702452301698], [0.0066343493167969406, 0.04702804813336518, -0.02094446353269248, 0.025707448023955394, -0.04686122973225052], [0.005001208893322665, -0.005617331600170437, -0.02152639902078767, -0.018829452938922294, -0.004969956358163689], [0.03306030539314018, 0.02654309239061814, 0.06250864707773783, -0.0012408923814430587, 0.08100753748439175], [-0.04225001660303691, 0.01926681237243381, 0.02233820837997187, 0.0030859479280096283, -0.0009092486985203521], [-0.038664353122561286, -0.016804211656302182, 0.019476550309745752, 0.012876421438556992, -0.035605616687547324], [-0.01238831098717032, 0.036469900610010965, -0.0074568709705082415, 0.02001630694088164, 0.024848672982681407], [-0.03840469109878701, -0.03459889169772175, 0.053829214292231815, 0.02801415306641956, 0.0309771841863119], [-0.06328383651168487, -0.0022138579001460107, -0.0077956776008186335, 0.03390533770500683, 0.02715560507543932], [-0.07908864835895214, 0.036619572447126277, 0.04321094606272029, 0.04746872478632694, 0.024674110683241577], [-0.0815194201101558, 0.0021795828052235127, 0.01671594932043485, -0.013535253508985714, -0.02268664835809726], [-0.008542878751983176, -0.05696312917669854, -0.00011560429926399364, 0.021846828479649798, -0.0639651750549244], [-0.008663754276844321, -0.029187599815361072, -0.04942811666289367, 0.07586434875804873, 0.020827576917316615], [-0.0009526272866134857, 0.015264531159031014, 0.03805437899889914, 0.03458587655445143, 0.017791579109667863], [-0.02227430064795517, -0.005553628591952368, -0.06125425028581409, -0.002790584598658078, -0.0033389123412151537], [0.01558151625818168, 0.013648971571327814, 0.039422451903944895, -0.0029162901332507258, 0.018012367194904896], [-0.02919008393308292, 0.019627789518729254, 0.01191157224149108, 0.01755632161014614, 0.005768198590058097], [-0.009243345043983324, 0.0014985180475198619, -0.02895968976218787, 0.05228889851556325, -0.02334096393141333], [0.02437752558227507, 0.02867714066115313, -0.03209911909319318, 0.07473669789194516, -0.025902824520635512], [-0.05373106230892801, 0.04375985752923651, -0.007135554922661902, 0.02422145688955822, 0.009022329002918793], [-0.05041035254761922, 0.055906871280308384, 0.0007834917290497689, 0.03907642248475295, 0.035940674156740376], [-0.06421623946392818, -0.018645725839748706, -0.029488540945164034, 0.03483591755278582, 0.019719494735601518], [-0.010810915079112018, -0.03659028387885164, -0.10695712904606379, 0.024259535640893018, -0.027872085626067872], [-0.03930447526008789, -0.007901585586765488, -0.01893851840714462, 0.006534654349234108, 0.06851332084515803], [-0.044762962237332664, -0.02640902340007068, 0.011133227909530207, 0.020710640361413485, 0.0252518051096834], [0.0754385738937428, -0.004719460747472787, -0.061779795292931074, -0.01025715290568553, -0.002633093101608848], [0.04919711661939299, -0.03025788441604677, 0.024446687542948074, -0.0783643282781896, -0.026599273073161248], [0.06566181063255135, 0.02302045756693309, 0.03126718167503377, -0.04914791742044577, -0.03322116764891787], [0.016456621873892418, -0.0453154627440952, 0.09229831993614811, 0.035990703304430924, -0.01155489075525262], [-0.012125343422657997, -0.014019206831523889, 0.012990409420816527, -0.0020017986536497306, 0.010411567039059879], [0.035920366991908356, 0.006452735291756074, 0.06344666865903394, 0.002644385595638445, 0.052037384361724406], [0.03854525617054394, 0.01740288846578057, 0.06439045847270247, 0.0007371784540998497, 0.015207513740988837], [0.01044851354436148, 0.018377121742616617, 0.09395531872746031, 0.010206619528124046, 0.03788779168148644], [-0.00898503197642009, 0.026789762908013347, -0.011488055999171897, 0.0009308263998484756, 0.0749113841979977], [-0.050655455704634846, -0.008645356634412456, 0.02087560568467686, 0.04372868267891164, 0.09232983439095245], [-0.03878536674025907, -0.04151573781863927, 0.043536748179846846, 0.016017970653820244, 0.030251395673312278], [-0.023333987753981423, 0.030385563910899218, 0.019100172408514013, 0.01614654287664212, 0.011941632293100895], [0.05679644491214363, -0.0067726230022144415, -0.0032332842761412946, -0.0201165240522924, -0.05853087384481503], [0.004534760317521357, -0.007887381489738002, 0.03830688017219825, 0.004416329713692273, 0.026148770740949498], [0.01238961177859069, -0.019123457096356898, 0.05400905741374386, -0.007978029941091905, 0.053843341702022304], [-0.028945063003612024, -0.041097630004736, -0.016560287378895193, 0.018048712292855294, -0.03829863219092753], [0.0022710533737008336, -0.02423814146708973, -0.023122549369259105, 0.011115196890418599, 0.007535873244179048], [-0.03936404176385317, -0.06935944669654925, 0.01960017656509006, 0.0186752231131634, 0.0645865319581497], [0.03360281307859912, 0.01190808707125393, -0.026330541814011718, -0.00927263181785778, -0.004183215268954057], [0.022382671413476055, -0.01875863036033748, -0.02738712739966732, -0.025768730664417958, -0.013737334300239032], [-0.011981527851238022, 0.04769307502151928, -0.002429262490338647, 0.04461837084433864, 0.03061339337854399], [0.04048504569453303, 0.015422249102991654, 0.03713301841908117, -0.002112877117766614, 0.023248338672732884], [-0.015944582925204884, -0.030185942445603475, 0.03890288491680097, 0.0660457183456244, -0.007725769705675802], [-0.12510353854322084, 0.04766535648463938, -0.04113534285758028, 0.06498046442542953, 0.07661214823506478], [-0.03161291911819698, -0.03012094957296129, -0.007047299980674733, 0.09652702793886979, 0.008367319933475467], [0.020803173974085994, 0.06945883300292084, 0.030463114397128527, 0.032428924046510786, 0.0011025673040535953], [-0.00018120522071779583, -0.010925184206985976, 0.04196895585944435, -0.00756180863334125, 0.08467164539580724], [0.007742954912118444, -0.046838998951627867, 0.09632441828196324, -0.05033383777270645, 0.04585063222782495], [0.13000453875478418, 0.03818497968077979, 0.010571249722874347, 0.05351152623426012, -0.03843074673537002], [0.10287581715474742, -0.026000073713327645, 0.02161792465122387, -0.05971702263127905, -0.02022115216568867], [-0.004148307042855289, -0.03113255176829103, 0.11242616265734051, -0.021258850082468934, 0.053233453725034116], [0.011706572104916964, 0.024374636406655586, 0.004111076965337373, -0.05831944727313436, -0.030682327933386263], [0.010564697682987186, -0.004142930485759634, 0.014260722866958836, -0.08699722490125517, 0.044437386342858334], [0.06773651182001088, 0.032961619279841516, -0.025866819152319632, 0.008268969396206177, -0.03140676658573162], [-0.0016691327333134098, 0.004210606672923987, 0.02392847808472768, -0.000793047483621252, 0.016365112907784956], [-0.005233382259133755, -0.030827064531439394, 0.031060203198029723, 0.014193160611675259, -0.014988526672616296], [-0.004881621796772078, 0.08912568394829859, -0.06190045252749652, -0.01550583614792349, 0.027135568696003445], [0.019610810204480553, 0.023857541726148953, 0.0151236688508731, 0.03187543525700747, -0.026940343877170335], [0.02003627497351869, 0.029172876405994422, -0.014001729322434988, 0.006458249905437692, -0.010601015415068325], [-0.03848678917637132, 0.050587036797629346, -0.0261512630390297, 0.022408522005875474, -0.010798609760665599], [0.03630857666399214, 0.07538919974309492, 0.023963709805232596, 0.06897094461739975, -0.05671906818289305], [-0.04433558296279277, -0.01720509796553689, 0.03171521306013916, 0.04476286963664413, -0.06122475705945705], [-0.013991054307219723, -0.02441518516486651, -0.011836751570463601, -0.01799931881745339, 0.02976306405862822], [0.011585006374735909, -0.005209874975863073, 0.009636306153847545, 0.006467261849242374, -0.019161946990572], [-0.03191150732733574, 0.0012149236034208163, 0.057485563613630185, 0.0026859965134434774, -0.015092713421507753], [-0.017207066997655705, -0.014820645000773142, -0.022742164153332134, 0.009897002236024754, 0.0031071156813327057], [0.05937241214655205, -0.056068397578689054, -0.0015007385074822135, 0.016560945190804623, 0.02371155373876709], [-0.05880687480366852, -0.007460658416892545, 0.008859005900933501, -0.013432930878454931, -0.05863470695152016], [-0.006885217012518143, 0.036926259042895655, 0.025013566664896333, 0.0022314279064399784, 0.07080080476171448], [-0.01944134092201924, -0.003996992277380598, 0.0007388534406580301, 0.027971322640486924, 0.07762612184190919], [-0.01849656384692441, 0.015918702113864036, -0.03804038533809266, 0.05537357936320451, 0.005184397831491992], [-0.06641544980840622, 0.01285040332967712, -0.02102387326383386, 0.09091925299984897, -0.0050973100153170366], [0.01703523568782964, -0.016991431462038076, -0.008546738116068549, 0.016095789151937486, 0.009041907621291902], [0.028376051309529523, 0.027941739509427833, 0.01127950484513478, 0.013848822742181589, 0.015260864652510198], [-0.014812596146063808, 0.042550250682312114, -0.02170540404327145, -0.04126619653240142, 0.009029500634613198], [0.02682396120863788, 0.0013672609664139434, 0.004564309351941485, -0.016242097170422673, -0.09764917042149893], [0.06102143163151414, 0.027391272067228536, -0.0391021668723538, 0.019526150000857494, -0.006688801106865728], [0.12408396030584305, -0.009095376518422843, 0.05923705379322961, 0.013684006126796027, -0.013874804073924888], [0.0435344106299798, -0.031209346369943824, 0.02867100499815657, -0.07623862615841678, -0.011692437561885535], [0.03794169686735808, -0.048080415875572005, 0.001084244117504974, -0.012426803423717792, 0.006170644627381701], [-0.02147975065375947, 0.015365850731691512, -0.04261409874663918, -0.026543238297209455, 0.003967274160026364], [0.06911303383777163, 0.04455004790701616, -0.009000178923299563, -0.01576847164437611, -0.014926916696868561], [-0.013647948288723453, 0.03402198548535872, -0.0032864661414387366, -0.04138808608649997, -0.009816422173165718], [0.043066063951933686, -0.010494077964406507, -0.03666330091738334, 0.04994261921401335, -0.03684184937100181], [0.02451647376457378, 0.049886615710178, 0.0056244984114440415, 0.0560261018663845, 0.05087682160451246], [-0.0024203664179883286, 0.08245414416846865, 0.00817128984217005, -0.00027063378870439584, 0.02604557214155881], [0.007954012697556568, -0.04738202307717453, 0.0005832817088602089, 0.08936646330062248, -0.011409264268717105], [-0.05612232441254059, -0.01943374664150818, -0.016801859680674575, 0.05177724603137912, -0.024963452985827084], [-0.038374638452357925, 0.03096892623250266, 0.012483161519698976, 0.041415358153846435, -0.029524281619617423], [-0.047978951489439065, -0.016773286390107948, -0.012768108383995032, -0.02122354703406896, 0.04334822646623877], [0.01737135243386413, -0.0062747704090755346, 0.03839436271877044, -0.059249562278482305, -0.01837854031705814], [-0.0016659948274555067, 0.02316202884184112, 0.058391735255652256, 0.05649356018186243, -0.050402546987907186], [0.07081278331009563, -0.04434930024163112, -0.0019529578853687256, 0.005547039281935775, -0.016350988431950177], [-0.015720789683846922, 0.006126471166059664, -0.04277434049375121, -0.0012133010867610137, -0.01682841093446638], [0.028557342186014335, 0.06297755152371848, -0.001925986158877553, -0.0017562808264743877, 0.007410142323216341], [0.008347513959264813, -0.03594194327702157, -0.09336333560972106, 0.06586541431295065, 0.08589184036230724], [0.06001192418987783, -0.0333379989609744, -0.02870254663924993, 0.0014247085329990843, -0.054521904432617105], [-0.055979718570591246, -0.004790238091001777, 0.05406240938921376, 0.06652778060916475, 0.0029237732253680703], [-0.032747221433625726, 0.04549830811097075, -0.050192965158652715, 0.018926591334145978, 0.03728449057489406], [-0.048721852938335884, 0.05139265173127015, -0.019118282866555, 0.0384882976548643, 0.045220641091775746], [-0.03383296684875484, 0.0544267185921118, -0.01983003403849311, 0.03221119090881119, 0.03946704266926792], [0.02496879554670562, 0.01521068615529339, -0.010703433167670575, -0.0025816362542008284, -0.028692102352180046], [0.015698727593756907, -0.030817438093014172, 0.013327049257262902, 0.013194142798050281, 0.020221788131501602], [0.012424375531593692, -0.033861061679447614, -0.026374164997202167, -0.02334305895946852, -0.0065573040084780446], [0.0016356220737507759, 0.021744936599689537, 0.07747193703915635, 0.03816050141182512, 0.05840380717277075], [0.08646088452295293, 0.021168687908686586, 0.06298074241941982, 0.053154089766721084, -0.030095864732761598], [0.018106316963713537, 0.04772777267901836, -0.01765508502202248, 0.017929764311628647, -0.00560850611489004], [0.004254953195553722, -0.0018978223578419954, -0.003723753338717569, -0.003979529224589662, -0.00826497127106843], [0.03392732276001987, 0.0399051046979999, -0.025953186387644572, 0.014296309016154746, 0.043277685935337956], [0.0939555295484117, -0.06088163796987259, -0.0726648928899508, -0.06536223611778187, 0.015074291896935352], [0.04280252017251353, 0.0393723993019133, -0.01271473188268574, -0.06002482496671368, -0.03582209035997218], [-0.027921597569201963, -0.05523206877583139, -0.007925953241715383, 0.06614502340564017, 0.010175567268077461], [-0.0414558053125816, -0.005731703803836522, -0.06279669844864515, 0.034787179336090275, 0.11312952414341203], [-0.11195920926041102, -0.041960254971866645, -0.025091181144295708, 0.11653232495006861, 0.0364846557219999], [-0.004341759340441472, 0.005981078761825866, 0.02159206097437534, -0.017615957502053387, -0.0115820187383493], [-0.049543213256108484, -0.03874668263389534, 0.04640267577365233, -0.021001396486603464, 0.027316950109709043], [-0.029507325772176955, -0.06568683144314465, -0.023335209874244398, 0.002946347572220119, -0.0010521115354161128], [0.0001669071651997888, 0.018203714541818725, 0.0005262563533210556, 0.000679936081484162, 0.03584152596325565], [0.029446956281962398, -0.014746028208853318, -0.08828634150100712, 0.01171257863766347, 0.0010990931104929503], [-0.01781016491988691, 0.00046786647196909835, -0.031031447424913604, 0.01559840565489434, 0.06024318231548687], [0.018588152313628183, -0.020411870557160323, -0.022113614375625337, -0.042003677771681035, -0.041806032259865615], [0.03322025736205628, -0.018083335848754645, -0.028454084433136257, -0.0061482903029244414, -0.050747155033196774], [0.021912906709448017, -0.015081664329386325, -0.008882548176345888, 0.05057738354898673, -0.008498968597677754], [-0.013415524974885967, -5.300763515427943e-05, -0.017854062244737897, -0.020109758624317776, 0.015072001516812098], [-0.01606551844800384, -0.010483147728768424, -0.03248219185929556, 0.050032214449062015, 0.05363713400219442], [-0.003587777180233976, 0.04745449491339875, 0.030225807205801727, -0.013880047442947041, 0.05168510839526036], [-0.019744979418956997, 0.03553549304856094, 0.0041817410790009595, -0.003661914549594819, 0.10219327210575233], [0.008341890634715545, -0.008697276001321834, 0.015754200193828227, 0.0411843161067011, -0.0017756916764770888], [0.01492277258103274, -0.00787993656877139, -0.00029040588284357866, 0.05588599701456344, 0.010873782516641345], [-0.10021014282550704, -0.07053901464902478, -0.011146210829840242, -0.007593283323146379, 0.04840412398319301], [0.03098460667421657, 0.0013273678760505568, -0.027483825875817387, -0.0029247550655714, 0.047471216596256256], [-0.02555983092911756, -0.018997357288258354, 0.053935410212349315, -0.038248446313153515, 0.015588517491454248], [0.04269551927788007, -0.029270846956993644, -0.011071315424945816, 0.0019624664796135585, 0.011682437823454102], [0.04714201575275381, -0.023902983556205404, 0.032559454304916864, 0.04137237597069614, -0.02586963936532066], [0.07395199741048575, 0.010505500063822584, 0.01652507114009539, 0.01705081950196474, 0.002952521929432785], [0.04289581704990569, -0.03162927976780161, -0.06145944553601939, 0.0474700171266433, -0.006239763596344971], [-0.04272901526336626, 0.029620372419583898, 0.04006382293699395, -0.025150866513812223, -0.002539508600976691], [0.03540981929646144, 0.011724841821608843, -0.06161442675103746, -0.010049061203269916, 0.03489547240607901], [-0.03544708700574173, 0.0167982075628535, 0.02931891054897198, 0.016505058156930454, 0.0015386457659492694], [0.02294082237957096, -0.02677895556485561, -0.020054077967976265, 0.07575569377668744, 0.04277903755952809], [0.0431521206692091, -0.059352752809108615, 0.0035524925915781406, -0.003600727537188065, 0.00037215483666874777], [0.03814780316562888, 0.03891687965206381, 0.005468262959753675, 0.04286928097557783, 0.06872607238365476], [-0.010183215937111129, -0.06325023162837792, 0.060509338370805806, 0.07185061088804644, 0.016326302207000983], [-0.007902900861306763, 0.004534135922180032, -0.014271889237447155, -0.01684351151623967, 0.02211894067830513], [-0.015128001611412669, 0.022452370269331185, -0.030157680157876777, 0.039164245019831026, -0.008424913102536081], [0.011715433704019746, 0.014770689453391056, -0.026828451570042242, -0.01697168235492714, 0.050585262367474924], [-0.07433627319728096, -0.014433550523041537, 0.010577458891175145, 0.021133191865101507, 0.0035011837464208008], [-0.03783174890485013, 0.017704597007147636, 0.04111772156627447, 0.0799530783309744, -0.00024506424126102247], [0.028980706063829027, -0.033717556450187, 0.006654371471072616, -0.028199855107767513, 0.024034433220035106], [-0.01834932126649717, -0.016157254370764085, -0.03231977054554756, -0.03809423395369283, -0.003862112178225384], [0.002591184852062076, 0.046260556908922404, -0.05419486604578333, -0.029948135438224225, -0.05414281063743167], [-0.048813625105648586, 0.06384180139481327, 0.02162384500849195, -0.009369446318958495, 0.025702908350867935], [0.052968750775766245, -0.020008870444526292, -0.0049837822078792155, 0.012601784501840314, -0.05725117553989214], [-0.01061229351816724, -0.037459695301363886, 0.03677222888755644, 0.008404113174317772, 0.0381891290374557], [-0.03982047624174278, 0.05313752459449277, 0.003996085688306627, 0.034771151889761216, 0.0651256681440408], [0.02426013426714406, 0.004677099813316346, -0.03889192251686145, 0.0049613733580238205, -0.02909208675589301], [-0.021816964463017074, 0.05956812758924579, 0.004115397769909827, 0.06640414700471015, 0.08205403772843999], [0.03218451847585064, 0.07644738486468489, -0.02341284884853573, 0.020537316034665458, 0.01597166771001506], [-0.07938639467848947, -0.013557823714294865, 0.038826411542239425, 0.03379094695287336, -0.04740330777169179], [-0.014361375132420308, -0.025209433046398506, -0.032143062610180545, 0.025229640467267438, -0.017813153200785435], [0.021264548849186493, 0.0165836667490759, -0.0021958214962770643, -0.029708390330875245, -0.026113517469685623], [0.0409148596502999, -0.0437793378071831, -0.0061677602802870535, -0.06291848623965933, -0.013849226883558224], [0.007073379878729066, -0.05439713343176788, 0.10409828624951668, -0.01622626942092466, -0.00559365069585389], [0.038447451270225266, -0.00037111816282774904, 0.010108945716270946, 0.03854654573291514, 0.018944453493745485], [0.01601901100071673, 0.00850324673804139, 0.058382248014017916, -0.047633394049583756, -0.08268767492298819], [0.0053142042246356845, -0.06632236042430256, 0.004747924966307753, -0.009389250176115695, 0.0022619629755211723], [-0.01157324632668046, 0.0004258439681849828, 0.050611186119848585, 0.01126024511929538, 0.009635798812588867], [0.013301981736600436, 0.04057433862289719, 0.021696736643980644, -0.011578641503835871, 0.06512416062346259], [-0.015600376047190312, 0.03549904381247879, -0.018278151768663924, 0.15077204492700821, 0.03091777201491719], [-0.01958924369909707, 0.04677822457274421, 0.00473213316292857, 0.03682602575668206, 0.01054657173941771], [-0.004072254763036759, 0.06911124458425813, 0.057615615718318636, -0.011219164722875338, 0.020801851603652156], [0.042123151413430336, -0.02314657774039379, 0.05021350622068248, -0.011864383308781395, 0.038829861563299505], [-0.01873429216893918, -0.030600671679917577, -0.02343070444416977, 0.012996421046351712, 0.02805396027949487], [-0.06203224902339434, 0.031161779293126784, -0.01976773234990731, 0.009372924080449908, 0.03433568276273654], [0.004962779530344253, -0.017572015148073026, -0.06293541711715185, 0.0485082974938366, -0.03762700149163269], [-0.035567447582955186, 0.0009573356862764296, 0.040287199869034555, -0.03247518423071478, 0.0029344542647369285], [-0.021986579764997568, 0.04510759831049795, 0.07930129584409651, 0.026423452620724562, -0.027641764530490887], [0.035283663591443346, 0.049246541140609106, 0.051074578334842184, -0.02310191115469215, -0.03353701581344019], [0.0052606985865167955, 0.08373146962794441, 0.021887901716922533, -0.020228934610892705, -0.003980725188094988], [0.0065985456776497, -0.006799801117794687, 0.013818501840915072, -0.04890897325206532, 0.006444257204681652], [0.006352421638740174, 0.036609888396382975, -0.012115463041726409, 0.015774116974130163, -0.06380062904471559], [-0.026082705629984784, -0.05049176470448019, 0.0014684816379464552, -0.029474634176369627, -0.027308479971170408], [-0.024761568401274848, -0.03816087960787032, -0.0983306441282057, 0.003537939206124507, 0.03672524136805094], [-0.05372366212486522, 0.010390886621329917, 0.06742785692562354, 0.011550011268772968, 0.048600952127196215], [-0.031674336646887645, 0.02216827019777034, -0.01808673949888585, 0.026316085698724588, 0.050460102160916974], [-0.0148823304835567, 0.011719740435177557, -0.01320209285606516, 0.007875670654653113, 0.034534833902996206], [0.1417858363250275, -0.003092205777790127, -0.03050614736702407, 0.020974770140753125, -0.04113403384958397], [-0.01783916988488081, -0.027693361405240622, 0.027570504339896402, -0.04130138860277254, 0.04237833545461294], [0.003912523291479822, 0.057022447251395554, 0.007233325462711974, 0.01149316656215078, 0.008305155782570678], [0.04445086764824456, 0.007828888875301875, 0.014070850440895458, -0.023984520099101774, 0.030072036519364333], [0.05199462882761455, -0.010745002330151009, -0.04990144331610058, -0.01059722019880075, 0.019366878640579753], [0.08842192953569505, -0.02057570312981439, -0.00035177828918742956, -0.020334790561808064, 0.06929515640355378], [-0.019634927095595466, -0.01818686947676727, 0.0004560574171645209, 0.007591159867382186, -0.02553177112999313], [0.010129932278976335, 0.06315866875163677, 0.021387608728526065, 0.03163753364859367, -0.019062571440747515], [0.015357249309892056, 0.01263361121460231, -0.046077105479164576, 0.019533573924684626, 0.019906196190759888], [-0.04303389912057587, 0.0266733891675132, 0.005737858829972174, 0.0484475461477673, 0.0489207271522193], [0.0149665537833754, -0.007930032214589737, -0.00047990323207662994, 0.007749956993581194, -0.00715711855065173], [-0.010026187092684108, 0.01699906533312326, -0.014393851702015716, 0.03904767326106328, 0.06111175731733311], [-0.014842424469832133, 0.010710268471715809, -0.033180932671711426, 0.008746211263167268, -0.02392997373020925], [-0.014681154940320901, 0.059196969136364734, 0.010998068698161678, -0.00011286383404527613, 0.027234781502945754], [0.00287805699694266, -0.024925813701651253, 0.011568713305353646, 0.02298901733343483, 0.078135942765912], [0.024127634246942607, 0.015399583753907755, -0.06404990942256976, 0.005833651771200079, 0.015907764164458528], [-0.055051791074611986, -0.023664474068197935, -0.031024220793320435, -0.084149117860974, -0.03805480709416829], [0.02134393899661485, 0.048628046421298296, -0.013280400022173977, 0.011096400179257079, 0.02169694134657291], [0.040333944503345466, -0.011310636952823434, 0.04204819613623828, -0.01140576370310954, -0.042556895039347446], [-0.017238394697538607, -0.06625252420739272, -0.056262408436283474, -0.024581001692128856, -0.012089523188256205], [-0.007724450805813843, -0.024982542243557976, -0.0385768095176371, -0.054132110590641776, -0.009652351201811089], [-0.008874232968636457, -0.049396466526545155, -0.015292737661691253, 0.0013061022222753877, -0.024689943854231677], [0.08976218321512706, 0.07971441200775783, -0.04036963563507688, 0.06287212404056072, -0.016290615168119898], [-0.040663943969572174, -0.06019013345836904, 0.044943711647227484, -0.04991213802586516, -0.015614447288827158], [-0.060953525745846775, -0.011747603012722619, 0.027371279805713977, -0.02429656921133973, -0.0016391127041566855], [0.0040149179685370255, -0.00938206992237735, -0.03433269225746879, -0.01254633658752853, -0.0013690518284718118], [0.009101571141862217, -0.019819889666632236, -0.05499580338426802, 0.038278978795423926, 0.01792342643104633], [-0.05691897699026321, 0.008789502510715069, 0.04630987480701373, 0.0114936871830715, 0.046542618797659766], [-0.010181781552399844, -0.03886969501264554, -0.016799255442709146, 0.08622368937820044, -0.06958298067217404], [0.06318180140401557, 0.024658142457823398, -0.007958144033900726, 0.11801983648125978, 0.013469932183780394], [0.023869628351223676, -0.006411142974886451, -0.008146136507764875, 0.016499923750145373, -0.02229577569797315], [0.07272715006739218, -0.055677806713316146, -0.011084345179721582, -0.012625421039379038, 0.04170255872125991], [0.11557578113017188, 0.05713696595767371, 0.04221751468631364, -0.045529373189416106, 0.0018049675273436585], [0.0815254845469856, -0.008613190701221709, 0.02765484264372106, -0.04001462738401913, -0.029866096917616082], [-0.004022275340695392, 0.021417018453801517, -0.017769865056832593, 0.03032122321485389, 0.012757510178995112], [0.017803970598972204, -0.09003747269274166, -0.02772632839989859, 0.015420240351059055, 0.03189786228957266], [-0.02950842337552826, 0.022401701483912486, -0.0041125655041588565, -0.002035152269849603, 0.0352907860972316], [-0.015883292690924495, -0.0008984482493821075, 0.05265938287598934, 0.08237154904663707, 0.016335891731861372], [-0.02055720194231267, -0.012411218727535705, -0.031487488194007984, 0.09923270217212948, 0.03109114301043414], [-0.014271728848325506, 0.036225703002798246, -0.008781316733410066, 0.018703525788192687, 0.011752331097289632], [-0.017557392200960212, -0.04195537383130793, -0.06426094144191481, 0.019680750574142862, 0.04800440272920985], [0.04494509512741206, -0.017225003399367864, 0.015082555634974818, 0.0014736537857849908, -0.02928192479252737], [0.004015817634042992, -0.056235395800073515, 0.03141872205800395, -0.017816553306552844, -0.02249885738514576], [0.009327593857800345, 0.012145211507971862, -0.02852770272904126, 0.023075716837278673, 0.041296607999615265], [-0.008534458235073308, 0.0020144654919708933, -0.03259412581945242, -0.028674677896999744, -0.02013885818145467], [0.01749603137124651, 0.051580060060930084, 0.03315528831595048, -0.008578814301642137, -0.07198485557265513], [-0.007909127545555276, -0.02369996313915353, -0.014127802427844458, 0.05239098315890008, -0.07131137091692119], [-0.06405509441628124, -0.024916960566250305, -0.014745555288669793, 0.02093866582127677, -0.034953236746829056], [0.03960445133826086, -0.001752284886446952, -0.04778447091061564, 0.01522098908884582, 0.030108546435366777], [0.014471432399104478, 0.005948598933439388, -0.05794735586723587, -0.019364812014424086, -0.03922003245128036], [-0.009393781464765593, 0.023634868598097495, -0.026113828177834527, -0.05014984252600165, -0.0021228100565715883], [0.019297909799490826, -0.016132609617829773, 0.003931132461303849, -0.030701107246364198, 0.01351336332846278], [0.031230377318075753, -0.01518551076993376, -0.0414035206520105, 0.022018756796705306, -0.011427819865593311], [-0.07722616188345463, 0.02595782629045731, 0.020598067941998848, -0.06126729746260436, 0.08489126389622859], [0.014734142449477235, 0.03451219530474182, 0.03318835750346386, 0.016204994929304814, 0.01297868336980068], [-0.032000283079513386, 0.01975458947815748, -0.0054281133042544975, 0.029786716388699796, 0.030379521835454854], [-0.0541781196035402, -0.029167818649363384, 0.026846141379297146, 0.06403321360827306, 0.07432204858025886], [-0.0059020166196012795, 0.0009886605922793032, 0.05157104968623289, 0.059994251482511494, -0.020118281567931752], [0.027115319814119875, 0.03596743753606981, 0.030456143960510506, 0.05437358240939335, 0.01557114698632922], [-0.011967645436277048, 0.0016403319020005277, 0.03209078605856749, 0.09872068526107525, -0.01229663366325044], [0.03606717589578561, -0.030354797347571936, 0.0002259692868010845, -0.004174992765486662, 0.025004697957855832], [0.018527912604636338, 0.09078012594581931, -0.016102348658805058, 0.016280764842270857, -0.05593925267030861], [0.0011171632326914835, 0.001869606747454499, 0.030113137352147115, 0.03139084465744873, 0.02174935651134516], [-0.015530299663889675, 0.050644196899006205, -0.05025216169560812, 0.019052975688212206, -0.011880292396627844], [-0.01063629521231221, 0.032404146970987056, -0.0038741494551709187, -0.01687493667300192, 0.005469531046217686], [0.02167519541589546, -0.08279662317999295, 0.041918786758354205, 0.04929480577953772, 0.06442661354276208], [-0.0006786944672865656, 0.06153847840043124, 0.012773099430368104, -0.0008407516115418493, 0.022296347582874774], [-0.000706919930088985, -0.019805503827272065, 0.001744195725438413, 0.037508769964390114, -0.03644367249446224], [-0.044307977021427525, -0.050859314664406276, -0.06262178017400412, -0.013195131742920531, 0.013780801386108812], [0.03327269394176706, -0.014411507094117613, 0.043875142846163936, 0.0010765880971122356, -0.00340323349295358], [0.029828986885165464, -0.03302856157036702, -0.05555851232538476, 0.006172245278513811, -0.026414901507512994], [-0.02935322377332563, -0.03445806862843729, 0.020736988718731635, -0.008803533522049264, 0.002843312271971419], [0.05980975103764586, -0.042446666768282015, -0.036399445754980234, -0.022318022187316964, -0.04689717140090233], [0.031924216113154096, -0.08696866801358982, -0.013555941615279248, -0.053893348115821964, 0.017041877735786325], [0.03108690536284407, -0.012161473665265305, 0.02765975369593111, 0.012765479408015529, -0.013777047236277169], [-0.03612486179739322, -0.07309615217583475, 0.047047616710109035, -0.03550469249220559, 0.018089358036621615], [-0.033922993567036624, -0.04265190961280673, -0.050485612388293154, -0.01689008943430661, 0.014724168588871106], [0.021648985918778348, 0.018898628886117513, 0.02218221770168172, 0.012685210781897343, 0.02326815031361124], [0.033768648515980736, 0.0005439172731229792, -0.003770009565594337, -0.03724170571992682, 0.024662372773542263], [0.04062676530093393, -0.011040550480579614, -0.06873070422875675, 0.05694314046600824, 0.027356210413125137], [-0.007594381598628548, 0.05772323471683966, -0.040349712063496725, 0.044169242963597935, -0.0324576766653034], [-0.09830594529692739, 0.0717925633377485, -0.04225173222679646, 0.02818650875046688, 0.08103081407105486], [-0.013706734817824582, 0.061490594546532544, -0.02557170363294353, 0.025627574061618218, -0.06387398208356902], [0.0016565543280724156, -0.0021130360545300124, 0.013838349590872203, 0.023866497400560908, -0.01420951216326978], [0.024126929597734926, -0.0033611605053963023, -0.012034692986295633, 0.0523403507941827, 0.02650589464871698], [0.0035844157638240588, 0.07809371951168241, -0.024240180127308858, 0.058558183814785676, 0.03163911921442645], [-0.02231269429394935, 0.001065443688469568, 0.040685067315581705, 0.022356285239136017, 0.001884081554769897], [-0.02357259510568547, 0.00961158228054306, 0.030624001896411294, 0.06548220275569709, -0.016796345908213328], [0.01428238582947838, -0.07523338465037603, -0.02877989192969459, 0.0677806960958519, 0.07339649883517801], [-0.030697996855010408, 0.05207392638984177, -0.06857983634231687, 0.04425227218643514, 0.03040110848138517], [0.009208531781551411, 0.02533189913273535, 0.0903034839219341, 0.06811759663260795, 0.04515060589059245], [0.023486597479960337, 0.00039714073935562087, -0.009755605644620198, 0.02956476090258229, 0.029294941232565045], [0.043163556846594425, 0.03643932064890148, 0.009835285352610587, 0.018797983779863924, 0.0003861041445878278], [0.025286065469783823, -0.043342404277796426, 0.0848698573053847, -0.013069742143185832, 0.08847688505743953], [0.06223906201273756, 0.043648587866001176, 0.005705489649572004, 0.0017630762803105325, 0.06503274820123495], [0.007814939195043655, -0.027020388829740626, 0.010686989520330798, 0.026812494704154154, 0.00923782499224318], [0.0031539065803409144, -0.07051557733360021, 0.005616527988933398, -0.025559172852298813, 0.014279638672886532], [-0.009487672174066058, -0.04912534583386903, 0.008071359034079342, 0.07824515947417504, -0.054698208936969146], [-0.02408956898684698, -0.009897659932498453, -0.018646301120044315, -0.0885177027809564, -0.008064162141881971], [-0.049687169618639324, -0.005055855755351454, 0.04466512593863305, -0.05137484909352309, -0.04312311843868916], [-0.009820111979336446, -0.02285193124579583, -0.06174187586037934, -0.012056520048095137, 0.04691111425527859], [0.004196941774237707, 0.05631581650131738, -0.004535531126365437, 0.03361319722389786, -0.07206160400765162], [0.03193837887927452, -0.037292936076981524, -0.03511928119383075, 0.0018141131809811175, 0.024096181595585218], [-0.032073203653700415, 0.029969033809818604, 0.016555749992102305, 0.007360441888558632, 0.0028854024223506454], [-0.0028055896706042117, -0.007429249326228069, 0.01814464707839322, 0.005107362588806656, 0.01996701269730748], [0.015051519099130781, -0.007972178078142376, -0.044176703851897446, 0.0008220023782124119, -0.033457758256962164], [0.06247075867410507, 0.024520205207191757, -0.016597442790093682, 0.018020302634952617, -0.06089922985011576], [-0.030780306885601585, 0.0046562031253121776, 0.014886993770597403, 0.017425996434942612, 0.011229495116154087], [0.038648020874757896, -0.05920879084235181, 0.05754158330799556, 0.0016873642855736526, -0.020611001348694], [0.0013781698538280313, -0.02086661336183156, 0.016526245910260497, -0.023788881532370618, -0.026122687336599587], [0.007515086821173337, 0.04124783797311718, 0.016565317548807006, -0.06977351802125438, 0.030824813819156662], [0.031035464727975054, 0.013780860349999709, 0.001769316399708297, 0.04974107840940349, 0.02155013418245368], [-0.014407298883894165, 0.0070729058161557515, 0.012260520871673893, 0.0022351096787651555, 0.01421715566918843], [0.025983076574451477, 0.03343328932989299, 0.0033779089437100808, 0.10764023813246358, 0.0874083479291873], [0.01368930545783262, 0.033861891930678345, 0.05585238322764672, 0.028841942563875008, 0.017288848059902922], [0.026367108253080886, 0.02248355722589157, 0.038383058254527876, -0.016231166435320504, 0.07454394298820836], [-0.029291292207543937, 0.06879569427645643, -0.040006967699023656, 0.060720515751673906, 0.028379631699021215], [0.033739069795156416, 0.07684662874963616, 0.031254363921952716, 0.05410994096988614, 0.056429412243054144], [0.028217590066426004, -0.0177896732706893, 0.017234735404368255, 0.019341300026265988, 0.009385808642371738], [0.04690370139631551, 0.021146324922632995, -0.09574157247328577, 0.025523661176147936, -0.00879274074710638], [0.015175571094087468, 0.027591166846996324, 0.07514019603881898, 0.07210115717339072, -0.07984256865928734], [0.04395774259492874, -0.010602666540491443, 0.049113248165209206, 0.005540662322098492, -0.016274641281403615], [0.03972675733572736, 0.0001527523288168212, 0.024461613150715912, 0.01466578721856452, 0.03142442189159997], [-0.04776543453825379, -0.025606874567257378, -0.027166817774233437, -0.03518798231419919, 0.053659479975472574], [0.052379580797574925, -0.04624082887686864, 0.030260734167396486, -0.04249786166083054, 0.002419740670201373], [-0.0005926870571684317, 0.003996251805066278, 0.05321593097695343, -0.04766203195647955, -0.009022635168125204], [-0.031537631771506994, 0.00461866777073626, -0.04348145457885667, -0.01089588640364582, -0.00275478269489247], [0.036562911679814444, 0.04159622072648071, -0.0381847349403552, -0.04451142371509319, 0.019411197297807162], [-0.040353138288947814, -0.06128026692718059, 0.01027752820982647, -0.06138841179389115, -0.012905199251815066], [0.018857579721565213, -0.018634007048119523, -0.0430410174992013, 0.04546099992287504, 0.013604196439999345], [0.0353636543421569, 0.02441085162794156, -0.016398048660706436, -0.009669300112667093, -0.0009219991703818198], [-0.031838993049199564, -0.024429309233471554, 0.039825953685319625, 0.010107187784746997, 0.08630947368439612], [0.016817751555894215, 0.0166087419324997, -0.008126531430115791, 0.09700101206341563, 0.03629384220048209], [0.019721525058812257, -0.023826181191322317, -0.0025175018963474296, -0.03819818258930973, 0.013789482728335743], [0.019875570021374255, -0.023624546198759096, -0.036615295360407904, 0.030752189887595146, 0.09792801016652763], [0.04188335762034412, 0.00043355169199756077, -0.0037694588141931403, 0.05692430546718235, -0.005439981879067275], [0.049200037737378896, -0.05442643311749283, -0.014913057549240504, 0.03983112953672343, -0.04195200697128935], [0.04414577240369112, -0.04978218937384946, 0.030700793553122635, -0.0319058567513226, 0.06307712397541186], [0.03120829749074236, 0.036588008419397224, -0.027611639859426284, -0.022398178928715182, 0.05562163577357652], [0.04947889735014522, -0.022885534008459975, -0.012961291380146976, -0.01091072981847751, 0.03416003782829268], [0.026183159879633607, 0.005266672329311543, 0.031002834012292375, -0.001799789331870298, 0.01754785467216266], [0.010103602979627107, 0.02716255125613094, 0.060732650278523335, 0.08677195894978855, 0.0246587987567922], [0.05161476632097898, 0.018177547299343007, 0.01850844139898441, 0.01873184225910597, 0.00856822401227619], [0.01103362659094021, 0.018330722312695513, 0.0477850014569739, 0.01858102564562189, 0.027609074355292026], [0.035070309172486006, -0.007807716979568163, 0.014650280750941963, 0.07389365363063646, 0.02926145400146051], [0.05993344313480003, -0.003614453231379214, 0.03505624144943019, 0.05762973355635685, 0.09203181035656029], [0.05253318863803245, -0.04616203274954863, -0.03713744412136299, 0.04167845118412115, -0.08632908118005822], [0.030411570607020533, 0.06130226017471061, -0.01263881665651367, 0.04477680402497971, 0.04944842897993253], [0.02749131010195229, -0.024120626225412393, -0.025487226124991533, -0.010140166317106233, 0.011599691468510472], [0.0005331748984814636, 0.0007151714282072906, -0.02090362609053716, 0.040449649613092525, 0.031563291248561505], [0.06375326699155362, 0.007393608392671034, 0.10131209554866759, -0.04251015264199735, 0.023650463947827126], [0.03675629142746051, 0.009962789606134842, 0.04626745763110699, -0.05062015586147766, -0.009874804889708844], [0.041830082088277, 0.01917773072678381, 0.01828129780125796, 0.012893571174419704, 0.00039610697947312724], [0.08573795055522933, 0.03703098766806432, -0.023658402669899752, 0.011324761170238583, -0.0032693184579332493], [0.03428551841747246, -0.02467816956370006, 0.06521162893319588, 0.011857230754063, -0.0016164362588372207], [0.016078118069314896, -0.038540333673138076, 0.04267078066893049, -0.0173590797728429, -0.06563753076390831], [0.003946186659248065, -0.039306557309001226, -0.0729639443328366, -0.012346371237559101, 0.009840515317364318], [0.032584606836772105, -0.039443043947071654, -0.09813774509035199, -0.004053971212423939, 0.004908813756251817]], [[0.10920008998719473, -0.5573817549989352, -0.05953452505521203, 0.7618969720861597, 1.0660367883753123], [-0.2157202776078513, 0.6267132259369761, 0.33212546116192415, -0.5343895698124944, -0.10584338303489393], [-0.09367549072033413, 0.4269532828580065, 0.39645079062531546, -0.36686578672877435, 0.5297591016116395], [-0.20797912620933146, 0.6509890902087507, -0.49285701638975216, 0.4255324233224362, -0.2218163778236174], [0.09886668775088416, 1.0657431138944384, 0.02205372447218973, -0.04625222748394317, 0.18700759706734135]], [[0.08251400680846532, -0.38333745593106], [0.9944340319811127, 0.0015933775115537067], [0.530717953743538, 0.012203902992816597], [-0.10834904512615978, -0.3598353183878746], [-1.0587403556854569, 0.8152435497397675]]], "biases": [[[0.1062611356582272, 0.01223421731024742, 0.04631354624535627, 0.029119097003405467, 0.051960394329728286]], [[-0.04481260299456442, 0.04445895631450096, -0.028056816275414, 0.001706921075724567, 0.16260324967658338]], [[-0.0006129912129772175, 0.0006129912129772203]]]}