{"layers": [784, 128, 76], "dropout": 0.1, "weights": [[[0.023605684004004063, -0.05399320616144872, 0.04377924441585012, 0.04417323545872176, -0.005524896673748373, -0.033403271032080954, 0.018197037545800664, 0.010116590062808127, -0.026612881153196637, -0.01348275284300507, -0.0012774621363784606, 0.013359780617323513, 0.005388901812188271, 0.004858501570499431, 0.017601222193821427, -0.0315216135482069, -0.020667085178206184, 0.05641827937977631, -0.0329086249415593, 0.0023023107782484697, -0.024948709141925738, -0.0018805327229750605, 0.026558316755446006, -0.022973672212458992, 0.042052701469636584, 0.010740488982148322, 0.008970391163581714, 0.0581217015177383, -0.09381168603128076, -0.01879084501358201, -0.0031900016513063205, 0.041733651104356846, 0.057682748012349114, -0.02615586287428441, 0.0059244342500594524, -0.04410890609443654, -0.012146422325314344, 0.010356689246020425, -0.011606448463343865, 0.04513009831174978, -0.01311698580517739, -0.0064928100880155765, -0.010146065159227335, -0.0012677285449442072, -0.04718653009790768, 0.01868602505763156, -0.0026298338058867343, -0.0037032089375951165, 0.03806934581438044, -0.041695087033254495, 0.0650704720476161, -0.026162612152910755, 0.07687732620200241, 0.025021925303588988, 0.015729668905698407, -0.026573322796548452, 0.01778638045757806, 0.0032523640897947305, -0.011159896568013717, 0.020725634605562825, -0.029518571819732605, -0.05070429453951488, -0.0014509078984196646, 0.031129456424191744, -0.013761319135618153, -0.02005622301371152, 0.025880501851307875, -0.02676416048493703, 0.04530522090412024, 0.009884961755476158, 0.036280768318551246, 0.0502643354945858, -0.037274919985521814, 0.043074518237646235, 0.005078543472988588, 0.04485027345485966, -0.017872284333172797, -0.02065213187912222, -0.004619284317020132, -0.0015716422214387652, 0.005958511418617282, -0.01696822784646883, -0.028642996345777452, -0.06491904963249083, -0.03066269987709152, 0.010359386912360219, -0.031507695130567684, -0.0031534853681773295, -0.02859324851538122, 0.015446573292852036, 0.025652439726101293, -0.0019129224054153778, 0.004938626437951102, -0.07500068813803944, -0.012273711082572027, -0.03314588204126671, 0.015680693544017063, -0.015926653730769142, 0.0023002752320423828, 0.004724135255729268, -0.009401861969541554, -0.01854191483040972, -0.004211723152226477, 0.034584735529854235, 0.023756176380544867, -0.10626161349178449, 0.033284815288107776, 0.0007396053760105667, 0.0312428056805438, 0.025382245281443224, -0.002326105293460726, -0.007098058493587591, -0.02078827302587554, -0.03388387637250788, 0.046083832812175894, 0.020799716667169458, -0.025904249237038726, 0.009273674132649746, 0.026842048739896093, -0.03650234412616465, 0.0033391689732468442, -0.057096114365600706, 0.01694060462998821, -0.028965746502824706, 0.040267931827623914, 0.007525176971582166, 0.0769506146575118, 0.030730079681569197], [0.003928438553000385, -0.05808013260190841, 0.03795528020202233, 0.0031343751031851106, -0.04389572428444198, -0.07565475621119981, 0.06073008682063935, 0.012976887794011367, -0.00784751815605685, 0.012877280603560044, -0.02139953325896796, -0.0014125708389683947, 0.06573719309767254, 0.06696868582523939, 0.08117145828798464, -0.045634344830202275, -0.03208653513827129, -0.039062707524429106, -0.005124559500371712, 0.02462529673346761, 0.07915562167189014, -0.029867723063472375, 0.017657789627969895, 0.001242031924667945, 0.04288898971718559, 0.02234901652060428, -0.011381879604367217, 0.09450468106501957, 0.024806387545061488, -0.02315338508526274, -0.030782807098917016, -0.058413734751260216, 0.02946076196822305, 0.00844512120241446, 0.0010220038079423758, -0.023654140966825183, 0.07163594270711637, 0.026258169502552244, -0.01849516562366895, -0.04958394422680177, 0.05517425038391597, -0.026472175740626318, 0.07485686216031823, -0.021318978626110457, -0.004257885146047524, 0.053427894647149275, -0.047971796303394716, 0.03252912321060722, 0.027652188359596284, 0.030265446212190624, 0.05997174054661739, 0.010965025880470238, -0.06061505403379638, 0.08271727472624336, 0.012336172895694473, -0.019762327198170688, 0.0373364454204225, -0.014863339351553028, -0.03272389816238597, 0.04506280467859673, 0.024023608229340465, -0.005888357727062587, 0.008659798689768275, 0.05456499184342887, -0.09419203241562887, 0.013664122807945257, -0.05449248894893863, -0.04381486690564011, 0.015784873584978237, -0.00565587574382786, -0.03922584904183509, 0.05775811072087604, -0.016440028238526635, -0.021257936793702095, -0.04649469364913021, -0.00930098175783328, -0.05313990582788868, -0.016726841924751268, 0.0155396752641998, -0.05354953690635581, -0.049652845941094106, 0.0004391960648845648, 0.03682600455217425, -0.04879770969952147, 0.06051643227451406, -0.02438078214769241, -0.0004995854087251134, -0.026137481659670125, 0.02518221021007576, -0.019208616376709092, -0.012462845027114219, 0.04544287390650033, -0.013446054885015863, 0.023560209618079385, 0.0241501306442459, 0.0007576077105463812, 0.019434534775712903, 0.002590823073934397, 0.04362583446109787, 0.0769597082880068, -0.01896386577216403, 0.03376064400658283, -0.05261192490924384, 0.06591202238672275, 0.11941027422758885, -0.02227089899270163, -0.0004873266664544868, -0.012827453330759925, 0.05351313900029936, 0.0024148046319392774, 0.034075072089139825, 0.02068955159925615, -0.01038580683114007, -0.024264640854402966, -0.00016737760761565882, 0.010885348194959071, 0.030613924250610353, -0.018258824828679836, -0.03151582227188229, 0.02267458971915391, -0.009660642690460146, -0.006812257576637786, -0.04109687637892526, 0.07550715954978807, 0.009336085857397553, -0.02429360379287093, -0.03133863172245684, 0.04770646412369218], [-0.02822100557030494, -0.03573503622867093, 0.0846088279972117, -0.036635995451837114, -0.03720399190648721, -0.02203908602313138, 0.010707312120616558, 0.040696221293708264, -0.00016695630502985452, -0.0031963063077816763, -0.06372352313381077, -0.008548406828531972, 0.07371275910465637, -0.04082183112802305, 0.04254291083156951, 5.050112734861642e-05, -0.08314305789565335, 0.042353790167671865, 0.0003366714494387785, -0.028764566911704793, -0.03772859507293023, 0.0811999453872904, 0.008553046408392977, 0.07488797822378825, -0.02667906500370251, 0.05053523658677634, 0.10158962064360436, 0.08472565607835952, 0.022991819391292016, -0.0009389843585569988, 0.026194786311367582, 0.013210747814910896, -0.000918371800719167, -0.03675125457977409, -0.014176587619729354, -0.07785320982302459, -0.058455526182143995, 0.007596991489559814, -0.009137911268238845, -0.059791382757326, 0.028266905754097883, -0.0695059158650982, -0.04961541512055568, 0.027255372099754694, 0.012716130971834515, 0.008875944859799917, -0.04156868912874671, -0.037000575480839536, 0.06648763115242047, 0.03885724659866203, 0.004005362446678806, -0.043702861994477954, 0.037969080497287755, -0.046168510985414975, -0.01342205997759065, -0.017894795234218996, -0.02236380354558908, 0.027271233608526704, 0.00572231083505386, -0.041606189266420575, -0.04801623838900881, -0.08764614328105204, -0.09033725526761806, 0.02036351747063966, -0.024049526096092184, 0.021737394236294696, -0.010372067526238022, -0.06099254783504881, 0.029879333698268874, -0.013682614598855152, 0.05643088815977208, 0.021575955595438765, 0.007646066858141414, -0.02351615968838091, 0.0219715585805048, -0.00020905340842860377, -0.01981613766922001, -0.004400366850642143, 0.052530815924284775, 0.07168274676262643, -0.05513118106803502, 0.06304069210243589, -0.014273151287709509, -0.011389286931942197, 0.01669529191684833, -0.019245782176660838, -0.010667888971184335, 0.009757923898744286, -0.044285564500315386, -0.04180367027336148, 0.020011480449897142, -0.06707558154569224, 0.01372594557718227, 0.06529414455033358, -0.04493835658789423, -0.05442369501056552, -0.05251860795239245, -0.03947441330319969, 0.000908764604579451, -0.023830727771871323, -0.028075953664267694, 0.01372797094962394, 0.002336553361515073, -0.007951973906473904, 0.027085858366051516, -0.06094497719952203, -0.012856313232017457, 0.019132372512941323, 0.006397919893065086, -0.022976997832025562, 0.022410844130452585, -0.02567600781323685, 0.029863728083773244, -0.03528059292528114, 0.023283196348454875, 0.03183778242428766, -0.07987145251189329, 0.05429871812261053, 0.013859363969657638, -0.10904740356398453, 0.009017647390650203, -0.012014022168439957, 0.03768220718410795, -0.026823557292893496, 0.008936208443003949, -0.04901619861649429, -0.016810341429570712, 0.043729109016224135], [-0.011464553493363108, -0.008274179145428369, 0.006610371653604985, -0.05354791585747897, -0.012080335546539438, 0.021643944644721396, 0.029771059131145496, -0.006599788348499867, -0.022419409361897836, 0.0925986459328785, -0.07520166723700386, -0.04107077959264284, 0.0882202731741398, -0.025560364942794744, 0.09614502766614139, -0.017494436887331485, -0.05175008106528386, -0.01611228992131045, -0.01823367106178531, -0.00319731600456596, -0.04765995746006541, -0.08362886856634023, 0.012946679718141963, 0.13188035392759184, 0.06083134771100919, 0.02491449918088444, -0.018293971564428253, 0.049376532072066354, 0.0796080416943855, -0.02785135479444792, -0.04065176890300541, 0.027954171072024237, -0.04084113679761838, -0.014739433188893862, -0.009603050653571933, -0.008623126280033786, 0.006400319712130384, 0.011815755593873127, 0.05161360087666733, -0.024415337415576707, 0.006165405395843833, 0.007808595668852749, 0.04469746170345986, -0.035530457525044835, -0.017984385113915015, -0.013697140863411488, 0.012072373263825214, 0.0447125746170353, -0.09641691960083294, -0.07874821962593472, 0.03727868242078541, 0.05718505763468481, 0.09776705258110531, 0.028814571933806522, 0.042472888960192384, -0.05258298996315542, 0.03371754134578392, 0.0273948879497753, 0.04639128927098405, 0.04562757193662393, -0.048887605540873444, -0.10990990770592947, -0.043400618065119224, 0.07405128019041586, -0.02227683529236453, -0.0888050164939827, 0.02402503231111056, -0.0413315027546512, -0.010587582013910121, -0.02799227206175216, -0.02580745933136431, 0.031855507520364985, 0.07616363530874715, -0.0005614991115132109, 0.01902769370738134, -0.04561576614737972, 0.03581429001424505, -0.005894176206340917, -0.04900550204206098, 0.011051108231487498, -0.0058824164259208295, -0.03173951369437359, -0.0020618583461808585, 0.0447858199323133, 0.02183405888262504, -0.010222643302276591, 0.009748676839542354, 0.004366311852001173, 0.0051588075309599935, -0.0016529580750077805, 0.020485676531047797, -0.01786831997854513, -0.017316478620772742, 0.008417386787418586, -0.015002505105458093, 0.023808137925342646, 0.0063892904079717195, -0.0002721824056780435, 0.00789887620059495, 0.09442447605271329, 0.04733591041043565, 0.00751241139388304, -0.057917124418308694, -0.0174972786921624, 0.015086202311629146, -0.0027325482435069494, -0.017329396972241763, -0.019259716127261944, -0.008227008050629484, 0.0979928864736694, -0.001795218363753099, -0.06800906303954675, 0.0010395783851437558, -0.08222023346298758, -0.013444594567234338, 0.01744992276002572, 0.012637596772685925, 0.07096452510788186, -0.002721498890081619, 0.041507182393702644, 0.024583364895774895, -0.0229792595031284, 0.07969658845643415, -0.02047408167650505, -0.00758212850373734, 0.000777933291179881, -0.051594937022281316, -0.0024121761201096525], [-0.06182547073174621, 0.003688211677259268, 0.013490192161951105, -0.03910265330911978, -0.09926872949927963, -0.03939621780330599, -0.0626505563322601, 0.05916951516511472, 0.016756027867524472, 0.04718919196991469, -0.03853033283573441, -0.12381670331929634, 0.057156971345329106, 0.03337575840438613, 0.058658122989939165, 0.07174869298092673, -0.058655359175987215, 0.06034692905625345, -0.009880832599832032, 0.005673142499781208, 0.04512152860725277, -0.033056348679885474, -0.0007845320804634157, 0.08789023481674844, -0.024810852567463293, 0.006582819563341095, -0.027606527305381937, 0.007412391675939966, -0.02119351377528496, -0.0441860803982557, -0.02542055224551634, -0.019904943712748164, -0.06057037067642299, -0.028670680543827307, -0.05008055002708755, -0.03156488105459229, 0.06711858894174451, -0.02220538068186223, -0.1003410805346845, 0.007264304697938811, -0.04392236742165134, 0.07289116161413216, 0.08413043069733755, -0.08871812283500208, 0.019533268177696513, 0.044554149279029134, 0.014897336345494604, -0.0215171036253147, -0.00587191585190384, -0.0016853528879541958, 0.015495125548143305, 0.029584798482743264, 0.02450250928157949, 0.012201185613481783, -0.05941837370816554, 0.04733563689714188, 0.023816321792067136, -0.008168765048990022, -0.00194215037815356, 0.07251603160905251, -0.07417292732346588, -0.028597781547765613, 0.0015826433365652881, 0.06612760697627994, -0.06813218935123926, -0.03568411618278297, -0.0268519341918328, 0.029766353822093448, -0.04010282037186246, 0.051151383975849146, 0.06193677321146076, 0.026580454737318484, -0.021749957649648363, 0.014926430025226685, -0.019825087676807716, -0.018318724795510888, -0.0062302492907008195, -0.12529073920865413, -0.014640194835579896, 0.007455715185316922, -0.02860323752365262, 0.10432916676118514, 0.02310754174807482, 0.013115471939214045, 0.08271943146008343, 0.04307073753007732, 0.04992084774808406, -0.02275459413015609, -0.0468689680817362, 0.06052678834332529, 0.02176974810704917, 0.030721780546891897, 0.06706369805222329, 0.04433628472102994, -0.042896405390911246, -0.03276049976382592, 0.008540432191696541, 0.11257199028674618, -0.007657726047082313, 0.01836470775073049, 0.034405664998153625, -0.03364475369973559, 0.002746384875887637, -0.010686931522086137, 0.039407527403198334, -0.06827639708835638, 0.043732697193342364, -0.02276994273275861, -0.017323540961341453, 0.0475232295031512, 0.03048397270459905, -0.07211224373370302, -0.06674437016320998, 0.049178715977158956, 0.054556552748892574, 0.030730939373777532, -0.05788610982357696, 0.07635632511659898, 0.019836228519164112, 0.016422688840123503, 0.05720897155060703, -0.07157927981469245, 0.09324729368361637, 0.04213601697938729, -0.024376776907506847, -0.011953934453725584, -0.024607861916986384, 0.031013449703940866], [-0.14190335203501012, 0.03472499370183444, 0.03461084983055937, -0.029290879175379033, -0.009890389758785369, 0.05281476125332122, 0.02364372649522075, 0.023707751909399343, 0.03369508846528011, -0.029152424168049217, -0.02269244635126686, 0.012868672839321424, 0.13378199934054086, -0.006632152036198864, 0.04414724321366587, 0.026209257057159454, -0.018838874966812004, 0.0933286624215009, -0.02690928970622177, 0.009262719952495549, -0.01106101226269404, 0.04629279325095062, 0.04296015117748265, 0.02661272800048306, -0.05089973062122967, -0.0011096341083478014, 0.034160272898639425, 0.056257202708362423, 0.006449877376424762, 0.05820450492732565, 0.030023087399214148, -0.02215220191557917, -0.06844405717138252, -0.057602198411289884, 0.013441358714127933, -0.038536709673379944, -0.04607261829600863, -0.05973454674198158, -0.04236366382534087, -0.005455558934498847, 0.020997024803681878, 0.08360680503149284, 0.11319796439526246, -0.03246311627054516, 0.013110480935972987, 0.03162771850849034, 0.039080609056491536, 0.02749707179911826, -0.018965855432765813, -0.010779105907219885, -0.010918906626037679, 0.05774112819804275, 0.06220829270399726, -0.0024669079207201294, -0.0003343067084245721, -0.0007046097668547525, -0.01375415295733813, -0.006804622615154235, -0.004424099037514641, 0.023672772386016904, -0.05850440891056455, -0.034700692060627064, 0.019377361078868872, 0.06640643591023154, 0.015876260549050024, -0.010946918862151987, 0.00817421371327419, -0.004259981225382794, 0.0031955642992822038, 0.04649773613491131, -0.022072011326535055, -0.06516227898350593, -0.053653682407302665, 0.022661732729824635, -0.06770919771818583, -0.03710741703796624, 0.03584296754754406, -0.0842928435885451, -0.022354292541716714, -0.0032234463265066776, 0.044867487822091025, 0.14868782831849042, -0.011887805863237521, 0.03808865827023911, 0.060556777876254964, -0.021134851870580867, 0.06308868039178495, -0.0018917805901331039, -0.024746541083600648, -0.04136236968619672, 0.0744535225755309, -0.06882198379493203, -0.03719441423353873, -0.001107158364394362, 0.0009770183182197913, 0.026422149713110524, -0.03638599198500247, 0.10207212942884439, 0.016397871725411673, 0.06497469511769591, 0.021445095934381053, 0.02705466059784708, -0.06556420196810551, 0.0015194527470250457, 0.01124867966190543, -0.01135953001236895, -0.01894635081617446, 0.03676323038398714, -0.012453767702430603, 0.08655803304428042, 0.01123260823767448, -0.04060289312203627, -0.013990700409785966, 0.06109844213027784, 0.0602838595586052, 0.05805470394025651, 0.045361389381293415, 0.029643763778942067, 0.044587820951107034, 0.026928223281892223, -0.011645817481342092, -0.03155987616108698, 0.050675733275077975, -0.006100800774110677, 0.003597440786671185, 0.012055019757203647, -0.015604370374580484, 0.004616911002145191], [-0.04845391233086742, 0.045993309328252886, -0.00942323451169799, -0.03003181196888231, 0.011249846170935768, -0.03259810110592785, 0.06951793462719093, -0.011933727540869259, 0.0718100104587102, 0.0767992886995192, -0.04152020650159267, 0.013852950549802595, 0.12559736053951875, -0.026728081827538677, 0.03859364039423833, 0.033595757102365745, -0.005209376139150481, 0.03579544599459217, -0.05876401949732088, -0.03251937696357503, -0.010280342915457204, 0.07730160879282738, -0.023434861062126194, 0.042930644403385086, 0.040625358936515546, -0.030898961592232536, 0.016691834022570306, 0.008164449243623324, -0.07660697586643027, 0.01700924459986398, 0.048206530906099374, -0.03121236437458397, 0.030491137011100136, -0.037703773621173386, -0.028704568323616137, -0.01965336340739009, 0.017659821419729098, -0.12543909921631202, -0.08613748464553594, -0.10636938686990785, 0.027391174096988838, 0.012462758498288023, 0.08796326425066536, 0.021845685408036247, -0.05938534196706704, -0.025691468763059784, 0.016549670716380468, 0.0002834764084206268, -0.03564209410389163, 0.06343460789770207, 0.0490728129576341, 0.1443158534822807, 0.08495124087362885, -0.018352031228254462, -0.06097406733649791, 0.018206853779378657, -0.03182973169455903, -0.0494207846420987, 0.02561093259795687, 0.06074860533335168, -0.0733680238957457, 0.0030237595789990098, 0.01370534725905652, 0.051689712299891125, -0.039389884970346664, -0.001912439927061716, 0.010883103951514957, -0.02632141943867766, -0.003076399356974127, 0.03797107661409793, -0.006822967634870477, 0.005535766149312071, 0.03401888075669032, 0.03151734190154027, 0.0024644822256271464, -0.04016361062309704, -0.017427498681170314, -0.04849331647043733, 0.038244332382536494, -0.014743854758024248, 0.01863725823964324, 0.1403064600930656, -0.045261473072779945, 0.09932522968373825, 0.062489304039814494, 0.024633186589773037, 0.01945685448292781, -0.0034708113615343665, -0.0162366687875011, 0.025676661852640403, 0.09572386157536857, -0.06734013766237595, -0.006330092746890728, 0.03891354315913441, -0.021554834693030114, 0.024782547265007893, -0.023653378519220378, 0.036731998457021346, 0.04805200958484124, 0.0292371540245083, -0.008594697488060809, -0.03463812015904178, -0.029553147213329817, -0.08699055272984207, 0.017341300618027907, 0.10527913561493842, 0.028650978138870485, 0.06281776511588998, 0.026623125930340844, 0.010946043970906441, 0.012865107915103056, 0.09476705925381161, 0.013947929504954942, -0.0498917200281228, 0.058672351236436694, 0.005637173257236681, 0.08077036628040399, 0.11888456619689783, 0.09424870306825957, -0.0023142722102716656, 0.03185540937914083, -0.05359588979880673, 0.06927415447793578, 0.0029545311016996893, -0.05175194696256877, -0.03538529569771239, 0.008790705498475554, 0.0391890971086451], [-0.06360121139512327, -0.03229322845544063, -0.0674276549334082, -0.06530446693689729, 0.0010496036086062518, 0.041470292081653655, 0.012863534645571854, -0.033467184043638916, 0.026839857496977485, 0.06321233933524853, -0.031013017337687715, 0.029071893364113064, 0.16025086509465808, -0.004338539535310388, 0.005163390288139566, -0.024573802757174006, -0.07957917488995103, 0.00820991257523472, -0.04811606769631355, 0.04076053319584312, -0.006977680569608744, 0.0030181191499860397, -0.018282609988296075, 0.03536725169466352, 0.0020508801109422555, -0.03632654536084309, 0.016246913434682788, 0.04219781493677395, 0.03652189122551939, 0.06060583036814672, 0.015657494664145254, -0.04923551395159534, -0.018566489666260944, -0.0348134321310966, -0.0069516810592188194, -0.005091040781897614, 0.0009567164797725071, -0.10659028991238186, -0.16683406886113752, 0.07019465751121831, -0.0033273687527326837, 0.060362069192641206, 0.07315185031206596, 0.02799788807980703, -0.10216950939069816, 0.02191568007044513, 0.0804367671074412, -0.00024753571057407387, -0.069040557415842, 0.06717060937009252, -0.04547121199180961, 0.05107392609668581, 0.02372732974952672, -0.03430283306522802, 0.03858694490254164, 0.04671871344211847, 0.05329345497340256, 0.004522139948011084, -0.05943567259854455, 0.0058293470478644515, -0.0918791451499417, -0.04569563075697608, 0.07769355744514597, 0.05969807577321741, 0.0017529405252647119, 0.013092554251973167, 0.027434551180033833, 0.03572681856689121, 0.04496706854786715, -0.039570472983311754, 0.07741642619363247, -0.013440956230545406, -0.016402654819416558, 0.007043307525457522, 0.00790636506382902, 0.03504676393461932, -0.012630407128128213, -0.07477204203988624, 0.011482251440781351, 0.01872857887753069, 0.007689376615425579, 0.21383657432344716, -0.02093592198985786, 0.017136371847504727, 0.07534930151768912, 0.00896494993920514, 0.054228761207899066, -0.030845026901208723, 0.06621579153114526, 0.09589284446772474, 0.04862344465297202, -0.018547609282021166, -0.006415513286882916, -0.007910352702090844, -0.02805730577945885, 0.042388663162952984, -0.004921789792454345, 0.04620066324468003, 0.05728414798768357, 0.12817310410081295, -0.009806420785581528, -0.017014376766393897, 0.010782279243565547, -0.01872354745516407, -0.012710425922774986, 0.10635855954743258, 0.028425891865327825, -0.004983048311882993, 0.1069147819495727, 0.05590540560502554, 0.049085346785604465, 0.042294910284832454, -0.023371092447891893, -0.01064358025350391, -0.03035420058599102, 0.04130043609417093, -0.05243224082362355, 0.11980911090597912, 0.05549204564431948, -0.027339066167084147, -0.007813012852454046, -0.09334645027302955, 0.0652838646216362, 0.05586057650258339, 0.041452883597663887, -0.030975783908106385, -0.03254051456467686, -0.014888638175598715], [-0.04471635238410931, 0.023641589856255356, 0.02553125029611559, -0.09984472242594371, -0.05283628906225374, 0.044176857175387524, 0.02425835121567344, 0.0022851088891731102, 0.024922132912988886, 0.06586923493779424, -0.014626957798261757, 0.03529173698160941, 0.07430051064910595, 0.0015269828905169756, 0.052092869193289586, 0.013718359191773059, -0.033911644689263935, 0.003928291526199123, -0.06289251943768191, 0.04553544330341666, 0.05712603892891312, 0.07040044744761784, -0.02593144052618434, 0.017556026794649106, -0.05205620461229956, 0.0012460787361921624, -0.023655894980968713, 0.012644948400789797, 0.017967087618847827, 0.018864291562998046, 0.04639761820565024, -0.08894581456918733, -0.03079231850332263, -0.028801721312921722, 0.017962153955213174, 0.027101108082392775, 0.02137011044904045, -0.01869768856180133, -0.035240847615130654, -0.006324140402111463, 0.0238552804227909, 0.03921791283926639, 0.13349027114512588, 0.03125094203513817, -0.0444647431304908, 0.009561179016750724, 0.0569604181508034, 0.0529735230832036, 0.06665735016834003, 0.08303617477349291, -0.021460396949334208, 0.06100236687174102, -0.015207105036088346, -0.005749820762105077, -0.0025639742666908358, 0.009295557687342986, 0.02266205274029575, -0.08926028531002705, -0.04390901053822501, 0.007504503936483937, -0.08016377093975095, -0.07201037576798422, -0.07328503598014174, 0.06136787983332842, -0.027105385013463167, -0.02768912034905387, -0.01161969699400615, -0.0548761660005308, 0.03874210382483015, 0.039788750446529846, 0.012046980582282988, 0.021442082851625074, -0.07881986195803772, -0.015455972286388607, 0.07307223646274016, 0.03632231215604849, -0.03430597830981784, -0.04206463148628657, 0.04148075997260401, 0.018599743719893123, 0.06773978594315973, 0.13357109531730774, -0.0450290030831038, 0.09402207115709528, 0.02154980635339096, -0.0068048314226216875, -0.04037618114873624, 0.03463183964105746, 0.022206022903366526, 0.018056477747030036, 0.09281354667483827, -0.033732764596850554, -0.03488438025463624, 0.09141200521426752, -0.02725683258601976, 0.018527094746522817, 0.020879284800751536, -0.02521289980942758, 0.02646587341523361, 0.1242488017682404, 0.014539770702131975, 0.02354802355435016, -0.031593814409737575, -0.1452431206170749, 0.05535944707330965, 0.10048161358422872, 0.018258865837214266, 0.017320776770338813, 0.07478665305961517, 0.07604756501530852, 0.04529603926540115, 0.051794771327684785, 0.0025276693252284563, -0.0248410621832852, -0.018850688482984584, -0.011174712188067027, 0.0020369123227123804, 0.002561674920994555, 0.07746425096487615, -0.007889625710889015, -0.029397016896628783, 0.0017923931780682116, -0.010155561978472607, -0.025660370112874344, -0.03459374899008324, -0.019183887421533624, 0.046059195979020306, -0.0010790675872181352], [-0.06074140928319665, -0.0036463682916148964, -0.046660630914896674, -0.0799113700081552, -0.031527270696173886, 0.00849491611457826, 0.027931667876154198, -0.01008074222079915, 0.08461199300667896, 0.07108565806146494, -0.03669475622056745, 0.003911737322904371, 0.09944417240890027, -0.0564111608566353, -0.006982479974765324, -0.07507299835526475, -0.027632108853162238, 0.048800821040447404, 0.018929469905155667, 0.053226949551834137, -0.02035632095121777, 0.05180202897631524, -0.018419284373018884, 0.020823454552770092, -0.05951471345030554, 0.002824809573200411, 0.001608054452993783, -0.008933827697222244, -0.041345521508501834, 0.061513797095990204, -0.029740977584275415, -0.06369012218649252, 0.011309646201332324, 0.014553392708348569, -0.07264259944228846, 0.039628813497784764, -0.026419180590419554, -0.04410502912652394, -0.031092129213083318, 0.07517900642127376, 0.010138221357334392, 0.0745793240233564, 0.0056652005620158475, 0.020695364560412335, 0.046920787896767464, -0.0197311731503581, 0.03934837278122001, -0.08149330403923623, 0.004680026913955121, 0.10630853495421373, -0.03445348084807686, 0.01650735831786987, -0.06621140640508788, 0.029313040303754558, 0.009881688269257777, 0.026854691907004256, 0.07032943752743674, 0.006342961948832734, -0.06533846008725641, 0.027025073130652586, -0.02898912140755787, 0.0011541582779184558, -0.021360104991874778, 0.07974709175303721, -0.014319685659903799, 0.035046999524594516, 0.059544848818238474, 0.05588796548328755, 0.01413827213876095, 0.007805969971729035, -0.042643326918907355, -0.03325637532302809, -0.059215692347403606, -0.020347433783284758, 0.12762923446474342, 0.017696996800735387, 0.012609713752417253, -0.04104188309968584, -0.05836614157095788, 0.00295097259231219, 0.020872802152466133, 0.22695504630072402, 0.01809701959851455, 0.04790071740251823, 0.0536280157565189, -0.044215478761726504, -0.013492847499035383, 0.011515198224357103, 0.09107274697981506, 0.030063189031615648, -0.013919817692460904, -0.03635770674056851, 0.018001577048516213, 0.08282930204014459, -0.02227655187971674, 0.023544672267053614, 0.05028038906820258, 0.03478790775311434, 0.005262294781519983, 0.06856435706079092, -0.014463945116239229, 0.042488397047389916, 0.06013964320959396, 0.018017813947341685, -0.06765099334177954, 0.08278514535760166, -0.027518923211205793, 0.00499313510047184, 0.0243599248703023, 0.03076855595248675, 0.02832843773488353, 0.07696659390681532, 0.04927000886353636, 0.010701970078658274, -0.05077823899233429, 0.009683538204121904, -0.03664259132073719, 0.005080512660614611, 0.058672940067713564, -0.007286960580357675, -0.03721930484198949, -0.12391980110589959, 0.007737251316201297, 0.0013582377953636295, -0.04402319208456388, 0.03456626101331002, -0.02349114474605871, -0.011765743173448636], [0.001978429547722914, -0.015314779162756718, 0.012894024989050587, 0.03731956461679111, -0.1066806687920171, 0.01060135515913598, -0.021546631114465305, -0.02978532748907577, 0.07920227677084626, 0.09768974636982157, 0.02343540757620273, 0.023506681036044808, 0.09355348455256178, -0.035407909423270226, 0.02220613405454343, -0.012936352978380273, -0.008866490846561388, 0.010263030039572492, 0.029182072407765255, -0.041665242520508024, -0.017657377632972485, 0.04549140178987463, -0.017056794025579296, -0.03985811728621024, -0.017328543178004065, -0.009792010267833523, -0.05734805483319505, 0.030036258809228313, 0.036186634799120314, -0.008303697483618606, 0.009823549678106065, -0.024617358931462968, 0.03124424711798422, 0.011921788885608724, -0.023930930370660734, 0.02954384479778355, -0.03514198232144468, -0.11673145946670146, -0.030725631412579762, 0.07310716134199753, -0.022518301683716487, 0.06061974018198931, 0.08839757428274203, 0.0022492171145063558, -0.010275094844827273, -0.06491865746106029, 0.01056700428566435, -0.03277851933706272, 0.053004340419719624, 0.0007224905681816603, -0.038904811114318545, -0.039056065757894796, -0.02073564164337812, -0.022895492699446754, 0.03962056527474663, 0.023281741879183682, -0.007213248109436919, 0.049073134776184905, -0.08223063929452568, -0.0260055227148533, -0.07157403051464264, 0.09416412111769457, 0.06883692007730594, 0.002855928156379817, -0.009364389696070431, 0.08843662861962891, 0.01024488147945852, 0.010175072463664404, 0.02744637799362644, -0.07900616332807944, 0.013224247406811884, -0.010451819537685128, 0.02615281635828061, 0.1055372890019959, 0.10281116475829966, 0.010472046729025294, -0.05483308932084843, -0.019458196433205868, -0.06644037765105745, -0.040361761180453475, 0.07848042306359863, 0.1657469668217216, -0.008465578339902287, 0.03958524721762649, 0.08824902391422279, -0.04705391968951441, 0.039932756516274384, 0.05070947388007202, 0.09295554933062024, 0.014187238179963237, 0.10799487378574558, -0.030349563863589606, 0.003141592810322287, 0.0717472215557042, 0.0013521701346003762, 0.07042649864646616, 0.05641241816232393, 0.09991988308070278, -0.013848451711693148, 0.0411797419551501, 0.0249783298492465, -0.059675974241221175, -0.043482431312082244, -0.08911715053324176, 0.046238279540862036, 0.1351671901573604, 0.04589116915436825, -0.039795730991348796, 0.07919410538374384, 0.03672134998187148, 0.04224664143066639, 0.01874038851370354, -0.027270365284780898, 0.005540528897019052, -0.016371721832477044, 0.07682556805929683, 0.026713214980929635, 0.01799386877703077, -0.03132078168406093, -0.057430840194069674, 0.026068325057907772, -0.030608791399743703, 0.025634794527574032, -0.0768821305236222, 0.037588964709911396, 0.07133388588888818, -0.07383847487136377, -0.029831905323129754], [-0.029254955169402724, 0.022538819618848065, 0.07457767865485113, 0.005474322141005822, 0.039598025510599294, -0.05924217613603812, 0.057440108761794166, 0.015133944775992898, 0.15171761010109636, 0.030510763808882048, 0.044519359019411626, 0.07505217825488177, 0.034509924962468116, 0.010114752585434044, -0.06044405748898759, -0.030801656718803548, -0.0521272032834577, 0.07423023179332981, 0.09514061053914691, 0.005303045724170238, -0.013606878969616492, 0.0040074020774263, 0.0032156045485611183, -0.03344143840438307, 0.011956995167666306, -0.02511742961050336, -0.07764301653640279, 0.055783726720226495, 0.02160901628072046, -0.09122691491672598, 0.05991281623852491, 0.007509963887771592, -0.012196637427309049, 0.02257970175430756, -0.04162783131898698, 0.04852247851803726, 0.027283641386043566, -0.06807948057293794, -0.04327291402478345, 0.004918186736376814, -0.03312734759251619, 0.04624442396107402, 0.09037684015750214, 0.12538654101386207, 0.029954861182377585, -0.004292421564640852, -0.005184056605678663, -0.05817297893918279, 0.09408501517563754, 0.052541529238732426, -0.020095285854610064, -0.0021429421468103058, -0.014407111104685623, 0.021464727273926745, 0.0060326740103753265, 0.034181619082366395, 0.05450770646266685, -0.0639665444813883, -0.0827342123604848, 0.015331133632386406, 0.022781756928438743, -0.01744900130016836, -0.003452861230096957, 0.0180118716341334, 0.11249657529632383, 0.04613748958096683, 0.043334384621864355, 0.01952374019115654, 0.032297694341350304, 0.02548139836236947, 0.029330953289241703, -0.008113017119566517, 0.06985361551401291, -0.012806704237351318, 0.0822203398294095, 0.07133255589051793, -0.04334080540800591, -0.028437886964605398, -0.04009594629785879, -0.020139416838143267, 0.05859844601555097, 0.1818636701232208, -0.046238615644147836, 0.04888228286041086, 0.04112805109416413, -0.061305964641014954, -0.08200317743170993, 0.028411146289428535, 0.06372879598429444, -0.022408901325483916, 0.056547292224027074, -0.004590295127598968, 0.04793761440496332, 0.12425585175274936, -0.024814242467765014, 0.04735392518442032, -0.018417136466859902, 0.006640086572555741, 0.02827758790927596, 0.03260165538161115, 0.018736854383985327, 0.039332714214868135, 0.06544727255281131, -0.03679913632105513, -0.01665133460100907, 0.0656542683794101, 0.009589753832518937, -0.015722038421002612, 0.10676601713256655, 0.045838242800794654, -0.026128137252182597, 0.07366124556311816, 0.03149616716580792, -0.011736686072322805, 0.04810001136098573, -0.00825199436987563, 0.017277364598031336, 0.02568357211371032, -0.015716131748067887, 0.06233656268531933, -0.03879850641404748, -0.004755616431616077, 0.014980305843875415, 0.03274152182860759, -0.010928423884731468, 0.0339789926537956, 0.024999604443073933, 0.05064698895693747], [0.049153464563253285, 0.013811552036051524, -0.006382373884616008, -0.08319758657011264, 0.044206620507959656, 0.055010499412666045, 0.008504155460015374, -0.055339192541058534, 0.09830101219348539, 0.015308035446762515, 0.05159731044975201, 0.05126673027877837, 0.06831764318377379, 0.03827265134045665, -0.00652305011656593, -0.03439249121505583, 0.02801412013038954, 0.05635467000702366, 0.1123923359129126, 0.028255792593154146, -0.05690362043493849, 0.013113094370127691, 0.03496155191620809, -0.03544270179971875, 0.038909426428235236, 0.014022208760224844, -0.061897086959166216, 0.05827841424796112, -0.012124893967674211, -0.06245438947177451, 0.05971325142563083, 0.007614862634278671, 0.07038297152374222, 0.0687596375003674, 0.010935056925730744, -0.0017294752007487684, -0.025205885998634936, 0.020689764590210363, -0.025721206985872373, 0.027266164075840565, -0.022759201190666024, 0.05642950574374011, 0.010706779189755523, 0.06656779709198013, 0.07183830973989079, -0.01831974396647393, -0.07968648968470073, -0.030593762853762935, 0.03168526014930388, -0.05697548099428325, -0.0012168765831144974, -0.023869357778806933, 0.06311674703848108, 0.041072438863247795, 0.0007782320948352388, -0.051445047469030815, 0.07425775516700467, -0.03327124006276961, -0.04582735224289703, 0.015174645277717978, 0.0008328390322925801, 0.06818456309791138, -0.01501644721078823, 0.022471172690400967, 0.0654474142619539, 0.012277963157215733, -0.014931023997572714, -0.02849525821563937, 0.030671360460979697, -0.02389004245640589, 0.026352573371134315, -0.03345277072480372, 0.07150440331918084, 0.03387903105151917, 0.06250333424204807, -0.02775830978021631, 0.02095137752491814, -0.010294687268361507, -0.05013286091639181, -0.005352431618245027, 0.11009502336111802, 0.17420744590097564, -0.0558444064544434, 0.09560408761428527, 0.02184534055617964, -0.007294471783286973, -0.023620275771747398, 0.06587217021649139, 0.054290766970492156, -0.013001072943944505, -0.008767163739468632, -0.02290469723871138, -0.1110790448959959, 0.18000796416830736, 0.03467544076933929, 0.05051801026175512, -0.022646619097414025, -0.004147578567561828, 0.025470021670102438, 0.0804647484026749, 0.05255227249263484, -0.018759381534794686, 0.09833806329487615, -0.03305728763180739, -0.02980988834098954, 0.09941753735632497, 0.022667719029352232, -0.03547778353252739, 0.07444625417879708, 0.04929437711578672, 0.02564130616571664, 0.0784705203834653, 0.022507981308871234, -0.06915883179148391, 0.004616556561192001, 0.046730524687679256, 0.013663151605917561, 0.0588495103922962, 0.006432804187112206, -0.01179320186230206, 0.016460266871357248, 0.0008245234803109762, 0.12045858619389131, -0.01806383941638447, 0.023509545020936776, 0.05772515537553105, 0.05689770147399648, -0.0468420247175808], [-0.004180957625267676, 0.06352775283919014, -0.03292071837839599, -0.034375144087573535, 0.0675852687171446, -0.03778685899017821, -0.03862855553939215, -0.022748612527957367, 0.050864345685717675, -0.015328823130404018, 0.17506998235952223, 0.018342478756337516, 0.012341184724899885, -0.0019484596856890956, -0.06130572121721041, 0.048336560209068596, 0.018053002078687545, 0.04564231717553602, 0.123258184001989, 0.001380014664874961, -0.08993716327081139, 0.032965708441355976, -0.014845201359284398, -0.032054350275031, 0.016064630794888925, 0.018305168101717353, 0.03539122615006465, 0.03384784423760124, -0.03451002342206903, -0.07687790378398895, 0.08467546917622366, 0.020044211612280195, -0.008935965343158795, -0.04388550432468804, -0.002004516362431578, -0.007643900774237293, 0.059247109646981176, -0.037682891719273574, 0.018720470333432083, 0.03255797475814134, -0.02602367374333154, 0.014146559151429204, 0.03847140398172933, 0.1080602974721829, 0.034690122404529546, 0.06484620261040948, -0.007093031227744047, -0.012707600810564833, 0.03203567761782513, -0.0074784367621628925, 0.039834673551079995, -0.08851747569970242, 0.013768070304465713, 0.024087302786442655, 0.024094334031149956, -0.049492677906036224, 0.06573772136189822, 0.05839738506238005, -0.05054869233537435, -0.038159030610508515, 0.05131055282754962, 0.0949195125464165, 0.02122874630391273, -0.041805334386004686, 0.0826311457527825, 0.01971973994101148, 0.03951469899124298, 0.005559821223351231, -0.048203954864844946, 0.01036486426824948, 0.019663314041120296, 0.06479813345795325, 0.06459007466682458, -0.0012911818311433243, 0.05711757856391617, 0.04330433853435774, 0.037624541959914416, 0.02425535924121924, -0.014555370786700723, 0.018114360647317855, 0.10411018812281123, 0.07280940275912862, -0.01596976048540267, 0.0214201974495545, -0.0224154093814923, -0.034315387968377964, 0.04017770616133289, 0.10775784788649424, 0.006883639839888065, -0.013695544137576053, 0.07164131769443466, 0.06409164666371121, -0.0681919824629745, 0.14484585767006772, 0.035352419923556165, 0.08113903224515678, -0.02408581908158619, 0.03204655217335945, 0.01069531693897579, -0.01436073422074032, 0.07573595850247462, -0.00830681736312217, 0.007304577100890606, 0.04746995421954417, -0.03770645626750598, 0.08020082729697034, -0.08212264378217364, -0.12490500231926271, 0.0878506452649367, 0.11937324398530903, -0.05094919848446873, 0.0842205839287112, -0.06362368356775612, -0.0029388873350226405, 0.018424190026570406, 0.027800310614514868, 0.02400356104912988, 0.07367018855198507, 0.03071498610543665, 0.023830943365028154, 0.013213600589940526, -0.006873593986899524, 0.03453454859838984, -0.10568604637307359, 0.024682693772913114, -5.385422681575664e-05, 0.02544427099794183, -0.05097239095871586], [0.07809107504807734, 0.03050531981480158, -0.033828587065339, -0.11919686642875621, 0.09442598252611539, -0.060646825716795624, -0.06509222851041023, 0.008067382025578409, 0.0807530818850695, -0.055204827802052, 0.14738624329782074, 0.07998110487805549, 0.01163440266717142, -0.0058937996303110255, -0.07937006696978331, 0.1340999797279488, 0.12134624171033323, 0.0037715970580171213, 0.1739861527769114, -0.06516610527679752, -0.06733661899523005, 0.01411530888329664, 0.032392938868146634, -0.061626242929726696, -0.029110592972291894, 0.0427859567876997, -0.05928190636512293, 0.013329527173802511, 0.00875935293521781, -0.0014358379494597913, 0.031455314748413836, 0.10757109411054872, 0.08182426849764494, 0.07107009516532417, -0.004024278792802405, -0.01847512426015932, -0.05163795045063147, 0.09854650159012443, 0.08307154808647522, 0.008066898296835748, -0.09635370040158757, 0.08357338628062676, -0.03533107668904784, 0.030024606228167876, 0.05299714128077567, 0.03548636965178556, -0.04256555612939083, -0.0025115077985232615, 0.05321781668009038, -0.13604330771311116, 0.05608697134860204, -0.038312980473667754, 0.00891603358960951, -0.017175818799067533, 0.03917813579793253, -0.08535837849091546, 0.04342136739041859, -0.012005879057055028, -0.017664902476747405, 0.0003561291199605884, 0.03923090062414583, 0.10490827304960643, -0.015666374089753483, -0.021546311752282745, 0.10636627422177974, -0.006108533246289858, 0.06696281243361733, 0.04089897320844215, -0.05934505452847372, 0.03560091575700228, 0.04411547865018714, 0.06055513807137826, 0.11914080622425419, 0.021387359781332646, 0.0898304090070024, -0.01824835418921387, -0.054315228831480274, -0.012891494998639131, -0.018597462798436343, -0.0044588488360036435, 0.1453802658608761, 0.099778842876476, 0.0006072039789878737, -0.017684921563645727, -0.013391562810560784, -0.007778420097041815, -0.029779908427442305, 0.09928647934297444, 0.04916854675276232, -0.012326862542691523, 0.03743622117215661, 0.010272938423204144, 0.007383817523345008, 0.17919471494412573, 0.05458776540030151, 0.033656253706858485, 0.02411885579403694, 0.002142940798226105, -0.019073914990442364, -0.00918853700277817, 0.021418195643850217, 0.005910371484346736, 0.07752984167481879, 0.07609452650249271, 0.008846686024024818, 0.0610733036687701, -0.041264554161392776, -0.16057406724239462, 0.03873630169036265, 0.08084018943990395, -0.056597389225685704, 0.03194102581465928, -0.08766844999940905, 0.0020600813867123285, -0.05834565886286695, 0.02674253806321836, -0.0010573546693435356, 0.006645595928639121, 0.0469224294964943, 0.06427779116287098, 0.10311413963070867, -0.04105924549739627, -0.013450682049492558, -0.13768986158354046, 0.11703784910907107, 0.0038619231355946806, 0.07965006991362766, -0.03630435355784983], [0.0678307773525196, 0.04100742805128856, -0.07804158459773959, 0.013150288290597202, 0.14110324916903944, -0.07319423555159767, -0.00747117821755338, 0.020461549286816226, 0.03925383923516958, 0.01915528329807367, 0.1913248460202243, 0.025456545475014154, 0.008117607032977679, 0.0175149745585804, -0.019047889231332483, 0.029680955964640973, 0.06526509270392496, 0.046514040444589635, 0.10527532518874777, -0.01992157295778575, -0.12644567573932297, -0.0023166846076917436, 0.057288808127452545, -0.05483152489138795, -0.048029031071647896, -0.016135732924131604, 0.006932164516776345, 0.0017585679957883324, 0.0252991261861321, 0.06707393697439998, 0.06182512241111971, 0.061068764679639106, 0.05248561239581958, 0.03272394670927989, 0.004056889491767042, 0.07212646958799797, 0.050623554810590325, -0.018407936523343223, -0.019429814105032035, 0.009315760027545065, 0.06159270810535722, -0.05387223576475402, 0.0009444747702786181, 0.02129645847809225, 0.05798209454127709, 0.04337639410575946, 0.01103413783803664, -0.05393106693189661, 0.05820501389661944, -0.08727250377434297, 0.060794003898666855, -0.014119691007517915, -0.01003232410114824, 0.039774211661070855, 0.014529707254254535, -0.0099508658076062, 0.12072690697011874, 0.006413599936140328, -0.08798220023678481, -0.0020185817197017294, 0.14640901638491338, 0.12633721073713508, 0.011755126185534778, -0.01465742576267324, 0.07514675226954103, -0.03325483709132712, -0.025812095930484127, 0.034361339877009435, -0.0026650295236190944, -0.00784663789325619, 0.019369066448642988, 0.03599539178946063, 0.10450292406972127, 0.05666662808712498, 0.01091067888028956, -0.010057628933010897, 0.031525668877269104, -0.029992205895564398, -0.04054344333080301, -0.013852609084642831, 0.10305387040542374, 0.05569989685017382, -0.0286478839177896, -0.0921041072395922, -0.09209362632874152, -0.011539950508078387, 0.11812930365825132, 0.0032980366989501632, 0.020164636470684512, -0.015473145543621997, 0.028385886924409125, 0.025181287006749188, 0.0654925337484841, 0.16899935830695187, -0.046755286755866314, 0.07263421018303193, 0.017257659221019968, -0.0065189121774333865, -0.11114498396482012, 0.02647165058041096, 0.0535607188725225, 0.04313041308150437, 0.1060737390343886, -0.017129621022894517, -0.04140495006377967, 0.08579649506415571, -0.056046214422776845, -0.12137590796997119, 0.058123250635537395, 0.12533170458949125, -0.018372936641197532, 0.05657773779168813, -0.07232309956745069, 0.07072750093010434, -0.03519286864273501, 0.03487176648609463, -0.05168880907150004, 0.07457222593465804, -0.024730743459482438, 0.03775681354608325, -0.015622408403188409, 0.007842696100564168, -0.06543436665802269, -0.0815064700896907, 0.03418931978819271, 0.07192197954115474, 0.11563088238606664, -0.03784959363376715], [0.07023674535249606, 0.011843327988396081, -0.08987172317420127, -0.018535018404769846, -0.00812397805542493, -0.06836593031080734, -0.03155650675364806, -0.05271369950710386, 0.01257364678138986, 0.05404647701276895, 0.13999190827918065, 0.07260124945392782, 0.014178247559227959, -0.005766123464889037, -0.09356836253440202, 0.04512891116958925, 0.041034861170214675, -0.04631780068725453, 0.07453269691045418, 0.0021297313670578916, -0.09735638398536403, -0.026533152440116625, 0.007917536279609332, -0.022408453771054566, -0.004434088537813983, 0.022324091551770037, -0.003209950938239208, -0.03591094911488295, 0.013700743129638308, -0.04310219836618953, 0.0710511937928506, 0.05829397895918305, 0.0463924420162134, 0.030350692029925495, -0.08013605444562427, 0.05109435722500813, -0.026639540746798644, 0.06419839626317936, -0.03248647600894003, 0.04699630225277576, -0.04929681136230815, 0.018533513016304844, 0.03280991386636944, 0.018525871721818476, 0.013147336781847312, 0.08114191571175824, -0.025736116762137832, 0.01354905205275045, -0.030057802354295143, -0.05265960919735671, -0.0007050124926173442, -0.03318551499844544, 0.07468745874566794, -0.027620960314058373, -0.02136012650620618, 0.0007341325118339392, 0.07860461932432522, 0.02388265733046435, 0.006753384630241123, -0.02175823003062169, 0.09143509758896604, 0.10918555564985744, 0.005169437885746015, -0.024564764496161656, 0.09804635803108241, 0.07089554526898799, 0.041911942085942316, 0.01690155927247631, 0.028228023285663508, 0.018895647838729428, -0.0026869658415105925, -0.0374118040849403, 0.09645006780996603, 0.025559793067035267, 0.0583039850794709, 0.07042095410758636, -0.03246278700883502, 0.023289507557773013, -0.023346302968271674, -0.06454753707034545, 0.08040339629080641, 0.076655718998558, 0.0034735452044527626, -0.061107502592653185, 0.05129791815158884, -0.048017449629421435, 0.10384329549007003, -0.010998919815502843, 0.011775702603924774, 0.011250144713141324, 0.03471773340490797, 0.015988911120948145, 0.002770078480721936, 0.15963943913262782, 0.012009415404946525, -0.05175003440699816, 0.027291587795846353, 0.0010116897609517715, -0.01348567562340628, -0.0013958951111373572, 0.026422236976472394, 0.04306234523177726, 0.08415365794333246, 0.008462725648240249, -0.0637345592677058, 0.1877161150916976, -0.037000700991998516, -0.1392027765555145, -0.021699548767861673, 0.049756294785204415, -0.048361094598782135, 0.009187256220895378, -0.10467865622491086, 0.012418495085830752, -0.021852515901410696, -0.0036972028811003877, 0.023065929094205836, -0.06916870065476244, 0.07821119475044115, -0.015607354807094864, -0.08984896765330982, -0.10458417709407994, -0.007604310314204154, -0.04847497947426423, 0.02190787153953801, 0.05346512295056258, 0.10459284522910087, -0.027239119143523068], [0.016489372537586137, 0.010558648166430734, -0.06433417081588003, 0.047373652954925426, 0.05999138014770884, 0.0029144502286572163, -0.02131244450153174, -0.007284987869073281, -0.04505339893922492, 0.08959537877441318, 0.06877363450421069, 0.09034238376888956, -0.07079511393174502, 0.01616392205455324, -0.045565949142487475, -0.020283359187106324, 0.04982000352193617, 0.01983698469757303, 0.08410058590756175, 0.010196092227852142, -0.05579094168039178, -0.018385364591155223, 0.05611270438470605, -0.03668588870636236, -0.021639807227217003, 0.01651772634940879, -0.042409986486392395, -0.0857359903775939, 0.022840363138910993, -0.03232478836349605, 0.06794506030811893, -0.10147961441155774, 0.07883045822762232, -0.011682013348154576, -0.0811157673935205, 0.05935620471413874, 0.01022081970545777, 0.0709829800207178, -0.0131373236992824, -0.02341288331340854, 0.006489017925189309, 0.008984984504107273, -0.061409222265994746, -0.01789055374527696, -0.04311293308945356, 0.06376128352620611, -0.022060235935623607, 0.05425267193736132, -0.02457026671831229, -0.01934271836690171, 0.06339288415617914, -0.03431962418613562, -0.04312893158351034, 0.06060795093867352, -0.003961318322070877, 0.020821223294205816, 0.0795354312102451, -0.012053237142311577, 0.004471462362642354, -0.005223849519786602, 0.06269760035582148, 0.07271227641737038, 0.014402714045920171, 0.0012592367358917435, 0.12212519956745016, 0.03350022018332646, -0.005212137582995783, 0.020738032475203932, 0.01802224416975543, 0.052926409086063386, 0.0917520102554804, -0.07415361907710885, 0.06035973453263275, -0.027771524406743138, 0.009517219206852973, -0.0009833214762070726, -0.0031923615406159386, -0.04142881865456742, -0.000940822338947818, 0.035793635606890584, 0.07866556630218684, 0.03456850301290578, 0.024493394326038597, -0.013995136203091283, -0.03621032106689791, -0.04151909111969533, 0.04106151535056157, -0.0529000534316426, 0.018607479912292613, 0.03267922827756264, 0.08280446278737323, -0.049640594066044035, -0.07347684430432465, 0.11204764389908255, 0.030108610283035776, 0.02899605138311418, -0.051569027984599156, 0.03313549988742502, -0.01112557205187596, -0.010931905713425612, -0.018970835799804985, 0.05458068868929013, 0.06424738949961574, 0.03878583744851005, -0.04227452430940427, 0.09164591557714125, -0.057022964717171214, -0.04075710546402224, 0.04520832925254837, 0.06065949446931618, -0.045754452032763, 0.08881637679722151, -0.06938478608568027, 0.020475277322360964, 0.006293247061177089, -0.021105629950787755, 0.019435580793021896, 0.0026606989283942143, -0.016124309306286826, -0.0085901051987987, 0.006007799445805015, -0.08515916584176593, 0.015394969526619971, -0.072285638671313, -0.015373905804006863, 0.05405011257239796, 0.040070193676758056, 0.003837335428104058], [0.02697875489100209, 0.007869941755832284, -0.05399112248861546, -0.03926210602658622, -0.09454048690266292, -0.04753626253164671, 0.05592292286461627, 0.005411123509603128, 0.004278032154774203, 0.12000838230804867, 0.08648580012416957, 0.03242895003429627, 0.01415816329306687, -0.020449298658837954, 0.021474459878158818, -0.023800925116479823, 0.021331252358070648, 0.011218671879062699, 0.08931395131993834, -0.01677443299705192, 0.00784055764539762, -0.0025571106590571795, 0.02570803437971781, 0.00856649321200274, -0.004536189077525227, -0.04725400284556637, -0.010337656084063822, -0.12162639456910616, -0.0049911381749671545, -0.02391708073620288, 0.023448273918892346, -0.05984199809985627, 0.017625316245249666, -0.018293589704446726, -0.0598856134498989, 0.02164023350602209, 0.07354157752213258, 0.02492377249879648, -0.053243806974269114, 0.009250277429092573, -0.023079269413625057, 0.03598785226256334, -0.06233172486973964, 0.014400774228406719, 0.03260533745126426, -0.0014001432606424247, 0.0018116071730385028, 0.03740202784248102, 0.04893729800032208, -0.008740478432972716, 0.02309493304379362, -0.03865241037506101, -0.01811824955482883, 0.023982295925249097, -0.01537560345513224, 0.04584779773092477, 0.05889372771485183, -0.0020611780696696224, 0.007343692993172556, 0.04570546537400665, 0.09323353422931775, 0.10553160773875152, 0.05526893276254043, 0.02108897555364073, 0.1458091273028777, 0.05031247234210594, -0.010784103066793727, 0.047023159282000924, -0.018046553979263805, 0.030429361035982667, 0.08108725265721362, -0.03774644397761666, 0.03627350623056891, 0.09019109650562158, -0.019276215942436496, -0.02426579512928488, -0.03413670937008156, -0.0186426213369329, 0.0037173311389864555, -0.02327274357449355, 0.03524500634446374, 0.0385832846323979, 0.01825432102273508, -0.005893183673032834, -0.01581622555732111, -0.10602933491302048, -0.017569369907368147, -0.04614883671561692, 0.038406235310414864, 0.043263052447273014, 0.04165369839285469, 0.032817842569526336, -0.04775084686467031, 0.1433851183884222, 0.006085989154480383, 0.005567644529385508, 0.025700284822509502, 0.009893485287930683, 0.0039094598734640655, 0.059194336768028544, -0.01463143559506628, 0.02318128468082799, 0.09779045766236344, 0.04923184868933954, -0.03262080773964454, 0.1006922092654047, 0.04810766049137249, -0.05469773863332095, 0.09693607572822378, 0.05400332336344929, -0.07203997422112847, -0.0035240189166817503, -0.004486970811910792, 0.08885689052996643, -0.05852833969503475, -0.12702720677306395, -0.06658124193280099, 0.023364151138922082, 0.010794867036656443, 0.0042847646450261635, -0.01654827581432628, -0.05026253618262893, -0.03140487812241766, -0.0013027288548046938, 0.008973287123652605, 0.05120468930576206, 0.09760279436640612, 0.023298765791080672], [0.024022152289646402, -0.005214766180927217, -0.0714492370641464, -0.04347743919089248, -0.04538478377005712, 0.019702256686753985, -0.0614717618134434, -0.031617782049389344, -0.06322041071302581, 0.14861290723895923, -0.024340035567175466, 0.013086163218519497, 0.0764677861815827, 0.04167575226519913, -0.00857663124650507, 0.0059539067852692066, -0.03617512211186915, -0.05673033686976055, 0.03176819796105563, -0.07604869158147401, -0.044284339977703584, -0.025902865195976357, -0.06371657700255487, 0.044440847928581245, -0.0975633713024303, -0.005818139778293915, -0.0031495676399499084, 0.006579991540013385, -0.009249610685035619, -0.007892697057155383, 0.08851991783943827, -0.187903667522864, 0.09186312817366747, -0.0111181242637872, -0.04640576939948866, -0.02397538405148875, -0.004729515854783212, 0.014375478554421457, -0.07224235939092036, -0.055672630915516996, 0.041153024246788544, 0.057318448729780654, 0.014951293880889742, -0.0138982820917367, 0.06560760890439947, 0.06409820439290176, 0.005955872212769355, 0.01942824102110451, -0.029758500153454017, -0.05014083838943974, 0.005556356810429271, 0.017227788536947234, 0.01810369451405221, 0.06491225448368132, -0.002614969882846449, 0.06822704402470217, 0.016527549746907785, 0.044300745424600836, -0.004757046388912804, 0.03331183531305442, 0.11058745023780239, 0.15547523213509495, -0.031146763821689807, -0.01479837319069989, 0.20562837687355562, 0.13744671659607904, 0.038199069078054725, 0.0444608117322884, 0.008619374405347586, 0.09872591770356375, -0.009289136857318385, 0.015631625737172448, 0.026198204504202533, 0.03499066293766318, -0.04696872353455433, -0.07169785476602841, -0.007717334871599614, -0.023366322353558414, -0.04908532706228374, -0.029709833278691148, 0.05712357325720223, 0.002796490884485153, 0.016452076401952582, 0.019789106302117374, -0.02680747726259064, -0.03879485218731557, 0.015811156880549408, 0.009529825074303283, 0.048578661538442314, -0.026834305466506274, 0.07046090372171362, 0.011513540375221497, -0.016918071635670762, 0.04995378919745087, -0.06058866138816334, 0.03803426461628098, 0.05516928418590488, -0.005879610063184848, -0.07141080945445896, -0.008779347740869062, -0.06894520403938015, -0.03970612988314913, 0.07427032547350285, -0.031647928931558204, -0.07154335973576062, 0.13174072301905754, 0.05510433700845622, 0.02088871933741938, -0.021367315388049007, 0.059871551390605515, -0.04267721085561519, 0.075802770845796, -1.9580546903787783e-05, 0.056700934311180104, 0.02069470830322148, 0.09685700400706079, -0.015749640397721632, -0.015132240710239216, 0.02424432629325004, -0.028360678538644, -0.02752794692762076, -0.03878712664800761, -0.020651721296094754, 0.05720005346989706, 0.04599751348162698, 0.058926602497863974, 0.06110059748434746, -0.020255679723633204], [0.009153763858235665, 0.0976772865843689, -0.04633250810727902, 0.02057236546355619, -0.08549130355023168, -0.06307291676121064, -0.01742898513456194, 0.07047308874329042, -0.06324696454742372, 0.07954585845182023, -0.02827808793580271, 0.10264962343362094, 0.08228983896786549, 0.022949991856160687, 0.007391537575080834, -0.018514843110456442, -0.010456070832186378, 0.016400862732872733, 0.006769494406620604, 0.011547332558802829, -0.049433886024624285, 0.035681137406873085, 0.031390663010041814, 0.10412345810452715, 0.0006368905275234173, 0.0041656140541657775, 0.04421921647243778, -0.04455882420660607, -0.034201105320430365, -0.015813323748466328, 0.03826033900692685, -0.0664854587816989, 0.043498419115455565, -0.09798746240055957, 0.03605635461521839, -0.019139688456559018, -0.009011122071024311, 0.04298904045317719, -0.0391057371574059, 0.032305577469556965, 0.013532071350504845, -0.038231427291556486, -0.07249202826692991, -0.04314413116570129, 0.0023215153602486336, 0.0008184914294001264, 0.03182635701654765, 0.03031056420886494, -0.003433855622585404, 0.022465416962359798, 0.034236742435416405, 0.00641458603501519, -0.02006273313547956, -0.02827659601391752, -0.012533269395820106, 0.016417002416498423, 0.03860456687640832, -0.03753112522331438, -0.036510217412265115, 0.003614859267427166, 0.029191994117228517, 0.10457146459661128, -0.07878668116055833, 0.0006614552813710625, 0.06005929768344139, 0.13468120481832316, -0.07044198228203664, 0.04267944480391333, 0.00810889132290297, 0.022975383514573972, 0.10278482125650305, -0.004848603055073014, 0.026866534256634288, 0.05572377524273513, -0.09087223822677998, -0.027658790760217683, 0.006407768810955945, 0.011589300589385735, 0.03905073062618426, -0.01570188114878128, 0.015555928171531815, 0.057409200748888355, 0.06863785274466784, 0.03149543382338144, 0.034230918944418466, -0.0683847781778211, 0.04132467022641356, -0.09789412010276008, -0.011615304877497998, 0.03503791877783658, 0.1141944971390765, 0.11145385009071264, -0.001992589397411455, 0.08009821760808276, -0.0903267212934186, 0.03289024222312756, 0.09397956454077085, -0.049644343300565545, -0.04523105288559292, -0.0028462863087218727, -0.0006036301000374211, 0.03300780712405824, 0.04008838756410998, 0.052613480779799875, 0.046428112859518034, 0.06533431899776071, -0.04165477919308941, 0.026487296336776822, 0.04290750536970028, 0.0001717742524522067, -0.05474908697257899, 0.08272719004965727, 0.05196952320019853, 0.09949890168101205, 0.008820001241077898, -0.03611729102977574, -0.08032679923243266, 0.03243277768927027, 0.009848026945389584, -0.04069796320231328, -0.01038179517010484, -0.09471471021929607, -0.0040811525397313, 0.05217025880137566, -0.04419437995077265, 0.14475951575301832, 0.016965937248603867, -0.013409990478405744], [-0.01205691993263819, 0.05904591934433071, 0.0005611493943538383, 0.0013707347519060628, -0.07620597480908727, -0.00991477799042509, -0.0519548536351866, 0.034666861140003315, -0.06375289191519387, 0.12295775638020322, 0.004523972413035024, -0.05711028182964726, 0.015809994498858004, -0.009378949679876732, 0.07732783922085916, 0.01576497466836244, -0.04153154187406918, 0.03651022058785449, 0.022902241060505795, -0.04937514859456158, -0.02634350231256475, 0.042171692667478576, -0.02526977650562801, 0.09040436851290448, -0.06017550036197834, -0.010482652277532853, 0.006329656520701978, -0.038015804674137614, -0.06816108847250428, 0.012492018526346542, 0.05009983020433975, -0.07280823462483477, 0.02286375607870298, -0.04137685802921506, -0.028211995795438177, -0.019105186807090332, -0.027636098928276856, -0.04365287868355553, -0.08557294056839773, 0.03697301064909718, -0.04138849310734348, 0.028427344941176373, 0.004520312071390212, 0.07332583478033683, 0.08766812686144294, 0.016636692625592073, 0.04042230141301021, -0.038024462714439884, -0.00015081246409495429, -0.07874421167097, -0.04946317515156094, -0.018398478651146292, -0.021255494698477127, 0.009255505944301667, -0.11925729416118414, 0.05796677242436721, 0.03328169820632949, 0.007652755998750712, 0.03678688997946319, 0.0244909190026013, 0.007518737544611891, 0.09373656058775495, -0.03847920862323873, 0.05620630012818962, 0.08226493790260142, 0.13123405795581072, 0.005016289298070445, -0.02365746078341775, -0.01402862163531874, 0.06739086587919568, 0.08713440052105009, 0.02002302722741868, -0.07819575390292627, 0.07806263973155167, 0.015116180612833145, 0.003899383295653764, -0.016709608082269876, -0.005922925941384378, 0.010023069124843294, -0.018352509700701635, 0.05092745069029638, 0.05934676483641243, 0.04406139123809546, 0.01621792897955085, -0.0036690471346988284, -0.04320921307507688, -0.10814828570467529, -0.05238057903935328, 0.01688211993886262, 0.05746856858207558, 0.10505609686425361, -0.02045514087379695, -0.0961012903499662, 0.07731822393693442, -0.06555126671696702, 0.06619659104894347, 0.04577709700830377, -0.01458211635171198, 0.03267851893109026, 0.04294661569546636, 0.03206192390858147, -0.016521961006084867, 0.0321194207717715, 0.002870249354038065, 0.05224399235623061, 0.043704974838618335, -0.07089546702365952, 0.047278567131364746, 0.02811573571185302, 0.03348747780912101, -0.05593079182457673, 0.10544791587544611, 0.010880441942398802, 0.05839450450898693, -0.0106327653097854, -0.00745989151767637, -0.04004253898490339, -0.005675674188602397, 0.028615898537026778, -0.009530950379477397, 0.031589205665892614, -0.09788799869358165, 0.047617216485282096, -0.03610367795365234, 0.010518610695147037, 0.037394700053427044, 0.027257857362356103, -0.00751326005800768], [-0.06684636168032483, 0.07126102641200338, -0.007483937365136166, -0.12357024460172847, 0.006468694291882304, 0.04387210773836063, 0.06799487982295177, 0.07725314864302767, -0.07708352539912937, 0.00250753816905057, 0.04401565520999148, -0.03026513545855189, 0.0799015864629307, 0.025261499097791566, 0.03271575717571776, -0.044450202192487666, 0.019372983526360285, -0.024755868213536196, 0.016222542295149057, 0.022405463066373837, 0.0265928867908697, -0.02373305245657586, -0.06397934871978808, 0.07468045908295418, -0.02016041006376231, 0.004811554112114825, 0.048833900007071995, 0.024563983890530355, -0.022937178751747684, -0.014715006212938676, 0.05316207044116387, -0.05493741663378693, 0.0684183690063914, 0.012314208566582727, -0.002347128995710141, -0.03016370430524784, -0.0036047589905129824, 0.028726736877178995, -0.11711096033436423, -0.02717499854503498, -0.015418196530628467, -0.056723202312744685, -0.003482287815782754, 0.04356362438411063, -0.01460857327833249, 0.022433888636278466, -0.016144893445949923, -0.0905394756421614, 0.008862479876891882, 0.009581891097533183, 0.012588083160862212, 0.04958193960666219, 0.02095456529556152, -0.028677548854234517, 0.011465972975639574, 0.025309807892162053, -0.008574335235850177, 0.010316925058761597, 0.03734828465447788, -0.048707158879805944, 0.0012670606764814346, 0.05021712885686309, -0.007956786786271406, -0.028287190652614543, 0.007786185406656325, 0.013731189546683885, -0.05233987920213534, 0.07414105437540476, -0.057814569656384936, 0.07671856110308177, 0.0929118630460961, -0.023120088427094804, -0.028936478397055813, 0.08370718868387264, -0.09641802719459683, 0.05254654405909323, 0.02275608577509283, 0.025860789100678093, 0.038551461062525466, 0.02172149188862142, 0.12857434192408185, -0.01337169726409313, 0.041905326468832216, 0.1005691951869479, 0.0025253495736929023, 0.027179623559733617, -0.006159871612406484, -0.018869631003975745, -0.03389764645933935, 0.07685754238175924, 0.10702811698432978, 0.0454317940284947, -0.028644778299224623, -0.013806363490285968, -0.09766430381774444, -0.04437055424522826, 0.03593442011701139, 0.08887729507576796, -0.024997844835011104, 0.038662624179893794, -0.018547442468223874, -0.004324948526725855, 0.004262585183776795, -0.0012505099743540008, 0.07691657411577599, 0.07692634638896899, 0.10721493636786211, 0.02750053114578566, 0.04215839889294182, 0.07682994348412744, -0.010399553088836312, 0.06416328541228411, 0.04469631584238315, 0.048861947253901424, -0.03678464249569239, -0.009071834861140278, 0.01379859658160751, -0.02428615366464524, -0.03149074898350876, -0.09801944737478056, -0.004342631132864925, -0.09006636042282601, -0.001747426700113884, 0.03866904151932128, -0.0074360769265355104, 0.10211955419187263, 0.05442323090431982, -0.11551229993510549], [-0.05581564227433628, 0.012966748451188791, -0.015845982129980424, -0.005587339697895881, -0.042103262503614014, 0.0744127337483202, -0.0436978645707904, 0.019685692026448105, -0.003906511010583658, 0.07052246351713459, -0.0731232001373067, -0.07100330227798193, 0.023660739154731176, -0.057685489690361816, -0.005869012272403321, 0.018489309363021837, -0.05677120058644165, -0.040792759404087456, -0.009604996034934515, 0.04657084126101248, 0.014114075524343976, 0.0017435747302377593, 0.02467618361997169, 0.0480706593973691, -0.01679010445951709, -0.0022938054314936445, 0.03321198803327446, -0.01906717072786881, -0.04851008400214265, -0.03132503416000152, 0.05706880428813269, 0.014476727273505269, 0.005310921513973279, -0.0011797121574415885, -0.009444270995995041, -0.015770545967531812, 0.007066007597823096, 0.07052673587626095, -0.023646719209888725, -0.07746396406632085, 0.02936163494891183, 0.04298283879116009, 0.005730680844038185, -0.008543964865724866, 0.029677250377799263, 0.01689897058562666, 0.0578926470028476, -0.08738476758786547, -0.024260680086623562, -0.0026134701622748877, -0.012759115372165442, 0.07668722691771267, 0.04820507148179481, -0.023619323780252367, -0.019091374763295796, 0.0004814466819510955, 0.05006481805734565, 0.03189643007538852, 0.10609420954674197, -0.025498660718251704, -0.052021976172418646, 0.06530314559752297, 0.005636562928886744, -0.012357327731270034, -0.0033746070417272267, 0.034694626468291835, -0.05174560759090599, 0.006590705387417743, 0.023199846152207135, 0.031995370242243346, 0.07674544947476995, -0.06031645241690445, -0.006411644822185919, 0.04052448032060666, -0.00606428281296324, 0.05149511747795679, 0.03674020644664024, 0.018220701510564433, 0.042723077730529746, 0.027700725318638406, 0.09672307148141594, -0.04266993589520374, 0.008623229925451554, -0.03259596299682763, -0.0364587019153686, 0.009622517642795682, 0.008583534330466535, 0.03730873495433345, -0.056139469137602, 0.0647882037134594, -0.022307268100237483, -0.02837031030609429, 0.01852600861928887, -0.0419783124465649, -0.027452956937914063, -0.013397934700494003, 0.06924029416988269, -0.054942186399633115, 0.022583263876165913, -0.053555180654813316, 0.05941691271926206, -0.011725078209978921, 0.011541145421893467, 0.002904565981403602, 0.04335707694831625, -0.07177560237797968, -0.021146027627994463, 0.04455363539827505, 0.011192153403058586, -0.0430745025570082, -0.08337620221130079, 0.08191243721485784, 0.03152513863267894, 0.11143612432306389, 0.043762091923268284, -0.07087272892076167, -0.05539747266902721, -0.0004742452727787642, -0.030979463776863746, -0.11251937712044352, 0.024606439337828467, -0.03714793646844717, 0.02226520323666089, -0.03425003822878273, 0.030088855838591704, -0.0472463760221319, -0.04618996062471205, 0.009654696195465691], [0.019759723064265947, 0.006866531056917053, 0.004633374763521678, -0.028687390911604202, 0.018755506826200228, -0.03488002064736314, -0.05766586966731097, 0.024672861041256093, 0.025961807034384388, -0.05240482798129209, 0.03012385309741637, -0.03451275399905157, -0.01227688340814922, 0.002969533730352705, 0.07931818301384967, 0.05068520781172358, -0.08538376956347006, 0.039347070231563044, 0.019901268517797718, 0.049951319336916704, -0.024245313007055326, -0.021174985738094093, -0.054242277592216954, 0.10180355649482505, 0.028284806933171196, 0.003701870939963573, 0.03356708445130516, -0.02302098389140185, -0.025418692969305035, -0.024181866974729415, 0.0702479665508622, 0.008734569890819369, 0.0011435248448882526, 0.02922016645598418, 0.006509688932152987, 0.014916088938965347, 0.01380609541848717, 0.032823933619466214, -0.029901941833917065, 0.01793144741257047, 0.022134555250399042, 0.05174004602346809, 0.0409028228532652, -0.04468935572767053, 0.05284037900593974, 0.032818523179014514, 0.0570957638263703, -0.007105807411000589, 0.008220996448151519, 0.01766713433531835, -0.027780143040215623, 0.022437078278441127, 0.029853197425006618, -0.004189223719965319, -0.012507830433660575, 0.01736614945012617, -0.03447031407691995, 0.028019480626227628, 0.0934388212902022, 0.007783664952035401, 0.008135397639069444, 0.13554700594630475, -0.03983775372842863, -0.01328811364970892, 0.03494147207394221, 0.059057558190713275, -0.0786341708420481, 0.0621695239065201, 0.006361802660647895, -0.040282272914073415, -0.0058478851748942325, 0.002461701735975969, -0.0008006857943927055, 0.06855289136489418, -0.036427078013678414, -0.06403989489036252, 0.04243927831171075, -0.042442871546913286, -0.0016414400085202146, 0.06427088268052152, 0.0283337496766001, -0.0015478022390638525, -0.017958080051876102, -0.00911406867276365, 0.06757108488651815, -0.021222219323981828, -0.006515557204297104, -0.012334980120939414, -0.039103208652839734, 0.008219403274012974, -0.008534009285019663, -0.037989005302911716, 0.0174365795281167, 0.06839201594225836, 0.02468391442213723, -0.004096387897755839, 0.0554466874234216, 0.07666917297024958, -0.040067656189670606, 0.038627355614042375, -0.0034842748782298876, 0.024422585514638617, 0.002155304254189827, 0.03002303926535182, 0.04279551134245073, -0.0029506082815540327, -0.017783639932500647, 0.012546276670464256, -0.04537809909961935, 0.0388447302562744, -0.039373001950881954, 0.050489270053385715, 0.03368540229411073, -0.009416900087572844, -0.004486542809918699, 0.027339639523633864, 0.04563588559741788, -0.06885702619290214, 0.04807113852287799, -0.02397275030519488, -0.0029406480461006326, 0.030324316099110835, 0.06038698472144471, 0.01998651436171248, -0.012723273990241969, 0.00364304989550438, 0.0491578307653493, 0.05142461531557582], [0.019752833934166106, 0.014190038824532193, -0.03880456527886248, -0.055697013207581594, 0.1036695307164712, 0.06194890371385315, 0.01830803641577073, 0.005009217780628519, -0.038850972730795026, -0.02756315012739662, -0.018097422755578012, 0.018411306828092423, 0.04385408091239774, -0.019648002437220174, 0.05634296740431156, -0.009421346458465615, 0.004119594921555523, 0.025420134517792244, 0.010936392036731923, -0.038939350418651826, 0.03483719383185114, -0.04197290341934073, 0.004668638200838354, -0.07612706688493055, 0.012201081014348922, 0.03600393408861287, 0.027184826731285677, -0.02390395933857488, 0.03747977934181194, 0.006044125249637728, -0.007822484334797687, 0.015330306873033068, 0.025642979564008406, 0.021141134649235768, -0.03546060343700646, 0.06563121333010315, 0.02421672436497771, 0.010523272807191885, -0.047481754500173314, -0.00721207293596369, -0.03991824640226523, -0.004742742785120884, -0.015623322854509783, -0.03923551072590538, 0.06836216951389494, 0.05335822958139414, 0.03531331382404691, -0.06262577386607046, -0.07624127245225379, 0.0043366991443301705, 0.011960458324291238, 0.05323963483865338, 0.07477593234238936, 0.07754515010308957, 0.024855298586842822, 0.05261595931789881, 0.03584341150623014, 0.022684516576077726, -0.01403510143199402, 0.040329336632786, -0.07150129083884334, 0.03946652221602501, -0.018553397630252197, -0.05628422213008012, 0.017879289858900343, 0.039369500066469616, -0.047090104082754325, 0.02235716234607319, -0.009117195085370886, -0.002225166541218107, -0.04481189903396817, 0.04478721591965979, 0.03862527276265497, 0.053964763434582834, -0.01384718551535606, -0.013446681399790276, -0.03984632093960227, -0.0023753669205329995, -0.020010905597215422, 0.013816482859830075, 0.03598120114881625, -0.0485673767282903, -0.05548977980432438, 0.036478651748073965, 0.005271981416447237, -0.04555569165561149, -0.018206825587816795, -0.008444631806914139, -0.022867132238591444, 0.05613193652836941, 0.06893202695914281, 0.034637112440192394, 0.00893086544448222, -0.05578753445688864, 0.009042724431134458, 0.028341938883809734, 0.017072372717002432, -0.01981589241748335, 0.020153989585359543, 0.04944240090035098, -0.005138267683745903, 0.008010345263095903, -0.044002983243627954, -0.01659294026524012, -0.036208516993414555, -0.014254284354678345, 0.004473390169278692, -0.004495778473857215, -0.0048337427540809195, 0.014949612945754719, 0.021983551459604792, 0.02716546591008452, -0.0179760883485151, 0.031720831340637634, -0.005061400982736156, 0.015419171242093216, -0.10147647009912084, -0.02066762444292527, 0.04140089073830274, -0.01358213481156729, 0.03392494242530239, 0.10257559756392265, 0.04864445253005678, -0.0828357444685977, 0.0668960866990099, 0.05137082456763206, -0.018273468370953082, -0.001469966180816516], [0.05811388423985195, -0.0011721502956344456, 0.03373112583125984, -0.0006033662072639535, 0.035070336702424335, 0.0030169345322727907, -0.07291500031930252, -0.0051135253219419885, 0.04316608280241553, -0.024873255078386274, 0.014806705955095385, 0.03913986946507594, -0.054727895027296886, -0.017907701503866353, 0.0010572617628192386, -0.0035840706223390505, 0.06139943811941383, 0.019106464461236178, 0.0024074849509102304, 0.0374896826814633, 0.004377894428923336, -0.10308104598504707, -0.058785861412869685, -0.018307123176369223, 0.032553777390395944, -0.0202581484564624, 0.037780866284557055, -0.046891453929016766, 0.006016348561401723, 0.009044593847462657, 0.05896803719340521, -0.03770229653583047, -0.0039280938106984594, -0.0636509522602112, -0.020551767179305333, -0.037931114940349064, 0.07043602481559544, -0.0094792683041243, 0.012943503060756896, -0.009284586126741396, 0.020406809112670447, 0.04531832076587357, -0.023271404350575023, 0.01025449410059467, 0.01885327968740866, -0.03047474393401635, 0.0075054881850209225, -0.008708122055423454, 0.028100112914298973, -0.05838460499905572, 0.013328922148025165, 0.01804123115873882, -0.10038077956844567, -0.019860187594831918, 0.05288936147097383, -0.026710789165708036, -0.01712484082947891, -0.011274424351838373, 0.039675681475714486, 0.012266529534436642, 0.0303473388303719, 0.04868289507143532, -0.07690560915138206, -0.03380636552599404, -0.03157942136582321, -0.06649771207896182, -0.0767991722543728, 0.009031543997745554, -0.04017301441331561, -0.00812473581492354, 0.03493912630243114, 0.018219330595201453, -0.04054576290257759, 0.07605483017898175, 0.012718284820366734, 0.03064262563749408, 0.03450309176710482, -2.1315787314390523e-05, 0.06284650597682093, -0.034998564872156, -0.019588926321828598, 0.015150524320035694, 0.03370766892940975, -0.046136375918851696, -0.010237558212282252, -0.010644344093621486, 0.059766350480851535, -0.024656021849705917, -0.025753928649160887, 0.01783965432956624, 0.0466146741712421, -0.003941523209134496, -0.010354817615378419, -0.004053124867725049, 0.0077086209845639705, -0.07244121670678393, -0.03125910744784829, 0.001618667183766689, 0.026664021301622095, 0.026736854391708958, 0.017472348612524027, -0.0016007687427871213, -0.003070644837039019, 0.04768119643091233, 0.021518332402805748, -0.04648807172843254, 0.014313347884542953, -0.0019814712727134246, 0.03830648986829324, 0.07379097488627825, -0.0049076102129800465, 0.04213926943217271, 0.008613544301100024, -0.042721586981513245, -0.03656001102630174, 0.02325784903884366, -0.03087579361207442, 0.04130008733577529, -0.014874167342935726, -0.0634262414062612, 0.07349930006657666, -0.06651194843245375, 0.02621444105229185, -0.0010043505041741642, 0.06106469061698499, -0.04288000238051481, -0.03586040766836837, 0.020580919273907334], [0.00611914742882122, 0.07580329033293065, -0.07951610569596695, -0.044964124543880955, -0.013017352081461393, -0.04660530300131827, -0.01485481233974047, 0.06021268571701063, -0.048306862960918996, -0.0334812505844829, 0.002964297739295651, -0.00014638504114554405, -0.00721267987114336, 0.0054510120475271834, -0.046286831200479286, -0.0034995840965589284, -0.02167432981740135, 0.0030614169797651856, 0.014490952385264693, -0.036194093733498287, 0.029788352849819254, 0.003572432076824797, -0.048802075297386505, 0.04712307609831507, -0.027820880612829075, 0.002269503822972887, 0.007590208711893995, -0.04741702400529096, -0.043332667235242824, 0.04619210027561815, -0.02447163970208871, 0.04409034406026909, 0.05138293728708016, -0.044804115661290896, 0.05157092334909881, -0.005629356292613319, 0.0205534745222183, -0.008961539859803346, 0.03974861040076603, -0.013667862173326911, 0.028446329672305988, 0.018096476840252642, -0.03140875497796919, 0.03368021277358738, 0.05328581872216295, 0.006596981116778019, 0.03728727097597788, 0.02362007593815012, 0.012929358284077928, -0.0009054798583945331, 0.06354149640852993, 0.019228781803063148, 0.01668802537274573, -0.02525605492953036, -0.005898280517819612, -0.04290820311617658, 0.01726492534948416, 0.0514625204926471, -0.039347598644733056, 0.05185306095106397, 0.040684715086688146, 0.019940901927101337, -0.05172920834055696, 0.06527843708876993, -0.01653643940639577, -0.019217164108852717, -0.0641467139429936, 0.01115216693419274, 0.049420587429920323, -0.04965766105716609, 0.012535887225102548, -0.06989671246392835, 0.0017893236613442359, 0.024129427279295238, 0.023249335028121786, 0.03893915050014476, -0.011515963336521976, -0.01847337038168637, -0.027025554141844436, -0.012505910049036378, 0.04492435017288685, -0.001246550018287274, -0.06317624206067213, -0.010855499068852805, 0.024515424834145372, -0.012966405581711467, 0.059808415096016754, 0.023317241223886707, 0.03815133445314734, 0.04003064649088887, 0.030217212409378122, 0.04193929135028558, 0.048879163837898545, 0.029601095421231786, -0.08533349403641312, 0.013225283895722023, -0.04451640321510172, -0.0049343641708490356, 0.022276793623372534, 0.00563097657454798, -0.011000659638135379, -0.030072187791567093, 0.06304502361567013, -0.016045384182905808, 0.03714407178137483, -0.07646337514112073, 0.09496964571264573, 0.028442285460758464, -0.03275088758184868, -0.01716518409444449, -0.0430204767342774, 0.03337750228594115, -0.0014383472890168835, 0.006383957661940699, -0.06062191265673369, -0.001771267372725179, 0.016522504442034156, 0.10787475041634266, 0.005573417452358936, -0.06025986349703123, 0.014863157611939355, 0.0347424799308372, -0.03961551442735254, 0.08908812662181947, -0.03764911838277492, -0.022201433597035844, -0.06682352995916774, -0.0015484177339555115], [-0.03526993802837803, 0.005902418668742856, -0.008313074585917844, 0.02269331943079933, 0.07763184938520454, -0.0012306987713907437, 0.021900983100493873, 8.090428335729681e-05, -0.0342931208057462, -0.007020924963080085, 0.00866629177924928, -0.02351573596844802, -0.018612811636593028, 0.007320412144336326, 0.017938114829814264, -0.0013069070507941774, -0.02156328770060592, -0.025549051752622, -0.03635097307819549, -0.021045030067048866, -0.05180167438137371, -0.05384884381680454, -0.007455928776304649, 0.029096462704238348, -0.005559300448987211, -0.014870078269202823, -0.0637170631365962, 0.05213347560762424, -0.0076225823532022645, 0.05526008452991672, 0.006205308785652274, 0.08957401358577992, 0.051950934198339606, -0.01240682342322331, -0.011714115531969993, -0.030460380648247708, -0.040768256513364645, -0.02836654086189103, -0.05253718668090686, 0.03504375450044865, 0.03840900308308191, 0.014860911572452357, 0.0585710744194128, -0.0031850826385001517, 0.014463140936579902, 0.07276627000848956, 0.05772723098125293, 0.005194099059267507, 0.014495362615537948, 0.012114402876703298, 0.001129450362676623, 0.010418702897588068, 0.024155677854033556, 0.0370015006805767, -0.0698528110037559, -0.011898153214784817, -0.089539213380061, -0.01160806599065291, 0.05846932907893845, 0.017085549157053476, -0.05578119415439275, -0.04144103725035674, 0.028134458811560948, 0.0058555041509144225, -0.07286970113195354, 0.010297191727942981, 0.0038745213400295598, -0.01992721959548184, -0.02569638993934515, -0.017904667422716933, -0.003747840748760807, -0.05724836026447734, -0.03642144536498598, -0.07502252567520862, 0.016546783737219906, -0.02293124896407808, 0.034775355600133735, -0.061692801255452276, 0.021353201646503547, 0.003852944305119943, -0.028382291310410306, 0.04447398706483232, 0.007844026647397079, -0.01749535426853598, -0.0033950694625618457, 0.026347555938546634, 0.02701134439996799, -0.03141612384486214, -0.050982806202361675, -0.04861100554800174, 0.0012088252248843594, -0.022788708759835463, -0.007488195151730401, -0.010450565471317716, 0.05615496112273008, 0.014282116940844558, -0.0001910787089238829, -0.07715857003000884, -0.002232195740050042, 0.06847031819266573, 0.04610046815124174, -0.021198636926578845, -0.014603326867252317, -0.027455995163453397, -0.029841866522160556, -0.016688943756085536, 0.015742211511804424, 0.017498056064901485, 0.03535101905100253, 0.007366011544115979, 0.010706644554739101, 0.04363078521831078, -0.028701259693401582, -0.014449499582756502, 0.060979996101747064, -0.03755086147211365, 0.03540440055120838, 0.0998376974447777, 0.03962899048300282, -0.01667047731900708, -0.01871058904749831, -0.0022783006114433157, 0.011846548783638134, 0.02082477004991797, 0.04113354460771171, 0.009044788968313733, 0.0516587306162561, 0.011697334005098486], [0.051150369583466894, 0.005955961116690088, 0.06628580367456684, -0.01757180325956607, -0.09190285719498058, -0.01784411767393828, -0.02070110966579835, 0.007266999545660596, -0.03540518933456112, 0.005186359204548651, -0.04773288006403227, 0.058787148595232014, 0.04072688084058272, -0.07022587886854881, 0.0002406227563804485, -0.11645244384320115, -0.03596839405830774, 0.07422513131838648, -0.09961278237948594, -0.03292519082570644, 0.01002647539060135, 0.02123880819087513, 0.0316960489241156, 0.06916890926093683, 0.007519597776862192, -0.01562091289861978, -0.005377557436897937, 0.013848417723437945, -0.03793263815831464, 0.044980976172835675, 0.03835745287838916, -0.011286398993590569, 0.014687852612010563, 0.06436207101918882, -0.0023962777060141456, -0.08762961338361701, -0.023865626833810927, -0.029030155668188274, -0.004443128935003991, -0.0028519241877564563, 0.03508589773605831, -0.0032956305294818194, -0.0005734268102245172, -0.039156534717123576, 0.055948290038985396, 0.03481351065632192, 0.0027983909082269073, -0.07282049118493729, 0.0024458804451329445, 0.015872801007554414, -0.07170192836737041, 0.05752579455460292, -0.041646750700422105, -0.042529620161941825, 0.04450589700845816, -0.009462503364819233, 0.018267468442871033, 0.045364308675922796, -0.00054452336570452, -0.0014571592103726245, 0.021581797418683143, -0.03792521518083304, -0.005742136114377929, -0.030590931308796882, 0.046672559349245295, 0.01168702619155788, 0.0208708829880348, 0.035207293140095505, -0.011572925215317052, 0.018707211255465303, 0.014328401616363482, 0.03393061570880011, -0.03770340429482386, -0.02809868625513618, -0.0007982912730195075, 0.003901850785107403, 0.028252170138566048, -0.06038442403523726, 0.04618538200824088, -0.04235972922023633, -0.026286926840323174, 0.06059947030291385, -0.02214185119756429, 0.005200962099944346, 0.03503637853704506, -0.03301454192983734, -0.10631588733563548, 0.004698152338036331, -0.027914760826300174, 0.022878325227540883, 0.02199959696779254, 0.025712623336049734, -0.006613902454368515, -0.010645025107783495, -0.0021892344923887404, -0.04543341079703234, -0.03911819122077431, 0.01486789513301652, 0.023065765533921367, 0.006007553779605147, -0.008921689664962146, 0.05222831356943997, 0.0505782924969329, -0.017990668204710077, -0.06435367117600756, 0.019279217676242636, 0.07162164219152566, 0.08138963095718213, -0.02617629562023217, -0.07222814865768079, -0.013674841778068741, -0.06786303587145538, 0.01887970978865728, 0.013436770106352894, -0.01148205682874497, 0.015265942247079773, -0.03660095470809755, 0.0005703639288821582, 0.004958409860529657, -0.04284236068477391, 0.06664223460744242, -0.06972955795195995, 0.056041851796994835, -0.016702192689923026, 0.0786817820362921, -0.017848758649292487, -0.09288939665247886, 0.042111572155152904], [-0.01699889682846148, 0.011888656395257588, 0.005510702347474786, -0.06411166298984058, -0.02806501099058004, -0.025142242507185657, -0.04741495516227943, 0.02365678559617863, 0.009470898510701938, 0.0658793577487555, -0.03465211836383969, -0.015242363715347389, 0.05195773318064, -0.10305976213571759, 0.03665560003388754, -0.004220698873503622, -0.009304530356432916, -0.06790148987978932, -0.03295560240434007, -0.025788943013349448, 0.04663131641456644, 0.038436606418367096, 0.018393576094922235, 0.015672210425359753, -0.035176527873265376, -0.007899997492872606, 0.04098593576860389, 0.03860796861376249, -0.026579713034176795, -0.029644187950790466, -0.06463397732308737, 0.0372104386211003, -0.01995699363470216, -0.05100164003072191, -0.05302097646524158, 0.01801559837925692, -0.033432693280301996, -0.0426058208336438, 0.013094950103015379, 0.004081873787536382, 0.014986476507643792, -0.08922888117952323, 0.026105144570540917, -0.02988901048619493, -0.05759646654845556, 0.11231980689323828, 0.04345470237764747, 0.05802910234522764, 0.019439376255639053, 0.06553160923000695, 0.06631170261104695, 0.028907265327449347, -0.008297699870841042, -0.01525814834764967, 0.03868995446881591, 0.03514908809724915, -0.004398755870091145, 0.005468557826501102, 0.07197790452048011, 0.03339613309784787, 0.007159040847718214, -0.03715580948198417, -0.10030813142443101, 0.04412645013133915, -0.026252553328936272, -0.0386335565309699, -0.03220126513135905, -0.04720778225066586, -0.02222012398358479, -0.015544895433766599, 0.018785642289289854, -0.03729344471966422, -0.0294656940034396, -0.024921561115956316, -0.01755766251766883, -0.04209579508782369, -0.057391585103778044, 0.03460874278671054, 0.06897130629161488, 0.04523069943309417, -0.07019330191500461, 0.0033496511632076596, 0.015460226983526122, 0.04256432987040157, 0.06195926756600451, 0.025034874572506065, 0.07397703648610812, 0.002446015405326826, -0.001479172484371098, -0.05620242332029686, 0.02092461300614196, 0.08506192672757204, 0.023953194437730356, 0.019078485282778942, 0.05541646275223792, 0.03434657350179851, 0.006162192550480358, 0.006663025564254649, 0.007440815255385805, 0.0396768307088103, -0.02364024291550536, -0.03568152906210998, -0.06593034443872824, 0.04107613700072449, 0.026314388940952244, -0.042725636085618086, -0.07291305320252138, 0.04162557386223865, 0.0382264853180582, 0.022858067836607633, -0.042523592454180824, 0.0059651616953181235, -0.0452943153009921, -0.01569556841895206, -0.030215690186626773, -0.05752519903710548, -0.014272986127606229, 0.035708609978073166, -0.018140191608222955, -0.056324843625362116, -0.06990454014044105, 0.049581270584244594, 0.01457548333730928, 0.07522130896928292, 0.0029511649814734616, 0.003576000014995615, 0.04265619841165213, -0.026105259259921257], [0.06336108050687565, 0.006989691214921995, 0.014234395398848852, -0.0035930970309657477, -0.057108361222680586, 0.028433693228983422, 0.016270032445258965, 0.053500593363888675, -0.06259857813455591, 0.10417222658632382, -0.06629638449942517, -0.004605663207310005, -0.005815530149169868, -0.023849215338470803, 0.05613113098593373, 0.023968888675867592, -0.013314474752284962, -0.07008598380183591, -0.01107665874750995, -0.015000594761412491, -0.03504571580055372, -0.04484567410374225, 0.05965586023073901, 0.10312305657348678, 0.011502206551583198, 0.06879358060399703, -0.01548168710000721, 0.02673997482156138, 0.04687947634215628, -0.07639127356422953, 0.004402866036027162, 0.07684229994578948, 0.013043977559298921, -0.06902503881949204, -0.03288926743936191, -0.035580525046606915, 0.012071805396074149, -0.050153540142780034, -0.015881857963306517, 0.000483086129392479, -0.005875540633574252, -0.008093944828945487, 0.1480950416298598, -0.018768834828767487, -0.00837506338138767, 0.05001568855450637, -0.029968050414535714, 0.001527564673322401, 0.08288963252572806, 0.0013178571441561603, 0.037943490184967, 0.04905588787321993, 0.0593438387427899, 0.04416194460673013, -0.03640288337077808, 0.008784561982267073, 0.025578671391431957, -0.09116434749039762, 0.024727630844591054, -0.014126590585779995, 0.06209677089702147, -0.0038642368229741177, -0.024783464331173125, 0.03718370880110072, 0.020932489429574052, -0.0644508391634147, 0.03520488397542932, -0.09193470738976676, -0.007616896607052945, -0.029630515768766272, 0.028415956511429752, -0.02191659883819947, 0.022363459815215522, 0.011053609472296763, -0.04022489211458261, -0.004986509287424288, -0.004664176757320832, -0.006857460028444849, 0.03887950632615922, -0.005350487940079198, 0.04487312991566422, 0.03062746298400333, 0.043546931327102634, 0.02973501693194961, 0.03936948546205877, 0.008027523604955176, 0.10713283177566929, -0.004819864075396255, -0.009965902542885575, 0.006840762470900108, -0.008486720978206205, -0.06523429731392683, -0.06117290906665511, 0.005389805518037733, 0.0009743218123127778, -0.015208280081496653, 0.009280277410157946, 0.02495449523301998, 0.01717931141366412, 0.08259058199634894, -0.004235810830840304, -0.03244947791667245, -0.008206875200814168, 0.07392187548064934, 0.03051651345215854, 0.0037568531387787863, 0.03099494834561802, 0.048714349364928695, 0.04710472568710964, 0.045750036980975184, -0.013553962838477738, -0.018733605367304583, -0.010517195414391818, -0.034926465058943305, 0.022649405103650044, 0.036798833908778104, -0.008412046123158058, 0.015136318494130746, 0.060779880164411694, 0.03073157164506345, -0.07587939159809141, -0.018533898286212238, 0.03141255903779014, 0.03346676590770795, 0.027103902843796993, -0.025629237629680272, -0.061802991856931805, 0.034102576070374875], [0.00327664361896487, -0.05978961118721694, 0.018299949907016867, 0.038140819635770644, -0.07139212810759174, 0.009968429564430921, -0.03419507528859703, 0.007716684462385351, -0.011167838859664023, 0.020513089219648277, -0.03470106503877831, -0.11582481237869889, 0.11001971282551973, -0.017056991462381977, 0.12460250905398823, 0.05188383610891574, 0.0029056481579336174, -0.031387138500171885, -0.03999059339571143, -0.015136254203616917, 0.024391136584227185, -0.020457527609513956, 0.04723409123932328, 0.05220649348995975, -0.0323671112360041, 0.014879160338806034, 0.06553730534792873, 0.07698453204953612, 0.013831431082330897, -0.015506783781827644, 0.10953339420267393, 0.002910755772975183, -0.031024795858237683, 0.03949497126410569, -0.02092066908172099, -0.003031006661208351, 0.03407957131616335, -0.010288070466429093, -0.03400302049405761, 0.02816791058141251, -0.015021030268005144, -0.028092051023948534, 0.10354212431327163, -0.007306161368294079, -0.01843520963279476, 0.01901393601255998, 0.07929175500430448, -0.02307854383576827, 0.09388471880488403, 0.022404575533568515, -0.01151847473845122, 0.009506190215182614, 0.04918590563008299, 0.07169512877537255, -0.056374030103160534, 0.014411602067309917, -0.013858192346280853, 0.019519206017449758, 0.014167635874237045, 0.03483569083711026, -0.05622024744600869, -0.011063157225269704, -0.014302711554580414, 0.05493770692878374, -0.014507850522026654, -0.010178821506127018, -0.017561526968589706, -0.05688551072593157, -0.019608626522484827, -0.02364644989167615, -0.032971449453848785, 0.043015131321803915, -0.030490335408026967, 0.023515447066709425, 0.00403085859340264, 0.03973944816427513, -0.06900783005399658, -0.09687389324677999, 0.00014182236767874067, 0.008004940341959995, 0.00846219580837518, 0.044908994254920925, -0.041691826435400384, 0.008497148537937529, 0.025027425307489647, 0.028368117006379198, 0.016599189491534525, -0.017077262757847107, -0.03822833462151059, -0.018574067489809762, 0.019757347196434977, -0.030708108714324302, -0.038939137514639365, -0.004851298345853905, -0.05083863573578144, 0.0019202679769019615, 0.05667199782008547, 0.021149111198761655, 0.025146431428953567, 0.03584656339822489, 0.03611295345568751, -0.057220447681648294, 0.010446225685058867, 0.00028588017417884726, 0.10004296881867825, -0.023015759397418047, -0.07554651836365459, 0.045891851422257886, 0.04115534827332387, 0.01510560058661694, 0.030016148218262432, -0.05690670022575333, -0.011706134627440247, 0.026867046510580937, -0.025326675763102397, -0.05495485671324842, -0.09284566197889096, 0.018769882718404823, -0.01415785653417569, -0.003377345637784525, -0.021125418407383932, 0.0008021545838036947, 0.07188450396757454, -0.024559167405078866, -0.02750011777739101, -0.03765338810286679, -0.021124311684648785, 0.019475586378476663], [-0.09912866316432302, -0.015028845874639438, -0.061409368027874243, -0.11003979517884432, -0.07371832332074237, 0.002596143530465063, -0.007311546816760244, 0.004182399242569445, -0.05300045880172409, 0.08828092624146204, -0.05265204638610996, -0.028589123631832785, 0.1155794590947122, -0.031843212215491405, 0.1479680966869786, -0.05241488790028154, -0.07136625535830615, 0.09869663394636653, -0.1054744477357546, 0.0019687309590466833, 0.021278784838874847, 0.04770024019152973, 0.016780753014488746, 0.12410260109483877, -0.05076179078362906, -0.022297219225910003, 0.03524762748644693, 0.033842512458542855, 0.0735942952256815, 0.023217099605232844, 0.07029237444746007, 0.010939984016736735, -0.03429875785523727, -0.06851749019604371, -0.06781180793133913, 0.0220696870961212, -0.016624775162797846, -0.08284352493129912, -0.05928850851979977, -0.04187103075715616, 0.006409578226199179, -0.0020893973251179206, 0.07263824079566895, -0.046173454786455424, 0.008302202924014084, -0.03434005164332084, -0.033408077664650315, 0.0021786009347775337, 0.0464530155103817, 0.008513261051739584, 0.006741041978597629, 0.07530474703579175, 0.01577461532960366, 0.06813727744936722, -0.02553833161428613, -0.02445250060841001, 0.02808310892100426, -0.0623414824492074, 0.018607556363701577, -0.005561182810770102, -0.034573215517161124, -0.08898232501298164, -0.021997548057750813, 0.06703401087932528, 0.011810008413066026, -0.028816980266548196, 0.06365773993052277, -0.006214510133849368, -0.01925585142885937, 0.028939153829320996, -0.006011255882081506, 0.021598511400169083, -0.07969592330162781, -0.010561352518531382, 0.0330378906882375, 0.01758574960156831, -0.013471299967845499, 0.05748770332128154, 0.01054228853141895, -0.023996341827099404, -0.06781213293450553, 0.10482285133580833, 0.014739099088922144, 0.024933014081220343, 0.11220115090068639, 0.029916925172930025, -0.017949547470905568, -0.04430348239363249, -0.04108513884145389, 0.014582569106475794, 0.06963486428754641, 0.0016390055711162012, -0.06306781771771096, 0.023061597219704848, -0.019214516106906807, -0.0021226814571791023, 0.0250367550689654, 0.06986682589795715, 0.01201085678076539, 0.0032051828234848155, -0.05278117352800703, -0.04906330748634406, -0.04136539440189415, -0.012135648035910013, 0.06293024780583806, 0.04649218433457557, -0.006514951984290736, 0.07011247840459926, 0.07632692384763652, -0.0004019453614010994, 0.05176944365584483, -0.03897934209225079, 0.028007717089401814, -0.06257986517074862, 0.004021942292546984, 0.022143916229347995, 0.007697860271794222, 0.05128983982836541, 0.05240575919492998, -0.05051289269956565, -0.03910041878875791, -0.09234865252337221, 0.03248392356302892, 0.10816214056812712, -0.07557744413768905, 0.0303665095340401, -8.396501778875058e-05, -0.0030425584675474893], [-0.09249554099266087, 0.052567481750638745, 0.017599702158440058, -0.08725228203380431, -0.06143739636075541, 0.058758134869139805, -0.034985118774386065, 0.046995171459522464, -0.005126433775075538, 0.02808829770995891, -0.02066779378962003, 0.014185078215220862, 0.05558823783098668, 0.03585057189145996, 0.05980951499437311, 0.024684851874570615, -0.011581066982923837, 0.0008430029834439098, -0.09435169302871263, 0.03712995060433225, -0.006204856904644428, 0.01974952136163718, -0.01860814695904819, 0.0696863565437988, -0.06044103873642204, 0.074003781107214, 0.062350167694476724, 0.020754158466285505, 0.0029766917112092864, -0.03857555558061541, 0.046504586719557345, -0.04853311694919607, -0.05367003692677997, -0.01024995897827497, 0.02956020545044503, -0.035897129184332494, 0.03872292488666996, -0.04638236370779003, -0.12498127703058808, -0.07142056576644706, -0.014609077928257259, 0.11320660014004032, 0.09790478136407739, -0.04203955799980337, -0.034567145956832045, 0.09949987067287495, 0.1090673253868667, -0.042991271122755664, 0.003908351628140484, 0.07759229114393558, 0.020709632917703807, 0.046212092912982464, 0.10072900639176276, 0.009109570158054948, -0.003887874950490477, 0.043444339791229775, -0.028108175310336322, -0.07578705891028174, -0.00277256610203, 0.022224580824826833, -0.06917444627069752, -0.04898265107154162, 0.038239860309874016, 0.04621616368236164, -0.02523629127433792, -0.05282244128300382, 0.08250324390798222, -0.05392855357236068, 0.005170614830514741, -0.036797490140944175, -0.008068513138022218, 0.029912766048979744, -0.08092292229322486, 0.028640781487129643, 0.012145082728745026, 0.044584802430450945, -0.04769755004950382, -0.037358942303572784, 0.056132946779461027, -0.0020569690903277415, 0.005851877825178408, 0.10952353844205436, -0.01571151889050162, 0.11022163730749628, 0.0772268086865621, 0.022807472832959082, 0.027848992113944506, -0.005027987960386104, 0.03800119076342867, 0.03216126086483637, 0.14644184815449016, -0.034173928868354055, -0.050672166307450195, -0.004638898195932321, -0.04818953343096421, 0.034007642473888815, 0.07088033027858882, 0.06286630965047536, -0.003363233724375837, -0.018182028484943064, 0.01826880361514962, -0.04700229645840548, 0.011301786310585742, 0.0032230159172030605, -0.025247714705305575, 0.11539987931602413, -0.0020214841025205494, 0.05084290457841642, 0.06954600566963316, 0.0598207566059188, 0.01413943826264448, 0.00476351938751182, 0.008370971317311382, -0.03556126292941836, -0.023556654910188178, -0.08403131861044251, 0.04046873356406704, -0.00043751051743906247, 0.04124993543686787, -0.07580172917993562, 0.0036734457408609113, -0.041857828786308414, 0.011359044050588836, -0.024272432325105394, 0.031611119578978115, 0.007532172340306433, -0.03701026783417516, 0.04238944556438371], [-0.08143568945891347, 0.016191008929044362, 0.011355800522884043, -0.07917381422788135, -0.0032463195285949305, 0.029160578297497325, -0.003611572558339826, 0.0022728677439925894, -0.03521485276430244, 0.08302884826513822, -0.009616109646224271, -0.028361294094978024, 0.07577583623843892, 0.027068507467179943, 0.06834444414705354, 0.001859417053087494, -0.028091064390788508, 0.015254782738280143, -0.07271526503102385, 0.03429974468829039, -0.06525695548458285, -0.0030495740021482076, -0.05378774816920635, 0.0129352125608964, -7.234409315290974e-05, -0.0045248180947768816, -0.05349584598189984, 0.010298341170112172, -0.016940258177039293, -0.0008170605281553517, -0.04693107003406256, -0.056676257893858, 0.018368106294504798, -0.04251365052869897, -0.007190084319927339, -0.04963182470002483, -0.05103353692702934, -0.07451642462086701, -0.1357757759505297, -0.04441727651638494, -0.022328590986569374, 0.06063923060217335, 0.02700660761988129, 0.02993174652442392, -0.05530380874303627, 0.041248006688389474, 0.06748498749072955, 0.014830941542630432, -0.038065608130100105, -0.011722587717491744, -0.03281529879746611, 0.020459432009182314, 0.002417519496143368, -0.06574465157651244, 0.03683308333037179, 0.06764970021830717, -0.02973875081008005, -0.062686430221692, 0.018417915907642038, 0.0686602151636709, -0.05034239543881768, -0.09991678313609918, -0.0510410924583402, 0.09200202773548971, -0.057285048642748485, -0.0249788110395302, 0.027659028629342268, -0.09399667847956314, -0.027334341894010846, -0.01861112748073432, 0.04466749213975214, -0.053864279640518424, -0.06122994054458242, -0.014163804919680442, -0.03436187000596505, 