{"layers": [784, 5, 5, 2], "weights": [[[0.0432573542263168, -0.04703364417129987, -0.019275483130202328, 0.001538684435166165, -0.0418411871966174], [0.019116248239386256, 0.01025394024262093, -0.017678288651836137, 0.0030301399412467054, 0.008177686629360912], [-0.03570673758622627, 0.0012829619722712932, -0.016870699949482752, -0.013490063555626429, 0.026292939467117627], [0.007379119471275063, -0.00838130255977115, 0.018087676697719733, 0.04166649615769946, 0.02389248021041256], [-0.015381955702057613, 0.030471161523412366, 0.003093480297335816, 0.018614283669038594, -0.05035468256554546], [0.015348523033145762, 0.040672821061524075, 0.07147288113476233, 0.009457976919610778, -0.045699634447145435], [0.04987820234033127, -0.014870484756209296, 0.038322406567443075, 0.005188091298874138, 0.02725577606217741], [0.09139191250320298, -0.03753639085642568, 0.010579344422594485, -0.004424532528892729, 0.014777161771588441], [-0.027424313839591593, -0.03313899029168835, -0.003224984829970362, 0.02638694480906861, -0.0032333138953374954], [0.0016789553413115764, 0.0014825998210309596, -0.03617285614050913, -0.04948358646237284, -0.002074571418238842], [-0.007250874102837708, 0.041065014979687314, -0.018719083306201152, -0.008270762828793268, 0.003647029910074832], [-0.0031278863392769475, 0.023905652219896732, 0.05688013084874474, 0.026543989150156322, 0.036814451179549776], [-0.01696064485388733, -0.020320658043394734, 0.06454312819037385, 0.058216022159874606, 0.010186873823946927], [0.01622248188476703, 0.036815924137040615, 0.07215619642255922, -0.061504601793158024, -0.028174963426390476], [-0.044592308324114406, -0.0316509650578155, 0.023048338008077845, -0.02410227988322597, 0.044142585133953284], [0.014713492557389374, 0.026194407206367263, 0.05284538549023692, -0.009999954141903801, -0.013133628226779522], [0.03374847258919215, -0.006581353661825862, 0.030449108239467323, 0.042280394404996015, -0.036706167272394376], [0.0269542007799853, -0.057539229742239, 0.03773669025519594, 0.0007909520194696549, 0.059317037617004284], [0.05406608241824931, -0.014985974581751871, 0.003921956535004152, 0.05854967568336887, -0.05325032378437692], [0.00871724846403345, -0.02637292799725925, -0.007943754649723198, 0.05190624668265677, 0.0011982749852336612], [-0.031226504874451604, 0.05367922601402832, -0.007485901935875832, 0.08018197050446034, -0.003375044936211757], [0.0039040669323743013, 0.030755384427723242, -0.0015049124416121591, -0.002864447734752828, 0.004962463361611724], [-0.02342622605327201, 0.08620814210648173, 0.0321365860218233, -0.004620156086494272, -0.024780318916153923], [-0.009614179375805105, -0.0827941241180739, 0.10510361858721638, -0.04688966698288568, -0.0326888602960862], [-0.027519845487564483, 0.06885280887671744, -0.023297069664799965, 0.01666968301522948, -0.06598349940541041], [-0.07084667852107958, 0.009479853970984612, 0.03927305144954161, -0.025774508711746143, 0.054555050124065016], [0.012933670773054682, 0.06569298254505641, -0.03267141599416165, -0.006508849038801561, -0.021111798215974482], [-0.08080909649052817, 0.006330635875688653, 0.012546182752484304, -0.016231730229476226, 0.004006510459135612], [-0.001831289665024991, 0.03483027311291631, -0.03560696794472581, -0.0131058455383183, -0.05405429806428665], [0.041471610861500925, -0.004949603940845868, 0.03438803995585021, -0.055305148409062324, 0.016085005195662513], [0.012053529587246117, 0.055220371914361736, -0.010506335808471575, 0.02849409559124647, -0.03193967542222871], [0.08785938776560638, 0.023639038722869602, 0.013089344343895139, -0.028402691497019673, -0.033944836305845334], [0.0033234833851539746, -0.04825432208370383, 0.008176869378703079, -0.008723798724260344, 0.0075427264129969435], [0.04827877190345863, 0.05991536562716462, -0.06297773399331925, 0.04332663461700782, -0.018829467284832733], [-0.015728166796459293, -0.011099890386431001, 0.008106938203533297, -0.013488896225385759, 0.057525176933045485], [-0.07818200090197368, -0.03441052794339964, -0.012012884958360275, -0.04071820941976103, -0.006565479425658438], [0.01588192886473135, -0.032132400151289174, 0.020394715648340396, 0.010261267785708813, 0.054669893521426725], [-0.002083236347332676, 0.0007193953134460605, 0.000581671438952918, -0.05240589057529348, 0.05611407160257182], [-0.0040788986128020704, -0.0027683228939366505, 0.0033833701199868387, 0.03734291770632859, 0.07336042114420245], [0.004253048512174623, 0.004068626902199702, -0.037008207585262895, 0.022379028567391657, 0.017675395955275498], [-0.02398306899476889, 0.029157045233633327, -0.010211553873584299, -0.001407666930903208, 0.03719492572246203], [0.0644676881896303, 0.02616357357216281, 0.039760873447496584, -0.02833374414062089, 0.08842927127989876], [-0.009699999788669773, 0.01797018270474855, -0.008217412035514885, 0.05055391847852297, 0.09399140045553911], [-0.0028953513794307915, -0.022489632474716657, 0.014014077197963134, -0.029334215114324123, -0.010887667741949096], [0.07500333584219238, 0.00565291387693649, 0.039730571355007537, 0.025643838363083912, 0.03141406950200179], [0.02710682325138091, 0.005670464065411769, 0.012870960766567081, -0.028569441938819155, 0.009633181628337886], [0.03648435998851816, -0.04461726271005789, 0.00365933954400285, 0.02270304530186138, -0.03411134991708708], [0.03319858921564882, 0.0026222657876697965, -0.10962055640132651, -0.0375453398368633, -0.0568900980123396], [0.0029231766500447563, 0.021900966947204076, -0.05002773077873322, -0.07651201910653319, 0.029494512340074636], [-0.09883925873132553, -0.010140740649073485, 0.02134801899039673, -0.03701991611027481, -0.012192962074572654], [0.04930048521937592, -0.0013558174955381793, -0.023562329805781063, -0.004108624155036745, -0.09249076368233185], [0.014650726448446222, -0.0020697952926910105, 0.05333617228554675, -0.007400128025496481, -0.027434851986522783], [-0.0201084143452015, -0.03735993822247253, 0.04109585389135155, -0.011630095170053853, -0.003302146865438543], [0.011169031297733516, -0.03891534660909066, 0.03222601189562244, 0.006525063954326336, -0.006419296111135784], [-0.026900569914339468, 0.01303628282201502, -0.008829445059416694, -0.012871348513374741, -0.045788035974704204], [-0.024666943660026915, -0.005067741492212211, 0.011758305907148159, 0.04136177817239744, 0.014548664955300852], [0.03503694219953576, -0.02997227313505575, -0.025967527947689334, 0.01387232108461456, -0.03870701686200946], [0.022724127934451537, -0.028027070028520056, 0.029284992169862856, 0.02276055361533741, -0.01809280536134667], [-0.05617490361864918, -0.0036641282595592036, 0.03368122344324655, -0.09800293397450481, 0.006065039283413691], [-0.005579034424009201, -0.003014001031577386, -0.021858008610016046, 0.05615841853515174, -0.020927429725273127], [0.004407897365771156, 0.016326371888236605, -0.0019159088920595536, -0.036609816133198136, 0.023476850592965354], [0.014218216077539717, 0.0016277999075032475, 0.05714085132062765, -0.02321253094506689, 0.03224281886964604], [-0.037845415568856816, 0.026708395401538708, -0.02158540760907369, 0.04272473091405179, 0.10489110996533924], [-0.04559898328887111, -0.07053209858478877, -0.02941182032936064, -0.006623363469107386, 0.05095734154026804], [-0.03186423072417616, 0.044079869623814015, -0.045853537187197584, 0.011433247333303588, 0.03646665685677232], [-0.012115171540229978, -0.029329245594075976, -0.053297310853967717, -0.02817833845090706, 0.01371634916944952], [-0.043893535231219104, -0.03225359668114549, -0.03395951346777104, -0.0007426191824198881, 0.0699953511638928], [-0.008625690286450155, -0.011694690854832381, -0.0249480609323725, -0.008840996761384456, 0.031120604678850434], [-0.04239468056086531, 0.03584939040461065, 0.007853091288572228, 0.010758065585588538, 0.05365721284532124], [-0.0011773582108021042, -0.02052296794948649, 0.06453970129300791, 0.009689982836124544, 0.020567003345127028], [0.028248341107852775, 0.0061754182682156045, 0.004039272880976992, -0.023751113364771183, 0.00489172435064435], [-0.07156569897325185, 0.03209285065502764, 0.06372064661349858, 0.08425991492327034, 0.07021206521264091], [0.022431689370835128, 0.011053833966325975, 0.05898848404153542, 0.0023376236856220687, -0.0322584198710077], [-0.0003395466732167227, 0.06579602319781351, 0.08507200137010137, 0.007563352851443437, -0.03966378122100951], [0.02846780202290606, -0.048842518293030386, 0.011671451067776374, -0.020720450700016227, 0.019396227196516683], [-0.0330229775869925, 0.07316722705459723, -0.049145544112717696, 0.003024866909769741, 0.0006815447223245624], [0.09739110371770142, 0.03799160902727818, 0.02756269911015535, 0.015305204107151374, 0.0025505531975214177], [-0.02842831075131787, 0.007192694719584629, 0.027233371371801898, 0.058944402887117366, 0.02661969802808476], [0.0025605296217994064, 0.014809862619799611, 0.006486593309185525, 0.03172592112225507, 0.0064904377478700705], [-0.009551854680508873, -0.04818164413107318, -0.029510629889679445, -0.05463374785247876, -0.005566564601766281], [0.0903840533827837, -0.006853226909963849, -0.022390468262593114, 0.004512718646350135, -0.03160064060682171], [-0.015721376641713938, 0.012969119139591496, 0.011885812838991821, 0.01638210732448562, -0.026301221905299387], [-0.020689904901597795, 0.02789238817044983, -0.023996897842161965, 0.0004808784628246451, -0.03589370193300001], [0.020133738944202582, 0.007959182035578334, 0.027517317297599368, -0.012035242130065677, -0.03641224654430132], [-0.010195117587188105, 0.009621149415032264, 0.06406173431906842, -0.027915164051334564, 0.0032674719290260905], [0.016286656548735977, -0.018339470717430164, -0.008305811996117653, 0.04745094500379312, -0.001269982065167202], [-0.025288859157238098, -0.006032772543532142, -0.00035526274033039016, -0.0114257393464341, 0.027450019731549674], [-0.0019801992986282686, 0.005201828205917686, 0.004895521801621798, 0.02886261856674874, 0.009258961010936482], [0.02431269535745348, 0.04022862211865076, 0.04466907617558763, -0.018556145688087635, 0.0012084191360664984], [0.0379153569012113, 0.010366810895358881, 0.007484212722813032, 0.04300301713624336, 0.015546804222436936], [-0.0018587325145123237, -0.015801143406642446, -0.03690506500940025, 0.018805441161059987, 0.07020709763624922], [-0.08112666101483108, 0.02907931507190674, 0.02070792888900512, -0.0415541462187182, 0.04532913873923116], [0.018542746929360428, -0.06708140047253483, -0.04372615600943678, -0.032046665831905644, 0.06773388269332682], [-0.0693987493083264, -0.041188082047537204, -0.015784558586095503, 0.024565226610372824, 0.059474302765423925], [0.07908289155109392, 0.06810276941862309, -0.050286125241205876, 0.0046634585326527965, 0.006830402230089091], [-0.02244832516647726, -0.008125167010494377, -0.012323096886917434, 0.03541278808462467, 0.0419783503822695], [0.025243979802957513, -0.01586702719330283, -0.007547973080703739, 0.05957764534169349, -0.035121439568689385], [-0.0005582941643865568, 0.03863565211571707, 0.04057138431519087, -0.057312790670124, 4.243588805009215e-05], [-0.022202004944307168, 0.05246688800658827, 0.08884390164081982, -0.02401660833057299, 0.029610047860700137], [0.014846870195234547, 0.04470547333591557, 0.08134585795038467, 0.044524674486534105, 0.011201795307346826], [0.001615810536422192, -0.022459472918876438, 0.08000993541173612, 0.0004261570751977454, 0.04251207041664551], [0.042471413379478754, -0.02108216067879686, 0.08007156283319902, 0.022788750348678277, 0.08758669866145039], [-0.018559035463362523, -0.01948271285328575, 0.027400012035094748, -0.06715675371718634, 0.008340491789059528], [-0.037117240432581626, 0.014329003308451967, 0.03270880017218297, -0.03242724345838828, 0.04648537190178143], [-0.022402133930922198, 0.006761553854567971, -0.07120366867900417, -0.0001882340059783128, -0.00414685826457904], [-0.01885136820625219, 0.005887247387336262, 0.00012390186698523284, 0.07034637067636275, 0.004469691622382317], [0.008861475002007676, -0.001328657350640177, -0.04762898313788773, -0.00995543482232789, 0.024835430613413208], [0.07823535020224995, 0.07036109572044341, 0.010322096116417304, -0.040280861804596266, -0.0031747443294216885], [0.0028610324127091055, 0.05489481315616642, -0.010465997866937528, 0.004097148957797588, -0.04188802780490619], [0.02391962958555641, 0.04858421647002091, -0.006077915426260307, 0.05012986366947865, 0.0049740363359286974], [0.03132779079512583, -0.006266507871359329, -0.11704615984405631, -0.016472439374013003, -0.00711629198558144], [0.02201604994120663, -0.04015848602226412, 0.051193730273766704, -0.01693940353418101, -0.06453763594568376], [-0.013067190207741108, 0.012630462235290574, 0.017144167509619886, -0.05082715635108343, 0.01883922665224317], [-0.02294174459583018, 0.049622699817506374, 0.02237936493673757, 0.017282657746173886, 0.0594445444511072], [-0.010645226162662905, 0.02355342062154033, -0.03840703041672252, 0.006311828182344241, 0.03288468225525835], [0.0457156902433027, 0.01909293287683009, 0.024431705837092477, -0.03980658857766658, 0.0038935810476899784], [-0.062144575758076796, -0.002397825785356507, -0.022615105698319427, 0.0011176596912240695, -0.014981024617240438], [0.025230924365084104, -0.047011158088895985, -0.009807214609131094, -0.0355317746736651, -0.018545731837378863], [0.022059690501143973, -0.03516688021449471, -0.030659866017581045, 0.034530597737736174, 0.03688694812739117], [-0.07120052300244203, 0.016234301863116574, 0.019569872248602193, 0.022031303788628546, 0.020141201356672425], [-0.012021445590720523, 0.033741086250309874, -0.06140084225425724, 0.021015188431216206, 0.0737187326365206], [-0.04756268885542906, -0.01588930894509355, -0.016378907108911697, 0.021194570004636204, 0.039091539935076934], [-0.016367700402146038, -0.06320125066897551, -0.05603237195747784, -0.013268226586491587, 0.05012771230443315], [0.02636269392564561, -0.06166775172804803, 0.01899201253739812, -0.007851847347974053, -0.008939926053181104], [0.048546690111282174, -0.004431841218977599, 0.0384297526118524, -0.018552014007350834, -0.004511827238790836], [0.04021209435922484, -0.02012483481016077, 0.09770459434701408, 0.04783261514647805, -0.059404380749645956], [0.0037453261266566142, -0.01638343385270202, 0.13204958259295094, -0.012391677997964718, -0.0030332259450630825], [0.009431906586312128, 0.004420945048630021, -0.00543409284644823, 0.05728770980829028, -0.06378619589281084], [-0.0258725119842708, 0.0036700131537345205, 0.01600515234263424, 0.028800176236550668, 0.011132955319269494], [0.04298684341432309, -0.033460292723082756, 0.01596619752865755, 0.016996915053039657, 0.025028553424447746], [0.0776176563833325, -0.023019746478852084, -0.03405002064124119, 0.011866268646986172, -0.0007047838152518557], [0.026610946300230923, -0.04625537844978574, 0.015203202162489488, 0.05581100223695494, -0.008083361253074559], [-0.060917626653980865, -0.025816185665373085, 0.04687402049985062, 0.022738236565687114, 0.003029867695546001], [-0.05464439366504499, 0.08445660639186167, 0.022706687474683455, 0.08240664985081647, -0.047840508942455125], [-0.02622946690302016, 0.010823818064106152, 0.0024303088426683487, 0.005866208150302219, 0.018051348563966105], [0.01758730727424971, 0.039179254286371694, -0.010777443440001741, 0.06373606744727954, -0.0012071327043443687], [-0.046312003696411565, -0.06278787411555839, 0.038298105346965046, -0.010343118158747099, -0.05397427206657108], [-0.017143231411080095, 0.010308768929221347, -0.0028619165481204097, 0.019131681253289883, 0.03857370374291854], [-0.026268630870210495, -0.021923037254883048, 0.013978333315599051, -0.011287261326439322, -0.020624040572110407], [0.002334748367191225, 0.011923081547233125, 0.05360776643440413, 0.018304285345060678, 0.0013283823594722605], [-0.038121881525131976, -0.0081963378605559, 0.033604392732009616, -0.017927880893881257, 0.01901322328300516], [-0.014336764482057158, 0.0035844702386409024, 0.028651905108274745, 0.09142546035661483, -0.004146923691955341], [0.014152468273314237, 0.017136931678547185, 0.01597670725891586, -0.0727204732982721, -0.010536187117736297], [-0.021092436975195052, 0.10765054346026584, -0.043039149428570976, -0.046984856034379144, -0.05533003580715466], [-0.009076825086117145, 0.02784606141503638, -0.009181808273131736, -0.008498343042580453, 0.03415175272273261], [0.018835893080376795, 0.021992897840235066, 0.010502424068710301, 0.07093176877533369, -0.043946155450102956], [0.014213005091661604, -0.00908217311226118, -0.026898727983438224, 0.018241037234737918, -0.009091818996058829], [-0.023729920223081784, 0.06748216155266623, -0.057786646050061986, -0.026925536487842332, 0.006306640314538599], [0.044437183047223425, 0.05410880039395738, -0.004390517185405862, 0.034356398288189524, 0.07951396445465804], [-0.028154166724537653, 0.004443395253763743, 0.030018176220717948, -0.060537619247339775, 0.10028642706232715], [-0.023481442741286062, -8.97940086456973e-05, -0.025744826189408813, -0.055182709665815365, 0.059608790317638695], [-0.02012615145536647, 0.05375724426590274, 0.04501787976714593, 0.042766313523040465, -0.037062617322518025], [0.028875970948154504, 0.008947577317967501, 0.04324545273185998, 0.024343691003896096, 0.025231877460744994], [-0.021416264619172763, 0.015725660225719584, 0.1453517798887602, 0.04401970481915192, -0.03625411012930684], [0.04239849266120219, 0.05170018803883723, 0.09509644472897755, 0.020241905348111027, -0.04776254790519662], [0.05165124609794205, 0.013485929503576884, 0.07736353047669153, -0.04252542218557483, 0.004199202726171878], [0.02747164462092974, -0.0038664015136214776, 0.011994747794896324, -0.011564801409655323, -0.010770470713069105], [-0.04711952426126119, 0.0039877294226073, 0.07582233341468288, -0.011878400422422978, 0.05679635288822492], [-0.054074624835671915, 0.021054989560143532, -0.0020182664950272496, -0.01025170000747852, 0.018890816704823725], [-0.014729650524237496, -0.06223701691661292, 0.054289663392120754, 0.03991591891339641, -0.046991040377659006], [0.07437657645920086, -0.07010789883388588, 0.038958805720332716, 0.025341168381327196, 0.05316203647810898], [0.027650104933479285, -0.022690611271807402, 0.016672307526496396, -0.04124701421868636, 0.005550100508350059], [-0.002010053429782214, -0.0036633501269107333, -0.01367777490645075, 0.03191539393212163, -0.05030022027020181], [-0.02499374620873125, -0.01446995477081779, 0.019994773651621424, -0.015802052376406455, 0.0354527163355203], [0.061112654869837635, 0.022504516674936647, 0.05183672070698105, -0.00593661480062201, 0.08018104933731258], [0.022805124866718426, 0.04841127899565989, -0.016176751167893084, -0.04079250696291607, 0.030078601585567414], [-0.06852922250127956, 0.09825263200195491, 0.03183907701822951, -0.056147467284038514, -0.03862047055735774], [0.04949135115759761, 0.06347735584881012, 0.036276036014380106, 0.010334966187627696, 0.06364945298846461], [-0.016818273528878956, -0.010009249809355478, -0.007348050834533851, -0.013878022417592182, -0.0023494619865389453], [0.0435447164586727, -0.0012668678211795222, -0.029280552015006595, 0.05434402011487897, -0.008187609956229634], [0.010707316224868037, -0.007038138258517566, -0.019695653732697046, 0.05385759792006167, -0.023968117252439806], [0.011297282540837901, -0.012408823935302415, 0.023574941592128643, 0.025037028127825503, 0.04558780046965046], [0.022720364551635956, 0.023335526352611272, 0.04410182166765981, 0.02917478006449775, 0.014337341875421288], [0.014524074619379202, 0.0017393441315780205, 0.021789385862533553, 0.0008304990467351239, -0.08687195997973267], [-0.005258157411102876, 0.017043676440129846, 0.02466930828552509, -0.021182993380648517, 0.057347802891171674], [-0.02360864365901668, -0.03796936069586195, -0.03360841273495315, -0.006226924002418985, -0.045688260196732666], [0.0073663004462533165, 0.01909833478514294, -0.03769858801441317, -0.031262521564655456, 0.04109855330342725], [0.06380864507262769, -0.027582841445718178, 0.00918746460475522, 0.026443042197887852, 0.010644925033624056], [0.013426458595186756, -0.017941741659669712, 0.06284601873162744, 0.015570628892829251, -0.06525568296215938], [0.03366542786418818, -0.031191273311435043, 0.02784282221276352, 0.027862846771071217, -0.04053238340434039], [0.05177603288411419, -0.003600568522428535, 0.10862233037181145, 0.0020155287224734066, -0.04426091372619725], [0.04521811753656964, -0.025938302534190376, 0.12064076529196918, 0.04418245482104144, -0.03690954734840523], [0.04644721737345378, 0.012364595825469064, 0.09832881362493215, -0.05502471583111262, 0.014496730547629495], [0.028069226295568607, 0.02940644199672773, -0.029903938187694337, -0.0755490199229723, 0.013137057738498261], [0.010314793226138309, -0.08751228211976445, 0.036543625092272526, -0.03326543357108579, 0.011809650305277055], [-0.06012229739376414, -0.09722892935959214, 0.0012355942327708222, 0.043984496004032286, 0.007043188319499049], [-0.0302107020123576, 0.0156706233825588, 0.038228308386102305, 0.026115890410425165, 0.026798775402282732], [0.031575065233484675, 0.008180348107509295, 0.007319633325758427, -0.013913062649110155, 0.045490133781235405], [-0.004338455885151376, 0.05423117194195323, -0.023731630503901875, 0.042173549513240004, 0.04875016627948354], [-0.03284836655528758, -0.044049432615526365, -0.007875475476804195, 0.03234358396797067, 0.01974524812649597], [0.01592977945530189, -0.021227666289314773, 0.06576443274431577, -0.04380677586199191, 0.10276375957697392], [0.008609987550655424, -0.04753876390244133, -0.021270616546555775, -0.028570862966706342, -0.0071173090452801725], [0.054377579607106576, -0.0423706585842275, 0.03595031860650597, -0.03389059860206071, -0.02540658600614105], [-0.037750274625292, -0.02666841732126046, 0.06083899910327116, -0.06944119092219868, 0.045767440412618064], [0.022036467213447715, -0.05097788493907377, -0.04412465183123626, 0.007032495894383749, 0.006377939358558363], [-0.000901793102757973, 0.021217885096830175, -0.04559265634920694, 0.03811890416558956, 0.01104526327827177], [0.04744789534126042, -0.04609787024962825, 0.030497370105945727, 0.005919777003308549, 0.0570975812699046], [-0.004929523168051983, 0.016184860656036762, 0.03316225926806154, 0.07449946804324883, -0.026575080951846082], [-0.05357785344653812, -0.002489699764326469, 0.006724224605933221, -0.0034981354363821785, -0.05692164343129154], [0.010713303317685443, -0.05000965506957718, 0.02890707988635147, 0.016992132351217, 0.03118178608658758], [-0.08021787049004878, -0.020991171213495103, -0.006624589541244398, -0.09365739428334399, 0.06573886066318241], [0.014748014053341531, -0.012767406069526418, 0.03701459393681673, 0.00825769565664851, 0.0713360550566867], [-0.013211806851916277, 0.028844044247075137, -0.045524960620134516, 0.010471073256542273, 0.03107110993894737], [-0.01842558722173927, 0.021533818489446716, 0.02248143157959209, -0.0641823738727182, 0.013724271876246284], [-0.05391156433879325, -0.015231863630799132, -0.0018845209866016734, 0.0757813588143831, 0.04091683347872372], [-0.02080826551591296, -0.00989194041629859, 0.04781891925869028, -0.02109149033781144, 0.026695100671097267], [0.032222923778732586, -0.014477443398400465, 0.09052651564759362, -0.019156645119013303, 0.021911432955712178], [-0.028367101280970596, 0.0014780215245779724, 0.04478891144434623, -0.025296572472665858, -0.00413067178031428], [0.051149235435640934, 0.010319364763074608, 0.1509790902186512, -0.05843623451232308, -0.016728800199976922], [0.038409329615708324, -0.06244044335287018, 0.1199264585773744, -0.05394469470504309, 0.0010201607470579673], [-0.052242059036530314, -0.04764025307042173, 0.052519598554997014, -0.04722761414069237, -0.016767102539673118], [-0.014595461103722264, -0.04903218344614394, 0.04175044499810237, -0.0005941670135179598, -0.06033913128647801], [0.08468308096542738, 0.06224653606496668, 0.10742833232096514, 0.003822561306833601, 0.060910812691873636], [0.015339163887190187, 0.004456168068722202, 0.06009388055454567, 0.0334307060309325, 0.04026142617351008], [0.05369007977307985, 0.03900922149264076, -0.005926287330963741, -0.06990052565878015, 0.05266951881342244], [0.022873313523423203, -0.0032921335055559257, 0.04851990594925036, 0.042266886694, 0.04447735181141933], [0.0036896265004032797, 0.028794465352174625, 0.02174208094128113, -0.01887845279624038, 0.06029919359887817], [-0.009108499160005954, 0.030760685050207702, -0.06741188332620328, -0.013312505486724703, 0.021346988542841946], [-0.04013720013561102, -0.021703120199970224, 0.030416405626236747, -0.05046527106482562, 0.08838941179997109], [0.0006773788699625512, -0.08113960899250056, -0.009006872662164957, 0.000725732546180659, -0.005977650881595964], [0.01121281328700387, -0.021015665105718572, 0.024796826151683497, -0.03781424639839971, 0.03854750433184913], [0.0038825435824085754, -0.043687365511908986, 0.007499709081696137, 0.013569235578212784, -0.03136396613764625], [-0.014204908641215264, -0.01112998621400445, 0.013817237983963148, 0.048822277807585544, 0.006638918210919621], [0.028015381243797703, -0.06857198776910568, -0.04121035525693673, -0.03677449346650232, -0.07567490714816213], [0.039558870728181046, -0.0014262528059216229, -0.012445954017092947, -0.06214663755290435, -0.005437669627832836], [0.0243027822938199, -0.04014996904747549, 0.02563256103456096, -0.0095885083029747, 0.0037042159634647237], [0.008714567378051135, 0.0746353402957154, 0.04271819861904733, 0.028242826564506343, 0.009532090720694384], [0.0565948742623751, 0.05334388845182369, 0.07238814480701178, 0.025385194384632888, -0.006574631100112139], [-0.015426780933236866, 0.011314060106170039, -0.01994471291750193, 0.08475214192476208, -0.09147030671931995], [0.01692333705020493, 0.008145974276823731, -0.009932153180902605, 0.01118491998074754, 0.047389976227506306], [-0.057390126631978566, 0.02571993765969909, 0.002506793786847511, 0.0027686234945617275, 0.0433591336967103], [-0.028707956499107016, -0.04619022973686119, 0.009541841562726203, -0.022883672552421692, 0.05797834466080983], [-0.01423365609956372, -0.008758669710264746, -0.014167277212893228, 0.057016144399987555, 0.05575238667338406], [0.025978154023534043, 0.028807208173669465, 0.04270296414880959, 0.017566749732228975, -0.004286335173535932], [0.04892100333484372, -0.04722595476118752, 0.0741218334039321, -0.02797385018894433, 0.006638942870563], [0.020698075335649727, 0.010318003669970433, 0.055165735467994685, -0.01762113161815811, -0.10441872532703218], [0.010246654165783704, -0.028865405101318454, 0.06352158888626915, 0.01298532279473853, -0.003724269259945239], [0.0040842161362930314, 0.037099566779161736, 0.1051299396484145, 0.00038873110981975964, 0.012405549324119398], [-0.04106990354279952, -0.054173575811458353, 0.07904196802991464, -0.0445839768858187, -0.01764007919764386], [0.018430381706828973, -0.012304697768106623, 0.06465360818769494, 0.003359938127158194, -0.07269300744727518], [0.006949199476767084, 0.016762253130735743, 0.06546507599271896, -0.038452000379484305, -0.002276013373505586], [0.008490489793790943, -0.019070876246435345, 0.04546712007781638, -0.007879047874910266, -0.009082921781833985], [-0.01042313989739853, 0.031177651837411443, -0.03773238223615826, 0.01852556759447079, 0.03689603572852976], [0.005238333362096252, -0.007245166655818274, -0.04472101060080199, -0.011766967589072095, 0.010895689362665767], [-0.1044927980920157, -0.03897514889819713, 0.016423293949347238, 0.056712634858925436, 0.0338135721535715], [-0.019484426412260673, -0.04019007224428419, -0.023538735908032515, 0.04335553425687602, -0.00891619877918647], [-0.006273275691142266, 0.026638175867627952, -0.056649926883167105, 0.02432702754026078, 0.07914825793606936], [0.06759791596211229, 0.04491247707551018, 0.05233046927004146, 0.008441767829622727, -0.010437938010519853], [0.003964121739327731, -0.04870829006916162, 0.038901242526324924, -0.07017708590597904, -0.025882189614172237], [-0.035593391283202505, -0.021718587072295927, 0.01700543645381635, 0.014038006261774297, -0.03765715675747061], [-0.03993507373445273, 0.038561741933475634, -0.009090823396632242, 0.02862561411820128, 0.006561431823582581], [0.04845378780477129, 0.0751803236190505, -0.06870772313485507, 0.015169417667826859, -0.004925854889862379], [0.004001863375281847, -0.09996642944485269, 0.025219044683089577, -0.03545085257925516, -0.02200209268128738], [0.028484286998682135, 0.033685125577723886, 0.020739600945035647, -0.05929780839703816, 0.03957206161625966], [0.007634228899208479, -0.020329942791238897, 0.043090338862614236, 0.07636058051673295, -0.013400001802222113], [-0.0029964449355143474, 0.05000205181107701, -0.008275033033749667, -0.0898706931231494, 0.08526639110949273], [-0.01021062897035966, 0.03578431647065499, -0.02677551916871887, 0.0432995549710941, -0.014026297219280214], [0.0037023718518063857, 0.017608797021359833, 0.027555969697754007, -0.047485746397982906, 0.023903387964086524], [0.012163059054019463, 0.00040682908332954134, -0.010957076630598373, -0.009995585334415897, 0.07225274967573621], [0.057971391606546296, 0.009355098162241773, 0.003458786758150103, 0.010668195525601143, -0.03745909143508417], [0.03631037632400255, 0.03258857116306336, -0.03934879860242131, -0.022011574296431687, -0.010773377479860752], [0.03452747730918163, 0.03625361463115966, 0.0489329903298664, -0.008305423499531521, 0.010880793730554577], [0.01038149297856002, -0.008581105470275473, -0.017678451958564035, -0.0008165616808099276, 0.015947214319993627], [-0.02507462377291264, -0.0437071495043465, 0.1072137757574134, -0.003959667828930001, -0.002279564133486281], [0.035515706092079824, 0.020500247107858544, 0.08241371512326942, 0.01196819552880456, -0.07442719573389159], [0.03984617743475678, -0.002929716910262317, 0.060858818964888414, -0.03207430097631988, -0.00779221033940788], [-0.002360856933209004, 0.04075805472590814, 0.07253578104715719, -0.027095362263754, 0.02166717888570544], [-0.009750921936597915, -0.04958918757489471, -0.007192847940289707, -0.02725178728584966, 0.03489156058947295], [-0.03716635828198675, 0.06692892378454432, 0.018315748448262597, -0.0005831703883404035, 0.009156690090056707], [-0.02348458862680958, -0.007218310775788458, 0.028250742329491974, -0.0955804334752021, -0.0029217490245659634], [0.014644596136654921, -0.029833016846380924, -0.010375995252698798, 0.061333771694128604, -0.03818447486846697], [-0.01797099654563486, 0.009931925795615248, -0.015495602883774075, -0.046357678298078894, 0.014320002158981], [0.01579958853220865, -0.009916763415856218, 0.011921746871356272, -0.005328082051015192, 0.07054676737661614], [-0.027627030606716615, -0.04290763944311953, 0.005031783466590959, -0.03111565541620881, 0.05123041458458919], [0.025527670748135962, 0.01109326752405269, 0.01938381146348267, 0.0173407628013938, 0.03202804887142337], [-0.05944261136739043, -0.06537277232579249, -0.012469437011745497, -0.0416104731792451, -0.05543862030106567], [-0.015191090172985124, -0.0759429084830472, -0.015558403553595508, 0.0349324088624206, 0.004785047422129934], [0.06481535403252671, 0.057047378756603186, 0.009662287729179434, -0.00655400702673861, 0.0021245967165267475], [0.011867690471265416, 0.014996337450088744, -0.0722909577821659, -0.013189824728337764, -0.01658520797921075], [0.009231952701662372, 0.005531592597398611, 0.03701858542299058, -0.04104665394913728, 0.003222996382264344], [-0.021405797578762265, -0.008584695159276162, -0.03759288510129622, -0.025695280753955045, 0.006472648726370907], [0.010972005348673583, -0.034606960310303574, 0.032345213328993906, 0.01806773056068022, -0.015130032929999529], [0.0048253778433433705, -0.025808996726482337, 0.037319427874008576, -0.002600016699344735, -0.01413486086891324], [0.009734176165300206, -0.05962350826937615, -0.03863645854457962, 0.01038054492094158, 0.0050190479840737795], [0.03763717043506781, -0.04968877388627076, 0.02831198208091853, 0.022077823595425046, -0.006427684579564999], [-0.053820344255348006, -0.040577468601839674, -0.003697392496640753, 0.028224747190972097, -0.017785375938419203], [0.016062545937910767, -0.0512523183827978, -0.04037264618217025, 0.004102808681480281, 0.008063033278250614], [0.02758137664219657, 0.05723315423275551, -0.005485380905400979, 7.549971997448419e-07, 0.007584883954145445], [0.01564486642392344, 0.01718035123881119, -0.057903588303901486, -0.037564398183213846, 0.06769037142110075], [-0.07501693981628979, -0.044008166234150686, 0.01581820339636001, 0.019187985907460556, 0.01582559566373083], [-0.02042742699843106, 0.003007087356194269, 0.06784652542130093, -0.014039497847726276, -0.005762724557732801], [-0.0015779454757115187, 0.0276456757151502, 0.04529473567995971, 0.02551385241840509, -0.01945523769538182], [0.007797111547378909, -0.011412833976754482, 0.020146584283548326, -0.023208151080624757, 0.0065660078919612345], [0.015109213793964895, 0.018401815533620275, 0.0753637867333046, 0.043824930896167534, -0.05557649124773647], [0.0019841245961308854, -0.011345999635014923, 0.08983403943056363, -0.05183681607782756, 0.023182931335216914], [0.0067915762282958906, -0.014888723398196144, 0.0505568855089584, -0.024900930770696494, 0.02271573440150567], [-0.002683192857264829, 0.0008944623626145528, 0.024099654349609635, 0.016075779338521667, -0.01117267371762338], [0.028698734443362975, 0.0439714362647679, 0.0017899608333865056, -0.02322252233926767, -0.08284505107006031], [0.0024345207351934364, -0.0532203369562046, 0.03647418582628108, -0.05484432781078683, 0.012777384769512951], [0.02246957774585365, -0.021080011228915115, 0.03391323341255868, 0.06845585682398865, 0.05501128006248681], [0.03879148604268205, 0.004647146538175471, 0.021659989302801826, -0.017927233027205065, 0.052949128996921856], [0.03818228413057498, 0.030395880464661674, -0.11037605286148158, 0.06925076012434744, 0.052188257862025036], [-0.00791114592425925, -0.020004414666444367, -0.05316268442545908, -0.009750607683321344, 0.020087096289025448], [-0.019490287847139097, 0.0004375129133460696, 0.03337571037581437, 0.04306368389472206, 0.05957649557494242], [-0.024629999602542668, 0.00965349132207301, 0.006920894139587195, -0.007885997928976337, 0.04056959851453809], [-0.05297050013258825, -0.028859556177425683, -0.033345415526036294, 0.039977875139363954, 0.009908701733026017], [0.0021560934915083292, 0.025384324779465128, 0.0015044669599025052, -0.024443561252948377, 0.04446635286070814], [-0.0020590595766879424, 0.053310271574837906, -0.022429066493107136, -0.0304749835276651, -0.018457964838661793], [0.0016389656837144987, -0.08496748866303094, -0.05867692110104245, 0.0029461498739483043, -0.017649398695781218], [-0.029584117134929803, -0.04038540971027899, -0.05396166218263689, 0.07191897131203685, 0.0556231932705526], [0.025633183839288615, 0.003553426570397279, -0.0006157826685205981, -0.037465256376457944, -0.032480360063253576], [0.06960444996385468, 0.0363692128775771, -0.022287888360043893, -0.027927306903985153, 0.030983389546946818], [0.034763824532446946, 0.036561866108939356, -0.010979003839058287, 0.05838906193644282, -0.014509550937540961], [0.0244340383052243, -0.010455313630813695, 0.011718229090813843, 0.031800271960256456, 0.0142569296528508], [-0.053919507504032724, -0.04342748760936574, -0.03153351240150552, 0.0035062687615278663, -0.0051301693010665055], [-0.0141968081901382, -0.018074210121137642, 0.003487042706848706, -0.004179723646602837, 0.03267854519035859], [-0.0392899674612698, -0.012170843016091892, 0.017224628393636154, 0.07713069678545936, 0.07051409387652265], [0.012936557369470966, -0.02407869196155982, 0.02915034468106817, 0.0005466238512287345, -0.007866556608157951], [0.05450848973364455, 0.011545400284700085, -0.010935042474911987, 0.039010661961953665, 0.015857828437961418], [-0.026288700861711478, -0.053248308573436966, 0.04343340657786262, -0.05187335492924456, -0.038771484779535355], [0.0994003111337312, -0.02288587053832208, 0.05985158677025362, -0.008112161979768249, -0.04755614430802006], [0.058771961910161166, -0.046641797552127925, 0.07923592753083335, -0.07178937854197556, -0.051686352071404575], [-0.011826882388002011, -0.04659767470973498, 0.06925485595015057, -0.06206583801670068, -0.000144949649471847], [0.02631724539669217, 0.011174007126143281, 0.075819159350643, 0.03737722435134273, 0.0486392023118006], [-0.03308732375816469, -0.03523134007813775, 0.04667659715507161, 0.03226908597347809, -0.021876979107921392], [0.02480643857734826, -0.05005545782023068, 0.009747895639925659, -0.005454169022573456, -0.05039106488512473], [-0.032647278136925285, 0.017946890315202253, 0.0328727530076392, 0.07797922090986412, -0.003520767437644415], [-0.013132856422999623, -0.028732496727092563, -0.043998189623500224, 0.005901920684369398, 0.03856139556358716], [-0.0033831496357051207, -0.05776295457263672, 0.0003224308512289602, 0.08400980139012607, 0.0010251502910658243], [0.03544572480960782, -0.06282349809128993, 0.01401886982725778, -0.031236137114314843, 0.03467744680080171], [0.027756175251930113, 0.05738435717847846, 0.023329116230784347, 0.057795085044516456, -0.06556778029097973], [0.06764805663787779, 0.043665227256747444, 0.033549041230446455, 0.021383952869926674, 0.00614830349380463], [-0.019724025785961035, 0.03575736941395302, 0.0339898436962355, 0.05978231569066592, 0.009121609279547908], [-0.05118729848418524, 0.07207351006100159, -0.051289431496539147, 0.02212157678752192, 0.04740902409277366], [0.055312639198972224, -0.007973659688477342, -0.016713884350507694, -0.025105207608867194, 0.019324680908839015], [0.03587693952942154, 0.010631896948432652, 0.05915431448456456, 0.04700859281174977, 0.02309667434165984], [-0.08915532108462584, -0.0500557484691286, -0.0172567719345811, -0.027010154814721948, -0.00536406281782316], [0.008677059837871464, -0.023336214003343875, -0.04196869310911727, 0.015199801537557374, 0.013243948938347294], [0.03791845665147494, -0.011142719508375061, 0.01078842516074891, -0.02880849195009725, -0.017274223445343413], [-0.01143540712912181, 0.0008293708836412378, 0.010381867481353455, 0.028749526642808446, 0.07207040290330653], [-0.034604277799625306, 0.08379749926062689, -0.020830744631567286, 0.04051012584449903, 0.07829955871448689], [0.018949759012732735, 0.028548334358938266, 0.051140363556984175, 0.034074850371620446, 0.022485400813102963], [-0.006466063291484096, 0.03585008461326808, -0.007760850537711012, -0.0073932062805977606, 0.021837270215741136], [0.013717403658214482, 0.017597399696475512, 0.020589909413935504, -0.04593545284508244, 0.014430924534057298], [-0.026366298061344263, -0.02318196441015886, -0.009063510669132328, 0.02007933993572374, 0.015033710681160963], [0.029848468069252943, -0.01491235139772323, 0.0045143474447902, -0.020023543586442535, -0.03194892383799334], [0.014335030663860465, -0.008889176387219143, 0.02973923881060802, 0.04060409840410113, -0.021206803249073276], [0.011807291585467044, 0.003097649845473904, 0.0012343005859202635, -0.0332259044815543, -0.00045424582019359537], [-0.025636133056594047, 0.01984968908623904, 0.01617539669699038, -0.0445444463899496, -0.040713269607238006], [0.0987923292536289, 0.030359615766489996, 0.08328414424000077, 0.014741762184726663, -0.0177024597771292], [-0.019014864077595027, -0.03799759722732985, 0.042052832201714234, -0.039916568515645554, -0.046027266449900205], [0.05639656966676326, 0.015327571093936999, 0.040383781282816264, 0.03796480658585329, 0.06723457272212142], [0.007872437125796857, 0.007762890776193216, 0.02173435429423616, -0.019513628581941972, 0.007666970808405661], [-0.037216585961641756, -0.020102556387650516, 0.04667721442129076, -0.05806356742993418, 0.042669861327214426], [0.06461350963453467, -0.0349500643679438, -0.025512616583135597, 0.03460698735907665, 0.007577782269335776], [-0.014470225888206211, 0.036520157802749184, -0.0081614981098102, -0.027003169878893236, 0.007769137486446985], [-0.03709355599194088, -0.06225557767561477, -0.017874617412926647, 0.05712912122685515, 0.05920840553621042], [0.045612458504311844, 0.0825826713782681, -0.046387989301133054, -0.020387093172542864, 0.04646798640957834], [0.008284627436589555, -0.001181539311143355, -0.007782151236182338, 0.03711542390174734, -0.0476334259807735], [0.009203612674945563, 0.07972566206628796, 0.02193832968209702, 0.04118186438941514, 0.047133318866755806], [-0.029107126554187183, 0.027990472239901615, 0.014777096578113845, -0.06261774561533857, -0.016281246053607586], [0.04566867324011085, -0.06070875152109989, -0.036938483028002525, 0.03688741606964474, -0.03673251838256831], [-0.0458506888339233, -0.05441650903232432, -0.08560552807688948, -0.04095987477473366, -0.009748228230364291], [-0.04915185435093585, 0.03737645818708444, -0.004663790952929126, 0.03528428418599166, 0.001956063649410347], [-0.01769737634455389, 0.005593818497183408, 0.04011763071886125, 0.02363203995976462, 0.04097459199216748], [-0.028460425121040273, 0.0010192769557713377, 0.07999187124519205, 0.006662444819126876, -0.03289836046059916], [-0.012902512427677643, 0.016925396879952873, -0.05073648766829595, 0.04468089669749258, -0.00757099834103185], [-0.01850080197082952, -0.02966613180889696, 0.024395966343069113, -0.010334043041585306, 0.01048541095507233], [-0.04420787403201871, 0.02231809395517595, 0.05902023104806783, 0.027523409707687255, -0.007164690309246216], [0.03367297285813142, 0.09132748269391625, -0.04902406142598079, 0.04905650245640858, -0.012459545642003331], [0.006034901179580055, -0.017327785836982336, -0.08486259141766749, 0.030354628504873905, 0.04434192730424982], [0.010534790910171161, -0.04870659286049861, 0.04548457161391618, 0.06558760778191175, 0.03149072552193523], [0.036164059599256865, 0.004530460350762032, 0.008475639118330224, -0.04153959589113815, -0.013319937422012923], [-0.025604613359804178, -0.061992382638154424, 0.010610675531235056, -0.032924325367314856, -0.010709276005770893], [-0.03421357549627245, -0.03369768067015263, -0.010262840189599502, 0.01770549476856854, 0.03752117989037488], [0.0206394971668976, 0.062395685981409835, 0.022806764733368616, -0.019320336063145035, 0.01458013513604596], [0.06355554464601892, 0.014567035849095572, -0.013251940959294757, -0.07196498718722252, -0.09673353457773287], [-0.036720862530446, -0.01155538483791087, 0.06407756495661131, -0.024348150078406666, 0.0037695200349694177], [0.0202494744268279, -0.03495149373682802, 0.027262569708449667, 0.004887051967177842, -0.015917229229370056], [0.039038755816007915, -0.04146085999716826, 0.004843592991084138, 0.019732077550147307, -0.0326112948341941], [0.03333555051654383, -0.038673813656352925, 0.034556634538873976, -0.02684418677118994, -0.011694876324432732], [-0.018906299670803487, 0.04915161160303048, 0.012657396114271212, -0.04081475951136584, 0.00594539246326147], [0.024367478012950333, -0.005896658755482545, 0.03571971386326213, 0.014401684840087352, -0.002533981850604856], [-0.016155994272870223, -0.07717116798180448, -0.09668344598475444, 0.054652120738858584, 0.01091812963517082], [-0.010677290468594653, -0.049078189417916245, -0.04367086296952939, 0.008454358333123968, 0.04618037729963726], [-0.015731372587868317, -0.002733808204694759, 0.04413217748123417, 0.05471073624242109, 0.008210105197016376], [0.026758853951395326, 0.01267885078839035, -0.09001343871655193, 0.01932047782120941, 0.0010002864847142793], [-0.011307246541535037, 0.025015016790852922, -0.026552018183482875, -0.058779559142479204, 0.02697492271580291], [0.0472564260756127, 0.023408888976483615, -0.06330556075968592, 0.010906066463339881, -0.03452363665249132], [-0.0029758263412769516, -0.004432425486536258, 0.0005651113873550874, 0.030041621337504192, -0.014963462638392457], [0.01807852105691778, -0.022765245186889917, 0.018635511399673958, 0.07878397977399364, -0.11845730440095112], [0.017671811547429177, 0.009039122419967282, 0.039637686795185464, 0.001300151469235747, -0.02121498901233745], [-0.009208969412445615, 0.05784205491948528, -0.07808330467699329, 0.013203222311274772, -0.05938376718427315], [-0.1090105567637561, -0.05122658322657932, 0.01111785556418589, 0.004650995764871394, 0.0401175014961984], [0.02788545490692538, 0.04468180422451124, -0.049081087341268065, 0.0014468541180895655, -0.0006166313344142956], [0.03569160040106545, 0.05093730928068827, -0.004551148423036204, 0.02321222817233226, -0.024739701793932502], [-0.002145979801173054, -0.004821050163393645, -0.028343730682487835, 0.005957903959871205, 0.06737436679492424], [0.07269902796375649, -0.034019691173195594, -0.020154418459906096, 0.0031335847869777304, 0.000617573012902682], [-0.0066198652858631985, 0.04366268732614537, -0.03389000329250047, -0.011320106671588021, -0.006141359744657928], [0.011208194413857918, 0.04646669125643052, 0.024856241808126338, 0.02006064412963786, 0.028639545345468725], [0.05590825468000016, -0.020235224880851443, -0.01174446197536092, -0.05386141490249242, 0.0694904401796826], [0.054800276437131056, 0.03960396623662361, -0.022910222052671618, -0.007125027983513403, 0.008898606929251034], [0.0021026738741046704, -0.010677419198723845, -0.07497859502322035, -0.0369953827927532, -0.09261917537716373], [-0.01828601936723849, -0.057162829667612304, -0.004718298974678796, -0.019649937184069224, 0.008917185317431051], [0.04164958025438049, 0.016939063102267973, 0.06506390885411169, -0.028850027167530157, -0.0284616300306965], [0.005231669391861965, -0.011613554439659252, 0.07922590607597532, -0.02162585824138193, -0.06631099586027812], [0.03014507265928973, 0.04985978357823676, 0.032022774070165815, 0.011270699462140711, -0.020674839125220165], [-0.009992408197081385, -0.030389083229302137, 0.0005569917833632376, 0.01686486679604586, -0.05140915505205553], [-0.015045164269787466, 0.04743260159561852, 0.04532334270428102, 0.041232839659312966, -0.058395103832452014], [0.030813129829253414, -0.030051924087510423, 0.05038311958151357, -0.024977487649352998, -0.03576676748278091], [-0.004394787538300738, -0.06849262103164908, 0.0002205900415046255, 0.008144702910934352, -0.05215583275921868], [-0.03212226078027922, -0.022775742254207147, -0.057714828783478216, 0.02514853390373896, 0.04037606813296469], [-0.03754705940684751, -0.0063496576374072015, 0.0028529710237357384, -0.022986518893257705, 0.0534380944252355], [0.01875948793920951, 0.049317269552989575, -0.04133062608494391, 0.0398362583088521, 0.08119887250688869], [-0.05424423735733592, 0.020704921160660732, 0.019109274765529104, -0.0043799549449229465, 0.08425790573173739], [-0.010115900730151946, 0.016905243222291443, -0.02014153883635006, 0.021682092970892273, 0.010452084352690192], [0.027937983045670144, -0.015038337861087743, 0.03801497188976055, 0.0847436237024588, -0.012506747985651524], [0.028843380223808307, -0.06963413341689005, -0.0028112430483144294, 0.05090418148512495, -0.016098032837220257], [0.02451657801114782, 0.041562682123169166, 0.03248215592036005, 0.06772533720793172, -0.05899525081613771], [0.03886243427010896, 0.03521504610323457, 0.026039580018369122, -0.030344886356968245, -0.003210960499241991], [0.0002928463252814321, 0.024494009651933116, 0.07388931172473256, 0.0332926031951576, 0.05879207549317249], [-0.006029238741422263, 0.03488337746902792, -0.030986219420663662, -0.032067590099881214, -0.0015314784255543265], [0.009223193581611562, -0.013087565003064055, 0.013642208715079523, -0.023707869791446092, 0.0013562861632902751], [-0.0410686272617307, -0.01378505985354059, -0.043808051870266054, 0.006646200655955033, 0.0284235498144948], [-0.03389694175498908, -0.018014568173562517, -0.010414263794952217, 0.04512554972199995, 0.04598418904444194], [0.03112116782264929, 0.0255661129431048, -0.09188295818261491, -0.004788301888330051, 0.011592430241838696], [0.029926621694837122, 0.07191545624924675, -0.018745546708463505, 0.04318138453056194, 0.027711623817652922], [-0.018281236756509636, -0.07143380293974029, 0.0069926825558106025, -0.006067916063989098, 0.02503055147297187], [-0.004500884338521083, 0.027810426916372467, -0.013472343362677153, -0.06152958231271399, 0.044910719755492004], [-0.03332479388950348, -0.032386934914390604, -0.03801920241072832, -0.04707682959986893, 0.06493462247511257], [0.030448479508296433, -0.044497821621862, 0.04394611063162652, 0.004278530828557882, 0.004534533934535879], [-0.025235464715246524, 0.017759709216141232, 0.001618284025432097, -0.05203091686104112, -0.05380146264900318], [0.03761035024200065, 0.08849092534329932, 0.08652706961456874, 0.0439182492930301, 0.03071260618173233], [0.0315717389114696, 0.025804518571041324, -0.0041022118806351695, -0.030788622200777233, 0.00254498314929309], [0.002010720252552373, -0.0010102603143671888, 0.06560961221447267, -0.0646353257678224, -0.017814625825245133], [-0.006836064971917756, -0.010737633882271147, -0.013021141242766444, 0.02451172257393702, -0.06096452329149688], [0.06498632631450559, 0.06910924606056527, 0.07129285209550579, -0.08684681866629745, -0.04583166431494502], [0.03513067600259648, -0.10895862019433818, 0.012883586933717769, -0.05102232985873871, -0.02218781981056236], [-0.0019502602384938224, 0.0050392558152775185, 0.10632876183385316, -0.06127330592393974, 0.09479378831415118], [0.04162246117529082, 0.05448274408268388, 0.024311144263257718, -0.006070462713773339, -0.01792107630545014], [-0.05398244193450339, -0.002204692677952198, -0.08375688402855617, 0.021892081126884788, 0.05882932582788258], [-0.00905777750280703, 0.044204254258463464, 0.010501582783426491, 0.005956023657684382, 0.049580775429676], [0.008756740451238833, -0.05338821655461231, 0.03184547037895065, -0.00024866511977190715, 0.02265465018085973], [-0.012107043602726488, -0.0506011428563238, 0.025999374610025737, -0.02335893256221908, 0.045098087309190925], [-0.05042757729642922, 0.07942362887941927, -0.03745405648051968, 0.030828566980891384, 0.02794227699431469], [0.0330788822571455, -0.07974829513559523, -0.021178082701629856, 0.016869064093598857, -0.03714533991237637], [0.04963544814434448, 0.009495458382863385, 0.07223983474495253, 0.02212667035959321, -0.025921785659390243], [-0.013718581266592422, 0.029397973987998115, -0.028568321180362698, -0.055643037617980194, 0.046405851258169276], [0.02311301668051671, -0.0014902770965327047, 0.017770162151507854, -0.03257954855857888, 0.006340831669547654], [-0.014907126809779944, -0.013093058549258624, -0.010124694636686235, -0.006614337729823526, -0.02695799487078361], [0.01176417993596356, 0.05535342380051941, -0.028918772367407718, 0.013095910075651012, 0.06284215817071348], [0.03105919732293064, -0.04431053363947844, 0.049297424324313506, -0.0030192982226197097, 0.00807834790079756], [0.03381935494822945, -0.01581339335327682, -0.011031135330154259, -0.07819054582874259, 0.009754422657558054], [0.04678151028671791, 0.05013169247691995, -0.007703891973913203, -0.03392626898924146, 0.025816303959741816], [0.03353806429986037, 0.04666503491570995, 0.03778189564218545, 0.027366294406993678, 0.11018723876908368], [-0.031813014006571244, 0.006621249654775978, -0.04149164551427807, 0.05273434758318884, 0.030947982519970763], [0.01586365353150603, 0.02917957092437225, -0.03644725461469736, 0.03524723951035158, 0.018429438532335637], [-0.027092306025238575, 0.006246912902390973, 0.010540391811067392, -0.005683190000988914, -0.012076228510630036], [-0.0005129953604763809, 0.034234243452246516, 0.05772226218722889, 0.02423831669681705, 0.03609572230387933], [-0.020318869427237405, 0.01658412433048698, -0.05284020632320695, 0.05886355994325575, -0.02153327386672649], [0.00177981049212888, 0.022055370579980874, 0.03442063749043817, -0.05682131364335631, -0.05765892163322272], [0.006612479626128987, 0.003340553851955509, 0.1449619363696412, 0.050948150200600215, -0.03691440047627885], [-0.0018442249031850359, 0.019984400586681838, 0.048822267635905345, 0.03020470042363537, -0.010187607835110276], [-0.027622936120294272, -0.016711217877022486, 0.012820006034090808, 0.02455613462968517, -0.012634757333276746], [0.09539104261055212, -0.019403693223906775, 0.018646918424454317, 0.02837388071713766, -0.019103686378672574], [-0.018212629796616583, -0.027768236861950676, 0.10870125412029248, 0.023150308485454282, 0.03373696676933258], [0.08724189773775455, 0.026900678884543623, 0.016713428663612535, 0.02507546928365573, 0.002222298450348089], [-0.057049774576281534, -0.006262429458574667, -0.04593397498365757, -0.03708108339873384, -0.009388963257108902], [-0.028557633302351833, -0.035765580844231176, -0.041504381946648655, 0.061124340888049966, 0.07930727057637461], [-0.018403450441342607, -0.021762923979361477, -0.043695104941719916, 0.03627136947378463, 0.03539041094611773], [-0.0015279884014319954, -0.014280062822074948, -0.01296816837773231, 0.01874535657167209, 0.011705163985880661], [0.05435290094199888, 0.056408004322298116, -0.010321055478535322, 0.02158738014139518, 0.02791574182685145], [-0.03920627160812536, 0.03513920121153147, 0.003944820520781568, -0.03288311877140845, -0.052315051309446706], [-0.020018299830806396, 0.041809105081653815, 0.028984206814386227, 0.02548512287291015, 0.0686824327834004], [-0.022175267019382473, 0.0071428788368585565, 0.000547474288265851, 0.050826471373952756, 0.03224491200085223], [0.030814184241684122, 0.026661000367590334, -0.029849626507424665, 0.04168100390395339, 0.0527078119895469], [-0.020672576164848192, 0.07002397017458044, -0.034263056354050636, 0.06448576339077787, -0.04127054432820635], [-0.027444320303935486, -0.014913595670698295, -0.044713801194749235, 0.031708202805249386, 0.014088665502952777], [-0.017991318931170303, -0.03023820679548796, -0.01913873498909017, -0.015468622267721858, -0.02825430185553868], [0.0031384346530848022, 0.011192342939897475, 0.05587202894761149, -0.053184211526802146, 0.01185870674637695], [-0.014519962992052859, -0.011513121360501751, 0.04025132672915455, -0.020100377120816422, 0.027776252662966867], [-0.008831840759941704, 0.02817791080988618, 0.013705426501534859, 0.03302000502740622, -0.00522914194120737], [0.03372271362469963, 0.027732469765630673, -0.027429160512396106, 0.02087350959823534, 0.10093074860319001], [0.016493568131080785, 0.054576020927987405, -0.04045772547611744, -0.0011381699857063506, 0.07656895851161521], [0.015437516011892551, -0.022013560162389735, 0.01366042001897195, 0.0025958930189746245, 0.05005555480338344], [-0.008126589310127146, -0.04500799219308154, 0.03373927514360856, 0.021032908919220664, -0.009913431899221876], [0.006653845632852288, -0.022241617849438962, 0.02609832448216683, 0.03485394436406749, -0.05921728011447842], [-0.034880922222790434, 0.02121839345580011, -0.01876925102663525, -0.02354309766101085, -0.0028115146334916604], [0.00932450473274495, -0.02221164806105031, 0.09273754266932767, 0.010362182024679971, 0.0003584615718272714], [-0.04423613086138657, 0.00857093976841121, 0.08112241678492847, -0.05039865807985994, -0.043418519096843064], [-0.047942417661024965, 0.032205478373874205, 0.07418911091861875, -0.022930145933959024, -0.05872810233220116], [0.00611878977268272, -0.06369321529656126, 0.06546614495373457, -0.00472552398832825, -0.052832352381537245], [0.011013556044565168, -0.012480744939090935, -0.010363260543381481, -0.008876611296643366, 0.014701922125145808], [0.018236620257256326, -0.03074921001028838, -0.0029967678836598285, -0.010187629879213301, -0.0430658304584907], [-0.027123888052377275, -0.035843802869821466, 0.040036323925920964, 0.0037731268300925866, -0.025638207018405513], [-0.004304926451474034, 0.030178085185657358, -0.06722876277094753, -0.012592121267772368, 0.021813719221416148], [-0.061388544422248906, -0.005235226450459525, -0.029129800778292993, -0.012015425688428843, 0.0152224992056525], [0.08383048539433761, 0.01215704767216783, -0.008369867846405997, 0.02930504704154207, 0.05392292049465476], [-0.027422337826130627, -0.035906065829717455, -0.011781583975307278, -0.0070244592188857015, 0.03452618680690135], [-0.018499467514969843, -0.0650351209684194, 0.04640548862296107, -0.021028574508686063, -0.018878612509386068], [-0.011504823603142278, -0.017064101094214044, -0.051667090398943856, 0.006919354558725694, -0.010493070082902718], [-0.006652372097912875, 0.012367324195117338, 0.002393380255739649, 0.019594413346921705, 0.007491946363436733], [0.03287725536612666, 0.007327193439341015, -0.003011929414588298, 0.11000757394072039, -0.01588952111430014], [-0.017695104591908675, -0.03732434266668893, -0.014648289838959846, 0.03701472726962047, -0.07232219760023516], [-0.02218331454191175, 0.01286444050803076, 0.019375273890155514, 0.005021864522752884, 0.004006062303924826], [-0.0744104769675728, -0.020877108687156053, -0.019985397257259434, -0.0035228282220829904, 0.005495184943705027], [-0.023818661832426688, 0.056831560174688385, 0.016392503243110992, -0.0022498606850818274, 0.0035961553960516374], [0.009882884729264595, 0.001445055635735529, 0.015620128758275006, 0.030460243284865126, -0.014150696944773479], [-0.07748132999072115, -0.011747086995643296, -0.03403685444233998, 0.009139876256266796, 0.037796663065910396], [0.017670971677972963, 0.004194033571032713, -0.031179516164501986, 0.006658916720250213, -0.0029583321699596034], [0.058815405041750354, 0.010406727076427142, -0.001507857485184688, 0.008391274995637101, -0.023890332964658582], [-0.026615268383653152, -0.016058460221036876, -0.0017652800165921126, -0.01720202831725579, 0.019766181392885857], [0.03914698747985411, -0.0009651520137644188, -0.03711260673332733, 0.004123037589961323, 0.0023407833879124824], [0.012612447691765057, -0.04097339580358485, -0.05882460830398392, -0.00775249266581538, 0.03819807843275898], [-0.06526347585154738, -0.012427594944145024, -0.01298070300569321, 0.0005821674134731507, -0.06555779148008462], [-0.03835204955652396, -0.03498030024393378, -0.049242147151569673, -0.003580655210176402, 0.019147588483516685], [0.013334941392915037, -0.014077139465247485, 0.013845464014467524, 0.0007350978437436716, -0.0290479575038337], [0.06375112146457419, -0.025797928020824316, 0.13422666062834743, -0.004878172383199295, -0.0069179619534128515], [0.032525894824217055, -0.03657570474423626, 0.03364801773948177, 0.02770565317609084, -0.054759129013762245], [0.023247672232366786, -0.0006452154412240676, 0.023434766582780497, -0.022039551079973123, 0.01370389742390923], [0.047982318925687654, -0.001749125606504159, -0.05031853750375688, 0.007809653824500866, -0.09409154334013907], [-0.05666245885147158, 0.007907590252924717, 0.06045306276581211, 0.025845404981309376, 0.013648479087604743], [-0.04129725135964098, -0.04312538229394101, 0.09536774111096862, 0.07683421841935557, -0.018982948429286217], [-0.0035323630822162817, 0.022701871731666923, -0.03451961786936955, 0.02893371351441361, 0.07461914138319642], [0.018225328714046387, 0.0019219971006946644, -0.05010931530402676, -0.0108232368242204, 0.04702781864331535], [-0.09179891184351967, 0.003977400582768804, 0.015729535817573397, -0.021796862922092437, 0.012298404923047368], [0.02745583818356851, -0.036731413599603455, 0.003162430387046729, -0.05164245160627578, -0.0038350220824159248], [0.010422706855477755, -0.0015329695258523193, 0.020175590632260453, 0.009736197793363977, 0.0445434152862079], [0.009026659200673599, -0.012012407474427713, 0.018931414014255882, -0.07478732731501478, -0.026673036547661812], [0.01827632850731044, 0.013180286976003498, -0.004085594458807137, 0.022225718950020932, -0.002273877456191584], [0.017735155751295237, 0.004119101371660043, -0.007571645956526505, 0.002097762493826299, 0.08590490809694014], [-0.02743307346437692, -0.0139568706341557, -0.021022446080169475, 0.07017171822181159, 0.03285345427912319], [-0.024920550217510357, -0.005857804242371553, -0.02406315374463028, -0.011840044460953322, 0.03866587186881356], [-0.0016276062357671918, -0.014314723817784326, -0.0033333727219439996, 0.03558000061663566, -0.049499449100482214], [0.05998944428517707, 0.06320714270734795, -0.0888196918365786, 0.045606645066095595, -0.010738063434101804], [-0.0016017675042647396, 0.003077453257708332, -0.03148581346851122, 0.005538877607275491, 0.05041354886403946], [-0.008470155131717977, -0.043071818406387644, 0.02321816122106359, -0.03585123458380051, -0.006914268597370775], [0.013246882435564829, -0.011227189397066099, -0.0021325662036812106, 0.0014864304986873062, 0.006298588663689707], [-0.04707350737649829, -0.024741288262823843, -0.03765636599556412, -0.0035592484807400473, 0.0065122423698699495], [-0.027224342181338866, 0.0023732468396536264, 0.055089195039267874, -0.007961735309535563, 0.04803340132218557], [-0.06850463057472221, -0.04914200368207987, 0.08430445965927749, -0.0651239196464925, 0.05071688698555546], [8.138606839381955e-05, -0.07763337886298989, -0.019544403575263554, -0.03591917053878298, 0.06862184893153359], [-0.06018225083133556, 0.05384866266696122, 0.019337891910691386, 0.0015530445073707157, -0.04718062747428675], [-0.06567281082522312, 0.0453358369033743, -0.016380785796813357, 0.044032191404295415, 0.019558324402369563], [-0.002050949721877154, 0.012743947228977332, 0.038117674216363286, 0.015199088718631014, -0.03146753276893944], [0.03902676333901759, 0.0013406384542980442, 0.09477045450503402, 0.04519080525976796, -0.07258232896785742], [0.0051399438941912776, 0.03665206603614189, 0.02524267502832781, 0.017572082597527548, -0.0293798848624429], [0.02027856358724428, -0.02728339540723088, 0.06465505698835255, -0.04823585777656942, -0.09155243489979338], [0.02635013576406246, -0.017100385540274574, 0.0691617711097944, 0.007335120474098371, -0.06969882680817166], [-0.007363609524231894, 0.01066607479479628, -0.005413958898366486, 0.04886034654214941, 0.008311770681079784], [-0.009887508338295527, -0.03911319925291161, 0.005268318144243809, -0.022013557624149884, -0.010616138017539235], [-0.04700200268168253, 0.00048242478752202764, 0.019133132341809623, -0.030549876553415182, 0.024849490322121907], [-0.029971561104924493, -0.03183968175109967, -0.020329742175780107, -0.07267829742300336, 0.024731241435436754], [-0.0035467327499423833, 0.038096471040040505, 0.024353659534418037, -0.06921022968841652, 0.06629661869346472], [-0.006864986072071839, 0.003139804223338056, 0.03739630609551176, -0.05189124038686866, -0.050444486466407555], [0.031214117028661618, -0.027724473748891892, 0.045373070986658486, -0.029363929402516042, -0.07766100677524582], [0.009055635156895907, -0.01758610175087577, 0.029526477293897457, -0.007625256104153544, 0.025743428768953358], [-0.007643527538326426, -0.03121322090825224, -0.041384801086458624, -0.06084356164053501, -0.035965299066271196], [0.057223962956239806, 0.030320639440628936, 0.018280041172360494, -0.025401546349580636, 0.027734750244075172], [-0.0031250300129700747, 0.015777462106766085, 0.0033090023737152147, 0.07663777653675817, 0.042909532872488075], [0.0474312725998035, 0.0301832819113019, 0.10026634059226933, 0.07615065292846514, 0.002811598169586291], [0.039606709157132415, -0.04075742185529494, 0.015199805589522936, -0.00708010637220545, -0.00844531887409721], [0.01914077397551793, -0.012365456953532758, -0.07501897325440476, -0.043749238351544706, 0.0055460763656309], [0.033537947607668823, 0.018294458312765355, -0.02534376678425134, -0.03144759808471287, -0.032738241508479024], [-0.03351814824436306, 0.023831627386959237, 0.012676127753752838, 0.04300806488635688, 0.05857978814454285], [0.07228198970069961, -0.00842021861503017, -0.07364674372212138, 0.05639158719442001, 0.031067793755542215], [-0.04421814484950723, 0.0839852735251605, -0.05571076752167597, 0.030816112323375756, 0.07880385617751852], [-0.06819668523856448, -0.015498901998835388, -0.09132546655536573, -0.06897149788727755, 0.04291537902570128], [-0.034123371111004164, -0.02788743001675705, -0.007859127339630791, -0.044854162151387295, -0.0007271423583515703], [0.02987805696033443, -0.03907431109402431, 0.05670907010939085, 0.0657921602872214, 0.03549205707569058], [0.0070195350168359314, 0.03686045505891345, -0.029788123973824944, 0.0036405585404951702, -0.04152750529341834], [-0.019421795693387405, -0.009067856051276506, 0.0038760256224648795, -0.027756762010198503, 0.03227143198024279], [-0.01979929414609029, 0.02783345149805326, 0.01434646399558067, -0.027440822778464505, -0.0241534679357981], [0.0387249865410718, -0.007857736500463394, 0.0490011802275111, -0.009814740765945499, -0.09990053267154081], [0.018938355275396057, -0.05123919557835982, 0.041844179207110956, 0.06718239693787978, 0.04982091550138572], [0.021360608002878482, -0.0881048888393065, 0.010301541438729068, 0.04325164756866427, 0.025217919411971025], [0.04934843315726314, 0.04559238535962717, -0.06265844739202843, -0.0031246111386634555, 0.028288961658744297], [0.0052382478868780915, -0.04848203688546417, 0.07028322837656335, -0.03791044627798558, -0.040738156839134454], [0.025279751489255587, 0.037945274270818695, 0.00017847697127435638, 0.013250601582195874, -0.0066987431430273], [0.005096784147651496, 0.027931200485642762, -0.01353162362341504, 0.03178157854853809, 0.03135296324930061], [0.028682724398385775, 0.01138912939350361, -0.04237696438202314, -0.014561181495911546, 0.06336005196337818], [-0.020590024175259288, 0.003952005224037159, -0.0010331948234506717, 0.06978876645573298, 0.07035579556056384], [-0.040597815033757575, -0.02406710509315988, -0.002887659318130004, -0.03180033928407216, -0.012611962354047152], [0.025824211651776483, -0.07514195805001198, 0.0336782078469568, -0.024706715023687306, 0.09824533096982331], [0.0005497930256164504, -0.020752104941913166, -0.0007484254917129702, -0.006868985034884995, -0.05972322175018031], [-0.0031410438582737685, 0.05453329517693885, 0.04105263059441996, 0.010589942755849301, 0.07097337131088659], [-0.026488783333554367, -0.004410850218475546, 0.02799294980235026, -0.05440060675880433, -0.00544123405218879], [0.017690092591546976, -0.02638680585456468, -0.035677864402422946, -0.08049059948023825, 0.049044024277005605], [-0.01402979009645037, -0.012421800931958804, 0.03618400602865272, 0.04432004831804027, -0.012866660490421265], [0.01548738199943768, -0.07626578474612868, 0.017517792446271028, -0.017836012924514078, 0.037416935225541015], [0.002103768044222865, -0.055901296540108905, -0.037878000530675325, 0.004030250970136245, 0.008395529271658536], [0.024904058922483388, -0.011059840920603562, 0.07528248796023723, 0.05696324791369911, 0.00103691331639665], [0.05541255081680741, -0.01379093450702218, 0.0013052039832851543, -0.008056528156579427, 0.03250735152524058], [0.007980288381817682, -0.018947859735794003, -0.009211010041563371, 0.07674590721184929, -0.011118158333746495], [-0.02547396484205384, 0.0013132595888225222, -0.011151301240140913, 0.062371056938297954, 0.04853037051252517], [0.08310206061197589, 0.028837504058960836, -0.04004827567893298, -0.03304189878926032, 0.03945897065360837], [0.019034689287379492, 0.036266365159050955, -0.021853540013538546, 0.022693899619393602, 0.0334955569356704], [0.013911737798483374, 0.014596528956897777, -0.018624376530867594, 0.01318927726094642, 0.03165429410418877], [0.02012740744139223, -0.03130038779218212, -0.009492123616254265, 0.00011862606058154843, 0.07005088561576028], [0.006713823136066171, 0.034283042301789766, 0.0030984960424320237, -0.0371356937068005, -0.0983858248505746], [-0.02326877931823993, -0.05964516319270914, 0.04571207856239447, 0.041442620980576494, -0.02400926864128438], [-0.034098719717204115, 0.0667509637308352, 0.047434563739215424, 0.0748146752018294, -0.05003529812333096], [0.0067226180770722874, 0.02185966386613126, 0.07436952007983107, -0.054471216642742966, -0.02395607391625485], [0.05443380204947182, 0.009190432367775302, 0.057504844725812625, 0.008568852475618362, 0.02845942888824532], [-0.008931608403318556, 0.06484470185374322, -0.014128191466291875, 0.051390774126037216, 0.015372238868487077], [-0.023166657163583383, 0.010301524317869223, -0.03191439325404469, -0.014585623269430774, 0.017534249794511167], [-0.0038204391817443168, 0.0014796409015221086, 0.007752463098938883, 0.017798902899750408, -0.008275302481208996], [-0.008408399400482502, -0.013142542254042227, 0.016366456050979947, -0.01103620576867417, 0.05255226680907005], [-0.04130914820027571, -0.042374365879513085, -0.04590873068350214, -0.00789193467550677, -0.0223512405575067], [-0.052260324342374896, 0.0400050763040995, 0.04260179634033561, 0.04082438865990467, 0.012021403204207902], [-0.010969163985603282, -0.024355971601323214, 0.019166170496650016, -0.0085189427873656, -0.012677379138452587], [-0.02585717429962143, 0.002308723213810181, 0.027596913231009754, -0.010569558600903913, 0.011745015144198753], [0.05513056116369681, -0.000799537000545818, -0.016664250537296556, -0.037765647426615825, 0.010642419299817784], [0.010988757711513605, 0.05111633354593241, 0.020959780206026256, -0.06305879980278811, 0.012224847911607462], [0.05948965769606554, 0.02788574719721015, 0.035542652682149525, -0.004353960262695187, -0.06599939264867391], [-0.033920484164639726, 0.02002805326989767, -0.011003555878047624, -0.05211818109336761, -0.029523600633033612], [0.012735195486047237, 0.12024762036266709, -0.010628807302851902, -0.008832410350125061, -0.011331929359128159], [0.03250356486027348, -0.035132168183110525, 0.011463280803501555, -0.07060038004266185, -0.02362173470064988], [0.06322971922715263, -0.013261642855728796, 0.04166200609961585, 0.0043032306902538245, -0.010899726670099764], [-0.041070124856531, 0.039283041346407914, 0.08421333418237743, 0.07369448043815409, 0.00960983793538224], [0.037626536931460286, -0.07486835534495058, 0.0008565551614190795, -0.017478084197492104, -0.09434961560912153], [-0.007637083976075895, 0.023101303496186654, 0.008724458108001008, 0.06604164959818844, 0.007504251858564892], [-0.022673888027458323, -0.029072448429652512, -0.0032366514688047395, 0.016544873427759326, 0.03761536729983704], [0.017265607596415957, 0.012446789874785846, 0.061270620259323304, -0.02219803310749531, 0.026468322573690677], [-0.016235764365054074, -0.08336309655695993, -0.06531275375541998, 0.05233711016269566, 0.04885629657534588], [0.02178721799356861, -0.01847519767315787, -0.005002381864918916, -0.03688907215627823, 0.08998615154179226], [0.0008989415907277947, 0.013043697425421866, 0.029540292127081043, -0.05247158556909787, 0.04066600116596649], [-0.0016512616795440246, -0.023703670123046763, -0.03340440004363453, 0.030770214380860857, -0.01607197872988911], [0.010701891431234211, 0.05059302009691057, 0.04649923726145746, 0.008929434604764397, -0.0025642255537391065], [0.042606857237380856, -0.027170367324910013, 0.003183311816021413, -0.005549960393630637, 0.06863373105863287], [0.015349136923702501, -0.03228223532353908, 0.013654682179329834, -0.04694469894814076, 0.06850462491687398], [-0.009510409025810483, 0.007200363898948203, 0.05122013372062398, -0.0008106764978454625, -0.07407865456825403], [0.0767532803214684, 0.0065431186026772056, -0.019204022907759754, -0.0484971773540573, 0.0526480191662258], [-0.0014043332714286968, 0.021599706889278186, -0.028837176677960426, -0.062149878412147516, 0.021356212552935513], [-0.04281150819735417, 0.03692748200308388, -0.00759754811841555, -0.02347609718194281, -0.01719113341243998], [-0.026236626437332395, 0.022851642757868728, 0.022107908620936156, 0.00011742504237565165, 0.04055456285911644], [0.06256807072875226, -0.02170849611965047, 0.02448328614810213, 0.04062458490460539, 0.03716294033755891], [0.028042332570921685, -0.05851085481654329, 0.04146435032005101, -0.010183202355857542, 0.035451465417284264], [-0.05246940384005431, -0.03733424492615042, -0.01789304383992302, 0.003926238830639902, 0.075512948321079], [0.00018346983752881663, -0.052397675721312806, -0.0011350753683917125, -0.0176280552026089, -0.03883784745732026], [0.10249904846172474, -0.008372304966918556, -0.06793328716325732, -0.06883745320764849, 0.0045964733483507695], [0.02264973517304107, 0.054703547436044615, 0.004341429775986434, 0.01905270995075936, 0.00806611536399372], [0.00800870610520777, 2.0276269554560134e-05, 0.0041613964477079605, 0.030665335305555413, -0.00893172420747658], [-0.05606677530557409, -0.0038096879901747547, -0.010183901569509254, 0.011661453270676869, 0.0740282153278442], [-0.06933879325939053, -0.019188928899185134, 0.04363143431261154, -0.004320824741415538, -0.05081001288234211], [0.007569028106579217, 0.016461566868649826, -0.010479716939410638, 0.03980568831219381, -0.02693339066656919], [-0.015081070294573534, 0.0036599016815380488, 0.028615344390754572, -0.0029415817340814215, -0.025148500478672803], [-0.019891166585828218, 0.01982381284133891, 0.0013578415001250438, 0.014611062377029898, -0.01661081307579294], [-0.040924389635424566, -0.011558476246733996, 0.03434610364206727, 0.01746024450965988, 0.0531430133216342], [-0.016273977269505163, 0.003775054901653906, -0.00817777873009276, 0.01802196530918511, -0.008218004607709238], [0.0011514503380614831, 0.006548754896603494, 0.014525316390436147, 0.023529618862560213, 0.08403898656203788], [-0.03099131136211122, -0.013531721291884447, -0.03554208931559475, 0.07977663433752884, 0.06459318183318763], [0.018230447853284548, 0.01803576935301187, -0.0885619912414654, 0.019624446904611664, 0.05882211170698705], [0.031517481924663346, 0.0070005668145857675, 0.006801138908897483, -0.0018040476225035847, 0.01478050538742014], [-0.022459829955909297, -0.030667372334217752, -0.022069106039221294, -0.0005484009220915321, 0.0375399219801253], [0.05211546654813677, -0.007907549273511826, -0.028837645913097825, 0.02743989586321639, 0.030196549221841895], [-0.009030105056093385, -0.026680742422962478, 0.07680921145475535, -0.0014027291837708327, 0.018066100965875395], [-0.06626012124712732, 0.0008750923841667773, 0.03999069867562724, 0.014324334260225112, -0.054816770026613934], [0.03199380150413148, -0.037056291187502324, -0.021540174172227675, 0.014643953060569592, 0.02488435190346685], [0.06488952183882715, 0.05461143185174063, 0.013536308652305836, 0.03209609351076043, 0.03104967204711392], [0.02894496430092113, 0.0002026146630284838, 0.03174348514477783, -0.0053737152148283125, 0.04016518877209377], [0.028445393085726994, -0.008600791458414981, 0.05540492111680038, -0.00011397591997638086, 0.04605171744648242], [0.01710749165867098, 4.629032248505308e-05, 0.04499752360805229, 0.01531392007262657, 0.058162688818685956], [0.047185380050138316, 0.006889737332642177, 0.051880453042535433, 0.026540559381667987, 0.046426090903020766], [0.021989076935609243, -0.0049803101508835235, -0.03622069972111206, 0.09336225653769961, -0.0023401370914393435], [-0.02902466149180415, -0.023086745804514145, -0.0578332844227902, 0.013775243340859408, 0.04740299593016613], [-0.012492575694474428, -0.02536916351240009, -0.08048865768206927, 0.0180854540191234, 0.09876196268014348], [0.02242814068397262, 0.04942089166331972, -0.026456597298687577, -0.010928538840019195, -0.025967190261356753], [4.7706718820017635e-05, -0.05710442363018014, 0.03610155754372627, -0.029210277978136842, 0.014591717524542577], [-0.04690491228439989, 0.001881392965780704, -0.010333437679875634, 0.01870771310423204, 0.002579375322857036], [0.02072992731636112, -0.01837040416000294, 0.014172385114179346, 0.007453386075587534, 0.0014005298504677012], [0.025511315998966926, 0.0235126903509299, 0.020975127197242312, 0.055330202947340514, 0.0104966228568622], [-0.021956976027049664, 0.030304061661603775, 0.02469454741405339, 0.05701837649125351, -0.04494984259083865], [-0.018741795027591397, 0.01620157774482, 0.05158767776448215, -0.0016010192755167474, 0.029660894189475807], [-0.00495456089867938, -0.01459091637786966, -0.017360157056780772, -0.049795257027322404, 0.04944913343994868], [0.016778159972192317, 0.003781246650076195, 0.04218323943528985, -0.08096439449980881, 0.0005059335523598302], [-0.018811589942632483, 0.04255751369427759, -0.022995106382388445, -0.029657365764460104, -0.02997103130865702], [-0.0045349229574975815, -0.0024277813821507324, -0.0003417743693746152, 0.005804106307157717, 0.03898854198212537], [0.051120330224990206, 0.013020372075770496, -0.023255319311242535, -0.0013655371510514192, -0.004882282423521397], [0.04229190793151864, 0.08284936973104239, -0.048646532811992146, -0.08005932429332076, -0.040925352059616005], [-0.06696525305448289, -0.007678838566476405, 0.01844405022052858, 0.005982796733706796, 0.026772426909954548], [0.02354662457438145, 0.02924132820494717, -0.012847352993079798, 0.04399778500600901, 0.05857528346806426], [0.00460432307062252, 0.007643756834595987, -0.01940937072449262, 0.015517663515224961, 0.053419081572104204], [-0.0410527104797641, -0.07623202925477347, -0.0041796785390244215, -0.0013333086127898816, 0.05147704594282624], [0.06599081026540514, 0.061227302265701306, -0.036968547707241006, 0.032545293460759565, -0.018546613619576057], [0.04996631318867074, -0.02440966594136244, 0.10313605549872011, -0.03203271991311039, 0.030143703060350996], [-0.002890665068860326, 0.011541468005074558, -0.03294254703276851, -0.03417405344286171, 0.007312535208697473], [0.044411686789831546, -0.025084521945873007, 0.08614621939217895, 0.05326252331544665, 0.018909399108855092], [-0.018658183329962247, -0.0074876872923234335, -0.0033045080989492085, -0.021675058589179355, -0.00048621939268459635], [0.00040649575266716757, 0.04732378813353748, 0.038788173081257794, -0.046894332472912144, 0.06782177257615536], [0.0014805022956862516, 0.029764887328607152, -0.021389426249986902, 0.03185591314392145, -0.05933584919486173], [-0.011272983301168838, 0.042176789160336174, -0.06433789807276505, -0.03299771751439903, -0.0565477126467092], [0.021450153779897948, 0.08462099436671891, 0.0008954599989240571, -0.016475016498710977, 0.02237755467223474], [0.015309945166536538, -0.07182712961913014, -0.0029316234648993147, -0.025858301773474063, -0.013235034354094547], [-0.0043655956484940405, 0.03651786588872248, 0.04613400941097119, -0.039898746086845155, 0.028617485331967684], [-0.009947434491664275, 0.0736798499831595, -0.05133869951705291, 0.0009254432050443591, -0.001598057717078197], [-0.0346899640428584, -0.013047777750868303, -0.05932763991060075, -0.04910736723695906, -0.005569760711579484], [-0.027523320009108433, 0.008490416105399357, -0.006962125987329229, 0.007323756303806808, 0.0581694810443672], [-0.04287313083121031, 0.009504151717187296, -0.020015861935341578, -0.04215529303366411, -0.04780910784825868], [-0.11057812128811365, 0.051752438224442476, -0.040360174839037435, -0.06992554163629025, 0.04879556650082552], [-0.0027050220208630553, 0.01507299476492428, 0.05884335736871372, 0.023265050065045836, -0.06897076652050176], [-0.03550193532914987, 0.033213752090132616, -0.00692297272575759, -0.0071840259745475235, 0.007747199327950043], [-0.024773341899739443, -0.05063074118857057, -0.018375972408723084, 0.021987737521486382, 0.046201759651915426], [-0.03712740336147875, -0.03288911953215485, 0.005823633642543722, 0.023632876003216455, 0.035733841514275284], [-0.007442307823363485, -0.03973770600806593, -0.029750718785043515, -0.05130318728600055, -0.08483824851189989], [0.06174668410436619, -0.02392771615919291, 0.09240895115071872, 0.04041800583968299, 0.04099519640452049], [-0.06928677129590692, 0.05066493283059358, -0.00848948901945185, -0.04568659141747958, 0.015480007995203831], [-0.019736999748148385, 0.02910563173691366, 0.008374618989461504, 0.033225989103745, -0.01367608530223065], [-0.02591965321306779, 0.030801297492989238, -0.03130369936061015, 0.041964642975423336, -0.0890794514617], [-0.042852498573842435, -0.007006990471524611, -0.005947948777541718, 0.058794990685132026, 0.038528683259992424], [0.01953242974812495, 0.01890773047879108, -0.0027116968279940015, 0.044659099163154095, 0.08459608453835452], [-0.022511721087239478, -0.013174222378317894, -0.023759534379375297, -0.011344468567810883, 0.015514841503104938], [-0.07446754357762676, -0.06402690497095798, -0.04127280959350479, 0.050010187537616824, 0.017177220010209892], [0.08026226419977762, -0.02878463706846383, 0.05615635285819325, -0.01938969386964502, 0.014023067243621413], [0.006764067954728482, -0.0215305945501186, 0.087516511552685, 0.004314203906066487, -0.037442127207814146], [0.006577333982010767, -0.01912909191083221, 0.01707671611860358, 0.03702877442445476, 0.08475435240513471], [0.005272262090358168, 0.010579513303522118, 0.046849433794112626, -0.015506803566179493, -0.009365841995730408], [0.06814675592523378, -0.017337323914689874, -0.00018543680439608986, 0.018750481443417615, -0.03402307014145249], [0.037970321843091626, -0.02311922777133978, 0.0438523666471057, -0.03377970375553462, 0.07910521792763411], [-0.01312173899076454, 0.012362020008997261, 0.02277367080377916, 0.04799167556604222, 0.04210028919039419], [-0.04771746376804344, 0.023021250870914604, 0.0188554338342023, 0.04942603318567534, 0.001612116105476049], [-0.04191727301568983, 0.017990179639612757, 0.07809716546474176, 0.006496995327117498, -0.021419398946932545], [0.028023866756673236, 0.05836440998436481, 0.002190809255062515, 0.024920943866083848, -0.03569374958636371], [-0.0070650565311579875, 0.04301103266708402, 0.013630701108490127, 0.028414256428663055, -0.06920353419865108], [-0.005542762706907145, 0.03532114135659199, 0.008496203941409637, -0.023780942726199322, -0.014262274362846923], [0.053027173101723356, 0.05651891646694352, -0.0032013379264377723, -0.030550585073673493, 0.024901806208018757], [0.07375029231592047, -0.038571023205449174, 0.053226038501806856, -0.07428874365880452, -0.006446284964826636], [-0.005500562194457202, 0.016641668272828876, 0.009405032985941156, -0.015015849806056011, 0.03526158610342098], [-0.04600107867595021, 0.022787866589106465, 0.03465815113479904, -0.023494518348436667, -0.02045241854484948], [-0.05331460968070468, 0.045241080012144316, 0.048473981570642435, 0.02337710359663295, 0.0024985740835486623], [-0.03652140800867269, 0.012360471477702296, 0.0009178496906053124, -0.02884681783830384, 0.002389806645012845], [-0.04417561269206705, -0.04343187337235144, -0.013104364136373614, -0.019970813724783543, -0.007496206889882126], [-0.009760169080610675, -0.002703628129716483, 0.030983937959241557, 0.0017502393751969837, 0.015312911596797985], [-0.047496267611505584, -0.058973379982848156, -0.008298941309722294, -0.01040803492413391, 0.02987268622210169], [0.0009169157291001978, 0.00452509798396753, 0.009658153546146553, -0.010239604162454105, -0.049722098903349686], [-0.015601746640693028, 0.013189001186679643, 0.01306254112314892, 0.02098738598265585, 0.03034583077226515], [0.040631968924790825, 0.020795646095513754, 0.007268511080081079, -0.026258565483510146, -0.007735647663616867], [-0.02455865516893964, 0.03847287563528001, 0.027350310393237605, -0.032157435891308095, 0.02814328626859243], [-0.0045344052929600365, 0.008128466303137733, -0.008643124000973773, 0.018843405529908645, 0.0876205375340229], [0.0021573840788641006, -0.024371396721390704, 0.04038841679116244, -0.04189699367626001, 0.0372070384719536], [-0.003933981368752482, 0.0016593844038936456, 0.05721427446799681, 0.030905153558190426, 0.06257877712638653], [-0.04109490935469602, -0.027562200450693672, 0.09103486892761645, 0.08887309901678554, -0.011182466646053128], [0.04017850694780392, -0.06677395095455237, 0.03602144098349352, -0.026677442348315532, 0.048755764307467205], [-0.04577967526080807, -0.05514037536970523, 0.059606697142353754, 0.00902693609902875, 0.0882510170311008], [-0.03986889336423189, -0.027261368389494743, 0.057912880499233044, -0.06854471840332398, 0.023200284443075984], [0.0015500981881068565, 0.02559906471775177, 0.05727896038200888, 0.06994134399464419, -0.014784199000068632], [0.009844019932959762, -0.005534836058545807, 0.03443030900783445, -0.010506669265398283, -0.024993941340053547], [0.009973757195659965, 0.026446303369670507, 0.012160398844622715, -0.05789561658137629, -0.004063773084237744], [0.05665286901010972, 0.043203698638811454, 0.06871897763981788, 0.01754313651114193, -0.06063374997912026], [-0.003970790425498365, 0.03894787213726335, -0.02627565525121954, 0.004370034267450949, 0.01254616610478794], [-0.07756732541706797, 0.0329513419289545, 0.023619932296092706, -0.04128235895979177, -0.057736580004458374], [-0.02348983285307071, -0.061779373864576444, 0.025345582788163266, -0.014266981648003564, 0.0024820661462399717], [0.011905605548394338, -0.04080920462162386, 0.025550181445616733, 0.03067206153775553, 0.015574958736611622], [-0.006508435604841716, -0.04037433097323897, -0.03623122044367646, 0.006882708564534478, -0.019103360851749972], [0.016735523057027125, -0.025723217968278166, 0.015204402759361527, 0.011483760052690658, 0.06923853273638259], [0.014363023858059364, 0.07210352080518298, -0.008931768919629626, -0.03837460243048021, -0.028305602700660452], [-0.04081647463541097, 0.028450511224861565, 0.03846443914794267, 0.0658374358544997, 0.010914162504074463], [-0.03351814889419993, -0.056066114499149985, 0.011139573189895387, 0.07724047319085772, -0.022311083987363114], [0.03759255947510546, -0.026707191552669384, -0.03134550738448543, -0.0004960192601481991, -0.034635855006403066], [-0.017391079579494206, 0.02478838820597442, 0.00450351067850551, 0.03480184864619525, 0.021792031543437312], [0.0016739699228106094, 0.042287093801310426, 0.004678394406502731, -0.010331427752676023, 0.020070206954472432], [-0.037654045194648156, 0.023550293456995296, -0.04042456564173336, 0.06390575145859187, -0.030685669475357898], [0.08171696098167555, 0.008864102344290019, 0.008093322052358716, -0.029474647260732362, -0.040814791824053814], [0.07091858777138554, 0.017368868648805273, -0.05894431810454852, -0.05198278969882978, -0.028360678060293583], [0.0124271626248886, -0.03323689340773059, 0.0023433674374277536, -0.025592135563890915, -0.039613123710092506], [0.06606876873393368, 0.02095195850231336, 0.005082595579495853, 0.0074941892869104625, -0.010160832931932548], [0.033917731506799706, -0.029350751883324182, 0.018187660667550957, 0.07743195673529951, 0.011672856449155574], [0.04452241234649264, -0.013700946592334345, 0.037584923495631216, 0.043266923268154484, -0.019938774803441844], [-0.037249908830571755, 0.04586903212415369, 0.06865241827979693, -0.05799325238002716, 0.015390789560157422], [-0.011811323896047488, 0.024645930371151873, 0.0574738379626998, 0.02746336031464854, 0.041241579959700084], [-0.08015791487775951, 0.06564136272220632, 0.10917721105164228, -0.045706118894806434, 0.05470049272533733], [0.08383068686383104, 0.04309936914358421, 0.052292282555321194, 0.06163907729932838, 0.017850930889789934], [0.07889480176747699, -0.023734684448943798, 0.061187656658067864, 0.01681370278646335, 0.0278029503692573], [-0.01418005547330638, -0.08238129626652212, -0.012076111614874867, 0.011869187820515254, 0.01316478601565639], [0.0022230150078268924, -0.033835289123328886, -0.08063247377711263, -0.005686103018103506, 0.012297744236300978], [-0.04431359237425676, -0.0026782449360529753, 0.11893454425574315, -0.04413295802899019, 0.01347276264015313], [-0.007426643456060441, 0.0031271748362968243, 0.007568044465668062, 0.00880669859651416, -0.03509444900196227], [0.015399198383711774, -0.004898199491881547, 0.02171126767164122, 0.006383113259842137, 0.04695819082910457], [-0.026498448164022408, 0.027192518118350894, -0.03747129913953516, 0.03497029215610068, -0.007662783448358573], [0.03196969040562643, -0.0006799252063611733, -0.06757064478740417, 0.006953535769660794, 0.06739697171264322], [-0.008322586262327738, 0.016799588496388095, -0.024251637883040272, 0.04157633580797083, -0.02600169592321556], [-0.021331682902831363, -0.008439660619957729, 0.03123536251135207, 0.05635558364219556, 0.009425508200896087], [-0.001455946070822434, -0.0155255993536239, 0.025292098663750588, 0.024869445674749278, -0.0006019875897865148], [0.09035122401725612, -0.005669925520173788, -0.02400379568858101, -0.06120827435240944, -0.009213014083852038]], [[0.12852725880182686, -0.2756148303101493, -0.20061485546777633, -0.19516205434955092, -0.6047350910442522], [-0.15071204874603136, -0.10236303786833123, -0.44072052299231873, -0.7888707534450031, 0.7462608217839309], [0.7755923439989902, -0.5158189551523863, -0.03829163844434764, -0.2845447456352167, -0.5974286700306054], [-0.17915223121276744, -0.258691672266548, 0.27074391988474544, 0.7021267762053963, 0.2616564270955157], [-0.20119210192680073, -0.8696761850985565, 1.4069162955260548, -0.6381462509220035, 0.20098541734683992]], [[-0.9378518925791606, 0.9325991925397589], [-0.4221180189844462, -0.18970842610889907], [-0.11577479791710779, -1.567626897275324], [-0.15331091655542867, -0.25806314016420306], [0.5583584845429513, -0.14747161766808145]]], "biases": [[[0.01261837826145886, -0.005298763846644041, 0.1098756887135505, 0.004209615172544184, 0.028257239131764957]], [[0.23939105454216006, 0.0, 0.023592033593574556, -6.503980597935435e-05, 0.020794081430653373]], [[-0.12533195589204077, 0.12533195589204077]]]}