{"layers": [784, 10, 10, 5], "weights": [[[-0.015571614516204294, -0.006590441324668003, -0.025568256820929978, 0.045596500638280364, -0.07704335157757507, -0.011984777168026543, -0.020846302598277532, -0.06263366030078209, -0.019633182026101193, -0.0026707165805830674], [0.0035629839342126374, -0.03642798629177938, -0.01772440795735952, -0.03062831915525879, 0.05771659376387859, -0.04328540156847021, 0.0603128085137136, -0.02976408634073554, 0.045887452463329335, -0.003979967445941074], [-0.0031961551116575977, -0.03378927329511461, -0.013717754680258017, -0.02030496034856662, -0.03694856492749558, -0.04433280631974818, 0.022693878807972717, 0.023419884514443372, -0.06591429431371268, 0.062472670001446184], [0.0317970243163206, 0.01828553566793344, 0.027615534573451447, 0.024146968267618064, 0.016044356438971185, 0.019687363358099286, 0.024618368018736323, -0.03507694076060727, 0.03340979796653159, 0.04374200900433948], [-0.005294921753268413, 0.048309983995477424, 0.03835952623481227, -0.01571883677315687, -0.03275215640526956, -0.018985962674412087, -0.05382261514113005, 0.03827060717575583, -0.020186385909121946, 0.0377513533058168], [0.024607654071479378, -0.046451284268969724, -0.008806552702583457, 0.046573346713838656, 0.04293704508760548, -0.023526378473294786, -0.04769346221245273, -0.020182276047401602, -0.023175745758918155, -0.019761010279459885], [-0.00535464572696098, -0.017080843493212736, 0.02227819954844753, 0.02735005993793944, -0.0019288193066050018, -0.002155324544564007, 0.006631011216690846, 0.01671990811558786, -0.010588975119160028, 0.0007910288838340248], [0.013699184278736872, 0.056012459106620345, -0.058080906050802156, -0.03337038111005798, 0.022622803603134543, -0.003443039963773743, 0.0008031055624695905, 0.004293300222980729, -0.0023598199857717663, 0.020730292894831304], [0.018302141173315734, -0.040787615308408624, -0.008369005188639745, 0.0029489391428119856, 0.0067570520403424355, 0.044047390555662265, -0.06147341970653788, 0.021398814094389453, -0.0767687248176479, 0.015093462995309517], [0.0037451961087515574, 0.03247836596578524, 0.011229072362248694, 0.03151055166063308, 0.085638180781563, -0.017760217477593793, -0.03296929215794112, -0.010134892551509567, -0.007376339895945798, 0.011707238022544225], [0.0072112120438566395, 0.006611396831156701, 0.008686670247741545, -0.014231982950033233, -0.0195923822501349, -0.039115626144884195, 0.051185030705096474, 0.0005988342248440965, 0.04149074591115598, -0.02866903059955556], [0.012975539513071278, 0.00423467575137515, -0.01464465306614562, 0.05409461399794224, 0.09437777707147052, 0.01764615519143711, -0.004255662097227689, -0.03206015891762433, 0.011819231077259691, -0.0004266002845618273], [0.02147295875759247, 0.0806331462809854, -0.028892841397456064, -0.008937759994890904, 0.061105736457484294, -0.05486569873646362, -0.02200418888535522, 0.035466590185342046, -0.03126042409243259, 0.07141552300396391], [-0.007389634857488851, 0.023977407222591493, 0.0982389845825271, 0.045111142519434926, 0.006732640354023156, 0.04903082524892896, 0.03458606928563496, -0.001928863811760851, 0.13076576488610692, 0.028075277048364242], [-0.0034961790760060013, 0.04882631103420706, 0.018974263781550232, 0.12371223150826899, -0.0196675260225009, -0.03874856391478246, -0.05396823594174662, 0.010676187439626167, 0.044940536764365054, -0.02293470270449477], [0.011128060988107027, 0.045015091796345816, -0.04084191747124445, 0.08172251429682921, -0.05641935309055748, -0.03161374765899538, 0.062313377355215846, 0.017930816402671638, 0.10860230506387449, 0.022527741809247482], [-0.015316422940880307, 0.07055484013577777, 0.0062627346956434255, 0.07793480485411905, -0.0774854329702624, -0.003267645930587045, 0.010969972146126722, -0.016213670925082933, 0.10842227074267001, -0.010095121070009401], [-0.018371888096324323, 0.012370626049500158, 0.02962651736908509, 0.032319273443200305, -0.012226884976007771, -0.017255664264994364, 0.006732344156741352, 0.024025635069276855, -0.027782488458743766, -0.056311435274088745], [0.016741396238119672, -0.024973314114809096, 0.07450197373347775, 0.004286706988423509, -0.05311377047416875, -0.03829695040592838, 0.07944038388600967, 0.008124757921957926, 0.01192281238590457, 0.01344126876261835], [-0.049315958402087946, -0.03131549282425394, 0.036447527012574754, 0.027589609728706836, 0.009985959389635226, -0.014027089976797294, 0.027952680458127908, -0.020107764352368197, -0.0026616238618840855, 0.007022295600642556], [0.01687163468238889, 0.006012639815830346, 0.018712517670657226, 0.008301852928045321, -0.049662595498828545, -0.06410424802924693, -0.0015980051843937641, -0.08748189075475328, -0.03346818652896371, 0.03520373424184704], [0.0331660945424717, 0.012260586162901979, 0.011287050838179005, 0.030846765939297638, -0.01324288091460186, -0.04382949698319918, -0.03301114239702901, -0.052893045559498086, -0.032070732707618295, 0.004396397787884544], [-0.05354541040515849, 0.02172331154011195, -0.018074416327085754, -0.053565429257130814, 0.031039197405240786, -0.03814969544153225, 0.007480503538841448, 0.016498064147070897, 0.0005026077195802414, -0.025803148812624164], [-0.0481181191499004, 0.05205844042652018, -0.025830680523829263, 0.018589887650799077, -0.08413934705362909, -0.012590726793798671, -0.0043141111934731375, -0.005329172585685517, 0.060234300133877774, -0.023396348740847173], [-0.05200161442707735, 0.04123916660968567, 0.03216401143129582, 0.00426009264559193, -0.01231131960835106, 0.038980164176810723, -0.022018010344743984, -0.07103158753809864, -0.0455668083374866, -0.03686459390141472], [-0.0035462658257581258, 0.012251414413200632, -0.08243207884996263, 0.05783875335952811, -0.042110087302766615, -0.022146570272798892, -0.016829699612577687, 0.012616937576954205, -0.07265290458191045, -0.029952558176173705], [0.01264577124268776, 0.06672723342695197, -0.04256320440507731, -0.015780305177616524, 0.07133913735757774, -0.01177910664099863, 0.022184069468029984, -0.028321999600847986, 0.0027836450150617964, 0.045786497162782346], [-0.02621050747831354, -0.02740975818933919, 0.003264235986226157, 0.059613837685289, -0.008924202468137613, 0.06272076852589108, -0.03697330757160776, -0.039263465296221385, -0.04635516452011724, -0.018871127988982717], [-0.04196483465788934, 1.0859690485075934e-05, 0.016416052414004265, 0.020079994196783447, -0.06927185790209849, -0.022574162063078117, -0.01857744037472586, -0.07721813365099936, -0.01802795957026861, 0.013474852209461347], [-0.0687332664590143, 0.02516462695141836, -0.017617771737484945, 0.09257934214396478, -0.031195102052954837, 0.012994963532424344, 0.024339357400100143, 0.050331654957247694, -0.05661097067276311, -0.02441230854603216], [0.05313976159577409, 0.025716416469243043, -0.01189383617793503, 0.05720873372124825, 0.025450227627765713, 0.047760337731437105, -0.032362642223042554, -0.012941335762161764, 0.041080416349051664, 0.033872627631314906], [0.03395030171946032, -0.08391014397989083, 0.04588471890144925, -0.059830303026456755, 0.009561187780967964, -0.03862840630006036, 0.009516819722702425, 0.03721778788887096, 0.04790724802633938, 0.06622627784016961], [0.03289187884593634, 0.018317055714509513, 0.01809065852556053, -0.006436422613155923, 0.02555007026364839, -0.01379216146700937, 0.007902575211584674, -0.016507082315344295, 0.006830339693464555, 0.048037558071025346], [-0.06947202893318624, -0.015198595915720122, -0.0029101004398482512, 0.05126990273552141, -0.008530949548966117, -0.0321649233432547, 0.02928368261284262, 0.005782826880230132, -0.03344568775880285, 0.0765250652576632], [0.07190111063698963, -0.051710384442054655, 0.03933062942844266, -0.03580479110473734, -0.04796209562026777, 0.01852596032417868, -0.012741960256137505, 0.020233144807993778, 0.006330613987092173, 0.04559122642513522], [-0.11899621751617583, 0.060244798201391336, 0.007190381103866842, 0.03138659893604705, -0.015938206187486485, 0.005418072612003533, -0.00690310484680224, -0.009273067816111641, 0.007270500671016519, 0.034882221500246925], [-0.054613715468616375, -0.09008120885194372, 0.0073679134753137756, 0.01747248670568631, 0.0078367017828578, -0.01149029792927846, 0.060108574192796166, 0.03396752932536557, -0.0877942522830916, 0.006886818485156401], [0.07778981285658401, -0.02463735105529391, -0.03588244380052082, 0.041213121786506914, -0.0034695746525248324, -0.0243964796497469, 0.030963328285314493, 0.0370418935477052, 0.04178304822859356, 0.0710895247947462], [0.02051943888669898, 0.020009577267188633, -0.061135948468023414, 0.11509967390266117, 0.004879956149217499, -0.020352644933072116, -0.07954039943743148, 0.05189607284031841, 0.03001463750939461, -0.016887048169401248], [0.0213795585029142, 0.04377080136054498, -0.006933402001600244, 0.08636282019914143, -0.01194081010162716, -0.06867538340404551, -0.04313928643516317, -0.021694422099699365, 0.03764796434052946, 0.1331877865754817], [-0.001057771210714423, 0.04101733476496558, 0.05292012910712212, 0.055679484701496924, 0.02657826174846562, 0.03404631009474145, 0.028119519542241077, 0.04477405595808713, -0.030565699366927723, 0.10910887405780999], [-0.0430619776319785, 0.08689770192702617, 0.004976597819382822, 0.057483168067286844, 0.01167562397523322, 0.0365299409247263, 0.028561294131282087, -0.006398134427485252, -0.007544170178920224, 0.10905292428382224], [-0.05959382629170031, 0.028898446558683517, 0.014134356648584942, 0.08393334257872992, 0.002744393809507884, 0.04176007732435063, 0.10580940075565072, -0.049652653222509224, -0.01560201956485824, 0.08144991057969125], [0.0351224974593231, 0.020482261905502782, 0.029634336026045198, 0.09211890865516331, 0.009768938158139638, 0.08638195373306405, -0.05138137568152901, -0.0006230188914456628, 0.04548359582452382, 0.0046148705849845375], [0.0479992024637956, 0.050509393938717534, 0.1270362862201094, 0.11569963267587638, 0.0012229655030581484, -0.09120392657457131, -0.01248626863302312, 0.023417069822469425, -0.02935737286039254, 0.060920105958877056], [0.03623172547406153, -0.02492983506482968, 0.11022280552987501, 0.08896468687303338, -0.031078359975436787, 0.048143071608698865, 0.0042298054694639015, 0.034332339464473234, -0.025285175839172704, 0.03457362396173153], [0.014201002816779622, 0.03841987721292862, 0.04526865744451714, 0.04123157528292787, -0.04109620593648966, 0.01742345991123671, 0.024475541711061387, 0.038733259191710015, 0.023576193281066655, -0.007798802628801104], [0.00111025467434446, 0.007792310743457949, 0.03140236194025233, 0.024431723569223043, 0.008571277341100903, -0.01301913646130055, -0.06201519374971046, -0.056192854747838354, 0.059967401700166546, -0.01853407694392686], [-0.008379790027115839, 0.055387427819362144, -0.03126037842999062, 0.06040479473390631, -0.00668806771324798, -0.08127396855456755, -0.04667603381309166, 0.032189517365392856, 0.045504780451294795, 0.008919806507701869], [0.005201947134467237, -0.012669746427527448, 0.0653456752220856, -0.005253601345086711, 0.024462568278791938, 0.010011696158787785, 0.01617072104057949, -0.01608401503415808, 0.009752135888545732, 0.00834978627475655], [-0.04352916388730051, -0.003856706153085185, -0.03516982734342004, -0.004262061849305192, 0.020748183397193923, 0.04081050500040738, -0.06582901983433102, -0.05770559487887472, 0.038370470597883136, -0.0019178556138829555], [0.02542066259921428, -0.026127056615377914, -0.051594975694838896, -0.03199162883162331, 0.06639465060624077, 0.034517869267668845, -0.05837294508073875, -0.011946080945766152, -0.01878416926289425, -0.030663757050915643], [0.009814854636020288, -0.06649047152085438, -0.004680286298978128, -0.033471833139559, -0.0954972932483449, 0.0322282460801301, 0.008436758268944574, -0.03966309380137085, -0.0009951504223086366, 0.028259325552111643], [0.04581339996862173, 0.0252247133683671, 0.04152735257432376, 0.016738550031034815, 0.01173998837741751, 0.038770186622494984, -0.01571960241567732, -0.05006178109641161, -0.016729847229025964, -0.043366107671083474], [-0.00892287756555961, -0.03664958414089768, 0.03386105881308428, -0.0031190652714038, 0.03699770393160184, 0.0009330895429485956, -0.0022968138206939915, -0.005839520694774611, 0.016333033941419207, -0.07421259738100404], [0.02362899992108045, -0.038096519897604604, -0.04230180835163446, 8.847964740429333e-05, -0.04821287321335006, 0.004346455680322815, -0.028916233758731834, 0.006079669951450273, 0.004406956685017172, -0.050042070879426574], [0.05016499115116257, 0.0016314547712813487, 0.02851921707884058, -0.04247733095035866, 0.059769787387782415, -0.02488817932645614, 0.01161518092598385, -0.014106881095295806, -0.04020270270529745, 0.02328378714149578], [0.003816539950108036, -0.034318048415274596, 0.01691153063214321, -0.027607611150860443, -0.06541016697316007, 0.07923799329660978, -0.0349705474419691, -0.014755775262565687, 0.028347372037059868, 0.01387357120014994], [0.019799582965446576, 0.005187205474861645, -0.0045852533805843575, -0.0005149734235807646, 0.03968580359305691, 0.04459654955955517, -0.004322612349472719, 0.006840261860851125, -0.06285905699614647, 0.020473909365273574], [0.02747416900425133, 0.012850975724649927, -0.012218789649089045, -0.0004989251007489708, -0.03605902064108536, 0.03233236238456382, 0.011112854101653896, 0.0500326329890829, 0.04524862079664667, 0.014574625810819199], [0.00207784002074978, 0.007537919464705396, -0.03690069025726909, -0.021984797468185057, 0.02521345840585193, -0.024788912232953302, -0.03556751996854314, -0.00039726494300029497, -0.044773309482129243, -0.010134287637349786], [-0.02979580743084259, 0.019941458633059846, 0.048521817015063466, -0.0113332914808147, -0.015466480902218664, 0.014971730817333242, -0.021793428711582942, -0.05271554139343778, 0.05031557247387551, -0.04250864399200319], [0.06109822778650029, 0.007202248341422865, 0.0034463688715420777, 0.011780270462531234, -0.0002854585141127651, 0.021012371935377222, 0.0002299616736660885, -0.04188563735230274, -0.016527270398514173, 0.051451095199065607], [-0.020211662018000957, 0.05260723569297097, -0.03013906997823388, 0.07018678909140766, 0.031168850938526307, -0.024750621015344275, 0.029821729473350066, 0.02261050975740167, -0.038571184412954075, 0.06176149134683192], [-0.018343600338194627, -0.00017983637154559735, 0.029082719956070452, 0.048081092795879535, -0.0014352358886744767, -0.060575652984863, 0.0014518097196707068, -0.023459315142564916, 0.059600657479245124, 0.009489216641398934], [-0.036426946451776375, 0.04375424674888758, 0.03644477316656448, 0.05628961579399051, 0.07290426017874559, -0.0273551821929711, 0.0630497726273618, 0.013609897010197419, 0.06422766279758232, 0.06381369145797354], [-0.0005133379827381812, 0.10103270055265656, 0.05081775932818662, 0.02494335739473135, 0.13720826306033254, -0.0007258739739101708, -0.037736505336539466, -0.024779124982931774, 0.0016712218828391666, 0.06263081776978931], [-0.011855878937940625, -0.01091583465299429, 0.015208843621019666, 0.09429517504475837, 0.08711129972084485, 0.018646909364672736, -0.051676395590490684, -0.012566317992294856, 0.049697422614662076, 0.057528730948753166], [-0.051808312975589285, -0.015600063309008302, 0.015710620436088635, 0.11245772082217786, 0.06953786455836851, -0.029604845938156883, -0.008382971495559487, -0.0033224996240714083, 0.040555682847324324, 0.058982130650555936], [-0.057189864958031064, 0.15264556384137765, 0.008510594508279484, 0.049504377431672165, -0.015875140142683375, -0.039112209586897484, 0.009798476997989867, 0.004995618162503956, 0.020359652407309622, 0.070014406536117], [0.07175016560389133, 0.0600289771178695, -0.013255657915486113, 0.026074287774915713, 0.037140097281092424, 0.011614338568801038, 0.06136450097891584, 0.09216708711702089, 0.046138993133163705, 0.10180263015545378], [0.05838290268507285, 0.002833218605546846, 0.022470224191900017, 0.041853932045804204, -0.008129296082087574, -0.03993977774210139, 0.061375344938101956, 0.020101980310214575, -0.06626711756140667, 0.08069696900903842], [-0.047150597021456374, 0.06337282121454443, 0.11970512352212502, 0.011162712209767773, 0.03619613713592408, -0.01847995032654179, 0.05241271844930113, 0.08448155487047501, -0.09771879064574965, 0.04856153014796573], [-0.017614674857116278, 0.08947528071695522, 0.045178973742459, 0.05685644625484658, 0.025094418243583532, -0.07208841890612153, 0.04249848768887691, 0.08111465358865942, -0.03678765807331609, 0.06615100977212689], [-0.05094473689095849, -0.004795736433377898, 0.013110186004012725, 0.08841400502082274, 0.049824326369953195, -0.021115405173609055, -0.028625972179118997, 0.035648717967937914, -0.0009821543268885688, 0.0423653335656162], [0.025981831066911057, -0.021337467797526075, 0.02641910824335913, 0.09119755241474532, -0.010083900039603858, -0.058265168673103586, -0.06141642795689722, -0.00930788472244725, 0.05690890096049208, 0.037149745098985026], [-0.05004799413197971, -0.005155555079004277, -0.03407167590812617, 0.020176382364996952, -0.0179755581023005, -0.012334115334914962, -0.03413590024697872, -0.02689579552828203, 0.010379971704211845, 0.026573536032747574], [0.07338269523355713, 0.017607609987764693, -0.060467977233422, 0.02071167133631867, -0.037484775687228744, 0.04876474791392686, -0.012306228138796775, -0.025591907432095995, -0.03188900221362009, -0.056547427325052746], [0.0217080535909777, 0.01443919695147709, -0.01870508319642233, -0.002423264564366195, 0.017472493177189134, 0.02427731735423988, -0.0030525214360539146, 0.010336654017141343, -0.03262904033358867, -0.03161969380029845], [-0.027618658837529064, -0.04014769826475366, 0.021914183863172936, -0.0018253092876170981, 0.02031666918196601, -0.07375343721585466, 0.01552739071859783, 0.021048974375476297, 0.10786621369110695, -0.05565174063976295], [0.016839287690805903, 0.06925763785564502, 0.016372002140408175, -0.04357743096998503, -0.05447692367283143, 0.0350126966606923, 0.05639443183116395, 0.039966449262002025, 0.07482639930974179, 0.024275826951629297], [-0.036015718978627355, -0.016309467334480902, 0.007314662095477611, -0.05484519351285228, 0.04029619103704929, -0.035739011520483956, 0.023961124845593647, 0.06533647537427495, 0.02451978992821623, 0.04683539631473715], [-0.017480129438810436, -0.010111118025441566, 0.024541271949901414, 0.06460421921497268, 0.014076690512793769, 0.0062543645905178994, 0.08687652851205399, -0.031177290369459567, -0.03471826625744522, -0.010816004293013675], [0.00973511652549336, 0.02364857737131736, 0.00558252620700772, 0.004003107917452161, -0.05220320874118476, 0.017531639646291734, 0.006558151160128237, -0.06656701597811332, -0.03776348131638596, 0.04767774951501099], [0.026641209368448354, 0.0397093212807636, 0.023254576360260387, 0.05498515517577194, -0.010861124993517044, -0.009457270199112385, -0.02474965848349243, 0.04754110266816093, 0.027980512573438653, -0.03678761367757139], [-0.045766224549821995, -0.05051873191040056, 0.005000138212333136, -0.03908526273526287, -0.04895380756432321, -0.0500678900401101, 0.03993235486706437, -0.002507343280437966, -0.0074833831690310154, -0.0253143629432074], [-0.03540430427083191, -0.007045773076784492, -0.013372388804429336, -0.002372183785992433, 0.022761141141683105, 0.04052302188909167, -0.04706905668497754, -0.04195290004460033, 0.0538679740047604, -0.015351221696951816], [0.07621223010979376, 0.027985626794367276, -0.0389314243805386, 0.016875561737162762, 0.03135544492701508, 0.010046212509328136, -0.04728168941813482, -0.0036519534577401087, -0.009545165346060147, -0.03471311302303421], [-0.0027882357290251393, 0.021190786765049225, -0.002233185878715198, 0.00011921116533506409, -0.02888348797409447, 0.05060173496243792, 0.07231865878783217, -0.014014906649569128, 0.07208981226508375, -0.006867427116838634], [0.044058780437396895, 0.03061720716056655, 0.035714631679874216, -0.0011314797714816925, 0.03973942670820786, 0.003965794346281744, -0.02005846719187894, 0.06177747172586732, -0.01888834158976968, 0.0582095843430266], [0.0019074566501285177, -0.05944022767434161, -0.04567524522956835, 0.04326537907521793, -0.008026723683647468, 0.024171314002995995, -0.003765541645698188, 0.05505700071007237, -0.02318981792990879, 0.00011055829194366], [-0.04166933316808405, 0.03325830557168558, 0.014573138035544999, 0.09355013113651062, -0.0474006407222964, 0.019580891201993248, -0.02317254480668445, -0.08464189105071063, 0.10595759892805158, -0.019635369486090473], [0.0014794620470624882, 0.055389161847896, -0.0005331813024704159, 0.07768723785217142, -0.0212319079711625, -0.019139022544046338, -0.0008264822899004471, -0.08496040024076996, 0.1006964279262521, 0.017330985529244454], [0.00520245004392501, 0.06300213852959512, 0.0018108195636753767, 0.05460775799780028, 0.024407937583562272, -0.074655813164959, 0.028877518769294782, -0.051624271280889304, 0.06340512720433823, 0.005787031804501229], [-0.0020700788442146196, 0.07487853471905863, -0.03260974192760098, 0.00047446946528939587, 0.010126963666564253, 0.00903930965900117, 0.05215384412949764, -0.0009326782264959596, 0.028535398535573766, 0.10736023415895765], [-0.019949587146862954, -0.018730733981078048, 0.006875966174431077, -0.02234236900454865, 0.011165726261838357, -0.047181664701073385, -0.004943259116132398, -0.019976582188651254, 0.07256599697136279, -0.006801342372949354], [0.022871631085659722, -0.06613016409786104, 0.027889198068764855, 0.03163412217261366, 0.036878340720788834, -0.0062679077180448324, -0.001431693427856757, 0.014468726029130128, -0.038131782261513154, 0.029500690596182766], [0.03309681032021325, -0.0665286435446385, 0.14673263200393255, 0.013646241676590171, 0.03935978103399634, -0.020396006589008107, 0.02337280771782824, 0.027970303616250573, -0.028986986410532288, -0.042317804255006156], [-0.02326102146441067, -0.001302062239632841, 0.07743672495271617, -0.055321507371469944, 0.02436932961117041, -0.05831296624141121, -0.0008466100578290633, 0.10029071604145513, 0.022485278713949678, 0.06858795151655887], [0.014711115163702097, -0.007323024560489606, 0.08300705396857311, -0.05114125873458066, 0.024483796543989127, -0.0024954435557473648, 0.05393526608099111, 0.12496504326488143, -0.13012539185664213, 0.15808503237037674], [0.03930626004543302, 0.026925196086163942, 0.06257647599094922, -0.01905866658613969, 0.04924615697047834, -0.054366609417247774, 0.024462941875128274, 0.055938418982287956, -0.10505138506084331, 0.10033705176230788], [-0.03650207205964106, -0.012995318793797804, 0.10697403091290168, -0.034874686252706656, -0.005517623128216166, -0.0008684202815930065, 0.024364486056365122, 0.07466109722419782, -0.08663912863914365, 0.052836275207314376], [0.020965441586257252, 0.0063026391620068555, -0.021368850276528333, 0.0012457657035473946, 0.03512550577958803, -0.1022692561522182, 0.018591978995145888, 0.062165107963409974, -0.018492276347842625, 0.035272753230840025], [-0.07770020059513577, 0.07932147698901755, -0.059006137449547115, 0.10918529962424346, -0.0543224916179918, 0.025683344069535704, -0.010363482361144736, -0.03913312088478345, 0.04438834692044604, -0.06529856273605614], [0.03536454213769607, -0.014175885794931386, -0.026190745254677537, 0.03658762702330355, 0.01655962282696131, -0.03996821051112228, 0.009138658317767263, -0.025520310676892678, -0.018348426603419586, 0.004919340141530705], [0.018633240492909247, 0.01664235694412764, 0.009880108818637249, 0.012358849392021646, -0.0373014917197376, 0.021727601021149835, -0.03335145779898112, -0.010025386498036401, 0.034129311417677055, -0.0033327339738438], [0.040741879280631756, -0.0413255899170572, 0.02489299816554369, 0.06571369976818253, 0.013161448473686214, 0.03319832093612306, 0.017072519888972657, -0.012491012493406707, 0.09054165072454254, -0.008802225193390424], [0.07633128844190011, 0.03601089797845152, 0.04507590766996257, 0.05636403188100553, 0.06676694079934721, -0.008899040387304751, 0.006294262639968898, 0.005469215427285157, 0.03174315848965362, 0.07503140131845505], [-0.07688368204389791, 0.004544295220548686, 0.037345698482444525, 0.00804931492154017, 0.060791791780320924, 0.0314354951649754, 0.08569279228160435, 0.025856299821980254, -0.04011688955418651, -0.010750609563257576], [0.01692958511850774, 0.02262710163744014, -0.03793277031414825, 0.003970262487248624, -0.015880234353399917, -0.048772773538795895, -0.021163647598829983, 0.05358028307778574, 0.021146181724661633, -0.047345412312992684], [0.020511250679512334, -0.006834847522712602, -0.019683291116908256, 0.03147033107999298, -0.0070317371822025965, -0.020985111794415166, -0.05697632625767062, -0.048949451218854245, 0.019582184825904174, 0.04586982441124275], [-0.03729444487344535, -0.02574078057276045, 0.05604158286168299, 0.027163947476573573, -0.010974635322744297, 0.06492977147249772, -0.06268747250414385, 0.004869975038117461, 0.012809539188749977, -0.009828151905130561], [-0.01852812470337536, 0.008557399234071223, -0.018395502137736088, 0.0032240555996039945, 0.0351982109832558, 0.06872924359854292, -0.04498695552701814, 0.011918855240843282, -0.06058947461216677, 0.004204409757349121], [0.01966852663873606, -0.001702998771471485, 0.006249012551808353, 0.0179358690326834, -0.007556472019369033, -0.04346087436584217, 0.0056257442830584216, -0.045111756326184416, -0.027430618986880196, -0.013840652354386463], [-0.050567222505243405, -0.03430271609253375, 0.023524189287763543, -0.010832213423988124, -0.07306821285956855, -0.028436330519588708, 0.03759922012762657, -0.032785918465314035, 0.0865270436184036, -0.022983239788291168], [0.02312157099152798, -0.015168760796763632, 0.017968920559690814, 0.035159959987657315, -0.0728042523021266, -0.02367734709826438, -0.004726342277422764, -0.0013908816439182864, -0.025815799337935156, 0.03053023902265021], [0.012975550745508248, 0.040269106372425395, 0.005915908361630892, 0.023347699529838204, -0.021859636462751394, -0.04952141825274804, -3.5774579725142545e-05, 0.06254432558892425, -0.042073245079528504, 0.03615800339074708], [0.01835688227659925, -0.015274428992711553, -0.002859750822663697, -0.04429409056508804, -0.04969942344702069, -0.02387083535067471, 0.004129360716678396, -0.04361328164502816, -0.07121872606689127, -0.03410733032663325], [0.00321684071777527, 0.04771051290625274, 0.007439096724886072, 0.09028631948507049, -0.00893716557300171, 0.02959937568493006, -0.0854679584126827, -0.013413300668782059, 0.0189683357328348, 0.06155830586614918], [-0.05344504390299724, 0.1013974828988047, 0.03908852953684184, 0.11473660993657854, -0.035097637065326856, -0.03911745269822182, 0.01260302882811108, -0.020720036522297366, -0.03483688972363641, 0.07439271265653968], [0.014966320897976493, -0.03373623879765309, -0.00865211093914627, 0.05991355242127341, 0.0008538753448736165, -0.05770337067093766, -0.051290295615299374, -0.07092283823313306, -0.016851604229505688, 0.020740813858299647], [0.016009960662537927, -9.290586801601488e-05, 0.027601055359240633, 0.06790548340651215, 0.049396421213201876, -0.049706294330779346, 0.009962077232856888, 0.06041202250635681, 0.02250395959776356, 0.0352367937145202], [-0.015060345867824551, -0.024441833864461734, 0.08367465514993395, 0.015178525629057223, 0.02000093723800541, -0.006246375147667626, -0.004213076106072118, 0.035938070107114174, -0.009507773583167818, 0.05812332432727468], [-0.028937521560141538, -0.09232640634299527, 0.01904450990868087, 0.007573093483173406, 0.03125858111303099, 0.03386495030105158, -0.04274372659065761, 0.04812230839918268, 0.001882601828341061, 0.07685921341452003], [-0.041312030653752475, -0.042148938216934134, 0.010972323192714602, -0.0875530044932239, 0.013549091036721946, -0.0010048336089470218, -0.008012520772338076, -0.029669155024618327, -0.005740638471317416, -0.01887407724861421], [-0.02882727812559389, 0.023329482916513822, 0.07523764565546619, -0.06332944294082134, -0.02094787958600928, -0.030110697632409606, 0.032176704293171356, 0.055849187295310396, -0.0197187651527225, 0.014173889382087013], [0.003385707578026391, -0.010326298448947929, 0.05868481389183186, -0.05970607664523833, 0.023219546382607162, -0.039536335163964875, 0.06777856809926683, 0.10148554255287541, 0.02212519761460674, 0.02323566210914895], [-0.02801398513217133, -0.03998322737628499, 0.07458892718333207, -0.0432337730498875, 0.04442452291613587, -0.001152524328649081, 0.06343192112375656, 0.05603335187090491, -0.05474344172891837, 0.06394953854638735], [-0.04717139394367728, 0.013937808160414256, 0.059937673951827114, -0.02137843213391591, -0.027599624635859646, 0.06472796681954256, 0.06158639700239515, 0.01343247629986462, -0.04062061667597074, 0.07667389740571519], [0.021928110160334108, 0.09622274334567803, 0.01810385225799112, -0.03729436825159064, -0.010049113915493107, -0.0027956800063397374, 0.07822899221984278, 0.02317495591925387, -0.01916828398730143, 0.04171339335148554], [-0.061632477425700605, -0.02495167802778623, 0.035181092249299765, 0.1402170443000846, 0.019346490420868986, -0.013210439708789155, -0.03125103248195013, 0.05603990904006568, -0.013926294121418402, 0.08096089392457925], [0.005055690961205351, 0.023019726644710338, 0.011736821322753872, 0.11396802057636259, -0.02596417878285889, 0.06324831913665917, 0.029837683577237022, 0.028175400068615894, 0.053739966476099306, 0.012271813901316871], [-0.05102959827732692, 0.008859384489040147, -0.018515610904586605, 0.09872929424691981, -0.007370993360603488, -0.046153371537257584, -0.028574275996515776, -0.05849504847340292, 0.00604687106712685, 0.05893935361421808], [-0.049871826982455014, -0.04111675002069212, 0.01509899877001359, 0.017818128104597993, 0.030383241277091865, 0.02182131868008657, 0.08362524981970794, -0.04489420696346681, -0.016544901367078, -0.0038643547938026516], [-0.02478467889625738, -0.003902042170287198, 0.04023945932378144, 0.05015446695309478, 0.040999465418605406, 0.011031867367627152, -0.0033131512073887276, 0.04539018277372435, 0.025017891905255427, 0.006574465271884367], [-0.005860938517799147, 0.04781193631822291, 0.005724378683403224, 0.006987007126397423, -0.03165124596143353, 0.024366163147066525, -0.001319292705452443, -0.05196816588195505, -0.0155123712462931, 0.006910168712020509], [0.05950941696529243, -0.014539118894366565, 0.020034838307398644, -0.022886549308273225, -0.03479929050820503, 0.06049527504216629, -0.03252625875476316, 0.05737501654431186, 0.0517438202241504, -0.005902263340866796], [-0.012341070770220732, 0.0014237878869490341, -0.006357618427569573, -0.0242473573175011, -0.019868458466152313, -0.0654483674447403, 0.017787644783652093, 0.02779249438888113, 0.00866300042798134, -0.029064376088490763], [0.01149482273237649, -0.018585606118510935, 0.032968435116282925, 0.0557361330729095, 0.023620532997453945, -0.018347502377660956, 0.03036819216832118, -0.0020908069042690895, 0.11108404818663804, 0.08107457398416287], [0.0383475859145247, -0.03979552113747059, -0.07597866101986507, -0.03171177514667195, 0.003692280981820541, 0.029211857768416765, -0.0013661336219021243, 0.030348165571104643, 0.012136702228996021, -0.011831316057916997], [-0.005805355120553797, -0.005970664807177569, 0.007017646730707801, 0.06100113423753863, -0.0061552565088925535, 0.006179893810427481, 0.010910763892627998, 0.022299160318242747, -0.0795874063820884, 0.04675958150369449], [-0.02142716691634101, 0.03995423963789883, -0.006914572641233815, 0.01491514856063989, -0.00960012970866592, -0.008630099446808788, 0.0359651035502636, 0.0350505320162881, -0.018696463632840048, 0.02321566720021382], [0.04290005850292434, -0.04973268631527678, 0.019429379944883536, 0.009810192946670043, -0.0014568770741197601, 0.03367095849282336, -0.008053669991908395, -0.0044140354978433865, -0.00666085565127444, 0.04598956067900647], [0.033340076373477516, 0.03232847813833999, 0.019303474204176708, 0.0032592492742429765, -0.04250356007196848, -0.010594071517242953, -0.08638313311254074, -0.054981983108887966, -0.020428175694347833, -0.009801352040503223], [-0.04836706123720026, 0.03183300038391462, 0.06640169268877727, -0.010525879572393792, 0.05828061929474445, -0.04495806663064109, 0.01463689146765998, -0.0319905384307324, -0.0052631560931485424, 0.0299769618787086], [0.014693627025600491, 0.03236775390875969, 0.05790209325342919, 0.011439570254933201, 0.06387261743310602, -0.02416031772237136, 0.04783822604468812, -0.005066999419136641, -0.008705361089170213, -0.0351260814591161], [-0.009220732727983839, -0.018848847663641415, -0.016053533082112652, 0.09401224130205958, 0.027744420833235712, -0.02313300603934319, -0.015369035735358898, -0.052406887902284115, 0.004979450125842823, -0.010113377332323316], [-0.03156683276976887, 0.056414887044064534, 0.023283655584837137, 0.05056673849145587, 0.030545116443316624, -0.027825188752491858, 0.06843976708117705, 0.010590589775721066, -0.007178383916527967, 0.02852214961864606], [-0.03009797634802289, 0.0491347165521994, -0.02803222229184109, -0.02275900129544101, 0.027484611973397244, -0.07258256537678065, 0.0513856323681314, -0.016459152508608854, -0.0016793284430075045, 0.010484335097878428], [0.030604264993888314, -0.036220637716179616, 0.06009163769112558, -0.001915247376600575, 0.053736523439818946, -0.009458764902547568, 0.007203393559485858, -0.0038817886615833677, -0.04423742629908654, 0.0479899356744984], [-0.04909248696492213, 0.03261390586392274, 0.016982861936755106, 0.006480234006458026, 0.006536311070511203, 0.015069134962304302, 0.05121160251134719, -0.018906621297953282, 0.049959881516878066, 0.05929020873052201], [0.03820622928704051, -0.07305329345710791, 0.1196860950397587, -0.027946153912481904, -0.024433874094182868, -0.0008797148546503539, -0.0012279306328871397, -0.036781932644816995, 0.03244944783376692, -0.007281708030350939], [0.026659687930364117, -0.01745548771283919, 0.06793189982996939, -0.06849678899915553, 0.07045586138909798, -0.0019966142819522596, 0.0245915239186974, 0.05203578766949078, 0.06492806175206631, 0.004673770506690321], [0.05525482269159403, -0.06875819463056632, 0.05850865685222337, -0.08897410208987623, -0.015488067146016405, 0.024875201965138004, 0.06591841544854841, 0.0423090333661773, 0.06307181248925521, -0.006938995835584053], [0.0018943486748956998, -0.01516765655422325, 0.05258773865378059, -0.03060589045898584, 0.0008310862072029772, -0.02807011123048535, 0.038706145420878274, 0.06885347532741452, -0.011309400273536623, 0.03786234017839229], [-0.0506129441665921, -0.0266985988000846, 0.011790735362979435, -0.01178726447716542, -0.08944013447344186, 0.011167198815787953, 0.05366172122401061, 0.021622817319077198, -0.03492208409019951, -0.023251045470437385], [-0.025151111754259735, 0.043550207558256025, 0.023864343851298597, -0.041273728648993015, 0.07794462986486857, 0.017368994068343736, 0.04061068400510778, 0.10431879469148485, -0.011031430400193764, -0.028116423882520256], [0.009640547466761934, 0.03737962476934976, 0.10742198196799188, 0.01163813369324129, 0.07666630630011342, 0.048169304400064054, -0.013620955386268379, 0.03818953141838567, -0.04723497008102295, 0.06396092448028311], [0.02411928575276624, -0.016274359536731797, -0.0028835894500059077, -0.013636795956303363, 0.09057687180922017, -0.0060369974508558705, 0.028903792531879916, 0.05301056066711578, 0.02735407414674661, 0.04383954797495945], [0.03445603536440243, 0.06841766364074438, 0.05524303306369669, -0.009400737069659966, 0.0048900705066156685, 0.00565321743520578, 0.020775320886965494, -0.020716088292927357, 0.05823214516407133, 0.05266740571501242], [-0.059093697660367706, 0.036402270824122264, -0.043776119082903076, -0.016051123947121285, 0.05914748216202044, 0.04552290710185382, -0.0060274543299957475, -0.04429540561280633, 0.013271829293021517, 0.06310191611344193], [0.04410148820836054, 0.043111569313514425, 0.03126108933894197, 0.03407410561397557, 0.015510054329777959, 0.024073395015243988, 0.021830548346011752, 0.07247272910462221, -0.04292780234567615, -0.017589081929523465], [0.027144928686366112, -0.059268335229356754, -0.0457811292867909, 0.04134836532588331, -0.006572429399745632, 0.004483731182499609, -0.07593753293681829, -0.03428513439860822, 0.09799550444477619, 0.0026902943370735134], [0.01934991583553312, -0.033285808575844164, -0.011264223626050335, 0.00872121881950322, -0.052380712003098066, 0.012761324779738816, 0.08841769982558313, 0.03236675192499396, 0.029744573689211958, 0.007231371311402917], [-0.03218495214480917, -0.003412870124298999, -0.015971181725878643, -0.057313684026640756, 0.00432978435920063, -0.06037751847053095, 0.0037225707036237384, 0.018755019720663034, 0.035382281361287134, -0.036919365969115714], [-0.05236011471345707, 0.09246296407483781, -0.019404869580503026, 0.03905693706299372, 0.03094412557747997, 0.05244355321618661, -0.013047253926119901, 0.04795400573196492, -0.035315740892266224, -0.021608170420974356], [0.03382153862683302, -0.024464580509166414, 0.008912857746109153, -0.012767435665417637, 0.012140751682078732, -0.01546257510783483, 0.03091827803906199, 0.017255953506151618, 0.011164694630054995, -0.02743033475652471], [-0.025048984552525407, 0.03500405379655066, -0.05455828508142213, -0.030109369789835996, 0.04294238396518209, -0.03268432811954257, 0.015140821601233001, -0.029867910035754956, 0.04600625328281072, 0.058396355549719794], [-0.009477644864361246, -0.032763610473845774, -0.00989067920386198, -0.0160962203659956, 0.07372394494127125, -0.05060026747004276, -0.01158899486689921, 0.030546137462617223, -0.0624780207437746, 0.003626658997855868], [0.07813559862032986, 6.736031436236571e-05, -0.024952928868709066, 0.04994308316974526, -0.04129853552591728, -0.028080435406122543, -0.005681780387994889, -0.0009179631663257506, 0.02361598771327329, -0.04447563461672475], [0.04950261714081565, 0.02556127027582388, -0.006826149533884332, -0.06238453209693608, 0.010428946630837242, 0.03579760962187746, 0.006647166756359882, -0.0352641032465146, 0.008394606936766368, 0.012341462403275275], [-0.012629759925398316, 0.029076297075147802, -0.04100452403925068, 0.0005315044832221389, 0.014670719873097319, 0.01523754329979077, 0.005515178166611107, 0.007680085333463346, -0.0034833764932252825, -0.013573822013829853], [0.024014352733246164, -0.05921471092425911, -0.007074650098799814, -0.016422212472814224, -0.026030753008080318, -0.03382130084398858, -0.023513716030846208, -0.008872222141814741, 0.023274576544038472, -0.059525016060218275], [0.055695496769060125, -0.03208434788941154, 0.0673954205356393, 0.07124249855988815, -0.003176968838114263, -0.033661313528303115, 0.027985575340775327, 0.015443231780795942, 0.04700670457136421, 0.039421004781313586], [0.03616895893233032, 0.002200768548902157, 0.03932375739133126, 0.021408922030557425, 0.04846459154554719, 0.0304062737605378, 0.03744030891833051, -0.0030432326227135837, 0.013698690055526918, -0.0021991788953392975], [-0.007073860438921451, 0.002864471483741904, -0.01100621863571491, 0.0026056429802637604, 0.03835855387212177, 0.02088112821768431, 0.06915864521063589, -0.03836006186999502, -0.034964487288487264, 0.018455887584801777], [-0.04419396311035541, -0.021546709055995976, -0.01981886231875465, 0.03224520707163183, 0.02333276898857824, -0.04457935923595115, 0.050661952014023924, 0.04631852365691582, 0.028463805948759795, 0.00628832313166978], [-0.04885178308236057, -0.0334390077916182, -0.0067217651150420004, -0.056109352971190504, 0.02536000539228424, -0.04004221418236694, 0.05772997730041237, 0.06189029227233913, -0.008857444135875329, 0.004252436506648898], [-0.025567164453070196, -0.028096624991765833, 0.01507182515286164, -0.07131910515215852, -0.016602491282476595, 0.04276476967110835, 0.001841907491867854, 0.05658472747080344, 0.05779812761331902, 0.04965994218481582], [0.01957256625002348, -0.06022595089886182, 0.021508849493239862, -0.0027632447374331573, 0.017570348899186936, -0.011908882238317299, 0.005356808881980786, 0.04347043407534262, 0.09756582179788786, 0.05590787749582435], [-0.025725174101501457, -0.09605288590648609, -0.0014569737916434603, -0.05464335084571949, 0.0013142017977763112, 0.02174923902414617, -0.005035946771281965, 0.06032925361971748, 0.029452103577171946, -0.034810164058879704], [0.03102234843289318, -0.0234568001631581, 0.032855941774074, -0.11248412702714762, -0.010837065752364688, 0.015364288894396479, -0.017221055870813934, 0.011917142439988235, 0.027838549514029295, -0.016302793293138402], [-0.008758450209338981, -0.041841139422334354, 0.07885756335722514, -0.08238769362557861, 0.022368711550545414, -0.010104249760670078, 0.00997866792816573, 0.0976830769819699, -0.07062535805304285, 0.00029642229815587945], [-0.06021251454997914, -0.01527129782930696, -0.04595189091190971, -0.07240248829275414, -0.06343537416434615, -0.020140125610720688, 0.02695567769118359, 0.04472773358696363, 0.12668294059161647, 0.04162470207513452], [-0.018211881119506418, 0.06928733461086066, 0.09873161756572858, -0.0035512223297411486, -0.005409182632615439, 0.03352355053358068, 0.04003442296956443, 0.14166768717241598, 0.008451810895408505, -0.05050721132600133], [0.025316931701780128, -0.010885446896555954, 0.07612094047830473, 0.006625714290351829, 0.06162373502253989, -0.015236379356440437, 0.025273954431828394, 0.04192990541859779, -0.030564741225866793, 0.0873627298439626], [0.00822788015715749, -0.05510431529972892, 0.02046942823556037, 0.027109737682151417, 0.0662384817216298, -0.06435641162888658, -0.01991992162480345, 0.011991234472827595, 0.1264035891667986, 0.0804380500030131], [-0.05998671148892164, 0.037999984377279784, -0.040121376304489774, -0.0013177028466327928, 0.004248424160174519, 0.02621624238662757, 0.03502998093922684, -0.0030252038221683744, -0.021278243094104723, 0.014133506672920567], [0.010095860925064981, -0.029472639600012347, 0.024531391968199492, 0.006210881631968345, 0.005624289819379118, -0.02861652269070872, -0.03737248705304732, -0.03501330527702936, -0.0453109506172173, 0.008178316652837967], [0.010679546571183569, -0.017982550590377382, 0.028027864859091704, 0.029393390411352617, 0.03665518356558972, 0.021825083645378707, -0.03135582807712682, -0.0021477579879859324, -0.021179616860920642, 0.021925699727079973], [0.03015742340532335, 0.039321644505965404, -0.0029504227093577204, -0.056793736774631856, -0.04565071441058279, 0.004599590368514106, -0.005801698185161152, 0.025535974148910696, -0.00905919248433905, -0.014312375681311922], [-0.05540912645619236, -0.0005012528161258508, 0.022165956111476256, -0.020121774776882963, -0.023007615209773048, -0.009029775111290486, 0.04285362497357266, 0.008311077774073536, 0.041649912633317944, -0.027481879865526533], [-0.0001741519216309066, -0.06445455943815469, -0.038904228790201396, -0.04900064323216284, -0.004549957553759263, -0.051274578376085296, -0.05528721936705402, -0.04526006023481468, 0.055306817502010816, -0.026518715866765637], [-0.011356720267224295, -0.0012534965029039713, 0.04952988198738888, 0.0451890507147255, 0.02919521991156517, 0.03697503316876286, 0.028624153325452043, -0.003523814349603336, 0.06180906159935425, -0.03803868627361291], [0.06957533203267495, -0.001924838261232713, -0.0010317515521374363, 0.055305625362825364, -0.03229758824548194, -0.05821648005567252, -0.010704369119245978, -0.0487693059844621, -0.02122953147629846, 0.019142538033326967], [-0.018520098929600742, 0.03368436816157004, 0.08327698369281349, -0.03900439486203127, -0.03737188029788019, -0.022555134516901935, -0.01656484559084177, -0.018080608797978848, 0.06804370532929928, -0.05002405114438979], [-0.023115366200717635, -0.01359317545363685, -0.012125322398265899, -0.02958885786011938, -0.015795387036845344, -0.0021981662681300356, -0.07788929389993486, 0.040353040367482586, -0.022693881738082712, -0.017775441653144635], [0.04391386784902669, 0.0025356379054623204, 0.0116276894896962, 0.005950607960699927, -0.04442015970408327, 0.00742380754722437, -0.008601190806629033, -0.017389729788799164, -0.0768946512459017, 0.04307588497738157], [-0.015648670411888835, -0.018449707087013514, -0.004509436837500945, 0.024460885275320587, -0.00339828459671051, -0.041847572511209054, -0.04954134492752587, -0.0033849189910324907, -0.011217627238648168, -0.01561715849302406], [-0.059136078520119345, 0.049330732813569145, 0.006306741357832145, -0.007191437773347862, -0.013291580550012831, -0.04716576490890522, -0.02170245770448527, 0.057295087234029665, 0.0552137734247834, 0.0011545650258491524], [0.01970348214656852, 0.04260481914311733, -0.012730657579734218, -0.052841227941929164, 0.001723518612789803, -0.0078051927442143575, -0.001517640558998923, 0.010625637108031152, -0.02729141383980206, -0.021837067972668753], [0.03558006316916034, 0.06792023524993089, 0.01853437877080893, -0.0026306473416345365, 0.024780696478419607, 0.03106120449711871, -0.04961972395348692, 0.005004046541010338, -0.00499927644313228, 0.06698653432728431], [0.03162620029100953, 0.06724662944603484, 0.04481941789723251, 0.04365258196057834, -0.05628783367798893, 0.020828981781721878, -0.06205225381477964, 0.0480718886549607, -0.05251313315031766, 0.04729400609849814], [0.0394676731865888, 0.09475687044384563, 0.04366349837656094, -0.04676401274175358, 0.033249056564992614, 0.019585409146263034, 0.015670275364070608, 0.04184871468236873, 0.008764260119283957, 0.07562632050819733], [-0.009576873309966668, 0.03064826825475532, 0.06942806335532253, -0.03546987060230172, 0.03404679722805763, 0.05376275975008122, 0.027027725806066796, 0.023771402588830284, -0.050050445635390337, -0.009401650039738151], [0.03626351482213839, 0.04870431973891148, 0.07732668243135946, -0.08241717061386455, 0.031223746273277814, -0.05164930888471435, 0.011936082975127738, 0.013488208289385026, -0.02292181116859833, 0.08726733230818748], [-0.04160475591517952, 0.025423340923133687, 0.0829666737960539, -0.1225529323351201, 0.03596567786409794, 0.09126989834636956, 0.047493076575823835, -0.007547275027109116, 0.03246813130662743, 0.03184568076491692], [-0.021941341593031148, 0.006242978335868185, 0.067840717147222, 0.023280780932859842, 0.050054236121229057, -0.0672863762947718, 0.002036263813043129, 0.010791103238941795, 0.04720543072953045, 0.017635031678334825], [-0.020704637197686407, -0.03372001888381669, 0.029605011782893823, -0.1347220339802682, -0.016684987489375476, 0.03966392131896575, 0.041816400424252644, -0.008902197093698444, 0.09763222215049452, -0.018836341368347453], [-0.057001556599132856, -0.043366474793975214, 0.13598813086460695, -0.05297492210292002, 0.02675979819485095, -0.05395644062281074, 0.02153837384940753, 0.07864022047167459, 0.025318291982624173, -0.02632514073250313], [-0.03018366890330575, 0.0007910312869818502, 0.03517062192519353, -0.104820033478036, -0.03160154951694909, 0.020343156299730977, 0.03362594769849278, -0.01362050347252681, -0.012345246343026414, -0.05187847484054799], [-0.0013688212834062675, -0.035766664753261485, 0.012668107882089203, -0.03015119440112832, -0.049958036897832056, -0.011284500997460267, 0.04565128226058868, -0.023420756588037422, 0.04702273584755281, -0.02841535094347221], [0.05130442192043304, -0.018566503822694567, 0.027722744593661985, -0.0048403550509875425, -0.02721771877530657, -0.012288195799314911, 0.04408073555804673, 0.039547476890644875, -0.06396528898143923, 0.07741938756800222], [-0.03184297629758839, 0.030663593037703076, 0.056272405851630625, 0.010183318117310209, -0.029131374218523604, 0.01006122219103607, 0.03254275413467038, 0.03602111647826715, -0.037046041373311696, 0.02630794016660475], [-0.021463848801435703, 0.03534482124908319, -0.029922290599529836, -0.009062822290700148, -0.005203567937263514, 0.020041108151339165, 0.03906984968941967, 0.002812221392398884, -0.00462402743900931, 0.09912863892591829], [0.02623321788112463, 0.03514481049233966, 0.011722538658252327, 0.05060939938318857, -0.012243639441109929, 0.08350107037900832, 0.027424107640081227, -0.0023515830236732313, 0.02304715694080852, 0.08789132415168531], [0.040814717540011675, 0.0857010120906517, 0.036926625884010134, 0.030045776631855637, 0.03172999390984512, 0.04469410487464728, 0.01447544733945014, 0.06182987166585461, -0.006548592807323667, 0.09994709156696999], [-0.030924255159605514, -0.06535735335538291, -0.006481528602784275, 0.011450123682960155, -0.03730964089069982, -0.015021124777956031, -0.0046984365157457094, -0.033695065885031336, -0.008736027961039068, -0.011128056555411594], [-0.013598284510596026, -0.035512010151407244, -0.05321693522239939, 0.03195869203771406, 0.027655593993302075, -0.03922245564959259, -0.02481055474859554, -0.027172698064559263, 0.002704748831892947, 0.0692750628284174], [-0.013886268763320936, 0.015121315250035914, -0.040359488210046715, 0.0010852608544251764, -0.04862065967474889, -0.02206500292882249, 0.022107258970924647, 0.06069822653879787, 0.08095006078378811, -0.003494126944794471], [0.008546551014974361, -0.01459512932979874, 0.08870442601116926, 0.05816502133771805, 0.020407876995064567, 0.029823731163763547, 0.02968682181509174, -0.048019213663717454, -0.009610905475326859, 0.015118564844577752], [0.031999534713500755, -0.006823350266864192, 0.03386024570672301, -0.04064751634990719, -0.05784667096882485, -0.016824140261585574, 0.017981087754097787, 0.03536458273477527, -0.02843415086392592, 0.02842832287786507], [-0.03898904122199615, 0.0523959447996177, 0.007889397410472692, -0.01560578971930147, -0.021793449978105093, -0.012999288898836173, 0.007010470047466382, -0.022894737627804612, 0.023400242904206458, -0.02265641728384271], [-0.02089840206597551, -0.023441426048119166, -0.04561439504906902, 0.03133466054584051, 0.024672724199732553, -0.0045641093093519375, -0.00898642604772684, 0.0179930505293825, 0.019561442372350663, 0.027877353035500797], [0.017932228463759886, -0.01080404648319513, -0.0560841308503175, 0.03088203535050229, -0.01451675485753228, -0.0984039740544566, 0.02459597270625547, 0.08665823221182446, 0.05149903501952778, -0.028947608529208867], [0.06975157263462199, 0.046770154972279335, 0.014136916755637885, 0.008855662007547149, 0.023055922877381417, -0.034736833505980905, 0.005859056741445567, 0.012808846580680195, 0.044007863796503295, -0.04454194528427563], [-0.0003776393037051715, 0.009029371943943244, -0.006238861942202374, 0.03688874563584598, -0.04389981788691154, 0.05936119072617772, -0.008433122401389275, 0.06765121231738228, 0.0036213873988247655, -0.008672166194555155], [0.0007087935917485625, -0.0017787840260481648, -0.01680563430612874, -0.035276046692682084, -0.008762174748110856, 0.022596571723937968, 0.004867804231649108, -0.050716941109194946, -0.03829662724810437, 0.004620901562801467], [-0.06156279515393815, 0.007752223854141356, -0.004121245873634738, 0.022546503385208846, -0.012660961908931744, -0.0050239728083486925, 0.0526675119563936, 0.03574259957890936, -0.023875765206890682, 0.019566407066139], [-0.021901126756763506, 0.007410382095976391, -0.046732426818724956, -0.035199363835152014, -0.04611033208653599, 0.0026011265628617755, 0.08582828610637895, -0.039195440824931885, -0.07126350193907771, 0.07081395783215562], [0.011458621933174163, 0.04789528014043621, 0.015739963891668318, 0.018514302603029557, -0.028771767256890148, -0.019185657413870124, 0.0155130157649395, 0.012221658892441494, -0.03522356976667311, 0.04754619690024724], [-0.01772803251345166, 0.022252639496103132, 0.0212565802845373, -0.008123058540038648, 0.032719503162352497, 0.028346254771859584, 0.08124214492882194, 0.010041188335052775, -0.02045583971014185, 0.020111320547828812], [0.06274089583175761, 0.0972041456028492, 0.04410444173697372, -0.007421321545466947, 0.05451740485299844, 0.01688733373961087, 0.06623995747031762, -0.07913261475840072, -0.04177734400833895, 0.005751814152434746], [-0.04701059821302575, -0.08053631310039784, -0.022624410205977476, -0.1082333622732375, 0.04546362390789276, -0.009205440500574988, 0.07538850766891529, 0.0012996707730637083, 0.04315644786212045, 0.03599205123235272], [-0.02874254832253129, -0.05075160690264069, -0.017775153426840787, -0.04273678108635542, 0.05844719272117117, -0.042034740391040326, 0.041165724641361826, 0.04097323878513836, 0.03414656305321211, -0.04806188517365105], [0.027799490216379154, 0.013091447648525064, -0.023471004791792975, -0.04683816846730661, -0.04022045032547824, 0.021017042219641447, 0.01477990735749019, 0.029480711702831536, 0.06902126630458891, -0.0335409553005928], [0.03202703759993838, -0.058679894625539304, 0.08555706407673311, -0.06327997607404313, -0.06946057320863164, 0.012173902893725098, 0.04554125364566217, 0.08337747101631028, 0.0593153220942184, -0.002193237455810036], [0.065216598622533, -0.053826107884492665, 0.07218196576666609, -0.04654219236361825, -0.02081477725262343, -0.030975888121188, 0.02536820456340868, 0.06894383365150925, 0.026997158769079363, 0.03143370178560487], [-0.005888515071807098, -0.026736564243554316, 0.06560046999287006, -0.0458526999230046, 0.0013316062730643946, -0.08066695710398383, 0.04060556115352637, 0.0020960049380995805, 0.03186217523789385, -0.005288548477491411], [0.0012672918284245712, 0.011923306774822113, -0.011491807840664532, 0.049353565528305374, 0.0174095759662662, 0.03100151174642365, 0.03654558401712568, 0.013770747080171864, 0.13102392701575916, -0.021328949736178184], [0.02049379326352569, 0.06812738637119607, -0.010176118852110455, 0.04688657734842077, -0.06753222343804928, 0.011271101578851576, 0.03304441796183811, -0.01384894116366186, -0.014295012537813904, 0.0586569097849824], [-0.07483502395261672, -0.05418289247694266, -9.947210034344143e-05, 0.049708336481491366, 0.02033306468987329, -0.04349870918124262, 0.07737692188862526, 0.05713750056581367, 0.027257814865859764, -0.0015585600408750656], [-0.014964841298735905, 0.001744033754207653, -0.004217834985388552, -0.002591010897746372, 0.029001441311641084, 0.046884206323234125, 0.04676279780140479, -0.004599595744742262, 0.039182813124806246, 0.10127013367700627], [-0.030011073499368296, -0.02647992939547582, -0.01916847643390836, 0.08083222436445926, 0.03454811149698147, -0.007672583422012778, 0.020261380423160433, 0.001045875796967125, 0.07289099264014946, -0.04598387090122958], [-0.02596685412505472, 0.04136208194848266, 0.06633587628110174, 0.040971348780196704, 0.005747174809442968, 0.008407857037019614, 0.08639941904892577, 0.032542019091824526, -0.01024674069583308, -0.04347063026616834], [0.02031407639734458, 0.04087463021614397, -0.022637071263319607, 0.045493661904110166, 0.008146118195978628, -0.03485809257911476, 0.004734656906431999, 0.03275060098977455, -0.011456630738223452, 0.01404763743606607], [-0.023230712925093874, 0.08222587077463471, 0.002409245906869254, 0.020615610018441605, 0.06991596362467531, -0.04721929318924302, -0.08108273611129786, 0.011270595576446534, 0.05066841883923999, 0.0025414714592409556], [0.05054657025853979, -0.01838838141486372, 0.049551135253026464, -0.029282549108567816, -0.03526699025057197, -0.009337335991777862, -0.005344472330153409, -0.054068567120095466, -0.034733046298490854, -0.01188345296347991], [0.045455904345598375, -0.024755134273346236, 0.003726987947599655, -0.027627377200810235, 0.055961718378544516, -0.028141105453687136, -0.004456241771219354, 0.03736349206581759, 0.0006570438877431487, 0.014630521672532431], [-0.041075582560412036, -0.09552205460113493, -0.0027156961040263753, -0.04366720472846524, 0.010059842538111005, 0.05325910684583857, 0.026283675218404825, -0.010741311199626789, 0.007765319232877145, 0.01204085418041293], [0.022350773525442284, -0.006785683182085161, -0.026925882496216615, 0.008267130599810525, -0.012638594982390406, -0.030709297098644346, -0.04845106379420233, 0.004040083227603123, -0.03775614363162906, 0.05248800058169079], [-0.018492434281522824, -0.004334801677277263, 0.019911693017140436, -0.005395466838854175, -0.025770178233687463, -0.007893200203290185, 0.029784759175719315, -0.012405655403422448, -0.013722703810515238, -0.021343066346271596], [-0.022491609066070995, -0.08451424719511653, 0.004641432760997461, -0.04819576997759488, 0.0033685409470786136, -0.022404409741330407, 0.05140748235927237, 0.035662100849027344, -0.05639238826216899, -0.0014265099424619202], [-0.04551991022025761, -0.020183662899005094, -0.006186086819632523, 0.02451265250258267, -0.048820606942910995, -0.016504982681635416, -0.0073439641218292035, -0.034887644748619676, 0.00540641721277186, -0.021243194453112454], [-0.06324161428526577, -0.0037918006971200055, -0.0453464941217926, 0.03059030481274219, -0.0008853120656192167, 0.02563953225816305, -0.05597392891232961, -0.011659847324491622, -0.060020072973494654, 0.023070932915648722], [-0.007056990421371527, -0.05789646110995595, 0.06392635620357356, 0.015752468364171907, 0.04345982743316256, 0.008270129471519538, -0.009853009987987802, 0.03311742520352761, -0.036314540828890865, 0.028783216506997354], [0.01621655398166416, 0.01356757313415073, 0.1325327978584357, 0.0031710136419709875, -0.015271481356271275, -0.023417364721656713, 0.04334316906999934, -0.0107037324855126, 0.019041974278378483, 0.012468928854860846], [-0.01646918872752217, 0.012346240415288812, -0.013513961024952848, -0.03127870505199384, 0.015512572789681904, -0.04607365464425105, 0.03120169952180312, -0.006076150049543952, -0.029537506089127953, 0.05607772783749864], [-0.04005673738987626, 0.02859040560372376, -0.006331460750798137, -0.035909482589011894, 0.059011091846446276, -0.02157275890524172, -0.010792189028594796, 0.020991623230344994, -0.045766356448073836, 0.054693647171658547], [0.028622206866454517, 0.07302281948032828, 0.05042523049385446, -0.0270362881725369, 0.047820180099413544, -0.006884877992607723, 0.0023324804496584195, 0.00896069586172364, -0.0546263291817166, -0.04087744178371948], [-0.030675048369529643, 0.06116380785970876, 0.045164585165638045, -0.012265426854048876, 0.049481828519859924, 0.04478293704821362, -0.01946124270224166, -0.02300401897015975, -0.02953757705075597, 0.033012705004440514], [-0.0018274931205433526, -0.0719215071531044, 0.029287415800563207, 0.0010114286248988332, -0.029492002727579878, -0.045219913224491606, 0.09532482005129213, -0.020109577045841993, -0.014124978898247856, -0.002002138391645526], [0.011688722965413269, 0.009217473031226544, -0.008014202900595955, 0.017821904389130776, 0.003411333649055302, 0.023905684352011028, 0.040154692542800914, 0.09899566805580279, 0.11741020728927068, -0.016999675731153897], [-0.045686147687869515, -0.08803428339403663, -0.005206986938526961, -0.005051968690206203, 0.026255801132383388, 0.02048735871880693, 0.030868595068822727, 0.04179703243836776, 0.0758700932395245, 0.04726965225511595], [0.01569420816251086, -0.01870734726435606, 0.029913456461204052, 0.013735139015798495, 0.026235474481471913, -0.051352603119717115, 0.03133379828800088, 0.00462756619103507, 0.04853740901631156, -0.004068737585794309], [0.020877894899343226, -0.028373883354747827, 0.012718013745037091, 0.01235592664224858, -0.03456504821381436, -0.00468817609761118, 0.05120386711299847, 0.03167355216564313, 0.00554282694816217, -0.006439817941740696], [-0.020087399035982226, -0.049119565759101445, 0.024515126480752672, 0.008127499955344685, 0.012540973350412987, 0.010322844612294707, 0.013944516260141737, -0.01032186815097054, -0.0026025117097324365, -0.008566744198799279], [-0.004162023704296093, 0.0010085203973776206, -0.005310618173997142, -0.045766229922528844, -0.059425251819113185, -0.0404975066618459, 0.07193683171581408, 0.008211202846837701, 0.009488461666207326, 0.003523287400542556], [0.009352089745121498, -0.031205020971824635, -0.01405387566636714, 0.04365992250728491, -0.04585446992846452, 0.038247729769697585, 0.04335840957867991, 0.02482204432371158, -0.007579528725330941, -0.045455812315543735], [0.017684192692257177, -0.00935448972880984, -0.004299589366338848, 0.03499355482305396, 0.004502319254988832, -0.05316961196133625, 0.01193016244092556, 0.035038523871059574, 0.08636558973047513, 0.03326717031078462], [0.0655032829254703, 0.040908220526486364, -0.07274926525338811, 0.051003426028757896, -0.010619395737241487, -0.03518137933680444, 0.030010344418853096, 0.03457112484614622, 0.11528212647611577, 0.006374130114071118], [-0.03622114491650434, -0.008924344357351807, -0.055581688853687576, -0.02807408211030134, 0.02136716230349768, -0.06052983097544553, 0.07769417827885254, 0.0068329759267951725, -0.06241719727799538, 0.09654110644074426], [0.03471146892762109, -0.012094220972737206, -0.013412548891272658, -0.001125167462668172, 0.01549259329442848, -0.005143425473143216, -0.0035432018201749828, 0.03047841670994419, -0.0409863185541604, 0.017315480431221733], [-0.005096681583279114, 0.007496509076316602, -0.024293725858061367, -0.029936134844405143, 0.023807293586914472, -0.027694405200245558, 0.028397105695767207, 0.006791711887891348, -0.0323075565640182, 0.07291886351488377], [0.013464581757429655, 0.04136143830395865, 0.029218148772382314, -0.04174225728325262, -0.019794902639407235, -0.020228632372861113, -0.01793538941632411, 0.024012104621154138, -0.009213475160937254, 0.012160126546327709], [-0.02872245284622316, -0.019350055405284897, -0.06330027912560882, -0.02900503304179458, -0.01154771631030966, -0.050727646676875245, -0.059137251477818176, 0.024620546840932317, -0.017343537761449347, 0.05115563342599034], [-0.01260899159687742, -0.025756800229344807, 0.01904611112533378, -0.004665550384644184, 0.05071332679184927, 0.022096292992250605, 0.06638252805234143, -0.015989407849206726, 0.0700386763894656, -0.026883677014370316], [-0.0024026320633075073, -0.0053406088471177875, 0.017321718851009124, 0.015123669069113088, 0.004400759110599498, -0.00668574140761029, 0.030397708848192866, 0.04726181747248022, -0.004021847887620232, 0.043255059666943936], [-0.03784970827083426, 0.030538761123555778, 0.04829191192911526, 0.00017373525051403977, 0.057872995229313405, 0.01280948868165099, -0.04130970294299318, 0.04993199229665914, -0.011665044895704805, 0.04185246110931095], [-0.030011660839047827, -0.010599104681714969, 0.06256640614189889, -0.06218204557517855, -0.01396747446781606, -0.04161607970565062, 0.014629672975309595, -0.02252448569898402, 0.01553657316138074, 0.05713009027606649], [0.05411645818867013, 0.0569892907557845, -0.0026538404097554507, -0.0023345677870628217, 0.030630182013192807, 0.02217421009040693, 0.07556794754971499, 0.034860817016287814, 0.0005150188147307545, -0.07472198487479223], [0.00047388549975523525, 0.035271772696729285, 0.0906131559105823, -0.00879266227773475, -0.031323219199994395, 0.04931152514138935, -0.046331975568183296, -0.03588964941548771, -0.06340516143367787, -0.05775928464378812], [-0.04474068289339685, 0.07615846118593236, -0.05313756422945777, 0.006507469277978541, -0.007477040808092256, 0.0340071983113213, -0.02434830884139475, -0.07225772875260485, 0.022659213933105944, 0.08087893383527754], [-0.02308729136392668, 0.003921265049132662, -0.013725590039755209, -0.004016739007178789, 0.0066021487180563864, -0.006429376849345224, 0.05571902856792185, 0.0593811711325506, -0.04686713995380197, 0.004912325474324023], [-0.002975347199197631, 0.038342382088757516, 0.0012461425370031243, -0.07711370817113361, 0.048779705445787865, -0.07482092893103084, 0.0174378789298001, 0.08373209331132082, 0.07596956009951582, 0.0017861582982984737], [-0.015229818882250662, -0.05207697789586751, 0.04501941271547749, -0.011522919490114216, 0.009211300498372921, 0.03978765529914656, -0.0022509991837859735, 0.03491487199345466, -0.05880762448669023, 0.024854424870174502], [-0.02459847383302558, -0.0034871693880246905, 0.02987518548640022, -0.04062947076523267, 0.06925611826316, -0.00212327369729559, -0.007328333885735461, 0.06713299779132066, -0.06793628455542096, 0.09133685075181036], [-0.0476805725876528, 0.033742058777427586, -0.062034331450094425, 0.005169398955640945, 0.06699751336079311, 0.046615790762936204, 0.09438199664911753, 0.05726118036115339, 0.042873823323916, 0.028047464177633395], [-0.03602518205812653, -0.049618819910941046, -0.03672748388118503, 0.015286685574280107, 0.009786694010750427, 0.04926065390936933, 0.009724719885709046, 0.06957517586413778, -0.08422873042276681, -0.02904259913021785], [0.018024233155142868, -0.06922336691546223, 0.0035329959964850682, 0.035993450789939985, -0.018146316728733063, -0.04254110376479727, 0.04114536568322828, -0.047040047945574405, 0.03927985240772251, 0.017552991604039555], [0.04490638381831795, 0.016216523749906026, -0.05533661519194232, -0.04807035922790485, 0.028343366704387325, -0.018050079953922857, 0.021172517786964013, -0.06454658777915519, 0.10129239928976073, 0.012000989128520788], [0.02962760886445544, -0.07807830525913027, -0.052280904127495406, -0.017287293878654186, -0.04501749201221257, -0.05489130523950685, 0.06230302456318259, -0.026724851980915378, 0.10958183712727466, -0.0006582708595637687], [0.0028178841298821125, 0.017296980973201564, 0.06033926737198107, -0.007438573414081881, 0.031786199444484915, 0.013542678062372469, 0.03238118024328816, 0.02619765975743881, 0.030493277834273604, -0.032247494609086096], [-0.041513571947848237, -0.02974221865922812, 0.0932593233129841, 0.09272367019509738, -0.024750310772943526, 0.002181547110063529, -0.012696728690396626, -0.03133214683849935, -0.0168946297100936, 0.02442142793547216], [0.029433785723475613, -0.05856641697802069, 0.02727639758608271, 0.03971291493956994, -0.020149681491655597, -0.02614217952683753, -0.00014713691959463587, -0.0384758435426628, 0.029080092725909674, -0.03498277045904058], [-0.0522822333431649, -0.06979269295674624, -0.015180443221110528, 0.04002244288698422, -0.03615496488290912, 0.009283443598646602, -0.0725285115827171, -0.0046992127843258945, 0.06680983007463687, -0.01700381459324614], [-0.04117076193354826, -0.006674181652795867, -0.024742853329710972, 0.016594085985158314, -0.005393010012884188, -0.030016879905800414, -0.012399863749124981, 0.03659352801752777, 0.0006237934743379536, 0.02128561411902008], [0.017987937437482896, 0.054853242101218155, 0.02779304821744871, 0.052336420869635344, 0.018869824715954032, -0.006345618959936402, 0.04143650790396565, 0.019932436755216176, 0.11521600193348278, 0.015437992866357431], [-0.0513025603113088, 0.026686609614151122, -0.01981564483598042, 0.014482218789814566, -0.020981446465469428, 0.028974188257227685, 0.046712164476079066, -0.03022636538167655, 0.05377775071560132, -0.018108291229419638], [-0.06484343857205684, -0.031867195157774086, 0.03465507156435519, 0.07245112317476661, 0.03616695434298164, -0.03759606520826312, 0.05580233612490716, 0.015927177979505314, 0.044096569285071725, 0.08783214096536182], [0.049368700410684134, 0.055465873136148675, 0.017294794276497646, 0.012951976785407812, -0.031415941133695315, -0.028263740605888477, -0.014162738739997887, -0.006464391086784103, 0.0014767306000057529, 0.09307964177950885], [0.02158099268479837, -0.016003452491024486, -0.02191008281362048, 0.02055923742787442, 0.041751631120438185, -0.030160337686921414, 0.01511079097644268, -0.02243621791963536, -0.025558239485414695, 0.016169367108042485], [0.042643911168038014, -0.06539815742958435, -0.004006564704168361, 0.01845132187362785, 0.06575150181592253, 0.018616330506042528, 0.02894571708481255, 0.029208569019324518, -0.09470038620315215, 0.016092868394849576], [-0.07682496891545654, -0.01945024050353884, -0.03191568256860986, 0.007515267843815719, 0.022464348391777446, -0.049732283657062525, 0.0032748078692920292, 0.041585935197862293, -0.019435975975636833, 0.015725382883446135], [0.04355445980447891, -0.06703452133560099, 0.013165950159519947, -0.019765791619987535, 0.11784713082697883, 0.006005553568833935, -0.037466653141268944, -0.021177956733039096, 0.021579582020565858, -0.008156649249352757], [0.06571101665511694, 0.03657023726495893, 0.0101668982716145, 0.024763816620405603, 0.011748379035705438, -0.025364927135113326, -0.0325152002726977, 0.05522729676539626, -0.008044445966818112, 0.02191820975532507], [-0.010279978277563285, 0.01342193973867653, -0.033504078252931016, 0.010492734647250023, -0.01603198943366013, 0.017340284086284317, 0.019987614209318907, 0.0021876500309923694, -0.019784501748860456, 0.08617692786108046], [-0.04950523570919278, 0.023492359377007253, -0.057876580324036274, 0.01173841805329657, -0.03124687393631754, 0.013809472550124647, -0.03019831096123565, -0.052460403011011944, -0.04381698132620788, -0.004157423153172232], [-0.03361511737629454, -0.01528933585128254, 0.04253921963597267, -0.0012314956008411706, -0.023690173077168163, 0.004119170357110603, 0.04044318883164117, 0.009945879115992413, 0.002038204688705405, 0.017635352934036317], [-0.00218254194965038, 0.027275299922593383, -0.006817160386015156, -0.0662671744963528, 0.029145968268724985, -0.005170520354829581, 0.04181675605485031, 0.04787401429957728, -0.0035544201604380166, -0.011870825065177256], [-0.032478062216533696, -0.035283506719062274, 0.03258225789299437, -0.029749061488824172, -0.023168566461464594, -0.03528179795404724, -0.02503743328897351, 0.032522045923613664, -0.05992336825667966, 0.03820606946718033], [0.03517404288451424, 0.014868789253921027, -0.00048565658158636826, -0.010005115608473392, -0.0009720066208155037, -0.026519310488488924, 0.03003116133582167, -0.02209599683435237, 0.002134678293643571, 0.06476144568094329], [0.004724020005051749, -0.01989867225544596, 0.06409310407687956, 0.012147110472543876, 0.029285187766814293, 0.007186794601903469, 0.04045490558409906, -0.016531954892817724, -0.009599140419958527, -0.004400489022091853], [-0.04336321119421547, -0.0037364710487686973, -0.0029235038951545213, -0.04332635909507288, -0.01884078067414848, 0.03496427696075646, 0.005609845175256571, 0.05306059578123331, 0.030581233152809164, 0.035217745642191677], [-0.02981566910633013, -0.07869285283023719, -0.023376881649776696, -0.01084575191560752, 0.07255244890502656, -0.005025539132798465, -0.04092539582776279, 0.037901083661497845, -0.011114496402216985, 0.12794278590149116], [-0.004371693677348717, 0.004457816370577868, 0.032125197268000956, -0.014511714149786544, 0.02489876539600358, 0.07803637254006544, 0.016134406830471463, 0.04546939206676361, -0.034720942114104446, 0.014514602404058873], [-0.006991974600564147, -0.015138642911402746, -0.017406205569311363, -0.061540465646090135, -0.009493023428206083, -0.022602886232669924, 0.03342296733938904, -0.018492225968806515, -0.0008492813204644634, 0.10227534067350871], [-0.0076589777992231945, 0.03221485813359227, -0.047222784950972214, -0.03497032325847416, -0.0430115294288071, 0.04085149077136853, 0.029945803067006733, 0.031289178910920146, -0.00404655757440485, 0.05523204988428215], [-0.015739501012533186, -0.056209119189684326, -0.03172439217448955, -0.05980705725702238, 0.014272434438546278, -0.05753899410644395, 0.02073812491204728, -0.002983930304631401, 0.1405479057644882, -0.021486905986468085], [-0.010177411579324662, -0.03563220193256511, -0.09329593644733349, -0.0021227952473540394, -0.0030414387804405473, 0.040191731257597466, 0.026806265199590354, 0.021164327215431128, 0.09762540628416581, 0.05136118351209467], [0.04661306571875191, -0.05179761238959113, 0.00947652917238753, 0.030290796538487583, -0.04211485482322758, -0.00030876674421512093, 0.005506034822841173, -0.0194494847617287, 0.08583301105724525, -0.005946541765973663], [0.02826187618900754, -0.07540174924193152, 0.039699873576564446, 0.023009986940156105, -0.03625481716103073, -0.006264198210164601, 0.024380898694498245, 0.03683795233311794, 0.055120724387930094, 0.0094656302718943], [0.004580619168438356, -0.023053050126171086, 0.04349571994075217, 0.03966544616590313, -0.08975417454988614, -0.04237583076565285, 0.003829181920057882, 0.023170158643100267, 0.03691476512049668, 0.028205119983350437], [0.03164662503450875, -0.047355236401366574, -0.05908835550286614, 0.04041389902367362, -0.021934317510938914, 0.01374167162799234, -0.044484942894702895, -0.09179312309879377, 0.09438995921445613, -0.010545934466445746], [-0.022917682465269294, -0.06863943008806214, -0.07670356287280751, 0.08707677727596268, -0.026440814918361904, 0.014754894468503548, 0.04995979708674517, -0.0734441972248385, 0.07745648975877337, -0.0178690098185994], [-0.011488220148380699, -0.03673361020032675, 0.013176576935612938, 0.06366338605558215, -0.06088701863274735, 0.012218551137205552, 0.02666697755646807, -0.021663925056191795, 0.11185248447235893, -0.01221496193439546], [-0.02338656245567935, 0.030747700881077308, 0.007956365818466139, 0.06444673441098499, 0.024684015268192794, -0.005740194353877483, 0.0185283621965803, 0.04149914826516284, 0.08211194319990828, -0.007509135763806152], [0.05431293717096401, -0.026833296355089777, -0.00396633141959874, 0.07155766613460574, 0.0264216777210532, -0.0429469928574355, 0.04818403201242707, 0.0232474411615042, 0.040232734816845285, 0.02358667512250075], [-0.012247712143548929, 0.018621933704953048, 0.013473600140848311, 0.030488895468875718, 0.0059750626532117865, -0.03342544579296422, -0.031487783576872805, -0.002346430937207182, -0.012549592675129674, 0.05366818917826958], [0.036697769469422985, 0.003006193271851795, -0.006877551547286172, 0.01377845295844709, 0.03067204639423947, 0.039607941106692135, -0.021525622082345965, 0.014409742383585757, -0.05048540061304713, 0.03744361556464081], [0.03935025781892771, -0.015992058133344676, 0.017126941152065443, -0.037188570234387, 0.041372235919869285, 0.0029920187405171592, -0.039955005266064283, -0.001112389573900242, 0.008578800533676451, 0.018206575962849133], [-0.028128068807877635, -0.00935464450577927, 0.015934028543787056, 0.0557826976695079, -0.02375185777722725, -0.009670696228886758, -0.052563517551597015, 0.02080769360671231, -0.013659930858766878, 0.06978864585116837], [0.06414955369870662, 0.04475608329507199, -0.00790365583859703, -0.039012829483056295, 0.060148082043807, -0.04291662015595282, 0.0197444411695494, 0.06762025811049747, 0.018355789397195604, 0.010266928903655168], [-0.03899347661459509, -0.0022589820372454278, -0.07889598487807646, -0.005282485166286879, 0.06058758486550668, -0.04612634442753103, -0.0190369827963301, -0.008496761847064872, -0.05308158934140852, 0.043361124948362216], [0.004600166622669699, 0.03183141660756719, -0.07808354049047762, -0.04964096662745029, 0.008057690286987537, 0.014339091960167503, -0.03297099991460157, 0.04911726536177526, 0.004668852591240806, -0.03127000611762877], [0.008160453532763647, 0.05318896477652553, -0.0388393486799074, -0.004177081601300374, -0.015451625959429182, -0.0089942546560383, 0.004402807372411262, 0.020368570811134582, 0.069302140961617, 0.03155663220938623], [0.019072949355761974, 0.017816032681652612, -0.06529621572598956, 0.020637951149207096, 0.10907717934885604, 0.006802389381887902, -0.017170440192596663, 0.04100696294934414, 0.07059009390877777, 0.050247420930428055], [-0.03252348558995166, 0.009147272344619258, -0.0005706026948385212, 0.016189081134605897, -0.0816684440790559, 0.03209500019891317, -0.0024860147849847126, 0.007234054702950108, -0.020759391098912727, -0.013844079508609395], [0.0021345327355482718, 0.02319113762531128, 0.006620685625569132, -0.024530317844585404, -0.030991010365790182, -0.033670856193290334, 0.03467539906197143, -0.008571766961138531, -0.006041604101178996, -0.09352208520968149], [-0.05843290680017184, 0.004161289043101888, -0.010515200881525306, -0.012752081723099879, 0.05352345687437329, -0.036155325302022034, 0.014253741735225913, -0.06179612562988405, 0.03217768988873093, 0.021165552535623126], [-0.006768465923144945, 0.006182471194826466, 0.040512141242423666, -0.07592341899319978, -0.014175793175384225, -0.004969870444662463, 0.037083686930260804, 0.01601202675850629, 0.03267027575413265, -0.04044845810960464], [-0.0042175538662912815, -0.07475655214056537, 0.017221219977932932, 0.0299033334372584, 0.037376059502743066, -0.010442158291971143, 0.011197959037809613, -0.001351733074101313, -0.06052036096290097, -0.023042767738380973], [-0.019002713502865417, 0.027263236544571783, 0.00419083392936598, -0.0116225269591165, 0.01892727985309443, 0.01991979209936186, 0.037298755386555915, 0.053540975518130036, -0.04037055130928912, 0.060079632986483424], [-0.005173348759462808, -0.10155833220373428, 0.011459757994703097, -0.03183336285195508, 0.0334726552952661, 0.02090543537618092, -0.01794671975342811, 0.033512873939970295, -0.05838364750653284, 0.037792997128676925], [-0.02033884483831461, -0.05098775004947695, 0.03598533657266314, -0.019017748729122822, 0.034066164652683494, 0.058759518504846245, -0.06412139406301677, 0.0218430396779377, 0.022255210184169375, -0.004054902803041427], [-0.03918473861034395, -0.0029131867971361465, -0.047834773012122626, -0.06317499549784682, -0.017539911770061003, -0.014276281436361978, 0.049635705025331975, -0.04245000189592673, 0.11128109204634615, -0.06307604973302654], [0.015039255588394019, -0.04518927684716307, -0.052238030547266924, 0.029262364065782566, -0.009634075398537697, -0.017451799091861103, -0.007122814978726577, -0.0184025873581529, 0.0703289283166969, 0.00747193304776396], [0.014405212809552141, -0.02804393077661769, -0.04335385193679275, -0.041672144831484154, -0.040641293334248416, -0.03538188507977927, -0.008273043109424897, 0.026006152962385166, 0.11654568668273507, -0.04727862469370276], [0.029389267562748997, -0.03440261789601811, 0.002563814797296241, 0.06102857320163822, -0.05717368879154585, 0.04177295100311241, -0.03716977567657583, 0.03779616971859428, 0.032876090286545305, -0.04219581599095185], [0.05355883594093272, -0.054216359449151284, 0.037029525726614526, 0.08948828414368185, -0.013172141816634612, 0.0193217466849466, -0.005998851487004436, -0.013548919175938519, 0.060728304485301116, -0.03420297661132207], [0.009809930579333511, -0.07030680183043056, 0.06526796993488806, 0.03763875308516365, -0.018628032276712916, -0.006901710920142962, -0.025131655320042322, -0.022679840221947585, 0.0719320998891465, -0.011987793241805433], [0.004492527476013753, -0.0020770466003967735, -0.05489846547307619, 0.08078543238117333, -0.021757477793403694, -0.026988976395252735, -0.06050163959116762, 0.004265205053940892, 0.08428399367066008, -0.012837945047052858], [0.008122732077135228, -0.03198028260250265, -0.01649675671364482, 0.06795191292288244, -0.016901989503506982, -0.0008033385852521803, 0.03833241416590714, 0.06200942221235427, 0.07232593796743346, -0.01789880452803795], [0.03197547272948384, 0.06275260928211754, -0.05931195340368697, 0.09243511487979314, 0.005430041618706627, -0.002957755147352198, -0.043915819991111125, -0.036382127548543426, 0.049648299812088896, -0.000799292534698491], [0.014332994560864811, 0.0056541886263705285, -0.011612415668699553, 0.0429204466379049, -0.013379455646958438, 0.060814370365074935, 0.02024719818431414, 0.021562278167270674, 0.0793297097928994, -0.04332910978823], [0.008555730113466782, -0.0045364020827825275, 0.018882612050664282, 0.050828814696662276, -0.02655859833035804, 0.04956763347767036, 8.32325560141962e-05, -0.07346937491637338, 0.07089355535404768, 0.011088035910494082], [0.03233868893633395, 0.07301402865258536, 0.023755033414945434, -0.06675416219719847, 0.020026727784273668, -0.03348981077709092, -0.028048709451993042, -0.0014316164022767925, 0.04949880883166353, 0.04496415824524916], [-0.0332560731310451, -0.030376566547443442, -0.003966790349823224, -0.03391550815718438, 0.0005109656391055271, 0.04314752102665745, 0.010879323151273906, 0.007282798354298829, -0.09363078668347193, 0.08573369806592315], [0.005157959470395975, -0.023844592564417146, 0.03695212356761942, 0.013491126097553274, 0.06472940075437704, 0.01603005697407984, 0.05671594560017631, 0.02412219625458069, -0.023966690381998806, 0.06410515687776239], [-0.06407900772633385, 0.028525803819152134, 0.008737757675696964, -0.012870713749137569, 0.03765715125578186, 0.021167880031993207, 0.018415401349493266, -0.008693025109733393, -0.03817107487083208, 0.05249611881176768], [-0.01995437367832801, -0.0050035935344986855, 0.0005293889680944423, -0.02552448862248297, -0.013543378161562428, -0.04069416868407844, -0.02023168028672442, -0.05980876386490433, -0.03964310128883241, 0.016415313870804145], [0.07305367209107705, 0.0020366851774353957, -0.02914096517209041, 0.08143590726710366, -0.0570200123107812, -0.07230958924869081, -0.014082204231552495, -0.03975628307026074, 0.008653405694756217, -0.05667257997516367], [-0.056845372475810604, 0.0018996791955497277, 0.011359427022945205, 0.028631901014765728, 0.024002778891949638, -0.05608481818184611, 0.0027544412680166577, -0.08685164909616218, 0.0011895769153174533, 0.02213242384449021], [0.015694665999768976, -0.0010309916205839718, -0.04255454605219922, 0.06276301093434192, -0.02384147617481937, 0.08912633493340667, -0.06908272252219635, -0.04390893264327513, 0.012460030510699991, -0.005046487734859791], [-0.020856427128160198, 0.005425146965512454, 0.01591552251431117, 0.04517624971005062, 0.023303355990649133, -0.024699725982084007, 0.04320604168230213, 0.030281262336403623, 0.08375900655615666, 0.03479256681349844], [-0.00437917849698049, 0.014053381981687159, -0.045714386192229235, 0.025363230770938446, 0.0695704728248794, 0.02601926071334183, 0.018865520020847605, 0.011833415944675801, 0.03876934063466595, -0.0033271092743102524], [0.06623406949352394, -0.01815266536467423, -0.02000645005478887, 0.028905729606386463, -0.01088670526186845, -0.04210029868942354, -0.037881156642935766, -0.03600095447399425, -0.004321371973888449, -0.002177317449802996], [0.08419587361165526, 0.022882598693529006, 0.03269879853014545, 0.011595342604387434, 0.010651681187586434, 0.06322439998747163, 0.027611441154127767, 0.0029379800782200808, 0.005153485479051742, 0.03885526184487293], [0.011826160904563874, 0.006471944430683968, -0.0027589913071778835, 0.009350616665677729, -0.018296716210872848, 0.00851341145371182, -0.014265390609208782, 0.032214783091542326, -0.04891366406520973, -0.04718325289997576], [0.05630810394843926, 0.018151819848389778, -0.021834266010057696, -0.05222288348405775, 0.055970373869136676, 0.005398047824656899, -0.015877394793489232, 0.03566592127115852, -0.031195945412865835, -0.0674003244665679], [-0.0066186358236560916, -0.02971028599272356, 0.038701571874940735, -0.022031007323328435, 0.05771089538618734, -0.02514697176771093, 0.06259587015414272, 0.017413645612220356, -0.03848367156615971, 0.0474758624479886], [0.03322372493578289, 0.004521364380718634, 0.026805012949053596, -0.07148294944983095, 0.012331198600252117, 0.050083690312602444, 0.02061411921904892, 0.08007880101546473, -0.01626449795794504, 0.05261615559139098], [0.09836212877777956, 0.02370301107158055, -0.0605727608248044, -0.02875752628762695, 0.0011813237162122002, 0.02203556595211879, 0.06465699380991748, -0.0015192645689507925, 0.04941030932528297, -0.0036411782121296772], [0.007946514137301101, 0.011464011047875877, -0.030834259878978695, -0.006427159723338454, 0.10119506558131576, 0.016860569496914685, 0.029939957106830888, -0.007484486504633856, 0.07970257756172176, -0.028159994130261292], [-0.0353319553165603, -0.029171259163068904, -0.10268104256062617, 0.009032240500484557, -0.006700647590711257, -0.056257351607274776, -0.026779616189809636, -0.04018830752469526, 0.17185657373967672, -0.03864998509474492], [0.009537605130458348, -0.01108737506059886, -0.08581970163964665, 0.04178059865798657, -0.025601575478270674, 0.029017119891667994, 0.035404860411761024, -0.030558088653452564, 0.09588313889287328, -0.02233445652772574], [-0.06074932506130782, -0.06006816804438849, -0.02148937546524183, 0.013334342642127347, -0.036795967469834816, -0.050468002918393394, 0.0014115143799109668, -0.02785410062655842, 0.04942620914362999, -0.02667646633243187], [0.03171499437463881, 0.012368690664631633, 0.05913936433289571, 0.04545505402916954, -0.03438457522550771, -0.06276789643964573, 0.0029078948900380327, 0.008187286785838101, 0.06545373937733016, -0.03767478951640159], [-0.014136744734264944, -0.0319642194374948, 0.006240723556363701, 0.05616219025127139, -0.05057791991176729, 0.033374514570215376, -0.02996786163092255, -0.02383172018742639, 0.08104806061214244, -0.036619478174679324], [-0.01841487418908776, -0.041081947250480644, -0.05789950901412353, 0.05814944503959997, -0.017940219790436182, 0.02982456656521357, 0.012462210206580861, -0.0661970323358801, 0.05940086817379336, 0.003460754947916318], [0.008404650945737344, 0.0009162865841635228, 0.04144797500659119, 0.03148364328163187, 0.010383269274774266, 0.04155472081294761, 0.004994695690242371, -0.024005813425250357, 0.037699591346375676, 0.016206306255357045], [-0.02028208350655605, -0.06769501494934138, -0.01142431563477861, 0.056418289717188465, -0.07119484850730567, 0.032581103767591955, -0.008200037693852505, -0.006113895107971257, 0.14392650536566873, -0.004318729075316014], [0.03249715374627196, -0.014395192150709333, -0.016268245964744858, -0.005133442323579048, -0.025593355036949875, 0.028323925746100074, 0.050177080226336296, -0.015137317779065365, 0.11449260359161267, -0.017422059946812285], [0.0527616480500003, -0.006771035431808305, -0.007560878460389226, -0.036207365987380925, -0.0063984499558477825, -0.0032477964846071303, 0.01967745162359612, -0.08341348317438817, 0.02025458449580568, 0.055110746475233126], [0.03666118127824075, 0.015032285002102007, -0.015636358261158997, 0.0606736957825833, 0.05297531288830089, 0.0033784584303062663, 0.01030215698188908, -0.017952369477637835, 0.014485838191927352, 0.0716787126854414], [-0.052805058794567664, -0.02077863811842848, 0.022415584825827783, -0.02538358941638716, 0.03726703438654818, -0.018259959367135047, 0.08134863711593755, 0.027473022164609236, -0.00873658085657981, 0.029852762884524098], [0.010227245341325077, 0.02242128213698548, -0.014400800033783703, -0.07328328626754042, -0.015135193883253267, -0.019904871637208273, -0.03249609873137568, -0.0262226497834817, 0.0647074423476286, 0.06096502124255079], [-0.006672385191656166, 0.020534203577262978, -0.0036877716292061688, 0.03721822915759215, -0.009464541879656027, 0.012741344222861157, -0.0021579001145637156, 0.013345401461527446, -0.007278132903641674, 0.03388049764876372], [-0.056666279433155976, -0.013257551556619838, -0.02033378924435135, 0.027385363744140027, 0.06470413327040563, -0.006660043526227658, 0.06754860494672946, 0.009558478247204528, 0.08771090621423526, -0.015091500868497278], [-0.05137692400969524, -0.035143045603531334, -0.0253960314838282, -0.01514517922251129, 0.017593539125417296, -0.0403827394525929, 0.01467616174904878, 0.040601542525215896, 0.006642127887598634, 0.014435273112311627], [0.04162336461199896, -0.08233870904055005, -0.07113792360342182, -0.06860171691297771, 0.01796635575574256, -0.002814120102511817, -0.02722453102741954, -0.00986902701896061, 0.002602906109739582, 0.02698367222634292], [0.052231859793408074, 0.012189171090665448, 0.014071061283064349, 0.02184891242525284, -0.006821290641474382, 0.018074463903887644, 0.025779257557767277, -0.0070356883601714335, -0.011604397615018714, -0.014612693647905075], [0.047919594275854474, -0.02407879762283514, -0.019439122362041022, -0.015861722204270005, -0.006328882821938999, 0.014689820068145868, -0.039669018767354805, -0.011732472628396247, 0.04275238820674886, 0.004931518943300974], [-0.031856914654713, -0.0005567738074401556, -0.0010786277321604347, -0.025065540807346617, -0.03625132643437349, -0.04185447724680767, 0.0716326668719566, 0.06000026767317717, 0.010477333401618565, -0.019159244096334484], [0.014329480867887576, -0.0881920732234236, 0.0758174713805574, -0.040923961839400565, -0.04907980618108821, 0.04493819661050924, -0.02629903036454567, 0.024683813200024964, 0.0007388602424405546, 0.020442909887496908], [-0.037628674552867364, -0.01390741079882884, -0.03872430735525036, -0.06248496695903723, 0.03041690820539733, 0.031964278514545946, 0.05813299629242293, 0.08377905125905055, -0.040719197164941406, 0.024227484974854295], [-0.0008331062300678584, 0.047798636827752504, 0.034947955851463736, -0.06897072005588571, 0.10326500915497111, 0.031722147578172745, 0.04523315203600461, 0.01613191777297388, 0.006542561838115904, 0.009165319675757306], [0.005203640453708656, 0.043157310081246764, 0.016180873807165173, 0.000742963005357774, 0.026715907107417763, 0.027050715815206846, 0.007834911181919688, 0.04828516067266065, -0.034071479588636155, 0.06733799269901768], [-0.027788007950369054, -0.01971348875596517, 0.008397676088292252, -0.03323262983933665, -0.0006140565831324195, 0.032182215816348864, 0.051012305737809245, 0.07600987994203967, -0.016272394290456335, 0.04796633191630805], [0.009225740040402807, -0.03266428876280109, 0.025802412536334352, 0.015248900468871698, 0.027112002273131753, -0.06029982944186354, -0.016714807750951743, 0.08218291890649099, -0.030238719973246175, 0.0007937286252390129], [0.04070816049558658, 0.0005259810057840772, -0.03537413384312724, -0.028602481527506683, 0.018247216187692265, -0.022190499289575054, 0.08110625844378243, -0.06591080823576191, -0.004163398857057713, 0.055594684393478505], [-0.0137497444925681, -0.012877550946998006, -0.07798684353116588, -0.030728903401193258, 0.02368020585730769, -0.011553871598581011, -0.003899313090737088, -0.022282971000865476, 0.10723321597203617, -0.10188751296674427], [0.026350607751140353, -0.04713223334995105, -0.068240719324601, 0.008429126536376154, -0.05529763614369062, -0.027223845486347535, 0.008286198789141073, -0.0009749944298216506, 0.1354984209452745, -0.030407343536332235], [-0.06309328291473268, -0.08033658298481237, -0.06068572850671023, -0.04612417068664643, -0.061940217267559126, 0.002023297888948443, 0.026634781758562574, 0.007768524852744036, 0.14059858308258297, -0.04740661442199362], [0.01695441974147712, -0.07740786060429321, 0.024239529473760835, 0.00016452994608284353, -0.012480827784949036, -0.001155841621053556, 0.06431054268619552, 0.009264903853486347, 0.0697369356521977, 0.014137654351947485], [0.014616507187580098, -0.0022676381829232943, 0.09552243880195234, -0.0450072406338034, -0.011759140836501347, 0.010738075084763179, 0.07753919719844249, 0.04150900338692363, 0.10000359335335497, 0.047575241468251435], [0.01836610720960529, -0.04010020625469217, -0.018547765336870213, 0.020458476709508906, -0.02970233933983013, -0.03258350226100282, -0.007123738156690829, 0.08735486866215057, 0.035972846694731185, 0.023230202471301087], [-0.016534266264828013, 0.03037245380830106, -0.017706021044500045, 0.019673612300881015, -0.06620228273090724, 0.01984294634884546, 0.03096100140693767, 0.005876234775139492, 0.026505827321204486, -0.039632546847047596], [0.031027123890370614, 0.0977910253687011, 0.027587227198278417, 0.06110990895885146, -0.014030796873759667, 0.05680067087007285, -0.01465892919754736, 0.011890856267008912, 0.04358048775802367, -0.04016923023837734], [-0.010423252815508446, 0.006053648829747202, -0.013861723475026214, 0.00994198336803467, -0.016664551838201817, -0.02585173596124633, 0.02063613277081235, -0.05869794671125821, 0.10476193240148622, -0.005938005058155864], [-0.044333948804120005, 0.04307200242076802, -0.10701467982137274, 0.021418560909269163, 0.01750219578039431, -0.0005187219646156184, 0.04295978693156504, 0.007512785624825632, 0.11123246729123862, -0.02217212092395617], [0.02685424613635, -0.04001673942762208, -0.049775647322262806, 0.12276040420863969, -0.007846409240877756, 0.02626502176540486, -0.011437157138098791, 0.0019821032139778253, 0.0045471223426751094, -0.06651091731327193], [0.026121898310163476, -0.08585920677614492, -0.040877046336810774, 0.07798001532022539, 0.019425060783190572, 0.042555915332544644, -0.0430418076639929, 0.011466603944891358, 0.00046503700775876527, 0.04930616814674481], [0.052398778342257375, 0.01794172855103717, 0.0019142429277197019, 0.037108835917034524, 0.011363168454030601, 0.04763984826348416, 0.031559282007992635, -0.07305998791895152, 0.0014986532975586194, 0.08422419133723007], [0.007235201000226678, -0.007788037164291477, 0.05222066397638311, 0.013290086680326633, -0.03971674765712651, -0.006674006120850153, 0.022345598695796477, 0.006488802500383384, -0.000867670880495111, 0.04149728189207144], [-0.06722399538007319, -0.05116439612159719, 0.029300606152036807, 0.030411130840863058, 0.021977584133069515, -0.01383697723341183, 0.01725478518215016, 0.07599876963193805, 0.02438278059940726, 0.03977938183757692], [0.061284310767699815, -0.08098962670124987, 0.005763192802530772, -0.04844504663934951, -0.023445447830688245, -0.003731131131142303, 0.04831849664247811, 0.021870778035494923, -0.01667068048730738, 0.0123237315501841], [0.0018565962445861075, 0.04164547368059615, 0.0014501622256551474, -0.03248902336279667, 0.023209285059155173, 0.02674222552710125, -0.0019232296070770625, -0.030206302902497668, 0.008706522890585796, -0.006506877063396272], [0.03422576947555512, -0.016459484032927272, -0.07025135732061026, -0.0021298658640649354, 0.0011064629340213786, 0.000615966339400406, -0.0029392875075187944, 0.09610403758873223, 0.047764430258531825, -0.000834371241934925], [0.027909932011931517, -0.02098230625625855, -0.07081790025751111, -0.012223258644686319, 0.06960943790125981, 0.017811047060273925, 0.04594298653679697, -0.0401266534862812, 0.06327925185504546, -0.03981891369664319], [0.02680669888750371, -0.01095090415104505, 0.015004552215237688, -0.02859463390623346, -0.006609490280553568, -0.09707245658523331, -0.011353648196459728, 0.02340538046651713, -0.055218894961073864, 0.06711183432311572], [0.01537410140377725, -0.019513603264910064, -0.03441978114658787, 0.029771495897849432, 0.058467931638736, -0.039731618443316956, 0.05885691501668804, 0.008844587871503622, 0.025551316305416866, 0.02111542268593374], [-0.022883603635649768, -0.02959800105654382, 0.023694502898909738, -0.013941300942995446, -0.015639406247182023, -0.02208451334598069, 0.030311078387023165, 0.00970151935489834, -0.04045596274974625, -0.0046051104133628005], [0.019399440715004757, 0.03906432825225989, -0.034197443599296544, -0.029272087719069025, -0.043535395966896206, -0.00353579258486151, -0.01865889413522781, 0.044087530562617834, -0.03253472580455865, 0.0021823994357930377], [0.04504623448054837, -0.03206485333913416, -0.02176771855833173, -0.022208218501465118, 0.04525922916680803, -0.025176166534878548, 0.011587758358833623, -0.08225380308977696, 0.012531754230852654, -0.01107897391907314], [0.007942646056044602, -0.026352550826937795, 0.023911049765885144, -0.06708371706164883, 0.04518431623305854, 0.007082153004145392, -0.030442806278390636, -0.021738096240804746, 0.0028122941776267166, -0.01860252701278098], [0.01938572602908283, -0.015339885219917321, 0.03826994298308519, -0.06648822718408112, 0.05538557435190746, -0.03450731591847381, 0.01080544504674397, 0.016928786872034522, -0.017369086201480644, 0.08687073817998793], [0.0016546386599871569, 0.025552964707507012, 0.004915159699837472, 0.0052739767988866145, 0.019373260321796898, -0.040287092309602486, 0.004673533354908415, -0.00803123419998414, 0.05889850022438524, 0.05857754147386196], [0.03032507782520905, -0.02031202197635741, -0.05372466620472352, -0.04021957763192413, 0.050076328314183176, 0.0225123508738096, 0.04382103380551154, -0.006855588195068885, 0.027660408975421616, 0.03520492682406687], [-0.01030765631200185, -0.04020228020205805, -0.08173421077989061, 0.05908614699804089, 0.035080940636310086, 0.012205156474614232, 0.03703308892048636, -0.0351061582882192, 0.19383686019875243, -0.05775189653888736], [-0.010212743304524026, -0.020378945936061613, -0.08700095589065547, -0.024144641305281652, 0.03964041888103132, -0.026195599569403705, 0.045992238516434164, 0.008481684597144663, 0.18103932053808705, -0.11167973747577571], [-0.021105628446649854, -0.08405717601516821, -0.044248147961311275, -0.004140798518042404, -0.06968692998047596, -0.011892173035219078, 0.03717697772659444, -0.028010248589518744, 0.07312668167023306, -0.009019831854340276], [-0.017730066818313073, -0.04119024626266066, 0.021209244533048833, -0.09834809894365637, -0.09545160441528439, -0.06211086013750415, -0.02637420043025948, -0.0018064001386050514, 0.06881146507607533, -0.05977148574645856], [0.06261721820584841, -0.007896979792886201, 0.0817853623330882, -0.0004138231427453297, 0.0052284099801405024, -0.03511272366525797, 0.04079172592792523, 0.04852348612653737, 0.018015555317590415, -0.09937932998547472], [-0.002306452466639597, 0.014607207559117518, 0.0848388266604404, -0.04938064836336872, 0.009178117634695572, 0.03206549585974332, 0.11838373265727133, 0.017024602607500404, 0.03359924028899176, -0.08176738867448924], [0.045133015860322916, 0.056629528621871233, -0.06361143030322489, 0.00432085155040765, 0.02467116439113284, -0.003236386567348827, -0.0065863549129428186, 0.04696595049371662, 0.06528282433669483, -0.0016675316691213396], [0.031544145593789846, 0.026287112271482137, 0.0314166908122913, 0.034337060314964724, 0.01732417584289476, 0.039448075238204185, 0.09301391864575893, 0.041533347733743085, 0.0818375829335363, 0.054615079121621404], [-0.04650603304701265, 0.027976540732831286, 0.01932514311510592, -0.027084691048161767, 0.006826413621269506, -0.05621078619161443, 0.009699592288137243, 0.01944381280266332, 0.06387056742610953, -0.028468410436224792], [-0.08551169840901057, 0.03563834111877385, 0.03209450658399045, 0.014244095729917, 0.04633534318651098, -0.013751184992545237, 0.043926142707247234, -0.00025364587702396955, 0.05633259520754444, -0.03287389819007612], [-0.05365398191543024, -0.08937839169487241, -0.02838224737482035, 0.04558234510531345, 0.009069813442139012, -0.01722259037316002, -0.03921590264556657, -0.029989948257995315, 0.04465396677400181, 0.04473181558706332], [-0.006881895069082382, -0.06864417333838073, -0.04321763361480872, 0.0282601125417688, -0.0023964637025639373, 0.024712900777498062, -0.017204046688923204, -0.037231992237822704, -0.02319361831114586, 0.07887790665049596], [-0.0008991602329916565, -0.06895497328275277, -0.007646350212576663, 0.10041979330901073, -0.06895675572084752, 0.019663660957874696, -0.03330750723389631, -2.1447149984455153e-05, -0.0052482607215607055, 0.04372829653269375], [0.0027001016501328173, -0.04894239053416563, -0.03659800934274049, 0.019493984271273693, -0.025247705239152596, -0.04806703765087423, 0.016120460336256127, 0.05525500445690108, -0.024453258175562237, 0.044072490693362526], [0.035584900182247775, -0.04285254320934459, -0.0064924558743321556, -0.01703950225276826, 0.0018879718313549597, 0.030774670411961153, -0.05129959214616334, 0.07116019094776116, -0.03941383501394242, 0.033636910602976994], [0.00935853628252975, 0.022720327198950077, 0.035558564196136774, 0.032028485548917865, 0.030190537668428365, 0.014844973010046442, 0.024119039288621264, 0.06037675186187858, 0.0034413378314074677, 0.025376503966659355], [0.07697325010204017, -0.012689032878308845, -0.0017813758922444862, 0.037421605811994656, 0.01916659437959589, 0.03318558989367857, 0.023875965738699368, -0.020812481834377252, -0.011666307788304407, -0.03969580147272199], [0.0012559221591107131, 0.14875323850717506, 0.04498310533739779, -0.04180081183240786, -0.01281313167717781, 0.031792452653780646, 0.05695006308101151, 0.01799579930202366, -0.014854583060077461, -0.03461445747156506], [0.052186691807255194, 0.002473693784114806, 0.026712950457587332, 0.016559787947606593, 0.015415303893772497, 0.0016388605436208972, -0.05428801155193576, -0.05021557472806922, 0.03675108727689653, -0.024634710381098757], [-0.019824030815572963, 0.042286534400838335, -0.008162963747206455, -0.024046806285894912, -0.063464416468101, 0.009462121920178253, -0.008780363743756774, -0.03533761572355585, -0.04218357849835537, -0.04085732667113836], [0.0035299513488766423, -0.0015180866174730246, 5.85162435945497e-05, -0.007704893302709769, -0.024456179923107366, -0.0008978691893093383, 0.013742838542715761, 0.04112695433934228, -0.005714361203983455, 0.005261087463210235], [-0.015367568966354859, -0.019313583096551186, 0.02312817942790984, -0.008253148495692454, 