{"layers": [784, 5, 5, 2], "weights": [[[-0.0186039399420795, -0.00018500304258568651, -0.019919967255841126, 0.03631464949206412, -0.028131090011146366], [0.020371899762520424, -0.031611447162974794, 0.027788162493456798, -0.017172174972202223, -0.001956675536570946], [0.07875302671608495, 0.008381841303060866, -0.003469175407876227, 0.0041094452288743056, -0.028612226069655723], [0.014900126834945895, -0.03699299529605697, -0.0026562346912022967, -0.01789380099286991, 0.01200187275076804], [0.017739374604171455, 0.04934555237147636, 0.036118330127095984, 0.005429028570539468, 0.01899086397617555], [-0.01787800809073766, -0.030423288450521356, -0.10277300526118938, -0.031134753540245384, 0.00390307739483913], [-0.03219014695780605, 0.008702936343472167, 0.051875425679400435, 0.0026415237910667293, -0.015673169998712214], [0.019358261237174455, 0.08263048616210211, -0.02299842026297171, -0.003138508446102573, 0.00835049918173721], [-0.027532250799625232, -0.02563304960083867, -0.00777875170574375, 0.02149503054900329, 0.039861781505839626], [0.009161117281615724, -0.0022236108414126522, 0.011502758569820184, 0.042168898861106405, 0.026921762918325334], [0.020556157474141277, -0.008634027066764055, 0.06519854702306979, -0.009114794768721677, 0.033658247850964836], [-0.042585846149426176, 0.06720058926355943, -0.00592820647011848, 0.034950547747412374, 0.006448997838071309], [0.0163941853727788, -0.060562854515752274, 0.05779404873170542, 0.09333617368961776, 0.056103414647423445], [-0.047359134190309335, -0.04038338664219819, -0.016299079193668055, -0.024178849158482313, 0.0537274276318783], [0.018815751834799083, 0.01901768772501594, -0.012872587433043202, 0.0897361358178052, 0.041510872043418835], [0.0565885920860707, 0.035703852384853095, 0.015537870355860208, 0.030895702928375735, 0.06656522989705722], [0.07228152337283239, -0.02206416040373565, -0.006720620162079758, 0.03291397565446875, 0.02302708891583526], [0.015216726982449247, -0.02401350927919437, 0.07290332478711947, -0.02339133790106545, 0.024855145532394877], [-0.011553278556003957, -0.01871645114228175, -0.023284383498109292, 0.024848540192183716, -0.004340721352755072], [-0.062145539463796015, -0.03183679793247384, 0.017929239630651482, -0.030690787383425035, 0.04605573622695163], [0.03223744752548215, 0.006052414208121962, 0.01176262877555291, -0.029415382797739947, -0.004479138045996339], [-0.02252406893306158, -0.024545358514703183, 0.0071106484884627535, 0.008990834096531954, -0.009092597702032676], [0.018560992533637195, 0.039998409448116404, 0.03572576595054687, 0.023213027707845262, 0.028407877563105838], [-0.05030534586191839, 0.01837079542706049, -0.04970201697695433, -0.02713439220541068, -0.005652804916536881], [-0.019352997534627048, 0.009635031502091076, 0.05848535162357614, -0.05959425714137218, -0.0739142976894286], [-0.0007600256577497993, -0.028398788073721728, -0.028982775136121745, 0.031808288971546986, -0.034165989436258114], [0.013285695569827076, 0.007558296476967159, -0.0073288502458743205, -0.03159972848788701, 0.01547077022112473], [0.029596251392044526, -0.016867514063917947, 0.03874954175571148, -0.07096585250775697, -0.01268891916324445], [0.019498611237920602, 0.029560015617801135, 0.025582973801128128, -0.04021155704253586, -0.02576766519723182], [0.03035535697183048, -0.05171343310716232, -0.031198191299356852, 0.021996049376920263, -0.006615362989009499], [-0.02166459112069804, -0.021037341517209353, 0.0527585385094231, -0.016669940690582422, 0.003483472872699951], [-0.0038961061102791915, -0.025434980525557423, -0.056722711086532394, 0.023264508385800114, -0.02114717413018854], [-0.0062624008310614215, 0.002045101849158687, -0.021171493883180275, -0.023585287784910446, 0.015734032690970186], [-0.04714441823795031, -0.020429159513461914, 0.04581135481243377, -0.03869086318952336, -0.005153250339161347], [-0.008817618260541943, -0.013699553061365796, -0.046204776259954, 0.07312891698629427, 0.0027052092327762866], [0.016280973495449918, -0.03050353026628026, 0.014491182822392404, 0.018440395118704555, 0.024708543948026795], [-0.0161411770167828, -0.05030586444801137, -0.044392697273960516, 0.040367234691547196, 0.04698291580778902], [-0.08697424862028627, -0.011611485901034424, -0.040172651932971606, -0.029715766112531766, -0.03539356000079153], [-0.028200222397292845, -0.026451242442372826, 0.03918416767475778, 0.06344275158536751, -0.03767421149592337], [0.04559311130652352, -0.020652238164356403, 0.0020419901204842945, 0.18649367830744246, -0.024904608613757172], [-0.036112085946118574, 0.011621709391537694, 0.05298644257852195, 0.05421480139748449, -0.03780085648886999], [0.01490582831982258, -0.0043179206843437625, 0.009943183049120325, 0.08719301924933359, 0.04502688279720994], [0.02030940055249872, 0.0001288433976090167, 0.028928187267094844, 0.03641898739353424, 0.03934116760319568], [-0.024924972832772747, 0.0010637204427414973, 0.09108076006229097, 0.027741413609067827, 0.05319489239416617], [0.05329763865478794, 0.03420069186066276, 0.0522127617808254, 0.007251391961503518, -0.004108700906884943], [0.08157924372877091, 0.010586299469595611, 0.016717629076902947, -0.08204142285898992, 0.011833666715196688], [0.015486651861414086, -0.03267644650937514, -0.05604674734888509, -0.00138900587027339, -0.03669540183086347], [-0.001986470090232976, -0.003245062564570389, 0.023956385369200806, 0.03787912596199808, 0.05123477805616364], [-0.019290416920255887, 0.0482469489742521, -0.012569804021228058, -0.018536960841447687, 0.01625664148628444], [0.025409443694489598, -0.02744541849760534, 0.060724765087197534, -0.017057842506945156, 0.05651669280981651], [-0.0015958276975541722, -0.0002433829682653734, -0.06536406235273567, -0.02598991048891151, -0.005058191450741747], [0.002514018835611431, -0.02672376030169644, -0.03746729292412433, 0.04779026150326967, 0.013380359364644259], [0.022238615010821482, -0.01630924652108252, 0.06038714423917966, 0.002944649078050321, -0.010588898996738275], [0.05675609506394614, 0.013877691754527877, 0.04606555905903604, 0.01574827209961589, 0.010028736695261416], [-0.0009969134329225208, 0.0148913790297722, -0.012967766675850272, 0.02705858956481802, 0.008845871809908376], [0.011768173850998485, 0.0058898011030922735, 0.027008397705791786, 0.10363153729708187, 0.022931520952016362], [-0.028908239304190116, -0.045095492300381464, 0.01909917331337149, 0.09857587930151294, 0.014531724291435604], [0.014729695639120398, 0.01922585232717436, -0.0048433330581789955, 0.02183289345374201, -0.0026593871297488207], [0.022108140429198002, 0.009661785690355805, 0.018031341030375653, -0.005217165531502408, 0.02012607342327797], [-0.028100136571930306, 0.03736600345403335, 0.02640549518396282, 0.029983253752009855, -0.0006614098860854031], [-0.01843171137817364, -0.017051814302030864, -0.014092081425293208, -0.04676209126148607, 0.05593934175056538], [-0.06193948720713371, 0.00414760157880579, -0.04416844191533608, -0.00017434104432920088, 0.038935373489237424], [-0.015400249168613721, -0.007020395529241538, 0.003524277350799484, 0.007266857498805181, -0.047904169470094383], [-0.016641650515813088, 0.023484287879700288, -0.03431198027895533, -0.01360511269864341, 0.030311705118962817], [0.010591301543915072, -0.02722968433116179, 0.024556026599764816, -0.029049135634889086, 0.014754234450583813], [-0.04312592798633447, -0.00273744567472814, 0.05033638073369637, 0.06035606999344497, 0.011788471791070286], [0.0068798547550347105, 0.013630621476206738, -0.016706486210646434, 0.05239868424989561, -0.026261744720379687], [-0.040184703237021974, 0.02558035685446869, 0.04834869683793318, 0.07879505646140923, 0.021817271314643602], [-0.027665288426197743, 0.01214542309447591, 0.04617481041854215, 0.11460234004349562, 0.011781648819228293], [0.02118925247241601, 0.0012309953472338041, 0.07290196515489893, 0.0521161471584425, 0.022700078093029163], [0.08437717254767628, 0.010774945230841953, 0.050573378471019906, 0.10066904686973764, -0.04429588875090622], [0.008339085847900607, 0.010279784928061406, 0.07455196803272156, 0.029419901342274932, 0.01533187960690404], [0.06863258413212833, -0.02686219491833051, 0.04920603995712967, 0.02006997551621128, 0.03297012370764456], [-0.013370512535747989, -0.04904230605514898, 0.053523172755305305, -0.012737933917277912, 0.06604689007959785], [0.056469401014370715, -0.025058762753350183, -0.02363135798963927, 0.052919669125924926, 0.006447756148659984], [0.02948857577161678, -0.0217470463859241, -0.04409555923503619, 0.02342626547042774, 0.03191302511810215], [-0.013497657969751508, 0.07601975757600944, -0.018810439238848575, -0.0030936625009684434, 0.03177585895454784], [-0.05248372907751815, 0.014094214201838534, -0.045997322448854724, 0.01301284795273306, 0.03268891004683533], [-0.02754256690385475, 0.029126405474078288, 0.046244354417482966, -0.038148625048559745, 0.06629118985624101], [-0.05767985659603259, -0.06878848242878884, 0.025366441362471827, 0.05285924415920785, -0.05236675502315604], [-0.03659306972535866, -0.039571563662713034, -0.009314057656188661, 0.028595412226868726, 0.018072456824740627], [-0.025994525411803155, -0.007298867075308006, -0.004192412574811449, 0.04603020502135586, 0.0165075896907589], [-0.020121993246892657, -0.03854375971026593, -0.013555744163410674, -0.04426921953739569, 0.046026002665469024], [0.03635007064189749, 0.02796132539021146, -0.016057627520938297, -0.016195471070104536, -0.015838005346176524], [-0.0593657786725361, -0.0017354839881897656, -0.1058463156964551, 0.06846269727314153, 0.015829059309346433], [0.03301374115905006, 0.04168003759255628, -0.04118828825990547, 0.0511747495552596, 0.009015791570055073], [-0.0819801367940085, 0.02618695658749805, 0.006820911609296261, 0.01936846963402982, -0.04182818924126288], [-0.006123388774536086, -0.004422223637353349, 0.0038118978840977246, 0.00912030259092742, 0.04685678837459923], [0.027098814666620712, 0.012655374130999238, -0.018335623215400474, 0.013518633285795766, 0.012504865431594642], [-0.009593226273145542, -0.06134331342405411, -0.011673295324921973, -0.009214609906170268, -0.0496727013704965], [0.006406102902276853, -0.0225954321995298, -0.020183713394938775, 0.053458552635097974, -0.034980414972003965], [-0.009123763309307012, -0.03626433887465951, 0.046284005080540556, 0.03766412150629483, 0.049382526109343426], [-0.034470680807514455, -0.004378997437824491, 0.03840986063884259, 0.029508834839367278, -0.015384716882688332], [-0.006068135260295726, -0.025683356301124928, -0.0029163723082080662, 0.0497321815585003, 0.014430444855672893], [-0.018573181799711912, 0.009786259888956334, 0.026282820945396624, 0.08093955711571756, 0.06889294560496882], [0.024155989864015986, 0.0031492497413332515, -0.009419370243330375, 0.011367358478664156, 0.02579840156945001], [-0.05585619507017881, -0.01259774470017041, -0.010566641610552353, -0.005369415897896721, 0.03468926057089573], [0.04853314164047898, 0.039221990765996376, 0.052355792311969684, 0.004467465046265072, 0.05494267669015597], [0.014636905858260739, 0.020560103065235886, 0.04514837808849222, 0.034027248366502005, 0.07221041888994024], [0.01085613290472159, -0.03000303895274648, 0.05430492246613236, -0.009421830031820616, 0.04409429341112837], [0.023112801115095997, -0.010469631825387142, 0.0427908775871252, 0.04323872599766739, 0.02972095609511585], [-0.0005764770916921335, -0.016294740490671193, 0.013539501683792289, 0.03158603312449535, -0.026905083916644566], [0.036781300595629354, 0.019752386316052823, -0.021107409301471605, 0.09122561130823102, 0.0011098293372555786], [-0.0059269819342615505, 0.007456521923148899, 0.016455390430574233, -0.10788390216463481, -0.05018002450327804], [-0.026817694733145294, 0.031029070290650006, -0.004585291755241642, 0.01654949373055101, 0.07684325336256678], [-0.020262844757970213, 0.006273123125335136, 0.007457089888368454, -0.03624304374464232, -0.01460963343859885], [0.03209062895750694, -0.020363144733334337, -0.047831535366991085, 0.022593277695793744, 0.039594604769844936], [0.018215914844645492, 0.026686818205418458, 0.008289946926575783, 0.05574973664565786, -0.0133429069484938], [-0.018586497201654572, 0.06708489952576775, -0.04975149161228136, 0.010073231477997545, -0.011252001080522475], [-0.019844242837130554, -0.036905928666561005, -0.05313563916905355, 0.008965195417021735, 0.055049877829833824], [-0.0546766850240327, -0.02434240953608931, -0.03701196674557726, 0.017758063650652158, -0.0026388390999299376], [0.033241110681942035, 0.003830682607903583, 0.041605942642225835, -0.011664911304479655, 0.07170947236088836], [0.033938844347541526, -0.018215206193617266, -0.04076694389997741, -0.02304001143706754, 0.010198024052345022], [-0.0069676238137330124, 0.06365078927375811, 0.004626091960322491, -0.0044390263400613484, 0.023849986759917084], [0.0009495670774840077, -0.01521807224389192, -0.0075321070557237985, -0.07855163367862805, 0.024001978174093087], [-0.01527175440074069, -0.03041950233743337, -0.0892037250760668, -0.03701739228309542, 0.08415620308650616], [-0.0798289339602053, -0.0461857360044484, -0.01177008551297321, 0.03331475916116061, -0.017432780410265407], [-0.005205013993428466, 0.000789867924006028, -0.043752852957031754, 0.0186689570950714, 0.028804178815808306], [0.040144944310865724, -0.01794548560926371, -0.041746268323686546, 0.02557849754540662, 0.05933440370814617], [-0.08800496647358971, -0.002102234007729444, 0.04046320934778572, 0.056693120739936445, -0.033313710029394705], [-0.03204269975706782, -0.08926065591674862, 0.04631009116001806, 0.04371832107802552, 0.011226301290158728], [-0.028991042331722408, 0.021039208636329812, 0.08733554824002349, 0.015051387847069865, -0.00466166378659306], [0.0020251080697050797, -0.056462841725746095, 0.00766389805012311, -0.025472097083838095, 0.05254836057015561], [0.01091106447798692, 0.005245273913341961, -0.024250211771612448, -0.01696070311032059, 0.07437782694174663], [0.036701235274991945, -0.012971992578451339, 0.06902718080735687, -0.04274301787159322, -0.007521855149636673], [0.047245728294351176, 0.001283412571171898, -0.027404742727991545, -0.024322130065082076, 0.01474931604019527], [0.0723682557647603, -0.0025190908369810447, 1.782253672947536e-05, -0.008848770322641902, 0.10638329112484518], [0.0026419196465311367, -0.0607308022312502, -0.01020882780973149, -0.01726314888426518, 0.057112355026388915], [0.02588107684254026, -0.01907571669494494, -0.02081669348824887, 0.035343974750780084, 0.062536284546674], [0.0720658987473593, -0.011505759672401243, -0.013968792960830968, -0.017159874197093965, 0.03664604773912506], [-0.02176288773627801, 0.10406789350580978, -0.01607851719537027, 0.05459106737083208, -0.0019267323004024794], [0.07668829981045241, -0.016811584955431117, 0.0026739542824208225, 0.06389303065684479, 0.029171621885249535], [0.019101233694563353, 0.024855626655563682, 0.04076475927124206, -0.043108040843237806, 0.02665076400886572], [-0.06417313395362828, 0.021776882699412765, 0.029447247996900378, -0.01331780595188959, -0.06952375043240407], [-0.022013470494810228, 0.03172816331848853, -0.0037603806607458563, 0.014168062313383169, -0.019944018493646628], [-0.018536361282010576, 0.06500762161755243, -0.040441223459055174, 0.007920485411589708, -0.04963382186037628], [-0.017053334452706615, 0.06227899543107716, 0.06455884594083987, -0.007512756020193375, -0.022548679409809567], [0.035291272638192026, -0.046437384741290666, 0.024623516798044556, 0.010385130466534958, -0.016062276566805752], [0.045036967085352805, 0.0295107016344869, 0.006786304342787999, 0.04198700986774994, 0.010831536110618168], [-0.005663586547402887, 0.011480853663714291, -0.0064791817342026, -0.007217844035812397, -0.011724094169972938], [0.05228750566359692, 0.024600492982311012, -0.0022886341904149554, 0.008700531452242538, 0.005946323045153823], [-0.009309558288314831, 0.03485181687054835, 0.01714907942211, -0.0312284715505116, -0.003367279295080129], [-0.005371160231396061, 0.03182147697858779, 0.008718722935328712, -0.02310639207197188, -0.058558132690767206], [0.019241422539809764, 0.06686298407579945, 0.0014973369383924676, 0.018660828975656362, -0.015622021416239432], [0.0028119540114520288, -0.03445581614635633, -0.016927715976392112, 0.003916442691989184, 0.018202761002642977], [-0.015078921029364624, 0.003052851873373246, 0.0009123584615304273, -0.0019973639234247866, 0.03306368771873756], [-0.012928662100435877, -0.00711487544811014, -0.039767974959975555, 0.04380832167851317, -0.005549165462633318], [-0.01187244957775621, -0.04051800220140943, 0.0500894237162332, 0.017751426587554266, 0.0064246017628458605], [-0.023283917412220512, 0.027216967090838113, 0.02367443203208161, 0.09379234959552235, -0.014561755034905048], [0.019256244230051782, -0.0444070589978833, -0.014711043052517482, 0.08169937873791028, -0.016873944720025978], [-0.047682962713189926, -0.02652530579430596, 0.019596255197391648, -0.040035812361772755, -0.054659556539866726], [-0.033136629239256005, -0.0013978707660508047, 0.1000883861321047, -0.004098731170872868, 0.0018959440698177834], [0.05696500080133825, -0.00916097809205993, 0.024566008311575786, -0.06005820306333154, 0.053975294051185396], [0.02010340400498413, 0.04016990879255489, 0.010283494962351055, -0.0632350543590366, 0.07696938038408446], [0.011147950046899897, 0.0432131630411767, -0.036053971695565755, -0.035446466143892345, 0.08191614331408119], [0.05683497521258457, 0.031068724371418523, -0.005128167094580163, 0.05306367342634537, 0.015783450612470294], [0.03812070785653886, -0.013460046774256237, -0.0011310310945020254, 0.05394530794361656, 0.046494464174500455], [0.041278011374729744, -0.026782393982628955, -0.020786607602045263, 0.057390864379410794, -0.014559611018384648], [0.0056310738282256655, 0.029943183376454983, -0.0013488009969370692, 0.06791647715331113, 0.10589495513836822], [-0.021896767050577585, 0.058684683168757246, 0.03534461102464486, 0.04302941019816906, 0.027279167274263997], [0.013381767894190134, -0.06058096293402374, -0.05825163149996776, 0.08778302560590263, -0.036699357411462054], [-0.010719185893120051, 0.011341891518051886, 0.00931698821632871, 0.020048725536579416, -0.03533340373503451], [0.04648724634971748, -0.008926933988521528, 0.04944683063877899, -0.0036782889244337323, 0.057819726665584444], [0.033289611038577714, 0.031168835772645547, 0.014679219468968064, -0.004318964051056795, 0.08380039192326286], [0.0075775643780595665, -0.030888371197569493, 0.011803058340296855, -0.002092623689817088, 0.0109784231357819], [0.0047778474910293986, -0.015343155902305583, 0.021068968347784992, -0.04578505871117048, 0.06788025744442545], [0.00624654877720649, -0.05010412610661634, -0.011502738290953772, 0.04670808358391463, 0.007825612266280025], [-0.0708602873547838, 0.01142116577231765, 0.07173469035242616, -0.05980516721988221, 0.043349027217524046], [-0.046590143339153164, -0.014716353752174992, -0.015249919117529367, 0.0469005791113709, 0.057008051493052166], [-0.044009944772916455, 0.0007888309718312114, 0.005683174150297522, 0.008065754033399613, 0.01865315754501711], [0.04520845606839996, 0.0022484378026805148, -0.03441430740601513, 0.05108228815062477, 0.04053037007282094], [0.06434075923820254, -0.011155366860793357, -0.03910913380376484, -0.0014109236157945474, 0.011620270552749645], [0.02968931064938516, -0.006384260260080624, 0.010988053816359658, -0.017131737545746623, 9.923087752882681e-05], [-0.0035284580912652496, 0.015070711634906708, 0.007549954044066919, 0.07296459677590005, 0.028579582757786284], [0.05956363163140918, 0.0465322582130266, -0.04642022433067347, 0.07359851735303484, 0.06142056665724427], [0.029554033218900086, 0.007707383077448456, -0.02179790020984405, 0.0813109273447649, -0.027703195287904585], [0.010579514945203877, 0.03695658566219216, 0.06175316723169087, 0.05945304112917975, -0.02418898035004066], [-0.022811280856615487, 0.059383234241962256, -0.003195111944116463, 0.030988994698432172, 0.01757902470472052], [0.04350688010768889, 0.013462883144036536, 0.0076252590772728, 0.022433705524692465, 0.04672598382118289], [-0.013977268858769303, 0.03430010216834929, -0.04891548378852946, -0.06676648193200137, 0.0014007333755462071], [0.04245396205500374, -0.05154037105543625, 0.0076911187046761805, -0.06226275426967556, 0.0028584271779161577], [-0.014394008595598253, 0.017490753432073847, 0.10397341288893175, -0.05083870337288088, 0.09384720240566141], [0.06559853781838515, -0.07000879264482092, 0.10183256620301061, -0.026139820927575944, 0.06737783077094531], [-0.018907056587338218, 0.0019449314794401694, -0.0252308040184809, -0.025446276528092095, 0.05439185620847505], [0.010125505202153781, 0.019038480329082026, -0.017353354980478408, 0.03985999699810738, 0.006935488209188587], [0.06993360062782089, -0.014579426675661932, 0.016479362998413495, 0.0016415517704906942, 0.046738313839696725], [0.017415293983457834, 0.02918261726984227, 0.039504364361906866, 0.05874450252976287, -0.012588162554025594], [0.0007230941231306734, -0.02063092497305923, -0.03872390728913775, 0.048788312051636945, -0.0736386597147465], [-0.07760381760270489, 0.006466109701605419, -0.042358634697315795, 0.0683976143197265, 0.0067157117109552696], [-0.05911436075140579, 0.008007015736760312, -0.0028472584593926746, -0.013394374806712796, -0.05028939344414426], [0.030825448742373116, -0.016878463643773274, -0.0008929906354201373, -0.008744391925316774, 0.027524536083040264], [-0.001632319607346518, -0.0028787525715753904, -0.03041170260103821, -0.03192242023660633, 0.0111022539888506], [0.023339790962528365, 0.010844116594807704, 0.05885127771673565, -0.01881014885013118, 0.0514486241596716], [0.025892549531511287, -0.011652692530241973, -0.0365340939306853, 0.029960604337698198, -0.021110146014950978], [-0.03951934775053918, 0.010680744938374828, 0.049191231264866894, 0.017811545689016207, 0.029370566453124334], [-0.011200323683101684, -0.0840839850645456, 0.012265738335233421, 0.03616294674104452, -0.024166752966080625], [0.016331578643027166, 0.005885995292899577, 0.040041836048082965, 0.04135687514293739, -0.019295264845321354], [0.000919720355481457, -0.022313198141374307, 0.002789273787905338, 0.01499574787919247, 0.06939432196208785], [-0.01526894440578763, 0.007926800059451029, 0.02749012891389617, -0.045344541770520955, -0.06218125615847453], [0.017919874111420545, -0.0049248070448478076, 0.027569148846041395, 0.05361204442351465, -0.0018181832149362135], [-0.018414701380055267, -0.05212224382988435, 0.0448607483320947, 0.005151340244373429, 0.025579266349120784], [-0.06038102538049246, 0.027958368312184727, -0.01476151181532787, 0.011786020443071279, -0.004340433634210743], [0.055556505038078706, 0.05781643138286281, 0.04693613769686132, -0.0382886226257151, 0.03077019939578499], [0.03579847731611854, -0.018134907665371, -0.010620818290561633, 0.057374071416963504, 0.018445289802130255], [-0.05871822154473821, -0.0007993007932655157, -0.04208065620072403, 0.08379744488472209, 0.002954357544993151], [-0.06449664241484662, -0.038484252142745055, -0.04290421494835143, 0.013997618243313371, -0.021035221651585195], [0.059326698121492286, -0.02318999409272611, -0.07942232675001255, -0.08471749340652267, 0.06709986199297119], [0.035107730830406116, -0.05135343295196596, -0.0025403263767600362, 0.04352422886919471, 0.03925903063033608], [0.08148472946089985, 0.09583285055225199, 0.04522619915101122, -0.058500073222699206, 0.07232181411989333], [0.07440035974775966, 0.010682483931860737, 0.0788940793412437, -0.10111756519377439, 0.04312405923948392], [0.011224526581607655, 0.006911459047749507, 0.019346967465574936, -0.0539500625821764, 0.04022849805362632], [0.006748266311097516, -0.01221533873356345, -0.0019717231049850245, 0.00934994590037742, 0.03013989081718219], [-0.05097451518676074, -0.07057243201427181, 0.0406310069128174, 0.08009577080486129, -0.011763361515846704], [0.07798459608204776, 0.02440324472376497, -0.05109284922246913, 0.02531327675797697, -0.00460166854509323], [0.028925460582038702, -0.020376244760541774, 0.023521807849777632, 0.004596369063443137, -0.017885136671694384], [-0.03292767265130741, 0.07578033915922817, -0.025250112039805258, 0.09646565691344475, -0.012824319531607195], [-0.04362717029804781, 0.026653332962265665, 0.006270165282884353, 0.021433941886379378, -0.021856460102316042], [-0.01838453879139703, 0.05054112998975704, 0.0010736139513809109, 0.029130535723091343, -0.004213261623079221], [-0.06480011346446268, 0.06628621626332594, 0.012737264457741287, -0.042845713001262296, -0.024856622293543112], [0.018528974741395768, 0.018678774452947147, -0.019078596538504015, -0.06657751209949953, -0.08371088778755152], [0.028669776824974423, -0.040369858215783705, 0.030646726291043685, -0.02216339375177386, 0.04514476825496564], [-0.03541587529677363, -0.014258445492871502, 0.050806984983990076, 0.016670577740197787, -0.016021880637364237], [0.06014821455905751, -0.03249477213768927, 0.002640234422476263, -0.03113528410518746, -0.010649556529781983], [-0.0033108253470147584, 0.03643011205464238, 0.06398319911672222, 0.06768461035069913, 0.00791012249062995], [-0.014684089573224552, 0.017475008319893615, -0.02655442752998759, 0.029317990387021382, -0.018838631546194595], [0.03597597741524512, -0.022477771359392048, 0.045431391998693914, -0.023494111308970687, 0.03788739700010248], [0.02398607853679623, 0.004995331385829395, 0.00830090425072805, 0.0022056947214656986, -0.008059976848715338], [0.02288413484540354, -0.04304653639850342, -0.05054633438807708, -0.03885624128632688, -0.01304052684780905], [0.015935178392795162, -0.010064106992361089, 0.024184761840536032, -0.009674392174077182, -0.030362767638944257], [0.0062939375156966315, 0.020461477692061743, 0.006199907847757215, -0.027957580054924158, -0.07153919200437343], [0.03577921452256532, -0.012011364739868899, 0.052345292407479135, -0.004264930509193833, 0.020643018183839998], [-0.02610085890458405, -0.02547489409091106, 0.004818895078079533, 0.09536136531864808, 0.038423210242562185], [-0.017060965497129703, -0.045447619273579265, 0.05145309728455547, 0.014456845247235575, -0.03905801643304325], [-0.05107121540284158, -0.015467100318952931, 0.046759470607869995, -0.04832245285101149, -0.012130622358195854], [0.04104947198468219, -0.022080955863836974, -0.008842499112561132, -0.017476369834673836, -0.020585797256529433], [0.04735359840376437, 0.08012130635072504, 0.00865146933239505, 0.04252271702605447, 0.10810525723710065], [0.02304731599884819, 0.015128811400802075, -0.0047374563540350705, -0.06312819696941988, 0.10149713664061277], [0.07361198337778646, 0.007364144934952385, 0.1189736222736048, -0.030757782744450353, 0.02756600360097408], [0.08831504837772874, 0.04930125821959794, 0.03748573228194665, -0.075487503439323, 0.0817864670786656], [0.0034682909271048063, 0.04079159451457186, -0.03231988645327654, -0.04384683220795346, 0.020596525358469855], [0.09091964169900922, 0.002429120328169933, -0.10636354709677832, -0.013832292816748946, 0.0453998041676122], [0.021842497444933513, 0.002760084128747516, 0.018113718178532103, 0.03937896732151509, 0.017699831231897965], [0.009378208139804904, -0.04817444763203044, 0.07243364109033706, 0.04729469238150271, -0.020778796843150683], [0.01313478374370277, 0.02532382653030241, -0.0372812174261928, 0.06112991021000413, 0.009689366801733027], [0.030248897461609796, 0.02341129098253024, 0.06849325838681691, -0.01684956815808736, -0.05136755292312821], [-0.03248191274609417, 0.03161481994461974, -0.011694552731643017, 0.08960649089466464, -0.07514722991034042], [0.005183261007030017, -0.014303429759942393, 0.026807972470329, 0.041188104805942705, 0.0012410183491095945], [-0.0015436590374232305, -0.0010592063524806226, 0.007792031715193083, -0.0034245950918038036, -0.017705127667872057], [0.02783668636760937, 0.035705631838832894, -0.005549579302743432, -0.02709802451541141, 0.008696671812369827], [-0.07331926583596689, 3.357883833661938e-05, 0.048158879019297905, -0.07382075053948593, -0.02334133635111436], [-0.02564352607488172, -0.01489054803013958, -0.009734518037040396, -0.036748610869082377, 0.022657572395062088], [0.03541091383218925, 0.022297338364395958, -0.029177298414495116, 0.046694362146052056, -0.033622200554896134], [0.028129268272093867, 0.035708393202749766, 0.05451481682572589, -0.06668246548817322, -0.02629417265768575], [0.05505240047883333, 0.04630016222803433, -0.03424607821234863, -0.04054411403732969, 0.04420435697717368], [-0.04567653503601624, -0.02134547090896374, 0.06856905437060035, 0.008411741515570515, -0.06622474416474117], [-0.02308841027214019, -0.033788661438407155, -0.012573931924659443, -0.010699299643022686, 0.00790775504053462], [-0.03448217065724049, 0.0017130224333101675, -0.017205980263274287, -0.05760463456544157, 0.029405557374859212], [-0.03730042776620267, -0.022659733633610585, 0.07006175403895097, 0.025244470954436826, -0.0015740102685939902], [0.015936638432490487, -0.015126916884346923, -0.00947917672852031, 0.029676501388709517, 0.01817635841792597], [-0.003677241330904042, -0.06206795163764788, 0.02134331013012549, 0.05945336302610657, 0.03689015828677135], [0.024026336988653734, -0.013957935980223815, -0.030030175702811884, 0.006966584211755742, -0.01230918673117419], [0.013106827870506776, 0.03709052874792346, -0.01036049959691528, 0.049607565126212914, 0.01694350525996963], [-0.03297360621208126, -0.04275596746859866, 0.00416381428750451, -0.02580659479624482, 0.04312811034804299], [-0.03696772532498228, 0.0028443028108778904, 0.0287233643776274, -0.11386190722505264, 0.04785836310147158], [-0.00221109883731528, -0.0024146624448059336, 0.019539132572078934, -0.013513787672275386, 0.021746259779545925], [0.03816585750756166, -0.04626062181228112, -0.032498658355228346, -0.03435868914540636, 0.1827115415578785], [0.028683009381903577, 0.00810554312631871, -0.008038341422443659, -0.05079644619130572, 0.08575714548577637], [-0.01838481801295172, -0.07218815228115574, 0.02478474093689441, 0.02779474731858208, 0.05514341027007314], [0.011460297218543915, -0.0033859031746385723, -0.013585170646576997, 0.006232483380682323, 0.05521748975288476], [0.06512072756966097, 0.015139036420172176, 0.04441053468016616, 0.08668762946653265, 0.06572459361446215], [-0.04320435558922355, -0.0410653578816578, 0.058727994353734936, 0.042503310878273234, -0.015305640339961627], [-0.019410031871760113, 0.02691286172108051, -0.038553697060217815, 0.06045004582924034, -0.021418898156586267], [-0.005438930172375428, -0.04547388936189409, 0.006288758851539133, 0.03713251064311087, -0.019386611643958537], [-0.044128872883296484, -0.054617693522806245, 0.005754867704081968, 0.01877534556130884, 0.03049365327872898], [0.015452746390791604, -0.012190970741250586, 0.03468958699168216, 0.005333070835492081, -0.04739038670614842], [-0.06665294895514137, 0.04832893100999093, 0.01081966121414421, -0.0038113470787585106, 0.00940052511774209], [0.023116626544146906, -0.007279107770955945, 0.047684930182446454, -0.022938507383380987, 0.006631701972674763], [-0.08299357621116692, -0.0776442882152335, 0.020099664342284978, -0.0009713961318659092, -0.06344862192945304], [-0.02911466971307656, -0.0611612196546864, 0.018020702729021603, 0.06301700230409459, 0.017915482651371734], [0.01442757157309684, -0.0200573084166638, -0.002822883323900367, 0.014738983674433484, -0.0657972408841102], [0.013486301091694247, 0.011068389172926447, -0.0004752365596072031, 0.0016108874929200944, -0.0034896007426695437], [0.012705347924159012, -0.0023469592832948347, 0.05462575882110317, -0.03140382988059767, -0.0440225568853854], [-0.019401537091327765, -0.037278352074934705, 0.026039104682752983, -0.008825193318338398, -0.029321709831327814], [0.07019857409744706, -0.023792683064500046, 0.004925664951237652, 0.0001080662994582597, 0.01738519006660075], [0.01296385342959615, 0.06042109101546711, 0.019506990108313832, -0.021268347840189734, -0.011762425938566157], [-0.012742759891469063, 0.06350036368929002, -0.031292363404301575, 0.0345953897982678, -0.0592862731236993], [0.008698683054685177, -0.04764929115004257, 0.0026160702653167285, -0.004832253629489545, -0.03406260837422259], [-0.04171213884791106, 0.07799015279390174, 0.03261270304607766, 0.0660736496061486, -0.05932279163315678], [-0.011479036796672244, 0.03538740399949145, 0.0030711790149832237, 0.06438788427235943, -0.0014713481295418394], [0.034233146969340454, -0.055869823704833975, 0.07613965150218797, -0.02494885843811041, 0.03888369803153128], [0.014231783228478902, -0.006416511123427569, 0.03448629901012481, -0.05367574302183887, 0.058712849549701254], [0.03800264804403251, -0.029267193982943838, -0.0020956905435229366, 0.002308403820653483, 0.03466104513475299], [0.000620092431204611, -0.062490880311670244, 0.06214581979249316, -0.04592588825134397, 0.03387435832200003], [0.06646648300697361, 0.011637995655644573, -0.025701116540962132, -0.07260843318774202, 0.05449582015326406], [-0.015108743213381183, -0.000821241707846902, -0.03644239643739293, -0.006888387443562093, 0.022573144806289296], [-0.017451783491167563, -0.04381786931451289, 0.05503147654656657, 0.019701146693075954, 0.06857433450666478], [0.0653864199943747, 0.02500293170615056, 0.015829558850824654, -0.036056760423635224, 0.042022523953072696], [-0.03184887368530156, -0.048650466958146184, 0.028154262687712137, 0.003838712052140026, 0.04795646990570734], [-0.002630649183366222, -0.05488914830158053, 0.017113417648501023, -0.04580518587248887, 0.00180895906285724], [-0.04778823737669146, 0.013949798001749659, 0.011396264878050783, 0.047159141460789825, -0.022888942902934944], [-0.028516078459785252, 0.009302226073533905, 0.030616480332451398, 0.06295323981063515, 0.019256806884404846], [-0.018217612713098966, -0.009859409559078339, -0.04623785371993817, -0.006830206271325032, -0.040849647610219295], [-0.024122281583323343, 0.036839235435236185, -0.018711047828119828, 0.03354261536431238, 0.08554465026901102], [-0.001939136066013867, 0.038451628627835986, 0.017880238041182602, -0.020079002102869906, 0.004051148529060252], [-0.050953945620451434, -0.029791170794899322, 0.05822238993195565, 0.015247139384615128, 0.014135620672935244], [-0.018402317203556357, 0.07355536458923775, 0.024666777996772186, -0.013598511154310695, -0.04709674695268438], [-0.018199466375643656, 0.001516813474041653, 0.02617513439449426, 0.09439710167875344, -0.003247559913848914], [-0.03615821723929942, -0.03440172263851204, 0.02853225528400763, 0.006053274946205884, -0.055254804405231374], [-0.10842221638700952, -0.013954539601570145, 0.00898658967617709, -0.019712568309008572, 0.019528347821462184], [0.028501554140521187, 0.03430976711150325, 0.04418168967205278, 0.0041117293378657065, 0.01806506136851722], [0.003018706717455767, -0.06493178088804215, 0.05652954285497445, 0.09088678524186808, -0.00844225367763313], [-0.08171685032601696, 0.0038675660630699475, 0.01882966032534648, 0.029821987189904066, 0.015672467301699647], [-0.020603257391734443, 0.012723617326741555, 0.0012659288495950809, 0.009800284302775667, -0.009929171659700276], [0.012843625071800313, 0.0624814617767968, 0.0649164418793187, 0.020783932477985732, -0.042035671616268096], [0.056866413853694515, -0.050598220075326564, 0.020424789155375805, 0.08212809514120492, 0.020437588579722485], [-0.07015250436169444, -0.00832507063280829, 0.052289920194794434, 0.03752071168576836, 0.029524302042180026], [-0.04600872097634626, -0.00771846395231901, -0.0412641826504369, 0.013153379184383569, -0.02860110157539365], [-0.04860994853994086, 0.04020079569222082, -0.04234165974170757, 0.003018549897829158, -0.015592876817261568], [-0.02957933233303191, 0.021553805782323417, 0.04806479921653114, 0.008337358047000365, -0.026211171672961386], [0.02135465457280503, -0.04325349216824615, 0.07546522642698116, -0.04606856984219791, -0.011447766848013184], [-0.008481683867594894, 0.04797464888195617, -0.02028946307761033, -0.0647039700444431, 0.013262723835719905], [-0.013864682936326221, -0.033598230795895294, 0.024081048754831733, 0.04394314482737666, 0.08930349526856574], [0.013132768583822212, 0.020696957129549127, -0.047904657413596584, -0.044616646701731336, 0.013713580516862245], [-0.07147307586063462, -0.01502427434550706, -0.03451177943073125, 0.015245057461067036, -0.03098384919954752], [0.04179549753903721, 0.024078123142757438, -0.007424945566764233, -0.014271372909340024, 0.003512137860951437], [-0.02399784366405648, -0.057579420240036434, -0.03648396347922099, -0.08175568984747962, 0.028241095774153104], [0.0013091147874543325, 0.03257992253891904, -0.008219850635565495, 0.039234450781327056, 0.011583244962791846], [-0.005133710934358537, -0.016553720572273035, 0.028233036636611992, 0.06980952185259773, 0.015163580466890592], [-0.005589012487196431, -3.6281403324253505e-05, 0.06789887485467636, 0.0016012170294147508, -0.03932022772650799], [0.018189282564013982, 0.03238264987896076, -0.03215907086338922, 0.039085407450804716, -0.00619041627624218], [0.005832371999465799, 0.016422597199690567, -0.004001177162771923, 0.031252395794951635, 0.0029006445893732485], [0.053967516280961456, -0.037043175531795085, 0.0005381943769034141, 0.05161721338621886, -0.02128055977020964], [0.011959202334114275, 0.041801967374728015, -0.030825038962937295, -0.014057281202501855, -0.06417309905574088], [-0.016993499169084145, 0.03416661179924564, -0.00023387042958730787, -0.03832897401241781, 0.016876300103425865], [-0.025984232586197226, 0.0038290736972332222, 0.01107963502654223, 0.012381146396475706, -0.006989370076140432], [0.03200258801469121, -0.024873415135530288, 0.05224945093566787, 0.010147478257140167, -0.03083684806300849], [0.045783267762679984, 0.05048773435856584, 0.026408838015947077, -0.04495516089776449, 0.012162019352736543], [-0.053206739371229606, 0.011877292310354769, -0.06927658039957983, -0.009249030311048354, 0.02372548228891109], [0.0032284330369915975, -0.046482198501753065, -0.056148943075562265, 0.03892691025091278, -0.018997694312414676], [0.002889084401325715, 0.05443842961227367, -0.020718459490528477, 0.03433541285970232, 0.02125663616658771], [-0.004724816980648606, 0.006524969329708905, 0.024400318220021425, 0.017829022540934863, 0.03424862577189592], [-0.03728722349816237, -0.01827067192283513, 0.008641162854165626, 0.0323135967656442, -0.05669942691753368], [-0.009984721647893314, -0.0015144072590035065, -0.028652400438014414, 0.0807918977127976, 0.008275651772209206], [-0.03674794627220867, 0.004190367137591352, 0.013827550366637626, 0.02196978141620005, -0.03598416809785194], [-0.018397072671199045, 0.002318803901269379, 0.04160499665203253, 0.04003147505358262, 0.016674998368948278], [-0.01050208033499192, 0.05910042013420823, 0.017676882704483893, -0.042489010892884406, -0.009585395736774726], [-0.007622944198032654, 0.03230571850686489, -0.029177798154271826, -0.04925075717248922, 0.044514772683844774], [0.013442309097860454, 0.03298034839246537, 0.03590376757642723, -0.06021470106115449, -0.027873709516824767], [0.008139709756999285, 0.0035073938132134533, 0.027573049780609062, -0.052408295505441654, 0.019074712515854134], [0.007331694630716143, -0.03092563256773428, 0.039551799243788294, -0.06067948321382182, 0.08010694643631062], [-0.02710483757147525, 0.013593760288919576, 0.024557785259574492, 0.05597171980809429, 0.019219728877498232], [0.0428229396566879, 0.020385503493684936, 0.03411575690683036, -0.061376484334769325, -0.007853400645731744], [-0.026823133907084837, -0.057831693142087755, -0.038641452506730206, -0.008186728978258319, 0.029966948164378084], [0.03482040394149609, 0.010949693881463643, 0.08797417896183589, -0.12013998496387397, 0.0049797556867822645], [-0.013784140312591113, 0.023370944590011305, 0.03608917772719683, -0.0034228484004388787, -0.039812102950297], [-0.053834654653570665, 0.029407367582846927, -0.040065776576112246, 0.022142189924458065, -0.019699468650808204], [-0.03522329756713427, -0.058636682418202114, -0.06816524539361071, -0.00131361447521211, 0.021743632095338448], [0.006125025581313586, -0.07647794366085411, 0.010248550226928645, 0.017650802751867808, 0.005984552874614117], [0.006565988658347432, 0.021816724825458298, -0.08283499127313737, 0.01863092029711685, 0.0355046262697545], [-0.06250877354137538, -0.009852535357222365, 0.05042879341963318, -0.027054896250140376, -0.04336455266004367], [-0.02764933750373877, 0.01372834417331104, -0.02653577983512483, -0.07948851033693621, 0.06784635204408439], [-0.021851526981676875, 0.03706941254932583, -0.059115025495150436, -0.06210131016052565, 0.0041445042916392364], [0.039258333966812255, 0.0007153809750786176, -0.009485902541815014, 0.021535935799451313, -0.06992717233340982], [0.025415251953132385, 0.014030213465436755, -0.0675924742194369, -0.0047718654011691414, 0.013912230180290188], [0.07302069744427916, 0.0018720067705337816, -0.04155511221219406, -0.0005273881519967655, -0.019969003089427426], [0.0034851068388714905, 0.0406881633956, -0.02072007510853327, -0.023506182000582857, 0.012084835264765077], [-0.022271185699866528, -0.06474431274090757, 0.0645967235831525, -0.003285608342667444, -0.006290608035051967], [0.043860474819777374, 0.026225045934429717, -0.012530440879619884, -0.007990691923178507, 0.019814259281012152], [0.036758908456764584, 0.05361359467971613, 0.014001464997240054, 0.012867251404756072, -0.02753405830130068], [-0.012629781253093319, -0.007875900969081346, 0.0068984789598910915, 0.05137944589892101, -0.0033775341426011424], [0.025038536899553515, -0.02511202709239962, 0.06919873666350632, -0.030086039508001722, 0.09466941492840734], [0.029668557424234854, 0.018233086147176416, -0.0425545279118079, 0.036063636613022795, 0.01612687419708667], [0.02847550618805282, -0.019824583160562213, -0.024972676318921624, -0.03296119738459107, -0.04030135583197477], [0.020553117968318723, -0.006249233243791816, -0.09800293185266842, -0.03066818433516102, -0.023756168996165512], [-0.01766089248542341, -0.018488466545377776, -0.021355104024325035, -0.0028201741265419626, 0.028822240406167942], [-0.051661951944135295, 0.0279015338845941, 0.05148841996563785, -0.07061081011406431, 0.02887282693659282], [0.008364842499197885, 0.0007178789042656073, 0.05746500038491108, -0.06647870236958123, 0.030049791703063326], [0.03247500254235721, -0.01119242112120677, 0.0628097105410988, -0.048532330856260575, 0.029799388692110705], [0.04958145885398393, -0.023106645959422006, -0.008332054062436608, -0.0046727072932853065, 0.022651944221267106], [0.010967435084676269, -0.02424808322307137, 0.06292981520910211, -0.08812467932609627, -0.03997146414906822], [0.0043156168015989526, 0.006352213076939977, -0.01522738695737659, 0.02083346312331429, -0.020258936725622956], [0.02944056588622621, -0.010674136779207435, 0.010046754243387858, 0.00811659173177415, 0.06263414931650092], [-0.036449679963615186, -0.028123358681095202, -0.03596082900164684, -0.026140084181867963, 0.04799385017449501], [0.024204314544873352, -0.05431823394777794, -0.014443602328942066, 0.03656144197490441, -0.021749891028882452], [-0.024345333973031413, -0.05012815515653686, 0.02499626577219864, 0.030904074862000364, 0.06575452357026108], [-0.016847434172204887, -0.016558832268800228, -0.006314291225106367, 0.06509562191979527, -0.04915515003619522], [0.019984907871866395, -0.017907713613699656, -0.007110708653562834, 0.05130652947354126, -0.007336117554680398], [-0.011354083741689386, -0.006459133516192849, -0.04070582401240439, 0.021404224697114952, 0.027467838354682125], [-0.06609192568537392, 0.02482478267100546, 0.01584221923728579, -0.05127323506913758, 0.05927740000656484], [0.0317795060197047, 0.05574044508907581, -0.07460122079937498, 0.041123118809495235, 0.0014618666440431385], [0.03218567312055639, -0.041830714169858216, 0.08781830180219086, -0.036074387227025176, 0.0342902473390627], [-0.011228050166610631, 0.03927099827612684, 0.027039259983674662, -0.007078929626718122, -0.06581321185150303], [-0.0012626642713154048, -0.004972415341403686, -0.02036426313747191, -0.04580001861077654, 0.048053192670299893], [0.060027460089794135, -0.05112889053209275, 0.023073716455800804, 0.014418294278604334, 0.023014792434669612], [0.02588478581666215, 0.004332748191886806, 0.022551811561217175, 0.01664333813649118, -0.018220093967088263], [-0.010651121531668117, 0.05377368552755575, -0.054789978883666955, -0.026779639868994273, -0.044162707533739444], [-0.0011897794410181274, -0.019528128735929892, 0.03836681515845339, -0.03201369502355619, 0.001550855719441247], [0.006068228577670563, 0.07209770724964665, -0.015010013339692551, 0.11383854986189396, 0.02936927652060108], [0.03658585853262323, 0.023548669146921525, 0.02210412688795314, 0.032592653949729766, -0.015566527716324913], [-0.07172932997086745, -0.009763311938874412, 0.005922001763011298, 0.0346435600938787, 0.0028563813122645804], [0.012339036938164792, -0.004353570738420743, 0.03544319793355954, 0.0018072605287200152, 0.01280676023173566], [0.0037191564858756617, -0.02232346903071421, -0.02973598868966544, 0.008194354629921283, 0.02372604949686899], [-0.006320116312689436, -0.04011271688317625, 0.05710840790790596, -0.018499580591833865, 0.0299743387685466], [0.03212222629492978, -0.021896504324318236, -0.03800440547819287, -0.008410171353098957, -0.06789493120039856], [0.010082598792852181, -0.048652221148104205, -0.01491977159584811, -0.04100910090384497, 0.010607725209829952], [0.01834840866757554, 0.04219605031404266, 0.03249423804353871, -0.0424565025170512, 0.06263533488097749], [0.028803336314949173, 0.016925174965347647, -0.019007413110577857, -0.005004502659449881, -0.008688056543321714], [0.03812746493822691, -0.05608246573756697, 0.018837820900576237, 0.018441229393241103, 0.01202455143253662], [-0.011259897398985658, 0.07050118369737018, 0.06923102821333603, -0.029622965625265736, 0.009751275450130988], [0.02882001540883887, -0.06147733739520651, -0.051801169248087156, -0.025823900372095317, -0.0392070126790277], [-0.024945940592365757, 0.02939573424168528, -0.012841906723181633, -0.003371834793610365, 0.0026532867601415135], [-0.0005297390256990806, -0.054272974381580484, -0.043713633376264605, 0.06879640812825243, -0.049026390926262785], [0.03826192532959289, 0.008962904479269925, -0.015961481591073665, 0.05521650400939678, 0.001326374136991409], [-0.02896238763803769, -0.03185748560325309, 0.06379831171426753, 0.09258056666162973, 0.019025170767965303], [0.03229648161451829, -0.020862773919657553, 0.01975831896664223, 0.08742773868934582, 0.004231247570664172], [-0.015572334568239733, -0.009256276222597414, -0.014086858929801906, -0.0006954473971352079, -0.022686840827312215], [0.016472703056237194, 0.05388488993298027, 0.03614766717295619, -0.00839961282213237, -0.006703205375489707], [-0.06242145084888741, 0.021040558204853576, -0.10677073618518554, -0.006098090553180161, -0.0003516628735694458], [0.044486478449541594, 0.06492661880709032, -0.0033250990341000177, 0.01825955660548306, 0.0319309990726665], [0.018892082079389246, -0.04369804351217469, -0.001737346613358748, -0.043130493706214426, 0.04162689266438551], [0.01757678578482449, -0.0740821781291442, 0.004779888437195818, 0.053642387099720565, 0.03985705955884473], [-0.031572767400415085, -0.051720764519227594, -0.03742004351548493, -0.06037685785761914, -0.10916017011688689], [0.028880192729716182, 0.005878869181301892, 0.028083759581122456, 0.010284944212561395, -0.04797428948986178], [0.013533709226616073, -0.07474991292235908, -0.0107012006782206, 0.01741547129486953, 0.0010661234138816895], [-0.012052403679212908, 0.02210679222684288, -0.006861465402076405, 0.04010760860221819, -0.03440167025902712], [0.026339771373945706, 0.05793368987242418, 0.020799041163369145, 0.010340050251534907, -0.024539541195218062], [-0.042201499242411004, 0.012010074454871298, -0.018909644379993994, 0.038453718596377355, 0.024839901985545948], [-0.05996860909714523, -0.02099119880277385, -0.027690588010808568, 0.12931280191514205, -0.017557521188609385], [-0.001980388568508967, -0.010980812497176052, -0.031801279229293405, 0.03707334886483023, -0.049559042252740625], [-0.005778877113233562, 0.015533558864290932, -0.004164536059033754, -0.0012474490585598712, 0.002828028167264639], [0.037532661413426226, -0.04257412247041115, 0.015099623435438513, -0.023777491318988275, 0.07589889113042121], [0.011910703017517106, -0.11127816886961936, -0.035570325510571175, -0.007922584697792457, -0.02402098288746908], [-0.02132713996903879, -0.025613916781105906, 0.07124405416349011, 0.04923731594609702, 0.07691446085949354], [0.08421320561480247, 0.010060318863575314, -0.008646336900850085, -0.0034868142490055896, 0.024575781837131026], [0.01100869920067335, -0.029885706376998014, -0.0349806591622629, 0.017558017881736384, 0.05709625130389439], [0.05952800097497637, 0.02263623153149394, 0.03558310227799709, -0.02323181529135467, 0.04915364159690725], [0.07267425946443574, 0.02738472154853079, -0.012223737587418019, -0.0586492582870399, 0.03606690749938839], [0.0030591455574694587, 0.02233912246112978, 0.036671612112542086, -0.04043943819213461, 0.05964956822501986], [0.012230458816848791, 0.02442720026349717, 0.06720383525743462, 0.002184060443383624, 0.02427480801092292], [0.05080806558174838, -0.053036262870926484, 0.02432640057320782, 0.011195826420011672, -0.001872688919377778], [-0.014040569672281003, -0.0027058540864486873, -0.01867362616214365, 0.06556751851058741, -0.040903792519267915], [-0.0397700744468821, -0.009218697773493323, 0.06161436399669006, 0.03149291705780094, -0.021397384372707072], [-0.07301524871170803, 0.039738416515401456, -0.010837562864385386, -0.020460257311316753, 0.00917526622175576], [-0.014760858361611982, -0.03344210308779983, -0.03229448791713797, 0.011845756132780829, 0.04162158586546025], [0.010141086909779733, 0.06102643052588802, -0.034143801589754136, 0.05560368588373916, 0.015931871068118105], [0.01456893260987317, -0.004715795056798764, 0.013402800230888474, 0.013550581774265205, -0.001183520290656283], [0.015694683191242908, -0.034502749327850496, -0.015280395379405114, 0.0010831377504422293, 0.1085695916457115], [-0.03760027288253825, -0.0947754094770719, -0.01970562371678367, -0.010730077320915946, 0.01579873555376801], [0.05355572785066093, -0.017771349474487413, 0.0618533766924438, 0.08193185965362397, 0.01125590372500158], [-0.0038553456503205943, -0.02425785091513717, -0.016546341464590372, -0.011791184849373762, 0.01464636303784679], [-0.005938331677898864, 0.0007033540912412946, -0.021168428281186574, -0.010360792351938715, 0.024329987002289662], [-0.03748818718335919, 0.014858926960209505, 0.10152507692256894, 0.03073800058851364, 0.06211600555467338], [0.02880859107003788, 0.01662219294833199, 0.06686981744407569, 0.0004925567114556761, 0.007720833819076106], [0.03895914422056655, 0.06834736397474478, -0.013767444327932534, -0.008159159834795636, 0.0029024242848066572], [-0.016780135816073655, -0.02006892604859631, 0.037853833663795064, 0.08301333982175826, -0.050706559720187706], [0.04643550045824714, 0.015885166100821923, -0.019640503202267564, 0.03666003498220036, -0.018129754655656444], [-0.009431764194841425, 0.025996312413002633, -0.039530100375163184, 0.035172066620096885, 0.03679529995242293], [0.010651092409198069, 0.02521999491200654, -0.1125593379503784, 0.00827099122615804, 1.5021559483175957e-05], [-0.006033352768117498, 0.055877173934182546, -0.08013423950468888, -0.015752886267943658, -0.08094513789160908], [-0.0265879205505835, 0.005950525000852007, 0.024751293919139824, -0.048301817208248596, 0.027719163835461073], [-0.002063986038469607, -0.027453450478450804, -0.007840963816463153, -0.06351015728150264, -0.04469605444568092], [-0.030378711329251264, -0.004680385889630997, 0.027561018709778097, -0.01922091656228101, 0.06906800507352587], [0.04701583456991189, 0.037203075597727314, -0.007073586904703272, -0.01911611375489502, 0.07837226180841338], [0.03011532510820992, 0.024483113620437834, 0.04672439074616332, -0.0007588487008070391, 0.041176182177833524], [0.04084488579856012, 0.023567507302786773, -0.050799696483467105, -0.011077066335462238, 0.04944575541836503], [0.046173497758199865, 0.02310857804366207, -0.011586286327452809, -0.060725965218546354, 0.04425000476254189], [0.027724780727057717, 0.08459277296742064, 0.011574377962766714, -0.00572063466576352, -0.00017228161832484563], [0.015353047768148092, 1.1840318217937105e-05, 0.01888793504208571, 0.0493820503105541, -0.001966654131160319], [-0.011690753978600857, 0.019604730875129567, -0.019031280227784168, 0.08405597911739665, -0.060970205550304156], [0.010915902896201882, 0.026203800919987388, -0.015401811935170243, 0.05852344350365312, -0.017360926543292767], [-0.0338907376446279, 0.021940621075513946, -0.02645747817735901, 0.07419160112950096, -0.025372801271866204], [-0.01762835099161205, 0.01554617229239383, -0.024406609595048496, 0.00824858630139758, 0.007797811450971863], [0.017262928162417774, 0.03870509120543297, 0.01992198400049712, 0.01807559960551283, -0.010703673403916966], [-0.06298369188253752, -0.005301054912189483, 0.05249836582278547, 0.032198315026866486, -0.01623103350253276], [-0.02910176785801513, 0.007723369065836332, 0.040357196932338954, 0.07416874524614847, 0.03753066967384145], [-0.06430090682722313, 0.0021718628736186033, -0.0127716058324444, 0.0301998611011021, -0.04351055847023234], [0.027931361715562764, -0.020715801435821874, -0.02856768448004809, -0.060338282934655, 0.03999188463675072], [-0.02353637867880252, 0.00392831759040654, -0.0042201188196728055, 0.01794525937650233, 0.04078653601115739], [0.02667662799293638, -0.035830504426389555, -0.015109517098801059, 0.036637638578140126, 0.04116553409949437], [-0.014876372452552182, -0.006185831684252914, -0.001524201878817688, 0.008791570512936124, 0.04239463872230391], [0.009585771223262252, -0.004706978789022103, -0.009417170238393292, -0.0287014285554524, -0.01922085634842342], [0.03577080036631623, -0.06404806520550664, 0.05585502196607404, 0.059780894283515726, -0.00977491465862513], [0.06220056299481356, 0.01569940282464553, 0.015186368975407604, 0.07431370055790883, -0.028147831616776302], [-0.009206940144256172, 0.014137884823644366, 0.05596676142776179, -0.025650591606315432, 0.028168348865504986], [0.024994323533730493, 0.0012229406263149808, -0.06300110712074215, 0.03121627730643704, 0.016685223024051447], [0.06385284484175482, 0.01897725936538413, 0.004555150363290836, -0.049063534210435515, -0.021843447737819616], [-0.02027653298642873, -0.012926266639924518, -0.02462906511873525, 0.022882060740269917, 0.01785245740130211], [-0.03425202555626248, 0.05251280821261656, -0.018378755544611804, 0.006753666772023452, 0.028632659782178285], [-0.018398071930260784, 0.011382974782263083, -0.028720279154115364, -0.012007211720399287, 0.021603110190289623], [0.0015945494454830131, -0.020172963207129746, 0.10871060067087898, -0.05222111133950442, 0.043897573065723436], [-0.008437254130052068, -0.036121078368381236, 0.008809548640476872, -0.0006364763824830056, 0.05594648748420861], [0.021120278782255527, 0.07226158592101672, -0.01317177188055147, -0.029037059302324388, 0.021587564018138196], [0.027398849162131197, -0.060237644629679135, 0.07603598031410813, -0.012499119601905914, 0.013431416099750938], [-0.04714859898211859, 0.02568930214880012, 0.03610300379307395, -0.07060110840732964, 0.07289980282968256], [-0.021797432084464437, -0.007065726572580912, -0.04357062165621665, 0.03595438116980173, 0.033412761471009224], [0.014537779209078786, -0.029889963716044868, -0.034795475905187716, 0.023391151792781787, -0.00017845924053620164], [-0.02434115568173091, -0.002678692604126194, 0.05231054219921027, 0.06979613731059296, 0.02363617960570044], [0.013163271183706459, 0.030510879492384152, 0.022134106004676465, 0.028784415024662405, -0.0006162698558758776], [-0.015670611672759488, 0.0033801413423426895, 0.04078269495043728, 0.09184537950218404, 0.0470954214540717], [0.04080047866174583, 0.029248028695646237, -0.03711789794858281, 0.025712132080853094, -0.022966624982221517], [0.08910617464830185, 0.0032735635872534257, 0.04232149624835019, 0.031847047822891265, 0.015354417545610143], [0.05185067923252667, -0.034067040719613625, -0.04428524982404959, -0.05346778596189898, -0.007366046761689187], [-0.04811884753279024, 0.007248160341870156, -0.03711215204259764, 0.01299196389983186, -0.02458957819926414], [-0.006801646041433954, -0.012853877025704091, -0.04414581099606778, -0.024471726521895172, -0.07654181471751001], [-0.018247531508267543, -0.0017502023509034814, 0.03407050963631356, -0.022329624714863817, -0.015246462412681658], [0.00389938600191867, -0.03065356903205479, 0.01947255713301144, -0.02265543327669066, 0.0012121515734673928], [-0.04683752299245697, -0.04387499037556088, 0.02201433209676493, -0.00651029544112494, 0.06690576690590351], [0.052650314990892566, 0.008627161903279931, 0.06749442987719725, -0.006491165256861197, -0.003075496888427377], [-0.010235662290466432, 0.002257918728327875, -0.016644539452410057, 0.029903684292799066, -0.03004547610980768], [0.0051360758104973874, 0.03414134887440043, 0.07973987068762325, 0.007647592160952214, -0.0041747563250813325], [0.0018439559405622214, 0.016201536500549944, 0.06528810158437325, 0.0461633279338526, -0.00973904382569048], [-0.005436647021985474, 0.02207086698779444, 0.004921977560892527, 0.06395254098415279, -0.06107216238607342], [0.015611642363908638, -0.030091369429204436, -0.04981659613089245, 0.07561439674221146, -0.027099729439526953], [0.057928220971792004, 0.0022363973825477784, -0.0003127954895093055, 0.04544180865099289, -0.027081459514712004], [-0.0027834369802410552, -0.002573937181075494, -0.0030942983323968705, 0.00861762244409679, 0.03835796981914021], [0.033210255090353975, -0.035840401990003226, 0.026959095620629175, 0.008471433597480309, -0.06635950240239093], [0.024487213590836405, -0.05527328500059561, 0.008087354501320284, -0.04279576086207451, 0.04795658256894886], [0.07586236873142779, 0.02405082094721407, 0.004491659965554506, 0.018011433476151122, 0.06752239521948444], [0.10090362792023871, -0.03981621172560165, 0.05180366334713056, -0.05838553321629814, 0.04463359857086563], [0.019257210949741737, -0.018989450635439987, 0.050715763601199414, 0.038183557017630855, 0.007504742453757629], [0.07510743358176629, -0.004153748816800942, -0.0002811051618224686, -0.04990729296794284, 0.03208200673489212], [0.05643206461774633, -0.03100892652821449, 0.016640436966951416, -0.051495691145350166, 0.02678318220967752], [-0.0013863295856166573, -0.03695346324323708, -0.01096214436321261, 0.04524536166031846, -0.003695329582125478], [-0.020449597363326723, -0.0403413896289209, 0.014796479084403086, 0.013359277391331355, 0.025264373031632176], [-0.0012049330564082193, -0.022816768477631828, 0.0005013367774304871, 0.03843007947471555, -0.02705285527180577], [0.07278551254352483, -0.0014763689590053242, 0.01538781647649666, 0.0127683985409343, 0.028396194066746826], [0.056329506679804846, 0.06680453421091068, 0.04115083670953301, 0.06074169070758501, 0.010467204142919009], [-0.05500945653166306, 0.026204460888322297, 0.012452778785151612, -0.0080194975711287, -0.0484620085912192], [-0.005324404624807926, -0.002067810200717154, -0.016613381009131456, -0.04656451750556275, -0.0042693153780203495], [0.011903399110698897, -0.017128329338373743, 0.030530354685635516, -0.023156022534620027, -0.048481396976288275], [0.025487105176281628, 0.008997575618158258, 0.03516120917700682, 0.000882505681012574, 0.034575657184510465], [-0.03793206159823269, -0.02081709965406287, 0.005046627448986896, -0.08808619603536351, 0.0016471209447075357], [-0.03414656929628128, -0.02225522474654379, 0.006475862448644892, 0.006431796360365851, -0.061007086004047355], [-0.004246545653946969, 0.04189558278770352, -0.017680592389950005, -0.01772934169233987, -0.01071176404303427], [0.01602703962137027, 0.02062079264520536, 0.007254649590538867, -0.032444100608323416, -0.03324876714046341], [-0.018395850993709585, -0.0339255828576786, -0.014095845007411147, 0.054749093779573106, 0.01337075940413804], [-0.025352041508746967, 0.018677315515982222, -0.006278037765826741, 0.08453638181745252, -0.04563509750940091], [0.04897799113027347, 0.04215916295985783, 0.05992822645977944, 0.005156021909175115, 0.0003170785575968275], [0.007942555295145051, -0.00746698855100009, 0.0006263196837024576, 0.030563205079489057, -0.05015484251681465], [-0.0300139551420432, -0.027623062046591446, -0.025103975173824646, 0.1304062976754232, -0.003162488019203314], [0.023015547002531243, -0.01859133605525932, 0.014302010480952643, -0.0057089484523642296, 0.015631567525739545], [0.020842246993841393, 0.006141634866719723, -0.022706395409503533, 0.03473432917789993, 0.005946899061576574], [0.04066310639284688, 0.006239167812693834, -0.0011620829977924533, -0.03164036039422631, -0.04476758355033929], [0.04917380528108813, 0.036388239792111074, -0.017105457262323764, 0.045449001126162944, 0.041483658655858104], [0.00919942856050736, -0.07728812223522952, 0.020862587878394224, -0.0269705951330653, 0.05211359197064884], [0.029419730122480926, 0.025444828395152823, 0.02430452457884064, -0.0827151387076896, 0.09257254286223614], [-0.009020650067700836, -0.024742832536008428, 0.023802310019483835, -0.009349420108539841, 0.10993990436306877], [0.010500049876617942, -0.005574959225246642, -0.029219234765286276, 0.03030033067750197, 0.0934523893312896], [-0.009090266301158908, 0.01418715439361612, -0.03539267249603271, 0.01268148824410889, -0.04272199595510957], [-0.003617804712941092, -0.0541139129927993, -0.03492269258859335, 0.028151620154303236, 0.0002456578377914637], [0.03429089870657179, 0.01605302976911554, 0.0301709126845733, 0.010291838785450608, -0.022129482112796302], [-0.04128011137976257, 0.02628406847555245, 0.06469357939615868, 0.09291754319893171, 0.02843390086170461], [-0.02906193774414968, -0.027964445616890557, 0.005559938496723997, 0.1002407269295166, 0.0646975443700422], [-0.0398103680998871, -0.014936047342075032, 0.11312005872378146, 0.09847911475111722, -0.020027108585191664], [-0.041667133116870106, 0.061798121225045695, 0.029227970058378575, 0.032728585914673376, -0.054681490951641154], [-0.0244501221064551, -0.01476382854100314, -0.07689483968991777, -0.029353988098179698, -0.029767761423898944], [0.003862110954977238, 0.03340844510320578, -0.0036264565143659575, -0.015530031819284001, 0.012361376137044806], [0.01374497595855754, 0.028982767216350118, -0.025751711618710146, -0.018672395431734407, 0.03386671482174612], [-0.0005669000905307335, -0.052463597229052875, 0.08157749571276894, 0.003799145998257205, 0.007401806338515903], [-0.02708670400946857, -0.03217711397021954, -0.020171524317925772, 0.04733830713900839, 0.06564089273565714], [-0.006547996491405362, 0.0379686298505549, 0.00027975776437258833, -0.05624731589675228, 0.043849723962934774], [0.0020925604064586266, 0.032809676536718284, -0.02108599644151123, 0.004723157441273349, 0.04082723778087277], [0.02338624935260207, 0.03755734179762352, -0.04008428543046137, 0.06249742150925333, 0.007242902882672418], [0.03981296460861412, 0.03248554164209323, 0.013231030396025375, 0.014576466182881779, -0.057468639296107855], [-0.003470266628347011, 0.04883678085483207, -0.005726096263989698, 0.03509215985241384, 0.019527974141506827], [0.03017270690856348, 0.012587866564019194, 0.0454834085396096, 0.003515957847054632, -0.06245408886025611], [0.0019317809623854774, -0.012399086963309863, -0.049920061054155085, 0.07278733966868808, -0.0525813748484302], [-0.018601244781924164, 0.030526593032605683, -0.059634897877850604, 0.07728950444108493, 0.028933467368816686], [-0.014266435207535977, -0.08736285536617111, 0.05092411968361317, 0.08279580418562933, 0.01473344977800818], [0.002285268092900016, 0.039148266641802806, 0.031172663927182213, 0.01367693112599588, -0.07771381684354448], [0.02828198052503937, -0.04614844725754484, -0.01996555742863725, 0.040209489269145596, 0.029754429379226864], [0.024785703591821917, 0.00880735742549436, 0.026416165224426875, 0.02360618188197757, 0.029374105440305966], [-0.0187430253671889, -0.024209027717088938, 0.020066429994475336, -0.07236687552284143, 0.02740378241655568], [-0.058990992073442626, -0.043737621528371184, 0.029416780655663808, -0.0305471071814858, 0.09683989141281678], [-0.01629619755662531, 0.06728815459092974, 0.013322054501300428, -0.07684687454917483, 0.15012515532659876], [-0.05899395463367491, -0.025129199193911964, 0.07391295878404536, -0.00964677881303812, 0.03233824019510706], [0.016160629581840284, 0.024150100203240533, 0.007934670312814723, -0.032530583973589836, 0.03400409851113894], [-0.020002281518342317, 0.011099437741613694, 0.048630631777623674, 0.01927002370756489, 0.04339669658849288], [0.01820432921512496, -0.0054979470090331705, 0.04434327173298621, -0.02436065908810792, 0.0234056839428911], [-0.06076423033722523, 0.04130172079883781, -0.07302429327082519, 0.07588581111278467, -0.031295478260971905], [-0.009067038331907449, -0.014066848691767206, 0.0179286807364925, 0.05580838239476298, -0.022902026465667306], [-0.0460292119838, -0.00777885633029386, -0.007108176929953956, 0.053070985108787896, -0.027741472425051206], [-0.02494469864368616, 0.04386562439656299, -0.038202501055304185, 0.07040511259028984, 0.0008417461573864886], [0.02425117410667735, -0.006137928588822422, -0.06125132846077965, 0.0033191094278240303, 0.02659530922432152], [0.022674453489291976, 0.06051388792254148, 0.009567692788486707, -0.008284046100596661, 0.040426921740993785], [0.04336494240481931, -0.011294998804876681, 0.06741785787923257, 0.07920484857563292, 0.0050810803145080775], [-0.017926756918521806, -0.00466884001930542, -0.033277810631358234, 0.026560188077183494, -0.07786716407490211], [0.004806396423220049, -0.03147363004756889, -0.02829173871098808, 0.0051888112625060375, 0.05313649906290423], [0.003381141978576945, -0.04170923957637194, 0.0015731661913971472, -0.009174519709140015, -0.004755896825829519], [-0.03435662634586758, 0.021640988403834802, -0.0011456236693246909, -0.0360753972134314, -0.04242957958804218], [0.042330253654690626, -0.03738476274446879, -0.031948160309509185, 0.046596071674301465, 0.05836418120614741], [0.010636141984509859, 0.008821546646399836, -0.03927540422247057, 0.03125082164737965, -0.038875693716385565], [0.03292190664972622, 0.029199264634538088, 0.044066693569383864, 0.0045275779793561895, -0.009254727213235564], [0.0320442350843061, -0.00667252574622396, -0.018722326716697546, 0.05318180331493857, 0.002144430066929899], [0.03825765433981684, -0.019024902513727078, 0.012240193061865858, 0.053571731258208896, 0.062196380384426785], [-0.041953268107753613, -0.011664434015873405, 0.021880714564726834, 0.023031138550133938, -0.023612954358752783], [0.03355866161049291, 0.019012279515576814, -0.03224930346980976, 0.06735124635545434, -0.0034008730647466455], [-0.017394182746378547, 0.04605189893806337, -0.009351572584954953, 0.0630816932480713, -0.03995578924398898], [-0.04383874551041286, 0.05644369662223279, -0.04059780274312745, 0.003020138269570494, -0.08266194062794685], [0.06379557250661592, 0.04191854948791418, -0.018575955537526036, 0.0640958345427699, 0.09627792277297388], [0.025213918049177764, -0.021744653267837304, 0.00026017089198178563, -0.0880828143738689, 0.03030246626285595], [0.01607199110163735, -0.03172442132778813, 0.0038833219426361114, 0.0019396485145686472, -0.016628518193712746], [0.0860278144514398, 0.013615042228226314, -0.010262010387516703, 0.03586480997846173, 0.043995138372113454], [0.007376380169501581, -0.020732808024041177, -0.0366708446806122, -0.029314564179520303, -0.036907926707641675], [0.048705632019007225, 0.036212919099329305, 0.06679549613098042, -0.005395878107478791, -0.006866846282237622], [0.01784568392300551, -0.004566798558665211, -0.03148385334859318, 0.007607353051610016, -0.048743386337665714], [0.03753345070873939, 0.08199442181819311, -0.02205310908485087, -0.034216209216175845, 0.001480293670843112], [-0.029004594286748512, -0.0370956551171462, 0.03311389754163916, 0.049402849331526236, -0.03709649560223125], [-0.06457075583053985, 0.014413399657009305, 0.025582361857949733, 0.10277996594633425, -0.01811265877141201], [-0.009920999214436402, -0.00043131490747171103, -0.0821496534263965, 0.033972268477693204, 0.012723702674108694], [-0.03271094003620562, 0.01601045034266113, 0.0228223596159851, 0.03336221854505506, -0.04755100948208798], [-0.05229239134399404, -0.014020633335077325, 0.002917615668750011, 0.04696322098632928, 0.004758349146633385], [0.015462567475990629, 0.0015052860256027773, -0.057607555835900104, -0.001754010991844529, 0.01578079386999439], [-0.08958430686061719, -0.017891094299073006, -0.04856668041387126, 0.006069139571895304, 0.042425809053953094], [-0.024510234960373734, -0.008622947044177815, -0.016189539533051536, 0.09233274122948773, -0.01798529483621681], [-0.030531552537399892, 0.09533248949432978, -0.02906979655670066, -0.04697447992032061, -0.02521756297368526], [-0.041603423269245, -0.020188395767738943, 0.011879963982147121, -0.015140569366464423, 0.041101936659245206], [-0.100880618078822, -0.028374206719678607, -0.00801278814084987, -0.040479544692908834, 0.002693584472690073], [0.025758722930131074, -0.041201636084502426, -0.08050857576246376, -0.031235688363178325, 0.007019918080744421], [-0.005618805482511144, -0.018589893648739156, -0.0035160050201434815, -0.01763723657099686, -0.01628198294043051], [0.01742480625029429, 0.023591169004906175, -0.05382322429021305, 0.009138567434584202, 0.0577308842090833], [0.0021500682840379973, 0.07915540382732421, -0.04922578902490111, -0.031604005071533596, 0.10559656406137861], [-0.049149122513037526, 0.06262715555142316, 0.045290794817571325, 0.06343077837722987, 0.017863437839224353], [-0.004317453633615138, 0.05817690958528198, 0.008704774996901839, 0.02419141403774529, -0.016702843339996144], [0.030908306131769394, -0.01608803295034186, -0.011172711797915806, 0.10574028043695215, 0.022384536853028825], [-0.026372425444048418, 0.01761331210843794, 0.016719790577213064, 0.026966799336039817, 0.010840663397612364], [-0.006498529512071786, -0.0007267615504656438, 0.030849629433217438, 0.049815567876539, -0.02467013604663475], [0.03502477692269791, 0.009447210620263569, 0.0052515915133494505, 0.03369633111617289, 0.005736952807258679], [0.037568770178540926, 0.017971615938948398, -0.013047869486832614, 0.03323236503107907, -0.007737950817091466], [-0.00796784389365574, -0.032687847059709736, -0.061227185528309164, -0.016314575469556194, 0.11673977548830501], [-0.011943464819758538, 0.07200120512158248, -0.00045483494841166413, -0.05833433273735197, 0.017192512180062187], [-0.028407401497221197, 0.02652172395940555, 0.02180895636737768, -0.03084972411345341, -0.021440255076232553], [-0.018947807087062698, 0.007237162017151779, 0.0030641961445746677, -0.045065244547371784, 0.04503717219028012], [-0.02649235340968395, 0.05692261985031388, 0.025647938193401977, 0.043603985996998454, -0.05092559223692148], [0.009239302184074068, 0.026116096987834136, -0.005055136338493051, 0.049994397888159264, -0.012831716428404463], [0.01981165803752205, -0.039770340369718875, -0.017894187776909362, 0.014197131852924878, 0.013539057996800975], [-0.01851332400888014, 0.017740309086610406, -0.0037103061411703233, 0.07572526549312705, 0.0038266078904142463], [0.0060100154195516535, 0.006350968457765507, 0.03762976302389742, 0.038707859329934174, 0.009748267556576175], [-0.02089008954615673, -0.07125960164310849, -0.006938530084186918, 0.05718506233838451, 0.01391131878805874], [0.02421612477651149, 0.005034035540115785, -0.011134159828946964, 0.03731296971392269, -0.0324199107919848], [0.005986047652247081, -0.0013901396222680336, 0.0033654751363838584, 0.09260401408590553, 0.00944207245484707], [0.006634829222450919, 0.07673868722851622, -0.028069828503334254, 0.004888823332495356, 0.007812070841122743], [-0.02802596651562336, -0.006111404997351653, 0.016665646934946945, 0.02602016124934797, 0.03493842875037149], [-0.018029859642391056, -0.014629884120401606, 0.0015445129241387309, 0.008968802613672222, 0.00279724250427673], [-0.020796089081516932, 0.013586617046269137, 0.04203028022937227, 0.049205119560099535, -0.020681857340294686], [0.012545287709392347, 0.027710136977162347, -0.03467523538931127, 0.060509395735478796, -0.009766634862367988], [-0.021341870615305136, -0.0750276878550756, -0.002016898254807839, -0.02002407112347705, 0.02720618994168098], [0.0314675649584956, -0.04329573116105484, 0.007857823366791607, -0.07972691969807279, 0.013331740808666958], [0.026613521128088635, -0.020478085328591297, -0.010525208882940517, 0.049095300986905704, 0.021941853871495564], [-0.007754777423539342, 0.01737528417057188, 0.018552450132348526, 0.017899902252569388, 0.03839010842428566], [0.01565052566408314, -0.01060178926014847, -0.047584209710029884, 0.08121458060974342, 0.027714145447307645], [0.02426578766984082, -0.012150641212598757, 0.01113642190350452, 0.031716654873668024, 0.04047961114961705], [-0.04501425680291684, 0.010946770065193746, 0.01595410970287496, 0.03390548992718099, 0.037415642035951296], [0.007661466550283329, -0.06112942244507069, 0.0036584134506641463, 0.08173877998565961, 0.01576939314622309], [0.04186367054489879, -0.08079852197009292, 0.04834815701562746, 0.02228579791189135, 0.01368365669771755], [0.008561680418772444, -0.003993815798075889, 0.05687664160270632, 0.02900027861328315, -0.0033260674691445824], [-0.0619163619082332, -0.012095866485709575, -0.03847422189740706, -0.011779677147373624, 0.04773413088317174], [0.024456566945941362, -0.01120854164030209, -0.007284256364389381, 0.007260255189096786, 0.06073814556831258], [0.009352700908555583, 0.018204495221985022, -0.03752822342995543, -0.010227508508511403, 0.11897817994109713], [0.07375412183357978, -0.019112948856631746, 0.023224559594421004, -0.004108479605637269, 0.04511778721475475], [0.011619354416969534, 0.02988648998987288, 0.00711532633402169, 0.0701384839319799, 0.004194385563114006], [0.07090215069772467, 0.004597655363284143, 0.03558364297916319, -0.010222437437654937, -0.024061335774644484], [0.028404318133372658, 0.02134900444034203, 0.025624861691371573, 0.06470070604728215, 0.020969251876668277], [-0.05567979479221083, -0.05511893557261104, -0.011063536719034303, 0.03720416571141807, 0.03753592066454639], [-0.022905338085398817, 0.05824566307347549, -0.08016745900931313, 0.060337917914503686, -0.031278071684736404], [0.028399685624998217, 0.00032705724220860247, 0.02252194294743513, 0.019591823907070337, 0.015430240825998308], [0.027636664875095734, 0.001283486142855045, -0.007898662816502927, 0.029157373131503135, -0.05230659378026049], [0.04851360704530676, -0.004950710108595263, -0.007244334105529599, 0.049327441359023345, 0.003012786264848303], [0.05426710431776944, -0.026606493276721987, 0.006271038253856945, -0.01181111287290639, 0.020351543321203914], [0.05798317633175443, 0.06770126687159825, -0.00023768198589077625, -0.008735654175593535, 0.0035570745867056705], [0.02004753776748821, 0.007814459255781456, -0.02310555432318841, 0.04782581063458904, 0.030284150252328248], [0.014421021243703746, -0.0034389611214090073, -0.005314614691103507, -0.005661682356518464, 0.06332181199045199], [-0.012918375844428589, -0.030203486761107484, 0.005325975969536659, 0.03515289890861571, 0.026997500324089697], [-0.015230623855968031, 0.035445989959403554, 0.06318463847267491, -0.0069250114222576134, -0.04160479466502985], [-0.01905661912862685, -0.04335879996012772, 0.027627294437184622, 0.010632827393209806, -0.017113570817973996], [-0.03946261930779915, 0.04808351649023201, -0.03402978807673862, -0.005361300388389345, 0.030513778506093044], [0.010497016796250872, -0.07420869021446949, -0.023677222592582068, -0.029588812567451234, 0.033054958069296224], [-0.02672975286086318, 0.03646719193005609, -0.05064531086874216, 0.04476653889519043, 0.021841045640683027], [0.053631694381331606, -0.007086650129570571, 0.009648526964226403, 0.03938248563988897, -0.08164730526100837], [-0.019001550401800283, -0.019743542380038507, 0.141806058789988, 0.058582322013859676, 0.0072540046109554664], [-0.07564530749172571, -0.031513350812021404, -0.0031889850227870956, 0.029650022162968137, -0.017259328894182108], [0.018197567875305236, -0.009051414658813275, -0.050056498290204504, 0.05399369878329547, 0.03488428690105885], [-0.005134437179088726, -0.049086868860951434, -0.043163565151526966, 0.04572656843948218, 0.03442086686293756], [-0.0059688930160335055, 0.00799931772708001, 0.01067200600686183, 0.03542312109157614, -0.0057218411546238026], [0.036333383741065046, 0.02891295569699441, 0.058048571175913825, -0.0028715242773659617, 0.020665821269193415], [-0.0297724894443715, -0.021465723761428048, -0.02150537873910393, -0.00798421087216402, 0.0685789599848498], [-0.0608868908975722, -0.06523298113058663, 0.06816686355816787, -0.01742249816919791, 0.0689594103095353], [0.014395488015391686, 0.017506754888263067, 0.0370520129826319, 0.033785350386127025, 0.014327355377233278], [-0.07283540171305151, -0.026766863998310044, 0.0022626333945863697, 0.043858913835715704, 0.04419206250152784], [0.04093399164907315, -0.0013328206875642043, 0.06314418729230294, -0.029000691072959096, -0.018092046902968412], [0.006236963286418313, -0.04028026130007115, -0.03481400345032963, -0.02839194102899421, 0.053848963637881844], [0.037535853038200034, -0.04019052457963762, 0.05030143233744541, 0.05379091023647538, 0.008170671311756444], [0.0008473044064582673, 0.01692811897512451, 0.03581223847506966, 0.013176028038038058, 0.013507144696802418], [-0.011325728701352917, 0.009798374765906937, -0.05542832003035817, 0.09822846365946715, 0.0012790115618504466], [-0.0209875356813705, -0.056888001785937996, 0.010189916330386834, 0.04463376774957629, -0.0327506489479446], [-0.037347125514179194, -0.006549334246817783, 0.04293521809630812, 0.03449730590848988, 0.0197727983864969], [0.028063170563648765, -0.002220003779817031, -0.02100145225954189, 0.04480298436594325, -0.013011911549055403], [0.007765406409815032, 0.005190035464436543, -0.02338798942224174, -0.052616609325306526, -0.06163401286133697], [-0.025893036370423672, -0.018124967136710825, -0.030691965685942985, -0.011610323106494652, 0.07830194212195529], [0.0016370652788608318, 0.0259392649155542, -0.015577764680451956, -0.027144255087280612, 0.0067268531016533364], [-0.020867848244808362, -0.06637307462369967, -0.0020514216883073563, 0.012506547008351774, 0.0011010035124497685], [0.026306808624406226, 0.015531771301055151, -0.0004185384466103365, 0.04228230161322748, 0.013527190702996935], [-0.009870223314181229, -0.014733439338735322, 0.03030208426223801, 0.0033826679906423756, -0.007179248507021332], [-0.029719798618255307, -0.009732072973008762, 0.03887083298915178, 0.03819023688731395, 0.0754693367655629], [0.05544671610227583, -0.03378196127131889, 0.020372533527085946, -0.01215569954657571, 0.017565536454827627], [0.028202052116483, 0.023976692197549606, 0.01991287419745539, 0.01547126201550107, -0.020753426548583986], [-0.09298536850072435, -0.035235555445790885, 0.005764334970670494, -0.03426858475011905, -0.06405682646425342], [-0.016644416509960916, 0.07656193255569987, -0.06863406290465122, 0.07750344775388845, -0.012786426888102607], [0.030539606357773016, 0.04410793069454244, -0.043396134042309915, 0.007701482460325699, -0.0664528117963286], [0.06517630483536578, -0.02632922384204122, -0.0033366903045838163, 0.06261433248811223, 0.02106960118012454], [0.042424049767704156, 0.033855834556678274, 0.004980185953856464, 0.017520923080872695, -0.00961722717869154], [-0.058296955874263784, 0.05364544635016803, 0.027732244397091627, -0.021528495602671553, -0.033919454290512775], [0.04169720423787076, 0.007126458437247984, 0.03069769503519331, 0.04029087083106265, -0.01697351606702465], [0.011472431464982696, 0.06699894624101095, 0.00839569979653508, 0.0064469080214492255, 0.12236199640642767], [0.01704550318548071, -0.06791637469815578, -0.01272097012271795, 0.04519540702790938, -0.01017272736371625], [0.0398359734848553, 0.08332453585633759, 0.01831347639808744, 0.06868858181441859, 0.01862344515764548], [0.0011660478747709637, -0.018431780249756, 0.07474681012927384, 0.04641263864417559, -0.002837367673971073], [0.005318232401011406, -0.014665347529128474, -0.0027922210869323364, 0.06991055454819288, 0.032687078870645266], [-0.023040570153093617, 0.015054386026884603, -0.03450388141698257, 0.041451158340882706, 0.05963663389402434], [0.018454067204482314, -0.0890795826766446, 0.03187169424255342, -0.024006247841282996, 0.03432657318280363], [0.09365474923590666, 0.04891740022468905, -0.0022668066287219917, 0.01691477483783807, 0.0020670407332123593], [-0.04264606609523047, 0.006091379265211798, 0.07704152448547716, -0.008801277842463432, -0.01891608592307884], [0.019086133242359245, -0.00040628018742638254, 0.007685638206857081, -0.024427566219808673, 0.03392957252559304], [0.020912426704723357, 0.0431585376323044, -0.026974604058512777, 0.05774702071817539, -0.0686112642001926], [0.007039867296592597, -0.012207036757449457, 0.020534160686821585, -0.04657341244917656, 0.010045767837001441], [0.017609182602653192, 0.004953073333288758, -0.02378680790931879, 0.05005401139285232, 0.006857541454461263], [0.006706178865222602, -0.038924509021710886, 0.021141746644098246, 0.022780507726803362, 0.03819853433151742], [-0.03878903568863679, -0.027928920998455214, 0.00958409231108899, 0.037658890688542564, -0.004237620747447224], [0.06032209938980892, 0.0538106099506133, 0.02052426897085267, -0.0625777356081542, -0.003449974809497082], [-0.003035166105890763, -0.02458511695662426, 0.03131776556149294, 0.0313542934167712, -0.027681431219992465], [-0.046642435122092755, -0.022939700365563902, 0.01049226931599098, 0.018557936333589414, -0.03364625408474204], [-0.003978985983887259, 0.004014241128060131, 0.005128743729910975, -0.026951276019065724, 0.09666919915041927], [-0.05035207523887136, -0.029138895130510538, -0.00927098263482115, -0.04114086789493361, -0.04580863382877325], [0.054909577458941, -0.013351729081613027, 0.002957391959623874, 0.01843047583443629, 0.01155277252222219], [0.005169702609101993, 0.06797737423416046, -0.01972365240235764, -0.03954337235900117, 0.025548220298903], [-0.03468184326205023, 0.02590047574176469, 0.016185727307720135, -0.08111765566017275, 0.0024252627832233534], [0.03050864005081063, 0.007134237166891312, -0.006225402681456386, -0.023670294624333257, 0.07552098161105392], [-0.033199541155465175, 0.05965891272975411, 0.004694927723596908, 0.03822451551785526, 0.05777088617445874], [0.021312197916114217, 0.04332205131472487, 0.05697673653998677, 0.05998000313155745, 0.024598851561786424], [0.016164967697696084, -0.020902862233288556, 0.009976944086000758, 0.020069790092828922, 0.03418727274468749], [0.039944405936946016, 0.004154418710698305, -0.019592876389085134, 0.05739834334070087, -0.016480194841708286], [0.03284000523019797, -0.001674075072122669, -0.0094668804879658, 0.05830034497076603, 0.05039605527339593], [0.018721279388031763, -0.021345367852449077, 0.07939056855381778, 0.08110029140124728, 0.03136859731692559], [0.05232601054987795, -0.003942287006613133, 0.1087025971489938, 0.05843347315733982, 0.02917476367344112], [0.02503293777398277, 0.006828688725956489, 0.03257899004231529, 0.02964544685058656, 0.0471198271488001], [0.030582368668023968, -0.01270904257270356, -0.011266064924589196, 0.0010309496181460807, 0.06435424083374068], [0.018604818205314438, -0.004050492956956476, -0.04064443108508961, -0.05906104061708079, 0.04255918361736354], [-0.036798241569538453, -0.03417898994248536, 0.0001242688391568447, 0.04690207723920363, 0.053999062361276426], [0.04106831731185165, 0.04538051133368761, 0.09118478052408731, -0.05445243082326671, 0.03184276930073061], [0.03475553881312564, -0.004707635543785261, 0.020943120135991016, 0.05144711224518545, 0.041928571073790825], [-0.037232088530351724, 0.03687935905970266, 0.0008380617511673272, 0.0006718246500539289, -0.03984743241231841], [0.018875007724062143, -0.002666253555147442, -0.03517088905719885, -0.025959347597899026, 0.035890582481765576], [0.021748638394649442, 0.030109594389046885, -0.05569573439034175, -0.005008207470782919, 0.020703670907730867], [0.03079018296334632, 0.024411058930933798, -0.007395416630472475, -0.09134411948676117, 0.004387983374605823], [0.013715017457908554, -0.008177886095553677, 0.037116125363488454, 0.011636685145789305, 0.03581345806120996], [-0.06672476283126356, -0.029930349451759552, -0.005011943676125556, 0.005292636772271369, -0.01313193793336429], [-0.032087531834374176, 0.02445547070665638, 0.017161618482258698, -0.05019431329430596, -0.003923876149060381], [-0.025171281749582004, -0.043611270044104776, 0.016394452480828887, 0.03905338193612828, -0.03613421812127609], [0.007796350205939321, -0.07147839389739884, -0.01927133959406906, 0.01881950241931694, -0.004271707437654651], [-0.03506682398407686, 0.007087573379829024, -0.013250747748372942, 0.01099500197632505, -0.0058615658740459545], [-0.05352689582239016, -0.022130772971431376, -0.019586410622809646, 0.04195986051445653, -0.03450148976443506], [0.05539466921195268, 0.026482399586740278, -0.054602737379756565, -0.026722241304777083, -0.06649585176057414], [-0.03426759205224378, -0.019833918614742978, -0.04950264066929431, 0.014599481159147179, -0.009228689887839498], [0.006587088290634558, 0.06803904962760642, -0.034112336402314765, -0.004352131944423332, -0.01294277484370449], [0.09477441009783638, -0.017984111705006717, 0.026636877553047306, -0.015209241571929898, 0.06208513331111865], [0.06087607553884808, -0.04149756453508187, 0.01842359852127642, -0.007211988276720731, 0.01814434215397164], [0.03704691355278266, -0.07511309241316251, 0.011848762122095654, 0.032036608339065235, 0.05051878773584885], [0.037486408343181475, -0.03210527528935808, -0.018378147406086166, 0.0418625312677333, 0.004531086218627962], [0.04258227391421333, -0.04873842731578076, 0.037459945474053805, 0.021662795313603, 0.037836699898394735], [-0.12932535392475783, 0.01416295888105101, 0.04228252950238013, 0.05218073812662616, 0.03833090042429295], [0.03129212266869402, -0.06020472078036272, 0.017998361852134482, 0.015312536711893464, 0.05185837244075631], [-0.027480313081932477, -0.05901682438066188, 0.049148378815536, 0.024015299309514637, 0.09618479402576924], [-0.030681304801186325, -0.01006641575382289, 0.04209828497856272, -0.01868312615720049, 0.02979698970913316], [0.04853843283492676, -0.02456855367519661, -0.000950407799380595, 0.017907230879197242, -0.0033603882915626227], [0.0755273609724301, -0.039076794815536116, -0.08568795900867614, 0.013488142283004408, 0.06547717817245276], [0.006121809669914974, 0.02161607341262805, -0.014118921369877472, -0.0547333480352299, -0.025694979379044695], [-0.028879623790712836, -0.0754134330066083, -0.014129995915072566, -0.006258415630105867, 0.05611065309748159], [-0.08456397691813383, -0.019936324627918875, -0.031138498898097, 0.08433991489740437, 0.008693054269256054], [-0.013912705693891969, -0.02281972595435829, 0.024227646318133907, 0.023668500217774533, 0.07357771923307582], [-0.02732926281364875, 0.03236345456855874, -0.05419087762492796, 0.008113839470813872, 0.02065929954164014], [0.07194024600965852, -0.0026278957897331806, -0.032396956112782344, 0.006960127042152799, -0.02567910230604249], [0.0020128764573879953, 0.0007534877011124311, 0.026589736879445096, -0.01335614425988753, 0.0635708083885307], [0.0006855889262719147, 0.007152093933185441, -0.023786350246299885, -0.011784729018072645, -0.029048200225800038], [0.019775034332528498, -0.0001623591688462767, 0.01983893841252649, -0.012049858629547832, -0.03327744958731751]], [[-0.01330965762147053, 0.8529753269228326, 0.46668331580516653, 0.592101998566516, 0.18829640311182883], [0.8602649165768754, 0.5346311931863925, 0.2808016984712329, -0.6582614826508173, 0.43032771343549375], [-0.21815374638379575, -0.5169272909790753, 0.08403654528981115, 0.7713325549178965, 0.7911158675963295], [-0.021517581286839383, 0.6093691844971297, -0.6050749688198136, -0.44200094503850884, 0.9608097459696461], [-0.38595070942624604, -0.02517721511395537, 0.29341884328283335, 0.6358305994919529, 0.17073450149795816]], [[0.914767474990282, 0.3433954061145109], [0.3040482495623629, 0.1605027531539066], [-0.3538775688648377, 0.30382239624768675], [-0.9709151524256552, 0.8787800497019626], [0.9749187242194977, -0.027748121350397708]]], "biases": [[[0.05650027851981433, -0.004413466924550907, 0.06639785906365873, 0.02520119668959702, 0.0988186899418507]], [[-0.002191524821917579, -0.004855916411036902, 0.08730894196963913, 0.19860508919626949, -0.023322493897000855]], [[-0.031501031085822404, 0.03150103108582241]]]}