{"layers": [784, 5, 5, 2], "weights": [[[0.015986347688198153, -0.021371302837665456, -0.02921442848505961, 0.00996564698859594, -0.01752717349272055], [0.005488823995947853, 0.03467078234568733, -0.01564027595444327, 0.0195101065401506, 0.011080061103842076], [-0.01014642093711773, -0.04210646780376283, -0.01393438951050542, -0.015540656884860313, 0.016975998757317933], [0.021139931482534097, 0.024083113259206024, 0.009047617802316466, -0.0015184919979427944, -0.0682894810515704], [-0.019302124959189145, -0.014480576680213634, -0.03293825390747424, 0.0017646980998609195, 0.037909372955204516], [-0.040437447917785925, -0.006967774994133339, -0.004063687888220176, -0.046930876495647166, 0.03133287889828979], [-0.020272053108147194, 0.02677266034246712, -0.03696130399242484, 0.04216437551682697, 0.018310068016227945], [-0.040320648086480386, 0.03509188639600852, 0.022253602540283177, 0.006240701891684326, -0.013897909349936064], [0.015145424628776221, -0.036379894806400144, -0.002527151720786722, 0.014173091352439335, 0.0017347638104438295], [0.008014502719113659, -0.05932828286521974, -0.0034893577562461115, 0.07690030839142666, 0.06783553212747157], [-0.05125559415715694, 0.040767471270856386, 0.018950561114488874, 0.0433203588278886, 0.03370609522874533], [0.00975015663005299, -0.0020091336149668047, -0.033973565250244114, -0.02278563404658648, -0.0037656300104193753], [0.012834055239616187, 0.017248119109423584, 0.04341037057156, 0.09518407909651698, 0.04177632700632109], [0.040159304656498127, 0.003647466341647376, 0.035810342509465985, 0.012297508124744602, 0.01575419662885626], [0.02848037517324487, 0.03370328042284714, 0.023094710449628048, 0.037995300113487625, 0.045595379175884], [0.09557147962704036, 0.01706019449546399, -0.007554937072807448, 0.034313222471004955, -0.0017248768761806627], [-0.020441472060412705, 0.000422423757445997, -0.010528190032163452, -0.005426493036038273, -0.04906336609247214], [0.0419231317669289, -0.0018900872268564216, -0.002047615254134503, 0.035431877734139916, -0.07261913690299986], [0.023193976643756553, -0.016441067146541557, 0.006328999377439741, -0.0162153576406062, 0.0486722094581913], [0.006398690633126544, -0.029145628266741615, -0.05264335663465071, -0.026140273679043344, -0.05019181869214689], [0.02496726367977654, 0.06893858390027365, -0.05868273095430475, 0.06936508002054799, 0.08939691108760268], [0.0015476737633578648, 0.08105245066442958, 0.005074599485257487, 0.059595688516141894, 0.022882583741156332], [-0.006072004297209647, 0.041337718106049345, 0.020235922033285895, -0.013414022565445455, -0.027215904087763622], [-0.07500609312534853, -0.001689547542163265, -0.03154869979916633, -0.00157735075971443, 0.05054496301724225], [0.055514338990739216, -0.013676776166548294, -0.014917633172491868, -0.019197938180838793, 0.06341840603333711], [-0.059023090285397053, 0.054075121231487014, 0.038851638813945134, -0.020645693847612445, -0.02335039519768526], [0.022547179007637298, 0.04112117257778455, 0.031761242997997687, 0.02755513312841767, 0.04950856458389974], [-0.008866982617652714, -0.01004977876083689, 0.08506842486943533, 0.02544397936522003, 0.0037661949845214544], [-0.06766583711372855, 0.0004522532288392892, 0.02978275014311573, -0.027610437121064046, -0.0320895621130178], [-0.02011195361567496, 0.006282391961350604, -0.020452962821658063, 0.008371056905769517, 0.04127672461647458], [0.04015189615713821, 0.054659298966778035, -0.026761282336506643, 0.01623644302033857, 4.288866146215797e-06], [0.052318261390140376, 0.037918826322898225, 0.070117834457574, 0.026535934674521675, 0.0039931043474144235], [0.030459935082611543, -0.031467013109853635, 0.007358865838923552, 0.0027383374439072295, -0.0013185634952677348], [0.010760082622255673, 0.0010036617044557326, -0.015268940587417098, -0.02565892220465241, 0.023594993510446114], [-0.022628108450030472, 0.0007152739269070482, 0.0045357476369465065, 0.011044244233368333, -0.04166980425164754], [0.03609945687161899, -0.03576060037119105, 0.002760032436967096, -0.015862145767983386, 0.022554767774806746], [0.05318835513591406, 0.05507952609449304, 0.03322707011665497, 0.03177482672363159, 0.017707671564376783], [-0.004101844636450737, 0.08906206825711524, -0.005569992394779014, 0.02473262524722557, 0.0222029350507613], [-0.00036120404205554254, 0.019364903876725705, -0.015322566390402935, 0.06598074722394104, 0.08660693060592649], [-0.05229093756929374, -0.01640474626126558, -0.042175126176274835, 0.03315155736083739, 0.04228233747395837], [0.049772190911271615, 0.018041716124010482, 0.015787945427033885, 0.08308390185833166, 0.10791408997374265], [-0.0032281403197174786, 0.028837572143031984, 0.02824565319882815, 0.0390714239660801, 0.0259003400386808], [-0.034191040392112314, -0.06816611460217296, -0.004212461467624307, -0.07160419018720417, 0.04534907104539498], [0.02317647292164191, 0.009297165788354763, -0.023855108712080228, 0.047193098826499524, -0.002533441085048464], [0.09066764103088985, -0.06378675163414692, 0.10900742346959111, 0.01134349164473191, 0.010247103528767223], [0.03842277555875648, 0.03507562256359799, -0.005635769996469759, -0.010113190990484548, -0.025707302852254227], [0.025574973689213475, -0.060206116857236924, -0.03444908898586239, -0.022502722303294264, 0.0024049340285655554], [0.08860727619706914, 0.010171701957260046, -0.0067050916796334535, 0.013005918231774855, 0.0027945885682627725], [0.0686183438973298, -0.006109705150028351, 0.025198849554244434, -0.014220448444509313, -0.005562204062854858], [-0.004060343091752015, -0.011248484397826981, -0.027822444931127628, 0.058668304530903846, 0.000993179964568777], [-0.05686341334503473, -0.017110672941415477, 0.012737279406315808, -0.019826264893505526, 0.031171400304790726], [-0.061548049705541404, 0.012646195990131706, 0.012633914497897258, 0.04153094470380501, -0.04375158107126941], [-0.028379257672917903, 0.02149869571226611, -0.028685433039585373, -0.01637125657116398, -0.04651544762925893], [-0.009129358253777397, -0.03764966745081776, -0.006941281587360147, -0.002659414980650451, -0.004891405242689088], [-0.007337301538106058, 0.030310349250489865, 0.004034762120802986, 0.03198218500737547, -0.023147672997319766], [0.04328167381593665, -0.02927581442950397, 0.011470650119989432, 0.026270353279501463, 0.02871759241348203], [-0.033425556862017584, 0.008232455194770567, 0.005216315993743468, 0.03219203246123058, 0.01516619709017109], [-0.05464547732999634, 0.021662657936945353, -0.028955881407912658, -0.025658134211489818, -0.03953409779727353], [-0.02110240457280748, -0.012982131277457272, 0.08246819219384068, 0.007053730260665121, -0.012307552632801156], [-0.0029068729287274673, 0.050360489670206766, 0.011183246477383611, -0.03235630811631389, 0.029855718097211083], [-0.01230522201314351, -0.049332148924973666, -0.03305647200011324, -0.038798604214245934, -0.03831681844576684], [-0.04671648223710996, 0.021654898868255924, -0.029261475932550313, -0.015484898452508167, -0.025712060120523468], [-0.03816658726820832, -0.0037821362054703943, 0.01684412393475945, 0.02513969721284428, 0.010736362817255238], [0.07470561040162428, 0.01924994455180149, 0.02785209945750047, 0.02355815425289189, 0.03969108637026165], [0.04663955413587911, 0.10046144766085155, 0.019860851235602033, 0.07448788955688446, 0.048544662053482006], [-0.026796449982174717, 0.050611560416914024, -0.05116887386661581, 0.03412656297644872, 0.10265155334430728], [-0.007621441638853708, -0.04228873569410608, 0.047081509342384364, 0.07790825880998604, 0.11222713360800465], [-0.030368544327052455, 0.05415625650403561, 0.056439000144146566, -0.016758308503112124, -0.006764050984970425], [-0.03455245766144508, 0.08119018683408312, -0.06655528764565663, 0.01574740403486903, 0.12101118094721759], [0.06342519739303241, -0.009305303100672091, 0.1070800671103397, 0.032001560357772095, 0.04650598612606178], [0.07516415421841259, 0.027075671374372452, 0.03970481496556832, 0.08614048232221548, 0.11412837967098272], [0.03043762551370184, 0.0042357276948389614, -0.010107936481176683, 0.029382355700177325, 0.029430930796101835], [0.03653731584450846, -0.027442494181639715, 0.027472802287283205, 0.0015032576995906023, -0.0017707964237082508], [-0.0010088093037418026, -0.01207579873532063, -0.006188967829259143, 0.033880139835591974, -0.0331872747429927], [-0.005457727008674557, 0.013476719869238511, -0.04401360442303824, -0.013711998435569335, 0.03386750334382196], [-0.00012769003524560317, -0.0349807408311357, -0.05445655768217843, 0.03446606895437568, -0.0463687109867493], [0.028982027594547, -0.0035715022729825912, 0.008866293491408684, -0.04757699879869258, -0.044903335130942475], [0.03706555352513059, -0.015024196843921771, 0.007139698974020477, -0.021003919568324685, -0.07268214727575195], [0.015963910985972916, -0.02955156402248502, 0.0030175985969737073, -0.02484558591525519, 0.01776568832150154], [0.035957311779381954, -0.037721575594673144, 0.0556974183587001, 0.021991938879923317, 0.03530532792428682], [-0.029783934158901647, 0.09709004639989145, -0.05231619687223331, -0.019194887517959586, -0.025517747488207794], [-0.014952334716947306, -0.06540911776725387, 0.0020794373486465157, 0.017036326314849432, -0.07388253514638725], [-0.06269961101637225, 0.036677635833002695, 0.0007268479653884246, -0.004870577161825264, 0.013850509981596508], [-0.06475266012161053, 0.014053639554960178, -0.013573076961982582, 0.008898122936596307, 0.009036980275325882], [-0.040171551323958284, 0.04045950748074941, 0.02482063757088057, 0.037333690965745854, 0.053330282314692536], [0.03453103551284832, -0.012928378458347, 0.015017602968163301, -0.03505787888280064, -0.046531953927032584], [0.056998708161170517, 0.03876388008626647, 0.029335717287344836, -0.015718697429990908, -0.04367871974768174], [-0.0027445159178528626, 0.005278295557512624, -0.0888354620589681, -0.02799166403270236, 0.01547474930397906], [-0.04346475019636714, -0.0009090316008536676, 0.01733646664737325, 0.0673967344821743, -0.043571178864563305], [-0.00782983337983446, 0.025832981650295756, -0.00019157572100594056, -0.006906618192349315, -0.038083258208450814], [0.0010846015432826703, 0.05601614982481317, 0.011925558948948017, 0.04276720394079569, -0.03081154540347136], [0.012587914695966596, -0.008300362424386034, -0.01528913187025821, 0.03935513509768633, 0.00956971717583708], [-0.024229682205425693, 0.03784258981131999, -0.02281822821698693, 0.028536073598665557, 0.02430489623698011], [0.003294114816183888, 0.08466142534268774, -0.021038355918952034, -0.005422758942039478, 0.019430128335716033], [-0.0013504106530924085, 0.028357755218333447, 0.02260964626052501, 0.09116566991294982, 0.05057018466766621], [-0.011681277601609905, 0.08690288957209118, -0.0022743203120997703, 0.048392976476865295, 0.0023107465219930814], [0.07608655487573121, 0.016519613135382187, -0.022503955460343998, -0.030769516755841966, -0.002689710654735641], [0.0595195357974956, -0.0458143658812265, 0.029608253182009284, 0.003313627224933553, 0.05020577219203331], [0.09642497452200313, -0.015505337247725327, -0.0009126478552214032, -0.04061971464035417, -0.01749791553925034], [0.030783879132086304, 0.05986086144987032, 0.058648499516640626, 0.03889169750389663, 0.028314957350230884], [-0.004502664428419233, -0.011418568010596857, -0.021873120901625895, 0.07251251077929768, 0.040302730500721154], [-0.005436255247042283, -0.0275497535383706, 0.031126864621661025, 0.04506347559072745, -0.018354001844715393], [-0.03153049117906273, -0.01061050955467099, -0.025410045371513916, 0.01766769385787564, 0.012569945696891866], [0.010239847760218551, -0.07310273492558898, -0.05696359179041017, -0.0006802671019865128, 0.00265112196720264], [-0.021772133965173586, 0.02822107275564282, -0.025453822143396764, 0.05207907464389463, -0.03756234809783935], [-0.09029638986317226, 0.0521433503366428, 0.03955486503723955, 0.002998562928195508, -0.0032639689402298375], [0.03253801605709335, -0.007068097896043938, -0.02828606485533063, -0.038964557124970975, -0.002875665226059473], [0.03959722089367635, 9.527334658880359e-05, 0.0032855481756110497, 0.023553959523421826, -0.0897397757378232], [-0.008218817398694993, 0.008015149549451143, -0.030720720760101565, 0.022118915308029667, 0.024950539831105352], [0.05510978676819842, 0.012083933044524245, -0.0023217836143198567, 0.06574543075780913, -0.01618792186750544], [-0.04691157207918484, 0.053549554053364215, 0.08575608197412901, 0.07978746226753754, -0.01199529253400892], [0.09446392831341309, 0.05218702667428553, 0.009257573738482603, -0.00012408484386578243, 0.034775273103425076], [0.04982189533609709, -0.03531859767561594, 0.05923458360779733, 0.015604846355098548, -0.024845184085294243], [-0.023191442151543434, 0.01393454497484339, 0.004265057349254249, 0.0001380280835757824, 0.004906837815707667], [-0.020088954332211407, 0.016597737203965506, -0.05350125680573898, -0.03672596472627533, -0.00931445198867285], [0.003966327594027247, 0.005510441761223221, 0.039549498489801944, 0.0038973994637344243, 0.016998582882088893], [-0.07928029826446557, 0.0030129016348123963, 0.00799393794266568, -0.03199152069195716, -0.0032072784806555688], [-0.007892574324955473, -0.039004254562077956, 0.009122770780382088, -0.08743737913088626, 0.027008530789536894], [0.002991391962816427, 0.07392018336690316, -0.010438444594812595, 0.007088450887078704, -0.0658340851639927], [-0.01151906017615661, 0.009450765925247788, -0.03831097205614438, 0.08227760337996357, 0.009287759831715729], [0.01854314821188767, 0.07135463570597242, -0.02553846727881986, -0.005726358501114316, 0.045465545843426554], [-0.026021158913447525, -0.04293893130237119, -0.038147105404346626, 0.004791442841162354, -0.029556012037477895], [-0.04269990633925827, 0.016528359564043228, -0.03148735419043062, 0.055024649729619395, 0.08836075389231172], [0.00307149296153249, -0.016956261836892923, -0.059596641963894983, -0.017702597826337062, -0.06328805761123989], [0.05841422409085274, -0.01709780215929704, -0.0031570350610057654, 0.020464024172837606, 0.017037515539937494], [0.10738071838446481, -0.00478202872636875, -0.0008371786435868163, 0.007956058091362912, -0.062287988964908905], [0.1003956673886378, -0.011346546610259356, 0.0165236346118424, -0.07009671519858256, -0.04246228020176437], [0.05200728808218852, -0.018309688131669687, -0.02144852648413483, 0.037182688055341244, 0.04260143520611823], [0.05385661102950203, -0.06072207829556465, 0.030595915166999846, -0.019816530679379295, 0.006467118380420236], [0.00975880636983143, 0.0251809348341477, 0.04290703407886141, 0.03289751751030862, 0.008232380970238649], [0.02504623281779831, -0.0029357549632761516, 0.009129261186068926, 0.05065959234991036, -0.01877814264211795], [-0.038515632107821836, -0.0017666023556628463, -0.020376501651122307, 0.03699084294652565, -0.006852799496164788], [-0.0052970187392931785, 0.09872026506410582, 0.03330571612778806, 0.04494701214812675, -0.020118095758523084], [-0.03403572634737345, -0.03320227378791642, 0.0166525579836892, 0.019788254606048564, -0.013732046434551667], [-0.0397628612278543, -0.002309328691265011, -0.03274310159524418, -0.001365033494864177, -0.05539817238035811], [0.01650170523315814, 0.01569276489549146, 0.015869815362289073, 0.01757133464563881, 0.022119979473182883], [0.04333540397870254, -0.05841559447837056, 0.10120780852134817, -0.03784276231863863, 0.008653453009337512], [0.01425233083146866, 0.0037693080987904306, -0.035419201522102726, 0.023524930808039968, 0.049014487563365676], [-0.02060423220880994, -0.030233477613609165, 0.012475470397245978, -0.029724452844980414, 0.06529822496324719], [0.03761482575520931, -0.06741761619944515, 0.004750230254371498, 0.0499889966474853, -0.014335787202786372], [0.026591661003580243, 0.05250461778873694, 0.030812474825520745, 0.039444005936156774, -0.035017160406774724], [0.020566228453699122, -0.027680010981648556, -0.029682944557041624, -0.06533343751512626, -0.008680975158459668], [0.009932454470492255, 0.04470615202390161, -0.012582642664578165, 0.007014352544012963, 0.04038744593973094], [-0.04581351829506142, -0.04908089972248652, 0.005134318011260799, 0.014262038049691785, 0.06448442136339409], [-0.009800508294805419, -0.024804790995398143, 0.011636648353996568, 0.06319818364572935, 0.02495429757869167], [-0.027784615027266146, -0.01724759448757954, 0.03288345222862637, 0.010993221410296431, 0.032385746608998615], [0.0048001600963287466, -0.02237657326352735, -0.00620273459076755, -0.014672150970087627, 0.05031536626272698], [-0.05421578638441998, 0.010834984747081455, 0.01020481462921337, 0.008379093323402134, 0.03130739477380965], [0.003753317128703401, 0.018579647324895407, -0.009007017538025871, 0.013555305495727392, 0.07783514795194672], [0.03322356352264176, -0.05447502659849958, -0.03752801968010059, 0.07414383294438225, -0.015418519618902653], [-0.0380876428782478, -0.001085381584993534, 0.011809062625419696, -0.03163275676119101, -0.0046611516661041255], [0.012227264917413683, 0.04582276884042387, -0.057057500434979126, 0.05178838923618829, -0.04327875936478983], [0.09884333609477453, 0.05348853017083977, 0.01493160207835423, -0.05395887416724675, -0.024744412370513946], [0.11558918693297873, -0.007035311554515204, 0.006073792009053684, -0.035949038470899086, -0.011692808410063232], [0.07952078715130903, -0.007881431953061645, 0.08285670345666121, -0.055427313665577856, -0.07279768722339343], [0.053617868122178725, -0.04013821046620013, 0.07252935594846438, -0.09920050285708884, 0.013438455837806786], [0.05544643193285092, 0.021171639946449695, 0.012397682504204855, -0.020797338296307116, -0.003207852927674101], [0.05875150169806132, 0.023238339610253195, -0.023253759928659735, -0.010181400982707731, 0.03324018869719016], [0.04308255629259249, -0.011326067243042425, 0.003293086223407319, 0.08768238191468285, 0.02813534445809559], [-0.006667381176299962, -0.009007187998623087, 0.02276622495301504, 0.05872094381970707, 0.025481031066206656], [-0.023511737776095182, 0.033149888231568454, -0.00615665622831228, 0.07279581057630344, 0.04543521376125315], [0.010217443586082052, -0.02489839895749577, 0.03049986553091584, -0.012010834596143839, -0.00470012642452262], [-0.027289347306191425, 0.023015799966573207, 0.01566553514803864, -0.036447370311653966, -0.016645851421355707], [0.015500167896102982, 0.0013861843606211386, 0.028650213257996576, -0.015348581389900895, 0.020286733043102606], [0.06921193513499327, -0.023808123649120293, 0.02108915627795541, -0.06447197088993328, -0.012651301790555158], [0.005518273554319675, -0.0014367637691087773, -0.008412642399549681, -0.06439029867120862, 0.003450653297368648], [0.02103870330211235, 0.05372907635868832, -0.009231397182394362, -0.07331856853728662, 0.0776839248485737], [-0.0020682784854143543, 0.05580735901994662, 0.07439935552794101, -0.013883574525544673, 0.009281312022422017], [-0.042463386095278666, 0.022632108471593398, -0.00753223666021825, -0.07252931409750907, 0.016924103557963227], [-0.0020405940151148345, -0.01959975160041214, -0.03689504491733545, -0.006047696239983922, 0.03605603945140884], [0.03161700371629995, 0.028304021610910775, 0.013135056569182204, -0.02153033686789909, 0.0010599749853030323], [-0.011001540632313097, 0.008131071201162084, 0.023555472965641058, -0.01928922389073674, 0.04626763757790721], [-0.022194690374303803, 0.07612532519089169, 0.03155556207119642, -0.046729826390674536, -0.0222961594253578], [0.06893006545470715, 0.07079015637746221, 0.02335221611213996, -0.006082653070170867, 0.023390128390068276], [-0.06622000524956176, 0.009509694741124033, -0.012224300120053664, 0.0575656874307092, 0.018193556793764127], [0.02484266536467184, 0.002487250766566102, -0.013060956794154458, 0.04276533331832375, 0.001686004033392986], [-0.077051916063705, 0.01185913324498571, 0.04420807227071795, 0.009698269168149459, -0.009330560673788386], [-0.008940072188988034, 0.01233440227384179, 0.06275670372593194, 0.05101522147458063, 0.020623760034497923], [0.008020545393604838, 0.0772283493598486, -0.019342944994806148, -0.055981826949279466, 0.04155378562456902], [0.023204587707297004, -0.019190750288436437, -0.0014978272868838122, -0.04240809058162846, -0.07348005887769093], [0.08434290570981406, -0.00745473189646472, 0.07954892541985178, -0.017947240257763755, -0.014052450942458503], [0.14938146886746118, -0.007689986753727591, 0.025148311291658933, -0.004173052674224653, -0.027639523090961505], [0.14884482400630167, -0.007136601236294157, 0.08111007819747652, -0.02223030143583774, 0.01730272859282472], [0.06724936618832097, -0.01830524234875933, 0.11176257171487747, -0.01174864341176817, 0.01957069065104593], [-7.489284277887131e-05, 0.010883682362516207, 0.009979661585110168, -0.009560360644284156, -0.03139344815790895], [0.0032352505086511475, 0.027628354564046408, 0.0429753035253093, -0.028665893097693063, -0.016684036014015247], [0.0923176307982251, 0.02222876332094669, 0.04577575820950629, 0.028239222132028577, 0.07870497200891832], [-0.03480725833744054, -0.05809576428119082, -0.0298943305927637, -0.007520492967512739, 0.01655272308251376], [-0.0308218771694817, 0.01114890592791414, -0.008590952165974643, 0.03006275147690381, -0.01660257379589963], [-0.012991786784152956, -0.026949552102410918, -0.06451269932397846, 0.02398659548197251, -0.04774584158297714], [-0.015925184451860946, -0.00203584793830099, 0.021813577064713596, 0.006252915482113752, 0.000778494039882043], [-0.0461643121699421, -0.03754002331415561, -0.016852478763792603, -0.02330753827336119, -0.011534146688919165], [-0.05755677019118983, 0.044993692256281304, 0.0008918834786349853, -0.09020904874299465, 0.0016389990591228925], [-0.015665603046707603, 0.013870360418422855, 0.0125200037982353, -0.0039745322665721335, 0.01868687809084871], [0.0016571720858426715, -0.06654460960477343, 0.012691165604968994, -0.01571430810356132, 0.06276816356015867], [-0.0330174901800255, -0.08524463415043156, -0.03720252636140564, 0.02766332489961756, -0.04542925161141091], [-0.055256360308516515, -0.02782286223080794, 0.05433647024128939, 0.0652558565193094, 0.017391117313687292], [0.030466759360318528, -0.025750817668319426, 0.00913748023048462, -0.007797800947113137, -0.05148805218337038], [0.02935797985922013, -0.05307721569845412, -0.0014098037846265608, 0.01924547252665934, -0.01070894432887272], [0.001675416657692012, 0.0015407335170876946, -0.008845858039128974, -0.05545762938451794, -0.029915702535067833], [-0.011608701871143245, 0.01570632547912008, -0.04913661216149228, -0.029873613938072464, -0.061915253597698935], [-0.07269883561607164, -0.022360335175992598, 0.003407049860541817, 0.009951018458461658, 0.0708278748217076], [0.0051461471515672425, 0.07684285435373425, 0.024800583997404774, 0.02214685404304033, 0.028080362121015657], [-0.00025433499114095966, 0.015164052177842701, -0.023309027745346673, 0.05338397926473207, 0.04343629899388515], [0.07424668074353266, -0.020317181548768975, 0.11596753423755042, 0.06314756452070426, 0.11007483287828111], [0.07605874004270667, 0.017907224355339698, 0.04888295783949639, 0.049045310515449594, 0.04641219388822797], [0.13713429589046322, 0.027070756533751735, 0.04922259715678301, 0.0006170327670440707, -0.05348136684052226], [0.06442779758751833, 0.0013729226971647824, 0.02833870583445149, -0.01126906465073936, 0.030208620758597805], [0.08096034987661642, 0.005754466348686412, 0.01854881652296737, -0.06026397627255526, -0.01557965166484134], [0.12164276069868776, -0.012096196165913153, -0.0014136000632580163, 0.000572037483186952, -0.07643177070682618], [0.07641745860932006, -0.05105035215877565, -0.012518924878879898, -0.026187488471707668, 0.05429443455646312], [0.050634244784902194, 0.027219059983815436, 0.023736155439385766, 0.04689707490124262, -0.013601866154252669], [0.002560897320400033, 0.019478631686899207, 0.04255395523260487, -0.016909158488323563, 0.04205524455698342], [0.01555007389748451, 0.01488036169706087, -0.007206443048398205, 0.008180126740906143, 0.04623797039744527], [-0.04674926870585722, 0.03685149882746464, 0.040457222238161575, -0.005143208028613172, -0.02511530869229219], [0.0004478959675851656, 0.01341022526019355, 0.008758079009778569, 0.04630947432259434, 0.0611652006903462], [0.005991546332552783, 0.03345014363895954, -0.025859314516458003, -0.030492212156811343, 0.039678814159171696], [-0.07939313699070034, -0.04348779127911331, -0.05540259571465596, 0.0020259727158497627, 0.04225398209333178], [0.027912473376454378, -0.051760843383908496, 0.06651461145632771, -0.006832223754675652, 0.05137507205490975], [-0.006469723429294746, -0.030376474353575898, -0.004286880875086588, 0.0035985896907124483, 0.04621780466476704], [-0.001901151535689283, 0.005504318748659179, 0.03748233099767625, 0.014744525878109913, 0.0008291603436123077], [0.08290957593573502, -0.06560531252754968, 0.00936312177502696, 0.0037463603405366677, -0.04610053211044473], [0.05540035435415243, -0.006232619101310054, 0.04247219802674968, -0.06609682002833396, 0.0840646428965679], [0.005680179345753629, -0.033692439812185136, 0.032829110750802595, -0.0046739953308144525, -0.006507409279041658], [-0.01891081084714493, 0.05139325939643319, -0.0019016383994621352, -0.02725353948420876, 0.0074964969335109865], [0.01514305089941245, -0.005698166313801614, -0.06577134793483118, 0.04676761600385345, -0.0048207188679001865], [-0.007742363900531271, -0.0052489637766817, 0.036685636738900955, 0.024492719749650553, -0.011575572804070221], [0.0023395509759372916, -0.0425005111152368, -0.02786301502825237, -0.025555429578428122, 0.03251151153799119], [0.01180556410667356, 0.014790775650638377, 0.021681830075414476, 0.059168609591345345, 0.022987460816055273], [-0.06129564346104244, 0.00979386503613566, -0.006408041779216997, 0.024910079305806555, 0.03835278188482836], [-0.021110678744553614, 0.023297155751453066, 0.03992581030098538, 0.007148431718965303, 0.044684181164809315], [0.00354426705672097, 0.05794547158850951, 0.02175189585728105, 0.04961019578930798, -0.002306572884846438], [0.0012893684492316492, 0.029592493060538107, 0.03605069837360156, 0.032951210891268484, -0.02420523568931471], [0.0372874173111357, 0.03516485194455583, -0.002104730532620572, 0.04240170224998303, -0.02661208135339531], [0.06696127830536466, 0.03663666682435346, 0.00557265202903305, -0.011826759312332439, -0.000870391496168428], [0.08415609358149352, 0.04632472114728857, 0.04689575974859067, -0.026471395773441004, -0.05052107704663166], [0.046289368565923285, -0.05253416235877252, -0.0006686928633233489, -0.005362268274109469, -0.024845962164189543], [0.09388207347042538, 0.03866756705089093, -8.206442735362819e-06, -0.024063576863801495, -0.036195090160047884], [0.10819983015428046, 0.05346180498545237, 0.06298317739927228, -0.021058969842857257, -0.04748858368501875], [0.04148648890941254, 0.08517161814406865, 0.0015046060318094367, -0.015985613426939764, -0.07254205874542673], [0.059692184581575394, 0.0030165707491335357, -0.015530699197307977, 0.015665542675338085, 0.028324264552275276], [0.02729624760431164, -0.0011064019242451452, 0.024963350453478257, 0.010011760229275732, 0.011764079124481656], [-0.022819352812600495, 0.00397259111386446, -0.10202123336685356, -0.002492952654091013, 0.0332931615520298], [-0.035745391633527066, 0.04913473293840201, -0.0026889379939023655, 0.035065237533075465, 0.01156166945723772], [-0.0019470686676281216, 0.03445944956231828, 0.015355811459988416, 0.015682100552772294, 0.06444907855757645], [-0.021085363108435323, 0.02841535047317615, 0.0279636810601149, -0.0485883875812011, 0.0332091633833601], [0.014482950386058877, -0.011841210627008348, -0.017398247786138913, 0.08241448270056852, -0.019094272531652155], [0.06830825017841165, -0.01163209626788334, 0.04445307228503604, 0.031501431197671, -0.016251120695835772], [-0.02780276451616278, -0.037275195860367046, 0.022280887441448755, -0.005751380898562093, 0.055926469053639655], [-0.03128569839061749, -0.007999219987541807, -0.03247212834584599, 0.002841864706428539, 0.012556076034957614], [-0.020179440990727292, 0.00597092555934286, -0.03047897677213537, 0.020099827425576023, 0.01191216835568731], [0.07621595784063538, 0.03821399510758544, 0.024037977360229498, -0.004282709296452999, -0.06866590423436283], [0.004830371945230479, -0.044337185323224, -0.014442783937818155, 0.008077140251292686, 0.07186228438185852], [-0.04989424258300597, 0.06711039913206697, -0.05214887327841582, 0.00415865028025806, 0.07194580700899107], [0.0029909325863285707, -0.015654612722259296, 0.024042600946503023, -0.063518632907086, -0.020183650094819382], [-0.02715414048210154, 0.06377815181369333, 0.023560606123894726, 0.01350142041415145, 0.03603283339992774], [0.021223283263275983, 0.044408006062024795, 0.017860637180934804, 0.02592514908156843, 0.024102532071751146], [0.02356280076021814, -0.014500067973754794, 0.007231244070344978, 0.008419070515383167, -0.02724523921581125], [-0.011706791222363832, 0.005147288303354154, 1.5153479852247766e-05, 0.042852354138369415, 0.025076804338023846], [0.003553648103522449, 0.02533308663000833, -0.005379583343740816, -0.01771046276872674, -0.004091861251512332], [0.01867853217034984, -0.003615755374645027, -0.021704099268113328, 0.042434632855341256, 0.047652242079831285], [0.0020072290186760808, -0.02431037993077494, -0.033341189875432074, 0.059449987494515, -0.004766246706067857], [0.02749262375575846, 0.042514345545423396, 0.007736292672739111, 0.017396857345418182, -0.06411196562524873], [0.0418578708157921, -0.009354958999586408, 0.03375670296342756, -0.02352266651293317, -0.051362014061984984], [0.17600207702679516, -0.006334831871550977, 0.01544291552107551, -0.038656126177829736, -0.05861171791367956], [0.0012758955387970757, -0.06979721367254833, 0.06809108209758215, -0.013709672663965188, -0.00993483310428393], [0.0597511834090756, 0.0920255398302577, -0.024430636395697723, -0.05454424216984221, -0.03298850756010414], [-0.019754318143531135, -0.03604676685668684, -0.0002321223107992017, 0.014523243019245633, -0.04562953424594054], [0.04587683670074472, 0.05361662808038264, 0.05957492549521823, 0.009131027899102969, -0.08626858672699834], [-0.02983813642276645, 0.0008509058639481576, -0.03506079597589993, -0.0731466333309444, 0.040408550149756195], [0.021975239833912915, -0.025066040519555854, -0.06888697581928208, 0.03048070637622857, 0.06801247336109896], [-0.0602264427047804, 0.019888091215953852, -0.017206631272311295, 0.011979174906909383, -0.01230665136816965], [-0.006448416477765178, 0.05394269031906452, -0.03869282316648452, 0.07646739106607102, 0.06494568373938861], [-0.061612053435780786, 0.01004110072504783, -0.047316496709476116, 0.031511371559880305, 0.02339870812289588], [-0.04608289041514673, 0.01448001796687851, -0.0023997036253359237, 0.026070637974051594, 0.08361831470576671], [0.04836048612332191, 0.02807862294137939, -0.028308845649369956, 0.022755861195143175, -0.021889206232250397], [-0.045735948049590656, -0.03399940410148687, -0.034505323062067314, -0.01794995303347844, 0.026507382776502456], [0.038816624210542695, 0.004652624799407793, -0.004500689686474059, 0.023898744562786536, 0.019150861945885868], [0.03345603226878873, -0.014347189641807732, -0.024728736468395105, -0.023817672678453746, 0.05882059742211359], [-0.00251478826837077, -0.02073408970721377, -0.049946672761946545, 0.09468530642618365, 0.06468977080513612], [-0.07834426023553132, 0.029746370170856306, -0.0204319031605732, -0.015803609384208304, -0.006790283586900256], [0.026730817655016472, -0.07179919440166935, -0.0402393280152811, 0.007891150068608181, -0.05809323584370375], [0.02908394756257465, 0.022647250161038437, 0.05619888350720213, -0.029533750112377806, 0.031172881306184456], [0.05613311567457873, 0.0298805938747437, 0.07406526204376747, 0.024697689597967695, -0.00564616851571359], [-0.07710550168201322, 0.023833047904542097, -0.006694490352325915, 0.06533266988099651, -0.029191693587970653], [0.03370083243076148, 0.03340490243956413, -0.060773647498487744, 0.010360482807122533, -0.00010586417760474077], [-0.03404765408479731, 0.011649734724965069, 0.00903303754317382, -0.011489977971355715, 0.03727133995023192], [-0.060645499531110286, -0.0035105304283769784, -0.01981371310725917, 0.026692954793586382, 0.031462025913838655], [-0.03444301472882176, 0.032687133067995124, 0.033549445372757974, 0.03504088506730704, 0.028363130167037037], [0.01491333505551166, 0.030177019394065155, -0.001587305064823535, -0.0028753775898644396, 0.04073310415492898], [0.02977498115982382, 0.047351461705690295, 0.021359871401784726, -0.016287286020400315, 0.0030517059292105284], [0.035817999131896906, 0.04843516918590785, 0.026658270194909246, -0.0335262194157482, 0.02459149002658714], [0.016148538828620187, -0.04372268323751639, 0.04841159085075644, -0.03212263968242804, -0.030497474222467832], [0.08599998548245823, 0.07202131046852087, 0.04799068245569344, -0.02261530534328429, 0.007273732026569905], [0.0941254676636189, 0.007156277637051005, 0.02142522597637223, 0.05539631583723433, 0.03438967685994154], [0.07001594596787632, 0.0207639210245476, 0.01691204699819104, 0.042301665844946844, 0.023082343934958588], [0.030276069956394248, -0.009936420113382234, -0.03824443641783483, -0.0009591536601466906, 0.033471894660627305], [0.01538092564679577, 0.01329452792468945, 0.005943535648717028, 0.029219148426302945, 0.021751816579089308], [-0.05242251718994299, 0.06349340871674677, 0.01484548416372793, 0.011579200542879245, 0.03993646314799409], [0.04745924061336602, 0.022383997000223744, -0.008309698439987686, 0.002281414170150082, -0.017132997099897546], [-0.09231198876291603, 0.009058212035268525, 0.03521625007684128, 0.0571491677899073, 0.055917180338681566], [-0.04290989207049625, 0.016280470165869594, 0.06227679213717367, 0.007698406755525098, 0.06008995704257101], [-0.04633165885649028, -0.029364211193985697, -0.04266608601643423, -0.016395497042826064, -0.03612062117685489], [-0.03156400698942622, -0.030245813472667794, -0.03979664282770755, -0.010685722614305592, -0.03808227362194948], [0.04244276572309404, 0.03236770019750883, -0.004827372287898069, 0.02763770999429827, -0.05412476932962441], [0.02985815757051041, 0.03498485574120822, 0.009672549853000359, -0.03337624814274375, 0.04585218244694785], [-0.019609251121105887, -0.0074567689143552034, 0.018167099716118046, -0.014393248230903074, -0.03334064762077936], [0.013735029384987605, -0.028007458172353106, 0.009046248058786498, 0.025290875965417205, 0.007775552840140259], [0.03347212485775983, -0.02396784020746293, 0.024730911443111514, 0.014356772630386011, 0.05052990037017814], [0.08363376257796602, -0.008350892070737564, -0.010600558975263066, -0.0007070001974780745, 0.00019621192290965965], [-0.031307196852166604, -0.05168449615996774, 0.012478106829972012, 0.0861792484539845, 0.09480235684038955], [-0.0032257283551155973, -0.0009672237668192481, 0.09477113591666896, -0.020376833615125788, 0.015393915292075249], [-0.011907119843093979, 0.03806582460908224, -0.027618680043808293, -0.007826937129782614, -0.042761420357631086], [-0.012459411684054844, 0.00514543831119675, -0.08656234914871569, 0.050256273460617944, 0.006643820417781243], [-0.014873536994885504, 0.015845776822265328, 0.04369027831799594, 0.04653610845769524, -0.09787069333934797], [0.008001046481893597, 0.012388425585889104, 0.020136146359313954, 0.02564677329461882, 0.03682215174202453], [-0.05355301315681084, -0.05663306683639827, -0.030517416822246533, 0.04187850105172395, -0.009121467689603393], [0.031512363638560956, 0.05813555740454176, -0.024411777719970086, 0.006497471950070531, -0.025485108604706413], [0.07537794076888374, 0.039991387974495404, 0.04721876753136679, -0.0027795030975729454, 0.07559130069736164], [0.043382123581937534, 0.0035116547294425644, 0.03881032931712819, -0.035928149969660955, -0.0715296070967431], [0.02479179484504683, 0.02796068551684343, -0.07932073850174057, 0.04001464648253594, -0.05697961095844792], [0.06292722364693575, -0.01974857919687198, 0.07689379759286942, -0.031177195769685268, 0.004804852501663215], [0.0323994965292525, -0.031092195516173888, 0.031417203814738115, 0.0036967437832333464, -0.05493118980764684], [0.09111665443816028, -0.00038765817741412867, 0.004166307623704381, 0.05042465320791186, -0.020232537890180015], [0.018366650621369784, -0.04375109581199108, 0.040995523576466776, 0.000678632179272761, 0.03924097954183924], [0.14417661466033327, 0.040201175032155964, 0.02987442374609304, 0.013990006040550782, 0.019828195789214485], [0.003263206111546433, 0.004345537553590677, 0.027119049203039723, -0.06046564721466714, -0.005216278826344808], [-0.048024816753370725, 0.048191053020171494, 0.017983432526102447, -0.012755767057010998, 0.041230736401534664], [-0.044001885850186696, 0.05944496469140357, 0.01956119645348581, -0.037134166008297415, 0.03176262816424161], [0.03742621008125764, 0.007937642108665977, -0.010836767964205194, 0.01958525062237917, -0.021132850961019887], [0.017721392411484016, -0.0485902988876822, -0.03276826445785542, 0.04675005979701073, 0.04108635088245492], [0.03170597368642641, -0.04111910156304386, 0.06605964629568208, 0.03445173832591489, 0.028744094032554637], [-0.002307246338065973, -0.01926925300849949, -0.006423867784567438, -0.02109509799124569, -0.021608750894429898], [-0.03155436298645365, -0.0012058193062220127, 0.05078973201577772, -0.01992573346276129, 0.00733574688591713], [0.005558655479341787, 0.02750990248984275, 0.002028732400303379, -0.08657258827309326, -0.027523680652970905], [0.03490647578218116, -0.01680861746362943, 0.0022597053696711616, -0.010169970510983698, -0.008242940126409467], [-0.013318106670086401, 0.04411761596239735, 0.019072053396080087, -0.018306277092320116, -0.004281406548934031], [0.015300780470340352, 0.018742830632778443, 0.020386009398691375, 0.021421742817081375, 0.08496661222353047], [-0.026910397012033144, 0.009000340582997096, 0.04920382601572956, -0.014218045869215282, 0.0027439709774607635], [0.033495236632154965, -0.004393347988656204, 0.03919538621341026, 0.0005591062543841778, -0.004661989081615301], [-0.03164953772886913, -0.01548003826894409, -0.0031792799724094213, 0.08595670963781374, -0.10610190174379248], [-0.01590105021707372, 0.02587285493272731, 0.006809930469829084, 0.027361977344709496, -0.023611346418783846], [-0.06749420321953928, -0.036369544055076905, -0.00023380685983959653, 0.04314369297749646, 0.0803668168227003], [-0.018735483030521565, 0.031230024753347907, -0.020894832757507344, 0.012055887040779709, 0.0464005627405821], [0.03341834024683661, 0.04499151435387322, 0.020713401657745115, -0.022378109242189276, 0.009808240155740642], [-0.04122943186717045, 0.012604835730665093, 0.03856696840787836, -0.002887354657445243, -0.015802595285006302], [0.04454865612522325, 0.009692479697085941, 0.011324262966939808, -0.01670866395475696, 0.0032463758225358824], [-0.023893258140050114, 0.034057658419636316, 0.013446141659561244, -0.01540312411340021, -0.07690579981749181], [0.0498745929930203, -0.04663263826087508, 0.051779298013367024, -0.061053329789925906, -0.09012607950021814], [0.09872399261014342, 0.00842693697574122, 0.065808539683065, 0.02395510836874255, -0.03338776934710571], [0.04338104350144731, -0.021812127576374, 0.04667512865080461, -0.04942939453849624, -0.0030907239502554716], [0.028604265888330482, -0.00708611165366256, 4.371441575883979e-05, 0.009070750363558111, 0.03417754622345128], [0.02951706339113436, -0.015259586711875776, -0.036124051162290685, 0.018895845767729857, -0.028969228912029906], [0.07940402708057083, -0.00537325018872303, 0.025513825995891314, -0.11632944158822096, -0.035078024717742], [0.036407253125302484, 0.019555178910349903, 0.00856700731482324, -0.015690959814940206, -0.05397278201750484], [-0.02823044698819747, -0.0029209201940783125, 0.0014446689292240901, -0.002473449196926732, 0.007244806238495371], [-0.07982689814471912, 0.008613160958906942, -0.07793594021716309, 0.031186791585292244, 0.06861262133840645], [0.017346722501151223, 0.011961455997717488, 0.04335102708880997, 0.03968270641977028, 0.07725526764509383], [-0.05592895865261476, -0.0018914731552492569, 0.0371490340518672, 0.03027220166507778, 0.037434380200059444], [-0.0517332490771892, -0.026159930656251138, -0.04451888342834956, 0.07326869114666404, 0.03867348221062302], [-0.005840118626825824, -0.038154833474662773, 0.011578832858008795, -0.004423675028139376, -0.011297488524473468], [0.051045132712446616, -0.006252713563332235, -0.027432033484552233, 0.0234367914087406, -0.09811097821673302], [-0.001976108929012945, -0.051341356792804736, 0.015169775166006674, -0.0077438823370347565, 0.0792755463207733], [0.04257817933988667, 0.07594343191478056, 0.015980092389491597, 0.03923617162959288, 0.005847480295393453], [-0.03457795668104745, -0.04198899378222478, 0.06763111911772192, 0.0017686294016291209, 0.007925611750140569], [-0.0076580481235721904, -0.058118756560446995, 0.04681128285241162, -0.05868656991788712, 0.00953361977623784], [-0.0022916828050738845, -0.0556070726508658, 0.024572476347504767, 0.0076613853816267655, -0.008154812076812065], [0.03289128915884691, -0.06926602470120748, -0.0615070134145207, -0.023561064099709282, 0.004456813991962456], [-0.0001986932671143269, -0.030682145361076156, -0.0013087736450404493, 0.00018392167703859538, -0.0445755481075002], [-0.045694157469950966, 0.044464577903917446, -0.024383110893406577, -0.002411313883559425, 0.06463614938346537], [-0.011402001876614058, -0.004996153847348494, 0.02314170267464229, -0.0026356437111060005, 0.03502211541510952], [-0.013590334073405841, -0.058783472762549145, -0.026936397556259647, -0.06261333256970683, -0.021610880482571995], [0.02103154525598244, -0.009757679969078155, -0.020576135795353858, -0.026310065643491472, -0.028607846286471957], [-0.01668587952945946, -0.028735100357417505, -0.013440972311081935, -0.006598890664796859, 0.037986894169926864], [-0.058045609084379814, 0.08524486473901767, -0.05469443457888674, 0.01646596802902363, -0.011312738485810903], [0.004412458619417778, 0.03879844331886249, 0.014797485695377331, 0.02212737516112259, -0.0021004045770208982], [0.07950380199156239, -0.062000892940403694, -0.01998001303265702, -0.04339162955630358, 0.004230413224504767], [0.05852050322549067, 0.08416253412482345, -0.02052798808279122, 0.016203460631869684, -0.06519241412273372], [0.07134501783849331, 0.004890097749535901, 0.05216048845922134, 0.02023076696588363, 0.025580283194315472], [0.019949928492476746, -0.005341633508594335, 0.00052684678356508, -0.053169905135558415, 0.013560099567503934], [0.04756170411321282, -0.0011550714079940829, 0.07099951989101078, -0.017173607968124203, 0.002397948485846562], [0.06210049486117676, -0.04045380063853421, 0.02661658197935571, -0.034757473575633024, -0.017877875314151293], [-0.0014520115612054272, 0.00222801487323847, -0.02542843155612937, 0.010168644624762992, 0.0038633373303053387], [-0.07460226215043414, 0.03666658699615583, 0.026533453391929127, 0.02663906208383765, -0.010958636389842794], [-0.0005029392767976727, 0.025022773580070053, 0.02773783843043258, -0.01624572060584552, 0.02099528880036415], [-0.05558944934126329, -0.031569240923535614, -0.07274077092281653, 0.02600565741853719, 0.03254326589475213], [-0.009481795541224802, -0.03206561274656256, -0.027415761823748303, 0.016121527819317208, -0.02537612395329555], [0.0076985104259937615, 0.03817233406838069, -0.00023098840349336045, 0.07266738425154129, -0.012095166907136709], [0.011294226687399699, -0.0808487006206158, -0.041772788573099906, 0.01637776350337404, -0.07604389278555872], [-0.041688522071909186, -0.022220800250048398, 0.06203352422106423, -0.003301264020460094, 0.030519484692154472], [0.06567424094401816, 0.022377215328851487, -0.041798338325286365, 0.014751912091850795, -0.023533465467167548], [0.05344207333640918, 0.07054626445556432, 0.023009824311909583, 0.0010538861748401128, -0.012270199927575345], [0.003018000335064574, 0.03819905525548261, 0.025297188142732296, -0.010154573118513897, -0.004613363464558447], [0.01948869902700115, -0.0190466947678692, -0.011609054944494495, 0.03057076793399153, 0.020567453679121408], [-0.012671840206461017, 0.02214273378406855, -0.013624087429139578, -0.038265130411520076, 0.0026882196362718307], [0.022507206555144387, 0.04735412227314022, 0.00580850728087527, -0.062289428843183434, -0.00019382622839291143], [0.062085416029135074, -0.049498404858777906, 0.03353420156919941, 0.0006130173297852021, -0.05735415416882849], [0.0003328700283016181, 0.06862441614598432, 0.01951140100771782, 0.005289520369047182, -0.008856260785848334], [-0.05097317026105175, -0.045503317852888275, -0.03852029676851675, 0.07215753971111906, 0.06563805804555646], [-0.07044877587826248, 0.023848530976337858, 0.012012861138956278, 0.10103879450298066, 0.04946030216194857], [-0.014718790165594436, 0.04327563120769111, 0.032601618866283426, 0.0006238687554507326, 0.06880064182997891], [-0.04292385933627058, -0.020324272741475316, -0.014948205486338144, -0.03626388419115197, 0.04333489875366275], [-0.05779084038772793, 0.03126811527585123, 0.026470591848150087, 0.02560943877585764, 0.016490311340480103], [-0.007494686160073293, -0.0025662882570784418, -0.010564491443385518, -0.10929375134878432, -0.06570569349321062], [0.026986640246352975, -0.00666658195864372, 0.025039785900701664, -0.01831121427198983, -0.03283671371018929], [0.09726152772618017, -0.07512487074876646, 0.04897154138808563, 0.022534295152187755, -0.018393110773104696], [0.10874843134976311, 0.02701906753322719, 0.0026039642392297973, -0.04951788246965779, -0.03924891249701833], [0.04112687866391994, -0.0658411223277371, 0.05867178611840114, 0.020653935410281005, 0.03356324939214095], [0.040790661001859435, 0.031114093926615256, 0.018210780109902763, 0.025654130816215946, -0.010458818205809664], [0.009700752141128113, -0.008010225680740364, 0.0023234631545043355, -0.013556325698592633, -0.0034190851788551972], [-0.02188164693940354, -0.09162193421642817, -0.04709734697596049, 0.010389886708642788, 0.07497678677726953], [-0.05028537285365344, -0.04192899660691613, -0.015831904301285102, 0.02449964854182597, -0.005005437192431149], [-0.020951890008884796, 0.06559595675489079, -0.003998172525502092, 0.06353278496447758, -0.00873790856820399], [-0.04074400422610619, 0.04346093393745637, 0.019937347615427894, 0.03094105968441804, 0.03220119877983444], [-0.026504389565263683, -0.0027287169036302587, 0.06552724146134753, 0.03227751532871265, 0.03727084626982702], [0.06676076824148976, 0.016642430248617498, -0.052042864165457454, 0.041029974416627556, 0.028843328906750173], [0.01790590721046454, -0.04037100695333977, -0.059083887736239744, 0.01141431213023469, 0.0226547023064018], [0.008315794395231292, 0.04807497618724938, 0.01758947536022865, -0.035664501597992906, -0.005407159835759723], [-0.00992414881502985, -0.012441340020956138, -0.03500355874371226, 0.02009655192519121, -0.00034263809647444826], [-0.014714372193630403, -0.015534918350875447, -0.0023018940628613985, -0.048300480586082654, 0.014231615624939973], [-0.006860804801943299, 0.03727397434554219, -0.017752207671415804, -0.009494839785616927, -0.04208819646641083], [-0.004712349194649578, -0.053090586954461755, 0.021805928087549394, 0.02417707369938007, -0.03259886465166277], [-0.0741138653565678, 0.02526125855616695, -0.016789484973158793, 0.004442215008120266, -0.053212663037353156], [0.0041420199526845895, 0.007415343268308876, -0.02454248578779406, 0.02095980409729015, 0.011785483406487074], [-0.010446145351589132, -0.016397410470775902, 0.06410322925955705, 0.00964035069687682, 0.015193894409987908], [-0.005575448971164091, -0.0022140717372053356, 0.009574235425243246, 0.04859318173737715, 0.02512906608192517], [0.007949383793114152, 0.014859606497347305, 0.03492492659989376, 0.03283468547714955, 0.09710991328299998], [-0.00044767893176959043, 0.06602594890368653, -0.05432226678764298, 0.0665815803527237, 0.07917993284622041], [-0.012188093941789376, 0.018455483895146917, -0.03526328159281559, 0.05340628209372761, -0.008735213471358408], [-0.00914579443992816, 0.025300250394954652, -0.032482131107022943, 0.007779226964741784, -0.010423742997026805], [0.050193749557099154, 0.003152517626344918, -0.021107640092440143, -0.010564000826006755, -0.053671338921555886], [0.011942941182586165, 0.0008739264574166676, 0.05143041692724126, -0.025366106388612454, 0.01587072457458866], [0.06545640612845129, 0.009778997343758908, 0.02206175806088944, -0.04903757141987845, 0.049549627312013844], [0.047167822064928665, -0.06613790457475952, 0.0014079419963205025, -0.03514243969087004, -2.6859343739180774e-05], [0.0933874960430294, -0.0369782938358273, 0.01802486584816197, -0.028894232850351108, 0.01365522898201699], [-0.010401699203541745, -0.1136559005796403, 0.014044158164673283, -0.004405971112926829, 0.029114290398633415], [-0.03243170081087481, -0.07298805484214034, 0.03692471150518734, -0.026462734916438288, -0.034986880549795846], [0.031098062405766826, 0.03948204694888183, 0.11363495222624549, 0.007908230038064816, -0.03250669998826126], [-0.011942792959278612, 0.014856519414454079, 0.06006383482142701, -0.02625072509046928, -0.014546460002887738], [-0.036043994678738776, -0.011700341149785886, 0.006698708831388776, 0.07405116314735716, 0.03307579677127874], [-0.040876976437726455, -0.0035128752603140927, 0.00570278386294955, 0.051521686406099484, 0.060790703646677595], [-0.003107665396144676, -0.02448682929685134, -0.04983526851124111, 0.0008792553814162461, 0.06455177105769715], [-0.017176943711544043, 0.018587700577508085, 0.03715256968011217, -0.04618305612475326, 0.07592279753758706], [0.007749973168512215, 0.047715992645609766, -0.0014254984068135955, -0.014706738803499287, -0.009196124868706072], [-0.005950256901056276, 0.009681358981577567, 0.011159135119625008, 0.027545493638478618, 0.03399240809973765], [0.007211031609826088, 0.08811515532903953, 0.036064413814316194, -0.03974079637504449, 0.02407149500500958], [-0.08093646216342426, 0.0420421551289078, -0.03176528480351605, -0.06828596266794028, -0.03244419073879431], [-0.0029305241424837573, -0.007094099229945903, -0.005967061494113307, 0.018727632784965753, -0.016344916231293184], [-0.05369628556284301, -0.042825636760327454, 0.026890838917072547, -0.007462561433079619, 0.001293293065122716], [0.01694927519920097, -0.04694868643358379, -0.045473451001424546, 0.04326974485200865, -0.02427873611179077], [0.008565272535379953, -0.027579183649662706, -0.0018001232879302125, 0.004192514100570495, -0.02173743912798902], [-0.04573578694402666, 0.01530313933883713, 0.022491161011792077, -0.02078219833876867, 0.0403747221112299], [-0.021103887225078898, -0.029439793802652152, -0.02855525218160738, 0.029457321274360643, 0.03678912837884589], [-0.016848389038774475, -0.05526482018824526, 0.05793662448662004, 0.03902947709919115, 0.019430180799833947], [0.02387350803791536, -0.0027427517316715574, -0.02607828649873309, 0.08780417728819964, 0.03514106642823436], [-0.005053645833655599, 0.02044307479054747, -0.013775667868458592, 0.026776893374364084, 0.03401270550942093], [0.022415945842900093, -0.013670836988468498, 0.03042551890005626, 0.00023274174234988936, 0.04349736042271858], [0.012316515034771516, 0.044493272137399544, 0.06143036576436707, -0.02724594414269104, 0.07557340561665674], [-0.03392293253864938, 0.006477347194810518, -0.03375409956260359, 0.010647191627434724, 0.0011638306147899826], [0.0018960540322092664, 0.03931820371042188, -0.060008695935914895, -0.05146819341443275, -0.016029544479745885], [-0.020810226168572227, 0.006300611339587262, 0.06396612333269923, -0.01833683922590158, -0.03172121214069365], [0.0739031736821288, 0.010986515198825562, 0.03921500605319283, -0.07058613742739007, -0.02080231465516574], [0.025889242125997684, 0.009872833005971372, 0.014725368980460271, -0.03963068879840316, -0.07005146720756265], [0.05437425340061749, 0.0655345863216483, -0.0207024703390053, 0.010856302663997865, -0.017251605558331294], [0.05550411832939749, -0.0069774431781184304, 0.0363013475655097, -0.02840462202321502, 0.027883802634991094], [-0.004674799867970269, -0.06130687998767818, 0.05546742646180641, -0.04940332689901339, -0.019440327468739936], [-0.006417679609742158, -0.024184099435022567, 0.012113623051498518, -0.027177390663757423, -0.02948419558851506], [0.014844575103144542, -0.013781271133308577, -0.04321104775082304, -0.007880778257837498, -0.035383614683422535], [-0.01987499972523306, 0.0024328941078790656, -0.021642299613151172, 0.02306515749517103, 0.040573565794561624], [0.014321548424594424, -0.024405919763884378, -0.02498799496087631, 0.0064872559553782955, 0.01749920185877484], [-0.027143699436605932, 0.04457588463307062, -0.051302851451491195, -0.017459008328254033, -0.013475473762594514], [0.01541779631341529, -0.04921279050441432, -0.0024228794696073267, 0.043541478029407624, -0.0036139927831148034], [-0.005375853000351762, -0.006339003582459178, 0.00911475721770662, -0.0012599633938127908, 0.0247746656980359], [-0.010177135740846548, -0.020674922783953425, 0.009094661493858694, 0.01989408020281108, 0.028227097526324928], [-0.006235950191967849, -0.04311185130543247, -0.008633383519989546, 0.01940616813983953, -0.016914379589588004], [-0.0036924934470336486, -0.02713436292438692, -0.06348302189765793, -0.013446560981660537, 0.0528907868564945], [0.0026736094564524387, 0.1099541937314404, -0.00911435850489936, 0.03393079617231806, 0.04126978233675381], [-0.004115587072660664, 0.03718613300172739, 0.053495326991551684, -0.013623282728086793, 0.03182373176173606], [0.011536530681923816, -0.09173499720383405, -0.015760880586492953, 0.018853150934983243, 0.021632976186142797], [-0.11073961201919943, 0.046346552388331026, 0.001649345798360587, 0.043542776930047565, 0.01946487292236387], [-0.011977639254764293, -0.06203688482619349, -0.007372726953471218, 0.0468583634785626, 0.011749697538452295], [-0.008440751702150962, 0.020744883076787738, 0.006735524905114824, -0.006973528147081023, 0.026472665630402674], [-0.06725543653146634, 0.008922528305679987, -0.01845080483750766, 0.04705286554875134, 0.02798138089747283], [0.02053523960932327, 0.031427459154488704, -0.006403407490691405, 0.059476697047278065, 0.05028626487593614], [-0.0034445040069868526, 0.024877606483932925, -0.00508721881876823, 0.021978946394817372, 0.03090931171663696], [0.010248454631530936, 0.009532994854281173, 0.01502340034894842, -0.058591929644214155, 0.06490970150051832], [-0.03107960655613661, -0.011386373424478948, -0.03600962295196692, 0.024584848831255487, -0.015373194229947346], [0.011471124157595056, -0.009348788924285239, -0.04283849047650284, -0.0814917080170768, 0.0007953885706972505], [0.0033978994817300424, 0.005229495798018794, -0.062492130201438706, -0.0436262831429756, 0.024481945600129704], [0.04966406715025115, -0.014770415363523677, -0.03558577609544627, -0.045651388376416, -0.004920537936764983], [-0.00635302363159078, 0.027588237939758193, 0.0435520293066564, -0.030952155016962715, -0.046916734923751695], [0.06800889548973502, 0.026310313394612452, 0.06258565380038371, 0.017894586372721972, 0.006216123226643203], [0.03805126432321981, 0.00928821356306851, -0.018619630154488375, -0.0022262067782118328, 0.019344632895787413], [0.06935360914996727, -0.043091470178599066, 5.251507453780134e-05, 0.002080815854332565, -0.00433751522537058], [0.07474375171692949, 0.03910825219851411, -0.032279413790663326, -0.034539549771121905, 0.01326530648891703], [-0.07267602244780404, 0.0011468205457952495, 0.005168609228718022, 0.06628838516074438, -0.06596553886345975], [0.02725546534734869, 0.04413719110842459, -0.07216028351883409, 0.06108929309431497, 0.016126424001699217], [0.012510299629191922, 0.03748123125735836, 0.028674727601987436, 0.07258034622850508, 0.021245197812393875], [-0.11146002052461856, 0.013141869761550413, -0.06170789391230556, 0.008490858661275653, 0.03321781224328248], [-0.02973628573375391, 0.019940669332542755, 0.003391084607658511, 0.009387927254630076, -0.0025123217809400454], [-0.03106375560367608, 0.023995570854702487, 0.05731482347166148, 0.03773057890555118, 0.01155466866795421], [0.0778774210253531, -0.025540004048926916, -0.02369773347678717, 0.009160662572264422, -0.011181973706273983], [0.06968953450613369, 0.0101665148511869, -0.018266829624920697, 0.032068441997950364, -0.056009794300432604], [0.03465755542673195, -0.06035562552094992, 0.0521779802676681, -0.023241426596812647, 0.0748948718344855], [-0.09122054327658267, -0.0307530217970109, -0.033546894599280695, 0.030905375008193455, 0.034159290712111094], [0.019713880199056965, 0.006354903578333703, 0.07904410737575815, -0.049258196733077055, -0.018171354684629548], [0.005492062741549765, -0.027745887664034904, -0.03727240652816015, 0.002571236171999996, 0.030310921837792906], [-0.00014638343140425155, -0.008993457720703564, 0.0007757447847703026, -0.0397959582400743, -0.035534906400196443], [-0.040810704143173185, -0.04265676442675313, -0.039077148389746824, -0.015368187135617257, 0.07683278130817423], [0.07423172140504039, -0.03227509573293676, -0.08518320324724037, 0.07892315284888846, 0.021483725631196993], [-0.004628638852240828, 0.03206752762547197, -0.007876749276647202, 0.039673987518712255, -0.009981458470803619], [-0.08510759702951091, 0.012805728064563385, -0.06161563087904333, 0.04134178733965766, 0.08896919732658268], [-0.05648544015061228, -0.03031616211197811, -0.006265926119944405, 0.005862370930945472, 0.021792308116204476], [-0.0017867765133786433, -0.07999204048715114, -0.014085408834478404, 0.07045624070998793, 0.054360679696386895], [0.03126644180762973, 0.0982903834194563, -0.04759839981502261, 0.010579571305521094, 0.05499688486883996], [-0.04305420383250137, -0.018590665314836503, 0.0017740108742322943, 0.03759005784826098, 0.004970330433067961], [0.013916740199444572, 0.0007762928741716019, 0.025953319189206174, -0.03082443486365117, -0.0034423247604400235], [0.020639265364335555, -0.04116765099715078, 0.020103405268210195, -0.03776825960723589, -0.04662798393035816], [0.08421382136241551, -0.0011408579600127565, 0.016753003589880747, -0.022741955518873567, 0.0023209210170740974], [-0.02800095393100361, -0.06270021907655415, 0.030394592021617067, -0.0032522012877595034, -0.008076688227808318], [0.052521911097322634, -0.023740776753813315, 0.03175311746297303, 0.02891273145675946, -0.005142430333409837], [-0.022011322614555184, 0.00819802590725316, -0.038909267893297246, -0.0009418511742179562, 0.07637402836146345], [-0.020220522048193367, 0.03879327260925886, 0.024487932821457253, 0.08890152667713852, 0.027546406021028823], [0.012704082842364274, 0.09915008230799609, -0.05770364493236372, 0.010877012118995109, -0.022351767543078917], [-0.002054729049048427, -0.00255154493500902, 0.006144289072406389, 0.054758013967856636, 0.012503478814499923], [0.05107920492080936, -0.013029261564511833, 0.05495690599451506, 0.06085604068973046, 0.07617699604071336], [-0.03976691443617347, 0.013261900263863043, 0.029027257651359856, -0.06585841250833444, 0.03391781426444293], [0.025773295234515742, 0.048470537091878305, 0.015881156952145786, 0.010128301324219068, -0.035928379327896755], [-0.04966484264923008, 0.010245728300847209, 0.009715181690118193, 0.013358757317556137, 0.048072769247890765], [-0.02893603680888423, 0.03137165303849978, 0.029496813827207116, -0.0507429281483446, 0.06317534400090019], [-0.0556969508750289, 0.07366415871997513, 0.05141054664583426, -0.03559891661480625, 0.001515129314668091], [0.021821127296906325, -0.040153767949418835, 0.026965545926882252, -0.007812948968834025, 0.012815034709921713], [-0.0024469782370771355, -0.0146408529503505, -0.0645825795124917, 0.06743915588132716, -0.025592196691591174], [-0.003099671243291265, 0.005265006556466147, -0.009852383941522673, -0.028134879132093605, -0.010811137694598117], [-0.06624476451335, -0.00010087400610869524, -0.002630036161290599, 0.017622024524275887, 0.0017251867755049733], [-0.04940080401118735, 0.036845996067393125, -0.035724896047245235, 0.041343987796193526, 0.010145573621341615], [-0.004227888656277785, 0.02219835028890439, 0.05109385739060864, 0.010138069021967042, 0.014059394616789928], [0.0376854882587296, 0.022431131863030456, -0.01500787357657342, 0.002681118167090229, 0.018445289612330128], [-0.09583054312428002, 0.014701901965673966, 0.0016365544713699486, 0.019023574237995736, 0.018426091970473457], [-0.02440056316798625, -0.02299330977412908, -0.040675477133957604, -0.009369036484555107, 0.05101163601558219], [-0.029959540873443623, 0.02178915392983279, 0.032661665762655764, -0.022396748766558314, 0.03425624142079751], [-0.05708440652039476, -0.03293633242969892, 0.002501933169644484, -0.018031401455490245, 0.06573565900417927], [0.05189304310842328, -0.015656112085467962, -0.027313065491838127, -0.0031121559317067275, -0.03267903088586021], [-0.006350851800127592, -0.010217142456501615, 0.02431294062683578, -0.05198014454716208, 0.026371407106030826], [0.017933903009421926, -0.049480654300538364, 0.058031535475368067, 0.04715903862524225, -0.007166388576667465], [0.07158324908084414, 0.021297049429045072, -0.002381086932424042, -0.0010551021122180964, 0.016453493673739255], [0.004192472594909319, -0.05518228207088898, 0.0053572549127348925, -0.015902449323469906, -0.012144739411918265], [0.03343459684181773, 0.06280791539939835, 0.06726808056158291, 0.0028891337478852224, 0.035683088816009775], [0.07635095245235939, -0.015960228172697634, 0.044521119311839046, -0.06315006300131591, -0.022041729963520534], [0.020583554299437, 0.00554064628176545, -0.03623577262390041, 0.010340607825885, -0.011502202028808533], [-0.019019326222626535, -0.02444494661710799, -0.05216543031241155, 0.040404972136030774, -0.06602242353933689], [-0.01601297012632747, 0.017928719478005704, -0.0024713619497059324, 0.03242733788415662, 0.06086688355566864], [-0.014459687262532751, -0.01983799097253684, 0.04690837381158275, 0.027392439820323314, 0.04114186495974518], [0.013227920812818272, 0.05583606927476762, 0.04451149170674881, 0.026187603213954087, 0.06954622046783655], [-0.029557894613294798, -0.020874382367051456, -0.03942567904144812, 0.022912566816482138, 0.06541170482851887], [-0.02975665654868192, 0.12146331737367026, -0.025633985496120854, 0.013762045822582418, -0.024126238128241183], [-0.022509678676208497, -0.04758326689851492, -0.04604612686702081, 0.008453368718141781, -0.061624522757658035], [0.03998901345690478, 0.046881975737459336, 0.02758299232335787, 0.03138777862478128, -0.013907414335042554], [-0.02598091108764641, -0.02842689644367796, -0.015371169441855575, -0.04524229068279618, 0.0033013790559422557], [0.0617625206228569, -0.0735358803596962, -0.011517658585685903, -0.04933519851496492, -0.03954114719571307], [-0.01969498707404679, -0.008230679118190403, -0.03216774940511606, 0.0022625811712416112, -0.02923742199291681], [-0.029690814343045376, 0.002292529479368848, -0.02542368992264449, -0.056082512161276, 0.025523718609310717], [0.06613728822729732, 0.009590594552819251, -0.06860495372044538, -0.029918435687220947, 0.008334720698075369], [0.044622608953110876, 9.048840970402802e-05, 0.041338085324353645, 0.07019632588424443, 0.03339272238496077], [-0.006785305762305605, 0.007575146264420445, 0.007879945496080362, -0.055704380530090275, -0.022173323902078847], [-0.01121248748888266, -0.12593085033157017, 0.043164933823849116, 0.07034417273882833, 0.09601060587763909], [0.023090300462535913, 0.0297276005405752, -0.05386320878155747, 0.047376256788449034, 0.004172093796880699], [-0.010389656959989954, 0.04445654143964096, 0.004816270948968743, 0.022068808723360044, 0.0528173097258563], [0.014546407100400224, 0.02900760073034231, -0.02336355175163029, 0.030337749713073025, 0.046045046984789166], [-0.03208756612349823, -0.03747907162165925, -0.02745549962405667, 0.048762685950337926, 0.07294088230548734], [-0.01640210640355525, -0.04461139958631619, 0.006072916382183006, -0.027283077763179394, 0.05575523242161552], [-0.0484661159652975, 0.04744655238320647, -0.07513612633326038, 0.019966903027094696, -0.006067989886243534], [0.023745292325900915, -0.03272513351924887, 0.09116809683412931, 0.02106536538044648, -0.038882018898061636], [0.08224638437646752, -0.037934716518785695, 0.033437448431673546, 0.02993459182955642, -0.01119193961845972], [0.11746194638787749, 0.011467037064825426, 0.015912893066320388, -0.011650052334420569, -0.0021598224101354807], [0.018154569070271676, 0.04276089048428981, -0.035721256698647876, 0.01389452865079158, -0.024818313132181295], [0.010051066881362515, 0.028587542635153777, 0.016686349252036714, 0.0016967321751304837, -0.08368780311997322], [0.031010809920010908, -0.018617139531697573, -0.012724896149333502, -0.029935661753874594, -0.023510947185119164], [-0.03902460261336761, -0.03897904383974615, 0.06681253863572453, -0.035692856476686484, -0.004938693772374624], [0.017643507044188884, 0.021934974857613726, 0.007898144174786407, -0.00713843419614863, 0.011452541221268655], [-0.01089123970080022, -0.02470545732164294, 0.009770944023024692, -0.023395165260447954, 0.057416785977112736], [-0.02071756279281456, -0.06754892249183712, -0.046737755431303436, 0.04339283239923224, 0.07520250785460734], [-0.0060697246833067995, -0.037730134833009875, 0.02110022733772811, 0.017150624100585217, 0.01938919463923285], [-0.07388229378457066, -0.07710144007591076, -0.053383153041287795, -0.10657472072447424, -0.0631812262578424], [-0.008968539506711238, 0.07490989899640198, -0.019166875407988466, -0.0191857594299773, -0.05158542022321756], [0.021878522793532917, 0.0842340719577112, -0.021655040393470756, 0.005768183086006375, -0.07683316532084573], [0.022927935691206568, -0.00921218764730624, 0.049552832549497036, -0.09489295924558283, 0.013991933773602179], [0.008320822162410339, 0.02461485587773015, 0.03129222631972441, -0.01399154074065499, -0.034967594752337794], [-0.020708624067878326, 0.02356239409177614, 0.009389112497706393, -0.04530069198247573, 0.00312439325531572], [0.013666740292217634, -0.042849754863843605, -0.09338352754422859, -0.05459386104830394, 0.10475899708479637], [-0.005614326052904279, -0.017387842144690052, -0.03211530130929157, -0.023049666798850853, -0.0939360667337962], [-0.007479121203713118, 0.04426417165975968, -0.04362615950193426, -0.05702550950828142, 0.040407032819298], [0.05547575337693374, 0.07180209695079486, 0.06274056342666308, -0.057550917117321035, -0.004647866056835288], [-0.0236241099658704, -0.02778639231682535, 0.04692864207152918, 0.0367050729965451, -0.021057951695134778], [-0.02988505007235048, 0.001005608702698352, 0.01491582645751081, 0.0025098515605448115, -0.006072492421889513], [0.017315573630198186, 0.017350596906891988, 0.01316699516449933, -0.060983339983664064, 0.07501890533737461], [-0.006136166743288472, 0.038701093371421795, 0.01616345266807462, -0.009863375431765672, 0.024605473605326784], [-0.010627974792689003, -0.04646587486290507, -0.05054571623273847, -0.026578632403281423, -0.02196070334858785], [-0.004381297085504169, -0.025349822820225448, 0.009464284837022488, 0.04937146508432312, 0.009877249018909075], [-0.037176651936881876, 0.014261378840662163, 0.012277818172977354, 0.014855758611180275, -0.004206753520173426], [-0.025429452666587995, -0.08566696659926816, -0.01156809066909347, -0.06017137167172622, -0.0316951089358977], [0.03442106208531757, -0.022075362594128033, 0.0013681897299483874, -0.07126852997941889, -0.02306628216812501], [-0.05528512892303007, -0.024935939541214362, 0.005491427664056749, 0.010804042516260652, 0.030943755503049453], [0.122780097958653, -0.026309607776224066, 0.01843897490751196, 0.00369252476766129, 0.006706235342367895], [0.05097187509957153, 0.08929276826029298, -0.05830144082810523, -0.0013625710893899682, -0.02797504829128474], [0.036185242431094645, -0.021783336368214577, 0.008137286812952244, 0.03973732405174261, 0.013927759190173021], [-0.04512852301185028, 0.06382210302788913, -0.01260895470121195, 0.008002213906320091, -0.05541634590174173], [0.008269613944343605, 0.017268455081535763, 0.002441152204133708, 0.06774379492383073, 0.07906615090501913], [-0.03961384217396968, 0.0027142604918535926, 0.007093366804451896, -0.036935890652353906, 0.00499050646487473], [-0.015606181848084391, -0.031243434924248182, 0.02665605046507646, 0.03489795827219443, -0.032279892048436364], [0.017163893703962145, 0.013033100419130587, 0.021377697279665136, -0.04354003356122399, 0.032215695628631046], [0.0369429554878206, -0.010849875358914044, 0.05254085640275658, 0.003788381113953645, -0.03372332744924825], [0.009857748587398095, -0.009523771949560151, -0.028190019804728714, 0.030320639858625695, 0.04433727657586748], [-0.036531552649975194, -0.002696021380627782, 0.08427980207718892, -0.0593927574744874, -0.010022092422363191], [-0.05274263721625928, -0.05250222081253277, -0.01650861919824144, -0.006084265321861354, -0.03352386505659043], [0.04677443365906505, -0.02399255767940045, 0.03642176190060752, 0.02438786216348197, -0.0349679662955801], [0.023439568906045604, -0.022918550192620617, -0.046160609017821076, 0.0010925609898929463, 0.0019240598139632415], [0.049207852545217465, 0.06186611787666263, 0.03196214898704738, 0.06635385909254779, -0.013961594033250993], [0.02679989329989039, 0.005773539703879786, -0.03380759645399065, -0.029101227464674688, -0.01775910141916904], [0.015349733326005267, 0.06591458479411737, 0.055287820712270085, -0.016752204667617766, -0.03626388935562187], [0.0010578318233263927, -0.013800524986831996, 0.04818104664511718, 0.003480845491076273, 0.015282250002674316], [-0.01006658179882494, 0.0427479699612932, -0.022175681244180647, 0.036567435803205935, 0.028407709830760682], [0.07524578074532819, -0.017261125844181362, -0.07641432793154193, 0.032902253218380376, 0.026325872490955436], [-0.0457843035302859, 0.06087549381597822, -0.10290538491622689, 0.012582596252037484, 0.020165744117067837], [-0.004437442067628323, 0.027029500591661763, 0.03818084636115009, 0.061742165896757295, 0.04118512395163293], [0.003638802740059318, 0.03676344973707927, -0.03211441403225844, 0.02498561383281897, 0.03544413069577755], [-0.015538849077832147, 0.07638418289791392, -0.04859247756331538, 0.04447432408555217, 0.050522246240234096], [0.017002463722863327, 0.017231340343841817, 0.06855934894232506, 0.016537659294536718, 0.05220265389222429], [0.013844186064816837, -0.006512265948027969, 0.02019595627174523, -0.019046442308644017, -0.036258891126527804], [0.06386473756015715, -0.00879204274156053, 0.04964342065986187, -0.016120328578592254, -0.02726133468274007], [-0.0015898329607233464, 0.05965284397092465, 0.0652358503096358, -0.06065900640496576, -0.006140986147430983], [0.05005945340850671, -0.04332193074074368, 0.04038666620913832, -0.01912859601989482, -0.051985539011561735], [-0.006413918549139055, 0.004447109770901216, -0.02761731886845544, 0.03157010105903826, -0.023789186137211694], [0.02229598928542313, 0.051604850614139254, 0.02108218020019073, 0.031019779933064498, -0.037690595236202024], [0.021515663619114826, -0.03229103663919926, -0.039675589975194374, -0.03374199154797773, 0.015434757294855862], [-0.08579475931259799, 0.030199805844649055, 0.023936609782855767, 0.04077611403929938, 0.036951747536973965], [-0.025482563507116744, 0.046952325931871534, 0.008334714110142919, 0.05310005256881537, 0.05717427951817612], [0.07683125836076295, 0.003614352836777198, -0.02284288580207257, 0.03610863603071538, 0.014392795538112952], [-0.07610886091992607, -0.0005255392547655812, -0.017311600412184422, 0.021673046245593058, 0.05384023676292349], [-0.012198836982778929, 0.029860649968717942, -0.028237499934257355, -0.04527980470896811, 0.027765598871225317], [-0.021902778677591023, -0.001678775939099244, 0.0015947389746617307, 0.04967772994966365, 0.043114837687613705], [0.0026908267467864884, -0.002673259174832061, 0.007297385788130857, 0.018636793149161203, 0.031684009310892484], [0.00950029089386244, -0.0009707029494412159, 0.03249987233251219, 0.06236681760085218, -0.0125653307962901], [-0.0826340723400278, -0.052694469183929546, -0.0603744687173609, 0.010486633456820387, -0.016663921193492578], [-0.02732125859116888, 0.02532483596107519, -0.017022266867957152, -0.031894992001954295, 0.0171238696888019], [0.0009347834405806631, 0.018615741313494135, -0.037437878164308644, 0.014250650295442202, -0.002221148983255758], [0.01387472992857165, 0.0426901372859746, 0.014336671514090616, 0.016547418332048903, 0.021449852867191758], [-0.011835778632788884, 0.0030816769620965615, 0.01346365616515748, 0.0030599740268367277, 0.024982934602112133], [-0.028458792187401594, -0.047793310139174754, 0.0394175007092715, 0.023179043935168404, -0.035064056340476144], [-0.012580712859505872, -0.006408741803239985, -0.04272426886445825, -0.07223123273062525, -0.0023792191641481327], [-0.008628738977271328, 0.07712280925123739, -0.005660641419494499, 0.0336317228214969, 0.08637384949683011], [-0.06416346733635545, -0.019701041571462328, 0.016540140924220344, -0.013370801196948364, 0.052649004084438386], [0.016419341224704845, -0.026752079297126558, 0.026402741223790268, -0.07787212184287083, 0.0037010468330749423], [-0.06044364937952043, 0.07915652651377084, 0.007751750520717535, 0.00731052609381776, 0.05118906427823965], [-0.01611366521435994, -0.01473101582659545, 0.028447389740504352, 0.06505945403112466, 0.015048907295287814], [0.01948424429513091, 0.048811961125896135, 0.027546541525126565, -0.043371837504654044, -0.047183633137155956], [0.03661551542720056, 0.008054243406864005, -0.008514340317837262, -0.08586380731155138, 0.015991484755122375], [0.02505408173951921, 0.005370842460674791, 0.0333486197549606, -0.056585564209246965, -0.02432962393911328], [-0.04576523464830003, -0.018100852785276508, -0.06587818591359809, -0.022114315310199865, -0.021989721509361033], [0.05055664301959802, -0.03496952950615109, 0.05393034232498955, -0.08566538940715818, 0.030438188398165957], [0.00965308388540423, 0.017074809652252845, -0.04573470660799778, -0.015500239361146357, -0.009143894095983788], [0.05923184260945105, 0.0035121582594698007, 0.00048229219212371987, 0.004402273776908591, 0.022924708234490773], [-0.044198545226857545, -0.036682530464250705, 0.0008845093803819973, 0.011223361322410806, 0.027405095102554438], [-0.013016031445271695, -0.03992623098638227, 0.017217872413131732, 0.04103975503941447, 0.020971660799036587], [-0.06333678298983755, 0.017181309524678112, -0.055618850464476496, -0.07186693776544827, 0.032222836308375344], [0.004473627027478124, -0.008433651971962303, -0.018851985333830982, 0.009163738835411965, 0.014188531907592115], [0.03086518559029399, 0.0011747583190908795, -0.02859957202531276, 0.003923469550834675, -0.009099556089333676], [-0.035409809854379304, 0.017142437861033196, 0.0006165283897752598, -0.03210155648202345, -0.019606867193547945], [0.007911501697465755, -0.07775150579346354, 0.02636121480149456, -0.0158262317576789, -0.036087850459189844], [0.012456471591984195, 0.04306640736805, 0.0032775173868268993, 0.0021749631906885984, 0.059444413641447376], [0.04633455340113576, -0.04537498793294005, -0.0016557032417338496, 0.038617045448715914, -0.05680843936326147], [0.0181449853835372, -0.03512804179418939, 0.04314600166202579, 0.030405313600920764, -0.0825124993072607], [-0.0334591097674758, -0.023674399414481018, -0.053807481668428025, -0.005642901415183261, -0.011591833958254224], [0.0017675328448868179, -0.05272012467641879, -0.006094286297497927, -0.012940004217247125, -0.0389846103409052], [-0.0156558634443176, 0.016721070301591628, 0.03632597005371337, -0.00802235439169353, -0.04248917275605043], [-0.026429144702870343, -0.03892944829706567, 0.026384261456863883, 0.016130728019276577, 0.007608656038496918], [0.05832365772159898, -0.008880737492455448, -0.005253017433746651, -0.025041391491868327, 0.010546750299268133], [-0.025715031654409883, 0.03201822460123562, 0.008779086062911284, 0.011680778653521434, 0.05894064319847355], [-0.039665209033754804, 0.05041238152539242, 0.018934520883973936, 0.04646805693501433, 0.03548057029549426], [-0.038527751874799405, -0.002004529448212, 0.028611706964818427, 0.007602251956142233, 0.0234346703440606], [-0.055513021933746284, 0.017675659886025954, -0.033103871489484966, -0.023793697763594517, 0.0025486882966667184], [0.01626112881776974, -0.016277006602040876, -0.05563792544734876, 0.06540264430212392, -0.03759921155076157], [0.05103564937606964, 0.030066547047482715, -0.02577003475449997, 0.03518805686955905, 0.06250681628595445], [0.0016473850414209796, 0.029712359557712422, 0.0042226517817934095, 0.021746051154799672, 0.01953498399736909], [0.016416890602941762, -0.01261429948728986, 0.031107205052768212, -0.010345817227938115, -0.036022434931349774], [0.037470825157337066, 0.0415480162671684, 0.020292042917181244, -0.01354583983986289, -0.059594978875487786], [0.08018969349262968, -0.02372606638135692, 0.03291393475791665, 0.05848484822671603, 0.027472132134099048], [0.0027403320099851918, 0.013209328519051789, -0.03261531650964859, 0.037387964454065704, 0.0010489306001978743], [-0.005752179208358369, -0.012930524119594831, 0.019720712623603916, 0.014215153920869927, -0.008233216990981654], [-0.009956668942580146, 0.01144814177732869, -0.011581283704193927, 0.016154613754808995, 0.028215274869823122], [-0.03888520023605886, 0.021430155453709715, -0.014157719733731922, 0.060110554352856456, 0.033198023866682025], [-0.026790377375359747, -0.03665728937214848, 2.9451462003126853e-05, -0.0012075469640913117, 0.01011479674865094], [-0.00836283234259063, -0.022202096261005062, -0.03242896508432179, 0.026394330418873048, -0.029822586925670445], [-0.003290454878870523, 0.010029381459699878, -0.06263672395669506, -0.02582893406366747, -0.026302397659185763], [-0.04619304770964128, 0.0013812213587550454, 0.027994890925336788, 0.0774939719760771, -0.011997286435155255], [0.04855983307700087, 0.01901006169016419, 0.022199829817146667, -0.04279729472938719, -0.02311483071270487], [-0.05963867148590708, -0.05067142026063358, -0.0015963630755284606, 0.006826487503735741, -0.07891170920111476], [-0.028620912928801538, -0.017067078411224686, -0.011996473405081412, 0.0024847285506215725, -0.06985226133554345], [0.0047750508862742435, -0.0615671123273821, 0.02976583842338611, -0.039657835953462124, -0.020996182036868705], [0.043183302824409374, 0.0009504280943945378, -0.07546538379505993, 0.08338977005259463, -0.023233983255291777], [-0.019110519516270956, 0.04770779083073822, 0.0713817890163186, 0.06548907967510649, 0.03159014119793679], [0.03848859544341409, -0.1127722184705754, 0.003551135028322265, 0.014368281893268666, -0.017413410682515198], [0.002358386188090624, -0.025172173070007447, -0.050797472271522884, -0.0440374021993337, -0.0453177791690506], [0.010132521404490263, 0.05566477321678146, -0.006092225251470517, 0.035046406558771684, -0.04026326801019465], [0.0036052609926280027, 0.004395249326368899, 0.009002729185686302, 0.0521466950466719, 0.024197070723292143], [0.03618567937436096, 0.020565885158169542, -0.05459226853694808, 0.04079421529502516, 0.007312557803702364], [-0.032879456095693496, -0.01831246719185516, 0.02771583961834467, 0.004160395048035359, -0.0024506847232602562], [-0.021208131533713485, -0.013990546982647916, 0.08299082435470864, 0.03480238141796065, 0.01909717679766194], [0.05134871379698319, -0.019599641399981403, -0.06385705689164922, -0.024361473988959548, -0.004015770320915871], [-0.02021798981748668, 0.08072218958274965, 0.02077823472872291, 0.06652219069187347, 0.011119841377291636], [0.03312507851472915, 0.0015442610967232831, -0.046302523150710824, -0.005064424413128759, 0.08868445674170444], [-0.031086232558691387, 0.0009649400919139834, 0.00688195926658978, 0.052343362565671014, 0.061919329908219065], [0.08228498925021659, 0.04139242221244417, -0.05307026338586924, 0.01826496297329274, 0.010692921418795156], [0.04247766466748477, 0.0453847171720977, 0.028959412600191272, 0.031457053290013096, 0.029185680242877637], [-0.050220940578603025, 0.0744232755661021, 0.09876497713357457, 0.03814085677368193, -0.025460016664305286], [0.039682170242848744, 0.015933622643388025, 0.03313036307374654, 0.0014142926537122696, -0.03206964751154233], [0.03447034041041702, -0.010602819062295137, 0.020679624677309993, 0.015220054211878073, 0.07690032919301514], [0.008600879876426975, -0.03243777487855368, -0.057715350380938, -0.03903178158365624, 0.0294916627873475], [0.04437498159481398, 0.004833554143577931, 0.006932325551033334, -0.06971933997220552, -0.008462012698921037], [-0.039878904948492444, -0.015386300419112518, 0.035036834071372376, -0.024432255527155174, 0.006383311826141143], [-0.0399932090096782, 0.01750590006325238, 0.036323859869737296, 0.03453723212393095, -0.013637403624674692], [-0.028811720873594997, 0.023985183443422053, 0.08011432321556915, -0.02998191674201042, 0.025704518075824898], [0.011349807721281165, 0.03485975155703154, 0.0036446800763901503, -0.016192758398750527, 0.0418622006746515], [0.03328641618085572, 0.026681661540019896, 0.010730917879813147, -0.03147236658928172, 0.019500643299263175], [-0.0324166532781363, 0.050674185218614776, -0.021986523145984257, -0.007102748302652889, -0.004867038207846464], [-0.0008820224345123449, -0.025862726239813196, 0.03079234237907993, -0.054920511856804057, -0.010317158969295873], [-0.0457756233301348, 0.05549591518375342, -0.016147490915962286, 0.05910991932758922, 0.0429954944549347], [0.017357063932061215, 0.0045952752784932955, -0.02637951633242013, 0.02430493719250119, -0.08307619328069953], [0.007579390903808888, -0.07664500619734738, -0.04223609781548908, 0.056619397353410206, -0.0016259507328450892], [0.006255036331462708, -0.017855257379257826, -0.04182307610149018, -0.035127603884776384, -0.0365158588180042], [-0.01707805369820403, -0.011040254691146457, 0.00899868262786452, 0.004464432206507169, -0.01909191805989246], [0.00323261985770696, 0.03958685285275371, 0.03358872823471976, 0.014734668562518424, 0.07732023460645067], [-0.02696665676960236, -0.001319501018404195, 0.05577622017036908, -0.04478347258958555, 0.06287828455763518], [-0.02576224622387737, 0.030012642686567788, -0.054661803070574735, 0.002959363393096583, -0.027127675217553025], [-0.0024861663889463375, -0.044757602054613314, -0.006941260627974963, -0.015449868112880348, 0.011386804346164438], [0.011206020226539775, -0.03239909500518651, 0.045166770103925946, -0.07197707121062667, 0.02344689593588757], [0.028504552150768327, -0.06802583572272736, 0.04660806235368933, -0.03141412486146073, 0.07106339210310827], [0.0005549349300400623, 0.03458522385186761, 0.06806950050286678, 0.012012414880196663, 0.062407057632400065], [0.022555935591563252, -0.06566136940514644, 0.026272212466264162, 0.0627245487146294, -0.02156758283946042], [-0.012517790092689395, 0.0739497528657149, -0.004771092267393053, -0.013965178912795565, 0.046926973085382476], [0.01353399792615989, -0.04162710315199254, 0.040275113823219424, -0.05671161356109273, 0.059006303117892726], [-0.010717779895718057, 0.04205749102976186, 0.04601196763225955, 0.026676366360803297, -0.018816487711576773], [0.0970044611678213, 0.05844229825269557, 0.010781509611437144, 0.03898699337520845, 0.014958917540524516], [0.06540261320833984, 0.047345976836648346, 0.01534007054325071, 0.08096022290573585, 0.03628139702039553], [0.05081303206750001, -0.07030428996960855, -0.002975644084652289, -0.027268294278594563, 0.0019844005415460752], [0.13509563968909524, 0.0354052182316419, 0.010601258048058353, -0.01835163898559003, 0.028194085301826405], [0.08840808429476535, 0.004440074789091379, 0.03851760875481948, -0.015460072534216518, -0.025873369521000944], [0.04278919840895004, -0.04007576197537002, 0.06829921516972015, 0.05756813176959933, 0.01696631782008319], [0.08509062295096453, 0.027393027097434363, 0.03977730608136342, 0.10452824273457478, -0.02818608630694943], [0.014176889817542105, 0.03646514899448113, -0.029061866838065144, -0.025077630105004363, 0.01652531782626523], [-0.01047641373018998, 0.025233724093538894, 0.014084429769391902, -0.01513636822099051, 0.010859074337677879], [-0.04822440008504953, 0.0473959892708217, 0.006999169383511541, -0.03759036796418691, -0.06369751687103709], [-0.013856686779388132, -0.007150639676094647, 0.02759785998139763, 0.053166626471501846, -0.008164601808426606], [0.040556663118016444, 0.011149011102183448, 0.03382203089534162, 0.009121857272037697, 0.03470155592814565], [0.06123798861511422, 0.03659983172069114, 0.06789613550520168, -0.01184796711907485, 0.05741999190487525], [0.0005255134794288041, 0.0014249924489102186, -0.019874476760608665, 0.000698058432425442, 0.041191491582274774], [0.009585464759800119, -0.0217624081370913, -0.022335883857850368, -0.016310876801279545, 0.05751972332194285], [0.011061490664554363, -0.009165448935158619, 0.007874806217923367, -0.0031346040132542974, -0.015050858464637492], [-0.006513283073033766, -0.03537536738139367, 0.011996611754497956, -0.06525583954852675, 0.002013394595175875], [0.033892688018733505, -0.02972924257680127, 0.014648168738365469, -0.05240087974168968, -0.029448212818785725], [-0.09843990507141887, -0.02270156066367874, 0.013899190241100841, 0.0285131054364097, 0.056636964555348744], [-0.037022939075819425, -0.04074549833484983, 0.01669787879329335, 0.024118168343556325, 0.05007039580134985], [-0.011550683922639705, 0.08798257947139687, 0.03716400730022322, 0.04018082992998488, -0.0400372458043403], [0.08704219666419079, -0.021971289633284513, 0.046529838985430116, 0.003415107990637996, -0.024244088539015926], [-0.030281196233981834, -0.0006869273043424911, 0.05805017130443782, 0.022017943129960485, -0.041450572492750054], [0.003691198630265443, 0.05943608561201448, 0.028393841979609702, -0.05982161877368097, -0.009230846415965168], [0.030180945562187422, -0.0024968577433363694, 0.03046461216903914, -0.048799749750960165, -0.004488508395944941], [-0.027998957646292847, -0.0431887810406842, -0.0440656258854314, -0.024425841517520995, -0.040888014987321905], [0.042558849695441686, 0.04331388372104892, -0.031080497858329153, 0.019411310802660554, 0.07055611636376173], [0.09262419698624985, 0.03723643836168566, 0.005378093199095024, 0.09587121342076493, 0.02759288308651101], [0.04985638185589901, -0.05935015050188118, 0.07648728276649928, 0.03532361082497057, 0.01716872206463279], [-0.0012675422648794521, 0.02819736243152141, 0.012664519798832048, 0.0028293516263846108, 0.043750631949162413], [-0.004188278942558644, -0.013402557840487592, 0.075861287975178, 0.04408325270918858, 0.04004854773122527], [0.06619046229700028, -0.0028511046821510697, -0.00470663968389089, 0.08816305688347498, 0.0035766495417076547], [0.005406704944372189, 0.03913232516383517, 0.017942711461344213, -0.00971576936932037, -0.06655890217142203], [-0.03619631669326452, -0.0038114147249607732, 0.0018029142722822268, -0.007615914024271203, -0.03531267001930554], [0.06002975313417669, -0.06104761125823002, -0.0015651974933577203, -0.025068425319713383, 0.0653670651418742], [-0.010102948335045311, -0.032044937449450125, 0.07860019296822174, 0.026357080339191888, 0.007817246247543957], [0.001877304850228933, 0.049188203273560056, -0.019321929312320366, 0.013874237569526783, -0.03701831359307939], [-0.07984838860642213, -0.03307149688184022, 0.001488139612717058, 0.059807342997029896, 0.018652525418428503], [0.03624407002913055, 0.0015013088197999129, 0.01363547823664544, 0.007552967350337925, 0.02733108341233439], [0.035035897614816194, -0.020666374239265487, 0.029981068319452235, -0.024147172307873777, -0.02240576197652228], [-0.042982902017301684, 0.011025534280654269, 0.016819225366476002, -0.0011849812926067631, -0.023468106725289324], [-0.028574476251076595, -0.036365422513018046, 0.06267480538575922, -0.03143313005144175, 0.02222546940203255]], [[-0.35744860862892847, 0.6891220578457141, -0.4453724736445718, 0.3576649109554, -0.5156926609832455], [0.29901909125367776, -0.13661605229955848, 0.19936127111437396, 0.11158475711502246, 0.24025309766740702], [0.6305012462738933, 0.5851961750418886, -0.21397071703212853, -0.1909597970817762, -0.3886822754453161], [-0.006636019732206251, -0.40583747854332947, 0.2123573727772996, -0.48019028964824817, 0.8608985259353299], [0.7089495825855845, -0.5479863993138924, 0.6592667510814606, -0.1035773700245395, 0.22669431695830022]], [[0.12658425987504696, -0.3219804609765552], [-0.6357030422394924, 0.8593472355413448], [1.4159160667718897, 0.35001012390729186], [-0.4046119129591777, 0.4236660795577914], [0.2031111080891986, -0.6292002401002003]]], "biases": [[[0.10010139915120393, 0.012771209016911278, 0.05031571325217333, 0.004498611733228419, 0.023302202021935364]], [[0.021359748989677612, 0.21881424660234983, 0.07485754211049629, 0.12712468257355097, 0.04613264767698178]], [[-0.11056431092686074, 0.11056431092686074]]]}