{"layers": [784, 5, 5, 3], "weights": [[[0.05074734132108484, 0.07710778541479688, 0.0029748494605148002, -0.010089688288085307, 0.030281993548092856], [-0.03482305252862689, 0.018702650688380725, -0.013690278816180596, -0.028682223625827126, 0.0027463095871912693], [0.039178799999623495, -0.031673186337064445, 0.009071482854090858, -0.020302030041341564, 0.0427162618901477], [-0.006016391216727224, 0.009523488043471126, 0.01709533681620372, 0.0034228486838052815, 0.003246546406927525], [0.06223307301811713, -0.029400129892677755, -0.04330044373083466, -0.0130172153182193, -0.018831397858942327], [-0.047188383710646424, 0.007050112085028231, -0.02494772659779908, 0.07950062654073071, 0.0305959228229667], [-0.03190568970252193, -0.04823013530792041, 0.026190008954427305, -0.0411911618358363, 0.04384067861004666], [-0.07970546006845744, -0.03877016980771227, 0.03076815278708332, 0.052607105686483, -0.018402896270979435], [-0.05997154423527807, 0.00272696457317223, 0.09420316482487341, 0.02174796120134394, -0.05693767890907023], [0.07113031690805517, -0.02103918559773954, -0.05886296256144485, -0.00846036653450158, -0.04808468003842097], [0.03222738339427368, -0.01586994959730618, 0.02977367371925554, -0.006326617935861104, -0.02372540150610764], [0.05071958026278172, 0.006532793168579828, 0.02746765696653376, 0.019731043072173514, -0.03856550333038683], [0.11808892606272192, 0.052718917675847056, 0.02717575106817473, 0.04619145970093144, -0.0317337566502908], [0.1016380734943122, 0.035339495572292656, 0.09652058296999999, 0.13434233985186575, -0.013456867041521001], [0.112147128389909, 0.006450497807544591, 0.05013538467340981, 0.07039286696206944, 0.03822916455947492], [0.006304662493540682, 0.10060260653966559, 0.09045703549701127, 0.017755379663877503, 0.06370787978033554], [0.007831606900017834, 0.1146440534053158, 0.038313964112802815, -0.03361852635416284, 0.012281470243619816], [-0.05874969830601884, -0.03167716058487841, 0.03165810078593787, -0.022806617803190782, 0.05841144119451049], [0.01578636993661764, -0.007999155888222498, 0.04690939008021124, -0.06879184611917163, 0.029900981966328587], [-0.008064726507547297, -0.0017586412497163494, -0.04612345918651087, 0.00047638368764032845, 0.034539513631404097], [0.009232733271881387, 0.10622632105673357, 0.024444102088926157, -0.017864068088140592, 0.02002607461773458], [0.042180556681396274, -0.05595749440718475, 0.0259857255365776, 0.003646092809084029, 0.0029858558462957274], [-0.04217368967836766, 0.028324562700522797, -0.023561439913984367, 0.001267839744579081, 0.023974163266190316], [-0.06971582081174253, 0.037514393128871656, 0.007500840668675968, -0.018402205019421324, -0.06792439764843697], [-0.08527369230626215, 0.01716936490797464, 0.024407000014232672, -0.019730604243059356, -0.012105447380377946], [-0.005138223231798164, -0.020119397058894272, -0.007781566232431697, -0.030548406786768557, -0.021116931377185257], [-0.060380548733516795, 0.028127025098088676, -0.059547296495977224, -0.034806394004445115, 0.029134513209019476], [-0.008876095491389643, 0.03269759167878134, -0.0026035059855341785, 0.01666569446257159, 0.054413332846889276], [-0.03539533660351248, -0.00446526771996835, 0.003113645241442834, 0.04283874127923081, -0.010885011425220307], [-0.0033213452570126823, -0.0003093949368595734, 0.02220666046365424, 0.028045060767170997, 0.006031119776098504], [0.010124240398918821, -0.033088181501803, 0.03554632086754471, 0.012661735468705956, -0.05725019348224651], [-0.005655461546862071, 0.0321694916912827, -0.062322188107723255, -0.002265685533766762, -0.003474608419258973], [-0.005354962975705042, -0.03820734711924124, 0.008543403942832982, 0.0019161395801059124, -0.00041187200003745287], [0.04427227471505557, 0.012854000664147549, 0.022502979202917633, -0.02985937126850049, -0.02332179596244119], [0.0250765326678808, -0.028494291354372005, -0.04005401847877826, 0.02469821210591977, -0.00146326961330513], [-0.005586346193442772, -0.02808930374171364, -0.014464670265289657, -0.006335379644872907, 0.02362398874185714], [0.061532096379261686, 0.023866079410548066, -0.0194816241503062, 0.03507883747196144, -0.00035826946404585885], [0.02909684369253247, 0.001463358698729647, 0.02512727929663993, 0.08312611648566721, 0.03494918766012355], [0.11994425910714415, 0.10433483848843093, 0.06629289878713462, 0.060468858478049926, -0.053105758663446107], [0.07023521071710753, 0.09709037399684003, 0.05345835588500951, 0.09900418654714015, -0.01839703550314396], [0.12466157854279152, 0.033405456469948906, -0.04594603350648755, 0.16131777930683797, -0.056364331698582175], [0.03787384894982205, 0.08473106885636685, 0.009738627483625601, 0.12175509384692365, 0.02367191952218404], [0.026354002051270854, 0.0711702876117685, -0.04790524427477808, 0.07677207924325914, 0.010504954597843681], [0.024043064748584763, -0.014681973754667914, 0.09075628986374878, 0.07619154400892844, 0.10112106432533459], [0.004720273168003559, 0.055971659667238875, 0.05207064711728086, -0.05040779205277769, 0.10007076302937418], [0.039630484494183056, 3.2380313681172174e-05, 0.05756351377319539, 0.0010750237128913421, 0.08700838840058554], [-0.004989115554520769, -0.02326361379804554, 0.04570839798179961, 0.04883258530416395, 0.05980544709142842], [0.0023847264707710356, -0.0003000838492786725, 0.041109133604002375, 0.02869219449146339, 0.01295114664641099], [-0.011464584815852165, 0.010984362889997178, 0.030125167707331174, -0.00974896906757457, 0.04541475926407774], [-0.03422193837303158, -0.02806526191338279, -0.0130685872696242, -0.04095016298694353, 0.03277395735735048], [-0.00252495333700221, -0.04347451628936761, -0.037544163262005624, 0.024570806370089453, -0.051336969810789626], [0.04705372445524514, 0.055525662260744, 0.04990827818030395, 0.015274491339585413, 0.0033795181999491312], [-0.01413866120647776, -0.06141738348500122, -0.011067348343752125, -0.04659687760707389, 0.05532068340505219], [0.006493442073985145, -0.028797567258464805, -0.008021157148304031, -0.013212594476069772, 0.024696992705964756], [-0.033287715382022985, -0.05784505816026069, -0.015612522745597573, 0.014099896154864172, -0.015043653915591145], [0.014586058068457228, -0.016199401767971758, -0.06007544188068831, 0.003710775564828038, 0.06656550511368448], [0.03541379621473081, 0.001147180236948651, -0.007070992116198827, -0.052907193596295046, -0.040454973561546724], [0.007313043998574386, 0.005365496966165346, -0.032734219968332465, 0.006575093408252223, -0.018951243311981024], [-0.007547154513040131, 0.030681665142643137, -0.06999999826924867, -0.02021363811584234, 0.048911804518611005], [0.07712620340507582, 0.06620476059942247, 0.015077606021137498, 0.03483837612607275, 0.06624223702958952], [0.05912454476259644, 0.01153934260474628, 0.009702804450116972, 0.019905219932712676, -0.013623274487081708], [0.06407759870234073, 0.02542845443495526, 0.07401278471136785, -0.008092286053893, 0.014860685409608521], [-0.03916737193083203, -0.011278776054313077, 0.007348120909273027, 0.007424743253017243, 0.048143595595452], [0.0027506605443656886, 0.1019976880527459, -0.009732388829962095, 0.013782720426066089, 0.033796488486944], [0.049058443147704564, 0.06820762409904524, 0.05838012462398887, 0.07089416494150372, -0.004749803409374348], [0.09116812270343565, 0.05175904197075672, -0.0068911200667896135, 0.05802332243545573, -0.05839598388376715], [0.09974717021091255, 0.10533397033896036, 0.12670296999941463, 0.13263924240663483, -0.013189400042491778], [0.02751396627905139, -0.008672786658412566, 0.05437786917498058, 0.04215632164370077, 0.0306559806797813], [0.04065487045081131, 0.05118105292052925, 0.04688830390644156, 0.1002158225256385, 0.06743154752985038], [0.05634539206037965, 0.03578617552100856, 0.08868615441613818, 0.06544979776812863, 0.03903291486376065], [0.06774682797746473, 0.023331178664627677, 0.05598476971506669, 0.06667109742427084, 0.07061573438871876], [-0.017723390896477738, 0.028474122037432804, 0.043147103181472704, 0.0425095642228835, 0.06980607052600422], [-0.00714916564208119, 0.06740309745190612, -0.016144241411947424, 0.002833667986434921, 0.07540896089095918], [-0.019328444844227737, 0.07973840139014596, 0.05558930449507842, 0.028986845575207847, 0.13217296317699104], [0.0033994657470049865, 0.011225188108740557, 0.029158580720476623, 0.044799979202755205, 0.01206251938203438], [-0.006142023365783586, 0.029911127590877603, 0.06364409791247236, 0.022486961771586753, 0.015569172753042404], [0.009478383212246203, -0.0339133170350042, -0.008224450412990456, 0.023485859491033483, -0.03420159825531734], [0.0012071026059603434, 0.038989986858974535, 0.017086871818833775, -0.012255468993480633, -0.029642923390343443], [-0.01540379499885281, -0.03441949622541254, 0.030780346185394054, 0.010612747121487862, 0.0232043039569556], [0.029266916959524193, -0.04058619617298213, -0.015566265007408967, 0.01651675227676726, -0.004373512799289944], [-0.009017902050040978, -0.020474471141367412, 0.021857091564425522, 0.03797047240999045, -0.016905616959622855], [0.017464106439574984, 0.04403681109189308, -0.03365195000220812, 0.03314583591346924, 0.04950144692971692], [-0.009872647208230135, -0.03431410981805275, -0.02688919454016095, -0.05409834326517227, -0.0002968263170015816], [0.016612629571120384, 0.03673430685717421, 0.014415774295967371, 0.017839419030866156, 0.006630443015368209], [-0.014063909844358156, -0.03609766450713879, 0.06563318177122038, -0.016404465230770604, 0.002693426787469925], [-0.04118837772340684, 0.019218366433422566, 0.02840714720724597, -0.017021398962110145, 0.011348719807165149], [0.01627491825946165, 0.010566834632133284, -0.00807178886005928, -0.028605704030760792, -0.05266707961552301], [-0.041667948045974686, -0.08924180954086612, 0.027186611441748332, 0.021970267970213946, 0.040508678055340766], [0.01571943681210262, 0.028588591052337728, 0.033958850792438794, 0.00394059577110325, -0.012769781658162572], [-0.04907330637360905, 0.031655089828133386, 0.019338442083721777, 0.04779034721667933, 0.07478163086537039], [0.0331114728394153, 0.034306645131039044, 0.07124260728116034, 0.04153886512829787, 0.004147409013659367], [-0.02332426421194496, 0.051343990000681794, 0.07751500662585134, 0.008652136940060985, -0.054811585307190526], [0.03362680089058871, 0.034783584534095816, 0.11236563936565763, 0.1078166847712966, -0.016296507350257974], [0.04139716159587923, 0.026594297325031283, 0.044656586917442224, 0.049038181083452925, 0.0071432626495185], [-0.0025790462077526434, -0.028828617903052776, 0.021858078808870498, 0.060597068139083686, -0.03448174484631437], [0.038080461031714, -0.04941944951296277, -0.05298494192548619, 0.010335895040861662, -0.052841973391405506], [0.011146030685625287, -0.010314691983264271, -0.0577908780072942, -0.001838520982164123, 0.07307910425562773], [-0.0781958010271475, -0.09122684625584833, -0.03561995346859996, -0.03768017354009038, 0.12449249544477917], [0.015308036006473784, -0.053188447608076395, -0.08427312146861202, 0.014859133177474946, 0.16239888418722773], [0.07039997207307784, -0.02501557770741277, -0.05633956666831066, 0.11253530268902481, 0.05728989566351986], [-0.01687653344304171, 0.047727534849042824, -0.07992573430994289, 0.07455213601933214, 0.113362715318123], [-0.03003479493158535, -0.04351997839552757, -0.0038562732260400017, -0.02493988498054346, 0.049083209680392335], [0.055892326732953156, 0.053664883785703, 0.06780904399317947, 0.018627372754567537, 0.020325908053086983], [0.01805960570035829, 0.06127236304355559, 0.11063216586944506, 0.05834904041857119, 0.05686092336365722], [-0.0031989310436629907, 0.022828049492861525, 0.010636102342256584, 0.0013350991321176857, 0.034965717900979396], [0.017096704490346417, -0.020950283521514214, -0.029301203604995756, -0.04010404258028955, -0.0082311845105679], [0.014372459743638072, -0.004004229279972084, -0.026653081014514683, 0.010880768029484964, -0.00024824908416022645], [0.034616576669278636, 0.007821269065981728, -0.021695565388493564, -0.018158741506558048, 0.004263408680670975], [-0.00353129335372037, 0.01923797837463639, 0.02661207171509903, -0.060097983151930996, -0.017637979045028295], [0.020652942965533192, -0.02644336552263989, -0.04375112853614782, 0.01694607099077886, 0.0066674219410324245], [-0.01779959718420177, -0.043785513376919064, -0.01280971421581984, 0.04239582674240028, -0.07632138774427755], [-0.051883465378473145, 0.02233780858371001, -0.04684582703156002, -0.02760823899987893, 0.024955731062176634], [0.05078607233829046, 0.0033346899049008735, -0.021259531500275014, -0.012844849849772525, 0.0004636420086394105], [0.011938877361103708, -0.04190309079947428, 0.03322032652156209, -0.0207065292026579, 0.010926548360504228], [0.007442152861504105, -0.012114237762215069, -0.055344540638160626, 0.034567147587877135, 0.07063952793975356], [0.014401005499620822, 0.015120806541086896, -0.07134353188892335, 0.013750997263278207, -0.031227089614375664], [0.004849795617074758, -0.1029941543887411, 0.05180707252246755, 0.04284806323566794, -0.04793637877953997], [-0.005469989101959134, 0.01806347854247711, 0.05206159467291651, 0.027729505288133317, 0.040991157811808496], [0.039930992274979774, 0.0310848867131023, 0.0519106755804937, -0.008912282622869784, 0.046964150683560094], [0.04898834556203863, 0.053820263767690044, 0.029181796353367023, 0.09100627532088991, 0.007429710729844063], [0.024624105028199266, 0.012011030619157157, 0.06483454257092176, 0.05039523620820164, 0.030042434671605604], [0.02295007498555564, -0.0034856667729651985, 0.03585677168363345, 0.05496152687055276, -0.008609023700110954], [0.009167575325405556, -0.07230428295367557, -0.035171404960693715, 0.07183839651119167, 0.0685787474293894], [-0.016705589911229314, -0.05791705868599541, -0.032620672372087996, 0.0007729780697768617, 0.024400654531099922], [-0.05023055207930043, -0.02273933136449201, 0.0045687419610115155, -0.019109266886843616, 0.05043283443125336], [0.005271392556450524, -0.02182873064410246, -0.06118133753150215, -0.060232385910647515, 0.12837650906728607], [-0.039049865401815285, -0.013593822835974934, 0.013221258236728168, -0.07163420885282433, 0.11685498979176667], [-0.02573794441036156, -0.04623349500956058, -0.05776130431528491, 0.0696160397869165, 0.09190021335819157], [0.020581701252600657, -0.02393973390042291, -0.06521368162229267, 0.004661776998192675, 0.03790176453102485], [0.06571056102119997, -0.03369673427834797, -0.07067978024666309, 0.08586211789098454, 0.01826042158138755], [0.029038456976294737, 0.043796352773211825, -0.01416381116011731, 0.0038101105435955685, -0.026764848356087258], [0.048577925546830325, 0.08907168354048658, 0.004166010518556629, 0.09035242562604022, 0.0340836679423097], [-0.016198365629093794, 0.02130728619825636, 0.1202215624533175, 0.022140891445010816, 0.0316830064265094], [0.09497294433707246, 0.01558004671613266, 0.10281363154459412, 0.10596418008521927, 0.08881982338204387], [0.04009171751016313, -0.021669685073174415, 0.004333275014978664, 0.07480720481942163, 0.031094892428585326], [0.0289018707063066, 0.03832171749034271, 0.04550407671012344, -0.004221098320035305, -0.01870347201188445], [0.03003917227051028, -0.009067301240915999, 0.01975435596874803, 0.06733989025710033, -0.09818044628087015], [0.04633760839464358, -0.02864349459013463, -0.04266981121082015, -0.0412981057528389, -0.04714402088953164], [0.02476711972429669, 0.011651569155939637, 0.00806396590030336, 0.06177267802266784, -0.037182161849279076], [0.004089004336005718, -0.016702880192524257, 0.06393480749641563, -0.08671012187436691, -0.056077685393054764], [0.04864285210411642, -0.015364458866175946, -0.019305586414694237, 0.019328821374771772, 0.04644853527022118], [-0.016006973139776417, 0.007203810909252603, -0.010603702800637148, -0.006019737434221539, 0.04489878691822482], [-0.024172634970791574, 0.02496789728854181, 0.00023430514990753878, 0.04688164356741138, -0.04439180364626102], [0.007180296386607007, 0.008274636482797129, -0.034529559731981456, 0.040140107693535286, 0.017027761032854128], [0.033721799891375165, 0.03965400855382003, 0.09073791807477746, 0.029252559855827885, -0.026933670214981754], [0.07960152239594118, -0.006757077109566985, -0.00034485230491817327, 0.06269360399404837, 0.026710217970175986], [0.12439538715773402, 0.06084530785648238, 0.12251206908457951, 0.033130873605458036, -0.010170755345017293], [0.002245437973588479, 0.06281488505841154, 0.09453451396111791, 0.08901223522735383, 0.018694175608598904], [-0.00675278159465662, 0.03649961835954338, 0.014934106467229587, 0.08386787776038633, -0.008831915257246022], [0.004146084719705159, 0.010379860653518777, -0.012441007419865126, 0.013768039963506132, -0.07911653658041598], [-0.023986934152364615, 0.02302918669866816, -0.05422387386998571, -0.031713808954693765, 0.011396397184271845], [0.037994708531407274, -0.05819428569822166, -0.032939136114062004, 0.0007772185694440839, 0.116988899965553], [-0.06781783681023752, -0.059723269881289114, -0.04099880916741448, -0.10160418116647904, 0.0016542055143947561], [-0.09698113777090317, -0.081666705622651, -0.04657798623049341, -0.05686332763418739, 0.11762730179931773], [-0.0046088287739574916, -0.08301891484691638, -0.10276685946753962, -0.026716417826629747, 0.046257416585221964], [-0.029645910942956624, -0.017759156638994127, -0.042092196138944, 0.08772968103123742, 0.05898195151956613], [0.014080489748731355, -0.004143777086252478, -0.02500527990203224, 0.02911231466249919, 0.00551676492957917], [0.051922164065822084, 0.050460274226873075, -0.019924226871686383, 0.028041813095751156, 0.018475694387035543], [0.05932381455350909, 0.026968176863719887, -0.06925686868503492, 0.1373319871484805, -0.027656220529080938], [0.012042134121697164, 0.014768515398479632, 0.018169303288289883, 0.009968198778445339, -0.03203433133339785], [-0.024137173527314912, 0.04904028491732469, -0.03573327212385547, -0.02303766605140873, 0.029391979149976377], [0.02302019930668197, 0.0528114196757312, 0.06029612941550764, -0.06738830633407898, 0.0845003877879117], [0.016234443224186313, -0.006412458642825428, 0.002002694035272404, 0.016596794836962612, -0.08198943482655048], [-0.013024182827099336, -0.02524626600397947, 0.011225036457174436, 0.011964630977048644, -0.008827635262138457], [0.053307441421476566, 0.009236575087077504, 0.03136360122893792, -0.029732277191584076, -0.04004374889028151], [-0.06174211289821396, -0.059062222377024354, 0.055026754458318616, 0.018880248458569997, 0.015123320340497421], [0.05138091900915339, -0.013619926915206896, -0.046119430912608325, -0.03839834408005841, -0.0334706077043222], [-0.05498020593240418, -0.017850556679662326, -0.020566679561048955, -0.010061532011570016, 0.02752840565813226], [0.08160118471545032, -0.05812433986184738, -0.02273916187067892, -0.019605767276227044, 0.034995151806781345], [0.0437013810064766, -0.05216740590728398, -0.025879747906666063, -0.027131486781182084, -0.034633971592616185], [-0.10635492739572838, 0.048300945609176874, 0.010416024431724567, 0.05505826680838131, -0.008350936243569338], [0.01704959354654893, -0.035831754174489215, -0.02275884302541344, -0.02129522324187041, -0.03814326790841523], [-0.02462546324477074, -0.013458923179722216, 0.09313397386034296, 0.04981943983160195, -0.08556073056617379], [0.01528505610396354, 0.039160455030875244, 0.02445589512378075, 0.03240971790550312, -0.02943995455300414], [-0.02556825570610759, 0.08089718127355568, 0.02248051881766691, 0.05558537684864836, 0.04530596092947579], [0.09033278657706899, 0.019641119962718195, 0.028557777335550642, -0.0059151566656771015, -0.005138590725714453], [0.04725041886758357, 0.06260356420699881, -0.037434615080652996, 0.028282103612848, 0.015882292104604658], [-0.01564351342285024, -0.017986014350194913, -0.013783885528465944, -0.030939997407149263, 0.029650537999952258], [0.05476821749945505, -0.027995851361995953, -0.07296599432259195, 0.04675548369035899, -0.044564271346478966], [-0.03464322924113095, -0.07220972179507705, -0.05652247448436439, -0.07041178608055, -0.047482930736672556], [-0.05634480778832483, -0.10420593773427718, -0.0995572833018147, -0.023733688147193992, 0.12198496759172107], [-0.0041846401191417805, -0.001609071895098007, -0.03815533657082614, -0.0771668348067021, 0.1660201046775302], [-0.017858827438114205, -0.008285446225616628, -0.0804097290637561, -0.052026546159248004, 0.2017106629991635], [-0.005804921625779221, 0.020713891577785352, 0.04375480698883103, -0.010269011269580155, 0.06976355897881495], [0.028760458642145822, 0.04138357197331762, 0.04856653549520088, 0.018123208395521572, 0.06526460948442585], [-0.028273710805251144, -0.019511491566217405, -0.025132896833632103, 0.020136310546912707, 0.05448851951827423], [0.04645516641475307, 0.03403375285512394, -0.05481934346722575, 0.08429751164397742, -0.05568988235575314], [0.03396596993033737, 0.04796727181437857, 0.05462493377663185, 0.06564194185383128, 0.022840772676724918], [0.008482921750217764, 0.02778833215597432, -0.010457716036167405, 0.14779190560415556, -0.013804442199182478], [0.007146548850167816, 0.03739290861340403, -0.030702430119453304, 0.07434325870762723, 0.01060478209831568], [-5.2194742380784913e-05, -0.009921279660832859, 0.0003860347992650311, 0.05514242433324673, -0.0042994346078063395], [0.09665770852611721, 0.02012764040516535, -0.009654658621343048, -0.002357434331840769, -0.01691790192505251], [-0.00940905827985188, -0.01788454232770883, 0.05631534885744176, 0.017970967408627466, -0.030164607046244518], [-0.017584299683500528, -0.008334736550308888, -0.01575410149229588, -0.008857811401893538, 0.007639482854791252], [-0.026893732911707335, -0.007260654625363311, 0.022140391418136028, -0.040319871967622115, 0.015796358452973145], [0.011942123910094802, 0.0009887421878848365, 0.0055074096779097175, -0.006937659939943795, -0.04651622781475735], [0.0564229721382322, 6.218245155064926e-05, -0.023676545916935604, 0.017165282068922164, -0.0023459905709284504], [0.024991109045518052, 0.019128948299839042, 0.0070193812369416676, -0.004753315130117591, 0.03599879144799261], [0.030764081889776133, -0.00795164938225343, -0.038617676302289294, 0.01866387615596606, -0.04088498751898082], [-0.05358199438960299, -0.01920477139310633, -0.04009957420806736, 0.05408871992738223, 0.0010434712342525141], [0.09302326103835211, 0.09114076497226425, 0.01350773403958949, 0.004033975912934633, -0.029367118024398568], [-0.016950594532371903, -0.03243673780345415, -0.03002201175677972, 0.011667165417060272, -0.0166355703929971], [-0.008959167066350136, 0.03390552664393313, 0.04799459331349155, 0.07396461463346471, -0.028870904346210292], [-0.0287967557466414, -0.003208666862497068, 0.012208996571866661, 0.05470241021277365, -0.010950648029685841], [0.0445219800596797, -0.00822225289475705, -0.029506996344963142, 0.10470789443700809, 0.04385833059082727], [-0.035528144409807685, -0.04851788453017278, -0.03893176255331427, 0.001790032557890047, 0.030267118976417994], [0.053267884681458814, 0.02184435338550133, -0.0353502048462529, 0.01504213010701223, 0.059572721403143965], [0.015821230406378325, -0.03344104098153001, -0.07482727598823977, -0.05958902821647837, 0.034656167327644004], [-0.04570588517517307, -0.07001347037096464, -0.011596767998253543, -0.07749040583865315, 0.11453715564234827], [-0.060559384201209925, -0.04766212063012776, -0.08787299071560221, -0.04190650224146195, 0.13123810486042572], [0.005634672006088867, -0.010850306677386989, -0.08302724957942653, -0.02960381298450271, 0.0986009487014016], [0.04578219424477585, 0.02567204357976173, 0.025202908544519405, -0.04315619295657557, 0.002406867503836541], [0.06727842236250159, -0.004254761755191215, 0.07253852831778902, -0.012096256010832647, 0.07587979425825875], [0.04603218875334177, 0.005889696959250981, -0.019302615533215883, 0.02152079388436293, -0.011352624413741363], [-0.009132812947159912, 0.0075520389727718315, -0.036020427566120894, 0.04495558323178218, 0.08276161099961497], [0.005683328314060905, 0.038886138455387916, 0.03781114354459814, 0.09821190525914217, -0.03925203491596582], [0.07166117671274497, 0.04729511161981827, 0.04124052938167831, 0.061199748610278694, -0.027421729165837704], [0.05253276907941156, 0.033653481246077616, 0.025104706569288687, 0.09231256196268968, 0.013301434519710125], [0.05331089969847663, -0.04431326592402347, -0.05281303325095129, 0.022057018769387836, -0.07570865052647542], [0.028215808589466974, 0.08493057670916382, -0.0072514521334085405, -0.008530668290841828, -0.018632708031771524], [0.0270076373833626, 0.02038237091895904, 0.0075714187132689455, 0.016178262350482316, 0.00970876000840608], [0.027575940344799477, -0.007770606918915357, -0.005226218918225732, -0.019132249846413714, 0.0343967749719552], [-0.03923876848735736, 0.004826421371814052, 0.015359605323548867, 0.012993225135700223, -0.011074273693501316], [0.029797545040308265, 0.05545595610996999, 0.0156016553366172, -0.003454062982147681, -0.0452565619861685], [-0.012369966808624646, -0.01232554415874065, -0.030203581765541797, -0.0030261555532458753, 0.08195673611049725], [-0.06635534223884242, 0.007534066322552754, 0.03646808288622834, 0.021117869391819238, -0.006322776940048877], [0.01984470605495101, -0.09174468227743197, 0.0041542758670049355, -0.012333573884072767, -0.020717532516140422], [-0.04229591748027459, 0.02630673216356266, -0.04724503142116418, -0.0531912241294768, 0.09261353599376279], [0.02270120084431976, 0.026962892626300927, -0.03849524644337044, 0.059698005703585744, 0.047109034872675475], [0.07958895281541317, 0.04908564550306747, 0.06566050214318735, -0.024120135858077416, -0.01451837760887271], [0.033139002097217485, 0.02763540579063477, 0.05192475585507836, -0.0011471926048190547, 0.03402162363896116], [-0.014909352930692697, 0.05446631327215514, 0.042348310830431966, 0.0338073671922581, 0.05195631259625542], [0.05164270562315184, 0.023050872334338446, 0.0015252776241137934, 0.07130986502815767, -0.04432885387438848], [0.004732287583207037, -0.0859843914080557, 0.01682465627744275, -0.03126311071339419, -0.00702398928359559], [0.009166659772074542, 0.035807964550091616, 0.006759157841761618, -0.03005209236128334, 0.06953468044721345], [-0.07891138806752264, -0.045486592957166824, 0.02049838367796709, -0.008401233431981833, 0.016875211706557668], [-0.03582444384213273, -0.10003775451106726, -0.03018876201302174, -0.09908976204530588, 0.16091328381988715], [-0.06344839607299743, -0.031203467300543426, -0.029371867242574907, -0.0028001921630823896, 0.1075773785266498], [-0.03605458839948075, -0.05621885127518548, -0.08981868894448763, -0.01818048134261574, 0.07328999392265055], [-0.012950883682181879, 0.015629598735164327, 0.04497237953003281, -0.014297599066970607, 0.03259045619444606], [0.010654302943516105, -0.021655714959343472, -0.04884945837592158, 0.008351308706508504, 0.06403026627354969], [-0.049334330735255436, -0.0027607734814256188, -0.02938549582371191, 0.049553416970674315, 0.08505131518734611], [0.07947175296394568, 0.014631765614766224, 0.057874208348541734, 0.03310992801122549, 0.059442093552224934], [0.027872454423581952, 0.022085914219064563, 0.028264566095393743, -0.007711607934563742, -0.10527759698616408], [0.05818224483136868, -0.03558732338669886, 0.06273254554382915, 0.06047960854689861, -0.030051730717397702], [0.10185663147565821, -0.012024345751862025, -0.027704965017042036, 0.06152185384290437, 0.02180831201630552], [0.07754367261444337, 0.05302490895021659, -0.038382038650836774, 0.0036256095435027724, -0.03137928930478165], [0.029978853169875586, -0.047638331141388664, -0.012817968739785445, 0.04318614808536264, -0.022793937177162594], [-0.046156362515973624, 0.06064658391747122, 0.013270515434979835, 0.10572954961079864, 0.022927304996247372], [-0.04675902536500653, 0.019977821912010533, 0.0027915727420643566, -0.010663437661041001, -0.0365511205257764], [-0.04877552331582612, 0.030273385236803212, -0.05885606560743458, 0.04226718884496313, -0.011870378977675863], [0.044893851527605826, 0.048216316161380716, 0.057129183197103646, -0.028074933564514487, 0.04134664126926479], [-0.014665702392885675, 0.04763194803347183, 0.038547245892004124, -0.05559696070251568, -0.016429183992033254], [-0.00011809486641674736, 0.04275080259157653, 0.030724714962332873, -0.013691970577005727, -0.0020936587289575844], [0.03659659972081877, -0.012144497634877896, -0.08185732591183298, 0.05157946736398436, 0.010144972542696879], [-0.008874126279393131, 0.07986355135726185, -0.0029064550772710477, -0.01110462024791589, -0.07443688419042982], [0.045209055847813304, 0.02057999636051, -0.03290313882421804, -0.0658787855275729, -0.011469040318331025], [0.029264821991795014, 0.015000763213254713, -0.04920627245552886, 0.006819782271375743, -0.019537411181335645], [0.09214141321251486, 0.020196339471448777, -0.08844688539660904, -0.040638127337171724, 0.044172846886975856], [0.07113602425291495, -0.0019925456978885925, -0.04296584982959748, 0.05002650241320018, 0.027463194170915292], [-0.03711580170761428, 0.022366610160909413, -0.0024483234732267625, 0.04627119820702362, 0.011759895685155288], [0.00021842914199472405, -0.006297393431124028, -0.028418586585204693, 0.02823589524115205, -0.0007853134036785206], [-0.03915804962038458, 0.01280036729404633, 0.00012472411381939948, -0.021186180260290365, 0.019102977023646567], [-0.010771551276777177, -0.048267104117914544, 0.009751298026625495, -0.059529022062808655, 0.008448571225039114], [-0.058878558960656954, -0.044858423608014175, -0.02817978471122969, -0.05895660067095868, 0.056866644249167625], [-0.09274665792925049, -0.11884135648181035, 0.017584508488945653, -0.06809678495329607, 0.11120708292711953], [-0.0032119717021154505, 0.006331275202809563, -0.05068380095867351, -0.05704308320277707, 0.1421143294633609], [-0.012378243964663952, -0.0465518481426942, -0.04326883049532396, 0.019369816777586507, 0.04997843805980528], [0.013973312937470063, -0.0076632855578626586, 0.02172378950750844, 0.015034481429805515, 0.05569865181205896], [-0.005704970586522215, 0.03586914906832703, 0.002199134493166683, -0.043398184790381496, 0.05787341187130182], [-0.023697164295329372, 0.03258693799528549, 0.08140100971444722, 0.04810402549654177, -0.0430398514328352], [0.01888969321648494, 0.05075251688931691, 0.03178668350325524, 0.004807757390354717, -0.00857191957989374], [0.10831149059901446, 0.0016593866558642196, 0.029150542814632446, 0.05702951474161072, -0.018873351387814166], [-0.02393225520377905, -0.01295733419515701, 0.014976306001695517, 0.0822565861088694, -0.04190960429330166], [0.03947589474549433, 0.04281314642155755, 0.013364881314438202, 0.06453331874225424, -0.0237420494559204], [0.07814107483098238, -0.011082631762308405, 0.01734663560542337, -0.0021056255916280806, -0.005730327556366624], [0.0387282448150802, -0.01938491639604691, 0.03623739804120603, 0.028299996069197395, -0.0007022348525315079], [-0.0028957614223450645, -0.037624253667024765, -0.01079354673792938, 0.026955745317841878, -0.035757948435510556], [0.023413866588190096, 0.04067005457326478, 0.035065330631774104, 0.03354168326378947, -0.04634171843328204], [0.04050493348082757, 0.029815938950892944, -0.05689571303093167, 0.023797397698599225, 0.03296046533169585], [0.020422166655402568, -0.003162294871414993, -0.06713514825947607, 0.053772180328673515, 0.03765195314541514], [0.03634637895209807, -0.020211211160935525, -0.001754950584012639, -0.07735913648442845, -0.044215931354625246], [0.04367888040533049, -0.025463838100759757, -0.030013292748248887, -0.04418352224225262, -0.03151724315519919], [-0.02375340157184185, -0.08045479702136227, -0.018607930668873313, 0.03531024883291576, -0.006752082593694592], [-0.009270479532859878, 0.006638773220021833, 0.049215311914604085, 0.02697076276564377, 0.038632997926244736], [0.03844592656202945, -0.04650593894366867, -0.08715498018429027, 0.025384885563682763, 0.004718876593358082], [0.08077807177292717, 0.0017417738488242377, 0.006620384134438193, 0.0614632968844194, -0.0662472094053498], [0.05425456977806845, -0.026507439735622373, -0.007711944034921566, 0.01847669100456183, 0.02221373859226593], [0.02695542847396612, 0.020941783885558403, -0.043957530308362754, 0.08307028772995237, -0.029013655377596058], [-0.006253749796892181, -0.015267155552612453, 0.016539845645237045, 0.062377131840444314, 0.09358283868791063], [0.017780845028747532, -0.039840485809566596, -0.04654489527393793, -0.03810538835743573, 0.06709740886410825], [0.007219791722178982, -0.05903049881932938, 0.045179039724811874, -0.01045869361735415, 0.10565500587505436], [0.015111750886312416, -0.07515772953586644, -0.06596253118051451, -0.0013799403110248268, 0.064205021738516], [0.03201711772118382, 0.0057118507095541326, -0.0409106699507118, -0.011836231022156793, 0.08990134441454344], [0.006577136211444169, -0.04258454249355287, -0.04262712750061984, -0.0050135712258669906, 0.04361081525020598], [-0.024687645357444794, -0.03140717305113418, 0.015012882925105405, 0.0177015302748211, 0.03085495629255864], [0.012269060211834933, 0.033982617433806206, 0.004449642298895569, -0.033591204242861786, 0.09621320182868663], [0.015246795374124825, 0.04103458632067543, 0.05064070709486125, -0.0035363884169817505, 0.10500017998766857], [0.02184145473312391, 0.05795422724642939, 0.036662401374490936, -0.06566232742259022, 0.04300990105827323], [0.07948404450529775, 0.09767273708221452, -0.018576176987632077, 0.09143283789951266, 0.013744772814591676], [0.03065217965767462, 0.01046624747353754, -0.008365468268356964, 0.03708774632571991, -0.02612783484300375], [-0.024424709549285693, 0.04765232358199942, -0.015146760116729984, 0.13698876821244604, -0.02776376117748], [-0.028938874802295997, -0.05114109498896876, -0.09074251156900508, 0.0512655474783131, -0.02422282223033791], [0.04856252877202478, 0.04055492895539733, -0.01738371111243841, 0.05164615166725375, 0.0012694894716485505], [0.046197885532172946, 0.010728360015779396, -0.007344630291914452, -0.0045167848321320415, 0.0057688951577369325], [-0.045065450272933356, 0.01591905844691208, -0.04717443446614051, -0.054681289478507186, -0.011036492718099278], [0.005087071169728486, 0.025121358819584928, 0.0347586686132069, 0.0256018909535653, -0.06902925494615897], [-0.015351293277190339, 0.03777403047180341, 0.00027667727617367764, -0.006733189737578285, 0.005503824405910325], [0.016596622628103443, 0.02137381468428721, 0.014324984475770186, 0.035532359225683534, 0.04579777582108519], [0.024541317420675262, -0.022531803074690018, -0.0025030825285990584, 0.010105433617287645, 0.009087317105208867], [0.04751484115621302, 0.07044100043133575, -0.06481820988307109, -0.02497056755588894, 0.07185139302307904], [0.02877302702574593, 0.06148019554671498, -0.042020617963052065, -0.032941826388689206, 0.03283354119722534], [0.018306746623279753, 0.030499374263792973, -0.050015804877363415, -0.0033021378943195634, 0.0017625053771269273], [0.016341469956709407, -0.040678685161874076, -0.004281980940668496, 0.09004993376221591, -0.0677851981149213], [0.06781587743948786, -0.0006186929732655569, -0.07004525293510742, 0.09560042419553962, -0.02383992259857273], [0.04425609787140733, 0.0022372909788006606, -0.05061535110072901, 0.060078482684100286, -0.004500596094887596], [0.03311622671777155, -0.04775449625415975, -0.05871802602977743, 0.02761816185795808, -0.016267221847331138], [-0.022239089886974876, -0.027071933060409066, -0.012936002671350644, 0.07373854965917978, 0.022493811403779176], [0.013804452278562727, 0.018032176507717306, -0.0975064278476753, 0.011052390997841654, -0.034998285693147974], [-0.05530697754544922, 0.03133191525443698, 0.004009048729567463, -0.06409633870482924, 0.06615972697894518], [-0.001530541503121869, -0.0933827730998013, -0.0025697884868787378, 0.012151436139708335, 0.09080110743752673], [-0.02783382932134896, -0.0881411812003464, -0.00805546427860895, -0.0415803228040881, 0.10822569675178463], [0.014742098874471013, -0.08689490895482523, -0.025214793484910306, -0.01811137581802195, 0.047125723529790935], [0.019519569321924043, 0.018051485653625025, 0.008753833272539471, -0.04392765479507506, 0.07094167953043781], [-0.026244414763905006, 0.025343407791471814, 0.010892614529923428, -0.015048982381177377, 0.10746070214031868], [-0.003901371730357703, -0.019851999601635157, -0.012092130988430488, 0.07687488061135893, 0.03523606956787021], [0.047797504903131824, 0.015991980431172212, 0.0819808556356752, 0.014457388122750854, 0.0029013399070600622], [0.07035445762058658, 0.08908273043356145, -0.007533432667601518, 0.03385716303755202, -0.037577193853474695], [0.07965099695033769, 0.014855763185514662, -0.0011106205806795373, 0.15892990673549454, -0.017556121845750644], [0.06801602584437758, 0.02710491791027101, -0.06253534342860084, 0.025012957200073082, -0.019365966695188152], [0.036099876850606095, 0.005613557921134494, 0.0009606680651438363, -0.031177227931055655, -0.0371323805104778], [-0.02570475770226933, 0.06575561238004056, 0.023791300248031864, 0.054734660593299775, -0.05540292286066266], [0.008294296390591318, -0.010999085055307745, -0.021423103396410695, -0.0425356759115605, 0.03992511236400362], [-0.02668204858645342, 0.018113454365999055, 0.000902950064641442, -0.019202267616168712, 0.054101149939130545], [-0.019192425624993494, 0.02342510851916547, -0.028749521531421598, -3.679487847714178e-05, 0.0737800514990552], [0.0692866213172745, -0.03334403748118807, 0.044570338595972356, 0.03847499571260895, -0.026515141943842198], [0.012986084301893816, 0.03183731289473547, 0.028278120188686466, 0.026855852363474875, -0.01636426051568155], [-0.047725888317670356, 0.012936013996933452, -0.02772037420519215, 0.08649713219103965, -0.041123819186252485], [-0.055679214901178456, 0.03482300321040094, -0.015729655024779726, 0.0038165493430188336, 0.03390016693408971], [0.017932287557942315, 0.05709025197441036, -0.013614949547570487, 0.005744787585319032, -0.050883298519089404], [-0.05875489087456922, -0.02963398798137791, -0.0288716107177019, -0.03591703923680676, -0.008159538516893963], [0.014573688173922213, 0.014881339853200866, -0.08427674855470149, 0.03900568822030437, 0.0026321764385788737], [0.0698013760846684, -0.04493404967373662, -0.020397595275397862, 0.03220142845910637, -0.05601666173377765], [0.05764369558164797, -0.041429602375023286, -0.07393808634012268, 0.025914831419151744, -0.002263584530595457], [0.046066725923470206, 0.0044269107806797865, -0.004341065699832015, -0.019144351854646812, 0.003831568166058426], [0.01040440939487566, -0.019171285694781597, -0.0219972576440048, -0.009083248461103836, -0.0066444891861497015], [-0.0016564872174466498, 0.010266106371811847, -0.0595844518048912, 0.028898235004829475, -0.048428609799978095], [0.039668584659422294, 0.02200847880445797, -0.050315163181142396, -0.004866126002366692, -0.025301288153422065], [-0.05074913591180994, 0.038112225880482235, -0.011594006511296178, -0.04358218395655114, 0.02773468185201378], [-0.015953705098681537, -0.004528167034479985, -0.05921096421150337, 0.013571803572841455, 0.08081584982161845], [-0.024572026032102384, 0.07716869630972052, 0.01623777754644275, -0.041392559899097764, 0.057056708907847684], [0.06720259903466592, -0.04613976939687802, -0.012264371652732864, -0.07215972885328087, 0.02399716322463996], [0.05236558514257389, 0.045839892753566445, 0.050970750868530916, -0.009724325382285022, 0.017236685354539257], [-0.014004093652004475, 0.05203798083953096, 0.023885250391161423, -0.012399292197470758, 0.15947423596607777], [-0.028645558310638686, 0.007553006845291512, 0.11750063530176508, 0.015387833624629825, 0.02031692597567318], [0.07122386801479302, 0.018634850013011336, 0.0312981499207282, 0.05976712893573816, -0.010554855575539536], [0.04792466884979501, 0.022409903419976153, -0.029197005384659594, 0.05957250142759036, -0.0431674003827304], [0.019515773962583072, 0.03973496521490327, -0.021991344969110923, 0.027283568297244078, 0.01685253281850043], [-0.008740040398727398, 0.061858191323693655, -0.06970751275340092, 0.04807673748960863, 0.028338424589668676], [0.04279997490697424, 0.002897164756717779, -0.04185975774612852, 0.048928269708585784, -0.04992288956243635], [0.02784526949816834, -0.04625811560161147, 0.04704731100096912, -0.03105541726430056, -0.03311843804343565], [-0.010689736866506502, -0.009596186677674189, 0.053735457894585836, 0.003886249503139234, 0.050530587371959014], [0.03168648697808561, -0.04938745919949516, 0.04645380956964148, 0.015176276313348917, -0.07097498986173667], [0.00831044316155574, -0.008494583462690778, -0.003967539309582541, -0.034411238414621785, -0.005761268873659264], [0.029888093129918716, -0.03763621467620198, -0.014726380618305364, -0.027401185452617723, 0.017282254396580227], [0.028550650955338007, -0.04097670121885658, -0.04381621362228513, -0.0391519121428882, -0.017604966412444467], [0.001109258253779941, -0.016809955576195162, 0.00850793154472588, 0.007420312043976641, -0.06044869889443346], [-0.0056633004758213455, 0.02529325078924976, -0.008372429956712078, 0.028983288433653952, 0.04517957420011837], [0.037952937697896004, 0.017412484431096362, -0.08222244869841018, -0.0257034161894709, 0.006253944857859406], [0.03811605484137274, 0.02582919675858964, 0.027479466298607962, 0.02557877203562555, -0.03304613984743364], [0.019487024566563454, -0.015420635054045919, -0.060950260991029744, 0.0008404580150347341, 0.02620817562961763], [0.03469688806318629, 0.00680777465757157, -0.013983271986228804, 0.07938168984921554, -0.06045257051920974], [-0.019536707347119178, 0.0070976366193749585, -5.585045255913208e-06, 0.09378451908504286, -0.03092807740520989], [-0.006431889192525849, -0.01937244600659752, -0.027000384781844772, -0.045536685059246795, -0.011100605448116299], [0.006117649928596973, -0.005388879521958317, 0.013341615466037595, 0.037251948210442795, 0.03641989446785734], [-0.06021116087758171, -0.01301304838324118, -0.04379082405649112, -0.08534751872564218, -0.004433127591543389], [-0.03125868301803804, 0.016283121599964076, -0.08809706067932709, 0.012933393738471674, -0.017156872607501004], [-0.06462432554809641, 0.027431931179230918, 0.025067015656379265, 0.024029225832025453, 0.13141610435672416], [0.0045189425663169965, 0.008956095953054187, 0.03786557475514418, 0.019732292899908473, 0.13595028950843546], [-0.004179285388107798, 0.05611473192111274, -0.05462765532497144, -0.03390236779380155, 0.02753718008223229], [-0.0480645663527205, 0.04236580697012351, 0.08920238153305242, -0.0018670201796194242, 0.07378215538121856], [-0.0114660726914648, 0.01720293532065656, 0.06613439609548127, -0.0025714184797596866, 0.11333367264598147], [0.025879824633988843, 0.04150475190543308, 0.0576439892427419, -0.030436683829251125, 0.07217880901866384], [0.05482636924207957, 0.00459004479191486, -0.012249962170657361, 0.03570576804353547, -0.005496300877627979], [0.02054319499369706, 0.02485051427730045, -0.013817828079102106, 0.09925339688117855, -0.048439508078821934], [0.0165840280239023, -0.003111896955965224, -0.10199901157264893, 0.06894834841165733, -0.003930853963526306], [-0.005908740505007708, 0.028071721718294553, -0.04459399486554112, 0.09665270806121325, 0.003010362955966857], [-0.010291563751937127, 0.01585766500582206, 0.03496190667226923, 0.0003076097600492229, -0.047276095646846705], [0.061724546479616636, -0.0126722548013944, -0.06484177637012052, -0.03680077599860555, 0.022143149202596316], [0.017503992634931846, 0.0027045878729542038, -0.03595669707593589, -0.027968164884154195, -0.05290556347779661], [0.06036433277360881, 0.07741047004216113, 0.003995792843145518, -0.04687470986189201, 0.02366618634580079], [-0.0595003649257209, -0.012537325905037413, 0.02293036023268518, 0.012128111815258937, -0.09948171475584966], [0.05219414108202739, 0.04094664829333957, -0.03940074275643537, 0.021114109363051962, -0.003694372687202193], [-0.06017154497626598, -0.03193550539191037, -0.04822168551479063, 0.049860010561285514, 0.04006830395086665], [0.05714218843027548, 0.00862623345508148, -0.010303401951239325, -0.08873791858742845, -0.03323574513734884], [0.022326038529871934, 0.006490026981846186, 0.015758070683884868, 0.0029873183811982705, -0.018437325143341007], [0.038051188582304586, -0.06507727958578974, -0.03578315058582707, 0.027150428996107187, -0.08326533651589689], [0.015418901421280825, -0.001511035921073908, -0.035702435600993884, 0.024360296962343497, 0.09770344004737061], [0.0973387350240413, -0.0555428424094285, -0.020677835270855253, 0.018202922290409262, -0.07347459267157318], [0.09179641576794005, 0.030364552814878414, -0.04404509434308968, 0.10039419978755498, -0.048100984891313356], [0.04066530479194129, -0.03389777221462109, -0.03351448637518108, 0.06708662927178717, -0.001909294948446981], [0.0037086668752996897, 0.021951623705274252, -0.0019061181011033109, -0.008899687905643109, 0.002105407188526269], [-0.017340063413744243, 0.022384017945247036, 0.0024653244939974823, 0.08139923414347483, -0.007202436510736057], [-0.02896718151155584, -0.011500251162989653, 0.024707381858156168, -0.052799275075584996, -0.015221209131949097], [-0.030293251214076614, 0.03177208721171394, -0.05663079016694951, -0.054561954722307446, -0.01423521672786837], [-0.02131226931481724, -0.05973411654237043, -0.04918295470614442, -0.04354142203529469, 0.07485216910265369], [-0.06388248447344724, 0.015463547904615623, 0.000972945605631166, -0.0847412007115643, 0.09294231372570784], [0.08157886085551799, 0.05585351416121535, 0.07813548837417615, 0.0028839307831869418, 0.039464029458715834], [-0.01734505755718309, 0.045064635416399844, -0.0019415639535431274, 0.09869794094501841, -0.007395150598626679], [-0.0609097978493579, -0.007793594775999796, 0.020128333717427005, -0.02252302681692917, 0.04369544546096177], [-0.04380041158879789, 0.042384335179986646, 0.044430639278690294, -0.020259666080962767, 0.005534818480746842], [-0.028722447210785238, 0.05231038761575461, 0.019152653226152054, 0.061287031417962184, -0.005475020888862697], [0.03532950951007671, 0.09178699995241547, -0.014531288138278428, 0.07663855796541898, 0.004371975091954189], [0.05768396052495669, -0.03015540265613274, -0.028534339615963834, 0.04977782551467911, -0.07596693344282685], [0.025372680531186426, 0.013705593479985222, -0.0442844290061447, -0.01788726712695457, -0.12496016350657053], [0.036870205936884316, -0.0017864656011183067, 0.0225263277592281, 0.0668081598996755, 0.0227185795589713], [0.04213249691159008, -0.057574398250554354, -0.048273523998458044, 0.005331831098645459, -0.0016204365765540834], [-0.05069262903624379, 0.0038529995897611277, -0.015557649966199285, 0.02616070025688177, 0.00850228239441761], [-0.04051424425743243, 0.021787830160409243, -0.021236327163576044, -0.04280639473496946, -0.031857203977443134], [-0.006817158275743027, -0.02969404675405162, -0.020233458909435027, -0.06207192623072571, -0.026447432586899806], [0.031633929120005636, 0.02278068061027415, 0.06285671452626711, 0.04120734173288947, -0.025023497959563764], [0.08649818223300772, 0.010590313025442956, 0.04534507563873246, 0.034045858143002525, -0.0703353045154277], [-0.007607977122134798, 0.05997901539046492, 0.004632531280758521, 0.08348527090596247, 0.02421517193519073], [0.025749432100914647, -0.0483436617782275, -0.049160084079224245, 0.03113252677498882, -0.035447408719517966], [0.008241909019454563, 0.014562304413694762, -0.01562590920931265, -0.005969334220876646, -0.041054011823504113], [0.01169877584738161, -0.03477536819967075, -0.08544488830719045, 0.06472232617260366, -0.033594436571801896], [0.08131678532072525, 0.050681836479974346, -0.014799873961569336, 0.030150621005233125, 0.009922655782348296], [0.033703160356069774, 0.011914733603124728, 0.021437222825327996, 0.06767826842126429, -0.015083870906330617], [0.01658320517507543, 0.06388166051278069, -0.020703985660981448, 0.07881964501516872, 0.0004385454644176984], [-0.027503982442807887, 0.016349646271011906, -0.033382991696777296, 0.057002729586113014, 0.0019428894737010002], [-0.012893518752012478, -0.0028210119777733354, 0.01625906449783007, -0.10722802865892052, 0.016601600700428765], [-0.05770534333935778, -0.029835165654945615, -0.0029837853671601396, 0.03383469206064156, -0.012956244459006488], [-0.056478393860988366, -0.06287104659739859, -0.03475604007874149, -0.04041453877740445, 0.08358331513947853], [-0.021973654431592583, 0.02474309501782647, 0.05833260108007663, -0.04454371860460665, 0.11024259755207519], [0.018240828481623034, 0.08751339290333462, 0.009179186757929074, -0.012526148689537936, 0.06597002738360243], [0.026752753176478794, 0.015030062930811118, 0.05363786646988718, -0.03021322415670953, -0.0059698703654103985], [-0.04725976009793545, 0.03578791510272417, 0.010398543465024345, -0.03901798033045106, 0.03009888944600497], [0.04147979425591104, 0.034057439802604506, 0.07814736691711667, -0.08391017499674736, 0.057589851960549616], [0.04790698291807334, -0.021918665786298527, 0.03457143495647202, -0.042684976918003964, -0.011849685075371034], [-0.008784966651473847, -0.023091309365198875, -0.0320227954225083, -0.027781746169305874, -0.011520074249702672], [0.041791876633058285, -0.010372297851311477, -0.04701746504453514, 0.03929919264560345, -0.05570649486322532], [0.047786359320046524, 0.001648201980985833, -0.017302383234549083, 0.09962606330274404, -0.009271468751622018], [0.036563259820172625, -0.03810966642337351, -0.014520974413851648, -0.0364713389510989, -0.06902739202961396], [-0.024847861596691955, -0.00773702363269721, -0.019657940506706197, 0.019754436118073593, -0.0012464728504432627], [-0.03451047588599574, 0.02615482962937543, -0.05771322907679229, 0.06324978858572405, -0.02164288484245641], [0.044796918934242806, -0.024068233261580925, -0.030592662164702376, 0.02766557927550859, 0.013462251764778086], [-0.029320270243184676, -0.04490993748957251, -0.02759554552275561, 0.018621891691602853, -0.07089752983600361], [0.046090112697925456, -0.01998631034944964, -0.056242280008702926, -0.026524942881690806, -0.013561667836165458], [0.04689096646213114, 0.011239254440829951, 0.05301042176201358, -0.04028015577623117, 0.001695878858185548], [-0.017983982721573418, 0.01013222519050209, -0.08691974816763688, -0.021414720894834875, -0.012198878000403441], [0.02959842118712588, 0.01288780114624606, 0.019687707147720272, -0.004238640704732221, -0.037693933124740946], [-0.005993718309574479, -0.014026566765607673, -0.09015189945403193, 0.009177755250730248, -0.019375952910626527], [-0.03424913614622447, -0.029812322228247767, 0.010389073871542252, 0.10331559856318681, -0.010437201801338893], [0.08651506194896107, 0.050440246132710684, 0.005566813134070311, 0.01635962375433505, -0.021339505615173875], [-0.00197037251197614, 0.0035790449376999394, -0.03145863194710285, 0.024703053072283813, -0.04323341934964204], [0.04658864205367784, -0.0177293812192518, -0.054429962681242484, 0.07546411708380177, -0.03226914217046548], [0.06824311488488141, -0.015189917061387942, -0.060627144460114045, -0.009114556444271947, 0.049505864879144774], [0.02505060506480794, -0.029156599546982187, -0.009046528882816226, 0.03287946612168308, -0.017011829704004576], [0.013379116120662119, -0.010577618155176943, -0.035094468638354505, 0.03622387400480611, 0.0505797953417839], [-0.05249383668732856, 0.03306247158356147, -0.03498736011084076, 0.018574284321639573, 0.01874039844909579], [0.013282528528078631, 0.018047535260424845, 0.05257700262342088, -0.09109911064525991, -0.01058266665584158], [-0.02861396144019024, -0.026491963011596408, -0.06958621998710868, -0.02008544414168395, 0.18761906298949974], [0.00707513649550799, 0.020144488255413758, 0.054768817364447664, 0.007918583931735387, 0.03366810378353701], [-0.011448620014283014, 0.04408819456378253, 0.020352883539073146, 0.10568027550347793, 0.12878208233361296], [-0.00721613512800021, -0.0016917948484846436, 0.14303837126462218, -0.03183071034109436, 0.058679600839738555], [-0.0004960580577841432, 0.038048408996051365, 0.028994978755553694, -0.0511405046896352, 0.018056089783244057], [0.05450039655340751, -0.01872814631060133, 0.0878930517339707, 0.01817631665310294, 0.023914659700991422], [0.04937231376613076, 0.012555170051827503, 0.030366124014712902, 0.028399189595093962, -0.025576642677877667], [-0.01369163913981186, 0.005159776270442812, -0.038408022747689764, 0.048739060963797175, -0.03349302603930136], [0.0264216168870059, -0.048255562780391614, 0.023597122663554154, 0.04879572888220415, -0.060725896879524476], [-0.0010660884476300122, -0.019825494874261978, -0.05239006870646784, 0.005342013864758637, 0.004560486634151189], [0.06423845390604281, 0.008823341092773667, -0.026011871505107184, 0.00277083858521073, 0.001172837154642845], [-0.02092165838864863, 0.04430957962311229, 0.04979543800823465, 0.029825499707973737, 0.029183815232206797], [-0.07407647805708821, -0.02921574069450526, -0.05022453972363195, -0.04829477316977703, -0.005335342800135227], [-0.03377228508967379, 0.00996164571408396, -0.042572314296626716, -0.02252924140655588, -0.006838714342341294], [0.08036626921304553, 0.026131340798456727, -0.07545117204598292, 0.03406609297945903, 0.014029507139169608], [0.003571797559688954, -0.017029600179276662, -0.024912188441089635, 0.002459299517252262, 0.004589131271506218], [-0.010772173651113692, 0.024488829273053563, -0.010344555671465258, -0.017506367919636168, -0.06409095780443771], [0.00031481420573793815, 0.01862477260055132, -0.014261844935931366, 0.00686861324933167, -0.05183609584559644], [-0.016604910730048866, -0.05999913499418683, 0.003170843936747269, -0.0559518516670246, -0.014555566144328938], [0.031023484203928822, 0.007189392251466469, -0.022162898818192667, 0.07625531802110302, 0.02397504053409053], [0.03280778171016344, -0.04019030093532766, -0.04114036451848157, -0.032755016811877265, -0.024661190141445914], [0.06177667436127012, 0.020800057465638625, 0.015787095998109027, 0.06382919835173613, -0.01226206827043206], [0.05337418624130961, 0.03793108361537011, -0.08416179783740974, 0.04003273220193426, -0.03647617285264519], [0.0015214895323173824, -0.01010377825730131, -0.02478094962155386, 0.06472086871411879, -0.06846217538530074], [0.01793459477074249, -0.02322151533129177, -0.028253413940812915, 0.003378521494293241, -0.06465375892980087], [0.007806319271113997, -0.029420033347391, -0.03190458058687134, 0.009032610672197834, 0.008315539757048691], [0.044405955154980505, 0.032440852599713695, 0.03149937690628363, -0.030177329291627038, -0.03028045824716849], [-0.014999312767185234, -0.005939830469450031, 0.03541338545437512, 0.031887805937902136, 0.07605025438751307], [-0.09895740783235629, 0.0321472606113751, 0.018682178871643522, -0.021682347277513656, 0.06287193805467839], [-0.036465762312650765, 0.027191640097314437, 0.048523647962128706, 0.00945562223454641, 0.0636311754173515], [-0.021031986114519494, -0.027148730986864895, 0.09040252200511097, -0.03653054189599669, 0.010412051086144044], [-0.0324514648182697, -0.01713760621771817, 0.015418477866503591, -0.024230576280852956, 0.055675770947304366], [-0.06206975368771591, -0.047826692418241536, -0.006312476662720365, -0.0289324447001651, 0.04719659301924091], [0.004270497997980611, -0.024492699477657847, -0.0032334224813453183, 0.014728545979957805, 0.05943094624789883], [0.0006359866099269396, -0.0020541064305298106, 0.017027356045842035, 0.03718526316767436, -0.05223350118785058], [0.004390032488817899, 0.0009857025919689179, -0.013387149728441957, 0.03946330368337459, -0.07012912983022379], [0.0003109765599291879, 0.020894653678407798, -0.0656657771533696, 0.09034836839279221, -0.053661382662199116], [0.055670158051807694, -0.028155337301755724, -0.028859768566081283, 0.0019680701740446248, -0.060333315872558135], [-0.04595829665069823, -0.03882809486850655, -0.024748404336322142, 0.025190350191464917, 0.025819167445865345], [0.04976352604235504, 0.025976618897813015, -0.009097704317472028, -0.018838607646337272, 0.036938258805952646], [0.009591689477401136, -0.06011020755514218, 0.005964222383769464, 0.0261624914225636, 0.027028271515030497], [0.006308923974772811, -0.009785094999353544, -0.05844662230286229, -0.0203871817641514, -0.02235614146847274], [-0.03503102765089577, -0.005693206537553555, -0.034313924354242166, -0.024741567755841465, -0.01663928628139685], [0.0593392737587438, -0.007310490510718433, -0.01605832417339987, -0.00444233093414635, 0.020873602724111994], [-0.026792283229101842, 0.037992149148307355, -0.012614690511153118, 0.02046197607601622, 0.03174470806880906], [-0.02332669065695259, -0.027066006872699184, 0.010506132844220766, 0.010597874734261395, 0.023077184919194773], [0.10944251932769523, 0.04587986425868837, -0.04670290954726679, 0.02482590058160706, -0.007739369368936205], [0.04995220160273935, -0.02910138272651458, -0.07659156797359025, 0.03520169420032583, -0.00047442782530975064], [-0.021302844547735778, 0.02966081845030439, -0.004245909321255356, 0.03500792856198581, 0.013323031581345103], [0.07547528556664242, 0.00830068635673017, -0.012501380587199542, 0.03923819891278762, -0.0483326947233664], [0.07254646000710936, -0.043235570294822674, 0.006389808249829778, 0.062332316188815726, -0.004895344545219846], [0.03837257480302079, -0.020314764249543416, -0.08392138035287004, 0.004258731755046191, -0.005342416157826996], [0.08602172261385593, 0.026668228129108924, -0.05034656727970642, 0.005844453662775679, -0.1016326238268373], [0.03387218528719587, -0.015072986557645818, 0.08256246591685881, 0.03038284298592754, 0.007681615871989259], [0.025720623826515604, 0.02169630602489449, -0.02728019495529462, -0.027110792832025023, 0.022415139505968986], [0.012880984621201847, 0.009176224535815809, -0.0026303285244011075, -0.034655682237942645, 0.0575511069567192], [0.0024577969380404027, -0.03193453532225722, 0.028014074800750154, -0.01124099798338335, 0.07548832299240876], [0.010239231774595486, -0.00934692873028156, 0.034825594066489406, -0.02049755038699118, -0.017125770456178857], [-0.03848782042737429, -0.036912564744117075, 0.12461020204301367, -0.03302723245918912, -0.015586238618022975], [-0.048325083954789384, -0.017878222897329106, 0.027336052084500635, 0.017572012561234397, 0.08240527774594116], [-0.014164495289951022, 0.027569706646209807, 0.004689190334418467, -0.05381503331975999, 0.0685509461722663], [-0.038224712729686056, 0.006459642828142727, 0.010255323651884864, -0.051244819849808346, -0.03760962649953561], [0.011751705051619377, 0.06361964489472909, 0.038659197831877115, 0.005482271224061441, -0.049707980610744905], [0.08055440790573543, 0.08904126809873586, -0.0688335766597115, 0.06870855240777231, -0.04352206696763798], [-0.0029005418163928895, 0.021091298366526765, -0.08090946032564116, 0.09199344601508695, 0.009059160113358227], [0.0029244154220679974, -0.021360794906369236, -0.008226630257264576, 0.028874128042979626, -0.08791970099295084], [-0.0065374981637218756, -0.029638479009459918, -0.05413243337237522, 0.005767015830515277, -0.029762633098526975], [0.033845142905868715, 0.045720981706467316, -0.00290538639420387, 0.0008601551389401472, -0.028832435747559976], [-0.02372668821825982, -0.00733923147941364, 0.054507851449401845, -0.028151025917232075, 0.007922489982355133], [-0.01498457816324658, -0.017216700129905595, 0.022007712311502413, -0.008284426616607051, -0.027031446313344726], [-0.06653798641872698, 0.024922245564474966, 0.008867258139312438, -0.05619573928220367, -0.01828246090332094], [-0.014093857764230392, -0.007810030960405469, -0.020095388176635802, -0.08771778141338722, 0.008877250368425927], [0.00012061662573698172, 0.02091139465689772, -0.010533990817509508, -0.06225190403627734, 0.002888728808471156], [0.004664821412840273, 0.02476580653778422, -0.059949327477209505, 0.06080683406031169, -0.020227385932494846], [0.032343536753075254, -0.008620809288067308, -0.05356178164737852, -0.003731939335705743, 0.027481875976408197], [0.009390861022173694, -0.03845054831157477, -0.0194999815780664, 0.030760293997965406, 0.020340005370629945], [0.07725599254017347, 0.027426204699921238, -0.03905845639230777, 0.005882526898377347, -0.025389143087292242], [0.02746277324561807, 0.007906605985583277, -0.05080937598025513, 0.019000678752277324, -0.028642979388390548], [0.11125435086207312, 0.08338248792787194, -0.031660270240082465, 0.06459829449867349, -0.023504555255219266], [0.020671844353107597, 0.0012470658839959345, -0.030349447954491814, 0.1055331417605556, -0.010882981530844533], [0.04977648930849089, 0.026298593649432517, -0.01812189091106848, 0.022138615448772207, -0.05618664782153491], [-0.041829390859559404, 0.09000567035086594, 0.039876943115932, 0.043001510210413235, 0.026252287341086387], [-0.061126743692052954, 0.00825465563374164, 0.0916010522502092, 0.06677576055046983, -0.004093793345770634], [-0.004887384963200691, 0.04453515699450634, 0.03248576982904424, -0.002565402866990428, 0.06985044824677132], [0.03180229433379522, 0.04124420250545187, 0.010266075777454595, -0.016685264647947364, 0.08396197777762876], [-0.05554757716723106, 0.09702628010502728, 0.031194552610302424, 0.023203886483819967, 0.08197416822372212], [0.037322959220439475, 0.03114076874993454, 0.10516717753237355, 0.0071389868105666745, 0.07290098851443652], [0.016807709850110687, 0.005582932751445382, 0.07808857135982251, -0.07250193151307271, 0.014136449706988501], [-0.05723879264578455, 0.0010908838383546272, 0.014703142118322209, -0.06507945764066425, 0.03173652053826071], [-0.08672784920680494, 0.0012752990367571532, -0.011704532705872645, -0.0053397387836592956, 0.11562780661979981], [0.09330529885947403, 0.007711689331359422, -0.020905112619213954, 0.04275879790737876, -0.08223798693923652], [0.020222670745612136, -0.024378713275763672, -0.03144909724813426, 0.08889696112043018, -0.004013163658598311], [0.018144351194893223, 0.010633137355128558, 0.0076553560815613335, 0.0681702471963644, -0.052285945262101306], [0.06230385198773608, 0.04081849062915276, -0.07129701736254493, 0.0006142760212418735, 0.013029977532529328], [-0.0005629489196571361, 0.0955662012415773, -0.02636257431540918, -0.007210353108552555, -0.04598585157949529], [0.02512137378844793, -0.038254238466629155, -0.025829396941923006, -0.02604232681114029, -0.04144745070183205], [-0.01601068455922955, -0.0001035472568272629, -0.007569380332148662, 0.013830620551458422, -0.07967006406840985], [-0.019541333467593913, 0.038581330879495744, 0.03998961432956295, -0.026898656414166732, 0.030187255869219082], [-0.07607939376791796, 0.016286304854356014, -0.0425264310293046, 0.10754533298912236, 0.00018468750946977496], [0.02907532632552191, -0.01620711233741707, -0.05165896748893793, 0.07073058172344862, 0.02563030524180973], [-0.02981380008567947, 0.0015710635405085278, -0.002316739200793721, 0.010898250023281467, -0.0034987961382458932], [-0.018500938317194838, 0.009147250431042316, -0.0007185197240524104, 0.02474367105300003, -0.0009452372662099187], [0.028733967653518485, -0.05065370575389131, 0.06725297649592187, 0.033041742299461295, 0.044387551446061956], [-0.011504014079702968, 0.04169880440069853, -0.009090879310167789, -0.020399663725030406, -0.06643335803805087], [-0.0018445798640997866, 0.013918086441672492, -0.013564387818756908, 0.023917855364447405, -0.04515302140957627], [0.028357757475542058, -0.05339651559116309, -0.01440265740680938, 0.040351284308792014, -0.05183567255151604], [0.052540716461974155, 0.042792997253996434, 0.01913117980445264, 0.10975272745922102, -0.047752541894885696], [0.017654897064412672, 0.01762500236586528, 0.00792236898800878, 0.0965237922057634, -0.05857971387282106], [0.04999501221920944, 0.07079223066189688, 0.03596791088938754, 0.06042212013863846, -0.028617525809750907], [-0.02240749529234969, 0.06438153592853264, 0.05843183259938115, 0.048256420622559575, -0.009479844621372946], [0.005286605853242429, 0.07812966227406333, 0.09714731238068108, 0.00819608765841197, 0.04993526346384878], [-0.045736166561598256, -0.01026596122526691, 0.0679678389982424, 0.005515638811104885, 0.09216990571011659], [0.0062965629780503815, 0.05697631068172572, 0.07514918614164219, -0.03355750576327557, 0.16633651900922908], [-0.0011472686966142042, 0.051152747745430154, 0.06919254284107511, -0.024202920699481042, 0.09426622969238574], [-0.024026144804530934, 0.051503907344533535, 0.020196596700199198, 0.0143100536209318, 0.051940178969441024], [0.0011168556927722978, -0.0034575865595400566, 0.03508539308433645, 0.004841506497866823, 0.0613530409464649], [-0.012713382334609547, -0.05677719439895715, -0.059150747487985156, 0.007903485634243836, 0.09599411819068863], [0.11962408161280215, 0.012143182365451272, -0.02684975422212024, 0.022199205124966162, -0.04531658105579283], [0.015747134727212658, 0.0962082113591255, -0.04831638769346088, 0.0936020797833568, -0.047157321328464306], [0.070742204387453, 0.01073220329891363, -0.017652541849620684, 0.024465469638762852, -0.05463025932350357], [0.06022551089096959, -0.02172878318785498, 0.00687589750322841, 0.07124119988629794, -0.014717061984337202], [0.13841226088098874, -0.022499624724684735, -0.03829956607613186, 0.0070972555341658, -0.07758735022038157], [-0.005218615857237497, -0.02374423703273938, -0.027127171354631305, 0.031494610123445045, 0.018859946479831295], [-0.027472887880016214, -0.015672219202517084, 0.06653997421769474, -0.047509037717105004, -0.06248767158217567], [-0.019915039563751836, 0.016931685757277565, -0.03883476566360352, 0.0028288475498763656, -0.05763148199553413], [-0.026418362619773983, -0.030537577287950944, -0.047367497793931644, 0.04502946250598257, 0.054640514658737066], [-0.02155398259145538, 0.008785367287975786, 0.06054209600021957, -0.03079660254153884, -0.011215124150457076], [0.029722974786671918, 0.029714253635146685, -0.015866262560735096, -0.0033416482413114452, 0.005502484969545737], [-0.043210476860559205, 0.0038590979446436976, -0.04885313301926206, 0.0627603866263706, -0.05138105726396223], [-0.011133432940987705, 0.011632943038400607, 0.039983633470848705, -0.037228597454114686, -0.008233147303167062], [-0.026966346878399168, -0.05542182025958389, -0.005957716165882671, -0.06263818700930297, -0.0028705847785185953], [0.028486246121957735, -0.06833774690785549, -0.005898294449363598, 0.004617986119749628, -0.027298531794995865], [0.0031222315377194914, -0.04665416666117999, -0.07266067346314951, 0.06395543280952722, -0.009204545866316452], [0.0237991647743912, 0.05631522362289977, -0.0004017748329636775, 0.007055450722600088, -0.0037661604712897474], [0.026321854796125508, 0.0590622211538843, -0.035654841732825564, -0.0032567840006645266, 0.006304243874157098], [0.0727736923387912, 0.037693198216695895, 0.054797063211288966, 0.0893044808471005, -0.07275643874621801], [-0.008369408727889788, 0.07059041129923826, 0.07287160912105117, 0.02961344415736032, -0.011380756986465306], [-0.07174732580197773, 0.11077176398930333, 0.06672858379819846, 0.11986033148422258, -0.03806065707199655], [-0.0216259824378237, 0.11985558170566928, 0.06138546598585076, 0.01692983369744656, -0.004448171575754149], [-0.005763182017430834, 0.011285227030557779, 0.08208738132307013, -0.03472497892889594, 0.06029255923977404], [-0.054084210770547946, 0.04451438764980813, 0.09255798700759565, 0.02547399157243029, 0.10449136066435785], [-0.010883155151729761, -0.015440132957447604, -0.009363534029280087, -0.04198261186968457, 0.13149186767978216], [-0.09283976734413622, -0.011744643359774971, -0.023507724420926832, -0.00870159583669049, 0.03340342062129852], [-0.0029893084521185557, -0.03780648927088413, 0.07281495457981348, -0.0401157603443098, 0.0009520614612951907], [-0.01129014162586405, -0.07071099681780518, -0.04363810891258509, -0.03270389482437441, 0.008395531851764294], [0.018285438228480562, 0.028070442766246203, -0.03962681519334667, 0.024260841279574112, -0.04631405840188358], [-0.013835293150011245, 0.023618297673493587, -0.021798931386194785, 0.017699559641335745, -0.0382588439880246], [-0.0012685538329981166, 0.03385236287067952, 0.02872891518323842, 0.056093498377996605, 0.03650834142976496], [0.04863364158315994, 0.0050644029549840285, -0.04627893739629661, 0.004782403015028476, 0.007919931029910178], [0.05679449481103886, -0.054507328326907384, -0.041382155453919406, 0.05514802098229895, 0.015030541693661328], [0.023900393605888293, -0.04399080180017668, -0.02851048629249537, 0.037564327207446256, -0.035855938871505726], [0.030861407820381992, 0.04927096398448965, -0.05645504674308138, 0.07061021109551201, -0.012814009038403082], [0.052240934349929706, -0.007420009834207095, -0.053604128334453924, -0.007949336630978437, -0.02122932833587979], [-0.017941898034675514, 0.019583269847858603, 0.005161897671817841, -0.009706964716967524, -0.0038977411817106298], [0.037495314126513815, 0.006154928343160703, -0.04541090726675772, 0.027912645023816223, -0.06236354949605283], [-0.019071518344227118, -0.014719208028802805, -0.01007136257753979, 0.009413017285234136, -0.0035259392037454915], [-0.03941324852009998, -0.0008894525055658316, 0.02434359297372748, 0.02225973927852606, -0.05551439530779837], [0.025553576146855717, -0.03651989345650286, -0.0047914595407209, -0.05273884494176558, -0.035586249624192066], [-0.0020453090741660305, 0.01180662526751207, 0.00419003226998518, 0.028656713602567725, 0.02309641903260855], [0.02108472638673386, -0.032499057868660884, -0.04230984782406473, 0.022396280698846405, 0.023785854386087532], [-0.007740774857960937, 0.04530789973712275, 0.006749098874221398, -0.026788574824749105, -0.009555710726404145], [0.04305467900467568, 0.0076471917925067115, -0.0016882530647829301, 0.009290178197968247, -0.038814871199769695], [0.015208246838918206, -0.0008187505970830343, 0.05885058526292817, -0.01372078061705708, -0.0048066053055294215], [-0.01919324292801211, 0.09574403540863699, 0.0016218509135901087, 0.027534558867429754, -0.02624419060541948], [-0.009329514065141582, 0.14043128724110016, 0.020707877981172976, 0.13412919885974517, 0.017491744425908246], [0.05247732508282675, 0.10811069087150176, 0.16163973351778055, 0.0751499503911782, -0.008579191936213173], [-0.024097626093896613, 0.09897412324027871, 0.05819749345975569, 0.045436114962276064, -0.027844404227205133], [0.015135378874101863, 0.00723140788457404, 0.03444645355815136, -0.004940896343075661, 0.06690145422421753], [-0.07845493298389397, 0.012306060888772839, 0.04483563079180375, -0.032477649500044524, 0.12611085493945634], [-0.059922492763792426, -0.013871160218613527, 0.014811119219077695, -0.08543498380210114, 0.06115140546782127], [0.006200635091362407, 0.04498327685739109, 0.029454380150430542, 0.04539484641862745, 0.06028752878113326], [-0.006101625764909947, -0.030709854829235012, -0.010917932843490323, -0.0019265776482882023, 0.02779126610573906], [0.05301112096502659, -0.032610163281007985, 0.020430167122585566, 0.031889338940780866, 0.017439487833780926], [-0.01560707979367838, 0.008012799793374513, -0.04249995708897696, 0.06540052305988402, 0.004976810563576716], [0.05086171986414855, 0.03325879376688035, -0.06515876134405141, 0.10470035757592322, -0.004236180503017086], [0.061627819260400854, 0.0478774534142721, -0.06344846845574871, 0.024219268587209696, -0.04342750836829571], [0.04196244748950674, 0.04048742044499608, 0.0319020176784161, -0.04038884211601452, -0.03901163227633531], [0.061855954288137796, 0.06367788379272624, 0.032027324561250604, 0.09846292943872983, -0.01343857434579174], [-0.008941287022476851, -0.054991453375566615, 0.0008509407391469373, 0.05153238781940807, -0.012007247975972439], [-0.005257127469645973, 0.005938034207061052, 0.00219744834862732, 0.010809563346024646, 0.03683892610211716], [-0.0117278155554231, 0.031846269592735746, 0.05574995752513074, -0.013605594028271766, -0.03482800801882149], [-0.049052810542964155, 0.014683377173238218, -0.03521168660167911, 0.050487540839192394, -0.010929597982520783], [0.005708150126021945, 0.0018744987195632556, 0.053724763537037805, 0.013448146955461832, -0.008221423181388996], [0.029946757810721553, 0.015746566225085596, -0.060774278997234796, 0.015271743395243134, -0.01511870271831986], [-0.006755908810602608, -0.04033151774338466, -0.00748285626293731, -0.036857172723222024, 0.0064972569719019034], [-0.010544312972307032, 0.08494140422387479, -0.0317061708941057, 0.04116394285209541, -0.025436867287812366], [0.03436298822145377, 0.011262878957675975, 0.014313921040057024, -0.017723219926661152, 0.0005142892452452583], [-0.01614738560525797, 0.01052878567707798, -0.017916206732581832, -0.021204942535488668, 0.02208086271537075], [-0.03447319562909083, 0.05794826522096098, 0.01159972725978184, 0.02058085637717055, 0.00171789069508151], [-0.0305401417526922, 0.08284947866432987, 0.0010985085961389015, 0.060003334370731826, 0.01347526287360619], [0.023288156905859766, 0.047637673925481905, 0.004200561126449318, 0.026623940336022115, 0.01025329299238875], [0.0850614313808681, 0.05340351045271891, 0.08529561485025275, 0.07243022268848129, 0.007841128196166839], [0.05043369288613338, 0.09426360428900192, 0.053107353508764145, 0.08793941942688208, -0.010178193143483262], [0.07112963985859166, 0.0155796075253141, 0.08648434574802186, 0.02976309213547115, -0.07028267078278573], [-0.043295983598095375, 0.07621071841863053, 0.07384148909555414, 0.01857084600998845, 0.028869191066405543], [-0.050568565815648774, 0.02985418093688756, 0.023769374340440224, 0.006489363431988493, 0.05694263161957415], [-0.04413940063058249, 0.006179206568280084, 0.02889722550846707, -0.07865510027585407, 0.10982190885826865], [-0.012318000349234104, 0.007189537556366562, 0.04782242486235382, 0.014275033135396815, 0.09131974081075707], [0.041885790232839094, 0.039041685293390145, 0.007336995190657234, 0.02659766185918908, 0.06055855816865979], [-0.0826587565552265, -0.007193457512217144, 0.009612495135073765, 0.03049974166432148, 0.07435798847115326], [0.030562003309618162, 0.00837839499143112, -0.03675033320441485, 0.01273562032888104, 0.029835347797137646], [-0.019967663202930797, -0.030795812968880662, -0.06295551771407186, 0.047119743846719325, 0.01926429160108832], [0.05257619963714005, 0.009063402173594788, -0.06839862739648532, 0.05389354135074963, -0.003746843065109278], [0.029823581205662898, 0.05060455333744048, 0.04560920099345431, 0.029419606890839917, -0.05763304149894917], [0.018108932274653457, 0.03721588058096912, -0.0995043558993888, 0.13337113226982317, -0.05592662156037237], [0.025902319012336965, -0.011997976860907736, -0.05570654169918762, 0.017809458379766573, -0.02669408459227359], [0.05794425647828678, -0.010146731959075277, -0.0204678890040333, 0.009331496474057902, 0.023707585708013505], [0.00238213525560951, 0.0265038434902052, -0.0016717724107925705, 0.006289772102946029, -0.012107385316644181], [0.10932361216656243, 0.0372284449616621, 0.021600771295981192, -0.002881039244113333, 0.04243470767485854], [0.007728751591806352, 0.03716992818701702, 0.03395791419819963, 0.10913871902750476, 0.08604589670215722], [-0.08546704630247884, 0.002330604695903478, -0.036918107441912054, -0.011583022020272175, 0.08368258326217255], [0.042223770215365865, -0.041158848729345554, 0.008823341506817803, 0.006230134506747133, 0.024197446998040714], [-0.03210055894372236, 0.04447617129552778, 0.02052539609002337, -0.005398832490901007, -0.03470563003763865], [-0.05051198116125164, 0.018453220908884075, 0.034310095225066305, 0.010802118475615618, 0.07877349669721173], [0.07334683232004963, -0.014425943661176206, -0.0008509646493414441, -0.027951097670243855, 0.043763763717166976], [0.029116032935857513, 0.047169092558218724, 0.03273782320176237, 0.03965281486980661, -0.02271644281097568], [-0.012870979493748066, 0.03309718687742443, 0.04272320769593493, 0.0637800811167423, -0.01294468281976719], [-0.01534755740467385, 0.06094947632797143, 0.0096359636276542, 0.008653696694500246, 0.0005116217299810096], [0.04929648337451669, 0.00549568664157437, 0.07317367904824339, 0.05399759171620668, -0.004015096373550972], [0.06187338078783942, 0.09523015316546196, 0.024317152761179735, 0.0659049700472936, 0.011546436695795964], [0.08845488608880879, 0.001590394699587314, 0.07551499519719092, 0.06381858468530802, -0.017647087619063334], [0.10474958201032764, 0.06787005043004596, 0.04575604980039833, 0.09961840316368903, -0.021527384411502443], [0.05506094195049702, 0.07583880893120584, 0.0064914295191615835, 0.11128062083830673, 0.014652914023416624], [-0.059154912846751666, 0.04662492399952357, 0.007854532972421188, -0.007975697477053829, 0.11717909213812426], [-0.05414005196928658, 0.007697442085772959, 0.07993631825268012, 0.018436914574952102, 0.04686601013313118], [-0.03213279109151783, -0.03183098200003359, 0.023058848307857975, 0.06334123514497882, 0.09025636113335977], [0.003262469694765966, 0.01984652560839256, 0.016595693593985727, 0.04311395428390244, 0.03942657604662879], [0.053354292988267146, 0.010347340750287674, -0.00912630072861286, 0.024934239752149243, -0.03665545051160115], [-0.01988091619985824, -0.03699969946861587, -0.03419405702068827, -0.03354029861057203, -0.06458909427423541], [0.03947855348568908, 0.04577999279535437, -0.028157221953603637, 0.018924274365784335, 0.0902390612221125], [0.014452095366008536, 0.011316986358632335, -0.020252373266260584, 0.07023271434544115, -0.07257947131285462], [0.031224512377130212, -0.008058190653234943, 0.038627733755334036, -0.02866111756076484, -0.015487116444953064], [0.03982174756205172, -0.01704970895586354, -0.013640669476701818, 0.06835310531534082, -0.013232680423341848], [0.010254547305853226, 0.009044250007566113, 0.02822855607490696, -0.0013631481621794194, -0.005636579177518027], [0.02929258773244969, 0.04327162524776182, -0.04218482505925652, -0.0037576164725960015, 0.03144475856998212], [-0.006474327091504581, -0.014662557118967271, 0.014976550540140672, 0.03813155672033175, 0.01988929887467729], [0.017842433361229065, -0.013433349274502786, 0.019586332224363196, -0.013688013783610467, 0.006091455058545798], [-0.04055204193551662, -0.016433355541901645, -0.024018500735012622, 0.054895444758902116, -0.000854370794968847], [0.03147958920838963, -0.050590890048089435, -0.025164825142567727, 0.06853453317198943, 0.0043957743766613], [0.021365185637465218, -0.027407773025745454, 0.03031721631352505, 0.07599589524520833, 0.018193778565741052], [-0.0037502318232580482, -0.026850663806501748, -0.08724211954807089, 0.031001172173523796, 0.0038923345809170735], [0.02598221905788517, 0.022739839239606385, -0.0020058267525498523, -0.028796410482128183, 0.012689694943961074], [0.004495189028661745, -0.01636185858662352, -0.002294273411908911, -0.019124251943624836, 0.054104794741031234], [-0.01402665027934252, 0.02247908469774667, 0.0649502366623775, 0.0065597139815824655, 0.019263665572947383], [-0.07109079331788253, -0.01074581042327684, 0.03210513925452843, -0.025383686152119726, 0.001179153801541263], [0.019572777107294142, 0.06467387708177778, 0.032504636932565986, -0.01708984004578204, 0.058949438437614424], [-0.024381799129005965, 0.047812005718337956, 0.0975095376975982, 0.037672417270482976, 0.030064845240624638], [0.05547358625557613, 0.0695283160522005, 0.08625677206890583, 0.03682030860567523, -0.01269460303042427], [-0.01475983857699717, 0.05629750914888619, 0.08377573030724685, 0.0754813397262787, -0.03557948774401254], [0.08709759579945539, 0.06333633483100704, 0.047106224940108764, 0.11102193237496889, -0.022279895328534204], [0.015485802187276573, 0.035572852403071085, 0.04282716490954309, 0.026823827684065753, 0.01879549174218332], [0.005872204887198873, -0.02605875033981686, 0.11128629683473466, 0.0556161503427633, -0.007540499814398868], [0.034995619953307654, -0.005021479114340268, -0.041810746591260675, -0.05622521950071363, 0.10702809268880024], [-0.02144820112454191, -0.005983630045605812, 0.002979921676826681, -0.004215682613194992, 0.07093316821474722], [0.08864475531002367, 0.0008935544712166826, -0.02116838696980119, -0.008515668508890855, -0.0048873753358234925], [0.017906664320863196, 0.023276321425862515, -0.018523164463612546, 0.058840898666927606, 0.05394498554948287], [0.06002666115993087, 0.022908891478875603, 0.017311537120025103, 0.08070788402091833, 0.013853888562630359], [0.04311682941060868, 0.015564758097887309, 0.060431178602045416, 0.0457842154067569, 0.027330172965427973], [0.009700539757796, 0.06737187656058279, 0.030473009152521553, 0.03377627081546024, -0.02359445765650621], [0.03445541498952913, 0.04518537015914051, 0.02549652106305236, 0.04081137890951213, 0.012412863159883323], [-0.034085175212519525, -0.027628511870204885, 0.03664772275077928, -0.02502458721775049, -0.03553358104859791], [0.04399559762718527, -0.02059454355880503, -0.018216993386199053, -0.02863310320059165, 0.0314440777478838], [-0.05005274485259366, 0.0385491741765631, 0.0216851987478153, 0.003985174559503353, 0.01567382608362963], [-0.01580288039617649, -0.010160998556542292, -0.015961765663030775, -0.017907520750061395, -0.022036743118084914], [0.039565047866231995, 0.05630525851862428, -0.057455655106117415, -0.025490818763128184, -0.016865644691203625], [-0.0024540918480203365, -0.06507080908568878, 0.012938665272190782, 0.007495072986019959, 0.004233743181389538], [0.04822261758761309, 0.011174714001665979, -0.045049150159534875, 0.013460467913522584, -0.060947381707636306], [0.00114454693873842, -0.027535014707226763, -0.03254869667454232, -0.0167980182590858, 0.015683291841882746], [-0.05045260779142686, 0.02198855024446643, 0.013313339807855946, -0.027966160424440962, -0.010649683260236768], [0.020575170657363334, -0.025476868216405053, -0.07430126955810203, 0.015115604849168587, -0.014226591477005782], [-0.050531058915109235, 0.022203758041123817, -0.02451984937645376, 0.0011911088637814823, 0.006352204784236603], [-0.025823302670152055, 0.07664414613704981, -0.013682578382002835, -0.00144554448053279, 0.02342999994791889], [0.042122529479048945, 0.007726787398056951, 0.006298895502131812, -0.019595539297842992, -0.026203416332921548], [-0.014194431781944593, -0.046042098214734796, -0.003660447436739329, -0.017560466240768145, 0.010848544005648308], [-0.04533281672670096, 0.031174709851649843, 0.026225089138058686, -0.0244399453376678, 0.09372526282489481], [-0.003223172820077743, 0.007771747293042079, 0.0836861232603544, -0.016029594822701183, 0.1028243324730799], [-0.0013952130054947548, 0.03173239461323991, 0.044110492730227456, -0.12274603294012654, 0.001883245769326454], [0.04893326219850835, 0.06351237521151143, 0.008256248379275275, -0.0015641360463179578, 0.054961944584947534], [0.04386421025816572, -0.0360144484961525, -0.024697416712348725, 0.006656135695050696, -0.015861837069965034], [0.05485845283810723, -0.034396093439444324, -0.021571404290147485, 0.08703497716867101, 0.09303783529680573], [0.0306925992350886, -0.004674319124030581, -0.008885935598785373, 0.10475289484375004, 0.0434520462282898], [0.08763228686170979, -0.04552334911769355, -0.07220401842597239, 0.02142184349985654, 0.09111402686326144], [0.0711130754422399, -0.017573093994963228, 0.030248853072818774, 0.04648131198178387, 0.06589240564229286], [0.017056304271776086, 0.012545440930306694, 0.032586460225476135, -0.013242246989805058, 0.13322556371877345], [0.009726492552915232, 0.02642957481725997, 0.02036274430926143, 0.08672147916434739, 0.10122443362015576], [0.0044721969573517095, -0.018950783187635607, 0.004600707873992437, 0.024306316081764277, 0.049023026716498545], [0.002482391913192275, -0.0018430149807348681, 0.09350894448599062, 0.02841486675159742, 0.0955096246389195], [-0.007255691141974464, -0.0031033650694753602, -0.009018743250513292, -0.06694279757889608, -0.02712559883541862], [-0.03537689090151053, 0.00980241296571087, 0.0023597041618572917, -0.05688236988814222, 0.01964770602373722], [0.010397992264415653, 0.02285275498099967, -0.1320076348153658, -0.026833216746154083, 0.07221145232166078], [-0.025335463081451213, -0.06869756453375057, 0.0017990974539245366, -0.025344246799744147, 0.03948287461137618], [-0.0003778406232736597, 0.008447291125384315, -0.017226568070749466, -0.03741247554607012, -0.028321895355938757], [-0.02778641736941154, -0.005630481690113359, -0.014189871001675592, 0.003079704556709429, 0.029791655921017384], [-0.01143329112655927, 0.015133198772850466, 0.03813320575225023, -0.01161259913141324, 0.032855819288267786], [-0.050085058872437076, -0.004428274035827315, -0.0772458895402264, 0.021946352527350162, -0.021103724387384084], [0.03319249770109054, -0.05059071022909394, 0.09582692415265856, 0.0313760985441963, -0.017583930641958394], [0.002862970850558511, 0.04799447206426385, -0.011733089335024312, -0.0045265466373407125, -0.0422393267915165], [0.03533651529407502, -0.0299581947953571, -0.04798207367960726, -0.016107761908521458, -0.023923783726159612], [0.03905292151616545, -0.01770627671248875, -0.04347129150488781, -0.028966148281080118, 0.02497096467687518], [0.010236474677718804, -0.047865320557675145, -0.013443200615595572, 0.0643076143797531, 0.02584746875541174], [0.0541067433527071, 0.00945318718251215, 0.00022628232914226378, 0.02398693512154363, 0.03583370549055673], [-0.022428651262489916, 0.0050099321342899515, -0.06954875580415028, -0.06974984063586424, -0.013607588113559761], [-0.05067603171141906, 0.07219680456573127, 0.012346639151490629, -0.05589296628118613, 0.035565123262691185], [-0.10988235065402817, -0.016873427154051393, 0.031274091545961086, -0.03168154860692697, 0.07232204944038578], [-0.022327701455515016, 0.07820979591666358, 0.06693911607841124, 0.03633720000738979, 0.0799301459433777], [0.03213640280526978, 0.027231928141413536, 0.04693847217335515, -0.012477227615656167, 0.01621070917563436], [0.041027323094123776, 0.058151238246777565, 0.046815611324596926, 0.03563945066701001, 0.10496106259710483], [0.05634004480194306, 0.0812880829116443, -0.0004715981019382293, 0.04583859628671746, 0.04435299946873184], [0.028280132992377548, -0.017844167307030336, -0.035499486048833795, 0.061030133771063935, -0.03071492057886578], [0.09795913824876937, 0.05814885654772516, -0.006839459429821193, -0.033490513301129995, 0.06873381319226012], [-0.004857511812991545, -0.0030639608269179257, -0.0029562772352195745, 0.07084617891975575, 0.03263711742814611], [0.09116800091915143, 0.039042435879102964, -0.009191699536024651, -0.005806714561959036, 0.016097682747165904], [-0.04693547976927462, 0.011920449726567618, -0.04544658829521514, -0.005192377922338334, 0.061904486192781584], [-0.0390956411316568, 0.10333107678061361, 0.08304758170017093, -0.011782173889983216, 0.036572563131423], [-0.015249354166144235, 0.044982029703962124, 0.02285625092547411, -0.001625603065355546, 0.05209544189932608], [0.08493050713164012, -0.014451982249041923, 0.03361335388963126, -0.03958264262712392, 0.05883001878964281], [0.0032849865930636908, 0.03654609032520031, 0.00680115858524796, 0.011913609674613046, 0.009081270112593347], [0.02705502003978276, -0.013329118719915071, -0.01528207680159016, 0.07102717900975965, -0.001658216862718803], [0.06129881825889241, 0.04666451261903055, 0.08024755136925145, -0.07128040589913906, -0.008243993907564827], [0.0024697374104126106, -0.04408604467361394, 0.004870740840005568, -0.0054373891122473424, 0.06436169281764016], [-0.04109087863933491, -0.06864233586855409, -0.022286297844278557, 0.029046924498212758, -0.04367278956167582], [-0.05543158914423741, 0.010493771686933906, 0.0037522368065093284, 0.026638697579689345, -0.012000170756997167], [0.027929747068762584, -0.017288227282078388, -0.05456365566963848, -0.06764585835980941, -0.031803515265183845]], [[-0.20075911056063642, -0.17306083495810254, 0.20156765616374614, -0.025239040406801295, 0.6993289846247938], [0.14836083176265202, -0.4869901373941577, 0.951444472433755, 1.1773265179596308, 0.15597234376537447], [-0.2845153022443717, 0.28383618623552476, 0.8701736163494195, -0.8418470602169009, -0.9162416432414162], [-0.16652649954601126, -0.16618148801740407, 0.58512414816423, -0.14788198928188684, 1.0176565061271112], [0.4240008960157361, 0.8969858011310781, 0.015705690473463336, -0.5692723300833163, -0.8295358261904904]], [[0.2763767999979668, 0.7351311275741051, -0.34856886687812083], [-0.6972472545492526, 0.6205858066632209, -0.7012449294579373], [-0.3373063492281351, -0.7866446812670608, 0.528042037047497], [-0.192326388316991, -0.21107150585920237, -0.41919626895527606], [0.8675640317499591, -0.18522227998887045, -0.8186333893182218]]], "biases": [[[0.026422324395812272, -0.007956601017989897, -0.0434760016317601, 0.028123258332123018, 0.15803071648418882]], [[0.2055703305999716, 0.44329035452429727, -0.1717806623955375, 0.019604264964742796, 0.11843203525536976]], [[-0.4949273867946438, 0.8269355331259532, -0.3320081463313128]]]}